%YAML:1.0
---
opencv_ml_svm:
   format: 3
   svmType: C_SVC
   kernel:
      type: LINEAR
   C: 1.
   term_criteria: { iterations:100 }
   var_count: 507
   class_count: 2
   class_labels: !!opencv-matrix
      rows: 2
      cols: 1
      dt: i
      data: [ -1, 1 ]
   sv_total: 1
   support_vectors:
      - [ 3.26400986e-08, 3.26400986e-08, 3.26400986e-08,
          -4.46400554e-06, -4.46400554e-06, -4.46400554e-06,
          -9.67541855e-05, -9.67541855e-05, -9.67541855e-05,
          -2.61243786e-05, -2.61243786e-05, -2.61243786e-05,
          4.06794570e-05, 4.06794570e-05, 4.06794570e-05, 4.39881624e-05,
          4.39881624e-05, 4.39881624e-05, 6.19315251e-05, 6.19315251e-05,
          6.19315251e-05, 4.39881624e-05, 4.39881624e-05, 4.39881624e-05,
          4.06794570e-05, 4.06794570e-05, 4.06794570e-05, 3.74169213e-05,
          3.74169213e-05, 3.74169213e-05, -5.17277986e-05,
          -5.17277986e-05, -5.17277986e-05, -9.14846314e-05,
          -9.14846314e-05, -9.14846314e-05, -1.94257882e-05,
          -1.94257882e-05, -1.94257882e-05, -1.25343387e-04,
          -1.25343387e-04, -1.25343387e-04, -1.80817937e-04,
          -1.80817937e-04, -1.80817937e-04, -7.90582053e-05,
          -7.90582053e-05, -7.90582053e-05, -4.73492073e-05,
          -4.73492073e-05, -4.73492073e-05, -3.78410587e-05,
          -3.78410587e-05, -3.78410587e-05, -3.78410587e-05,
          -3.78410587e-05, -3.78410587e-05, -1.35254741e-05,
          -1.35254741e-05, -1.35254741e-05, -1.35254741e-05,
          -1.35254741e-05, -1.35254741e-05, -1.34822621e-05,
          -1.34822621e-05, -1.34822621e-05, -1.28988950e-05,
          -1.28988950e-05, -1.28988950e-05, -1.56421866e-05,
          -1.56421866e-05, -1.56421866e-05, 3.23689642e-06,
          3.23689642e-06, 3.23689642e-06, 5.53360542e-06, 5.53360542e-06,
          5.53360542e-06, -5.50148543e-05, -5.50148543e-05,
          -5.50148543e-05, -6.83468825e-05, -6.83468825e-05,
          -6.83468825e-05, -4.72266875e-05, -4.72266875e-05,
          -4.72266875e-05, -4.30027358e-05, -4.30027358e-05,
          -4.30027358e-05, 3.57028398e-07, 3.57028398e-07,
          3.57028398e-07, -4.18847776e-05, -4.18847776e-05,
          -4.18847776e-05, -6.34023454e-05, -6.34023454e-05,
          -6.34023454e-05, -4.34228605e-05, -4.34228605e-05,
          -4.34228605e-05, -5.57165222e-05, -5.57165222e-05,
          -5.57165222e-05, -9.94841776e-06, -9.94841776e-06,
          -9.94841776e-06, 5.77854444e-05, 5.77854444e-05,
          5.77854444e-05, 8.80185398e-05, 8.80185398e-05, 8.80185398e-05,
          1.04674560e-04, 1.04674560e-04, 1.04674560e-04,
          -4.60891570e-05, -4.60891570e-05, -4.60891570e-05,
          -6.86496787e-05, -6.86496787e-05, -6.86496787e-05,
          -6.11414653e-05, -6.11414653e-05, -6.11414653e-05,
          -6.21059444e-05, -6.21059444e-05, -6.21059444e-05,
          6.99792217e-05, 6.99792217e-05, 6.99792217e-05, 1.98769885e-05,
          1.98769885e-05, 1.98769885e-05, 2.32240836e-05, 2.32240836e-05,
          2.32240836e-05, 3.07210248e-05, 3.07210248e-05, 3.07210248e-05,
          3.58031466e-05, 3.58031466e-05, 3.58031466e-05, 4.16592520e-05,
          4.16592520e-05, 4.16592520e-05, 9.70788824e-05, 9.70788824e-05,
          9.70788824e-05, 1.25141480e-04, 1.25141480e-04, 1.25141480e-04,
          1.65185193e-04, 1.65185193e-04, 1.65185193e-04,
          -3.08827657e-05, -3.08827657e-05, -3.08827657e-05,
          -5.34432911e-05, -5.34432911e-05, -5.34432911e-05,
          -4.59350777e-05, -4.59350777e-05, -4.59350777e-05,
          -1.11338304e-04, -1.11338304e-04, -1.11338304e-04,
          2.39688125e-05, 2.39688125e-05, 2.39688125e-05, 3.50833798e-05,
          3.50833798e-05, 3.50833798e-05, 3.84304767e-05, 3.84304767e-05,
          3.84304767e-05, 4.59274161e-05, 4.59274161e-05, 4.59274161e-05,
          5.10095379e-05, 5.10095379e-05, 5.10095379e-05, 5.68656433e-05,
          5.68656433e-05, 5.68656433e-05, 6.14774617e-05, 6.14774617e-05,
          6.14774617e-05, 8.07138640e-05, 8.07138640e-05, 8.07138640e-05,
          9.52316695e-05, 9.52316695e-05, 9.52316695e-05,
          -1.02763388e-05, -1.02763388e-05, -1.02763388e-05,
          -2.58306773e-05, -2.58306773e-05, -2.58306773e-05,
          -4.59350777e-05, -4.59350777e-05, -4.59350777e-05,
          -4.59350777e-05, -4.59350777e-05, -4.59350777e-05,
          -8.80944208e-05, -8.80944208e-05, -8.80944208e-05,
          -1.34896880e-04, -1.34896880e-04, -1.34896880e-04,
          -1.38001997e-04, -1.38001997e-04, -1.38001997e-04,
          -9.76028823e-05, -9.76028823e-05, -9.76028823e-05,
          -9.58777237e-05, -9.58777237e-05, -9.58777237e-05,
          2.51211513e-05, 2.51211513e-05, 2.51211513e-05, 6.08884257e-05,
          6.08884257e-05, 6.08884257e-05, 6.60444784e-05, 6.60444784e-05,
          6.60444784e-05, 8.72687815e-05, 8.72687815e-05, 8.72687815e-05,
          1.04140978e-04, 1.04140978e-04, 1.04140978e-04, 5.75366576e-05,
          5.75366576e-05, 5.75366576e-05, 3.37231977e-05, 3.37231977e-05,
          3.37231977e-05, 1.03646607e-05, 1.03646607e-05, 1.03646607e-05,
          2.12208988e-06, 2.12208988e-06, 2.12208988e-06,
          -8.67041672e-05, -8.67041672e-05, -8.67041672e-05,
          -7.16811337e-05, -7.16811337e-05, -7.16811337e-05,
          -6.42790910e-05, -6.42790910e-05, -6.42790910e-05,
          -5.96290920e-05, -5.96290920e-05, -5.96290920e-05,
          -4.73244327e-05, -4.73244327e-05, -4.73244327e-05,
          -4.09485037e-05, -4.09485037e-05, -4.09485037e-05,
          5.74220358e-05, 5.74220358e-05, 5.74220358e-05, 4.93919906e-05,
          4.93919906e-05, 4.93919906e-05, 9.09000373e-05, 9.09000373e-05,
          9.09000373e-05, 1.49116720e-04, 1.49116720e-04, 1.49116720e-04,
          1.56624927e-04, 1.56624927e-04, 1.56624927e-04, 1.48343621e-04,
          1.48343621e-04, 1.48343621e-04, 7.19698146e-05, 7.19698146e-05,
          7.19698146e-05, 2.06736022e-05, 2.06736022e-05, 2.06736022e-05,
          3.34431411e-06, 3.34431411e-06, 3.34431411e-06,
          -1.54371010e-05, -1.54371010e-05, -1.54371010e-05,
          -8.04950178e-05, -8.04950178e-05, -8.04950178e-05,
          -1.08594295e-05, -1.08594295e-05, -1.08594295e-05,
          -3.41308296e-05, -3.41308296e-05, -3.41308296e-05,
          -3.72144787e-05, -3.72144787e-05, -3.72144787e-05,
          -5.87928225e-05, -5.87928225e-05, -5.87928225e-05,
          9.09000373e-05, 9.09000373e-05, 9.09000373e-05, 1.49116720e-04,
          1.49116720e-04, 1.49116720e-04, 1.57044400e-04, 1.57044400e-04,
          1.57044400e-04, 9.03896726e-05, 9.03896726e-05, 9.03896726e-05,
          8.50450888e-05, 8.50450888e-05, 8.50450888e-05, 4.03055528e-05,
          4.03055528e-05, 4.03055528e-05, 4.77075955e-05, 4.77075955e-05,
          4.77075955e-05, 5.52045349e-05, 5.52045349e-05, 5.52045349e-05,
          4.98450026e-05, 4.98450026e-05, 4.98450026e-05, 1.05960044e-06,
          1.05960044e-06, 1.05960044e-06, 2.68847089e-07, 2.68847089e-07,
          2.68847089e-07, -3.05001777e-05, -3.05001777e-05,
          -3.05001777e-05, -4.81208845e-05, -4.81208845e-05,
          -4.81208845e-05, 5.09814490e-05, 5.09814490e-05,
          5.09814490e-05, 1.16189411e-04, 1.16189411e-04, 1.16189411e-04,
          1.33904905e-04, 1.33904905e-04, 1.33904905e-04, 7.07498548e-05,
          7.07498548e-05, 7.07498548e-05, 8.47162082e-05, 8.47162082e-05,
          8.47162082e-05, 2.57636802e-05, 2.57636802e-05, 2.57636802e-05,
          3.12081611e-05, 3.12081611e-05, 3.12081611e-05, 3.87051005e-05,
          3.87051005e-05, 3.87051005e-05, 3.84223349e-05, 3.84223349e-05,
          3.84223349e-05, -1.82627700e-05, -1.82627700e-05,
          -1.82627700e-05, 2.11879888e-05, 2.11879888e-05,
          2.11879888e-05, -5.29852368e-05, -5.29852368e-05,
          -5.29852368e-05, -7.28700325e-05, -7.28700325e-05,
          -7.28700325e-05, -7.17585863e-05, -7.17585863e-05,
          -7.17585863e-05, -3.50485752e-05, -3.50485752e-05,
          -3.50485752e-05, -9.02211104e-06, -9.02211104e-06,
          -9.02211104e-06, -4.52640279e-06, -4.52640279e-06,
          -4.52640279e-06, 5.15677639e-05, 5.15677639e-05,
          5.15677639e-05, 3.65419764e-05, 3.65419764e-05, 3.65419764e-05,
          3.98890734e-05, 3.98890734e-05, 3.98890734e-05, 4.73860127e-05,
          4.73860127e-05, 4.73860127e-05, 5.23817107e-05, 5.23817107e-05,
          5.23817107e-05, 4.23164238e-05, 4.23164238e-05, 4.23164238e-05,
          -9.40839345e-06, -9.40839345e-06, -9.40839345e-06,
          -3.34851393e-05, -3.34851393e-05, -3.34851393e-05,
          -4.64915975e-05, -4.64915975e-05, -4.64915975e-05,
          -7.69250164e-06, -7.69250164e-06, -7.69250164e-06,
          -5.97355793e-05, -5.97355793e-05, -5.97355793e-05,
          -2.21452610e-05, -2.21452610e-05, -2.21452610e-05,
          -5.05844446e-06, -5.05844446e-06, -5.05844446e-06,
          2.34339313e-05, 2.34339313e-05, 2.34339313e-05, 4.89242775e-05,
          4.89242775e-05, 4.89242775e-05, 4.48693318e-05, 4.48693318e-05,
          4.48693318e-05, -2.01534058e-05, -2.01534058e-05,
          -2.01534058e-05, 2.89405853e-05, 2.89405853e-05,
          2.89405853e-05, 2.95239533e-05, 2.95239533e-05, 2.95239533e-05,
          6.16541638e-06, 6.16541638e-06, 6.16541638e-06,
          -2.63611873e-05, -2.63611873e-05, -2.63611873e-05,
          -1.16567780e-05, -1.16567780e-05, -1.16567780e-05,
          -3.02561275e-05, -3.02561275e-05, -3.02561275e-05,
          -1.35344881e-05, -1.35344881e-05, -1.35344881e-05,
          -1.51767599e-05, -1.51767599e-05, -1.51767599e-05,
          -2.62259546e-05, -2.62259546e-05, -2.62259546e-05,
          -6.37716812e-06, -6.37716812e-06, -6.37716812e-06,
          -3.53022938e-06, -3.53022938e-06, -3.53022938e-06,
          -3.53022938e-06, -3.53022938e-06, -3.53022938e-06,
          -3.53022938e-06, -3.53022938e-06, -3.53022938e-06,
          -3.53022938e-06, -3.53022938e-06, -3.53022938e-06,
          -3.53022938e-06, -3.53022938e-06, -3.53022938e-06,
          -5.06999413e-06, -5.06999413e-06, -5.06999413e-06,
          1.33059410e-04, 1.33059410e-04, 1.33059410e-04, 6.20491628e-05,
          6.20491628e-05, 6.20491628e-05 ]
   uncompressed_sv_total: 12
   uncompressed_support_vectors:
      - [ 78., 78., 78., 78., 78., 78., 78., 78., 78., 78., 78., 78.,
          78., 78., 78., 78., 78., 78., 78., 78., 78., 78., 78., 78.,
          78., 78., 78., 78., 78., 78., 78., 78., 78., 78., 78., 78.,
          78., 78., 78., 255., 255., 255., 255., 255., 255., 255., 255.,
          255., 255., 255., 255., 255., 255., 255., 255., 255., 255.,
          255., 255., 255., 255., 255., 255., 255., 255., 255., 255.,
          255., 255., 255., 255., 255., 255., 255., 255., 255., 255.,
          255., 255., 255., 255., 255., 255., 255., 255., 255., 255.,
          255., 255., 255., 255., 255., 255., 255., 255., 255., 255.,
          255., 255., 255., 255., 255., 255., 255., 255., 255., 255.,
          255., 255., 255., 255., 255., 255., 255., 255., 255., 255., 0.,
          0., 0., 0., 0., 0., 0., 0., 0., 0., 0., 0., 0., 0., 0., 49.,
          49., 49., 127., 127., 127., 206., 206., 206., 255., 255., 255.,
          255., 255., 255., 255., 255., 255., 255., 255., 255., 255.,
          255., 255., 0., 0., 0., 0., 0., 0., 0., 0., 0., 0., 0., 0., 0.,
          0., 0., 49., 49., 49., 127., 127., 127., 206., 206., 206.,
          255., 255., 255., 255., 255., 255., 255., 255., 255., 255.,
          255., 255., 255., 255., 255., 0., 0., 0., 0., 0., 0., 0., 0.,
          0., 0., 0., 0., 0., 0., 0., 49., 49., 49., 127., 127., 127.,
          206., 206., 206., 255., 255., 255., 255., 255., 255., 255.,
          255., 255., 255., 255., 255., 255., 255., 255., 0., 0., 0., 0.,
          0., 0., 0., 0., 0., 0., 0., 0., 0., 0., 0., 49., 49., 49.,
          128., 128., 128., 206., 206., 206., 255., 255., 255., 255.,
          255., 255., 255., 255., 255., 255., 255., 255., 255., 255.,
          255., 0., 0., 0., 0., 0., 0., 0., 0., 0., 0., 0., 0., 0., 0.,
          0., 49., 49., 49., 127., 127., 127., 206., 206., 206., 255.,
          255., 255., 255., 255., 255., 255., 255., 255., 255., 255.,
          255., 255., 255., 255., 0., 0., 0., 0., 0., 0., 0., 0., 0., 0.,
          0., 0., 0., 0., 0., 49., 49., 49., 127., 127., 127., 206.,
          206., 206., 255., 255., 255., 255., 255., 255., 255., 255.,
          255., 255., 255., 255., 255., 255., 255., 0., 0., 0., 0., 0.,
          0., 0., 0., 0., 0., 0., 0., 0., 0., 0., 49., 49., 49., 127.,
          127., 127., 206., 206., 206., 255., 255., 255., 255., 255.,
          255., 255., 255., 255., 255., 255., 255., 255., 255., 255., 0.,
          0., 0., 0., 0., 0., 0., 0., 0., 0., 0., 0., 0., 0., 0., 49.,
          49., 49., 127., 127., 127., 206., 206., 206., 255., 255., 255.,
          255., 255., 255., 255., 255., 255., 255., 255., 255., 255.,
          255., 255., 0., 0., 0., 0., 0., 0., 69., 69., 69., 147., 147.,
          147., 225., 225., 225., 255., 255., 255., 255., 255., 255.,
          255., 255., 255., 255., 255., 255., 255., 255., 255., 255.,
          255., 255., 255., 255., 255., 255., 255., 255., 0., 0., 0., 0.,
          0., 0., 68., 68., 68., 147., 147., 147., 225., 225., 225.,
          255., 255., 255., 255., 255., 255., 255., 255., 255., 255.,
          255., 255., 255., 255., 255., 255., 255., 255., 255., 255.,
          255., 255., 255., 255. ]
      - [ 0., 0., 0., 0., 0., 0., 1., 1., 1., 13., 13., 13., 20., 20.,
          20., 20., 20., 20., 20., 20., 20., 20., 20., 20., 20., 20.,
          20., 20., 20., 20., 20., 20., 20., 20., 20., 20., 20., 20.,
          20., 0., 0., 0., 25., 25., 25., 66., 66., 66., 187., 187.,
          187., 255., 255., 255., 255., 255., 255., 255., 255., 255.,
          255., 255., 255., 255., 255., 255., 255., 255., 255., 255.,
          255., 255., 255., 255., 255., 255., 255., 255., 98., 98., 98.,
          164., 164., 164., 255., 255., 255., 255., 255., 255., 228.,
          228., 228., 168., 168., 168., 157., 157., 157., 157., 157.,
          157., 157., 157., 157., 157., 157., 157., 157., 157., 157.,
          213., 213., 213., 255., 255., 255., 255., 255., 255., 255.,
          255., 255., 255., 255., 255., 255., 255., 255., 186., 186.,
          186., 29., 29., 29., 0., 0., 0., 0., 0., 0., 0., 0., 0., 0.,
          0., 0., 0., 0., 0., 147., 147., 147., 255., 255., 255., 255.,
          255., 255., 255., 255., 255., 255., 255., 255., 255., 255.,
          255., 186., 186., 186., 29., 29., 29., 0., 0., 0., 0., 0., 0.,
          0., 0., 0., 0., 0., 0., 0., 0., 0., 147., 147., 147., 255.,
          255., 255., 255., 255., 255., 255., 255., 255., 255., 255.,
          255., 255., 255., 255., 186., 186., 186., 29., 29., 29., 0.,
          0., 0., 0., 0., 0., 0., 0., 0., 0., 0., 0., 0., 0., 0., 147.,
          147., 147., 255., 255., 255., 0., 0., 0., 0., 0., 0., 0., 0.,
          0., 0., 0., 0., 0., 0., 0., 0., 0., 0., 0., 0., 0., 0., 0., 0.,
          0., 0., 0., 88., 88., 88., 255., 255., 255., 255., 255., 255.,
          255., 255., 255., 0., 0., 0., 0., 0., 0., 0., 0., 0., 0., 0.,
          0., 11., 11., 11., 35., 35., 35., 39., 39., 39., 39., 39., 39.,
          39., 39., 39., 114., 114., 114., 255., 255., 255., 255., 255.,
          255., 255., 255., 255., 0., 0., 0., 0., 0., 0., 3., 3., 3.,
          51., 51., 51., 126., 126., 126., 255., 255., 255., 255., 255.,
          255., 255., 255., 255., 255., 255., 255., 255., 255., 255.,
          255., 255., 255., 210., 210., 210., 177., 177., 177., 0., 0.,
          0., 50., 50., 50., 123., 123., 123., 207., 207., 207., 223.,
          223., 223., 151., 151., 151., 137., 137., 137., 137., 137.,
          137., 137., 137., 137., 137., 137., 137., 137., 137., 137.,
          58., 58., 58., 0., 0., 0., 0., 0., 0., 108., 108., 108., 255.,
          255., 255., 255., 255., 255., 186., 186., 186., 29., 29., 29.,
          0., 0., 0., 0., 0., 0., 0., 0., 0., 0., 0., 0., 0., 0., 0., 0.,
          0., 0., 0., 0., 0., 0., 0., 0., 108., 108., 108., 255., 255.,
          255., 255., 255., 255., 186., 186., 186., 29., 29., 29., 0.,
          0., 0., 0., 0., 0., 0., 0., 0., 0., 0., 0., 0., 0., 0., 0., 0.,
          0., 0., 0., 0., 0., 0., 0., 108., 108., 108., 255., 255., 255.,
          255., 255., 255., 255., 255., 255., 255., 255., 255., 255.,
          255., 255., 255., 255., 255., 255., 255., 255., 255., 255.,
          255., 255., 255., 255., 255., 255., 255., 255., 255., 255. ]
      - [ 0., 0., 0., 0., 0., 0., 0., 0., 0., 0., 0., 0., 0., 0., 0., 0.,
          0., 0., 0., 0., 0., 0., 0., 0., 0., 0., 0., 0., 0., 0., 0., 0.,
          0., 0., 0., 0., 0., 0., 0., 0., 0., 0., 0., 0., 0., 157., 157.,
          157., 255., 255., 255., 255., 255., 255., 255., 255., 255.,
          255., 255., 255., 255., 255., 255., 255., 255., 255., 255.,
          255., 255., 161., 161., 161., 8., 8., 8., 0., 0., 0., 0., 0.,
          0., 0., 0., 0., 42., 42., 42., 155., 155., 155., 255., 255.,
          255., 255., 255., 255., 255., 255., 255., 255., 255., 255.,
          255., 255., 255., 255., 255., 255., 255., 255., 255., 255.,
          255., 255., 186., 186., 186., 0., 0., 0., 0., 0., 0., 0., 0.,
          0., 0., 0., 0., 0., 0., 0., 0., 0., 0., 0., 0., 0., 0., 0., 0.,
          0., 0., 0., 137., 137., 137., 255., 255., 255., 255., 255.,
          255., 255., 255., 255., 0., 0., 0., 0., 0., 0., 0., 0., 0., 0.,
          0., 0., 0., 0., 0., 0., 0., 0., 0., 0., 0., 0., 0., 0., 0., 0.,
          0., 137., 137., 137., 255., 255., 255., 255., 255., 255., 255.,
          255., 255., 0., 0., 0., 0., 0., 0., 0., 0., 0., 0., 0., 0., 0.,
          0., 0., 32., 32., 32., 206., 206., 206., 206., 206., 206.,
          206., 206., 206., 255., 255., 255., 255., 255., 255., 207.,
          207., 207., 49., 49., 49., 0., 0., 0., 0., 0., 0., 0., 0., 0.,
          0., 0., 0., 0., 0., 0., 39., 39., 39., 255., 255., 255., 255.,
          255., 255., 255., 255., 255., 255., 255., 255., 255., 255.,
          255., 196., 196., 196., 0., 0., 0., 0., 0., 0., 0., 0., 0., 0.,
          0., 0., 0., 0., 0., 0., 0., 0., 0., 0., 0., 0., 0., 0., 0., 0.,
          0., 143., 143., 143., 255., 255., 255., 255., 255., 255., 255.,
          255., 255., 255., 255., 255., 0., 0., 0., 0., 0., 0., 0., 0.,
          0., 0., 0., 0., 0., 0., 0., 0., 0., 0., 0., 0., 0., 0., 0., 0.,
          0., 0., 0., 16., 16., 16., 116., 116., 116., 255., 255., 255.,
          255., 255., 255., 255., 255., 255., 255., 255., 255., 255.,
          255., 255., 255., 255., 255., 176., 176., 176., 0., 0., 0., 0.,
          0., 0., 0., 0., 0., 0., 0., 0., 0., 0., 0., 98., 98., 98.,
          255., 255., 255., 255., 255., 255., 186., 186., 186., 255.,
          255., 255., 255., 255., 255., 255., 255., 255., 198., 198.,
          198., 69., 69., 69., 69., 69., 69., 69., 69., 69., 69., 69.,
          69., 69., 69., 69., 140., 140., 140., 255., 255., 255., 255.,
          255., 255., 0., 0., 0., 8., 8., 8., 161., 161., 161., 255.,
          255., 255., 255., 255., 255., 255., 255., 255., 255., 255.,
          255., 255., 255., 255., 255., 255., 255., 255., 255., 255.,
          255., 255., 255., 198., 198., 198., 10., 10., 10., 0., 0., 0.,
          0., 0., 0., 0., 0., 0., 41., 41., 41., 88., 88., 88., 88., 88.,
          88., 88., 88., 88., 88., 88., 88., 88., 88., 88., 88., 88.,
          88., 54., 54., 54., 0., 0., 0., 0., 0., 0. ]
      - [ 0., 0., 0., 78., 78., 78., 216., 216., 216., 255., 255., 255.,
          255., 255., 255., 255., 255., 255., 255., 255., 255., 255.,
          255., 255., 255., 255., 255., 104., 104., 104., 8., 8., 8., 3.,
          3., 3., 0., 0., 0., 0., 0., 0., 69., 69., 69., 191., 191.,
          191., 226., 226., 226., 226., 226., 226., 226., 226., 226.,
          226., 226., 226., 226., 226., 226., 228., 228., 228., 255.,
          255., 255., 220., 220., 220., 99., 99., 99., 29., 29., 29., 0.,
          0., 0., 0., 0., 0., 0., 0., 0., 0., 0., 0., 0., 0., 0., 0., 0.,
          0., 0., 0., 0., 0., 0., 0., 20., 20., 20., 157., 157., 157.,
          255., 255., 255., 255., 255., 255., 255., 255., 255., 0., 0.,
          0., 0., 0., 0., 0., 0., 0., 0., 0., 0., 0., 0., 0., 0., 0., 0.,
          0., 0., 0., 0., 0., 0., 20., 20., 20., 157., 157., 157., 255.,
          255., 255., 255., 255., 255., 255., 255., 255., 0., 0., 0., 0.,
          0., 0., 0., 0., 0., 0., 0., 0., 0., 0., 0., 0., 0., 0., 0., 0.,
          0., 0., 0., 0., 20., 20., 20., 157., 157., 157., 255., 255.,
          255., 194., 194., 194., 167., 167., 167., 0., 0., 0., 0., 0.,
          0., 0., 0., 0., 0., 0., 0., 0., 0., 0., 50., 50., 50., 108.,
          108., 108., 108., 108., 108., 119., 119., 119., 198., 198.,
          198., 216., 216., 216., 78., 78., 78., 0., 0., 0., 0., 0., 0.,
          0., 0., 0., 0., 0., 0., 0., 0., 0., 0., 0., 0., 118., 118.,
          118., 255., 255., 255., 255., 255., 255., 255., 255., 255.,
          255., 255., 255., 255., 255., 255., 167., 167., 167., 128.,
          128., 128., 0., 0., 0., 0., 0., 0., 0., 0., 0., 0., 0., 0., 0.,
          0., 0., 50., 50., 50., 108., 108., 108., 108., 108., 108.,
          119., 119., 119., 198., 198., 198., 255., 255., 255., 255.,
          255., 255., 255., 255., 255., 0., 0., 0., 0., 0., 0., 0., 0.,
          0., 0., 0., 0., 0., 0., 0., 0., 0., 0., 0., 0., 0., 0., 0., 0.,
          20., 20., 20., 157., 157., 157., 255., 255., 255., 255., 255.,
          255., 255., 255., 255., 186., 186., 186., 186., 186., 186.,
          186., 186., 186., 115., 115., 115., 14., 14., 14., 0., 0., 0.,
          0., 0., 0., 0., 0., 0., 5., 5., 5., 42., 42., 42., 97., 97.,
          97., 198., 198., 198., 255., 255., 255., 255., 255., 255.,
          255., 255., 255., 255., 255., 255., 157., 157., 157., 20., 20.,
          20., 0., 0., 0., 0., 0., 0., 0., 0., 0., 16., 16., 16., 127.,
          127., 127., 213., 213., 213., 255., 255., 255., 255., 255.,
          255., 255., 255., 255., 255., 255., 255., 255., 255., 255.,
          255., 255., 255., 228., 228., 228., 226., 226., 226., 226.,
          226., 226., 226., 226., 226., 228., 228., 228., 255., 255.,
          255., 255., 255., 255., 255., 255., 255., 255., 255., 255.,
          10., 10., 10., 85., 85., 85., 217., 217., 217., 255., 255.,
          255., 255., 255., 255., 255., 255., 255., 255., 255., 255.,
          255., 255., 255., 255., 255., 255., 255., 255., 255., 217.,
          217., 217., 85., 85., 85., 10., 10., 10. ]
      - [ 20., 20., 20., 20., 20., 20., 20., 20., 20., 20., 20., 20.,
          20., 20., 20., 20., 20., 20., 20., 20., 20., 20., 20., 20.,
          20., 20., 20., 20., 20., 20., 20., 20., 20., 20., 20., 20.,
          20., 20., 20., 255., 255., 255., 255., 255., 255., 255., 255.,
          255., 255., 255., 255., 255., 255., 255., 255., 255., 255.,
          255., 255., 255., 255., 255., 255., 255., 255., 255., 255.,
          255., 255., 255., 255., 255., 255., 255., 255., 255., 255.,
          255., 255., 255., 255., 255., 255., 255., 255., 255., 255.,
          255., 255., 255., 198., 198., 198., 157., 157., 157., 157.,
          157., 157., 157., 157., 157., 157., 157., 157., 157., 157.,
          157., 157., 157., 157., 157., 157., 157., 157., 157., 157.,
          255., 255., 255., 255., 255., 255., 255., 255., 255., 226.,
          226., 226., 108., 108., 108., 0., 0., 0., 0., 0., 0., 0., 0.,
          0., 0., 0., 0., 0., 0., 0., 0., 0., 0., 0., 0., 0., 0., 0., 0.,
          255., 255., 255., 255., 255., 255., 255., 255., 255., 225.,
          225., 225., 108., 108., 108., 0., 0., 0., 0., 0., 0., 0., 0.,
          0., 0., 0., 0., 0., 0., 0., 0., 0., 0., 0., 0., 0., 0., 0., 0.,
          255., 255., 255., 255., 255., 255., 255., 255., 255., 255.,
          255., 255., 255., 255., 255., 216., 216., 216., 216., 216.,
          216., 216., 216., 216., 216., 216., 216., 216., 216., 216.,
          141., 141., 141., 42., 42., 42., 0., 0., 0., 0., 0., 0., 49.,
          49., 49., 167., 167., 167., 255., 255., 255., 255., 255., 255.,
          255., 255., 255., 255., 255., 255., 255., 255., 255., 255.,
          255., 255., 255., 255., 255., 255., 255., 255., 255., 255.,
          255., 255., 255., 255., 0., 0., 0., 0., 0., 0., 0., 0., 0., 0.,
          0., 0., 0., 0., 0., 8., 8., 8., 108., 108., 108., 207., 207.,
          207., 216., 216., 216., 216., 216., 216., 229., 229., 229.,
          255., 255., 255., 255., 255., 255., 0., 0., 0., 0., 0., 0., 0.,
          0., 0., 0., 0., 0., 0., 0., 0., 0., 0., 0., 0., 0., 0., 0., 0.,
          0., 0., 0., 0., 0., 0., 0., 88., 88., 88., 206., 206., 206.,
          255., 255., 255., 0., 0., 0., 0., 0., 0., 0., 0., 0., 0., 0.,
          0., 0., 0., 0., 0., 0., 0., 0., 0., 0., 0., 0., 0., 0., 0., 0.,
          0., 0., 0., 88., 88., 88., 206., 206., 206., 255., 255., 255.,
          157., 157., 157., 157., 157., 157., 157., 157., 157., 139.,
          139., 139., 66., 66., 66., 0., 0., 0., 0., 0., 0., 0., 0., 0.,
          0., 0., 0., 0., 0., 0., 88., 88., 88., 206., 206., 206., 255.,
          255., 255., 255., 255., 255., 255., 255., 255., 255., 255.,
          255., 226., 226., 226., 108., 108., 108., 0., 0., 0., 0., 0.,
          0., 0., 0., 0., 0., 0., 0., 0., 0., 0., 88., 88., 88., 206.,
          206., 206., 255., 255., 255., 255., 255., 255., 255., 255.,
          255., 255., 255., 255., 255., 255., 255., 255., 255., 255.,
          255., 255., 255., 255., 255., 255., 255., 255., 255., 255.,
          255., 255., 255., 255., 255., 255., 255., 255., 255., 255.,
          255., 255., 255., 255. ]
      - [ 0., 0., 0., 0., 0., 0., 0., 0., 0., 0., 0., 0., 0., 0., 0., 0.,
          0., 0., 0., 0., 0., 0., 0., 0., 0., 0., 0., 0., 0., 0., 0., 0.,
          0., 0., 0., 0., 0., 0., 0., 167., 167., 167., 255., 255., 255.,
          255., 255., 255., 255., 255., 255., 255., 255., 255., 255.,
          255., 255., 255., 255., 255., 255., 255., 255., 255., 255.,
          255., 255., 255., 255., 255., 255., 255., 255., 255., 255.,
          187., 187., 187., 255., 255., 255., 255., 255., 255., 255.,
          255., 255., 255., 255., 255., 255., 255., 255., 255., 255.,
          255., 255., 255., 255., 255., 255., 255., 255., 255., 255.,
          255., 255., 255., 255., 255., 255., 255., 255., 255., 221.,
          221., 221., 255., 255., 255., 255., 255., 255., 255., 255.,
          255., 255., 255., 255., 16., 16., 16., 0., 0., 0., 0., 0., 0.,
          0., 0., 0., 0., 0., 0., 0., 0., 0., 0., 0., 0., 0., 0., 0., 0.,
          0., 0., 255., 255., 255., 255., 255., 255., 255., 255., 255.,
          255., 255., 255., 0., 0., 0., 0., 0., 0., 0., 0., 0., 0., 0.,
          0., 0., 0., 0., 0., 0., 0., 0., 0., 0., 0., 0., 0., 0., 0., 0.,
          255., 255., 255., 255., 255., 255., 255., 255., 255., 255.,
          255., 255., 255., 255., 255., 255., 255., 255., 255., 255.,
          255., 255., 255., 255., 230., 230., 230., 0., 0., 0., 0., 0.,
          0., 0., 0., 0., 0., 0., 0., 0., 0., 0., 255., 255., 255., 255.,
          255., 255., 255., 255., 255., 255., 255., 255., 255., 255.,
          255., 255., 255., 255., 255., 255., 255., 255., 255., 255.,
          255., 255., 255., 255., 255., 255., 0., 0., 0., 0., 0., 0., 0.,
          0., 0., 0., 0., 0., 0., 0., 0., 23., 23., 23., 39., 39., 39.,
          39., 39., 39., 39., 39., 39., 39., 39., 39., 255., 255., 255.,
          255., 255., 255., 255., 255., 255., 255., 255., 255., 255.,
          255., 255., 0., 0., 0., 0., 0., 0., 0., 0., 0., 0., 0., 0., 0.,
          0., 0., 0., 0., 0., 0., 0., 0., 0., 0., 0., 29., 29., 29.,
          255., 255., 255., 255., 255., 255., 255., 255., 255., 255.,
          255., 255., 137., 137., 137., 137., 137., 137., 137., 137.,
          137., 137., 137., 137., 16., 16., 16., 0., 0., 0., 0., 0., 0.,
          0., 0., 0., 14., 14., 14., 255., 255., 255., 255., 255., 255.,
          255., 255., 255., 255., 255., 255., 255., 255., 255., 255.,
          255., 255., 255., 255., 255., 255., 255., 255., 29., 29., 29.,
          0., 0., 0., 0., 0., 0., 0., 0., 0., 0., 0., 0., 255., 255.,
          255., 255., 255., 255., 255., 255., 255., 255., 255., 255.,
          128., 128., 128., 255., 255., 255., 255., 255., 255., 255.,
          255., 255., 255., 255., 255., 255., 255., 255., 255., 255.,
          255., 255., 255., 255., 255., 255., 255., 255., 255., 255.,
          255., 255., 255., 255., 255., 255., 167., 167., 167., 0., 0.,
          0., 0., 0., 0., 255., 255., 255., 255., 255., 255., 255., 255.,
          255., 255., 255., 255., 255., 255., 255., 255., 255., 255.,
          255., 255., 255., 255., 255., 255., 255., 255., 255., 0., 0.,
          0., 0., 0., 0. ]
      - [ 5., 5., 5., 20., 20., 20., 255., 255., 255., 255., 255., 255.,
          255., 255., 255., 255., 255., 255., 255., 255., 255., 255.,
          255., 255., 255., 255., 255., 255., 255., 255., 255., 255.,
          255., 255., 255., 255., 59., 59., 59., 59., 59., 59., 255.,
          255., 255., 255., 255., 255., 255., 255., 255., 255., 255.,
          255., 255., 255., 255., 196., 196., 196., 196., 196., 196.,
          196., 196., 196., 196., 196., 196., 196., 196., 196., 136.,
          136., 136., 0., 0., 0., 59., 59., 59., 255., 255., 255., 255.,
          255., 255., 194., 194., 194., 0., 0., 0., 0., 0., 0., 0., 0.,
          0., 0., 0., 0., 0., 0., 0., 0., 0., 0., 0., 0., 0., 0., 0., 0.,
          0., 0., 0., 59., 59., 59., 255., 255., 255., 255., 255., 255.,
          98., 98., 98., 0., 0., 0., 0., 0., 0., 0., 0., 0., 0., 0., 0.,
          0., 0., 0., 0., 0., 0., 0., 0., 0., 0., 0., 0., 0., 0., 0.,
          59., 59., 59., 255., 255., 255., 255., 255., 255., 255., 255.,
          255., 163., 163., 163., 0., 0., 0., 0., 0., 0., 0., 0., 0., 0.,
          0., 0., 0., 0., 0., 0., 0., 0., 0., 0., 0., 0., 0., 0., 9., 9.,
          9., 188., 188., 188., 255., 255., 255., 255., 255., 255., 255.,
          255., 255., 255., 255., 255., 255., 255., 255., 255., 255.,
          255., 219., 219., 219., 133., 133., 133., 0., 0., 0., 0., 0.,
          0., 0., 0., 0., 0., 0., 0., 0., 0., 0., 0., 0., 0., 0., 0., 0.,
          20., 20., 20., 255., 255., 255., 255., 255., 255., 255., 255.,
          255., 255., 255., 255., 255., 255., 255., 255., 255., 255.,
          177., 177., 177., 0., 0., 0., 0., 0., 0., 0., 0., 0., 0., 0.,
          0., 0., 0., 0., 0., 0., 0., 0., 0., 0., 0., 0., 0., 0., 0., 0.,
          0., 0., 0., 98., 98., 98., 255., 255., 255., 255., 255., 255.,
          255., 255., 255., 0., 0., 0., 0., 0., 0., 0., 0., 0., 0., 0.,
          0., 0., 0., 0., 0., 0., 0., 0., 0., 0., 0., 0., 0., 0., 0., 0.,
          0., 0., 0., 216., 216., 216., 255., 255., 255., 255., 255.,
          255., 0., 0., 0., 0., 0., 0., 0., 0., 0., 0., 0., 0., 0., 0.,
          0., 0., 0., 0., 0., 0., 0., 0., 0., 0., 0., 0., 0., 0., 0., 0.,
          116., 116., 116., 255., 255., 255., 255., 255., 255., 179.,
          179., 179., 255., 255., 255., 255., 255., 255., 194., 194.,
          194., 0., 0., 0., 0., 0., 0., 0., 0., 0., 0., 0., 0., 0., 0.,
          0., 0., 0., 0., 216., 216., 216., 255., 255., 255., 255., 255.,
          255., 59., 59., 59., 255., 255., 255., 255., 255., 255., 255.,
          255., 255., 255., 255., 255., 196., 196., 196., 196., 196.,
          196., 196., 196., 196., 255., 255., 255., 255., 255., 255.,
          255., 255., 255., 255., 255., 255., 255., 255., 255., 0., 0.,
          0., 0., 0., 0., 56., 56., 56., 255., 255., 255., 255., 255.,
          255., 255., 255., 255., 255., 255., 255., 255., 255., 255.,
          255., 255., 255., 255., 255., 255., 255., 255., 255., 14., 14.,
          14., 0., 0., 0. ]
      - [ 0., 0., 0., 0., 0., 0., 0., 0., 0., 255., 255., 255., 255.,
          255., 255., 255., 255., 255., 255., 255., 255., 255., 255.,
          255., 255., 255., 255., 255., 255., 255., 179., 179., 179., 0.,
          0., 0., 0., 0., 0., 0., 0., 0., 227., 227., 227., 255., 255.,
          255., 255., 255., 255., 255., 255., 255., 255., 255., 255.,
          255., 255., 255., 255., 255., 255., 255., 255., 255., 255.,
          255., 255., 255., 255., 255., 255., 255., 255., 226., 226.,
          226., 88., 88., 88., 255., 255., 255., 255., 255., 255., 255.,
          255., 255., 255., 255., 255., 49., 49., 49., 49., 49., 49.,
          49., 49., 49., 49., 49., 49., 49., 49., 49., 255., 255., 255.,
          255., 255., 255., 255., 255., 255., 88., 88., 88., 255., 255.,
          255., 255., 255., 255., 255., 255., 255., 225., 225., 225., 0.,
          0., 0., 0., 0., 0., 0., 0., 0., 0., 0., 0., 0., 0., 0., 255.,
          255., 255., 255., 255., 255., 255., 255., 255., 88., 88., 88.,
          255., 255., 255., 255., 255., 255., 255., 255., 255., 226.,
          226., 226., 0., 0., 0., 0., 0., 0., 0., 0., 0., 0., 0., 0., 0.,
          0., 0., 0., 0., 0., 0., 0., 0., 0., 0., 0., 88., 88., 88.,
          255., 255., 255., 255., 255., 255., 255., 255., 255., 255.,
          255., 255., 147., 147., 147., 201., 201., 201., 255., 255.,
          255., 255., 255., 255., 255., 255., 255., 108., 108., 108., 0.,
          0., 0., 0., 0., 0., 88., 88., 88., 255., 255., 255., 255.,
          255., 255., 255., 255., 255., 255., 255., 255., 255., 255.,
          255., 255., 255., 255., 255., 255., 255., 255., 255., 255.,
          255., 255., 255., 255., 255., 255., 255., 255., 255., 44., 44.,
          44., 88., 88., 88., 255., 255., 255., 255., 255., 255., 255.,
          255., 255., 225., 225., 225., 0., 0., 0., 0., 0., 0., 0., 0.,
          0., 0., 0., 0., 147., 147., 147., 255., 255., 255., 255., 255.,
          255., 255., 255., 255., 88., 88., 88., 255., 255., 255., 255.,
          255., 255., 255., 255., 255., 226., 226., 226., 0., 0., 0., 0.,
          0., 0., 0., 0., 0., 0., 0., 0., 147., 147., 147., 255., 255.,
          255., 255., 255., 255., 255., 255., 255., 88., 88., 88., 255.,
          255., 255., 255., 255., 255., 255., 255., 255., 165., 165.,
          165., 0., 0., 0., 0., 0., 0., 0., 0., 0., 0., 0., 0., 147.,
          147., 147., 255., 255., 255., 255., 255., 255., 255., 255.,
          255., 88., 88., 88., 255., 255., 255., 255., 255., 255., 255.,
          255., 255., 0., 0., 0., 0., 0., 0., 0., 0., 0., 0., 0., 0., 0.,
          0., 0., 147., 147., 147., 255., 255., 255., 255., 255., 255.,
          255., 255., 255., 78., 78., 78., 255., 255., 255., 255., 255.,
          255., 255., 255., 255., 255., 255., 255., 255., 255., 255.,
          255., 255., 255., 255., 255., 255., 255., 255., 255., 255.,
          255., 255., 255., 255., 255., 255., 255., 255., 255., 255.,
          255., 0., 0., 0., 0., 0., 0., 179., 179., 179., 255., 255.,
          255., 255., 255., 255., 255., 255., 255., 255., 255., 255.,
          255., 255., 255., 255., 255., 255., 255., 255., 255., 255.,
          255., 255., 9., 9., 9., 0., 0., 0. ]
      - [ 0., 0., 0., 0., 0., 0., 0., 0., 0., 41., 41., 41., 88., 88.,
          88., 114., 114., 114., 255., 255., 255., 114., 114., 114., 88.,
          88., 88., 88., 88., 88., 88., 88., 88., 68., 68., 68., 0., 0.,
          0., 0., 0., 0., 8., 8., 8., 161., 161., 161., 255., 255., 255.,
          255., 255., 255., 255., 255., 255., 255., 255., 255., 255.,
          255., 255., 255., 255., 255., 255., 255., 255., 255., 255.,
          255., 255., 255., 255., 255., 255., 255., 0., 0., 0., 196.,
          196., 196., 255., 255., 255., 255., 255., 255., 255., 255.,
          255., 226., 226., 226., 69., 69., 69., 226., 226., 226., 126.,
          126., 126., 69., 69., 69., 140., 140., 140., 255., 255., 255.,
          255., 255., 255., 0., 0., 0., 196., 196., 196., 255., 255.,
          255., 255., 255., 255., 176., 176., 176., 0., 0., 0., 0., 0.,
          0., 0., 0., 0., 0., 0., 0., 0., 0., 0., 0., 0., 0., 59., 59.,
          59., 255., 255., 255., 0., 0., 0., 196., 196., 196., 255.,
          255., 255., 255., 255., 255., 176., 176., 176., 0., 0., 0., 0.,
          0., 0., 0., 0., 0., 0., 0., 0., 0., 0., 0., 0., 0., 0., 0., 0.,
          0., 0., 0., 0., 0., 0., 0., 196., 196., 196., 255., 255., 255.,
          255., 255., 255., 255., 255., 255., 174., 174., 174., 0., 0.,
          0., 174., 174., 174., 206., 206., 206., 206., 206., 206., 127.,
          127., 127., 0., 0., 0., 0., 0., 0., 0., 0., 0., 196., 196.,
          196., 255., 255., 255., 255., 255., 255., 255., 255., 255.,
          255., 255., 255., 255., 255., 255., 255., 255., 255., 255.,
          255., 255., 255., 255., 255., 255., 255., 255., 255., 255.,
          255., 255., 255., 255., 0., 0., 0., 196., 196., 196., 255.,
          255., 255., 255., 255., 255., 255., 255., 255., 206., 206.,
          206., 206., 206., 206., 206., 206., 206., 206., 206., 206.,
          206., 206., 206., 225., 225., 225., 255., 255., 255., 255.,
          255., 255., 0., 0., 0., 196., 196., 196., 255., 255., 255.,
          255., 255., 255., 176., 176., 176., 0., 0., 0., 0., 0., 0., 0.,
          0., 0., 0., 0., 0., 0., 0., 0., 98., 98., 98., 255., 255.,
          255., 255., 255., 255., 0., 0., 0., 196., 196., 196., 255.,
          255., 255., 255., 255., 255., 176., 176., 176., 0., 0., 0., 0.,
          0., 0., 0., 0., 0., 0., 0., 0., 0., 0., 0., 98., 98., 98.,
          255., 255., 255., 255., 255., 255., 69., 69., 69., 212., 212.,
          212., 255., 255., 255., 255., 255., 255., 177., 177., 177., 0.,
          0., 0., 0., 0., 0., 0., 0., 0., 0., 0., 0., 0., 0., 0., 98.,
          98., 98., 255., 255., 255., 255., 255., 255., 10., 10., 10.,
          198., 198., 198., 255., 255., 255., 255., 255., 255., 255.,
          255., 255., 255., 255., 255., 255., 255., 255., 255., 255.,
          255., 255., 255., 255., 255., 255., 255., 255., 255., 255.,
          255., 255., 255., 255., 255., 255., 0., 0., 0., 0., 0., 0.,
          54., 54., 54., 165., 165., 165., 255., 255., 255., 255., 255.,
          255., 255., 255., 255., 255., 255., 255., 255., 255., 255.,
          255., 255., 255., 255., 255., 255., 255., 255., 255., 255.,
          255., 255. ]
      - [ 0., 0., 0., 0., 0., 0., 5., 5., 5., 47., 47., 47., 255., 255.,
          255., 255., 255., 255., 255., 255., 255., 255., 255., 255.,
          255., 255., 255., 255., 255., 255., 5., 5., 5., 0., 0., 0., 0.,
          0., 0., 9., 9., 9., 29., 29., 29., 255., 255., 255., 255.,
          255., 255., 255., 255., 255., 255., 255., 255., 255., 255.,
          255., 255., 255., 255., 255., 255., 255., 255., 255., 255.,
          255., 255., 255., 255., 255., 255., 9., 9., 9., 255., 255.,
          255., 255., 255., 255., 255., 255., 255., 174., 174., 174., 0.,
          0., 0., 0., 0., 0., 0., 0., 0., 0., 0., 0., 0., 0., 0., 174.,
          174., 174., 228., 228., 228., 255., 255., 255., 255., 255.,
          255., 255., 255., 255., 255., 255., 255., 255., 255., 255., 0.,
          0., 0., 0., 0., 0., 0., 0., 0., 0., 0., 0., 0., 0., 0., 0., 0.,
          0., 0., 0., 0., 0., 0., 0., 0., 0., 0., 0., 0., 0., 255., 255.,
          255., 255., 255., 255., 255., 255., 255., 0., 0., 0., 0., 0.,
          0., 0., 0., 0., 0., 0., 0., 0., 0., 0., 0., 0., 0., 0., 0., 0.,
          0., 0., 0., 0., 0., 0., 0., 0., 0., 255., 255., 255., 255.,
          255., 255., 255., 255., 255., 255., 255., 255., 142., 142.,
          142., 108., 108., 108., 108., 108., 108., 108., 108., 108., 0.,
          0., 0., 0., 0., 0., 0., 0., 0., 0., 0., 0., 0., 0., 0., 255.,
          255., 255., 255., 255., 255., 255., 255., 255., 255., 255.,
          255., 255., 255., 255., 255., 255., 255., 255., 255., 255.,
          255., 255., 255., 255., 255., 255., 255., 255., 255., 196.,
          196., 196., 118., 118., 118., 0., 0., 0., 255., 255., 255.,
          255., 255., 255., 255., 255., 255., 255., 255., 255., 25., 25.,
          25., 0., 0., 0., 0., 0., 0., 0., 0., 0., 25., 25., 25., 255.,
          255., 255., 255., 255., 255., 255., 255., 255., 180., 180.,
          180., 255., 255., 255., 255., 255., 255., 255., 255., 255., 0.,
          0., 0., 0., 0., 0., 0., 0., 0., 0., 0., 0., 0., 0., 0., 0., 0.,
          0., 0., 0., 0., 255., 255., 255., 255., 255., 255., 255., 255.,
          255., 255., 255., 255., 255., 255., 255., 255., 255., 255., 0.,
          0., 0., 0., 0., 0., 0., 0., 0., 0., 0., 0., 0., 0., 0., 0., 0.,
          0., 0., 0., 0., 255., 255., 255., 255., 255., 255., 255., 255.,
          255., 255., 255., 255., 255., 255., 255., 255., 255., 255.,
          174., 174., 174., 0., 0., 0., 0., 0., 0., 0., 0., 0., 0., 0.,
          0., 0., 0., 0., 174., 174., 174., 255., 255., 255., 255., 255.,
          255., 255., 255., 255., 255., 255., 255., 255., 255., 255.,
          255., 255., 255., 255., 255., 255., 255., 255., 255., 226.,
          226., 226., 226., 226., 226., 0., 0., 0., 255., 255., 255.,
          255., 255., 255., 255., 255., 255., 255., 255., 255., 255.,
          255., 255., 0., 0., 0., 0., 0., 0., 142., 142., 142., 255.,
          255., 255., 255., 255., 255., 255., 255., 255., 255., 255.,
          255., 255., 255., 255., 255., 255., 255., 255., 255., 255.,
          255., 255., 255., 255., 255., 255., 0., 0., 0. ]
      - [ 0., 0., 0., 0., 0., 0., 0., 0., 0., 0., 0., 0., 0., 0., 0., 0.,
          0., 0., 0., 0., 0., 0., 0., 0., 0., 0., 0., 0., 0., 0., 0., 0.,
          0., 0., 0., 0., 0., 0., 0., 0., 0., 0., 0., 0., 0., 0., 0., 0.,
          0., 0., 0., 0., 0., 0., 0., 0., 0., 0., 0., 0., 0., 0., 0., 0.,
          0., 0., 0., 0., 0., 0., 0., 0., 0., 0., 0., 0., 0., 0., 0., 0.,
          0., 0., 0., 0., 0., 0., 0., 0., 0., 0., 0., 0., 0., 0., 0., 0.,
          0., 0., 0., 0., 0., 0., 0., 0., 0., 0., 0., 0., 0., 0., 0., 0.,
          0., 0., 0., 0., 0., 108., 108., 108., 108., 108., 108., 108.,
          108., 108., 108., 108., 108., 108., 108., 108., 108., 108.,
          108., 108., 108., 108., 108., 108., 108., 108., 108., 108.,
          108., 108., 108., 108., 108., 108., 108., 108., 108., 108.,
          108., 108., 255., 255., 255., 255., 255., 255., 255., 255.,
          255., 255., 255., 255., 255., 255., 255., 255., 255., 255.,
          255., 255., 255., 255., 255., 255., 255., 255., 255., 255.,
          255., 255., 255., 255., 255., 255., 255., 255., 255., 255.,
          255., 255., 255., 255., 255., 255., 255., 255., 255., 255.,
          255., 255., 255., 255., 255., 255., 255., 255., 255., 255.,
          255., 255., 255., 255., 255., 255., 255., 255., 255., 255.,
          255., 255., 255., 255., 255., 255., 255., 255., 255., 255.,
          128., 128., 128., 128., 128., 128., 128., 128., 128., 128.,
          128., 128., 128., 128., 128., 128., 128., 128., 128., 128.,
          128., 128., 128., 128., 128., 128., 128., 128., 128., 128.,
          128., 128., 128., 128., 128., 128., 128., 128., 128., 0., 0.,
          0., 0., 0., 0., 0., 0., 0., 0., 0., 0., 0., 0., 0., 0., 0., 0.,
          0., 0., 0., 0., 0., 0., 0., 0., 0., 0., 0., 0., 0., 0., 0., 0.,
          0., 0., 0., 0., 0., 0., 0., 0., 0., 0., 0., 0., 0., 0., 0., 0.,
          0., 0., 0., 0., 0., 0., 0., 0., 0., 0., 0., 0., 0., 0., 0., 0.,
          0., 0., 0., 0., 0., 0., 0., 0., 0., 0., 0., 0., 0., 0., 0., 0.,
          0., 0., 0., 0., 0., 0., 0., 0., 0., 0., 0., 0., 0., 0., 0., 0.,
          0., 0., 0., 0., 0., 0., 0., 0., 0., 0., 0., 0., 0., 0., 0., 0.,
          0., 0., 0., 255., 255., 255., 255., 255., 255., 255., 255.,
          255., 255., 255., 255., 255., 255., 255., 255., 255., 255.,
          255., 255., 255., 255., 255., 255., 255., 255., 255., 255.,
          255., 255., 255., 255., 255., 255., 255., 255., 255., 255.,
          255., 255., 255., 255., 255., 255., 255., 255., 255., 255.,
          255., 255., 255., 255., 255., 255., 255., 255., 255., 255.,
          255., 255., 255., 255., 255., 255., 255., 255., 255., 255.,
          255., 255., 255., 255., 255., 255., 255., 255., 255., 255.,
          255., 255., 255., 255., 255., 255., 255., 255., 255., 255.,
          255., 255., 255., 255., 255., 255., 255., 255., 255., 255.,
          255., 255., 255., 255., 255., 255., 255., 255., 255., 255.,
          255., 255., 255., 255., 255., 255., 255., 255., 255. ]
      - [ 0., 0., 0., 0., 0., 0., 0., 0., 0., 0., 0., 0., 0., 0., 0., 0.,
          0., 0., 0., 0., 0., 0., 0., 0., 0., 0., 0., 0., 0., 0., 0., 0.,
          0., 0., 0., 0., 0., 0., 0., 0., 0., 0., 0., 0., 0., 0., 0., 0.,
          0., 0., 0., 0., 0., 0., 0., 0., 0., 0., 0., 0., 0., 0., 0., 0.,
          0., 0., 0., 0., 0., 0., 0., 0., 0., 0., 0., 0., 0., 0., 0., 0.,
          0., 0., 0., 0., 0., 0., 0., 0., 0., 0., 0., 0., 0., 0., 0., 0.,
          0., 0., 0., 0., 0., 0., 0., 0., 0., 0., 0., 0., 0., 0., 0., 0.,
          0., 0., 0., 0., 0., 0., 0., 0., 0., 0., 0., 0., 0., 0., 0., 0.,
          0., 0., 0., 0., 0., 0., 0., 0., 0., 0., 0., 0., 0., 0., 0., 0.,
          0., 0., 0., 0., 0., 0., 0., 0., 0., 0., 0., 0., 0., 0., 0., 0.,
          0., 0., 0., 0., 0., 0., 0., 0., 0., 0., 0., 0., 0., 0., 0., 0.,
          0., 0., 0., 0., 0., 0., 0., 0., 0., 0., 0., 0., 0., 0., 0., 0.,
          0., 0., 0., 0., 0., 0., 0., 0., 0., 0., 0., 0., 0., 0., 0., 0.,
          0., 0., 0., 0., 0., 0., 0., 0., 0., 0., 0., 0., 0., 0., 0., 0.,
          0., 0., 0., 0., 0., 0., 0., 0., 0., 0., 0., 0., 0., 0., 0., 0.,
          0., 0., 0., 0., 0., 0., 0., 0., 0., 0., 0., 0., 0., 0., 0., 0.,
          0., 0., 0., 0., 0., 0., 0., 0., 0., 0., 0., 0., 0., 0., 0., 0.,
          0., 0., 0., 0., 0., 0., 0., 0., 0., 0., 0., 0., 0., 0., 0., 0.,
          0., 0., 0., 0., 0., 0., 0., 0., 0., 0., 0., 0., 0., 0., 0., 0.,
          0., 0., 0., 0., 0., 0., 0., 0., 0., 0., 0., 0., 0., 0., 0., 0.,
          0., 0., 0., 0., 0., 0., 0., 0., 0., 0., 0., 0., 0., 0., 0., 0.,
          0., 0., 0., 0., 0., 0., 0., 0., 0., 0., 0., 0., 0., 0., 0., 0.,
          0., 0., 0., 0., 0., 0., 0., 0., 0., 0., 0., 0., 0., 0., 0., 0.,
          0., 0., 0., 0., 0., 0., 0., 0., 0., 0., 0., 0., 0., 0., 0., 0.,
          0., 0., 0., 0., 0., 0., 0., 0., 0., 0., 0., 0., 0., 0., 0., 0.,
          0., 0., 0., 0., 0., 0., 0., 0., 0., 0., 0., 0., 0., 0., 0., 0.,
          0., 0., 0., 0., 0., 0., 0., 0., 0., 0., 0., 0., 0., 196., 196.,
          196., 196., 196., 196., 196., 196., 196., 196., 196., 196.,
          196., 196., 196., 196., 196., 196., 196., 196., 196., 196.,
          196., 196., 196., 196., 196., 196., 196., 196., 196., 196.,
          196., 196., 196., 196., 196., 196., 196., 255., 255., 255.,
          255., 255., 255., 255., 255., 255., 255., 255., 255., 255.,
          255., 255., 255., 255., 255., 255., 255., 255., 255., 255.,
          255., 255., 255., 255., 255., 255., 255., 255., 255., 255.,
          255., 255., 255., 255., 255., 255. ]
   decision_functions:
      -
         sv_count: 1
         rho: -9.2110265254078494e-01
         alpha: [ 1. ]
         index: [ 0 ]
