%YAML:1.0
---
opencv_ml_svm:
   format: 3
   svmType: C_SVC
   kernel:
      type: LINEAR
   C: 1.
   term_criteria: { iterations:100 }
   var_count: 507
   class_count: 2
   class_labels: !!opencv-matrix
      rows: 2
      cols: 1
      dt: i
      data: [ -1, 1 ]
   sv_total: 1
   support_vectors:
      - [ 1.34674847e-05, 1.34674847e-05, 1.34674847e-05, 1.35114396e-05,
          1.35114396e-05, 1.35114396e-05, 1.42000763e-05, 1.42000763e-05,
          1.42000763e-05, 1.54824393e-05, 1.54824393e-05, 1.54824393e-05,
          1.82988297e-05, 1.82988297e-05, 1.82988297e-05, 2.05003853e-05,
          2.05003853e-05, 2.05003853e-05, 2.05003853e-05, 2.05003853e-05,
          2.05003853e-05, 2.05275865e-05, 2.05275865e-05, 2.05275865e-05,
          2.06907880e-05, 2.06907880e-05, 2.06907880e-05, 2.02673145e-05,
          2.02673145e-05, 2.02673145e-05, 2.02128376e-05, 2.02128376e-05,
          2.02128376e-05, 2.05407541e-05, 2.05407541e-05, 2.05407541e-05,
          1.73650878e-05, 1.73650878e-05, 1.73650878e-05, 2.82078709e-05,
          2.82078709e-05, 2.82078709e-05, 2.89911022e-05, 2.89911022e-05,
          2.89911022e-05, 3.32875861e-05, 3.32875861e-05, 3.32875861e-05,
          3.50825321e-05, 3.50825321e-05, 3.50825321e-05, 3.48649301e-05,
          3.48649301e-05, 3.48649301e-05, 3.43753236e-05, 3.43753236e-05,
          3.43753236e-05, 3.41072337e-05, 3.41072337e-05, 3.41072337e-05,
          3.45016379e-05, 3.45016379e-05, 3.45016379e-05, 3.67263019e-05,
          3.67263019e-05, 3.67263019e-05, 3.94178242e-05, 3.94178242e-05,
          3.94178242e-05, 3.98561024e-05, 3.98561024e-05, 3.98561024e-05,
          3.93660121e-05, 3.93660121e-05, 3.93660121e-05, 3.65319029e-05,
          3.65319029e-05, 3.65319029e-05, 3.07496084e-05, 3.07496084e-05,
          3.07496084e-05, 3.30287512e-05, 3.30287512e-05, 3.30287512e-05,
          3.33658500e-05, 3.33658500e-05, 3.33658500e-05, 3.42947133e-05,
          3.42947133e-05, 3.42947133e-05, 3.05531103e-05, 3.05531103e-05,
          3.05531103e-05, 2.69686625e-05, 2.69686625e-05, 2.69686625e-05,
          2.67426167e-05, 2.67426167e-05, 2.67426167e-05, 2.77413783e-05,
          2.77413783e-05, 2.77413783e-05, 3.06372494e-05, 3.06372494e-05,
          3.06372494e-05, 3.35353070e-05, 3.35353070e-05, 3.35353070e-05,
          3.35353070e-05, 3.35353070e-05, 3.35353070e-05, 3.35353070e-05,
          3.35353070e-05, 3.35353070e-05, 3.35353070e-05, 3.35353070e-05,
          3.35353070e-05, -1.66378741e-05, -1.66378741e-05,
          -1.66378741e-05, -1.60635227e-05, -1.60635227e-05,
          -1.60635227e-05, -1.51003787e-05, -1.51003787e-05,
          -1.51003787e-05, -1.44678061e-05, -1.44678061e-05,
          -1.44678061e-05, -2.27108649e-05, -2.27108649e-05,
          -2.27108649e-05, -3.16983751e-05, -3.16983751e-05,
          -3.16983751e-05, -2.92515015e-05, -2.92515015e-05,
          -2.92515015e-05, -2.82399305e-05, -2.82399305e-05,
          -2.82399305e-05, -2.44410403e-05, -2.44410403e-05,
          -2.44410403e-05, -2.27281853e-05, -2.27281853e-05,
          -2.27281853e-05, -1.93191900e-05, -1.93191900e-05,
          -1.93191900e-05, -1.75422119e-05, -1.75422119e-05,
          -1.75422119e-05, -1.81683245e-05, -1.81683245e-05,
          -1.81683245e-05, -7.31669861e-05, -7.31669861e-05,
          -7.31669861e-05, -7.25926293e-05, -7.25926293e-05,
          -7.25926293e-05, -7.16294890e-05, -7.16294890e-05,
          -7.16294890e-05, -7.05954881e-05, -7.05954881e-05,
          -7.05954881e-05, -7.68879399e-05, -7.68879399e-05,
          -7.68879399e-05, -8.70153017e-05, -8.70153017e-05,
          -8.70153017e-05, -8.46446637e-05, -8.46446637e-05,
          -8.46446637e-05, -8.31053694e-05, -8.31053694e-05,
          -8.31053694e-05, -8.09701523e-05, -8.09701523e-05,
          -8.09701523e-05, -7.92685169e-05, -7.92685169e-05,
          -7.92685169e-05, -7.58483002e-05, -7.58483002e-05,
          -7.58483002e-05, -7.60757030e-05, -7.60757030e-05,
          -7.60757030e-05, -7.84194926e-05, -7.84194926e-05,
          -7.84194926e-05, -7.56256195e-05, -7.56256195e-05,
          -7.56256195e-05, -7.27889637e-05, -7.27889637e-05,
          -7.27889637e-05, -7.16294890e-05, -7.16294890e-05,
          -7.16294890e-05, -6.88363725e-05, -6.88363725e-05,
          -6.88363725e-05, -6.79986770e-05, -6.79986770e-05,
          -6.79986770e-05, -7.22518162e-05, -7.22518162e-05,
          -7.22518162e-05, -7.03105106e-05, -7.03105106e-05,
          -7.03105106e-05, -6.96924981e-05, -6.96924981e-05,
          -6.96924981e-05, -6.68658759e-05, -6.68658759e-05,
          -6.68658759e-05, -6.45183463e-05, -6.45183463e-05,
          -6.45183463e-05, -6.88952932e-05, -6.88952932e-05,
          -6.88952932e-05, -7.55487272e-05, -7.55487272e-05,
          -7.55487272e-05, -7.94802982e-05, -7.94802982e-05,
          -7.94802982e-05, -4.23163692e-05, -4.23163692e-05,
          -4.23163692e-05, -3.94431481e-05, -3.94431481e-05,
          -3.94431481e-05, -3.15608158e-05, -3.15608158e-05,
          -3.15608158e-05, -2.58788477e-05, -2.58788477e-05,
          -2.58788477e-05, -2.52274676e-05, -2.52274676e-05,
          -2.52274676e-05, -2.24204177e-05, -2.24204177e-05,
          -2.24204177e-05, -1.89619750e-05, -1.89619750e-05,
          -1.89619750e-05, -1.85675708e-05, -1.85675708e-05,
          -1.85675708e-05, -1.54446498e-05, -1.54446498e-05,
          -1.54446498e-05, -1.44744135e-05, -1.44744135e-05,
          -1.44744135e-05, -1.35913360e-05, -1.35913360e-05,
          -1.35913360e-05, -1.37022562e-05, -1.37022562e-05,
          -1.37022562e-05, -1.56897459e-05, -1.56897459e-05,
          -1.56897459e-05, 6.90625575e-06, 6.90625575e-06,
          6.90625575e-06, 6.90625575e-06, 6.90625575e-06, 6.90625575e-06,
          7.86940018e-06, 7.86940018e-06, 7.86940018e-06, 1.15048560e-05,
          1.15048560e-05, 1.15048560e-05, 1.44806181e-05, 1.44806181e-05,
          1.44806181e-05, 1.49447660e-05, 1.49447660e-05, 1.49447660e-05,
          2.42862334e-05, 2.42862334e-05, 2.42862334e-05, 3.04313180e-05,
          3.04313180e-05, 3.04313180e-05, 3.22580345e-05, 3.22580345e-05,
          3.22580345e-05, 3.19207938e-05, 3.19207938e-05, 3.19207938e-05,
          3.41067243e-05, 3.41067243e-05, 3.41067243e-05, 3.77481556e-05,
          3.77481556e-05, 3.77481556e-05, 3.71981878e-05, 3.71981878e-05,
          3.71981878e-05, 5.84544568e-06, 5.84544568e-06, 5.84544568e-06,
          6.29424994e-06, 6.29424994e-06, 6.29424994e-06, 1.07618680e-05,
          1.07618680e-05, 1.07618680e-05, 1.58054409e-05, 1.58054409e-05,
          1.58054409e-05, 1.75815421e-05, 1.75815421e-05, 1.75815421e-05,
          1.80497700e-05, 1.80497700e-05, 1.80497700e-05, 2.08910442e-05,
          2.08910442e-05, 2.08910442e-05, 2.02738775e-05, 2.02738775e-05,
          2.02738775e-05, 1.86102079e-05, 1.86102079e-05, 1.86102079e-05,
          1.86102079e-05, 1.86102079e-05, 1.86102079e-05, 2.52307455e-05,
          2.52307455e-05, 2.52307455e-05, 3.23046697e-05, 3.23046697e-05,
          3.23046697e-05, 3.48860704e-05, 3.48860704e-05, 3.48860704e-05,
          3.43822330e-06, 3.43822330e-06, 3.43822330e-06, 7.61106912e-06,
          7.61106912e-06, 7.61106912e-06, 1.08529521e-05, 1.08529521e-05,
          1.08529521e-05, 1.42006265e-05, 1.42006265e-05, 1.42006265e-05,
          1.48992358e-05, 1.48992358e-05, 1.48992358e-05, 1.47950459e-05,
          1.47950459e-05, 1.47950459e-05, 1.64914309e-05, 1.64914309e-05,
          1.64914309e-05, 1.55458856e-05, 1.55458856e-05, 1.55458856e-05,
          1.65250949e-05, 1.65250949e-05, 1.65250949e-05, 1.66348073e-05,
          1.66348073e-05, 1.66348073e-05, 2.25694730e-05, 2.25694730e-05,
          2.25694730e-05, 3.10880387e-05, 3.10880387e-05, 3.10880387e-05,
          3.32812560e-05, 3.32812560e-05, 3.32812560e-05,
          -6.12441145e-05, -6.12441145e-05, -6.12441145e-05,
          -5.60719673e-05, -5.60719673e-05, -5.60719673e-05,
          -5.39849934e-05, -5.39849934e-05, -5.39849934e-05,
          -5.24260977e-05, -5.24260977e-05, -5.24260977e-05,
          -5.65716837e-05, -5.65716837e-05, -5.65716837e-05,
          -6.23280066e-05, -6.23280066e-05, -6.23280066e-05,
          -6.12024742e-05, -6.12024742e-05, -6.12024742e-05,
          -6.08080736e-05, -6.08080736e-05, -6.08080736e-05,
          -5.86728529e-05, -5.86728529e-05, -5.86728529e-05,
          -5.77344435e-05, -5.77344435e-05, -5.77344435e-05,
          -5.06200558e-05, -5.06200558e-05, -5.06200558e-05,
          -4.34689355e-05, -4.34689355e-05, -4.34689355e-05,
          -4.20645265e-05, -4.20645265e-05, -4.20645265e-05,
          -2.26227839e-05, -2.26227839e-05, -2.26227839e-05,
          -1.68803472e-05, -1.68803472e-05, -1.68803472e-05,
          -1.47849769e-05, -1.47849769e-05, -1.47849769e-05,
          -1.36923372e-05, -1.36923372e-05, -1.36923372e-05,
          -1.77702495e-05, -1.77702495e-05, -1.77702495e-05,
          -2.31072954e-05, -2.31072954e-05, -2.31072954e-05,
          -2.08742422e-05, -2.08742422e-05, -2.08742422e-05,
          -2.04798398e-05, -2.04798398e-05, -2.04798398e-05,
          -1.81717278e-05, -1.81717278e-05, -1.81717278e-05,
          -1.72333184e-05, -1.72333184e-05, -1.72333184e-05,
          -1.20732466e-05, -1.20732466e-05, -1.20732466e-05,
          -7.15327769e-06, -7.15327769e-06, -7.15327769e-06,
          -5.74886917e-06, -5.74886917e-06, -5.74886917e-06,
          -2.42894002e-05, -2.42894002e-05, -2.42894002e-05,
          -2.07778594e-05, -2.07778594e-05, -2.07778594e-05,
          -1.80782499e-05, -1.80782499e-05, -1.80782499e-05,
          -1.36436283e-05, -1.36436283e-05, -1.36436283e-05,
          -1.13419756e-05, -1.13419756e-05, -1.13419756e-05,
          -8.59014472e-06, -8.59014472e-06, -8.59014472e-06,
          -5.74886917e-06, -5.74886917e-06, -5.74886917e-06,
          -5.35446543e-06, -5.35446543e-06, -5.35446543e-06,
          -3.21924563e-06, -3.21924563e-06, -3.21924563e-06,
          -2.28083695e-06, -2.28083695e-06, -2.28083695e-06,
          -2.28083695e-06, -2.28083695e-06, -2.28083695e-06,
          -5.51211997e-06, -5.51211997e-06, -5.51211997e-06,
          -8.74781199e-06, -8.74781199e-06, -8.74781199e-06 ]
   uncompressed_sv_total: 9
   uncompressed_support_vectors:
      - [ 0., 0., 0., 0., 0., 0., 0., 0., 0., 41., 41., 41., 140., 140.,
          140., 255., 255., 255., 255., 255., 255., 255., 255., 255.,
          255., 255., 255., 255., 255., 255., 255., 255., 255., 216.,
          216., 216., 88., 88., 88., 0., 0., 0., 8., 8., 8., 161., 161.,
          161., 255., 255., 255., 255., 255., 255., 255., 255., 255.,
          255., 255., 255., 255., 255., 255., 255., 255., 255., 255.,
          255., 255., 255., 255., 255., 255., 255., 255., 255., 255.,
          255., 186., 186., 186., 255., 255., 255., 255., 255., 255.,
          255., 255., 255., 255., 255., 255., 255., 255., 255., 255.,
          255., 255., 255., 255., 255., 255., 255., 255., 255., 255.,
          255., 255., 255., 255., 255., 255., 255., 255., 255., 255.,
          255., 255., 255., 255., 255., 255., 255., 255., 255., 255.,
          255., 255., 176., 176., 176., 0., 0., 0., 0., 0., 0., 0., 0.,
          0., 0., 0., 0., 0., 0., 0., 98., 98., 98., 255., 255., 255.,
          255., 255., 255., 255., 255., 255., 255., 255., 255., 255.,
          255., 255., 255., 255., 255., 176., 176., 176., 0., 0., 0., 0.,
          0., 0., 0., 0., 0., 0., 0., 0., 0., 0., 0., 98., 98., 98.,
          255., 255., 255., 255., 255., 255., 255., 255., 255., 255.,
          255., 255., 255., 255., 255., 255., 255., 255., 176., 176.,
          176., 0., 0., 0., 0., 0., 0., 0., 0., 0., 0., 0., 0., 0., 0.,
          0., 98., 98., 98., 255., 255., 255., 255., 255., 255., 255.,
          255., 255., 255., 255., 255., 255., 255., 255., 255., 255.,
          255., 177., 177., 177., 0., 0., 0., 0., 0., 0., 0., 0., 0., 0.,
          0., 0., 0., 0., 0., 98., 98., 98., 255., 255., 255., 255.,
          255., 255., 255., 255., 255., 255., 255., 255., 255., 255.,
          255., 255., 255., 255., 176., 176., 176., 0., 0., 0., 0., 0.,
          0., 0., 0., 0., 0., 0., 0., 0., 0., 0., 98., 98., 98., 255.,
          255., 255., 255., 255., 255., 255., 255., 255., 255., 255.,
          255., 255., 255., 255., 255., 255., 255., 176., 176., 176., 0.,
          0., 0., 0., 0., 0., 0., 0., 0., 0., 0., 0., 0., 0., 0., 98.,
          98., 98., 255., 255., 255., 255., 255., 255., 255., 255., 255.,
          255., 255., 255., 255., 255., 255., 255., 255., 255., 176.,
          176., 176., 0., 0., 0., 0., 0., 0., 0., 0., 0., 0., 0., 0., 0.,
          0., 0., 98., 98., 98., 255., 255., 255., 255., 255., 255.,
          186., 186., 186., 255., 255., 255., 255., 255., 255., 255.,
          255., 255., 198., 198., 198., 58., 58., 58., 0., 0., 0., 0.,
          0., 0., 0., 0., 0., 0., 0., 0., 98., 98., 98., 255., 255.,
          255., 255., 255., 255., 0., 0., 0., 196., 196., 196., 255.,
          255., 255., 255., 255., 255., 255., 255., 255., 255., 255.,
          255., 255., 255., 255., 255., 255., 255., 255., 255., 255.,
          255., 255., 255., 255., 255., 255., 255., 255., 255., 255.,
          255., 255., 0., 0., 0., 0., 0., 0., 54., 54., 54., 165., 165.,
          165., 255., 255., 255., 255., 255., 255., 255., 255., 255.,
          255., 255., 255., 255., 255., 255., 255., 255., 255., 255.,
          255., 255., 216., 216., 216., 88., 88., 88. ]
      - [ 255., 255., 255., 255., 255., 255., 255., 255., 255., 255.,
          255., 255., 255., 255., 255., 255., 255., 255., 255., 255.,
          255., 255., 255., 255., 255., 255., 255., 255., 255., 255.,
          255., 255., 255., 255., 255., 255., 255., 255., 255., 255.,
          255., 255., 255., 255., 255., 255., 255., 255., 255., 255.,
          255., 255., 255., 255., 255., 255., 255., 255., 255., 255.,
          255., 255., 255., 255., 255., 255., 255., 255., 255., 255.,
          255., 255., 255., 255., 255., 255., 255., 255., 157., 157.,
          157., 157., 157., 157., 164., 164., 164., 187., 187., 187.,
          210., 210., 210., 255., 255., 255., 255., 255., 255., 255.,
          255., 255., 255., 255., 255., 255., 255., 255., 255., 255.,
          255., 255., 255., 255., 255., 255., 255., 0., 0., 0., 0., 0.,
          0., 20., 20., 20., 78., 78., 78., 137., 137., 137., 196., 196.,
          196., 255., 255., 255., 255., 255., 255., 255., 255., 255.,
          255., 255., 255., 255., 255., 255., 255., 255., 255., 255.,
          255., 255., 0., 0., 0., 0., 0., 0., 20., 20., 20., 78., 78.,
          78., 137., 137., 137., 196., 196., 196., 255., 255., 255.,
          255., 255., 255., 255., 255., 255., 255., 255., 255., 255.,
          255., 255., 255., 255., 255., 255., 255., 255., 0., 0., 0., 0.,
          0., 0., 20., 20., 20., 78., 78., 78., 137., 137., 137., 196.,
          196., 196., 255., 255., 255., 255., 255., 255., 255., 255.,
          255., 255., 255., 255., 255., 255., 255., 255., 255., 255.,
          255., 255., 255., 0., 0., 0., 0., 0., 0., 20., 20., 20., 78.,
          78., 78., 137., 137., 137., 196., 196., 196., 255., 255., 255.,
          255., 255., 255., 255., 255., 255., 255., 255., 255., 255.,
          255., 255., 255., 255., 255., 255., 255., 255., 0., 0., 0., 0.,
          0., 0., 20., 20., 20., 78., 78., 78., 137., 137., 137., 196.,
          196., 196., 255., 255., 255., 255., 255., 255., 255., 255.,
          255., 255., 255., 255., 255., 255., 255., 255., 255., 255.,
          255., 255., 255., 0., 0., 0., 0., 0., 0., 20., 20., 20., 78.,
          78., 78., 137., 137., 137., 196., 196., 196., 255., 255., 255.,
          255., 255., 255., 255., 255., 255., 255., 255., 255., 255.,
          255., 255., 255., 255., 255., 255., 255., 255., 0., 0., 0., 0.,
          0., 0., 20., 20., 20., 78., 78., 78., 137., 137., 137., 196.,
          196., 196., 255., 255., 255., 255., 255., 255., 255., 255.,
          255., 255., 255., 255., 255., 255., 255., 255., 255., 255.,
          255., 255., 255., 0., 0., 0., 0., 0., 0., 20., 20., 20., 78.,
          78., 78., 137., 137., 137., 196., 196., 196., 255., 255., 255.,
          255., 255., 255., 255., 255., 255., 255., 255., 255., 255.,
          255., 255., 255., 255., 255., 255., 255., 255., 0., 0., 0., 0.,
          0., 0., 20., 20., 20., 78., 78., 78., 137., 137., 137., 196.,
          196., 196., 255., 255., 255., 255., 255., 255., 255., 255.,
          255., 255., 255., 255., 255., 255., 255., 255., 255., 255.,
          255., 255., 255., 0., 0., 0., 0., 0., 0., 20., 20., 20., 78.,
          78., 78., 137., 137., 137., 196., 196., 196., 255., 255., 255.,
          255., 255., 255., 255., 255., 255., 255., 255., 255., 255.,
          255., 255., 255., 255., 255., 255., 255., 255. ]
      - [ 0., 0., 0., 0., 0., 0., 0., 0., 0., 65., 65., 65., 197., 197.,
          197., 255., 255., 255., 255., 255., 255., 255., 255., 255.,
          255., 255., 255., 210., 210., 210., 88., 88., 88., 78., 78.,
          78., 0., 0., 0., 0., 0., 0., 9., 9., 9., 208., 208., 208.,
          255., 255., 255., 255., 255., 255., 255., 255., 255., 255.,
          255., 255., 255., 255., 255., 255., 255., 255., 255., 255.,
          255., 255., 255., 255., 227., 227., 227., 10., 10., 10., 186.,
          186., 186., 255., 255., 255., 255., 255., 255., 255., 255.,
          255., 255., 255., 255., 147., 147., 147., 162., 162., 162.,
          176., 176., 176., 133., 133., 133., 255., 255., 255., 255.,
          255., 255., 255., 255., 255., 255., 255., 255., 255., 255.,
          255., 255., 255., 255., 255., 255., 255., 255., 255., 255.,
          88., 88., 88., 0., 0., 0., 0., 0., 0., 0., 0., 0., 0., 0., 0.,
          69., 69., 69., 255., 255., 255., 255., 255., 255., 255., 255.,
          255., 255., 255., 255., 255., 255., 255., 255., 255., 255.,
          255., 255., 255., 255., 255., 255., 108., 108., 108., 0., 0.,
          0., 0., 0., 0., 0., 0., 0., 68., 68., 68., 255., 255., 255.,
          255., 255., 255., 255., 255., 255., 49., 49., 49., 255., 255.,
          255., 255., 255., 255., 255., 255., 255., 255., 255., 255.,
          108., 108., 108., 0., 0., 0., 0., 0., 0., 71., 71., 71., 219.,
          219., 219., 255., 255., 255., 255., 255., 255., 255., 255.,
          255., 0., 0., 0., 0., 0., 0., 0., 0., 0., 0., 0., 0., 0., 0.,
          0., 0., 0., 0., 0., 0., 0., 0., 0., 0., 88., 88., 88., 255.,
          255., 255., 255., 255., 255., 255., 255., 255., 255., 255.,
          255., 0., 0., 0., 0., 0., 0., 0., 0., 0., 36., 36., 36., 49.,
          49., 49., 168., 168., 168., 255., 255., 255., 255., 255., 255.,
          255., 255., 255., 255., 255., 255., 255., 255., 255., 255.,
          255., 255., 206., 206., 206., 0., 0., 0., 0., 0., 0., 182.,
          182., 182., 255., 255., 255., 255., 255., 255., 255., 255.,
          255., 255., 255., 255., 255., 255., 255., 255., 255., 255.,
          255., 255., 255., 211., 211., 211., 26., 26., 26., 0., 0., 0.,
          0., 0., 0., 225., 225., 225., 255., 255., 255., 255., 255.,
          255., 159., 159., 159., 108., 108., 108., 108., 108., 108.,
          108., 108., 108., 108., 108., 108., 79., 79., 79., 0., 0., 0.,
          0., 0., 0., 0., 0., 0., 0., 0., 0., 225., 225., 225., 255.,
          255., 255., 255., 255., 255., 133., 133., 133., 29., 29., 29.,
          0., 0., 0., 0., 0., 0., 0., 0., 0., 0., 0., 0., 0., 0., 0., 0.,
          0., 0., 0., 0., 0., 0., 0., 0., 225., 225., 225., 255., 255.,
          255., 255., 255., 255., 255., 255., 255., 255., 255., 255.,
          255., 255., 255., 255., 255., 255., 255., 255., 255., 255.,
          255., 255., 255., 255., 255., 255., 255., 255., 255., 255.,
          255., 0., 0., 0., 226., 226., 226., 255., 255., 255., 255.,
          255., 255., 255., 255., 255., 255., 255., 255., 255., 255.,
          255., 255., 255., 255., 255., 255., 255., 255., 255., 255.,
          255., 255., 255., 255., 255., 255., 255., 255., 255. ]
      - [ 0., 0., 0., 0., 0., 0., 0., 0., 0., 0., 0., 0., 0., 0., 0., 0.,
          0., 0., 0., 0., 0., 2., 2., 2., 14., 14., 14., 20., 20., 20.,
          20., 20., 20., 20., 20., 20., 20., 20., 20., 59., 59., 59.,
          59., 59., 59., 59., 59., 59., 59., 59., 59., 43., 43., 43., 7.,
          7., 7., 0., 0., 0., 29., 29., 29., 186., 186., 186., 255.,
          255., 255., 255., 255., 255., 255., 255., 255., 255., 255.,
          255., 255., 255., 255., 255., 255., 255., 255., 255., 255.,
          255., 255., 255., 186., 186., 186., 29., 29., 29., 0., 0., 0.,
          29., 29., 29., 186., 186., 186., 255., 255., 255., 255., 255.,
          255., 255., 255., 255., 255., 255., 255., 255., 255., 255.,
          255., 255., 255., 255., 255., 255., 255., 255., 255., 186.,
          186., 186., 29., 29., 29., 0., 0., 0., 29., 29., 29., 186.,
          186., 186., 255., 255., 255., 255., 255., 255., 255., 255.,
          255., 255., 255., 255., 255., 255., 255., 255., 255., 255.,
          255., 255., 255., 255., 255., 255., 186., 186., 186., 29., 29.,
          29., 0., 0., 0., 29., 29., 29., 186., 186., 186., 255., 255.,
          255., 255., 255., 255., 153., 153., 153., 78., 78., 78., 255.,
          255., 255., 255., 255., 255., 255., 255., 255., 255., 255.,
          255., 186., 186., 186., 29., 29., 29., 0., 0., 0., 29., 29.,
          29., 186., 186., 186., 255., 255., 255., 255., 255., 255.,
          108., 108., 108., 0., 0., 0., 255., 255., 255., 255., 255.,
          255., 255., 255., 255., 88., 88., 88., 0., 0., 0., 0., 0., 0.,
          0., 0., 0., 29., 29., 29., 186., 186., 186., 255., 255., 255.,
          255., 255., 255., 108., 108., 108., 0., 0., 0., 255., 255.,
          255., 255., 255., 255., 255., 255., 255., 255., 255., 255.,
          197., 197., 197., 64., 64., 64., 39., 39., 39., 64., 64., 64.,
          197., 197., 197., 255., 255., 255., 255., 255., 255., 255.,
          255., 255., 255., 255., 255., 177., 177., 177., 210., 210.,
          210., 255., 255., 255., 255., 255., 255., 255., 255., 255.,
          255., 255., 255., 255., 255., 255., 255., 255., 255., 255.,
          255., 255., 255., 255., 255., 255., 255., 255., 255., 255.,
          255., 255., 255., 255., 0., 0., 0., 58., 58., 58., 137., 137.,
          137., 137., 137., 137., 137., 137., 137., 137., 137., 137.,
          137., 137., 137., 151., 151., 151., 223., 223., 223., 255.,
          255., 255., 255., 255., 255., 187., 187., 187., 137., 137.,
          137., 0., 0., 0., 0., 0., 0., 0., 0., 0., 0., 0., 0., 0., 0.,
          0., 0., 0., 0., 0., 0., 0., 29., 29., 29., 186., 186., 186.,
          255., 255., 255., 255., 255., 255., 108., 108., 108., 0., 0.,
          0., 0., 0., 0., 0., 0., 0., 0., 0., 0., 0., 0., 0., 0., 0., 0.,
          0., 0., 0., 0., 0., 0., 29., 29., 29., 186., 186., 186., 255.,
          255., 255., 255., 255., 255., 108., 108., 108., 0., 0., 0., 0.,
          0., 0., 0., 0., 0., 0., 0., 0., 0., 0., 0., 0., 0., 0., 0., 0.,
          0., 0., 0., 0., 29., 29., 29., 186., 186., 186., 255., 255.,
          255., 255., 255., 255., 108., 108., 108., 0., 0., 0. ]
      - [ 20., 20., 20., 20., 20., 20., 20., 20., 20., 20., 20., 20.,
          20., 20., 20., 20., 20., 20., 20., 20., 20., 20., 20., 20.,
          20., 20., 20., 20., 20., 20., 20., 20., 20., 20., 20., 20.,
          20., 20., 20., 255., 255., 255., 255., 255., 255., 255., 255.,
          255., 255., 255., 255., 255., 255., 255., 255., 255., 255.,
          255., 255., 255., 255., 255., 255., 255., 255., 255., 255.,
          255., 255., 255., 255., 255., 255., 255., 255., 255., 255.,
          255., 255., 255., 255., 255., 255., 255., 255., 255., 255.,
          255., 255., 255., 198., 198., 198., 157., 157., 157., 157.,
          157., 157., 157., 157., 157., 157., 157., 157., 157., 157.,
          157., 157., 157., 157., 157., 157., 157., 157., 157., 157.,
          255., 255., 255., 255., 255., 255., 255., 255., 255., 226.,
          226., 226., 108., 108., 108., 0., 0., 0., 0., 0., 0., 0., 0.,
          0., 0., 0., 0., 0., 0., 0., 0., 0., 0., 0., 0., 0., 0., 0., 0.,
          255., 255., 255., 255., 255., 255., 255., 255., 255., 225.,
          225., 225., 108., 108., 108., 0., 0., 0., 0., 0., 0., 0., 0.,
          0., 0., 0., 0., 0., 0., 0., 0., 0., 0., 0., 0., 0., 0., 0., 0.,
          255., 255., 255., 255., 255., 255., 255., 255., 255., 255.,
          255., 255., 255., 255., 255., 216., 216., 216., 216., 216.,
          216., 216., 216., 216., 216., 216., 216., 216., 216., 216.,
          141., 141., 141., 42., 42., 42., 0., 0., 0., 0., 0., 0., 49.,
          49., 49., 167., 167., 167., 255., 255., 255., 255., 255., 255.,
          255., 255., 255., 255., 255., 255., 255., 255., 255., 255.,
          255., 255., 255., 255., 255., 255., 255., 255., 255., 255.,
          255., 255., 255., 255., 0., 0., 0., 0., 0., 0., 0., 0., 0., 0.,
          0., 0., 0., 0., 0., 8., 8., 8., 108., 108., 108., 207., 207.,
          207., 216., 216., 216., 216., 216., 216., 229., 229., 229.,
          255., 255., 255., 255., 255., 255., 0., 0., 0., 0., 0., 0., 0.,
          0., 0., 0., 0., 0., 0., 0., 0., 0., 0., 0., 0., 0., 0., 0., 0.,
          0., 0., 0., 0., 0., 0., 0., 88., 88., 88., 206., 206., 206.,
          255., 255., 255., 0., 0., 0., 0., 0., 0., 0., 0., 0., 0., 0.,
          0., 0., 0., 0., 0., 0., 0., 0., 0., 0., 0., 0., 0., 0., 0., 0.,
          0., 0., 0., 88., 88., 88., 206., 206., 206., 255., 255., 255.,
          157., 157., 157., 157., 157., 157., 157., 157., 157., 139.,
          139., 139., 66., 66., 66., 0., 0., 0., 0., 0., 0., 0., 0., 0.,
          0., 0., 0., 0., 0., 0., 88., 88., 88., 206., 206., 206., 255.,
          255., 255., 255., 255., 255., 255., 255., 255., 255., 255.,
          255., 226., 226., 226., 108., 108., 108., 0., 0., 0., 0., 0.,
          0., 0., 0., 0., 0., 0., 0., 0., 0., 0., 88., 88., 88., 206.,
          206., 206., 255., 255., 255., 255., 255., 255., 255., 255.,
          255., 255., 255., 255., 255., 255., 255., 255., 255., 255.,
          255., 255., 255., 255., 255., 255., 255., 255., 255., 255.,
          255., 255., 255., 255., 255., 255., 255., 255., 255., 255.,
          255., 255., 255., 255. ]
      - [ 5., 5., 5., 20., 20., 20., 255., 255., 255., 255., 255., 255.,
          255., 255., 255., 255., 255., 255., 255., 255., 255., 255.,
          255., 255., 255., 255., 255., 255., 255., 255., 255., 255.,
          255., 255., 255., 255., 59., 59., 59., 59., 59., 59., 255.,
          255., 255., 255., 255., 255., 255., 255., 255., 255., 255.,
          255., 255., 255., 255., 196., 196., 196., 196., 196., 196.,
          196., 196., 196., 196., 196., 196., 196., 196., 196., 136.,
          136., 136., 0., 0., 0., 59., 59., 59., 255., 255., 255., 255.,
          255., 255., 194., 194., 194., 0., 0., 0., 0., 0., 0., 0., 0.,
          0., 0., 0., 0., 0., 0., 0., 0., 0., 0., 0., 0., 0., 0., 0., 0.,
          0., 0., 0., 59., 59., 59., 255., 255., 255., 255., 255., 255.,
          98., 98., 98., 0., 0., 0., 0., 0., 0., 0., 0., 0., 0., 0., 0.,
          0., 0., 0., 0., 0., 0., 0., 0., 0., 0., 0., 0., 0., 0., 0.,
          59., 59., 59., 255., 255., 255., 255., 255., 255., 255., 255.,
          255., 163., 163., 163., 0., 0., 0., 0., 0., 0., 0., 0., 0., 0.,
          0., 0., 0., 0., 0., 0., 0., 0., 0., 0., 0., 0., 0., 0., 9., 9.,
          9., 188., 188., 188., 255., 255., 255., 255., 255., 255., 255.,
          255., 255., 255., 255., 255., 255., 255., 255., 255., 255.,
          255., 219., 219., 219., 133., 133., 133., 0., 0., 0., 0., 0.,
          0., 0., 0., 0., 0., 0., 0., 0., 0., 0., 0., 0., 0., 0., 0., 0.,
          20., 20., 20., 255., 255., 255., 255., 255., 255., 255., 255.,
          255., 255., 255., 255., 255., 255., 255., 255., 255., 255.,
          177., 177., 177., 0., 0., 0., 0., 0., 0., 0., 0., 0., 0., 0.,
          0., 0., 0., 0., 0., 0., 0., 0., 0., 0., 0., 0., 0., 0., 0., 0.,
          0., 0., 0., 98., 98., 98., 255., 255., 255., 255., 255., 255.,
          255., 255., 255., 0., 0., 0., 0., 0., 0., 0., 0., 0., 0., 0.,
          0., 0., 0., 0., 0., 0., 0., 0., 0., 0., 0., 0., 0., 0., 0., 0.,
          0., 0., 0., 216., 216., 216., 255., 255., 255., 255., 255.,
          255., 0., 0., 0., 0., 0., 0., 0., 0., 0., 0., 0., 0., 0., 0.,
          0., 0., 0., 0., 0., 0., 0., 0., 0., 0., 0., 0., 0., 0., 0., 0.,
          116., 116., 116., 255., 255., 255., 255., 255., 255., 179.,
          179., 179., 255., 255., 255., 255., 255., 255., 194., 194.,
          194., 0., 0., 0., 0., 0., 0., 0., 0., 0., 0., 0., 0., 0., 0.,
          0., 0., 0., 0., 216., 216., 216., 255., 255., 255., 255., 255.,
          255., 59., 59., 59., 255., 255., 255., 255., 255., 255., 255.,
          255., 255., 255., 255., 255., 196., 196., 196., 196., 196.,
          196., 196., 196., 196., 255., 255., 255., 255., 255., 255.,
          255., 255., 255., 255., 255., 255., 255., 255., 255., 0., 0.,
          0., 0., 0., 0., 56., 56., 56., 255., 255., 255., 255., 255.,
          255., 255., 255., 255., 255., 255., 255., 255., 255., 255.,
          255., 255., 255., 255., 255., 255., 255., 255., 255., 14., 14.,
          14., 0., 0., 0. ]
      - [ 0., 0., 0., 0., 0., 0., 0., 0., 0., 0., 0., 0., 0., 0., 0., 0.,
          0., 0., 0., 0., 0., 0., 0., 0., 0., 0., 0., 0., 0., 0., 0., 0.,
          0., 0., 0., 0., 0., 0., 0., 0., 0., 0., 0., 0., 0., 0., 0., 0.,
          0., 0., 0., 0., 0., 0., 0., 0., 0., 0., 0., 0., 0., 0., 0., 0.,
          0., 0., 0., 0., 0., 0., 0., 0., 0., 0., 0., 0., 0., 0., 0., 0.,
          0., 0., 0., 0., 0., 0., 0., 0., 0., 0., 0., 0., 0., 0., 0., 0.,
          0., 0., 0., 0., 0., 0., 0., 0., 0., 0., 0., 0., 0., 0., 0., 0.,
          0., 0., 0., 0., 0., 108., 108., 108., 108., 108., 108., 108.,
          108., 108., 108., 108., 108., 108., 108., 108., 108., 108.,
          108., 108., 108., 108., 108., 108., 108., 108., 108., 108.,
          108., 108., 108., 108., 108., 108., 108., 108., 108., 108.,
          108., 108., 255., 255., 255., 255., 255., 255., 255., 255.,
          255., 255., 255., 255., 255., 255., 255., 255., 255., 255.,
          255., 255., 255., 255., 255., 255., 255., 255., 255., 255.,
          255., 255., 255., 255., 255., 255., 255., 255., 255., 255.,
          255., 255., 255., 255., 255., 255., 255., 255., 255., 255.,
          255., 255., 255., 255., 255., 255., 255., 255., 255., 255.,
          255., 255., 255., 255., 255., 255., 255., 255., 255., 255.,
          255., 255., 255., 255., 255., 255., 255., 255., 255., 255.,
          128., 128., 128., 128., 128., 128., 128., 128., 128., 128.,
          128., 128., 128., 128., 128., 128., 128., 128., 128., 128.,
          128., 128., 128., 128., 128., 128., 128., 128., 128., 128.,
          128., 128., 128., 128., 128., 128., 128., 128., 128., 0., 0.,
          0., 0., 0., 0., 0., 0., 0., 0., 0., 0., 0., 0., 0., 0., 0., 0.,
          0., 0., 0., 0., 0., 0., 0., 0., 0., 0., 0., 0., 0., 0., 0., 0.,
          0., 0., 0., 0., 0., 0., 0., 0., 0., 0., 0., 0., 0., 0., 0., 0.,
          0., 0., 0., 0., 0., 0., 0., 0., 0., 0., 0., 0., 0., 0., 0., 0.,
          0., 0., 0., 0., 0., 0., 0., 0., 0., 0., 0., 0., 0., 0., 0., 0.,
          0., 0., 0., 0., 0., 0., 0., 0., 0., 0., 0., 0., 0., 0., 0., 0.,
          0., 0., 0., 0., 0., 0., 0., 0., 0., 0., 0., 0., 0., 0., 0., 0.,
          0., 0., 0., 255., 255., 255., 255., 255., 255., 255., 255.,
          255., 255., 255., 255., 255., 255., 255., 255., 255., 255.,
          255., 255., 255., 255., 255., 255., 255., 255., 255., 255.,
          255., 255., 255., 255., 255., 255., 255., 255., 255., 255.,
          255., 255., 255., 255., 255., 255., 255., 255., 255., 255.,
          255., 255., 255., 255., 255., 255., 255., 255., 255., 255.,
          255., 255., 255., 255., 255., 255., 255., 255., 255., 255.,
          255., 255., 255., 255., 255., 255., 255., 255., 255., 255.,
          255., 255., 255., 255., 255., 255., 255., 255., 255., 255.,
          255., 255., 255., 255., 255., 255., 255., 255., 255., 255.,
          255., 255., 255., 255., 255., 255., 255., 255., 255., 255.,
          255., 255., 255., 255., 255., 255., 255., 255., 255. ]
      - [ 0., 0., 0., 0., 0., 0., 0., 0., 0., 0., 0., 0., 0., 0., 0., 0.,
          0., 0., 0., 0., 0., 0., 0., 0., 0., 0., 0., 0., 0., 0., 147.,
          147., 147., 255., 255., 255., 255., 255., 255., 0., 0., 0., 0.,
          0., 0., 0., 0., 0., 0., 0., 0., 0., 0., 0., 0., 0., 0., 0., 0.,
          0., 0., 0., 0., 10., 10., 10., 206., 206., 206., 255., 255.,
          255., 255., 255., 255., 255., 255., 255., 0., 0., 0., 0., 0.,
          0., 0., 0., 0., 0., 0., 0., 0., 0., 0., 0., 0., 0., 0., 0., 0.,
          50., 50., 50., 189., 189., 189., 255., 255., 255., 255., 255.,
          255., 255., 255., 255., 255., 255., 255., 0., 0., 0., 0., 0.,
          0., 0., 0., 0., 0., 0., 0., 0., 0., 0., 0., 0., 0., 0., 0., 0.,
          69., 69., 69., 255., 255., 255., 255., 255., 255., 255., 255.,
          255., 217., 217., 217., 147., 147., 147., 0., 0., 0., 0., 0.,
          0., 0., 0., 0., 0., 0., 0., 0., 0., 0., 0., 0., 0., 127., 127.,
          127., 255., 255., 255., 255., 255., 255., 255., 255., 255.,
          255., 255., 255., 148., 148., 148., 0., 0., 0., 0., 0., 0., 0.,
          0., 0., 0., 0., 0., 0., 0., 0., 0., 0., 0., 151., 151., 151.,
          230., 230., 230., 255., 255., 255., 255., 255., 255., 255.,
          255., 255., 108., 108., 108., 0., 0., 0., 0., 0., 0., 0., 0.,
          0., 0., 0., 0., 0., 0., 0., 0., 0., 0., 0., 0., 0., 186., 186.,
          186., 255., 255., 255., 255., 255., 255., 255., 255., 255.,
          49., 49., 49., 0., 0., 0., 0., 0., 0., 0., 0., 0., 0., 0., 0.,
          0., 0., 0., 0., 0., 0., 49., 49., 49., 255., 255., 255., 255.,
          255., 255., 255., 255., 255., 255., 255., 255., 198., 198.,
          198., 40., 40., 40., 0., 0., 0., 0., 0., 0., 0., 0., 0., 0.,
          0., 0., 0., 0., 0., 95., 95., 95., 255., 255., 255., 255.,
          255., 255., 255., 255., 255., 255., 255., 255., 186., 186.,
          186., 0., 0., 0., 0., 0., 0., 0., 0., 0., 0., 0., 0., 0., 0.,
          0., 0., 0., 0., 96., 96., 96., 193., 193., 193., 255., 255.,
          255., 255., 255., 255., 255., 255., 255., 127., 127., 127., 0.,
          0., 0., 0., 0., 0., 0., 0., 0., 0., 0., 0., 0., 0., 0., 0., 0.,
          0., 0., 0., 0., 167., 167., 167., 255., 255., 255., 255., 255.,
          255., 255., 255., 255., 68., 68., 68., 0., 0., 0., 0., 0., 0.,
          0., 0., 0., 0., 0., 0., 0., 0., 0., 0., 0., 0., 0., 0., 0.,
          255., 255., 255., 255., 255., 255., 255., 255., 255., 255.,
          255., 255., 255., 255., 255., 68., 68., 68., 0., 0., 0., 0.,
          0., 0., 0., 0., 0., 0., 0., 0., 0., 0., 0., 0., 0., 0., 0., 0.,
          0., 88., 88., 88., 197., 197., 197., 255., 255., 255., 206.,
          206., 206., 10., 10., 10., 0., 0., 0., 0., 0., 0., 0., 0., 0.,
          0., 0., 0., 0., 0., 0., 0., 0., 0., 0., 0., 0., 0., 0., 0. ]
      - [ 0., 0., 0., 0., 0., 0., 0., 0., 0., 0., 0., 0., 0., 0., 0., 0.,
          0., 0., 0., 0., 0., 0., 0., 0., 0., 0., 0., 0., 0., 0., 0., 0.,
          0., 0., 0., 0., 0., 0., 0., 0., 0., 0., 0., 0., 0., 0., 0., 0.,
          0., 0., 0., 0., 0., 0., 0., 0., 0., 0., 0., 0., 0., 0., 0., 0.,
          0., 0., 0., 0., 0., 0., 0., 0., 0., 0., 0., 0., 0., 0., 0., 0.,
          0., 0., 0., 0., 0., 0., 0., 0., 0., 0., 0., 0., 0., 0., 0., 0.,
          0., 0., 0., 0., 0., 0., 0., 0., 0., 0., 0., 0., 0., 0., 0., 0.,
          0., 0., 0., 0., 0., 0., 0., 0., 0., 0., 0., 0., 0., 0., 0., 0.,
          0., 0., 0., 0., 0., 0., 0., 0., 0., 0., 0., 0., 0., 0., 0., 0.,
          0., 0., 0., 0., 0., 0., 0., 0., 0., 0., 0., 0., 0., 0., 0., 0.,
          0., 0., 0., 0., 0., 0., 0., 0., 0., 0., 0., 0., 0., 0., 0., 0.,
          0., 0., 0., 0., 0., 0., 0., 0., 0., 0., 0., 0., 0., 0., 0., 0.,
          0., 0., 0., 0., 0., 0., 0., 0., 0., 0., 0., 0., 0., 0., 0., 0.,
          0., 0., 0., 0., 0., 0., 0., 0., 0., 0., 0., 0., 0., 0., 0., 0.,
          0., 0., 0., 0., 0., 0., 0., 0., 0., 0., 0., 0., 0., 0., 0., 0.,
          0., 0., 0., 0., 0., 0., 0., 0., 0., 0., 0., 0., 0., 0., 0., 0.,
          0., 0., 0., 0., 0., 0., 0., 0., 0., 0., 0., 0., 0., 0., 0., 0.,
          0., 0., 0., 0., 0., 0., 0., 0., 0., 0., 0., 0., 0., 0., 0., 0.,
          0., 0., 0., 0., 0., 0., 0., 0., 0., 0., 0., 0., 0., 0., 0., 0.,
          0., 0., 0., 0., 0., 0., 0., 0., 0., 0., 0., 0., 0., 0., 0., 0.,
          0., 0., 0., 0., 0., 0., 0., 0., 0., 0., 0., 0., 0., 0., 0., 0.,
          0., 0., 0., 0., 0., 0., 0., 0., 0., 0., 0., 0., 0., 0., 0., 0.,
          0., 0., 0., 0., 0., 0., 0., 0., 0., 0., 0., 0., 0., 0., 0., 0.,
          0., 0., 0., 0., 0., 0., 0., 0., 0., 0., 0., 0., 0., 0., 0., 0.,
          0., 0., 0., 0., 0., 0., 108., 108., 108., 108., 108., 108.,
          108., 108., 108., 108., 108., 108., 108., 108., 108., 108.,
          108., 108., 108., 108., 108., 108., 108., 108., 108., 108.,
          108., 108., 108., 108., 108., 108., 108., 108., 108., 108.,
          108., 108., 108., 255., 255., 255., 255., 255., 255., 255.,
          255., 255., 255., 255., 255., 255., 255., 255., 255., 255.,
          255., 255., 255., 255., 255., 255., 255., 255., 255., 255.,
          255., 255., 255., 255., 255., 255., 255., 255., 255., 255.,
          255., 255., 255., 255., 255., 255., 255., 255., 255., 255.,
          255., 255., 255., 255., 255., 255., 255., 255., 255., 255.,
          255., 255., 255., 255., 255., 255., 255., 255., 255., 255.,
          255., 255., 255., 255., 255., 255., 255., 255., 255., 255.,
          255. ]
   decision_functions:
      -
         sv_count: 1
         rho: -1.4928225608182744e+00
         alpha: [ 1. ]
         index: [ 0 ]
