%YAML:1.0
---
opencv_ml_svm:
   format: 3
   svmType: C_SVC
   kernel:
      type: LINEAR
   C: 1.
   term_criteria: { iterations:100 }
   var_count: 507
   class_count: 2
   class_labels: !!opencv-matrix
      rows: 2
      cols: 1
      dt: i
      data: [ -1, 1 ]
   sv_total: 1
   support_vectors:
      - [ -1.32532441e-04, -1.32532441e-04, -1.32532441e-04,
          -1.33642039e-04, -1.33642039e-04, -1.33642039e-04,
          -6.47642883e-05, -6.47642883e-05, -6.47642883e-05,
          -3.05068334e-05, -3.05068334e-05, -3.05068334e-05,
          -2.62312842e-05, -2.62312842e-05, -2.62312842e-05,
          2.19160302e-05, 2.19160302e-05, 2.19160302e-05, 7.54403445e-05,
          7.54403445e-05, 7.54403445e-05, 2.20268576e-05, 2.20268576e-05,
          2.20268576e-05, -2.29354719e-05, -2.29354719e-05,
          -2.29354719e-05, -2.26029952e-05, -2.26029952e-05,
          -2.26029952e-05, 9.21914616e-05, 9.21914616e-05,
          9.21914616e-05, 2.99877556e-05, 2.99877556e-05, 2.99877556e-05,
          -8.39643326e-05, -8.39643326e-05, -8.39643326e-05,
          -3.03879089e-04, -3.03879089e-04, -3.03879089e-04,
          -1.55796151e-04, -1.55796151e-04, -1.55796151e-04,
          -2.11520819e-05, -2.11520819e-05, -2.11520819e-05,
          -1.98030793e-05, -1.98030793e-05, -1.98030793e-05,
          -1.99866881e-05, -1.99866881e-05, -1.99866881e-05,
          -2.19815593e-05, -2.19815593e-05, -2.19815593e-05,
          -2.24507148e-05, -2.24507148e-05, -2.24507148e-05,
          -2.08437359e-05, -2.08437359e-05, -2.08437359e-05,
          -1.21382800e-05, -1.21382800e-05, -1.21382800e-05,
          -8.23911796e-06, -8.23911796e-06, -8.23911796e-06,
          -8.23911796e-06, -8.23911796e-06, -8.23911796e-06,
          -8.23911796e-06, -8.23911796e-06, -8.23911796e-06,
          -4.03486047e-05, -4.03486047e-05, -4.03486047e-05,
          -2.16815359e-04, -2.16815359e-04, -2.16815359e-04,
          -2.16133034e-04, -2.16133034e-04, -2.16133034e-04,
          -2.03852120e-04, -2.03852120e-04, -2.03852120e-04,
          -1.26521772e-04, -1.26521772e-04, -1.26521772e-04,
          -2.72158541e-05, -2.72158541e-05, -2.72158541e-05,
          7.84463773e-05, 7.84463773e-05, 7.84463773e-05, 9.54936113e-05,
          9.54936113e-05, 9.54936113e-05, -1.21071562e-05,
          -1.21071562e-05, -1.21071562e-05, -2.55528357e-05,
          -2.55528357e-05, -2.55528357e-05, -9.52688333e-06,
          -9.52688333e-06, -9.52688333e-06, -9.25226414e-06,
          -9.25226414e-06, -9.25226414e-06, -8.67332346e-06,
          -8.67332346e-06, -8.67332346e-06, -8.23911796e-06,
          -8.23911796e-06, -8.23911796e-06, 5.09012243e-05,
          5.09012243e-05, 5.09012243e-05, 5.09012243e-05, 5.09012243e-05,
          5.09012243e-05, 5.09012243e-05, 5.09012243e-05, 5.09012243e-05,
          1.72065302e-05, 1.72065302e-05, 1.72065302e-05, 1.22857855e-05,
          1.22857855e-05, 1.22857855e-05, 2.64770715e-05, 2.64770715e-05,
          2.64770715e-05, 8.03259318e-05, 8.03259318e-05, 8.03259318e-05,
          1.12418711e-04, 1.12418711e-04, 1.12418711e-04, 2.31139464e-04,
          2.31139464e-04, 2.31139464e-04, 2.47061816e-05, 2.47061816e-05,
          2.47061816e-05, -1.08753657e-05, -1.08753657e-05,
          -1.08753657e-05, -9.35564640e-06, -9.35564640e-06,
          -9.35564640e-06, -8.23911796e-06, -8.23911796e-06,
          -8.23911796e-06, 5.06546276e-05, 5.06546276e-05,
          5.06546276e-05, 5.06546276e-05, 5.06546276e-05, 5.06546276e-05,
          5.06546276e-05, 5.06546276e-05, 5.06546276e-05, 1.70552103e-05,
          1.70552103e-05, 1.70552103e-05, 1.22661695e-05, 1.22661695e-05,
          1.22661695e-05, 1.90678747e-06, 1.90678747e-06, 1.90678747e-06,
          0., 0., 0., 7.61266056e-05, 7.61266056e-05, 7.61266056e-05,
          1.70593994e-04, 1.70593994e-04, 1.70593994e-04,
          -3.64333173e-05, -3.64333173e-05, -3.64333173e-05,
          -1.08753657e-05, -1.08753657e-05, -1.08753657e-05,
          -1.50077794e-05, -1.50077794e-05, -1.50077794e-05,
          2.51558340e-05, 2.51558340e-05, 2.51558340e-05, 5.01866562e-05,
          5.01866562e-05, 5.01866562e-05, 5.01866562e-05, 5.01866562e-05,
          5.01866562e-05, 5.01866562e-05, 5.01866562e-05, 5.01866562e-05,
          1.67665803e-05, 1.67665803e-05, 1.67665803e-05, 1.22297406e-05,
          1.22297406e-05, 1.22297406e-05, 1.90678747e-06, 1.90678747e-06,
          1.90678747e-06, 0., 0., 0., 7.61266056e-05, 7.61266056e-05,
          7.61266056e-05, 1.69993946e-04, 1.69993946e-04, 1.69993946e-04,
          -3.64333173e-05, -3.64333173e-05, -3.64333173e-05,
          -1.08753657e-05, -1.08753657e-05, -1.08753657e-05,
          -1.75013665e-05, -1.75013665e-05, -1.75013665e-05,
          1.01239319e-04, 1.01239319e-04, 1.01239319e-04, 4.75504094e-05,
          4.75504094e-05, 4.75504094e-05, 4.75504094e-05, 4.75504094e-05,
          4.75504094e-05, 4.75504094e-05, 4.75504094e-05, 4.75504094e-05,
          4.87634998e-06, 4.87634998e-06, 4.87634998e-06, 0., 0., 0.,
          1.65331699e-07, 1.65331699e-07, 1.65331699e-07, 8.45693648e-05,
          8.45693648e-05, 8.45693648e-05, 1.53483008e-04, 1.53483008e-04,
          1.53483008e-04, -3.99418095e-05, -3.99418095e-05,
          -3.99418095e-05, -8.65179318e-05, -8.65179318e-05,
          -8.65179318e-05, -8.23911796e-06, -8.23911796e-06,
          -8.23911796e-06, -1.63848381e-05, -1.63848381e-05,
          -1.63848381e-05, 1.01239319e-04, 1.01239319e-04,
          1.01239319e-04, 4.75504094e-05, 4.75504094e-05, 4.75504094e-05,
          4.76765090e-05, 4.76765090e-05, 4.76765090e-05, 4.79006885e-05,
          4.79006885e-05, 4.79006885e-05, 1.45422600e-05, 1.45422600e-05,
          1.45422600e-05, 1.14420227e-05, 1.14420227e-05, 1.14420227e-05,
          4.46031390e-06, 4.46031390e-06, 4.46031390e-06, 8.74895486e-05,
          8.74895486e-05, 8.74895486e-05, 1.56910042e-04, 1.56910042e-04,
          1.56910042e-04, -3.85984131e-05, -3.85984131e-05,
          -3.85984131e-05, -8.61118315e-05, -8.61118315e-05,
          -8.61118315e-05, -8.23911796e-06, -8.23911796e-06,
          -8.23911796e-06, -8.49273783e-06, -8.49273783e-06,
          -8.49273783e-06, 5.14329804e-05, 5.14329804e-05,
          5.14329804e-05, 4.32281886e-05, 4.32281886e-05, 4.32281886e-05,
          4.52753957e-05, 4.52753957e-05, 4.52753957e-05, 4.81867064e-05,
          4.81867064e-05, 4.81867064e-05, 1.53721503e-05, 1.53721503e-05,
          1.53721503e-05, 1.61475182e-05, 1.61475182e-05, 1.61475182e-05,
          1.72653763e-05, 1.72653763e-05, 1.72653763e-05, 1.01223850e-04,
          1.01223850e-04, 1.01223850e-04, 2.29364188e-04, 2.29364188e-04,
          2.29364188e-04, -4.21271689e-05, -4.21271689e-05,
          -4.21271689e-05, -4.21271689e-05, -4.21271689e-05,
          -4.21271689e-05, -8.74352008e-06, -8.74352008e-06,
          -8.74352008e-06, 2.97351812e-06, 2.97351812e-06,
          2.97351812e-06, 1.30993256e-04, 1.30993256e-04, 1.30993256e-04,
          3.34200777e-05, 3.34200777e-05, 3.34200777e-05, 3.73695220e-05,
          3.73695220e-05, 3.73695220e-05, 4.28885505e-05, 4.28885505e-05,
          4.28885505e-05, 1.02444110e-05, 1.02444110e-05, 1.02444110e-05,
          1.01296000e-05, 1.01296000e-05, 1.01296000e-05, 6.10257666e-05,
          6.10257666e-05, 6.10257666e-05, 1.27873922e-04, 1.27873922e-04,
          1.27873922e-04, 6.21987128e-05, 6.21987128e-05, 6.21987128e-05,
          -4.53668945e-05, -4.53668945e-05, -4.53668945e-05,
          -4.35936745e-05, -4.35936745e-05, -4.35936745e-05,
          -1.01735977e-05, -1.01735977e-05, -1.01735977e-05,
          9.03690125e-06, 9.03690125e-06, 9.03690125e-06, 1.52886263e-04,
          1.52886263e-04, 1.52886263e-04, 1.57270952e-05, 1.57270952e-05,
          1.57270952e-05, 3.47551795e-05, 3.47551795e-05, 3.47551795e-05,
          3.66616077e-05, 3.66616077e-05, 3.66616077e-05, 3.67708926e-05,
          3.67708926e-05, 3.67708926e-05, 2.51137885e-06, 2.51137885e-06,
          2.51137885e-06, 7.69505641e-05, 7.69505641e-05, 7.69505641e-05,
          8.20818314e-05, 8.20818314e-05, 8.20818314e-05,
          -5.75333652e-05, -5.75333652e-05, -5.75333652e-05,
          -4.88335136e-05, -4.88335136e-05, -4.88335136e-05,
          -2.94139754e-05, -2.94139754e-05, -2.94139754e-05,
          -1.15899347e-05, -1.15899347e-05, -1.15899347e-05,
          9.12224059e-05, 9.12224059e-05, 9.12224059e-05, 1.27601699e-04,
          1.27601699e-04, 1.27601699e-04, 6.33281252e-06, 6.33281252e-06,
          6.33281252e-06, 1.26481618e-05, 1.26481618e-05, 1.26481618e-05,
          4.29944193e-05, 4.29944193e-05, 4.29944193e-05, 4.31037079e-05,
          4.31037079e-05, 4.31037079e-05, 4.23903693e-05, 4.23903693e-05,
          4.23903693e-05, 1.16668249e-04, 1.16668249e-04, 1.16668249e-04,
          1.04266292e-04, 1.04266292e-04, 1.04266292e-04,
          -1.71471711e-05, -1.71471711e-05, -1.71471711e-05,
          -8.44731949e-06, -8.44731949e-06, -8.44731949e-06,
          -4.62381831e-06, -4.62381831e-06, -4.62381831e-06,
          1.31585839e-04, 1.31585839e-04, 1.31585839e-04, 1.66459387e-04,
          1.66459387e-04, 1.66459387e-04, 2.86604161e-04, 2.86604161e-04,
          2.86604161e-04, 8.23911796e-06, 8.23911796e-06, 8.23911796e-06,
          9.36405286e-06, 9.36405286e-06, 9.36405286e-06, 1.08977838e-05,
          1.08977838e-05, 1.08977838e-05, 2.57130687e-05, 2.57130687e-05,
          2.57130687e-05, 4.43234640e-05, 4.43234640e-05, 4.43234640e-05,
          7.53525383e-05, 7.53525383e-05, 7.53525383e-05, 1.35392211e-05,
          1.35392211e-05, 1.35392211e-05, -1.11674955e-04,
          -1.11674955e-04, -1.11674955e-04, -1.02975107e-04,
          -1.02975107e-04, -1.02975107e-04, -1.17762000e-04,
          -1.17762000e-04, -1.17762000e-04, 1.73834240e-04,
          1.73834240e-04, 1.73834240e-04, 1.44505801e-04, 1.44505801e-04,
          1.44505801e-04, 2.43129289e-05, 2.43129289e-05, 2.43129289e-05 ]
   uncompressed_sv_total: 10
   uncompressed_support_vectors:
      - [ 0., 0., 0., 0., 0., 0., 10., 10., 10., 255., 255., 255., 255.,
          255., 255., 255., 255., 255., 255., 255., 255., 255., 255.,
          255., 255., 255., 255., 255., 255., 255., 10., 10., 10., 0.,
          0., 0., 0., 0., 0., 0., 0., 0., 255., 255., 255., 255., 255.,
          255., 255., 255., 255., 255., 255., 255., 255., 255., 255.,
          255., 255., 255., 255., 255., 255., 255., 255., 255., 255.,
          255., 255., 255., 255., 255., 255., 255., 255., 10., 10., 10.,
          255., 255., 255., 255., 255., 255., 255., 255., 255., 255.,
          255., 255., 0., 0., 0., 0., 0., 0., 0., 0., 0., 0., 0., 0., 0.,
          0., 0., 255., 255., 255., 255., 255., 255., 255., 255., 255.,
          255., 255., 255., 255., 255., 255., 255., 255., 255., 255.,
          255., 255., 0., 0., 0., 0., 0., 0., 0., 0., 0., 0., 0., 0., 0.,
          0., 0., 0., 0., 0., 0., 0., 0., 255., 255., 255., 255., 255.,
          255., 255., 255., 255., 255., 255., 255., 255., 255., 255.,
          255., 255., 255., 0., 0., 0., 0., 0., 0., 0., 0., 0., 0., 0.,
          0., 0., 0., 0., 0., 0., 0., 0., 0., 0., 255., 255., 255., 255.,
          255., 255., 255., 255., 255., 255., 255., 255., 255., 255.,
          255., 255., 255., 255., 0., 0., 0., 0., 0., 0., 0., 0., 0., 0.,
          0., 0., 0., 0., 0., 0., 0., 0., 0., 0., 0., 255., 255., 255.,
          255., 255., 255., 255., 255., 255., 255., 255., 255., 255.,
          255., 255., 255., 255., 255., 0., 0., 0., 0., 0., 0., 0., 0.,
          0., 0., 0., 0., 0., 0., 0., 0., 0., 0., 0., 0., 0., 255., 255.,
          255., 255., 255., 255., 255., 255., 255., 255., 255., 255.,
          255., 255., 255., 255., 255., 255., 0., 0., 0., 0., 0., 0., 0.,
          0., 0., 0., 0., 0., 0., 0., 0., 0., 0., 0., 0., 0., 0., 255.,
          255., 255., 255., 255., 255., 255., 255., 255., 255., 255.,
          255., 255., 255., 255., 255., 255., 255., 0., 0., 0., 0., 0.,
          0., 0., 0., 0., 0., 0., 0., 0., 0., 0., 0., 0., 0., 0., 0., 0.,
          255., 255., 255., 255., 255., 255., 255., 255., 255., 255.,
          255., 255., 255., 255., 255., 255., 255., 255., 0., 0., 0., 0.,
          0., 0., 0., 0., 0., 0., 0., 0., 0., 0., 0., 0., 0., 0., 0., 0.,
          0., 255., 255., 255., 255., 255., 255., 255., 255., 255., 120.,
          120., 120., 255., 255., 255., 255., 255., 255., 255., 255.,
          255., 0., 0., 0., 0., 0., 0., 0., 0., 0., 0., 0., 0., 0., 0.,
          0., 119., 119., 119., 255., 255., 255., 255., 255., 255., 120.,
          120., 120., 0., 0., 0., 38., 38., 38., 255., 255., 255., 255.,
          255., 255., 255., 255., 255., 255., 255., 255., 226., 226.,
          226., 255., 255., 255., 255., 255., 255., 255., 255., 255.,
          255., 255., 255., 38., 38., 38., 0., 0., 0., 0., 0., 0., 0.,
          0., 0., 0., 0., 0., 113., 113., 113., 255., 255., 255., 255.,
          255., 255., 255., 255., 255., 255., 255., 255., 255., 255.,
          255., 113., 113., 113., 0., 0., 0., 0., 0., 0., 0., 0., 0. ]
      - [ 0., 0., 0., 0., 0., 0., 0., 0., 0., 0., 0., 0., 12., 12., 12.,
          20., 20., 20., 20., 20., 20., 20., 20., 20., 20., 20., 20.,
          20., 20., 20., 20., 20., 20., 20., 20., 20., 20., 20., 20., 0.,
          0., 0., 137., 137., 137., 255., 255., 255., 255., 255., 255.,
          255., 255., 255., 255., 255., 255., 255., 255., 255., 255.,
          255., 255., 255., 255., 255., 255., 255., 255., 255., 255.,
          255., 255., 255., 255., 255., 255., 255., 0., 0., 0., 0., 0.,
          0., 36., 36., 36., 145., 145., 145., 217., 217., 217., 255.,
          255., 255., 255., 255., 255., 255., 255., 255., 255., 255.,
          255., 255., 255., 255., 255., 255., 255., 255., 255., 255.,
          255., 255., 255., 0., 0., 0., 0., 0., 0., 0., 0., 0., 0., 0.,
          0., 0., 0., 0., 78., 78., 78., 255., 255., 255., 255., 255.,
          255., 255., 255., 255., 255., 255., 255., 255., 255., 255.,
          255., 255., 255., 255., 255., 255., 0., 0., 0., 0., 0., 0., 0.,
          0., 0., 0., 0., 0., 0., 0., 0., 0., 0., 0., 0., 0., 0., 176.,
          176., 176., 255., 255., 255., 255., 255., 255., 255., 255.,
          255., 255., 255., 255., 255., 255., 255., 0., 0., 0., 0., 0.,
          0., 0., 0., 0., 0., 0., 0., 0., 0., 0., 0., 0., 0., 0., 0., 0.,
          176., 176., 176., 255., 255., 255., 255., 255., 255., 255.,
          255., 255., 255., 255., 255., 255., 255., 255., 0., 0., 0., 0.,
          0., 0., 0., 0., 0., 0., 0., 0., 0., 0., 0., 0., 0., 0., 0., 0.,
          0., 177., 177., 177., 255., 255., 255., 255., 255., 255., 255.,
          255., 255., 255., 255., 255., 255., 255., 255., 0., 0., 0., 0.,
          0., 0., 0., 0., 0., 0., 0., 0., 0., 0., 0., 0., 0., 0., 0., 0.,
          0., 176., 176., 176., 255., 255., 255., 255., 255., 255., 255.,
          255., 255., 137., 137., 137., 0., 0., 0., 0., 0., 0., 0., 0.,
          0., 0., 0., 0., 0., 0., 0., 0., 0., 0., 0., 0., 0., 0., 0., 0.,
          176., 176., 176., 255., 255., 255., 255., 255., 255., 255.,
          255., 255., 137., 137., 137., 0., 0., 0., 0., 0., 0., 0., 0.,
          0., 0., 0., 0., 0., 0., 0., 0., 0., 0., 0., 0., 0., 0., 0., 0.,
          176., 176., 176., 255., 255., 255., 255., 255., 255., 255.,
          255., 255., 137., 137., 137., 0., 0., 0., 0., 0., 0., 0., 0.,
          0., 0., 0., 0., 0., 0., 0., 0., 0., 0., 78., 78., 78., 255.,
          255., 255., 255., 255., 255., 255., 255., 255., 255., 255.,
          255., 255., 255., 255., 137., 137., 137., 0., 0., 0., 0., 0.,
          0., 0., 0., 0., 0., 0., 0., 0., 0., 0., 0., 0., 0., 78., 78.,
          78., 255., 255., 255., 255., 255., 255., 255., 255., 255.,
          255., 255., 255., 255., 255., 255., 137., 137., 137., 0., 0.,
          0., 0., 0., 0., 0., 0., 0., 0., 0., 0., 0., 0., 0., 0., 0., 0.,
          78., 78., 78., 255., 255., 255., 255., 255., 255., 255., 255.,
          255., 255., 255., 255., 255., 255., 255., 137., 137., 137., 0.,
          0., 0. ]
      - [ 0., 0., 0., 9., 9., 9., 25., 25., 25., 29., 29., 29., 29., 29.,
          29., 133., 133., 133., 255., 255., 255., 133., 133., 133., 29.,
          29., 29., 29., 29., 29., 29., 29., 29., 29., 29., 29., 29.,
          29., 29., 255., 255., 255., 255., 255., 255., 255., 255., 255.,
          255., 255., 255., 255., 255., 255., 255., 255., 255., 255.,
          255., 255., 255., 255., 255., 255., 255., 255., 255., 255.,
          255., 255., 255., 255., 255., 255., 255., 255., 255., 255., 0.,
          0., 0., 0., 0., 0., 0., 0., 0., 98., 98., 98., 255., 255.,
          255., 255., 255., 255., 255., 255., 255., 255., 255., 255.,
          255., 255., 255., 255., 255., 255., 255., 255., 255., 255.,
          255., 255., 255., 255., 255., 0., 0., 0., 0., 0., 0., 0., 0.,
          0., 0., 0., 0., 0., 0., 0., 0., 0., 0., 0., 0., 0., 26., 26.,
          26., 65., 65., 65., 176., 176., 176., 255., 255., 255., 255.,
          255., 255., 255., 255., 255., 0., 0., 0., 0., 0., 0., 0., 0.,
          0., 0., 0., 0., 0., 0., 0., 0., 0., 0., 0., 0., 0., 0., 0., 0.,
          20., 20., 20., 157., 157., 157., 255., 255., 255., 255., 255.,
          255., 255., 255., 255., 0., 0., 0., 0., 0., 0., 0., 0., 0., 0.,
          0., 0., 0., 0., 0., 0., 0., 0., 0., 0., 0., 0., 0., 0., 20.,
          20., 20., 157., 157., 157., 255., 255., 255., 255., 255., 255.,
          255., 255., 255., 0., 0., 0., 0., 0., 0., 0., 0., 0., 0., 0.,
          0., 0., 0., 0., 0., 0., 0., 0., 0., 0., 0., 0., 0., 20., 20.,
          20., 157., 157., 157., 255., 255., 255., 255., 255., 255.,
          255., 255., 255., 0., 0., 0., 0., 0., 0., 0., 0., 0., 0., 0.,
          0., 0., 0., 0., 0., 0., 0., 0., 0., 0., 0., 0., 0., 20., 20.,
          20., 157., 157., 157., 255., 255., 255., 255., 255., 255.,
          255., 255., 255., 0., 0., 0., 0., 0., 0., 0., 0., 0., 0., 0.,
          0., 0., 0., 0., 0., 0., 0., 0., 0., 0., 137., 137., 137., 255.,
          255., 255., 255., 255., 255., 255., 255., 255., 255., 255.,
          255., 255., 255., 255., 0., 0., 0., 0., 0., 0., 0., 0., 0., 0.,
          0., 0., 0., 0., 0., 118., 118., 118., 255., 255., 255., 255.,
          255., 255., 255., 255., 255., 255., 255., 255., 255., 255.,
          255., 255., 255., 255., 255., 255., 255., 0., 0., 0., 0., 0.,
          0., 0., 0., 0., 0., 0., 0., 0., 0., 0., 118., 118., 118., 255.,
          255., 255., 255., 255., 255., 255., 255., 255., 255., 255.,
          255., 255., 255., 255., 255., 255., 255., 255., 255., 255., 0.,
          0., 0., 0., 0., 0., 0., 0., 0., 0., 0., 0., 0., 0., 0., 117.,
          117., 117., 255., 255., 255., 255., 255., 255., 255., 255.,
          255., 255., 255., 255., 255., 255., 255., 255., 255., 255.,
          255., 255., 255., 0., 0., 0., 0., 0., 0., 0., 0., 0., 0., 0.,
          0., 0., 0., 0., 14., 14., 14., 29., 29., 29., 29., 29., 29.,
          29., 29., 29., 29., 29., 29., 29., 29., 29., 29., 29., 29.,
          29., 29., 29. ]
      - [ 255., 255., 255., 255., 255., 255., 255., 255., 255., 255.,
          255., 255., 255., 255., 255., 255., 255., 255., 255., 255.,
          255., 255., 255., 255., 255., 255., 255., 255., 255., 255.,
          255., 255., 255., 255., 255., 255., 255., 255., 255., 0., 0.,
          0., 108., 108., 108., 255., 255., 255., 255., 255., 255., 255.,
          255., 255., 255., 255., 255., 255., 255., 255., 255., 255.,
          255., 255., 255., 255., 255., 255., 255., 255., 255., 255.,
          255., 255., 255., 255., 255., 255., 0., 0., 0., 0., 0., 0., 0.,
          0., 0., 0., 0., 0., 69., 69., 69., 226., 226., 226., 255.,
          255., 255., 255., 255., 255., 255., 255., 255., 255., 255.,
          255., 255., 255., 255., 255., 255., 255., 255., 255., 255., 0.,
          0., 0., 0., 0., 0., 0., 0., 0., 0., 0., 0., 0., 0., 0., 0., 0.,
          0., 0., 0., 0., 29., 29., 29., 186., 186., 186., 255., 255.,
          255., 255., 255., 255., 255., 255., 255., 255., 255., 255., 0.,
          0., 0., 0., 0., 0., 0., 0., 0., 0., 0., 0., 0., 0., 0., 0., 0.,
          0., 0., 0., 0., 29., 29., 29., 186., 186., 186., 255., 255.,
          255., 255., 255., 255., 255., 255., 255., 255., 255., 255., 0.,
          0., 0., 0., 0., 0., 0., 0., 0., 0., 0., 0., 0., 0., 0., 0., 0.,
          0., 0., 0., 0., 29., 29., 29., 186., 186., 186., 255., 255.,
          255., 255., 255., 255., 255., 255., 255., 255., 255., 255., 0.,
          0., 0., 0., 0., 0., 0., 0., 0., 0., 0., 0., 0., 0., 0., 0., 0.,
          0., 128., 128., 128., 255., 255., 255., 255., 255., 255., 255.,
          255., 255., 255., 255., 255., 255., 255., 255., 255., 255.,
          255., 0., 0., 0., 0., 0., 0., 0., 0., 0., 0., 0., 0., 0., 0.,
          0., 0., 0., 0., 128., 128., 128., 255., 255., 255., 255., 255.,
          255., 255., 255., 255., 255., 255., 255., 255., 255., 255.,
          255., 255., 255., 0., 0., 0., 0., 0., 0., 0., 0., 0., 0., 0.,
          0., 0., 0., 0., 0., 0., 0., 128., 128., 128., 255., 255., 255.,
          255., 255., 255., 255., 255., 255., 255., 255., 255., 108.,
          108., 108., 0., 0., 0., 0., 0., 0., 0., 0., 0., 0., 0., 0., 0.,
          0., 0., 0., 0., 0., 0., 0., 0., 128., 128., 128., 255., 255.,
          255., 255., 255., 255., 255., 255., 255., 255., 255., 255.,
          108., 108., 108., 0., 0., 0., 0., 0., 0., 0., 0., 0., 0., 0.,
          0., 0., 0., 0., 0., 0., 0., 0., 0., 0., 128., 128., 128., 255.,
          255., 255., 255., 255., 255., 255., 255., 255., 255., 255.,
          255., 108., 108., 108., 0., 0., 0., 0., 0., 0., 0., 0., 0., 0.,
          0., 0., 0., 0., 0., 0., 0., 0., 0., 0., 0., 128., 128., 128.,
          255., 255., 255., 255., 255., 255., 255., 255., 255., 255.,
          255., 255., 255., 255., 255., 255., 255., 255., 0., 0., 0., 0.,
          0., 0., 0., 0., 0., 0., 0., 0., 0., 0., 0., 0., 0., 0., 128.,
          128., 128., 255., 255., 255., 255., 255., 255., 255., 255.,
          255., 255., 255., 255., 108., 108., 108., 0., 0., 0. ]
      - [ 0., 0., 0., 0., 0., 0., 1., 1., 1., 13., 13., 13., 20., 20.,
          20., 20., 20., 20., 20., 20., 20., 20., 20., 20., 20., 20.,
          20., 20., 20., 20., 20., 20., 20., 20., 20., 20., 20., 20.,
          20., 0., 0., 0., 25., 25., 25., 66., 66., 66., 187., 187.,
          187., 255., 255., 255., 255., 255., 255., 255., 255., 255.,
          255., 255., 255., 255., 255., 255., 255., 255., 255., 255.,
          255., 255., 255., 255., 255., 255., 255., 255., 98., 98., 98.,
          164., 164., 164., 255., 255., 255., 255., 255., 255., 228.,
          228., 228., 168., 168., 168., 157., 157., 157., 157., 157.,
          157., 157., 157., 157., 157., 157., 157., 157., 157., 157.,
          213., 213., 213., 255., 255., 255., 255., 255., 255., 255.,
          255., 255., 255., 255., 255., 255., 255., 255., 186., 186.,
          186., 29., 29., 29., 0., 0., 0., 0., 0., 0., 0., 0., 0., 0.,
          0., 0., 0., 0., 0., 147., 147., 147., 255., 255., 255., 255.,
          255., 255., 255., 255., 255., 255., 255., 255., 255., 255.,
          255., 186., 186., 186., 29., 29., 29., 0., 0., 0., 0., 0., 0.,
          0., 0., 0., 0., 0., 0., 0., 0., 0., 147., 147., 147., 255.,
          255., 255., 255., 255., 255., 255., 255., 255., 255., 255.,
          255., 255., 255., 255., 186., 186., 186., 29., 29., 29., 0.,
          0., 0., 0., 0., 0., 0., 0., 0., 0., 0., 0., 0., 0., 0., 147.,
          147., 147., 255., 255., 255., 0., 0., 0., 0., 0., 0., 0., 0.,
          0., 0., 0., 0., 0., 0., 0., 0., 0., 0., 0., 0., 0., 0., 0., 0.,
          0., 0., 0., 88., 88., 88., 255., 255., 255., 255., 255., 255.,
          255., 255., 255., 0., 0., 0., 0., 0., 0., 0., 0., 0., 0., 0.,
          0., 11., 11., 11., 35., 35., 35., 39., 39., 39., 39., 39., 39.,
          39., 39., 39., 114., 114., 114., 255., 255., 255., 255., 255.,
          255., 255., 255., 255., 0., 0., 0., 0., 0., 0., 3., 3., 3.,
          51., 51., 51., 126., 126., 126., 255., 255., 255., 255., 255.,
          255., 255., 255., 255., 255., 255., 255., 255., 255., 255.,
          255., 255., 255., 210., 210., 210., 177., 177., 177., 0., 0.,
          0., 50., 50., 50., 123., 123., 123., 207., 207., 207., 223.,
          223., 223., 151., 151., 151., 137., 137., 137., 137., 137.,
          137., 137., 137., 137., 137., 137., 137., 137., 137., 137.,
          58., 58., 58., 0., 0., 0., 0., 0., 0., 108., 108., 108., 255.,
          255., 255., 255., 255., 255., 186., 186., 186., 29., 29., 29.,
          0., 0., 0., 0., 0., 0., 0., 0., 0., 0., 0., 0., 0., 0., 0., 0.,
          0., 0., 0., 0., 0., 0., 0., 0., 108., 108., 108., 255., 255.,
          255., 255., 255., 255., 186., 186., 186., 29., 29., 29., 0.,
          0., 0., 0., 0., 0., 0., 0., 0., 0., 0., 0., 0., 0., 0., 0., 0.,
          0., 0., 0., 0., 0., 0., 0., 108., 108., 108., 255., 255., 255.,
          255., 255., 255., 255., 255., 255., 255., 255., 255., 255.,
          255., 255., 255., 255., 255., 255., 255., 255., 255., 255.,
          255., 255., 255., 255., 255., 255., 255., 255., 255., 255. ]
      - [ 0., 0., 0., 3., 3., 3., 8., 8., 8., 104., 104., 104., 255.,
          255., 255., 255., 255., 255., 255., 255., 255., 255., 255.,
          255., 255., 255., 255., 255., 255., 255., 217., 217., 217.,
          85., 85., 85., 10., 10., 10., 29., 29., 29., 99., 99., 99.,
          220., 220., 220., 255., 255., 255., 255., 255., 255., 255.,
          255., 255., 226., 226., 226., 226., 226., 226., 228., 228.,
          228., 255., 255., 255., 255., 255., 255., 255., 255., 255.,
          255., 255., 255., 255., 255., 255., 255., 255., 255., 255.,
          255., 255., 255., 255., 255., 210., 210., 210., 111., 111.,
          111., 0., 0., 0., 0., 0., 0., 20., 20., 20., 157., 157., 157.,
          255., 255., 255., 255., 255., 255., 255., 255., 255., 255.,
          255., 255., 255., 255., 255., 255., 255., 255., 157., 157.,
          157., 20., 20., 20., 0., 0., 0., 0., 0., 0., 0., 0., 0., 20.,
          20., 20., 157., 157., 157., 255., 255., 255., 255., 255., 255.,
          255., 255., 255., 167., 167., 167., 167., 167., 167., 167.,
          167., 167., 103., 103., 103., 13., 13., 13., 0., 0., 0., 0.,
          0., 0., 0., 0., 0., 20., 20., 20., 157., 157., 157., 255.,
          255., 255., 255., 255., 255., 255., 255., 255., 0., 0., 0., 0.,
          0., 0., 0., 0., 0., 0., 0., 0., 0., 0., 0., 0., 0., 0., 0., 0.,
          0., 0., 0., 0., 20., 20., 20., 157., 157., 157., 255., 255.,
          255., 255., 255., 255., 255., 255., 255., 0., 0., 0., 0., 0.,
          0., 0., 0., 0., 0., 0., 0., 0., 0., 0., 59., 59., 59., 128.,
          128., 128., 128., 128., 128., 137., 137., 137., 206., 206.,
          206., 255., 255., 255., 255., 255., 255., 255., 255., 255., 0.,
          0., 0., 45., 45., 45., 125., 125., 125., 147., 147., 147.,
          147., 147., 147., 197., 197., 197., 255., 255., 255., 255.,
          255., 255., 255., 255., 255., 255., 255., 255., 255., 255.,
          255., 153., 153., 153., 108., 108., 108., 0., 0., 0., 78., 78.,
          78., 216., 216., 216., 255., 255., 255., 255., 255., 255.,
          178., 178., 178., 88., 88., 88., 88., 88., 88., 88., 88., 88.,
          88., 88., 88., 75., 75., 75., 27., 27., 27., 0., 0., 0., 0.,
          0., 0., 78., 78., 78., 216., 216., 216., 183., 183., 183., 83.,
          83., 83., 37., 37., 37., 0., 0., 0., 0., 0., 0., 0., 0., 0.,
          0., 0., 0., 0., 0., 0., 0., 0., 0., 0., 0., 0., 0., 0., 0.,
          78., 78., 78., 216., 216., 216., 255., 255., 255., 210., 210.,
          210., 111., 111., 111., 0., 0., 0., 0., 0., 0., 0., 0., 0., 0.,
          0., 0., 0., 0., 0., 0., 0., 0., 0., 0., 0., 0., 0., 0., 78.,
          78., 78., 216., 216., 216., 255., 255., 255., 255., 255., 255.,
          255., 255., 255., 226., 226., 226., 226., 226., 226., 226.,
          226., 226., 226., 226., 226., 226., 226., 226., 226., 226.,
          226., 226., 226., 226., 0., 0., 0., 3., 3., 3., 8., 8., 8.,
          10., 10., 10., 10., 10., 10., 123., 123., 123., 255., 255.,
          255., 255., 255., 255., 255., 255., 255., 255., 255., 255.,
          255., 255., 255., 255., 255., 255., 255., 255., 255. ]
      - [ 0., 0., 0., 0., 0., 0., 0., 0., 0., 0., 0., 0., 0., 0., 0., 0.,
          0., 0., 0., 0., 0., 2., 2., 2., 14., 14., 14., 20., 20., 20.,
          20., 20., 20., 20., 20., 20., 20., 20., 20., 59., 59., 59.,
          59., 59., 59., 59., 59., 59., 59., 59., 59., 43., 43., 43., 7.,
          7., 7., 0., 0., 0., 29., 29., 29., 186., 186., 186., 255.,
          255., 255., 255., 255., 255., 255., 255., 255., 255., 255.,
          255., 255., 255., 255., 255., 255., 255., 255., 255., 255.,
          255., 255., 255., 186., 186., 186., 29., 29., 29., 0., 0., 0.,
          29., 29., 29., 186., 186., 186., 255., 255., 255., 255., 255.,
          255., 255., 255., 255., 255., 255., 255., 255., 255., 255.,
          255., 255., 255., 255., 255., 255., 255., 255., 255., 186.,
          186., 186., 29., 29., 29., 0., 0., 0., 29., 29., 29., 186.,
          186., 186., 255., 255., 255., 255., 255., 255., 255., 255.,
          255., 255., 255., 255., 255., 255., 255., 255., 255., 255.,
          255., 255., 255., 255., 255., 255., 186., 186., 186., 29., 29.,
          29., 0., 0., 0., 29., 29., 29., 186., 186., 186., 255., 255.,
          255., 255., 255., 255., 153., 153., 153., 78., 78., 78., 255.,
          255., 255., 255., 255., 255., 255., 255., 255., 255., 255.,
          255., 186., 186., 186., 29., 29., 29., 0., 0., 0., 29., 29.,
          29., 186., 186., 186., 255., 255., 255., 255., 255., 255.,
          108., 108., 108., 0., 0., 0., 255., 255., 255., 255., 255.,
          255., 255., 255., 255., 88., 88., 88., 0., 0., 0., 0., 0., 0.,
          0., 0., 0., 29., 29., 29., 186., 186., 186., 255., 255., 255.,
          255., 255., 255., 108., 108., 108., 0., 0., 0., 255., 255.,
          255., 255., 255., 255., 255., 255., 255., 255., 255., 255.,
          197., 197., 197., 64., 64., 64., 39., 39., 39., 64., 64., 64.,
          197., 197., 197., 255., 255., 255., 255., 255., 255., 255.,
          255., 255., 255., 255., 255., 177., 177., 177., 210., 210.,
          210., 255., 255., 255., 255., 255., 255., 255., 255., 255.,
          255., 255., 255., 255., 255., 255., 255., 255., 255., 255.,
          255., 255., 255., 255., 255., 255., 255., 255., 255., 255.,
          255., 255., 255., 255., 0., 0., 0., 58., 58., 58., 137., 137.,
          137., 137., 137., 137., 137., 137., 137., 137., 137., 137.,
          137., 137., 137., 151., 151., 151., 223., 223., 223., 255.,
          255., 255., 255., 255., 255., 187., 187., 187., 137., 137.,
          137., 0., 0., 0., 0., 0., 0., 0., 0., 0., 0., 0., 0., 0., 0.,
          0., 0., 0., 0., 0., 0., 0., 29., 29., 29., 186., 186., 186.,
          255., 255., 255., 255., 255., 255., 108., 108., 108., 0., 0.,
          0., 0., 0., 0., 0., 0., 0., 0., 0., 0., 0., 0., 0., 0., 0., 0.,
          0., 0., 0., 0., 0., 0., 29., 29., 29., 186., 186., 186., 255.,
          255., 255., 255., 255., 255., 108., 108., 108., 0., 0., 0., 0.,
          0., 0., 0., 0., 0., 0., 0., 0., 0., 0., 0., 0., 0., 0., 0., 0.,
          0., 0., 0., 0., 29., 29., 29., 186., 186., 186., 255., 255.,
          255., 255., 255., 255., 108., 108., 108., 0., 0., 0. ]
      - [ 255., 255., 255., 146., 146., 146., 88., 88., 88., 88., 88.,
          88., 88., 88., 88., 88., 88., 88., 88., 88., 88., 88., 88.,
          88., 88., 88., 88., 88., 88., 88., 88., 88., 88., 146., 146.,
          146., 255., 255., 255., 255., 255., 255., 255., 255., 255.,
          255., 255., 255., 255., 255., 255., 255., 255., 255., 255.,
          255., 255., 255., 255., 255., 255., 255., 255., 255., 255.,
          255., 255., 255., 255., 255., 255., 255., 255., 255., 255.,
          255., 255., 255., 255., 255., 255., 255., 255., 255., 255.,
          255., 255., 255., 255., 255., 255., 255., 255., 255., 255.,
          255., 255., 255., 255., 255., 255., 255., 255., 255., 255.,
          255., 255., 255., 255., 255., 255., 255., 255., 255., 255.,
          255., 255., 0., 0., 0., 0., 0., 0., 0., 0., 0., 0., 0., 0., 0.,
          0., 0., 0., 0., 0., 0., 0., 0., 0., 0., 0., 10., 10., 10.,
          206., 206., 206., 255., 255., 255., 255., 255., 255., 255.,
          255., 255., 0., 0., 0., 0., 0., 0., 0., 0., 0., 0., 0., 0., 0.,
          0., 0., 0., 0., 0., 0., 0., 0., 0., 0., 0., 10., 10., 10.,
          206., 206., 206., 255., 255., 255., 255., 255., 255., 255.,
          255., 255., 0., 0., 0., 0., 0., 0., 0., 0., 0., 0., 0., 0., 0.,
          0., 0., 0., 0., 0., 0., 0., 0., 0., 0., 0., 10., 10., 10.,
          206., 206., 206., 255., 255., 255., 255., 255., 255., 255.,
          255., 255., 0., 0., 0., 0., 0., 0., 0., 0., 0., 0., 0., 0., 0.,
          0., 0., 0., 0., 0., 0., 0., 0., 69., 69., 69., 255., 255.,
          255., 255., 255., 255., 255., 255., 255., 255., 255., 255.,
          255., 255., 255., 0., 0., 0., 0., 0., 0., 0., 0., 0., 0., 0.,
          0., 0., 0., 0., 0., 0., 0., 0., 0., 0., 68., 68., 68., 255.,
          255., 255., 255., 255., 255., 255., 255., 255., 255., 255.,
          255., 255., 255., 255., 0., 0., 0., 0., 0., 0., 0., 0., 0., 0.,
          0., 0., 0., 0., 0., 0., 0., 0., 0., 0., 0., 68., 68., 68.,
          255., 255., 255., 255., 255., 255., 255., 255., 255., 177.,
          177., 177., 29., 29., 29., 0., 0., 0., 0., 0., 0., 0., 0., 0.,
          0., 0., 0., 0., 0., 0., 0., 0., 0., 74., 74., 74., 176., 176.,
          176., 255., 255., 255., 255., 255., 255., 255., 255., 255.,
          166., 166., 166., 0., 0., 0., 0., 0., 0., 0., 0., 0., 0., 0.,
          0., 0., 0., 0., 0., 0., 0., 0., 0., 0., 127., 127., 127., 255.,
          255., 255., 255., 255., 255., 255., 255., 255., 255., 255.,
          255., 167., 167., 167., 0., 0., 0., 0., 0., 0., 0., 0., 0., 0.,
          0., 0., 0., 0., 0., 0., 0., 0., 0., 0., 0., 127., 127., 127.,
          255., 255., 255., 255., 255., 255., 255., 255., 255., 255.,
          255., 255., 167., 167., 167., 0., 0., 0., 0., 0., 0., 0., 0.,
          0., 0., 0., 0., 0., 0., 0., 0., 0., 0., 0., 0., 0., 127., 127.,
          127., 255., 255., 255., 255., 255., 255., 255., 255., 255.,
          108., 108., 108., 0., 0., 0., 0., 0., 0. ]
      - [ 57., 57., 57., 255., 255., 255., 255., 255., 255., 255., 255.,
          255., 255., 255., 255., 255., 255., 255., 255., 255., 255.,
          255., 255., 255., 255., 255., 255., 255., 255., 255., 10., 10.,
          10., 10., 10., 10., 10., 10., 10., 255., 255., 255., 255.,
          255., 255., 255., 255., 255., 255., 255., 255., 255., 255.,
          255., 255., 255., 255., 255., 255., 255., 255., 255., 255.,
          255., 255., 255., 255., 255., 255., 255., 255., 255., 255.,
          255., 255., 255., 255., 255., 0., 0., 0., 0., 0., 0., 0., 0.,
          0., 0., 0., 0., 0., 0., 0., 0., 0., 0., 0., 0., 0., 182., 182.,
          182., 219., 219., 219., 255., 255., 255., 255., 255., 255.,
          255., 255., 255., 255., 255., 255., 0., 0., 0., 0., 0., 0., 0.,
          0., 0., 0., 0., 0., 0., 0., 0., 0., 0., 0., 0., 0., 0., 0., 0.,
          0., 0., 0., 0., 167., 167., 167., 255., 255., 255., 255., 255.,
          255., 255., 255., 255., 0., 0., 0., 0., 0., 0., 0., 0., 0., 0.,
          0., 0., 0., 0., 0., 0., 0., 0., 0., 0., 0., 0., 0., 0., 68.,
          68., 68., 255., 255., 255., 255., 255., 255., 255., 255., 255.,
          183., 183., 183., 0., 0., 0., 0., 0., 0., 0., 0., 0., 0., 0.,
          0., 0., 0., 0., 0., 0., 0., 0., 0., 0., 0., 0., 0., 69., 69.,
          69., 255., 255., 255., 255., 255., 255., 255., 255., 255., 49.,
          49., 49., 0., 0., 0., 0., 0., 0., 0., 0., 0., 0., 0., 0., 0.,
          0., 0., 0., 0., 0., 0., 0., 0., 0., 0., 0., 69., 69., 69.,
          255., 255., 255., 255., 255., 255., 255., 255., 255., 49., 49.,
          49., 0., 0., 0., 0., 0., 0., 0., 0., 0., 0., 0., 0., 0., 0.,
          0., 0., 0., 0., 0., 0., 0., 0., 0., 0., 69., 69., 69., 255.,
          255., 255., 255., 255., 255., 193., 193., 193., 21., 21., 21.,
          0., 0., 0., 0., 0., 0., 0., 0., 0., 0., 0., 0., 0., 0., 0., 0.,
          0., 0., 0., 0., 0., 0., 0., 0., 255., 255., 255., 255., 255.,
          255., 255., 255., 255., 147., 147., 147., 0., 0., 0., 0., 0.,
          0., 0., 0., 0., 0., 0., 0., 0., 0., 0., 0., 0., 0., 0., 0., 0.,
          0., 0., 0., 165., 165., 165., 255., 255., 255., 255., 255.,
          255., 255., 255., 255., 147., 147., 147., 0., 0., 0., 0., 0.,
          0., 0., 0., 0., 0., 0., 0., 0., 0., 0., 0., 0., 0., 0., 0., 0.,
          103., 103., 103., 255., 255., 255., 255., 255., 255., 255.,
          255., 255., 255., 255., 255., 0., 0., 0., 0., 0., 0., 0., 0.,
          0., 0., 0., 0., 0., 0., 0., 0., 0., 0., 0., 0., 0., 0., 0., 0.,
          127., 127., 127., 255., 255., 255., 255., 255., 255., 255.,
          255., 255., 28., 28., 28., 0., 0., 0., 0., 0., 0., 0., 0., 0.,
          0., 0., 0., 0., 0., 0., 0., 0., 0., 0., 0., 0., 0., 0., 0.,
          127., 127., 127., 255., 255., 255., 255., 255., 255., 255.,
          255., 255., 0., 0., 0., 0., 0., 0., 0., 0., 0. ]
      - [ 0., 0., 0., 0., 0., 0., 0., 0., 0., 0., 0., 0., 0., 0., 0., 0.,
          0., 0., 0., 0., 0., 0., 0., 0., 0., 0., 0., 0., 0., 0., 0., 0.,
          0., 0., 0., 0., 0., 0., 0., 0., 0., 0., 0., 0., 0., 0., 0., 0.,
          0., 0., 0., 0., 0., 0., 0., 0., 0., 0., 0., 0., 0., 0., 0., 0.,
          0., 0., 0., 0., 0., 0., 0., 0., 0., 0., 0., 0., 0., 0., 0., 0.,
          0., 0., 0., 0., 0., 0., 0., 0., 0., 0., 0., 0., 0., 0., 0., 0.,
          0., 0., 0., 0., 0., 0., 0., 0., 0., 0., 0., 0., 0., 0., 0., 0.,
          0., 0., 0., 0., 0., 0., 0., 0., 0., 0., 0., 0., 0., 0., 0., 0.,
          0., 0., 0., 0., 0., 0., 0., 0., 0., 0., 0., 0., 0., 0., 0., 0.,
          0., 0., 0., 0., 0., 0., 0., 0., 0., 0., 0., 0., 0., 0., 0., 0.,
          0., 0., 0., 0., 0., 0., 0., 0., 0., 0., 0., 0., 0., 0., 0., 0.,
          0., 0., 0., 0., 0., 0., 0., 0., 0., 0., 0., 0., 0., 0., 0., 0.,
          0., 0., 0., 0., 0., 0., 0., 0., 0., 0., 0., 0., 0., 0., 0., 0.,
          0., 0., 0., 0., 0., 0., 0., 0., 0., 0., 0., 0., 0., 0., 0., 0.,
          0., 0., 0., 0., 0., 0., 0., 0., 0., 0., 0., 0., 0., 0., 0., 0.,
          0., 0., 0., 0., 0., 0., 0., 0., 0., 0., 0., 0., 0., 0., 0., 0.,
          0., 0., 0., 0., 0., 0., 0., 0., 0., 0., 0., 0., 0., 0., 0., 0.,
          0., 0., 0., 0., 0., 0., 0., 0., 0., 0., 0., 0., 0., 0., 0., 0.,
          0., 0., 0., 0., 0., 0., 0., 0., 0., 0., 0., 0., 0., 0., 0., 0.,
          0., 0., 0., 0., 0., 0., 0., 0., 0., 0., 0., 0., 0., 0., 0., 0.,
          0., 0., 0., 0., 0., 0., 0., 0., 0., 0., 0., 0., 0., 0., 0., 0.,
          0., 0., 0., 0., 0., 0., 0., 0., 0., 0., 0., 0., 0., 0., 0., 0.,
          0., 0., 0., 0., 0., 0., 0., 0., 0., 0., 0., 0., 0., 0., 0., 0.,
          0., 0., 0., 0., 0., 0., 0., 0., 0., 0., 0., 0., 0., 0., 0., 0.,
          0., 0., 0., 0., 0., 0., 0., 0., 0., 0., 0., 0., 0., 0., 0., 0.,
          0., 0., 0., 0., 0., 0., 0., 0., 0., 0., 0., 0., 0., 0., 0., 0.,
          0., 0., 0., 0., 0., 0., 0., 0., 0., 0., 0., 0., 0., 196., 196.,
          196., 196., 196., 196., 196., 196., 196., 196., 196., 196.,
          196., 196., 196., 196., 196., 196., 196., 196., 196., 196.,
          196., 196., 196., 196., 196., 196., 196., 196., 196., 196.,
          196., 196., 196., 196., 196., 196., 196., 255., 255., 255.,
          255., 255., 255., 255., 255., 255., 255., 255., 255., 255.,
          255., 255., 255., 255., 255., 255., 255., 255., 255., 255.,
          255., 255., 255., 255., 255., 255., 255., 255., 255., 255.,
          255., 255., 255., 255., 255., 255. ]
   decision_functions:
      -
         sv_count: 1
         rho: -3.0615529442202405e-01
         alpha: [ 1. ]
         index: [ 0 ]
