%YAML:1.0
---
opencv_ml_svm:
   format: 3
   svmType: C_SVC
   kernel:
      type: LINEAR
   C: 1.
   term_criteria: { iterations:100 }
   var_count: 14058
   class_count: 2
   class_labels: !!opencv-matrix
      rows: 2
      cols: 1
      dt: i
      data: [ -1, 1 ]
   sv_total: 1
   support_vectors:
      - [ 9.93365120e-07, 8.49657170e-07, 9.29884834e-07, 1.14091699e-06,
          9.97818802e-07, 1.07743665e-06, 1.21348978e-06, 1.06800201e-06,
          1.15899945e-06, 1.14530280e-06, 9.99815143e-07, 1.09081259e-06,
          9.62600552e-07, 8.00914108e-07, 8.94142659e-07, 8.47217677e-07,
          6.85531234e-07, 7.79928200e-07, 8.42674638e-07, 6.59570503e-07,
          7.18474780e-07, 7.81364747e-07, 5.98539316e-07, 6.57164833e-07,
          8.27013707e-07, 6.12858685e-07, 6.81216193e-07, 7.65490427e-07,
          5.51335347e-07, 6.19692912e-07, 8.10693393e-07, 5.76118907e-07,
          6.45744024e-07, 7.79394099e-07, 5.44819670e-07, 6.14444787e-07,
          8.38382107e-07, 5.69257850e-07, 6.08812059e-07, 7.95680307e-07,
          5.25846758e-07, 5.66110316e-07, 7.60018679e-07, 3.77378399e-07,
          5.46586364e-07, 7.62136494e-07, 3.79684110e-07, 5.48704122e-07,
          7.78189758e-07, 3.59478406e-07, 5.56844043e-07, 7.89723515e-07,
          3.71012163e-07, 5.68377800e-07, 8.55078952e-07, 4.76391278e-07,
          6.41900328e-07, 7.95603569e-07, 4.15390701e-07, 5.82466441e-07,
          8.37160997e-07, 4.48856667e-07, 6.29548140e-07, 7.44207682e-07,
          3.48213518e-07, 5.30580678e-07, 7.45529974e-07, 3.49217117e-07,
          5.31413093e-07, 7.53791994e-07, 3.56691515e-07, 5.39166194e-07,
          8.54487041e-07, 5.14018723e-07, 5.88766682e-07, 6.77726803e-07,
          3.30697361e-07, 4.13013368e-07, 4.24576314e-07, 9.08425122e-08,
          1.65804522e-07, -2.13275348e-06, -2.47062280e-06,
          -2.39119754e-06, -4.44409761e-06, -5.29535964e-06,
          -5.09599749e-06, -5.20384083e-06, -5.24345614e-06,
          -5.05172648e-06, -5.17602848e-06, -5.20732465e-06,
          -5.07774848e-06, -1.88342051e-06, -2.23796042e-06,
          -2.20068978e-06, -3.85570729e-06, -4.18411491e-06,
          -4.17516458e-06, -5.19755349e-06, -5.20212370e-06,
          -5.09990059e-06, -5.22603023e-06, -5.18474053e-06,
          -5.12316456e-06, -3.20899539e-06, -3.49859693e-06,
          -3.52719871e-06, 1.21398080e-06, 9.12887970e-07,
          8.41073017e-07, 1.27217436e-06, 1.10137057e-06, 1.02600927e-06,
          6.39544510e-07, 4.20367371e-07, 2.90138900e-07, 4.43700571e-07,
          2.20647706e-07, 9.04192348e-08, 3.70204219e-07, 9.91540148e-08,
          -3.43924533e-08, 3.34347249e-07, 5.83826818e-08,
          -8.07333720e-08, 2.84521548e-07, 5.18341237e-09,
          -1.35478928e-07, 1.92916588e-07, -8.23167241e-08,
          -2.26101008e-07, 1.72119030e-07, -1.71618552e-07,
          -1.40902458e-07, 9.32487509e-08, -2.47867860e-07,
          -2.17151765e-07, 1.04523373e-07, -2.28451682e-07,
          -1.61633253e-07, 8.64531060e-08, -2.46521950e-07,
          -1.79703520e-07, 7.90952939e-08, -2.19061263e-07,
          -1.26880025e-07, 5.27358388e-08, -2.42910005e-07,
          -1.52357046e-07, -2.31116708e-08, -3.17011143e-07,
          -2.44933091e-07, 3.48159923e-09, -2.89441573e-07,
          -1.95209950e-07, 7.02450080e-08, -2.35875618e-07,
          -1.25849851e-07, 9.47642320e-08, -2.11759655e-07,
          -1.01455150e-07, 4.84901683e-08, -2.46181742e-07,
          -1.14699304e-07, -5.39579617e-08, -3.49220272e-07,
          -2.17313456e-07, 1.42801238e-08, -2.97132885e-07,
          -1.57712378e-07, -4.34553336e-08, -3.63932173e-07,
          -2.24877951e-07, 4.10097627e-08, -1.90651576e-07,
          -6.53296581e-08, 6.81771439e-07, 4.62411407e-07,
          5.75432011e-07, 8.73360705e-07, 6.80694825e-07, 6.93072309e-07,
          8.51975130e-07, 6.63834214e-07, 6.74266857e-07, 4.85957685e-07,
          4.35582535e-07, 4.50653943e-07, 5.87421425e-07, 5.38743848e-07,
          5.64607944e-07, 1.00071293e-06, 9.64876676e-07, 9.43972509e-07,
          1.01251715e-06, 9.75569947e-07, 9.66647690e-07, 1.21678409e-06,
          1.06638765e-06, 1.15923331e-06, 1.41509770e-06, 1.23941402e-06,
          1.34605273e-06, 1.15048169e-06, 9.72464477e-07, 1.09108589e-06,
          1.58800412e-06, 1.41059672e-06, 1.52860832e-06, 1.20317225e-06,
          1.02509739e-06, 1.13542546e-06, 8.94713082e-07, 7.16638283e-07,
          8.29303133e-07, 1.04675598e-06, 8.44086856e-07, 9.05301476e-07,
          8.03102068e-07, 6.01142290e-07, 6.61647618e-07, 9.15452290e-07,
          6.97725568e-07, 7.71467796e-07, 1.15925741e-06, 9.41530629e-07,
          1.01527291e-06, 8.75727210e-07, 6.54930830e-07, 6.89229068e-07,
          7.91994637e-07, 5.70489021e-07, 6.05496496e-07, 8.59617103e-07,
          6.06572144e-07, 6.78767492e-07, 8.00708790e-07, 5.46181070e-07,
          6.19900675e-07, 1.00446175e-06, 6.18043373e-07, 8.07014601e-07,
          8.07978552e-07, 4.22322756e-07, 6.10531345e-07, 6.56981229e-07,
          3.57458816e-07, 5.54082817e-07, 6.13498798e-07, 3.09469385e-07,
          5.05372270e-07, 7.18594663e-07, 4.45142973e-07, 6.43680607e-07,
          7.45321074e-07, 4.71106802e-07, 6.70407019e-07, 8.56439158e-07,
          5.59085152e-07, 8.06917342e-07, 6.43579881e-07, 3.46225846e-07,
          5.94016512e-07, 6.70534178e-07, 4.50062061e-07, 5.55428869e-07,
          7.65562959e-07, 5.50265838e-07, 6.34954745e-07, 7.40133942e-07,
          4.47434132e-07, 5.60204512e-07, 6.27077554e-07, 3.20128379e-07,
          4.50169011e-07, 1.75775043e-07, -1.17910560e-07,
          -4.13403933e-09, -2.35840912e-06, -2.65522340e-06,
          -2.53630424e-06, -5.27600059e-06, -5.32659988e-06,
          -5.12593078e-06, -5.23473273e-06, -5.28081227e-06,
          -5.09320535e-06, -4.97404517e-06, -5.22178152e-06,
          -5.12889892e-06, -2.18067748e-06, -2.47770276e-06,
          -2.43488626e-06, -3.64768471e-06, -3.92603260e-06,
          -3.92907259e-06, -5.19484320e-06, -5.17497801e-06,
          -5.13584200e-06, -5.22170149e-06, -5.14980775e-06,
          -5.10925202e-06, -2.95158134e-06, -3.18733669e-06,
          -3.18626553e-06, 1.27847625e-06, 1.03395439e-06,
          1.02193894e-06, 1.31325351e-06, 1.18064816e-06, 1.18531375e-06,
          8.38929111e-07, 5.59046043e-07, 5.39235373e-07, 1.25170132e-07,
          -1.54712964e-07, -1.74523606e-07, 3.74947689e-07,
          9.41448164e-08, 7.09349237e-08, 4.19555732e-07, 1.38043617e-07,
          1.14746477e-07, 3.22413229e-07, 4.88863812e-08, 1.27072850e-08,
          1.15956773e-07, -1.60407140e-07, -1.93372728e-07,
          2.22368669e-07, -9.12012155e-08, -5.69497125e-08,
          1.70355747e-08, -2.97998469e-07, -2.63033456e-07,
          -6.43662830e-08, -4.03889572e-07, -2.94007776e-07,
          9.10744404e-08, -2.48170096e-07, -1.38567046e-07,
          9.44561407e-08, -2.28885924e-07, -1.26413667e-07,
          5.16969685e-08, -2.70745119e-07, -1.68576520e-07,
          1.58762418e-07, -1.58995419e-07, -5.52871953e-08,
          1.12055396e-08, -3.13442456e-07, -2.01795615e-07,
          -3.56150913e-08, -3.11010808e-07, -2.10869587e-07,
          2.02677072e-07, -7.32761265e-08, 2.72565650e-08,
          3.65980952e-08, -2.73928521e-07, -1.53778132e-07,
          2.07008792e-08, -2.91219436e-07, -1.69509320e-07,
          1.41613354e-09, -2.55933685e-07, -1.56725363e-07,
          -6.56089298e-08, -3.23996375e-07, -2.27017139e-07,
          7.96262256e-08, -1.43442477e-07, -8.58080753e-08,
          7.68735958e-07, 5.46225522e-07, 6.03011131e-07, 8.02050124e-07,
          6.35774938e-07, 6.02890907e-07, 7.80378173e-07, 6.13167458e-07,
          5.80928429e-07, 5.34902313e-07, 4.39081163e-07, 4.01932851e-07,
          5.58182251e-07, 4.75823981e-07, 4.47488816e-07, 9.81860239e-07,
          9.15105772e-07, 8.56969734e-07, 1.03649018e-06, 9.64831088e-07,
          9.13942358e-07, 1.34722166e-06, 1.23360678e-06, 1.34141396e-06,
          1.36632070e-06, 1.19124684e-06, 1.29844409e-06, 1.31170964e-06,
          1.13430235e-06, 1.25348231e-06, 1.35455139e-06, 1.17714410e-06,
          1.29632406e-06, 1.32054197e-06, 1.11717986e-06, 1.24246947e-06,
          1.54163672e-06, 1.36356186e-06, 1.47505841e-06, 1.02062586e-06,
          8.17956789e-07, 9.07212723e-07, 8.18846559e-07, 6.16177488e-07,
          6.77392109e-07, 5.91367893e-07, 3.72931879e-07, 4.47383428e-07,
          6.45760792e-07, 4.27324778e-07, 5.01776299e-07, 7.99031795e-07,
          5.77526180e-07, 6.12533654e-07, 7.15700196e-07, 4.94194580e-07,
          5.29202055e-07, 8.18183935e-07, 5.64429740e-07, 6.37334324e-07,
          8.37786615e-07, 5.83968188e-07, 6.56978557e-07, 8.19661523e-07,
          4.33243144e-07, 6.22214372e-07, 8.64867786e-07, 4.79212019e-07,
          6.67420579e-07, 7.43108160e-07, 4.43585748e-07, 6.40209748e-07,
          7.13605061e-07, 4.14845232e-07, 6.10748145e-07, 7.35779338e-07,
          4.62327648e-07, 6.60865282e-07, 7.38773792e-07, 4.61436997e-07,
          6.60737214e-07, 1.13797273e-06, 8.42143947e-07, 1.08845086e-06,
          8.36482968e-07, 5.39128962e-07, 7.86961152e-07, 5.30163334e-07,
          2.43526955e-07, 3.95679336e-07, 8.29461897e-07, 5.54469693e-07,
          6.94977928e-07, 6.95038864e-07, 4.27569717e-07, 5.11132043e-07,
          5.45451428e-07, 2.52207172e-07, 3.68542885e-07, 5.02112812e-07,
          2.17869840e-07, 3.24217609e-07, -1.09062228e-06,
          -1.37974791e-06, -1.27807220e-06, -2.86250292e-06,
          -3.17647959e-06, -3.00380771e-06, -2.71053432e-06,
          -3.02906506e-06, -2.85362717e-06, -2.76072797e-06,
          -3.05775325e-06, -3.01493674e-06, -4.26391750e-07,
          -7.00162730e-07, -6.96103484e-07, -1.93603273e-06,
          -2.21438086e-06, -2.21842765e-06, -2.80545873e-06,
          -3.09514462e-06, -3.09913821e-06, -2.61721607e-06,
          -2.83808276e-06, -2.84027283e-06, -6.54845962e-07,
          -9.06542880e-07, -9.21508786e-07, 1.23309644e-06,
          8.96322092e-07, 8.82846052e-07, 1.30140256e-06, 1.01027229e-06,
          1.00194859e-06, 9.32063017e-07, 6.47350703e-07, 6.27560894e-07,
          4.41133835e-07, 1.62523889e-07, 1.41315581e-07, 3.08475165e-07,
          9.11434412e-08, 1.77991737e-08, 1.97307713e-07,
          -7.47996083e-08, -1.08215062e-07, 3.43591296e-07,
          6.97856990e-08, 3.32548566e-08, 1.68506091e-07,
          -1.07860011e-07, -1.60985749e-07, 2.28085725e-07,
          -8.20339849e-08, -4.77824784e-08, 2.69878342e-08,
          -2.92499550e-07, -2.71586032e-07, 5.86019766e-08,
          -2.70584195e-07, -1.78790970e-07, 3.20380380e-08,
          -3.03532801e-07, -2.21316071e-07, 3.67319046e-08,
          -2.63309516e-07, -1.99009662e-07, -5.23402766e-10,
          -3.25582278e-07, -2.29761255e-07, -1.85430196e-07,
          -5.07606501e-07, -4.00569775e-07, 2.72110526e-07,
          -5.64814897e-08, 4.41339338e-08, 2.62855565e-07,
          -5.17323384e-09, 8.78501041e-08, -2.36129154e-07,
          -5.04773539e-07, -4.23052342e-07, -2.16816751e-08,
          -3.32790819e-07, -2.12016388e-07, -5.91832219e-08,
          -3.75355313e-07, -2.49393423e-07, -7.45974376e-08,
          -3.28416093e-07, -2.28228586e-07, -1.57793863e-07,
          -4.10019737e-07, -3.16061971e-07, -2.57143178e-08,
          -2.48109615e-07, -1.90899584e-07, 4.58971158e-07,
          2.38190395e-07, 3.01507725e-07, 4.31890811e-07, 2.80128774e-07,
          2.39305592e-07, 5.00701390e-07, 3.51906010e-07, 3.08157695e-07,
          1.88497850e-07, 1.09878052e-07, 6.53197958e-08, 2.50486380e-07,
          1.67277747e-07, 1.28020034e-07, 5.04138939e-07, 4.64103778e-07,
          4.14552574e-07, 5.20435492e-07, 4.80750316e-07, 4.30641620e-07,
          1.40149814e-06, 1.17839738e-06, 1.31395063e-06, 1.19189235e-06,
          9.68791483e-07, 1.10434473e-06, 1.25541203e-06, 1.06917537e-06,
          1.18038031e-06, 1.30267790e-06, 1.11644124e-06, 1.22881465e-06,
          1.41741725e-06, 1.16974036e-06, 1.32010382e-06, 1.45445904e-06,
          1.20678214e-06, 1.35714561e-06, 1.29442435e-06, 1.03419245e-06,
          1.13711076e-06, 1.10138376e-06, 8.41151859e-07, 9.20702405e-07,
          9.25705251e-07, 6.56313546e-07, 8.28572297e-07, 6.63713308e-07,
          3.94321603e-07, 5.66580411e-07, 5.46129343e-07, 2.64951638e-07,
          4.94900689e-07, 5.67528218e-07, 2.86995515e-07, 5.16299508e-07,
          1.07711185e-06, 7.85206055e-07, 9.31933414e-07, 9.44557996e-07,
          6.54177484e-07, 7.99421116e-07, 7.51996765e-07, 4.26797669e-07,
          6.60153773e-07, 6.04348031e-07, 2.88308058e-07, 5.12505039e-07,
          5.84808390e-07, 3.21234808e-07, 5.08564995e-07, 5.29809654e-07,
          2.81317796e-07, 4.67682497e-07, 6.22326809e-07, 4.13763104e-07,
          5.99514067e-07, 1.19968888e-06, 9.90362651e-07, 1.17687614e-06,
          1.41389364e-06, 1.28706085e-06, 1.41999124e-06, 1.05320078e-06,
          8.32184583e-07, 1.06756954e-06, 7.75614240e-07, 6.12631879e-07,
          7.89816283e-07, 6.86575163e-07, 5.20996139e-07, 6.85274244e-07,
          5.99165446e-07, 3.05881144e-07, 4.41409952e-07, 6.76059301e-07,
          4.09006276e-07, 5.18303807e-07, 1.01174089e-06, 6.62435980e-07,
          7.91540344e-07, 7.43556257e-07, 3.81129979e-07, 5.19327955e-07,
          4.64660303e-07, 1.71027921e-07, 3.64493729e-07, 4.49323522e-07,
          1.51112275e-07, 3.52505424e-07, 3.39124426e-07, 8.91221390e-08,
          8.42318215e-08, 3.87563034e-07, 1.37985126e-07, 1.32670436e-07,
          6.97393432e-07, 5.65129938e-07, 5.23731046e-07, 1.11522309e-06,
          9.83098971e-07, 9.46595378e-07, 5.96661209e-07, 4.49341997e-07,
          3.90201564e-07, 1.26331463e-06, 1.08319352e-06, 1.02504100e-06,
          1.55939790e-06, 1.32775119e-06, 1.26527971e-06, 1.78352468e-06,
          1.58820353e-06, 1.53878398e-06, 8.24852975e-07, 6.17363185e-07,
          5.71209512e-07, 6.20604965e-07, 4.04844002e-07, 3.66961501e-07,
          8.79706249e-07, 6.47999570e-07, 6.19553930e-07, 9.99692361e-07,
          7.67850395e-07, 7.39246502e-07, 1.04510707e-06, 8.13309100e-07,
          7.97665223e-07, 5.30696866e-07, 2.93933994e-07, 2.83548417e-07,
          3.57082683e-07, 8.59612399e-08, 1.36622546e-07, 1.80316874e-07,
          -9.01595314e-08, -4.01432629e-08, 1.41626543e-07,
          -2.13091823e-07, -9.70445342e-08, -1.18942820e-08,
          -3.84826109e-07, -2.36069383e-07, -9.61690944e-07,
          -1.29994044e-06, -1.18533603e-06, -2.18671221e-06,
          -2.54367887e-06, -2.42227884e-06, -9.61060778e-07,
          -1.29796842e-06, -1.17195975e-06, -7.12780519e-08,
          -4.18491425e-07, -2.82135574e-07, -3.66384569e-07,
          -6.69465919e-07, -5.49146591e-07, 4.80043582e-07,
          1.87165753e-07, 2.91761495e-07, -7.20463822e-09,
          -3.05039237e-07, -2.12963386e-07, -7.14991231e-08,
          -3.85239076e-07, -2.78547958e-07, -2.17405738e-08,
          -2.62505239e-07, -1.90434577e-07, 1.19386669e-07,
          -1.21377994e-07, -5.53708190e-08, 1.95585116e-07,
          1.17629828e-09, -3.81644796e-08, 1.28610395e-07,
          -6.36765165e-08, -1.04973182e-07, -1.39592089e-07,
          -2.66201596e-07, -3.64232221e-07, -1.32510820e-07,
          -2.59120327e-07, -3.56984941e-07, -1.77955556e-07,
          -2.87824832e-07, -3.68530237e-07, -1.78002409e-07,
          -2.87953583e-07, -3.69010081e-07, -3.59748213e-07,
          -4.20190673e-07, -4.80641859e-07, -1.03506359e-07,
          -1.64310592e-07, -2.24761763e-07, 1.70873534e-06,
          1.48563447e-06, 1.62118772e-06, 1.52079315e-06, 1.37355426e-06,
          1.44473984e-06, 1.57464126e-06, 1.38840460e-06, 1.49960954e-06,
          1.50087374e-06, 1.31463707e-06, 1.42701049e-06, 1.58174907e-06,
          1.33407207e-06, 1.48443564e-06, 1.43068564e-06, 1.24277869e-06,
          1.39080544e-06, 1.53906740e-06, 1.27883550e-06, 1.37824861e-06,
          9.59386284e-07, 6.99154327e-07, 7.78704873e-07, 3.60625961e-07,
          9.12342415e-08, 2.63493035e-07, -3.90107857e-07,
          -6.59499563e-07, -4.87240754e-07, -9.64410219e-07,
          -1.24558790e-06, -1.01563887e-06, -6.57969167e-07,
          -9.38501842e-07, -7.09197877e-07, 9.38524863e-07,
          6.46619128e-07, 8.27694578e-07, 1.43392367e-06, 1.14354316e-06,
          1.28878673e-06, 1.27282362e-06, 9.47624528e-07, 1.18098058e-06,
          7.78621882e-07, 4.54830399e-07, 6.86778833e-07, 6.58975466e-07,
          4.10483580e-07, 5.96806785e-07, 6.86993701e-07, 4.39264397e-07,
          6.24866516e-07, 9.11590348e-07, 7.03789283e-07, 8.88777663e-07,
          1.59718843e-06, 1.38981170e-06, 1.57437569e-06, 1.09053974e-06,
          9.66591415e-07, 1.09663733e-06, 5.59444516e-07, 4.35158057e-07,
          5.65542166e-07, 5.63926505e-07, 4.47510246e-07, 5.72693693e-07,
          7.03904277e-07, 5.68666337e-07, 7.37484925e-07, 7.86464113e-07,
          4.88780870e-07, 6.17779676e-07, 8.01631245e-07, 5.32736067e-07,
          6.43875808e-07, 6.63913283e-07, 3.23588836e-07, 4.43712793e-07,
          5.59284615e-07, 2.01513615e-07, 3.31543276e-07, 3.70815769e-07,
          9.97285099e-08, 2.70649195e-07, -4.85468163e-08,
          -3.00679801e-07, -1.48713369e-07, -2.79795972e-06,
          -3.04881678e-06, -3.04431001e-06, -3.13764303e-06,
          -3.40212728e-06, -3.43781267e-06, -1.60987395e-06,
          -1.73800152e-06, -1.78555024e-06, 9.65451932e-07,
          8.31769796e-07, 7.94810319e-07, 7.41676502e-07, 5.92799267e-07,
          5.35216827e-07, 1.11031841e-06, 1.00471993e-06, 9.43559371e-07,
          1.39198494e-06, 1.14646480e-06, 1.06950370e-06, 1.22960319e-06,
          9.72080329e-07, 9.03301213e-07, 1.10407859e-06, 9.18592946e-07,
          8.50435185e-07, 4.77201809e-07, 2.78770841e-07, 2.23558388e-07,
          7.93590857e-07, 6.07766481e-07, 5.56050509e-07, 1.16071317e-06,
          9.04346507e-07, 8.91408774e-07, 1.30990622e-06, 1.04335777e-06,
          9.86050736e-07, 8.52412029e-07, 5.99226382e-07, 5.72528052e-07,
          6.10984273e-07, 3.28797654e-07, 3.62338113e-07, 7.27278064e-07,
          4.52839743e-07, 5.06734921e-07, -4.33244708e-07,
          -8.20973298e-07, -6.59349894e-07, -1.83545421e-06,
          -2.22424569e-06, -2.05971241e-06, -3.36621247e-06,
          -3.72059162e-06, -3.58994043e-06, -3.91304820e-06,
          -4.61011768e-06, -4.66323945e-06, -2.94090933e-06,
          -3.26235113e-06, -3.16984301e-06, -7.75624642e-07,
          -1.09769542e-06, -9.85934662e-07, 3.88917101e-07,
          1.13998539e-07, 2.09325222e-07, 7.68965194e-08,
          -2.06496935e-07, -1.06706437e-07, -5.04143358e-08,
          -3.65715579e-07, -2.59583459e-07, -5.49688153e-08,
          -3.66569935e-07, -2.54325528e-07, 7.90290997e-08,
          -1.61735557e-07, -8.62875567e-08, 3.31606515e-07,
          9.35463049e-08, 1.57987330e-07, 4.45849253e-07, 2.27434526e-07,
          2.10227952e-07, 1.70124423e-07, -1.83430640e-08,
          -6.33761559e-08, 7.47284012e-09, -1.19781703e-07,
          -2.17208807e-07, 1.10480194e-07, -1.50768198e-08,
          -1.14325971e-07, 4.46669020e-07, 3.29664914e-07,
          2.48959481e-07, 3.65684684e-07, 2.55087372e-07, 1.75026983e-07,
          1.59750027e-08, -4.64674308e-08, -1.08957366e-07,
          1.94806049e-07, 1.31469548e-07, 1.04374131e-07,
          -1.32434434e-06, -1.52767200e-06, -1.39707049e-06,
          -1.47746891e-06, -1.65550932e-06, -1.51729580e-06,
          -1.43733382e-06, -1.59038234e-06, -1.49199059e-06,
          -3.94024198e-07, -5.83886901e-07, -4.71581586e-07,
          1.29528564e-06, 1.09694463e-06, 1.22325355e-06, 1.44820842e-06,
          1.28772945e-06, 1.39452391e-06, 1.03655123e-06, 8.07129766e-07,
          9.53154597e-07, 9.12610219e-08, -1.38160416e-07,
          -7.32465688e-09, -1.78273001e-06, -1.96129281e-06,
          -1.70531280e-06, -2.98523787e-06, -3.16380056e-06,
          -2.90782054e-06, -3.70935777e-06, -4.04180855e-06,
          -3.65985738e-06, -3.14492968e-06, -3.24504958e-06,
          -2.81763573e-06, -8.96974484e-07, -9.74780733e-07,
          -4.97527822e-07, 1.12804332e-06, 1.05023707e-06,
          1.52753148e-06, 1.44205114e-06, 1.32957450e-06, 1.79407539e-06,
          7.69384201e-07, 5.79284858e-07, 1.07592746e-06, 7.49452738e-07,
          7.56429699e-07, 1.27613123e-06, 8.68322275e-07, 8.78097580e-07,
          1.39504232e-06, 1.47142396e-06, 1.51032793e-06, 2.05296601e-06,
          1.67997587e-06, 1.79745587e-06, 2.25324652e-06,
          -1.24497205e-07, -6.56959855e-08, 3.82589718e-07,
          -1.63634741e-06, -1.48916695e-06, -1.04011860e-06,
          -1.77703089e-06, -1.52615189e-06, -1.26633836e-06,
          -1.97286067e-06, -1.70643114e-06, -1.42001159e-06,
          -2.37120162e-06, -2.29901661e-06, -2.08883057e-06,
          -1.45369040e-06, -1.56380418e-06, -1.38860901e-06,
          5.46505646e-07, 3.86089937e-07, 4.24084021e-07, 9.58468604e-07,
          7.98283452e-07, 8.62369006e-07, -3.97285874e-07,
          -5.41647978e-07, -5.31924343e-07, -2.77117169e-06,
          -2.92369054e-06, -2.90751996e-06, -4.40565645e-06,
          -4.04038838e-06, -3.88651415e-06, -4.47421417e-06,
          -4.07192783e-06, -3.92006723e-06, -3.68976316e-06,
          -4.09056065e-06, -3.84331406e-06, -5.87588488e-07,
          -4.16919363e-07, -1.32337007e-07, 1.49021730e-06,
          1.56196757e-06, 1.73304647e-06, 8.22015011e-07, 6.88104421e-07,
          8.55744645e-07, 5.19534808e-07, 3.44316504e-07, 2.90402227e-07,
          7.13253996e-07, 4.93513426e-07, 4.63963204e-07, 1.35461187e-06,
          1.12766008e-06, 1.02568583e-06, 1.13614044e-06, 9.09188600e-07,
          8.07214349e-07, 1.46604827e-06, 1.20724155e-06, 1.09148004e-06,
          1.60171760e-06, 1.34319998e-06, 1.22886979e-06, 1.22822132e-06,
          9.90618219e-07, 9.17846251e-07, 1.03648949e-06, 7.95897051e-07,
          7.26114422e-07, 6.44909505e-07, 4.16184150e-07, 3.34144858e-07,
          7.95988171e-07, 5.61399247e-07, 4.85223552e-07,
          -1.72305738e-06, -2.07153926e-06, -1.98887892e-06,
          -2.80561790e-06, -3.50476103e-06, -3.36386529e-06,
          -3.69606687e-06, -3.59324372e-06, -3.56902001e-06,
          -4.11376732e-06, -4.14646911e-06, -4.00432327e-06,
          -4.74304443e-06, -4.78253469e-06, -4.61591117e-06,
          -2.86971544e-06, -3.16296155e-06, -3.05497792e-06,
          8.35256003e-07, 5.11908695e-07, 6.19937168e-07, 6.79281584e-07,
          3.69669465e-07, 4.82428675e-07, 4.67946364e-07, 1.71099202e-07,
          2.53420438e-07, 6.45874195e-07, 3.67433074e-07, 4.48091356e-07,
          1.08089148e-06, 8.55468443e-07, 8.38154904e-07, 1.00810257e-06,
          7.71375881e-07, 7.41896315e-07, 6.22432708e-07, 4.38460432e-07,
          3.05137945e-07, 6.33112734e-07, 4.46677518e-07, 3.15290180e-07,
          8.43686450e-07, 7.06428068e-07, 5.99568466e-07, 6.06605681e-07,
          4.69305803e-07, 3.62446173e-07, 5.81205313e-07, 4.48465755e-07,
          3.87191619e-07, 6.74840521e-07, 5.41283612e-07, 4.80619292e-07,
          5.96756536e-07, 5.03118827e-07, 4.60397956e-07, 4.67911804e-07,
          3.72897375e-07, 3.58567718e-07, -3.46666843e-06,
          -3.35434106e-06, -3.31994784e-06, -3.43121383e-06,
          -3.34417405e-06, -3.29631530e-06, -3.35419168e-06,
          -3.25045039e-06, -3.22600272e-06, -9.66015364e-07,
          -1.15587807e-06, -1.04474111e-06, 1.50650158e-06,
          1.33344781e-06, 1.44596368e-06, 1.36254198e-06, 1.20206312e-06,
          1.30768910e-06, 1.24065286e-06, 1.01123146e-06, 1.15258274e-06,
          2.22704557e-07, -2.28087931e-08, 1.08026967e-07,
          -2.77129197e-06, -2.95215364e-06, -2.69617362e-06,
          -4.02073010e-06, -3.92028687e-06, -3.74284286e-06,
          -4.02045225e-06, -3.83440465e-06, -3.44798423e-06,
          -4.00698764e-06, -3.82490907e-06, -3.46389993e-06,
          -2.02907927e-06, -2.10841063e-06, -1.62963249e-06,
          7.37671996e-07, 6.59865805e-07, 1.13716021e-06, 1.31002673e-06,
          1.25687302e-06, 1.72018690e-06, 5.95558674e-07, 4.41866121e-07,
          9.36983554e-07, 7.37888740e-07, 7.46477042e-07, 1.25519955e-06,
          8.12208384e-07, 8.23170637e-07, 1.33892831e-06, 1.51925485e-06,
          1.63749746e-06, 2.09252562e-06, 1.42848569e-06, 1.54800148e-06,
          2.00175646e-06, -9.54113602e-07, -9.35861010e-07,
          -5.01107763e-07, -3.40756264e-06, -2.98899295e-06,
          -2.56222484e-06, -3.08025915e-06, -2.55827558e-06,
          -2.33652349e-06, -3.16544333e-06, -2.61278046e-06,
          -2.42106921e-06, -3.27774978e-06, -2.98524856e-06,
          -2.80192944e-06, -2.15427963e-06, -2.34103095e-06,
          -2.11312113e-06, 7.75653803e-07, 5.50652203e-07,
          6.53232178e-07, 7.54399139e-07, 5.19916284e-07, 6.59860859e-07,
          -1.29882824e-06, -1.51992310e-06, -1.43463569e-06,
          -3.81976815e-06, -3.77427455e-06, -3.69900067e-06,
          -3.36363541e-06, -2.91838774e-06, -2.78978268e-06,
          -3.28234682e-06, -3.02061380e-06, -2.86447221e-06,
          -3.46263846e-06, -3.06563379e-06, -2.82062729e-06,
          -1.55490727e-06, -1.45895672e-06, -1.14904412e-06,
          2.09971358e-06, 2.17675893e-06, 2.30829619e-06, 1.94971267e-06,
          1.74336003e-06, 1.89019636e-06, 7.94856760e-07, 5.72424540e-07,
          5.22311609e-07, 9.02297643e-07, 6.78459173e-07, 6.22000982e-07,
          1.09667280e-06, 8.93352421e-07, 7.84986014e-07, 1.07603830e-06,
          8.47448405e-07, 7.47112210e-07, 1.11737381e-06, 9.17146338e-07,
          8.03447335e-07, 1.29816624e-06, 1.03629225e-06, 9.23891434e-07,
          1.29915634e-06, 1.06038146e-06, 1.03797026e-06, 1.67206349e-06,
          1.42318106e-06, 1.35649043e-06, 1.50663811e-06, 1.22513393e-06,
          1.15792932e-06, 1.30968670e-06, 1.12419048e-06, 1.04420678e-06,
          -1.42153920e-06, -1.78395248e-06, -1.71038755e-06,
          -2.80133713e-06, -3.04092919e-06, -2.92659183e-06,
          -3.14326053e-06, -3.13812757e-06, -3.01629711e-06,
          -3.56427404e-06, -3.62234550e-06, -3.46264483e-06,
          -4.12511281e-06, -4.16701823e-06, -4.02631986e-06,
          -3.99703276e-06, -4.24158316e-06, -4.08587448e-06,
          -1.48229560e-06, -1.81066423e-06, -1.70489852e-06,
          1.83570194e-06, 1.54631152e-06, 1.63659638e-06, 6.06931508e-07,
          3.40398941e-07, 4.11643896e-07, 8.77863215e-07, 5.91628464e-07,
          6.83209009e-07, 1.47879871e-06, 1.26236148e-06, 1.27428802e-06,
          1.20237087e-06, 9.51800928e-07, 9.01039755e-07, 6.96352743e-07,
          5.10210896e-07, 3.58170041e-07, 8.84931808e-07, 6.97025428e-07,
          5.46274634e-07, 1.23697691e-06, 1.07554138e-06, 9.50687365e-07,
          9.32432897e-07, 7.90966737e-07, 7.03485739e-07, 5.62185619e-07,
          4.23143121e-07, 3.62514015e-07, 7.64274887e-07, 6.29213105e-07,
          5.69193844e-07, 1.08763004e-06, 9.71336817e-07, 9.25414838e-07,
          8.63551861e-07, 7.59489353e-07, 7.33013849e-07,
          -3.57548424e-06, -3.41177724e-06, -3.33838193e-06,
          -3.44018213e-06, -3.27647513e-06, -3.22888468e-06,
          -2.89089803e-06, -3.11275471e-06, -3.08597623e-06,
          3.98830451e-07, 3.48150252e-07, 4.49502437e-07, 2.25264921e-06,
          2.21074242e-06, 2.31691570e-06, 1.27156352e-06, 1.21173252e-06,
          1.31612194e-06, 7.82743086e-07, 6.75830506e-07, 7.84628867e-07,
          1.24972610e-06, 1.13808289e-06, 1.23063762e-06,
          -1.94175027e-06, -1.98513681e-06, -1.67120072e-06,
          -3.89798060e-06, -3.62152309e-06, -3.37399160e-06,
          -3.53113637e-06, -3.61459206e-06, -3.02054400e-06,
          -4.08094047e-06, -3.70189969e-06, -3.22291976e-06,
          -3.30061221e-06, -3.15281773e-06, -2.53965004e-06,
          -3.76417688e-07, -2.38770156e-07, 3.85224382e-07,
          1.58392368e-06, 1.60510888e-06, 2.00050636e-06, 8.10760696e-07,
          7.08905816e-07, 1.10331985e-06, 9.22859442e-07, 9.77172022e-07,
          1.44156024e-06, 1.42818510e-06, 1.48364313e-06, 1.94688596e-06,
          2.02255205e-06, 2.19678623e-06, 2.59546323e-06, 1.95244456e-06,
          2.09220070e-06, 2.48671131e-06, -7.45950672e-07,
          -6.95099800e-07, -3.38605702e-07, -3.27065209e-06,
          -2.77792560e-06, -2.45963861e-06, -3.13496503e-06,
          -2.56143494e-06, -2.31949912e-06, -3.12335510e-06,
          -2.56411681e-06, -2.30788896e-06, -3.10103724e-06,
          -2.72253874e-06, -2.61390505e-06, -1.51033134e-06,
          -1.58748139e-06, -1.52247719e-06, 2.62948402e-06,
          2.52798623e-06, 2.44921671e-06, 2.35643142e-06, 2.25265694e-06,
          2.21831692e-06, 7.13984093e-07, 6.17443732e-07, 5.39949895e-07,
          -1.86948796e-06, -2.03471313e-06, -2.12069290e-06,
          -3.36483686e-06, -2.86859085e-06, -2.77188747e-06,
          -2.94344045e-06, -2.51197389e-06, -2.40349277e-06,
          -3.02100466e-06, -2.48651077e-06, -2.14831516e-06,
          -3.25161136e-06, -2.68910708e-06, -2.44729063e-06,
          -1.02664058e-06, -8.91237733e-07, -7.77677599e-07,
          1.53953249e-06, 1.37876168e-06, 1.52878124e-06, 1.20029256e-06,
          9.98880978e-07, 8.51497703e-07, 1.04055334e-06, 8.42951749e-07,
          7.01518559e-07, 1.16397996e-06, 1.00948046e-06, 8.96781160e-07,
          6.43839201e-07, 4.63067124e-07, 3.60678087e-07,
          -1.45269507e-06, -1.60132311e-06, -1.69985378e-06,
          -1.46687671e-06, -1.64294352e-06, -1.73475996e-06,
          -3.48543267e-07, -5.33210198e-07, -6.01130012e-07,
          5.21480104e-07, 2.85900740e-07, 2.32135932e-07, 1.01824537e-06,
          7.61819479e-07, 6.85446764e-07, 1.82946974e-06, 1.58703847e-06,
          1.52935240e-06, 1.29617229e-06, 9.52427456e-07, 1.06501545e-06,
          -1.80572363e-06, -2.12503414e-06, -2.01584999e-06,
          -2.97336987e-06, -3.03793286e-06, -2.89610080e-06,
          -3.11008853e-06, -3.17768968e-06, -3.04293690e-06,
          -3.36205812e-06, -3.51884660e-06, -3.53093105e-06,
          -3.60244758e-06, -3.65151095e-06, -3.55865768e-06,
          -3.30012267e-06, -3.31675528e-06, -3.24856728e-06,
          -5.69456176e-07, -8.22172240e-07, -7.93479046e-07,
          6.20773903e-07, 3.86816538e-07, 3.81062790e-07, 7.91575303e-07,
          5.64105619e-07, 5.53836571e-07, 1.25073871e-06, 1.09807149e-06,
          9.21231447e-07, 8.14069722e-07, 6.64312950e-07, 4.57727822e-07,
          4.45459335e-07, 2.81702228e-07, 1.22271274e-07, 8.46848991e-07,
          6.71262569e-07, 4.93449079e-07, 1.25514873e-06, 1.10093788e-06,
          9.09926484e-07, 1.36639505e-06, 1.21726373e-06, 1.06548646e-06,
          1.01034652e-06, 8.82093161e-07, 7.57497673e-07, 1.13702356e-06,
          1.02041201e-06, 8.96426400e-07, 1.42634781e-06, 1.35333732e-06,
          1.22900906e-06, 1.66292648e-06, 1.62557694e-06, 1.51593144e-06,
          -3.48666526e-06, -3.27959174e-06, -3.25522615e-06,
          -3.43232477e-06, -3.26861777e-06, -3.22069968e-06,
          -3.48559024e-06, -3.27899215e-06, -3.25221367e-06,
          -8.19847969e-07, -8.70528140e-07, -7.69175983e-07,
          1.27742021e-08, -4.36540191e-08, 7.54670424e-08,
          -1.08268000e-06, -1.13679255e-06, -1.01744172e-06,
          -1.08011943e-06, -1.19090771e-06, -1.08210929e-06,
          1.18833088e-06, 1.09022562e-06, 1.18597291e-06,
          -8.01092710e-07, -8.44479075e-07, -5.30543048e-07,
          -3.09093411e-06, -3.51559993e-06, -3.06384004e-06,
          -3.69034183e-06, -3.29560430e-06, -2.74652393e-06,
          -3.82647067e-06, -3.43066381e-06, -2.85939836e-06,
          -3.98447628e-06, -3.58728516e-06, -3.01932641e-06,
          -1.51233769e-06, -1.38506164e-06, -7.58030978e-07,
          2.12672512e-06, 2.46372247e-06, 2.80895210e-06, 1.40608631e-06,
          1.25224437e-06, 1.63275809e-06, 1.46173295e-06, 1.51646987e-06,
          1.98043381e-06, 2.12360192e-06, 2.19996605e-06, 2.64641267e-06,
          2.56296175e-06, 2.74635340e-06, 3.13737200e-06, 2.16038302e-06,
          2.29951229e-06, 2.69053089e-06, -6.96856034e-07,
          -6.77907110e-07, -3.14461602e-07, -2.39036308e-06,
          -2.29895136e-06, -1.97842542e-06, -2.33283072e-06,
          -2.34088930e-06, -2.08902361e-06, -2.81677512e-06,
          -2.25819281e-06, -2.00130899e-06, -2.72512170e-06,
          -2.32713796e-06, -2.21861114e-06, -1.20132574e-06,
          -1.30442004e-06, -1.20497339e-06, 3.29191676e-06,
          3.18437992e-06, 3.09099460e-06, 3.48184562e-06, 3.44247383e-06,
          3.38746440e-06, 3.33476783e-06, 3.18629463e-06, 3.07436767e-06,
          6.82174857e-07, 5.41485406e-07, 4.47852216e-07,
          -1.94576523e-06, -1.80695395e-06, -1.72542445e-06,
          -2.32709976e-06, -1.90404558e-06, -1.78716277e-06,
          -2.16847889e-06, -1.56444037e-06, -1.34703043e-06,
          -2.29692205e-06, -1.73915191e-06, -1.51943834e-06,
          -2.77664822e-06, -2.28673821e-06, -2.17049023e-06,
          7.48931939e-08, -3.51427545e-08, 1.22068030e-07,
          1.87736657e-06, 1.71614295e-06, 1.58506509e-06, 1.17594095e-06,
          1.08543179e-06, 9.22396794e-07, 1.05682454e-06, 8.90076137e-07,
          7.89584249e-07, 7.64718493e-07, 5.80443327e-07, 4.81515883e-07,
          -2.17730008e-06, -2.35813150e-06, -2.44482248e-06,
          -2.95105770e-06, -2.87971898e-06, -2.94543247e-06,
          -3.03617617e-06, -2.98264513e-06, -2.99451790e-06,
          -2.66726533e-06, -3.10228370e-06, -3.12333486e-06,
          -1.52204018e-06, -1.77106460e-06, -1.82676513e-06,
          9.64040396e-07, 7.37463267e-07, 6.79077630e-07, 2.42299507e-06,
          2.06894833e-06, 2.20654329e-06, 4.01645224e-07, 1.10929093e-07,
          2.35834094e-07, -2.11346583e-06, -2.93524431e-06,
          -2.81981852e-06, -2.92986351e-06, -3.00476108e-06,
          -2.86419640e-06, -3.29060572e-06, -3.35529239e-06,
          -3.25323253e-06, -3.58804755e-06, -3.62958144e-06,
          -3.53097721e-06, -2.95754126e-06, -3.17920126e-06,
          -3.08262315e-06, -3.37017946e-06, -4.01585339e-06,
          -3.97489703e-06, 6.34940250e-07, 3.73417663e-07,
          3.94745598e-07, 7.81792664e-07, 5.48962248e-07, 5.31995795e-07,
          1.10324970e-06, 9.49983473e-07, 7.77612968e-07, 7.07613367e-07,
          5.57577835e-07, 3.54862948e-07, 7.01998260e-07, 5.40066196e-07,
          3.62897737e-07, 1.36157666e-06, 1.18187279e-06, 1.01694820e-06,
          1.73902458e-06, 1.62824608e-06, 1.44840476e-06, 2.02521983e-06,
          1.89123170e-06, 1.73153933e-06, 2.35676180e-06, 2.24979158e-06,
          2.14419151e-06, 2.30318483e-06, 2.15670093e-06, 2.04950447e-06,
          2.28993076e-06, 2.14925603e-06, 2.06909795e-06, 2.63334982e-06,
          2.49259210e-06, 2.41251723e-06, -4.02175556e-06,
          -3.45724288e-06, -2.96815915e-06, -3.88871422e-06,
          -3.40217093e-06, -2.81965981e-06, -3.72670615e-06,
          -3.26886948e-06, -2.85599799e-06, -3.69566033e-06,
          -3.24620692e-06, -2.83228724e-06, -3.47439800e-06,
          -3.19788933e-06, -2.98277291e-06, -3.78868367e-06,
          -3.66960330e-06, -3.47427999e-06, -2.90281378e-06,
          -2.98124201e-06, -2.82652240e-06, 6.81989832e-07,
          5.88907596e-07, 7.60304204e-07, 1.31065417e-06, 1.34439745e-06,
          1.67622545e-06, -2.00113914e-06, -1.97745044e-06,
          -1.64290327e-06, -3.61648927e-06, -3.25352562e-06,
          -2.72566240e-06, -3.64454445e-06, -3.28051146e-06,
          -2.84719454e-06, -3.75081254e-06, -3.37824554e-06,
          -2.97515385e-06, -2.88491947e-06, -2.72709508e-06,
          -2.29027546e-06, -3.13176344e-07, -1.44234917e-07,
          1.89786675e-07, 1.83810698e-06, 1.85384181e-06, 2.18390869e-06,
          1.92343373e-06, 2.09747600e-06, 2.38293796e-06, 2.67109294e-06,
          2.96214284e-06, 3.14858084e-06, 3.31544084e-06, 3.59137243e-06,
          3.73751413e-06, 3.04708033e-06, 3.30310900e-06, 3.45283320e-06,
          1.14292128e-07, 3.40275989e-07, 4.86150611e-07,
          -2.17338356e-06, -2.13636486e-06, -2.00220575e-06,
          -2.98552800e-06, -2.50710218e-06, -2.29138755e-06,
          -2.97604129e-06, -2.50197786e-06, -2.28190083e-06,
          -2.77416439e-06, -2.48361221e-06, -2.53279222e-06,
          -8.27962424e-07, -8.74589830e-07, -8.61921194e-07,
          3.07208279e-06, 3.06167112e-06, 2.94513006e-06, 3.47855530e-06,
          3.41694999e-06, 3.33065077e-06, 3.42254225e-06, 3.38254267e-06,
          3.44701107e-06, 2.58800878e-06, 2.56640601e-06, 2.62497610e-06,
          5.26203110e-07, 6.30880606e-07, 8.17001819e-07,
          -1.70593228e-06, -1.91335585e-06, -1.74984586e-06,
          -1.91153754e-06, -1.45128502e-06, -1.06892139e-06,
          -2.13744033e-06, -1.62606852e-06, -1.33268088e-06,
          -2.77346521e-06, -2.34162576e-06, -1.96746032e-06,
          -1.93695769e-06, -1.80823918e-06, -1.42077101e-06,
          5.73396505e-07, 6.27025145e-07, 1.01854232e-06, 1.69907605e-06,
          1.75675962e-06, 2.14458282e-06, 1.27084741e-06, 1.27300530e-06,
          1.74118907e-06, 7.69424446e-07, 7.95059009e-07, 1.25757765e-06,
          -3.27466910e-06, -3.34095580e-06, -2.89830132e-06,
          -3.69338159e-06, -3.24874736e-06, -2.80584732e-06,
          -3.58586362e-06, -3.19360129e-06, -2.85120882e-06,
          -3.53754763e-06, -3.15068655e-06, -2.76655578e-06,
          -1.98496332e-06, -2.10941653e-06, -1.84653584e-06,
          1.75737978e-06, 1.48372851e-06, 1.73046124e-06, 2.39709993e-06,
          2.05773426e-06, 2.19111757e-06, 2.54075007e-06, 2.19650542e-06,
          2.33678838e-06, -2.07073583e-07, -5.43178885e-07,
          -4.74443567e-07, -2.41054749e-06, -2.89370428e-06,
          -2.80884774e-06, -3.26421150e-06, -3.26609029e-06,
          -3.21576749e-06, -3.59876799e-06, -3.62634137e-06,
          -3.57518661e-06, -2.35658126e-06, -3.19495371e-06,
          -3.18058733e-06, -1.58251146e-06, -1.87464741e-06,
          -1.85866907e-06, 9.21646972e-07, 7.53582810e-07,
          6.58414535e-07, 1.85093165e-06, 1.68811323e-06, 1.57365594e-06,
          1.77908100e-06, 1.69658938e-06, 1.43474961e-06, 1.02426156e-06,
          8.58371322e-07, 6.75061585e-07, 8.31236434e-07, 6.48483478e-07,
          5.37047697e-07, 1.72385614e-06, 1.59050217e-06, 1.39910242e-06,
          1.88880085e-06, 1.75030561e-06, 1.57778788e-06, 1.80424479e-06,
          1.66571135e-06, 1.51337065e-06, 2.50432959e-06, 2.38190751e-06,
          2.25049871e-06, 2.30240903e-06, 2.16596686e-06, 2.04117168e-06,
          2.21796381e-06, 2.09631185e-06, 1.98563703e-06, 2.47513299e-06,
          2.35635616e-06, 2.23974030e-06, -3.80846541e-06,
          -3.27980138e-06, -2.73310184e-06, -3.84433042e-06,
          -3.31495698e-06, -2.77093250e-06, -3.64519769e-06,
          -3.17941249e-06, -2.70038277e-06, -3.75621653e-06,
          -3.29114050e-06, -2.88116485e-06, -3.42432554e-06,
          -3.13965120e-06, -2.92570553e-06, -3.74756996e-06,
          -3.50442974e-06, -3.30426951e-06, -3.59672913e-06,
          -4.26550423e-06, -3.93253958e-06, 2.96589519e-07,
          2.33694266e-07, 4.01480946e-07, 1.56574492e-06, 1.60033699e-06,
          1.93131609e-06, -1.20609423e-06, -1.15135242e-06,
          -8.18078320e-07, -3.62813239e-06, -3.26474446e-06,
          -2.72955413e-06, -3.73407670e-06, -3.33230059e-06,
          -2.80414042e-06, -3.29290197e-06, -3.42463613e-06,
          -3.02154422e-06, -4.01705438e-06, -3.64491166e-06,
          -3.24139546e-06, -1.55143334e-06, -1.44796536e-06,
          -1.10763324e-06, 1.69508894e-06, 1.49980440e-06,
          1.82871543e-06, 2.16248236e-06, 2.05699416e-06, 2.34680965e-06,
          2.54953716e-06, 2.62871708e-06, 2.82688211e-06, 3.25311476e-06,
          3.28340934e-06, 3.42326575e-06, 3.13081796e-06, 3.13062446e-06,
          3.27643738e-06, 1.96855865e-07, 1.23233448e-07, 2.82963924e-07,
          -2.75162597e-06, -2.53669577e-06, -2.35982088e-06,
          -3.26890381e-06, -3.06461948e-06, -2.84218891e-06,
          -3.39898679e-06, -3.17478316e-06, -2.95676887e-06,
          -2.61509149e-06, -3.04544324e-06, -3.08632866e-06,
          -7.64659433e-07, -8.01707415e-07, -8.17313605e-07,
          2.70348096e-06, 2.66017696e-06, 2.56430553e-06, 3.51319568e-06,
          3.54458234e-06, 3.41979876e-06, 3.68813176e-06, 3.71306578e-06,
          3.77289598e-06, 2.68140616e-06, 2.68980875e-06, 2.75691468e-06,
          2.16816647e-06, 2.27000965e-06, 2.45740398e-06, 4.77822823e-07,
          5.58663089e-07, 7.32738215e-07, -1.56479348e-06,
          -1.87553246e-06, -1.46841762e-06, -2.87588614e-06,
          -2.39784572e-06, -1.98932617e-06, -2.33403216e-06,
          -2.09988207e-06, -1.65642837e-06, -4.93387873e-08,
          1.93054419e-07, 6.53926975e-07, 2.31072590e-06, 2.37798213e-06,
          2.74854619e-06, 2.15526347e-06, 2.29072793e-06, 2.60672300e-06,
          1.66018094e-06, 1.66032498e-06, 2.12694636e-06, 4.81511847e-07,
          4.99988857e-07, 1.03615446e-06, -3.47550485e-06,
          -3.02994022e-06, -2.50467110e-06, -3.48418030e-06,
          -3.04305036e-06, -2.58686032e-06, -3.47063042e-06,
          -3.12885277e-06, -2.74126933e-06, -3.42674434e-06,
          -3.05779440e-06, -2.68194981e-06, -8.69915084e-07,
          -9.86114401e-07, -7.22271238e-07, 2.97916745e-06,
          2.79978144e-06, 3.06234915e-06, 3.15562147e-06, 2.82469705e-06,
          2.94689971e-06, 3.08797235e-06, 2.75120169e-06, 2.86894624e-06,
          1.63250024e-06, 1.40821192e-06, 1.36306573e-06,
          -1.91001291e-07, -4.86868657e-07, -4.34629953e-07,
          -2.25406029e-06, -2.94562210e-06, -2.93254220e-06,
          -2.51883330e-06, -2.81434745e-06, -2.76534388e-06,
          2.96340460e-07, -2.50953414e-09, -8.34245526e-08,
          2.14728811e-06, 1.85336580e-06, 1.86938553e-06, 1.99714827e-06,
          1.80767393e-06, 1.68779513e-06, 2.38181087e-06, 2.18178229e-06,
          2.08574556e-06, 2.13976978e-06, 1.94938730e-06, 1.77244988e-06,
          1.21565040e-06, 1.02915806e-06, 8.42904399e-07, 7.65592063e-07,
          5.80322535e-07, 4.02614205e-07, 1.77343497e-06, 1.60007130e-06,
          1.40270561e-06, 1.98059593e-06, 1.86047305e-06, 1.68706197e-06,
          1.72661851e-06, 1.57836371e-06, 1.40592158e-06, 1.85277713e-06,
          1.72332750e-06, 1.56216390e-06, 2.06182176e-06, 1.95105986e-06,
          1.80365078e-06, 2.20825063e-06, 2.09021732e-06, 1.96117458e-06,
          2.38361940e-06, 2.26504994e-06, 2.14348802e-06,
          -3.74933438e-06, -3.27798875e-06, -2.70230271e-06,
          -3.83502811e-06, -3.31329807e-06, -2.78996231e-06,
          -3.76998128e-06, -3.24184589e-06, -2.73056071e-06,
          -4.03462764e-06, -3.46076195e-06, -2.96634812e-06,
          -3.99223563e-06, -3.59593196e-06, -3.26587360e-06,
          -4.14651049e-06, -4.17184901e-06, -3.58387501e-06,
          -3.78402478e-06, -4.25627104e-06, -4.08268397e-06,
          4.25993193e-07, 2.87332824e-07, 4.81340919e-07, 2.15836917e-06,
          2.14326542e-06, 2.55939449e-06, 5.31962485e-07, 5.36187201e-07,
          9.34442255e-07, -3.02509898e-06, -2.91121137e-06,
          -2.32635830e-06, -3.72673480e-06, -3.43915440e-06,
          -2.79397250e-06, -3.77498122e-06, -3.47152763e-06,
          -2.82233191e-06, -4.12635200e-06, -3.80596089e-06,
          -3.16418573e-06, -2.58388468e-06, -2.74660033e-06,
          -2.48332776e-06, 9.67321512e-07, 7.20747437e-07,
          9.82612164e-07, 2.53263920e-06, 2.27189707e-06, 2.54802035e-06,
          2.69618681e-06, 2.57520151e-06, 2.74188733e-06, 3.28954047e-06,
          3.15639818e-06, 3.30201033e-06, 2.80578251e-06, 2.67937412e-06,
          2.82464816e-06, -1.27201290e-07, -2.95602291e-07,
          -1.20356745e-07, -2.22790413e-06, -2.21090272e-06,
          -1.92749599e-06, -2.60418278e-06, -2.42690294e-06,
          -2.26585507e-06, -2.95533914e-06, -2.83597842e-06,
          -2.68119129e-06, -2.96561234e-06, -2.94062261e-06,
          -2.84359680e-06, -1.74040633e-06, -1.94728409e-06,
          -1.80390771e-06, -4.71903775e-07, -5.61423406e-07,
          -2.54041709e-07, -7.54394662e-08, -1.45359451e-07,
          2.01035107e-07, -3.07937256e-07, -1.55832282e-07,
          4.57211513e-07, -9.77757622e-07, -8.50536026e-07,
          -2.22393396e-07, -1.23282192e-07, -5.53035555e-08,
          5.45397029e-07, 1.49062942e-06, 1.54010206e-06, 2.14299303e-06,
          4.47964084e-07, 5.03083754e-07, 1.08641325e-06,
          -7.26032226e-07, -6.22234381e-07, 1.73902261e-08,
          3.13176344e-07, 4.13956968e-07, 1.09387554e-06, 2.21808864e-06,
          2.33195647e-06, 2.99343628e-06, 2.35813241e-06, 2.58706268e-06,
          3.30548346e-06, 2.00615477e-06, 2.18728428e-06, 2.89755303e-06,
          1.58857097e-06, 1.58356750e-06, 2.30435035e-06,
          -7.95538199e-07, -7.36436334e-07, -2.42505820e-08,
          -3.54979420e-06, -3.23939980e-06, -2.51815118e-06,
          -3.52575739e-06, -3.25061137e-06, -2.49241816e-06,
          -3.53879932e-06, -3.24652888e-06, -2.48150332e-06,
          -2.98267423e-06, -3.29492809e-06, -2.58073032e-06,
          -2.95537177e-07, -2.84870907e-07, 2.58169479e-07,
          2.82496967e-06, 2.57703778e-06, 3.11722692e-06, 3.21215384e-06,
          2.88714364e-06, 2.89037598e-06, 2.69816360e-06, 2.36812957e-06,
          2.48515016e-06, 2.06873528e-06, 1.75422633e-06, 1.74648710e-06,
          8.16247052e-07, 5.73539921e-07, 6.33317427e-07,
          -3.47075854e-07, -6.14582177e-07, -6.04102922e-07,
          3.47526623e-07, 8.75683952e-08, 9.73960610e-08, 2.44194325e-06,
          2.18218156e-06, 2.05749757e-06, 2.55981740e-06, 2.26777888e-06,
          2.24067139e-06, 2.54383713e-06, 2.40746976e-06, 2.23668280e-06,
          2.69074098e-06, 2.55127429e-06, 2.38951520e-06, 2.49005711e-06,
          2.30770320e-06, 2.12785790e-06, 1.73445903e-06, 1.59706144e-06,
          1.38327687e-06, 1.42187798e-06, 1.28378815e-06, 1.05235324e-06,
          2.16656281e-06, 2.03095192e-06, 1.79728715e-06, 2.50009703e-06,
          2.39341784e-06, 2.16014814e-06, 2.23695042e-06, 2.12889790e-06,
          1.89134346e-06, 2.07703192e-06, 1.99768465e-06, 1.77738548e-06,
          1.77370987e-06, 1.69687360e-06, 1.48209392e-06, 2.06652885e-06,
          2.00815612e-06, 1.80088375e-06, 2.01191756e-06, 1.94682616e-06,
          1.73897865e-06, -3.49452785e-06, -3.01930640e-06,
          -2.45535921e-06, -3.43565171e-06, -2.90229445e-06,
          -2.39091355e-06, -3.58160537e-06, -3.03608522e-06,
          -2.54138740e-06, -3.03788261e-06, -2.63686707e-06,
          -2.04515322e-06, -3.54364511e-06, -3.32021068e-06,
          -2.86440900e-06, -3.67031566e-06, -3.58286320e-06,
          -3.13556620e-06, -2.72775605e-06, -2.86451450e-06,
          -2.65901281e-06, 7.20143987e-07, 5.90443051e-07,
          7.79972879e-07, 2.25530562e-06, 2.26598240e-06, 2.66450002e-06,
          1.18185710e-06, 1.17483569e-06, 1.57841282e-06,
          -2.40977351e-06, -2.34490085e-06, -1.71920192e-06,
          -3.79042012e-06, -3.50518326e-06, -2.85378201e-06,
          -3.87969885e-06, -3.55344423e-06, -2.92227287e-06,
          -3.46456022e-06, -3.34678316e-06, -2.66830170e-06,
          -1.85512329e-06, -2.00733939e-06, -1.74321826e-06,
          1.17819718e-06, 1.02653996e-06, 1.29010220e-06, 2.41565613e-06,
          2.35415860e-06, 2.51754068e-06, 1.01093849e-06, 9.79053880e-07,
          1.11976749e-06, 4.87566297e-07, 4.56513391e-07, 6.04586887e-07,
          -4.85593077e-08, -1.15275739e-07, 7.14046209e-08,
          -1.32249977e-06, -1.68553186e-06, -1.56805834e-06,
          -1.58136856e-06, -1.39902704e-06, -1.24165808e-06,
          -1.92981975e-06, -1.67783480e-06, -1.69930706e-06,
          -2.50606945e-06, -2.30094088e-06, -2.25113263e-06,
          -2.69208817e-06, -2.64695518e-06, -2.65171570e-06,
          -2.89299078e-06, -2.75915158e-06, -2.84229623e-06,
          -3.35722939e-06, -3.29670911e-06, -3.05042954e-06,
          -3.20267577e-06, -3.03597994e-06, -2.79053666e-06,
          -2.81508233e-06, -2.41837120e-06, -1.83635700e-06,
          -3.10078099e-06, -2.71229260e-06, -2.14620968e-06,
          -3.06613811e-06, -2.63775541e-06, -2.03817331e-06,
          -5.52956465e-07, -3.66959057e-07, 2.53454544e-07,
          1.42746705e-06, 1.50722997e-06, 2.17213392e-06, 1.92012430e-06,
          2.03171544e-06, 2.68003441e-06, 1.70401279e-06, 1.77359345e-06,
          2.47140520e-06, 2.13704857e-06, 2.23448797e-06, 2.94266465e-06,
          1.91916774e-06, 2.04084427e-06, 2.77330378e-06, 1.31386707e-06,
          1.44171838e-06, 2.17848878e-06, 1.16206968e-06, 1.25409792e-06,
          1.93427650e-06, -1.94137169e-06, -1.85979468e-06,
          -1.12501118e-06, -3.95955112e-06, -3.71161264e-06,
          -2.94445044e-06, -3.70124485e-06, -3.36397989e-06,
          -2.62293111e-06, -3.69759641e-06, -3.41251871e-06,
          -2.74637864e-06, -2.80458039e-06, -2.74018839e-06,
          -1.98377961e-06, 1.02439867e-06, 1.03544903e-06,
          1.59593139e-06, 3.22584606e-06, 3.18401317e-06, 3.73911485e-06,
          2.93130506e-06, 2.56473754e-06, 2.69342672e-06, 2.36211440e-06,
          2.03347918e-06, 2.15927230e-06, 2.08042525e-06, 1.76564060e-06,
          1.85436716e-06, 1.80567270e-06, 1.52364146e-06, 1.58341891e-06,
          1.29993452e-06, 1.02405352e-06, 1.02489093e-06, 1.28110401e-06,
          1.01340959e-06, 1.01379305e-06, 2.42422789e-06, 2.13406065e-06,
          2.11014572e-06, 3.28121405e-06, 2.98409964e-06, 2.96018447e-06,
          2.54857855e-06, 2.41633325e-06, 2.24851374e-06, 2.59263220e-06,
          2.45419369e-06, 2.27696296e-06, 2.28131603e-06, 2.08334950e-06,
          1.90987680e-06, 1.98751241e-06, 1.78862228e-06, 1.61635217e-06,
          2.12237092e-06, 1.93793358e-06, 1.74785976e-06, 2.56817520e-06,
          2.38543157e-06, 2.19152685e-06, 2.63438437e-06, 2.49381878e-06,
          2.28735985e-06, 2.60122465e-06, 2.46182458e-06, 2.15068576e-06,
          2.49100594e-06, 2.47880507e-06, 2.17613342e-06, 2.01564831e-06,
          1.99287388e-06, 1.73807246e-06, 1.50610094e-06, 1.48213962e-06,
          1.21559856e-06, 1.43734712e-06, 1.41533701e-06, 1.14672025e-06,
          -3.10111159e-06, -2.87390617e-06, -2.43533759e-06,
          -1.73333967e-06, -1.66147311e-06, -1.13521639e-06,
          1.09181747e-06, 1.27563499e-06, 1.89344064e-06, 1.96622545e-06,
          2.15616092e-06, 2.78523953e-06, 1.81673670e-06, 1.92595780e-06,
          2.51597294e-06, 1.49181301e-06, 1.47871424e-06, 2.06868185e-06,
          1.22452502e-06, 9.72397288e-07, 1.34212121e-06, 1.60666946e-06,
          1.36918572e-06, 1.73173748e-06, 2.60989282e-06, 2.60824299e-06,
          3.19963328e-06, 3.07342566e-06, 2.95904283e-06, 3.52715051e-06,
          1.80763266e-07, 1.11905763e-07, 8.96943789e-07,
          -1.42837871e-06, -1.50858466e-06, -6.28458793e-07,
          -6.34960458e-08, -4.91165473e-08, 7.75951150e-07,
          1.39969882e-06, 1.41042460e-06, 2.25789790e-06, 1.96663655e-06,
          2.00138720e-06, 2.70551050e-06, 2.51824281e-06, 2.76371065e-06,
          3.45297781e-06, 2.52720884e-06, 2.72441548e-06, 3.34346555e-06,
          -7.64624360e-07, -5.44132433e-07, 9.48544141e-08,
          -3.16978253e-06, -2.86290606e-06, -2.10645521e-06,
          -3.46211982e-06, -3.06865013e-06, -2.40808890e-06,
          -2.44808120e-06, -2.08010465e-06, -1.47646358e-06,
          -2.11957945e-06, -1.73232161e-06, -1.13487999e-06,
          -1.93063079e-06, -1.68443967e-06, -1.27904354e-06,
          -2.61176297e-06, -2.36742972e-06, -2.02159845e-06,
          -2.89982722e-06, -2.89710965e-06, -2.67579026e-06,
          -3.21000152e-06, -3.18627781e-06, -3.01531782e-06,
          -3.70016642e-06, -3.70298108e-06, -3.49789616e-06,
          -3.54610302e-06, -3.55229054e-06, -3.33791741e-06,
          -3.15030934e-06, -2.99120529e-06, -2.54335964e-06,
          -3.35858635e-06, -3.21085054e-06, -2.76393553e-06,
          -3.45148032e-06, -3.05292338e-06, -2.35645052e-06,
          -2.66228676e-06, -2.33706328e-06, -1.63573725e-06,
          -7.94729431e-07, -7.06862124e-07, -4.05187066e-08,
          8.28360953e-07, 9.39216704e-07, 1.60820809e-06, 1.39585143e-06,
          1.46808895e-06, 2.08372080e-06, 1.95571351e-06, 2.01312810e-06,
          2.67666928e-06, 1.51899155e-06, 1.54689201e-06, 2.12011946e-06,
          1.09065206e-06, 1.10214489e-06, 1.66846928e-06, 1.48640731e-06,
          1.44371097e-06, 2.05028755e-06, -2.14714487e-06,
          -2.21319556e-06, -1.56922476e-06, -3.75485524e-06,
          -3.47862783e-06, -2.82841438e-06, -3.13688224e-06,
          -2.87029047e-06, -2.20613538e-06, -3.49762399e-06,
          -3.24364578e-06, -2.54418001e-06, -1.79965525e-06,
          -1.77363700e-06, -1.08060499e-06, 2.92923983e-06,
          2.89447985e-06, 3.44965861e-06, 3.32252625e-06, 3.25896235e-06,
          3.77284528e-06, 2.75483990e-06, 2.38923667e-06, 2.48934839e-06,
          2.31941658e-06, 1.93699179e-06, 2.09185737e-06, 2.01955413e-06,
          1.75390574e-06, 1.87100227e-06, 2.47625098e-06, 2.22496624e-06,
          2.38200982e-06, 2.67665632e-06, 2.39935366e-06, 2.39671226e-06,
          2.34197455e-06, 2.07285848e-06, 2.08573510e-06, 2.58413297e-06,
          2.31648892e-06, 2.28699059e-06, 3.64570656e-06, 3.35946766e-06,
          3.22405594e-06, 2.67833207e-06, 2.56515091e-06, 2.37727727e-06,
          2.42551846e-06, 2.29014540e-06, 2.08247729e-06, 2.14105876e-06,
          1.98192879e-06, 1.77774928e-06, 1.95376151e-06, 1.77640732e-06,
          1.58479929e-06, 1.97450413e-06, 1.79051744e-06, 1.60113404e-06,
          2.26106704e-06, 2.07916355e-06, 1.88961417e-06, 2.11311067e-06,
          1.96994961e-06, 1.75148386e-06, 1.85080125e-06, 1.70095029e-06,
          1.48913296e-06, 1.44746264e-06, 1.29907949e-06, 1.11882264e-06,
          1.50081030e-06, 1.36268523e-06, 1.18600485e-06, 8.20292314e-07,
          7.32164210e-07, 5.23732808e-07, 5.39470534e-07, 4.50784938e-07,
          2.42911028e-07, -3.02407261e-06, -2.78962762e-06,
          -2.35399625e-06, -1.51097822e-06, -1.44294256e-06,
          -9.13534905e-07, 3.00456509e-06, 3.17220247e-06,
          3.81094401e-06, 2.75041702e-06, 3.10674591e-06, 3.63890013e-06,
          2.04796447e-06, 2.19508047e-06, 2.76678179e-06, 1.33277445e-06,
          1.35616494e-06, 1.93654910e-06, 1.24385349e-06, 9.89600380e-07,
          1.33623143e-06, 1.50541064e-06, 1.25158192e-06, 1.61064088e-06,
          2.66524148e-06, 2.62021877e-06, 3.21624748e-06, 3.15171951e-06,
          3.00413194e-06, 3.56660121e-06, 2.59691797e-06, 2.50337439e-06,
          3.29696491e-06, 1.95998791e-06, 1.88297815e-06, 2.76374203e-06,
          2.15731120e-06, 2.17045908e-06, 3.00144438e-06, 1.68559245e-06,
          1.76283106e-06, 2.59223725e-06, 1.95088910e-06, 2.14073566e-06,
          2.85064311e-06, 2.49864320e-06, 2.65076051e-06, 3.42482144e-06,
          2.63487846e-06, 2.82513406e-06, 3.47358150e-06,
          -8.71736972e-07, -6.57388057e-07, -6.31028008e-10,
          -3.70433327e-06, -3.29627414e-06, -2.63139805e-06,
          -3.85029489e-06, -3.45539979e-06, -2.80427662e-06,
          -2.88469460e-06, -2.50651328e-06, -1.88118452e-06,
          -2.55496798e-06, -2.17678644e-06, -1.54370639e-06,
          -2.30554133e-06, -2.05107676e-06, -1.62809260e-06,
          -3.00711122e-06, -2.81080042e-06, -2.39213318e-06,
          -3.38497489e-06, -3.43440433e-06, -3.20849836e-06,
          -3.60357831e-06, -3.62699052e-06, -3.43245642e-06,
          -4.09753511e-06, -4.12820600e-06, -3.88870376e-06,
          -4.02905289e-06, -4.02096202e-06, -3.79555354e-06,
          -3.60300373e-06, -3.43035708e-06, -2.98058558e-06,
          -3.50359960e-06, -3.33095272e-06, -2.88245451e-06,
          -3.24920507e-06, -2.91547212e-06, -2.25894951e-06,
          -2.47707271e-06, -2.15279033e-06, -1.49231562e-06,
          -2.56873250e-06, -2.25699159e-06, -1.59928868e-06,
          -1.80552752e-06, -1.73663886e-06, -1.05524441e-06,
          1.95565747e-07, 2.91355576e-07, 9.12139285e-07, 2.11246220e-06,
          2.14062061e-06, 2.73693990e-06, 1.51123368e-06, 1.39981114e-06,
          2.00407726e-06, 1.42359931e-06, 1.25356974e-06, 1.80402037e-06,
          1.33209062e-06, 1.03416983e-06, 1.65695735e-06,
          -2.48588958e-06, -2.62554590e-06, -2.04894059e-06,
          -4.03460399e-06, -3.78252798e-06, -3.16442129e-06,
          -3.30612806e-06, -3.03710658e-06, -2.36635788e-06,
          -3.64104494e-06, -3.37716574e-06, -2.70099918e-06,
          -1.49653386e-06, -1.46714751e-06, -7.93014976e-07,
          3.21621042e-06, 3.18198067e-06, 3.73651437e-06, 3.54634062e-06,
          3.28603096e-06, 3.79880294e-06, 2.87439912e-06, 2.51331653e-06,
          2.64374762e-06, 2.21819823e-06, 1.85482486e-06, 1.92328343e-06,
          2.21743335e-06, 1.92816310e-06, 2.00120917e-06, 2.88466549e-06,
          2.59604030e-06, 2.66844131e-06, 2.91949800e-06, 2.61133732e-06,
          2.65615245e-06, 2.77455933e-06, 2.47658181e-06, 2.51890697e-06,
          2.81633584e-06, 2.54493011e-06, 2.51370489e-06, 3.06861352e-06,
          2.79468054e-06, 2.74729996e-06, 2.85567421e-06, 2.72933744e-06,
          2.52470409e-06, 2.47141634e-06, 2.34683603e-06, 2.14044621e-06,
          2.01239686e-06, 1.83257418e-06, 1.63593336e-06, 1.78075004e-06,
          1.59723572e-06, 1.40420354e-06, 1.76997298e-06, 1.63500852e-06,
          1.41502096e-06, 1.84016528e-06, 1.65921210e-06, 1.46650461e-06,
          1.84665851e-06, 1.70352553e-06, 1.48078209e-06, 1.71279066e-06,
          1.57032639e-06, 1.35108087e-06, 1.44776368e-06, 1.30179524e-06,
          1.11848522e-06, 1.37604013e-06, 1.23986626e-06, 1.06123480e-06,
          1.12479438e-06, 1.03666628e-06, 8.28234874e-07, 1.00512193e-06,
          9.16715067e-07, 7.08562368e-07, -2.90896855e-06,
          -2.83357144e-06, -2.24623113e-06, -3.44911740e-07,
          -4.47699421e-07, 2.38031575e-07, 3.50364257e-06,
          3.63959134e-06, 4.51389633e-06, 3.24158759e-06, 3.42009821e-06,
          4.29591546e-06, 2.52155314e-06, 2.61064633e-06, 3.33256548e-06,
          1.15969283e-06, 1.12055807e-06, 1.85415013e-06, 8.86970042e-07,
          5.66890492e-07, 9.76931801e-07, -6.95007202e-07,
          -1.01508681e-06, -5.94279811e-07, -5.47900981e-07,
          -7.28711655e-07, -1.15920834e-07, 5.35633660e-07,
          3.20943968e-07, 9.88630518e-07, 1.51381778e-06, 1.41814235e-06,
          2.19419371e-06, 1.61307401e-06, 1.55523264e-06, 2.42162378e-06,
          1.74925322e-06, 1.70015767e-06, 2.55263012e-06, 1.57494901e-06,
          1.56044189e-06, 2.41372095e-06, 1.29569105e-06, 1.40587849e-06,
          2.01106286e-06, 1.73702153e-06, 1.83247084e-06, 2.43295972e-06,
          1.81436371e-06, 1.97095915e-06, 2.53927237e-06,
          -6.11987559e-07, -4.09519828e-07, 1.55075043e-07,
          -4.03183094e-06, -3.57409726e-06, -2.98721693e-06,
          -3.86115698e-06, -3.40904558e-06, -2.83753820e-06,
          -3.43780835e-06, -2.98086911e-06, -2.44704188e-06,
          -3.16006162e-06, -2.66041047e-06, -2.11938936e-06,
          -2.69402403e-06, -2.36018263e-06, -1.96304813e-06,
          -3.21865264e-06, -2.97547399e-06, -2.58681530e-06,
          -3.55982820e-06, -3.62365108e-06, -3.37301663e-06,
          -3.24787811e-06, -3.76196931e-06, -3.56260671e-06,
          -3.27290081e-06, -3.63628760e-06, -3.43601346e-06,
          -3.39263079e-06, -3.96693667e-06, -3.74969727e-06,
          -2.79322671e-06, -2.69080351e-06, -2.28345425e-06,
          -2.87784701e-06, -3.02998046e-06, -2.62228082e-06,
          -3.47651917e-06, -3.29603699e-06, -2.78410698e-06,
          -2.79072583e-06, -2.57343777e-06, -2.06794061e-06,
          -2.80888844e-06, -2.52977270e-06, -1.78860068e-06,
          -3.03392267e-06, -2.78311518e-06, -2.17661432e-06,
          -1.31920831e-06, -1.31871855e-06, -7.94631376e-07,
          2.36374444e-06, 2.25380222e-06, 2.79283108e-06, 2.04331491e-06,
          1.67463088e-06, 2.04590265e-06, 1.70028659e-06, 1.38476992e-06,
          1.76543483e-06, 9.34967431e-07, 7.09655069e-07, 1.18513071e-06,
          -2.63381685e-06, -2.77287882e-06, -2.30205956e-06,
          -4.02960450e-06, -3.77220476e-06, -3.23002246e-06,
          -3.60141576e-06, -3.33195248e-06, -2.80069162e-06,
          -3.60402396e-06, -3.51254562e-06, -2.92124378e-06,
          -9.68637892e-07, -9.21560741e-07, -3.19927068e-07,
          2.08144161e-06, 1.91463687e-06, 2.44612920e-06, 2.60587467e-06,
          2.20543006e-06, 2.73382352e-06, 1.37068776e-06, 1.02327499e-06,
          1.18515982e-06, -1.66091354e-07, -5.38879249e-07,
          -4.37371000e-07, -6.32069089e-07, -9.16854731e-07,
          -8.47629792e-07, 1.03601280e-06, 7.34282480e-07,
          8.45897318e-07, 2.30558044e-06, 2.02301180e-06, 2.07941343e-06,
          2.57377746e-06, 2.29020134e-06, 2.33651735e-06, 2.45867341e-06,
          2.21171990e-06, 2.16642434e-06, 2.39731344e-06, 2.15364162e-06,
          2.09770838e-06, 2.75016964e-06, 2.63399556e-06, 2.43013665e-06,
          2.41854650e-06, 2.33629862e-06, 2.10373514e-06, 1.84065186e-06,
          1.70565659e-06, 1.49170876e-06, 1.50880589e-06, 1.52651137e-06,
          1.31463980e-06, 1.63230686e-06, 1.46264631e-06, 1.27230032e-06,
          1.42110741e-06, 1.35234507e-06, 1.06692755e-06, 1.55110570e-06,
          1.39240774e-06, 1.17793854e-06, 1.73599926e-06, 1.62923936e-06,
          1.44547744e-06, 1.24089900e-06, 1.11550185e-06, 9.64931928e-07,
          1.28620684e-06, 1.12870305e-06, 1.01804608e-06, 1.43739726e-06,
          1.28001579e-06, 1.16253079e-06, 1.61395769e-06, 1.44194803e-06,
          1.32238836e-06, -3.01878026e-06, -2.91591255e-06,
          -2.11047245e-06, 9.17656678e-07, 8.42538725e-07,
          1.52733219e-06, 3.46617958e-06, 3.64087850e-06, 4.52473842e-06,
          3.49232323e-06, 3.71708825e-06, 4.49082381e-06, 2.84765201e-06,
          2.95112250e-06, 3.65230403e-06, 1.23585801e-06, 1.17488730e-06,
          1.92327457e-06, 7.85890961e-07, 4.64962653e-07, 8.77271248e-07,
          -2.41424959e-06, -2.73986166e-06, -2.34778486e-06,
          -3.97956910e-06, -3.94648578e-06, -3.36515586e-06,
          -2.40456257e-06, -3.08156200e-06, -2.31520994e-06,
          -3.18371053e-06, -3.05860931e-06, -2.27143619e-06,
          -2.16327567e-06, -2.24810901e-06, -1.37177210e-06,
          2.67339402e-07, 2.62563361e-07, 1.04966034e-06, 1.77122820e-06,
          1.73900469e-06, 2.50591415e-06, 1.08548045e-06, 1.12663895e-06,
          1.73496471e-06, 1.54702934e-06, 1.60471552e-06, 2.20421020e-06,
          1.50408914e-06, 1.61127548e-06, 2.17861316e-06, 3.99378621e-07,
          4.38920807e-07, 1.08761083e-06, -3.35856680e-06,
          -2.85699593e-06, -2.45121964e-06, -3.14136855e-06,
          -2.76779497e-06, -2.26115162e-06, -3.08441872e-06,
          -2.61237960e-06, -2.22440349e-06, -2.71628846e-06,
          -2.21938103e-06, -1.80937047e-06, -2.36324536e-06,
          -1.96741212e-06, -1.54876750e-06, -2.76295691e-06,
          -2.51818346e-06, -2.09761356e-06, -2.39250653e-06,
          -2.64718142e-06, -2.88988554e-06, -9.02400870e-07,
          -1.17389334e-06, -1.01291107e-06, -7.61266605e-08,
          -3.13446492e-07, -1.20236990e-07, 2.56117261e-07,
          7.97111497e-08, 3.28184854e-07, 1.38774840e-06, 1.25610006e-06,
          1.67462065e-06, 8.51952620e-07, 6.74877526e-07, 1.09470102e-06,
          -2.54479801e-06, -3.01692580e-06, -2.50851804e-06,
          -2.73603905e-06, -2.49408322e-06, -1.99981628e-06,
          -2.58985870e-06, -2.28079421e-06, -1.60400748e-06,
          -2.44918169e-06, -2.25125814e-06, -1.66462507e-06,
          -9.40880398e-07, -9.41155577e-07, -4.08138561e-07,
          2.70518080e-06, 2.58430123e-06, 3.12239763e-06, 1.75667606e-06,
          1.38623727e-06, 1.72163095e-06, 1.73908450e-06, 1.38800135e-06,
          1.74991999e-06, -1.51411669e-07, -2.78855822e-07,
          1.52294788e-07, -3.56036026e-06, -3.70157295e-06,
          -3.24243501e-06, -3.91131289e-06, -3.66667086e-06,
          -3.13417809e-06, -3.46952788e-06, -3.19283004e-06,
          -2.67027849e-06, -3.61909974e-06, -3.31331535e-06,
          -2.72766374e-06, -2.27988608e-06, -2.36838332e-06,
          -1.87341925e-06, -2.19194703e-06, -2.54853876e-06,
          -2.02132469e-06, -2.20607126e-06, -2.76696323e-06,
          -2.30265368e-06, -2.96708572e-06, -3.07302003e-06,
          -2.94231722e-06, -2.62022581e-06, -2.88384103e-06,
          -2.76844867e-06, -3.18862385e-06, -3.21455673e-06,
          -3.12659449e-06, -2.68956978e-06, -2.73030491e-06,
          -2.63522952e-06, -9.95620439e-07, -1.28774832e-06,
          -1.24089081e-06, -2.82927033e-07, -5.53126483e-07,
          -5.16746297e-07, 7.63098058e-07, 5.30361604e-07,
          4.87788668e-07, 1.97717759e-06, 1.74037916e-06, 1.69732664e-06,
          2.03204900e-06, 1.97055556e-06, 1.74871616e-06, 1.76764286e-06,
          1.68486406e-06, 1.45287299e-06, 1.24029214e-06, 1.15325327e-06,
          9.11288851e-07, 1.11407212e-06, 1.02079935e-06, 7.85548423e-07,
          9.71958571e-07, 8.15427541e-07, 6.09475535e-07, 7.50518552e-07,
          6.35231288e-07, 4.25599467e-07, 6.32006561e-07, 5.03349270e-07,
          2.94627881e-07, 1.17301363e-06, 1.01642854e-06, 8.13347583e-07,
          8.50677623e-07, 6.77943092e-07, 5.32979698e-07, 1.01129945e-06,
          8.49122159e-07, 7.04117099e-07, 1.20735524e-06, 1.04159074e-06,
          9.25153643e-07, 1.54985548e-06, 1.38409098e-06, 1.26765383e-06,
          -2.74596482e-06, -3.15585885e-06, -2.54821566e-06,
          1.76711308e-06, 1.66308087e-06, 2.35751759e-06, 3.36156086e-06,
          3.50718642e-06, 4.43576755e-06, 3.37479673e-06, 3.57630233e-06,
          4.47258526e-06, 2.80305562e-06, 2.84366206e-06, 3.72503973e-06,
          1.15191722e-06, 1.05376523e-06, 1.92275411e-06, 8.28709062e-07,
          5.22280345e-07, 9.33641331e-07, -2.66129996e-06,
          -2.97172051e-06, -2.55506097e-06, -4.01243733e-06,
          -3.98165685e-06, -3.38431778e-06, -3.41036980e-06,
          -3.39107737e-06, -2.81960274e-06, -3.42126509e-06,
          -3.27394991e-06, -2.40981535e-06, -2.58490741e-06,
          -2.65038125e-06, -1.79834899e-06, -8.11136545e-08,
          -4.40989147e-08, 6.79269249e-07, 1.77144227e-06,
          1.76662536e-06, 2.45494221e-06, 1.41143664e-06, 1.30269848e-06,
          1.74738068e-06, 1.67041503e-06, 1.40467034e-06, 1.85342594e-06,
          1.89434559e-06, 1.80556424e-06, 2.08473261e-06, 1.67943631e-06,
          1.49457628e-06, 1.85363035e-06, 1.05666942e-07, 8.96699781e-09,
          1.70764295e-07, -5.43786712e-07, -6.40984638e-07,
          -4.78689344e-07, -1.75909167e-06, -2.00343152e-06,
          -2.16964168e-06, -2.61504147e-06, -2.48539891e-06,
          -2.19913909e-06, -2.25595613e-06, -2.28929389e-06,
          -2.07858511e-06, -2.73994328e-06, -2.76044375e-06,
          -2.55419764e-06, -1.10436497e-06, -1.38614746e-06,
          -1.22020754e-06, 2.10084090e-06, 1.80871518e-06,
          1.94720883e-06, 2.95342443e-06, 2.69132170e-06, 2.86722320e-06,
          2.65469339e-06, 2.50344874e-06, 2.66990787e-06, 2.84800399e-06,
          2.63840889e-06, 2.71243402e-06, 1.25258555e-06, 9.68557856e-07,
          1.10078622e-06, -2.66653183e-06, -3.17453441e-06,
          -2.90776711e-06, -2.88796537e-06, -2.85099554e-06,
          -2.58355431e-06, -2.94477286e-06, -2.69282123e-06,
          -2.15052773e-06, -3.13050259e-06, -2.78915218e-06,
          -2.33132891e-06, -1.35366145e-06, -1.26590578e-06,
          -6.16176976e-07, 2.09488644e-06, 2.09825885e-06,
          2.70461692e-06, 1.73013393e-06, 1.42587146e-06, 1.82168185e-06,
          1.70796739e-06, 1.39906069e-06, 1.76067169e-06,
          -2.44248412e-07, -3.27476215e-07, 7.97696913e-08,
          -2.81153052e-06, -2.88933325e-06, -2.48237052e-06,
          -3.97472604e-06, -3.72318505e-06, -3.18367347e-06,
          -4.00524050e-06, -3.74103570e-06, -3.21026414e-06,
          -4.30004457e-06, -4.06343952e-06, -3.60278568e-06,
          -3.57652607e-06, -3.92646689e-06, -3.45887793e-06,
          -3.61989646e-06, -3.74064120e-06, -3.50762639e-06,
          -3.32085619e-06, -3.44200339e-06, -3.23739437e-06,
          -3.29029785e-06, -3.38634300e-06, -3.27627140e-06,
          -2.91450806e-06, -2.99564454e-06, -2.88035289e-06,
          -3.05752792e-06, -3.08981157e-06, -3.04237324e-06,
          -2.85642136e-06, -2.88855404e-06, -2.83436884e-06,
          -2.76890501e-06, -2.74980675e-06, -2.74580179e-06,
          -2.74742024e-06, -2.72203761e-06, -2.72095008e-06,
          -2.78500852e-06, -2.98982013e-06, -3.17120475e-06,
          -1.84206772e-06, -1.95745019e-06, -2.11767474e-06,
          3.58088471e-07, 3.06253526e-07, 5.61209887e-08, 1.44119088e-06,
          1.32694970e-06, 1.15127978e-06, 8.45805062e-07, 7.18320848e-07,
          4.86764975e-07, 4.51196087e-07, 3.17071311e-07, 1.06683139e-07,
          6.06781043e-07, 4.12297396e-07, 1.87816354e-07, 5.47275192e-07,
          3.82619845e-07, 1.47409253e-07, 2.70004563e-07, 7.29193488e-08,
          -1.37673695e-07, 8.61907381e-07, 6.69116616e-07,
          4.65532651e-07, 7.86950977e-07, 6.44348233e-07, 4.92224046e-07,
          1.01799640e-06, 8.58571070e-07, 7.03230455e-07, 1.13415979e-06,
          1.03941693e-06, 8.48933098e-07, 1.50909807e-06, 1.42019712e-06,
          1.22975484e-06, -2.05833226e-06, -2.15279124e-06,
          -1.49532900e-06, 2.28958675e-06, 2.18320633e-06,
          2.83903432e-06, 3.30683042e-06, 3.53716837e-06, 4.38503912e-06,
          3.16004707e-06, 3.21319021e-06, 4.11878682e-06, 2.73440537e-06,
          2.77942650e-06, 3.67668622e-06, 1.12854684e-06, 1.03243997e-06,
          1.90320554e-06, 8.15982844e-07, 4.99414796e-07, 8.95010373e-07,
          -1.88038121e-06, -2.16481067e-06, -1.77687548e-06,
          -3.60156514e-06, -3.57120916e-06, -2.97532347e-06,
          -3.06186166e-06, -3.04256901e-06, -2.47109460e-06,
          -3.10695896e-06, -2.93926610e-06, -2.11853876e-06,
          -2.52081963e-06, -2.56330486e-06, -1.71429338e-06,
          8.96431658e-08, 7.60418146e-08, 8.50353729e-07, 1.88548415e-06,
          1.88020135e-06, 2.56931185e-06, 1.77926142e-06, 1.67952339e-06,
          2.12396844e-06, 9.45647344e-07, 5.90102900e-07, 1.02194997e-06,
          1.58470323e-06, 1.29123498e-06, 1.54499980e-06, 2.98533132e-06,
          2.59390799e-06, 2.93525909e-06, 3.16472529e-06, 2.89530476e-06,
          3.05504932e-06, 2.10934149e-06, 1.80574455e-06, 1.98253497e-06,
          -8.76167519e-07, -1.08741153e-06, -9.54739107e-07,
          -2.07411927e-06, -2.12159330e-06, -1.85278395e-06,
          -2.54151018e-06, -2.60228558e-06, -2.41865905e-06,
          -2.88606680e-06, -2.96167718e-06, -2.77503273e-06,
          -9.31161821e-07, -1.22914798e-06, -1.08863674e-06,
          2.48356446e-06, 2.19745766e-06, 2.34913409e-06, 3.01228033e-06,
          2.77433401e-06, 2.94857932e-06, 2.30592559e-06, 2.08844995e-06,
          2.26014913e-06, 2.24976748e-06, 2.03961486e-06, 2.11066936e-06,
          9.43919247e-07, 6.48920093e-07, 7.79972083e-07,
          -2.93040262e-06, -3.46249590e-06, -3.19285482e-06,
          -3.02187686e-06, -2.98574332e-06, -2.72646207e-06,
          -2.97674819e-06, -2.72627790e-06, -2.18268428e-06,
          -3.18522052e-06, -2.90902744e-06, -2.37421614e-06,
          -1.46118259e-06, -1.35538880e-06, -6.88438149e-07,
          2.04681032e-06, 2.10789267e-06, 2.71612043e-06, 1.66457676e-06,
          1.50120547e-06, 1.89526236e-06, 1.66271491e-06, 1.35600578e-06,
          1.71779197e-06, 5.50953018e-07, 2.69437436e-07, 6.75393267e-07,
          -1.94518907e-06, -2.06773711e-06, -1.66077439e-06,
          -4.01984607e-06, -3.76490834e-06, -3.22687788e-06,
          -4.23242909e-06, -3.94156041e-06, -3.40436077e-06,
          -4.49222125e-06, -4.43240287e-06, -3.96755013e-06,
          -4.03294416e-06, -4.15732620e-06, -3.68596784e-06,
          -3.54131475e-06, -3.66171685e-06, -3.44162140e-06,
          -3.46346724e-06, -3.57920317e-06, -3.37817778e-06,
          -3.44147929e-06, -3.52925827e-06, -3.43977422e-06,
          -2.88669867e-06, -2.95668974e-06, -2.85332499e-06,
          -3.07588880e-06, -3.11617600e-06, -3.10764358e-06,
          -3.29624572e-06, -3.32041031e-06, -3.27419343e-06,
          -3.27120506e-06, -3.26906820e-06, -3.28792385e-06,
          -2.93709718e-06, -2.93591506e-06, -2.95907353e-06,
          -3.53952692e-06, -3.43674924e-06, -3.60977742e-06,
          -4.37900917e-06, -4.26743327e-06, -4.43107865e-06,
          -4.37857977e-07, -5.42616760e-07, -7.43427336e-07,
          1.03728405e-06, 1.01563114e-06, 7.08567370e-07, 7.14327598e-07,
          5.82023233e-07, 3.43823871e-07, 4.08837366e-07, 2.67534290e-07,
          3.29768355e-08, 6.36144136e-07, 4.20888028e-07, 2.17179476e-07,
          6.16988416e-07, 4.30022851e-07, 2.12468152e-07, 3.72718148e-07,
          1.81816574e-07, -1.77036572e-08, 7.48038872e-07,
          5.51174139e-07, 3.48913943e-07, 8.06694061e-07, 6.32103536e-07,
          4.81530151e-07, 1.09053747e-06, 9.19085323e-07, 7.63828098e-07,
          1.12372015e-06, 1.02780882e-06, 8.37325047e-07, 1.46301988e-06,
          1.37411894e-06, 1.18363516e-06, -7.31813259e-07,
          -9.47477190e-07, -3.44612204e-07, 3.34423362e-06,
          3.05775234e-06, 3.70761586e-06, 2.44472449e-06, 2.46865670e-06,
          3.33465505e-06, 8.27057363e-07, 8.42834254e-07, 1.68042720e-06,
          -1.77029449e-06, -1.71262775e-06, -9.47244132e-07,
          -2.99652311e-06, -3.08880658e-06, -2.33948094e-06,
          -1.60115019e-06, -1.94980862e-06, -1.54145255e-06,
          -2.30510022e-06, -2.64877804e-06, -2.24942642e-06,
          -3.31379533e-06, -3.31264846e-06, -2.73408818e-06,
          -2.99158728e-06, -2.96607845e-06, -2.42468627e-06,
          -3.26874692e-06, -3.05045569e-06, -2.28354088e-06,
          -2.47883145e-06, -2.47081311e-06, -1.75004880e-06,
          -1.46751695e-08, -2.38319586e-08, 6.42866496e-07,
          1.66466305e-06, 1.63606830e-06, 2.30870432e-06, 1.52244309e-06,
          1.26836846e-06, 1.61395690e-06, 1.21531377e-06, 8.25424763e-07,
          1.16640797e-06, 1.69238558e-06, 1.36082815e-06, 1.52444352e-06,
          3.15386410e-06, 2.83750273e-06, 2.99254248e-06, 3.76387629e-06,
          3.55971997e-06, 3.56285955e-06, 1.98214730e-06, 1.75576497e-06,
          1.77437494e-06, -1.57879219e-06, -1.71766646e-06,
          -1.65673168e-06, -1.84438397e-06, -1.83665065e-06,
          -1.66154496e-06, -2.73162277e-06, -2.66243978e-06,
          -2.55149826e-06, -3.21856851e-06, -3.24292660e-06,
          -3.04047398e-06, -5.87132945e-07, -9.19171327e-07,
          -7.85607085e-07, 2.97142174e-06, 2.64896107e-06,
          2.78542893e-06, 3.14329327e-06, 3.00224860e-06, 3.13788814e-06,
          2.05124638e-06, 1.72789089e-06, 1.86553586e-06, 1.98087560e-06,
          1.69939551e-06, 1.81271878e-06, 9.36893684e-07, 6.02104535e-07,
          5.94600237e-07, -3.27206112e-06, -3.80505367e-06,
          -3.60900390e-06, -3.04103014e-06, -3.00393867e-06,
          -2.76954870e-06, -2.90574167e-06, -2.66972961e-06,
          -2.16574540e-06, -3.11617987e-06, -2.85753890e-06,
          -2.35521520e-06, -1.49474647e-06, -1.32135995e-06,
          -7.91901016e-07, 1.78087919e-06, 2.04248113e-06,
          2.55926852e-06, 1.30826868e-06, 1.20959646e-06, 1.54943370e-06,
          1.27396629e-06, 1.04839626e-06, 1.34908862e-06, 1.18454727e-06,
          8.80401444e-07, 1.08136101e-06, -1.11905294e-07,
          -4.03901765e-07, -1.83789851e-07, -2.26979409e-06,
          -2.50007793e-06, -2.17185880e-06, -3.69049644e-06,
          -3.65725759e-06, -3.32502145e-06, -3.76958837e-06,
          -3.88196577e-06, -3.59063824e-06, -3.63168760e-06,
          -3.74988326e-06, -3.59339037e-06, -3.56959231e-06,
          -3.68467590e-06, -3.52328107e-06, -3.10755490e-06,
          -3.72938462e-06, -3.56857981e-06, -3.78657683e-06,
          -3.83534962e-06, -3.76054436e-06, -2.59943386e-06,
          -3.09365282e-06, -2.96008284e-06, -2.00476484e-06,
          -2.21186701e-06, -2.21595838e-06, -3.22396818e-06,
          -3.25452015e-06, -3.26407894e-06, -3.27550879e-06,
          -3.21629091e-06, -3.34786478e-06, -2.93354583e-06,
          -2.83617896e-06, -2.96415465e-06, -3.56834403e-06,
          -3.44595355e-06, -3.60834338e-06, -4.42555211e-06,
          -4.31043327e-06, -4.46545255e-06, -6.24905624e-07,
          -7.01329213e-07, -9.44710507e-07, 1.44571698e-06,
          1.39206725e-06, 1.14386762e-06, 9.23528603e-07, 7.76400498e-07,
          5.83782366e-07, 4.64887876e-07, 3.14980099e-07, 1.20784264e-07,
          6.71663543e-07, 4.29148258e-07, 2.73338230e-07, 5.12085762e-07,
          2.88787817e-07, 1.36119837e-07, 2.88942488e-07, 7.00538578e-08,
          -7.42589918e-08, 7.88955219e-07, 5.68552025e-07,
          4.22976683e-07, 8.67428867e-07, 6.92543495e-07, 5.68475400e-07,
          1.14726174e-06, 9.80037157e-07, 8.58693852e-07, 1.18453522e-06,
          9.85866109e-07, 8.93881747e-07, 1.57742522e-06, 1.27772080e-06,
          1.19699735e-06, -1.07972042e-07, -3.54816251e-07,
          2.98220215e-07, 1.66485438e-06, 1.39416875e-06, 2.08600386e-06,
          -1.10748965e-06, -1.09696350e-06, -3.18439646e-07,
          -2.41284056e-06, -2.39550559e-06, -1.59694139e-06,
          -3.48573280e-06, -3.22345318e-06, -2.52012819e-06,
          -4.19191929e-06, -4.07878179e-06, -3.39215353e-06,
          -3.48203571e-06, -3.97412805e-06, -3.56962892e-06,
          -3.51697031e-06, -3.63831941e-06, -3.24356984e-06,
          -3.36221910e-06, -3.36596031e-06, -2.80448603e-06,
          -3.05822755e-06, -3.03129377e-06, -2.49132654e-06,
          -3.29622458e-06, -3.07693904e-06, -2.31101853e-06,
          -3.74648835e-06, -3.52344250e-06, -2.82035285e-06,
          -2.49939512e-06, -2.50967310e-06, -1.84185353e-06,
          -1.86807222e-06, -1.87409046e-06, -1.20938682e-06,
          -7.65448249e-07, -1.03448087e-06, -6.95137373e-07,
          1.25338863e-06, 8.80718858e-07, 1.19279741e-06, 1.86114880e-06,
          1.55831174e-06, 1.71427280e-06, 2.35093171e-06, 2.08787219e-06,
          2.25582903e-06, 2.73067826e-06, 2.53376129e-06, 2.54917040e-06,
          9.82822371e-07, 7.70727524e-07, 8.03129069e-07,
          -1.77442791e-06, -1.98089037e-06, -1.86071782e-06,
          -1.92907305e-06, -1.90064748e-06, -1.70110332e-06,
          -2.89707714e-06, -2.91143101e-06, -2.74592571e-06,
          -3.73659827e-06, -3.75896343e-06, -3.59495061e-06,
          -8.51058189e-07, -1.18221885e-06, -1.03822288e-06,
          2.76976266e-06, 2.44734360e-06, 2.58362434e-06, 2.97033671e-06,
          2.82163728e-06, 2.93578887e-06, 2.14713214e-06, 1.82067447e-06,
          1.96009501e-06, 2.15787600e-06, 1.87409705e-06, 1.98770636e-06,
          6.94163191e-07, 3.31353078e-07, 4.20025486e-07,
          -3.91111189e-06, -4.43319323e-06, -4.23808888e-06,
          -2.82161204e-06, -2.78580524e-06, -2.70057217e-06,
          -2.58437717e-06, -2.34857907e-06, -1.84372561e-06,
          -2.72155557e-06, -2.45873548e-06, -1.95988673e-06,
          -8.30497413e-07, -6.53703239e-07, -1.32107289e-07,
          2.18919331e-06, 2.47735102e-06, 2.99643739e-06, 1.46568755e-06,
          1.38818211e-06, 1.73711589e-06, 1.17568129e-06, 9.47268120e-07,
          1.26128123e-06, 9.53209508e-07, 6.46198885e-07, 8.69878363e-07,
          1.26124928e-06, 9.64884975e-07, 1.18728985e-06, 6.76964135e-07,
          3.45483983e-07, 6.84612417e-07, -1.33112701e-06,
          -1.56339104e-06, -1.30012756e-06, -3.29048680e-06,
          -3.49695597e-06, -3.19352080e-06, -2.69065913e-06,
          -3.46113393e-06, -3.18477510e-06, -2.23626671e-06,
          -2.63942457e-06, -2.49204732e-06, -1.31655770e-06,
          -1.69339455e-06, -1.53964572e-06, -9.82121719e-07,
          -1.22432289e-06, -1.14622003e-06, 4.11154844e-07,
          1.73828511e-07, 2.41581745e-07, 1.81185135e-06, 1.60148750e-06,
          1.61933690e-06, -6.07095672e-07, -7.97700011e-07,
          -7.86889871e-07, -3.19483888e-06, -3.12711722e-06,
          -3.26251120e-06, -3.06205106e-06, -2.96301437e-06,
          -3.09366692e-06, -3.74427304e-06, -3.62216133e-06,
          -3.78427239e-06, -4.44112084e-06, -4.31094486e-06,
          -4.47174352e-06, -1.38446325e-07, -2.72768062e-07,
          -4.62386794e-07, 2.01885609e-06, 1.91486038e-06,
          1.71487420e-06, 1.19973481e-06, 1.05085019e-06, 8.59988575e-07,
          5.38902157e-07, 3.76745732e-07, 1.89304160e-07, 6.69211431e-07,
          4.29316088e-07, 2.75585279e-07, 5.44894533e-07, 3.29993100e-07,
          1.76226507e-07, 2.89497990e-07, 7.83160559e-08,
          -6.79445407e-08, 8.57466773e-07, 6.36852519e-07,
          4.84332816e-07, 9.24853623e-07, 7.48783236e-07, 5.97569112e-07,
          1.17395223e-06, 9.87004341e-07, 8.65407912e-07, 1.21046264e-06,
          1.01693593e-06, 9.21507365e-07, 1.48921436e-06, 1.31092338e-06,
          1.22776055e-06, 6.65108928e-07, 4.96220821e-07, 1.17986394e-06,
          -1.44388423e-06, -1.62105630e-06, -9.21966716e-07,
          -3.49869151e-06, -3.26206055e-06, -2.53147778e-06,
          -3.40336032e-06, -3.16786304e-06, -2.42861120e-06,
          -3.22637493e-06, -2.98533450e-06, -2.32882530e-06,
          -3.94479048e-06, -3.76799699e-06, -3.15479269e-06,
          -4.28263547e-06, -4.40406029e-06, -3.99811097e-06,
          -3.71636497e-06, -3.82810867e-06, -3.46215597e-06,
          -3.55777820e-06, -3.57339400e-06, -3.02350486e-06,
          -3.12679322e-06, -3.09655547e-06, -2.55166628e-06,
          -3.37110055e-06, -3.14983436e-06, -2.37259974e-06,
          -3.82044072e-06, -3.58858415e-06, -2.90968273e-06,
          -4.35906350e-06, -4.16836838e-06, -3.48625917e-06,
          -4.89566764e-06, -4.71973544e-06, -4.03366494e-06,
          -3.14317208e-06, -3.56091596e-06, -3.21800167e-06,
          8.68622408e-07, 4.52286173e-07, 7.20153935e-07, 1.57417151e-06,
          1.16679053e-06, 1.36109736e-06, 2.28028875e-06, 1.88993045e-06,
          2.09674067e-06, 3.03996967e-06, 2.70182977e-06, 2.74270565e-06,
          7.65634582e-07, 4.34344173e-07, 4.81566985e-07,
          -2.46091167e-06, -2.54357792e-06, -2.39209544e-06,
          -2.48892957e-06, -2.54184238e-06, -2.40131408e-06,
          -2.95752488e-06, -3.02647254e-06, -2.82835754e-06,
          -2.65071662e-06, -3.40121028e-06, -3.20233289e-06,
          4.52582270e-07, 1.42071116e-07, 2.36311735e-07, 3.26873487e-06,
          3.07298023e-06, 3.13911528e-06, 2.88734645e-06, 2.63539346e-06,
          2.72296325e-06, 1.93281221e-06, 1.64818255e-06, 1.73630986e-06,
          2.09589030e-06, 1.80488166e-06, 1.85670604e-06, 6.93832021e-07,
          3.95771679e-07, 3.29748786e-07, -4.02690557e-06,
          -4.46473223e-06, -4.34649974e-06, -2.84978137e-06,
          -2.82828773e-06, -2.72351190e-06, -2.19586923e-06,
          -1.95491839e-06, -1.55815360e-06, -2.28752037e-06,
          -2.00626801e-06, -1.63073889e-06, -1.31523635e-07,
          1.68959374e-07, 5.66489689e-07, 2.64010760e-06, 2.91199217e-06,
          3.30617672e-06, 1.86750765e-06, 1.86787190e-06, 2.13920907e-06,
          1.44101057e-06, 1.23160260e-06, 1.42668034e-06, 1.16789761e-06,
          8.92713217e-07, 9.81046469e-07, 1.42490285e-06, 1.17540003e-06,
          1.22292965e-06, 1.87707337e-06, 1.56450767e-06, 1.67584801e-06,
          1.46708624e-06, 1.13712781e-06, 1.27196574e-06, 1.69207169e-07,
          -1.51691864e-07, 1.37413760e-08, 9.33314368e-08,
          -2.37909319e-07, -6.98858216e-08, 1.29634645e-06,
          9.94707307e-07, 1.08744700e-06, 2.36166238e-06, 2.01729586e-06,
          2.13976705e-06, 2.19160438e-06, 1.88607589e-06, 1.96634392e-06,
          2.97967154e-06, 2.71389968e-06, 2.74722220e-06, 3.69477743e-06,
          3.51719768e-06, 3.44594082e-06, 2.26296180e-07, 2.13260432e-08,
          -3.48498617e-08, -3.24893858e-06, -3.15009083e-06,
          -3.34198262e-06, -3.06925199e-06, -2.94447295e-06,
          -3.14029103e-06, -3.84206669e-06, -3.72332943e-06,
          -3.89147635e-06, -3.71242868e-06, -4.27067562e-06,
          -4.43188856e-06, 1.48983730e-07, 6.90637876e-08,
          -1.68096037e-07, 2.12990517e-06, 2.12122245e-06,
          1.93012988e-06, 1.29350940e-06, 1.14707973e-06, 9.50126378e-07,
          6.62253512e-07, 4.93064022e-07, 3.17988565e-07, 6.85053067e-07,
          4.53222953e-07, 2.89537013e-07, 5.15588795e-07, 3.02056492e-07,
          1.42735587e-07, 2.95311509e-07, 7.39782706e-08,
          -7.20847453e-08, 8.22072764e-07, 5.97736630e-07,
          4.47040350e-07, 9.50504216e-07, 7.65255947e-07, 6.53568804e-07,
          1.15818625e-06, 9.79896299e-07, 8.52298228e-07, 1.27726821e-06,
          1.08094093e-06, 9.78477942e-07, 1.49991649e-06, 1.29034015e-06,
          1.20780476e-06, -7.06815058e-07, -8.33050763e-07,
          -1.83610339e-07, -3.76064850e-06, -3.70797306e-06,
          -3.09459870e-06, -3.66621180e-06, -3.42787735e-06,
          -2.69899783e-06, -3.29489581e-06, -3.05769504e-06,
          -2.23466463e-06, -3.04015384e-06, -2.80209383e-06,
          -2.15041064e-06, -2.59121384e-06, -2.54704059e-06,
          -1.86417606e-06, -3.38682412e-06, -3.91685535e-06,
          -3.53782571e-06, -3.87528326e-06, -3.98504471e-06,
          -3.62107448e-06, -3.70924681e-06, -3.73726220e-06,
          -3.19281321e-06, -3.19311107e-06, -3.16091587e-06,
          -2.63187303e-06, -3.39177336e-06, -3.17627132e-06,
          -2.39327255e-06, -3.76927414e-06, -3.54289705e-06,
          -2.85851638e-06, -4.30945647e-06, -4.12130748e-06,
          -3.43665215e-06, -4.99341832e-06, -4.82105270e-06,
          -4.13328462e-06, -3.31777778e-06, -3.73552166e-06,
          -3.40035876e-06, 1.57422153e-06, 1.15649641e-06,
          1.46829916e-06, 1.75438470e-06, 1.36638243e-06, 1.56860688e-06,
          2.42365581e-06, 2.03496984e-06, 2.23798588e-06, 2.91271408e-06,
          2.57736156e-06, 2.61529613e-06, 3.27141834e-07,
          -3.86982046e-09, 3.48653444e-08, -2.91865717e-06,
          -2.99503881e-06, -2.87629632e-06, -2.81104053e-06,
          -2.85787746e-06, -2.72456373e-06, -3.02717172e-06,
          -3.10364680e-06, -2.90553203e-06, -2.60275692e-06,
          -3.19303922e-06, -2.98599275e-06, 7.70044267e-07,
          4.61449645e-07, 5.76404716e-07, 3.17318290e-06, 2.86892782e-06,
          2.95956465e-06, 2.76933611e-06, 2.48895026e-06, 2.57144006e-06,
          1.98485623e-06, 1.70531928e-06, 1.78779658e-06, 2.23094503e-06,
          1.95546659e-06, 2.00720910e-06, 8.16661213e-07, 5.20273375e-07,
          5.70046723e-07, -3.26472536e-06, -3.70234511e-06,
          -3.58214834e-06, -2.68960252e-06, -2.65858534e-06,
          -2.55380928e-06, -2.05376909e-06, -1.79402377e-06,
          -1.41684086e-06, -2.12782697e-06, -1.84704447e-06,
          -1.48002334e-06, 2.22560800e-07, 4.79558082e-07,
          8.87873398e-07, 2.93839662e-06, 3.21028142e-06, 3.60446575e-06,
          1.94732979e-06, 1.95249800e-06, 2.21333153e-06, 1.42857925e-06,
          1.21947164e-06, 1.48907918e-06, 1.27738645e-06, 1.02650495e-06,
          1.07836172e-06, 1.72672378e-06, 1.53057204e-06, 1.57636214e-06,
          2.17507591e-06, 1.86611237e-06, 1.97799818e-06, 2.05846686e-06,
          1.73318392e-06, 1.86296290e-06, 1.40523673e-06, 1.09064490e-06,
          1.25789234e-06, 1.99937494e-06, 1.67693236e-06, 1.84448618e-06,
          2.32774801e-06, 2.01969669e-06, 2.10476287e-06, 2.06653249e-06,
          1.72079149e-06, 1.84258204e-06, 1.74005754e-06, 1.46072773e-06,
          1.51017889e-06, 2.53636063e-06, 2.25139547e-06, 2.29373359e-06,
          3.07117352e-06, 2.86686941e-06, 2.79277879e-06, 6.59670093e-07,
          4.54218934e-07, 2.90947241e-07, -3.23269114e-06,
          -3.38329255e-06, -3.59004298e-06, -3.10598898e-06,
          -2.97705651e-06, -3.28459464e-06, -3.95351981e-06,
          -3.83311544e-06, -4.00267254e-06, -3.39550638e-06,
          -3.49726247e-06, -3.64992798e-06, 7.45778053e-08,
          -2.06074802e-08, -2.46637541e-07, 1.91517165e-06,
          1.82140741e-06, 1.62069909e-06, 1.09952578e-06, 9.47826550e-07,
          7.56142697e-07, 6.03899252e-07, 4.50242624e-07, 2.52285417e-07,
          7.21992649e-07, 5.36747109e-07, 3.70192339e-07, 4.93049527e-07,
          2.79155330e-07, 1.20113313e-07, 2.87760997e-07, 4.56414568e-08,
          -1.04707610e-07, 7.72157705e-07, 5.60624983e-07,
          4.13903649e-07, 9.36109586e-07, 7.56646955e-07, 6.47633840e-07,
          1.30086187e-06, 1.08252345e-06, 9.83506538e-07, 1.55682710e-06,
          1.35187668e-06, 1.26328871e-06, 1.68814927e-06, 1.47706862e-06,
          1.40010786e-06, -2.17564002e-06, -2.14545707e-06,
          -1.43030752e-06, -3.59746468e-06, -3.53638211e-06,
          -2.87346234e-06, -3.60441777e-06, -3.27604153e-06,
          -2.46396303e-06, -3.23373956e-06, -2.89968216e-06,
          -2.10017333e-06, -1.43638408e-06, -1.40496900e-06,
          -6.57507314e-07, 1.83544535e-06, 1.86657167e-06,
          2.56653993e-06, -5.10690427e-07, -7.90091121e-07,
          -5.02255773e-07, -2.47285288e-06, -2.76266792e-06,
          -2.46343302e-06, -3.80064148e-06, -3.79527887e-06,
          -3.29506179e-06, -3.33271942e-06, -3.24639677e-06,
          -2.75016964e-06, -3.54454824e-06, -3.27154839e-06,
          -2.53716576e-06, -3.76214848e-06, -3.49336074e-06,
          -2.91918809e-06, -3.32655145e-06, -3.46793468e-06,
          -2.85721694e-06, -4.54573183e-06, -4.80962399e-06,
          -4.17962610e-06, -2.49529376e-06, -2.80705603e-06,
          -2.47246544e-06, 1.83521593e-06, 1.70852172e-06,
          2.06099571e-06, 2.45216393e-06, 2.10489361e-06, 2.32833281e-06,
          3.02056333e-06, 2.71621411e-06, 2.87955822e-06, 2.92803338e-06,
          2.60839806e-06, 2.69036809e-06, -1.26403947e-07,
          -4.36642893e-07, -3.62276978e-07, -3.19551896e-06,
          -3.15773059e-06, -3.04921878e-06, -3.17067634e-06,
          -3.17809736e-06, -3.06659626e-06, -3.19303467e-06,
          -3.20876529e-06, -3.09016355e-06, -2.37920108e-06,
          -2.61632113e-06, -2.95621339e-06, 1.47928347e-06,
          1.21393180e-06, 1.24742292e-06, 3.28038573e-06, 3.00985312e-06,
          3.03473757e-06, 2.70683358e-06, 2.48833976e-06, 2.50454991e-06,
          2.08280426e-06, 1.83748853e-06, 1.88052070e-06, 1.72325178e-06,
          1.44476633e-06, 1.45065258e-06, -3.48890381e-07,
          -6.39113125e-07, -7.48851164e-07, -3.57913450e-06,
          -3.61770162e-06, -3.46854745e-06, -2.80174277e-06,
          -2.80853760e-06, -2.70769942e-06, -1.78658024e-06,
          -1.53943938e-06, -1.22644678e-06, -1.86269085e-06,
          -1.59339777e-06, -1.28186787e-06, 5.83450628e-07,
          8.20891103e-07, 1.17088916e-06, 3.35305731e-06, 3.60294553e-06,
          3.93822575e-06, 1.84045393e-06, 1.93431765e-06, 2.15479054e-06,
          9.97699772e-07, 8.14303633e-07, 1.02843194e-06, 1.19096194e-06,
          9.46050307e-07, 1.08828237e-06, 1.72002740e-06, 1.42492354e-06,
          1.56930457e-06, 2.09687960e-06, 1.76725405e-06, 1.90218202e-06,
          2.09716654e-06, 1.82352255e-06, 1.94118775e-06, 1.85189344e-06,
          1.47907940e-06, 1.65607287e-06, 1.95926941e-06, 1.58893477e-06,
          1.75873868e-06, 1.57529962e-06, 1.27716851e-06, 1.40356303e-06,
          1.09347980e-06, 8.10700783e-07, 9.61251203e-07, 9.55657470e-07,
          7.12471945e-07, 7.60522084e-07, 1.42491683e-06, 1.16501792e-06,
          1.21972096e-06, 1.59812225e-06, 1.42439751e-06, 1.29626198e-06,
          -7.85716736e-08, -2.59157929e-07, -4.12323743e-07,
          -3.99119517e-06, -3.81112250e-06, -4.00854151e-06,
          -3.61074717e-06, -3.48796220e-06, -3.69139593e-06,
          -4.03730928e-06, -3.91225694e-06, -4.11259180e-06,
          -2.87146258e-06, -2.97066026e-06, -3.16249861e-06,
          1.04846617e-06, 9.73387728e-07, 7.15549220e-07, 2.12412738e-06,
          2.05737774e-06, 1.85035401e-06, 1.30686487e-06, 1.17326840e-06,
          9.70409246e-07, 1.08128950e-06, 9.58117653e-07, 7.54303301e-07,
          9.60435955e-07, 8.01220892e-07, 5.80248468e-07, 6.46635840e-07,
          4.85755834e-07, 2.70383481e-07, 7.66976711e-07, 6.08094467e-07,
          3.77691663e-07, 1.06523817e-06, 9.12160942e-07, 6.87399279e-07,
          1.33325079e-06, 1.22075562e-06, 1.02790420e-06, 1.87985927e-06,
          1.75961509e-06, 1.56643807e-06, 2.26529937e-06, 2.16268154e-06,
          1.96185169e-06, 2.28192584e-06, 2.16698913e-06, 1.98431349e-06,
          -1.60731304e-06, -1.56060264e-06, -8.36601600e-07,
          -2.55495252e-06, -2.50443441e-06, -1.80840198e-06,
          -2.47601452e-06, -2.41531802e-06, -1.38884025e-06,
          -2.78215362e-06, -2.46073205e-06, -1.63397635e-06,
          -1.04697892e-06, -1.01710316e-06, -2.68429716e-07,
          3.20166373e-06, 3.31471915e-06, 3.96637188e-06, 1.72136072e-06,
          1.44445721e-06, 1.74209549e-06, -2.01822627e-06,
          -2.30740056e-06, -2.01143257e-06, -3.91165304e-06,
          -3.90606374e-06, -3.40051406e-06, -3.57481576e-06,
          -3.41111604e-06, -3.00329611e-06, -3.70070688e-06,
          -3.42699764e-06, -2.69664247e-06, -1.18073206e-06,
          -1.13433327e-06, -5.42354996e-07, 6.48313630e-07,
          6.77955882e-07, 1.29155762e-06, -3.82971109e-07,
          -3.91468006e-07, 2.42418480e-07, -5.98697056e-07,
          -8.18874128e-07, -4.78479706e-07, 2.00345767e-06,
          1.81978419e-06, 2.13529984e-06, 3.26094732e-06, 2.90587059e-06,
          3.11994199e-06, 3.74523142e-06, 3.36105768e-06, 3.58079888e-06,
          3.09452912e-06, 2.76842889e-06, 2.85164037e-06, 3.07205909e-07,
          -1.75987380e-09, 7.13328916e-08, -2.05953688e-06,
          -2.01331591e-06, -1.99905730e-06, -2.63642141e-06,
          -2.63602465e-06, -2.52992390e-06, -2.87785269e-06,
          -2.88804745e-06, -2.76873652e-06, -1.48573827e-06,
          -1.72746866e-06, -1.65682729e-06, 2.52518817e-06,
          2.24976361e-06, 2.29243210e-06, 3.51843755e-06, 3.46911952e-06,
          3.57394038e-06, 2.58586419e-06, 2.34374170e-06, 2.38441680e-06,
          1.75979369e-06, 1.51767108e-06, 1.55834641e-06, 4.89873685e-07,
          2.15528019e-07, 1.99494437e-07, -2.84730186e-06,
          -3.13131090e-06, -3.15051739e-06, -3.94365543e-06,
          -3.97616986e-06, -3.85419889e-06, -2.90464118e-06,
          -2.95018617e-06, -2.87733792e-06, -1.79266851e-06,
          -1.54297084e-06, -1.23732264e-06, -1.81063615e-06,
          -1.53794997e-06, -1.23460063e-06, 7.45211480e-07,
          9.84651251e-07, 1.33716810e-06, 3.73071703e-06, 4.01799434e-06,
          4.35704987e-06, 2.00521959e-06, 2.12464261e-06, 2.32259663e-06,
          8.83672612e-07, 7.27628901e-07, 9.43272994e-07, 1.11611826e-06,
          8.39674669e-07, 9.20421201e-07, 1.64171274e-06, 1.35826610e-06,
          1.46724744e-06, 2.30023716e-06, 2.00839781e-06, 2.14777174e-06,
          2.84490898e-06, 2.52661061e-06, 2.60690877e-06, 1.25867950e-06,
          8.42079828e-07, 1.02775255e-06, 4.05620710e-07, 9.23387056e-09,
          2.19580073e-07, -9.84650228e-08, -4.42777406e-07,
          -2.87383699e-07, -1.57946715e-07, -4.72079620e-07,
          -3.25845065e-07, -1.62969044e-07, -4.36278043e-07,
          -3.57381822e-07, 1.15192461e-06, 8.96237907e-07,
          9.68214181e-07, 2.64673349e-06, 2.47245134e-06, 2.34491472e-06,
          8.58505700e-07, 6.66909443e-07, 5.27118345e-07,
          -3.01880277e-06, -2.87756438e-06, -2.98392251e-06,
          -2.72220905e-06, -2.61015475e-06, -2.81352300e-06,
          -3.01832415e-06, -2.88733668e-06, -3.10312998e-06,
          -1.11332236e-06, -1.20082507e-06, -1.40471593e-06,
          2.89646391e-06, 2.79922619e-06, 2.53583744e-06, 3.25858105e-06,
          3.30752050e-06, 3.05950039e-06, 2.34073991e-06, 2.17045476e-06,
          1.94901054e-06, 2.32537650e-06, 2.18597916e-06, 1.92755442e-06,
          1.81313203e-06, 1.66562006e-06, 1.47752678e-06, 1.58680666e-06,
          1.40988061e-06, 1.20838115e-06, 2.02053707e-06, 1.87444539e-06,
          1.65259871e-06, 2.23900429e-06, 2.05957349e-06, 1.84024532e-06,
          1.61344508e-06, 1.48981974e-06, 1.30222350e-06, 2.24884752e-06,
          2.12855662e-06, 1.93231426e-06, 2.70363989e-06, 2.58160071e-06,
          2.41597422e-06, 2.54645965e-06, 2.43604495e-06, 2.28803469e-06,
          -6.66460210e-07, -2.15865242e-07, 2.10427331e-07,
          -2.61291757e-06, -2.03883701e-06, -1.51965230e-06,
          -1.94242807e-06, -2.04423327e-06, -1.46393302e-06,
          -2.83722215e-06, -2.38917596e-06, -1.81720668e-06,
          -1.65814924e-06, -1.68222357e-06, -1.16806882e-06,
          1.74597392e-06, 1.57575994e-06, 2.02233969e-06, 4.80033748e-07,
          3.23919096e-07, 4.69377710e-07, -2.54335828e-06,
          -2.69994371e-06, -2.55233681e-06, -4.09522272e-06,
          -3.98834618e-06, -3.71522151e-06, -3.73227499e-06,
          -3.60102854e-06, -3.32726495e-06, -3.18888215e-06,
          -3.42250769e-06, -2.87669786e-06, 5.69758868e-07,
          6.48025036e-07, 1.20096411e-06, 2.05314223e-06, 2.19781055e-06,
          2.86243039e-06, 1.78499602e-06, 2.17010597e-06, 2.78044240e-06,
          1.90606318e-06, 2.01523926e-06, 2.62434150e-06, 2.32939169e-06,
          2.45393630e-06, 3.00940883e-06, 2.93212315e-06, 3.03138449e-06,
          3.61432740e-06, 3.58041802e-06, 3.59772639e-06, 4.24193649e-06,
          3.11976282e-06, 3.26330655e-06, 3.82261624e-06, 7.42644318e-07,
          9.81008384e-07, 1.50679830e-06, -2.49818072e-06,
          -2.03667696e-06, -1.43940792e-06, -2.35554648e-06,
          -2.40987129e-06, -2.00952763e-06, -3.38834343e-06,
          -3.10036694e-06, -2.45952151e-06, -7.03411445e-07,
          -6.25487928e-07, -4.17163051e-08, 2.98065379e-06,
          2.91980950e-06, 3.18836783e-06, 3.34576021e-06, 3.33932962e-06,
          3.65824735e-06, 2.23645861e-06, 2.05076708e-06, 2.03390027e-06,
          7.34423452e-07, 5.54838209e-07, 5.27395628e-07,
          -3.01080490e-06, -3.57153044e-06, -3.68217229e-06,
          -3.90587684e-06, -3.83047291e-06, -3.85100111e-06,
          -3.73881562e-06, -3.82929420e-06, -3.76336061e-06,
          -2.97113093e-06, -3.05712661e-06, -2.99376029e-06,
          -1.75102036e-06, -1.54187944e-06, -1.26172836e-06,
          2.65312337e-07, 3.43653653e-07, 5.34963817e-07, 3.56857208e-06,
          3.80951178e-06, 4.13887210e-06, 3.95163079e-06, 4.18156515e-06,
          4.55334794e-06, 2.59088506e-06, 2.71207932e-06, 2.99438148e-06,
          1.21867959e-06, 1.00503792e-06, 1.28986926e-06, 1.00685065e-06,
          7.70426936e-07, 7.57197199e-07, 1.45308547e-06, 1.19288961e-06,
          1.18957348e-06, 2.63166089e-06, 2.32396178e-06, 2.38825396e-06,
          2.79417213e-06, 2.51761776e-06, 2.58098771e-06, 5.94174423e-07,
          2.85642329e-07, 3.14535157e-07, -2.60065417e-06,
          -2.90808271e-06, -2.84514704e-06, -2.50883159e-06,
          -2.51241227e-06, -2.46388413e-06, -2.42511942e-06,
          -2.48403285e-06, -2.55110399e-06, -2.82617816e-06,
          -2.78915900e-06, -2.84808311e-06, -2.51532970e-06,
          -2.42811871e-06, -2.49334653e-06, -1.99247847e-06,
          -1.86586863e-06, -2.09604309e-06, -2.04503363e-06,
          -1.92898324e-06, -2.13521571e-06, -2.22294511e-06,
          -2.10109260e-06, -2.29684065e-06, -2.44659736e-06,
          -2.33255332e-06, -2.52919699e-06, -2.59742069e-06,
          -2.47817161e-06, -2.71550539e-06, -5.92614356e-07,
          -6.54442545e-07, -8.69376265e-07, 3.55928887e-06,
          3.57318345e-06, 3.26409804e-06, 2.96770190e-06, 2.99171393e-06,
          2.68218423e-06, 2.55235432e-06, 2.46986292e-06, 2.17227944e-06,
          2.25355211e-06, 2.13864314e-06, 1.83119175e-06, 1.99923147e-06,
          1.94284826e-06, 1.66891982e-06, 2.26271686e-06, 2.16967010e-06,
          1.87569401e-06, 2.64359846e-06, 2.52754148e-06, 2.21980326e-06,
          2.08644246e-06, 1.98213888e-06, 1.70442638e-06, 1.71231636e-06,
          1.62362301e-06, 1.38173539e-06, 2.20469383e-06, 2.12305054e-06,
          1.88282797e-06, 2.66097754e-06, 2.48088895e-06, 2.30608771e-06,
          2.20288916e-06, 2.04933895e-06, 1.86867715e-06, 1.69267400e-06,
          2.06598588e-06, 2.55551004e-06, -8.31527757e-07,
