%YAML:1.0
---
opencv_ml_svm:
   format: 3
   svmType: C_SVC
   kernel:
      type: LINEAR
   C: 1.
   term_criteria: { iterations:100 }
   var_count: 8505
   class_count: 2
   class_labels: !!opencv-matrix
      rows: 2
      cols: 1
      dt: i
      data: [ -1, 1 ]
   sv_total: 1
   support_vectors:
      - [ 1.88709714e-06, 6.49721073e-07, 2.33779929e-06, 1.87502872e-06,
          6.37652590e-07, 2.32573075e-06, 1.44392504e-06, 6.92814922e-07,
          2.27523765e-06, 1.40934037e-06, 6.58230249e-07, 2.24065298e-06,
          1.02057538e-06, 4.00475955e-07, 2.20921947e-06, 8.32902344e-07,
          2.12802945e-07, 2.02154661e-06, 6.84785277e-07, 9.83450263e-08,
          2.00723252e-06, 6.77981802e-07, 9.15415583e-08, 2.00042905e-06,
          9.85267320e-07, 5.59823512e-08, 2.19073672e-06, 9.58781357e-07,
          2.94964231e-08, 2.16425087e-06, 1.31657089e-06,
          -7.05404830e-07, 1.78779396e-06, 1.43376076e-06,
          -5.88214903e-07, 1.90498383e-06, 2.41895214e-06,
          7.82183278e-08, 2.59256262e-06, 2.66006350e-06, 3.19329644e-07,
          2.83367399e-06, 2.62817275e-06, 4.01787247e-07, 2.71339741e-06,
          2.44270200e-06, 2.16316465e-07, 2.52792665e-06, 2.24778682e-06,
          1.51669326e-07, 2.46456671e-06, 2.56667659e-06, 4.70559115e-07,
          2.78345647e-06, 3.05425624e-06, 1.38906648e-06, 3.15466559e-06,
          3.22848450e-06, 1.70318685e-06, 3.46878596e-06, 2.86097884e-06,
          1.45435979e-06, 2.53036933e-06, 2.34556364e-06, 9.38944595e-07,
          2.01495413e-06, 2.36840674e-06, 7.70702229e-07, 9.72655243e-07,
          2.05680021e-06, 4.59095673e-07, 6.61048716e-07, 2.09016980e-06,
          2.39831166e-07, 1.98495442e-09, 1.76967899e-06,
          -8.06597313e-08, -3.18505954e-07, 2.09131804e-06,
          1.26654584e-07, -4.79936148e-07, 2.33029914e-06,
          3.65635856e-07, -2.40954876e-07, 3.14858312e-06,
          9.13274562e-07, -1.48520940e-07, 3.44766408e-06,
          1.21235541e-06, 1.50559913e-07, 3.92074253e-06, 1.49029040e-06,
          -1.00285604e-07, 3.93881737e-06, 1.50836490e-06,
          -8.22111801e-08, 3.96815585e-06, 1.36820518e-06,
          -1.72887169e-07, 3.83499764e-06, 1.23504708e-06,
          -3.06045223e-07, 3.73531043e-06, 8.42405541e-07,
          -9.57389830e-08, 3.89464822e-06, 1.00174327e-06,
          6.35987973e-08, 3.85427302e-06, 1.11470581e-06, 3.43968537e-07,
          3.89669231e-06, 1.15712521e-06, 3.86387939e-07, 2.93810081e-06,
          1.30307615e-06, 4.05885743e-07, 2.99166754e-06, 1.55439807e-06,
          4.59452622e-07, 2.89050149e-06, 1.79605513e-06, 1.07430662e-06,
          2.90444837e-06, 1.76056312e-06, 1.08825338e-06, 3.15541001e-06,
          1.80973836e-06, 1.46804109e-06, 3.32534864e-06, 1.97967711e-06,
          1.63797984e-06, 3.69578129e-06, 2.05056335e-06, 2.15972295e-06,
          3.71009833e-06, 2.06488062e-06, 2.17404022e-06, 3.78224058e-06,
          2.15734940e-06, 2.34074696e-06, 3.84112809e-06, 2.22447693e-06,
          2.39963447e-06, 3.83126644e-06, 2.36998767e-06, 2.13271392e-06,
          3.76729531e-06, 2.30601677e-06, 2.06874279e-06, 3.58017928e-06,
          2.34513891e-06, 1.40788313e-06, 3.49353900e-06, 2.26673842e-06,
          1.32124296e-06, 3.29871295e-06, 2.20645529e-06, 1.01720218e-06,
          3.14446174e-06, 2.05220408e-06, 8.62950969e-07, 2.96190478e-06,
          1.80930840e-06, 9.69574444e-07, 2.91246965e-06, 1.57859802e-06,
          9.20139541e-07, 2.68319673e-06, 1.25616339e-06, 8.35110427e-07,
          2.47830576e-06, 1.05127242e-06, 6.30219461e-07, 2.04089861e-06,
          5.28976443e-07, 7.60784133e-07, 1.92404104e-06, 4.12118823e-07,
          6.43926512e-07, 2.24932842e-06, 1.78119905e-07, 8.56176428e-07,
          2.13933663e-06, 6.81280099e-08, 7.46184526e-07, 2.14264219e-06,
          -3.40626599e-07, 6.52244864e-07, 2.11676320e-06,
          -3.66505532e-07, 6.26365932e-07, 2.39516771e-06,
          -6.51039045e-07, 6.37582104e-07, 2.48120182e-06,
          -5.65005053e-07, 7.23616097e-07, 2.93105950e-06,
          -4.69195584e-07, 7.59660963e-07, 3.37444453e-06,
          -2.58105040e-08, 1.20304605e-06, 3.99853297e-06,
          2.91587952e-07, 1.64482310e-06, 4.58322438e-06, 8.76279330e-07,
          2.22951439e-06, 4.85963028e-06, 8.91838567e-07, 2.06622531e-06,
          4.86396311e-06, 8.96171400e-07, 2.07055814e-06, 4.74055969e-06,
          5.88982630e-07, 1.85908971e-06, 4.52772656e-06, 3.76149728e-07,
          1.64625681e-06, 4.44312673e-06, 3.55460543e-07, 1.50810297e-06,
          4.66824849e-06, 5.80582196e-07, 1.73322462e-06, 4.95242011e-06,
          9.09349524e-07, 2.36198207e-06, 4.99431280e-06, 9.71235409e-07,
          2.42386795e-06, 4.90268985e-06, 9.53748327e-07, 2.54518977e-06,
          5.02218927e-06, 1.13322812e-06, 2.72466968e-06, 4.68778626e-06,
          6.69419251e-07, 2.33724950e-06, 4.63004153e-06, 5.78715287e-07,
          2.27950477e-06, 5.13915938e-06, 7.41087661e-07, 2.94259712e-06,
          5.07222057e-06, 6.74148851e-07, 2.87565831e-06, 5.55200540e-06,
          3.77305838e-07, 2.81994153e-06, 5.49633251e-06, 3.56605852e-07,
          2.79924166e-06, 5.59511182e-06, 7.35949982e-07, 2.98661689e-06,
          5.72655108e-06, 5.34138621e-07, 2.78480547e-06, 6.00199246e-06,
          7.56891609e-07, 2.34952472e-06, 6.16134685e-06, 7.92833532e-07,
          2.17123215e-06, 5.28906230e-06, 1.17832167e-06, 2.02962724e-06,
          5.39508619e-06, 1.28434567e-06, 2.13565136e-06, 4.87156103e-06,
          1.61900346e-06, 2.08541815e-06, 5.97382495e-06, 2.72126749e-06,
          3.18768207e-06, 6.22392963e-06, 3.07175492e-06, 3.48677167e-06,
          5.93229288e-06, 2.78011839e-06, 3.19513515e-06, 4.97394922e-06,
          2.55829923e-06, 2.73004002e-06, 3.93004211e-06, 1.31663717e-06,
          1.68613292e-06, 4.54440305e-06, 3.13042528e-06, 3.10084420e-06,
          4.61315767e-06, 3.00142506e-06, 3.16959904e-06, 4.32051320e-06,
          2.87572539e-06, 2.88074943e-06, 4.04473030e-06, 2.70339160e-06,
          2.60496654e-06, 3.69558370e-06, 2.25457779e-06, 2.15179693e-06,
          3.60171884e-06, 2.16071294e-06, 2.05793231e-06, 4.44981515e-06,
          2.56574458e-06, 2.40808367e-06, 2.21841196e-06, 9.03947011e-07,
          2.18254650e-06, 2.17803267e-06, 8.63567607e-07, 2.14216720e-06,
          1.45618878e-06, 1.00378998e-06, 1.99956207e-06, 1.44370938e-06,
          9.91310571e-07, 1.98708267e-06, 1.07922926e-06, 9.43019131e-07,
          2.06652362e-06, 1.01361854e-06, 8.77408354e-07, 2.00091290e-06,
          8.96241943e-07, 7.72804185e-07, 1.95040866e-06, 8.45474915e-07,
          7.22037157e-07, 1.89964157e-06, 1.31466902e-06, 7.49143794e-07,
          2.05052129e-06, 1.29640944e-06, 7.30884153e-07, 2.03226182e-06,
          1.85830186e-06, 7.55429824e-07, 2.05099286e-06, 2.12441932e-06,
          1.02154740e-06, 2.31711056e-06, 2.70459532e-06, 1.16702904e-06,
          2.50973608e-06, 2.68734493e-06, 1.14977877e-06, 2.49248569e-06,
          2.54749079e-06, 1.00966270e-06, 2.41189241e-06, 2.35077300e-06,
          8.12944904e-07, 2.21517462e-06, 1.84233841e-06, 5.89119395e-07,
          1.85147076e-06, 1.95396046e-06, 7.00741396e-07, 1.96309270e-06,
          1.85306953e-06, 1.08981669e-06, 2.17527122e-06, 2.00772047e-06,
          1.24446751e-06, 2.32992193e-06, 1.89850959e-06, 1.28585248e-06,
          2.17448041e-06, 1.69254872e-06, 1.07989149e-06, 1.96851943e-06,
          1.98265570e-06, 4.38983619e-07, 7.91037110e-07, 1.32873561e-06,
          -2.14936506e-07, 1.37116984e-07, 1.07219341e-06,
          -7.29549640e-07, -6.83226006e-07, 8.81452650e-07,
          -9.20290461e-07, -8.73966826e-07, 1.39997235e-06,
          -6.05798334e-07, -7.90512559e-07, 1.95483813e-06,
          -5.09324742e-08, -2.35646752e-07, 2.75365505e-06,
          8.29433930e-07, 1.13945696e-07, 2.80687937e-06, 8.82658185e-07,
          1.67169972e-07, 3.07272944e-06, 1.26622353e-06,
          -9.12844484e-08, 3.06153197e-06, 1.25502595e-06,
          -1.02482055e-07, 3.07126015e-06, 1.13444128e-06,
          1.23700801e-07, 3.09665006e-06, 1.15983107e-06, 1.49090539e-07,
          3.01794671e-06, 1.12624195e-06, 4.86297211e-07, 3.37595543e-06,
          1.48425045e-06, 8.44305703e-07, 3.56994792e-06, 2.05869719e-06,
          1.68491704e-06, 3.88973240e-06, 2.54327756e-06, 2.00470163e-06,
          2.81985308e-06, 2.63774245e-06, 1.98060070e-06, 2.56938574e-06,
          2.37903510e-06, 1.73013314e-06, 2.20098877e-06, 2.24122391e-06,
          2.00453769e-06, 2.19714889e-06, 2.21266441e-06, 2.00069780e-06,
          2.46277932e-06, 2.36801634e-06, 2.35810899e-06, 2.64896084e-06,
          2.55419786e-06, 2.54429051e-06, 3.18073785e-06, 2.72940429e-06,
          3.16025944e-06, 3.21248945e-06, 2.76939591e-06, 3.19201104e-06,
          3.35840809e-06, 2.89037939e-06, 3.37059510e-06, 3.29389309e-06,
          2.82586461e-06, 3.30608032e-06, 3.21817993e-06, 2.79204255e-06,
          2.91248580e-06, 3.12290013e-06, 2.69676298e-06, 2.81720600e-06,
          3.23779113e-06, 2.67049268e-06, 2.15468003e-06, 3.09829852e-06,
          2.53923986e-06, 2.01518742e-06, 3.00707052e-06, 2.36095161e-06,
          1.53395081e-06, 2.64755863e-06, 1.99319993e-06, 1.17443892e-06,
          2.30226419e-06, 1.51294114e-06, 1.04821572e-06, 2.17934030e-06,
          1.43121622e-06, 9.25291829e-07, 2.02549495e-06, 1.00866237e-06,
          8.58222506e-07, 1.34767572e-06, 3.30843136e-07, 1.80403219e-07,
          1.82469989e-06, 4.05874573e-07, 1.12112798e-06, 1.91915706e-06,
          5.00331794e-07, 1.21558514e-06, 2.02321394e-06, 6.16394061e-07,
          1.44306864e-06, 1.97392569e-06, 5.67105701e-07, 1.39378028e-06,
          1.57583804e-06, 3.93740379e-07, 1.15731802e-06, 1.57809347e-06,
          3.95995812e-07, 1.15957346e-06, 1.84376779e-06, 2.79505656e-07,
          1.26245436e-06, 1.84003454e-06, 2.75772379e-07, 1.25872100e-06,
          1.92695666e-06, -2.27538564e-07, 1.08926179e-06,
          2.30213573e-06, 1.47640407e-07, 1.46444074e-06, 3.17553668e-06,
          4.55554840e-07, 2.10540998e-06, 3.70498924e-06, 9.85007318e-07,
          2.63486254e-06, 4.55459485e-06, 1.35722701e-06, 2.87350781e-06,
          4.56842827e-06, 1.37106042e-06, 2.88734122e-06, 4.84921748e-06,
          1.24659437e-06, 2.74132344e-06, 4.81070765e-06, 1.20808465e-06,
          2.70281362e-06, 4.66598431e-06, 1.03053139e-06, 2.41123166e-06,
          4.43019417e-06, 7.94741027e-07, 2.17544130e-06, 4.17545243e-06,
          4.13202173e-07, 1.91608888e-06, 4.20771676e-06, 4.45466213e-07,
          1.94835297e-06, 4.34668800e-06, 4.95432062e-07, 1.93582946e-06,
          4.38681764e-06, 5.35561867e-07, 1.97595932e-06, 4.07273683e-06,
          6.77741355e-07, 2.31350168e-06, 4.10929715e-06, 7.14301450e-07,
          2.35006178e-06, 4.26048564e-06, 6.50271318e-07, 2.68849840e-06,
          4.41046450e-06, 8.00250120e-07, 2.83847726e-06, 4.58399154e-06,
          4.58996112e-07, 2.81588700e-06, 5.08408812e-06, 9.59092631e-07,
          3.31598358e-06, 5.44606291e-06, 1.12257771e-06, 3.17572562e-06,
          5.76025423e-06, 1.43676903e-06, 3.48991693e-06, 6.25797384e-06,
          2.02036563e-06, 3.33118442e-06, 6.28260705e-06, 2.04499884e-06,
          3.35581763e-06, 6.43784279e-06, 2.25649774e-06, 3.16731803e-06,
          6.48284367e-06, 2.33647165e-06, 3.24729194e-06, 5.67991719e-06,
          2.63992365e-06, 3.02566809e-06, 6.32180127e-06, 3.28180749e-06,
          3.66755194e-06, 6.17508522e-06, 3.34886499e-06, 3.66561653e-06,
          5.88808507e-06, 3.06186485e-06, 3.37861616e-06, 5.29218232e-06,
          2.85514670e-06, 2.80480526e-06, 4.51561482e-06, 2.07857897e-06,
          2.02823753e-06, 3.98534985e-06, 2.27353803e-06, 2.20400239e-06,
          3.97103440e-06, 2.25922236e-06, 2.18968671e-06, 3.94588096e-06,
          2.26694965e-06, 2.25417534e-06, 3.79375979e-06, 2.11482870e-06,
          2.10205440e-06, 3.42262842e-06, 1.63847949e-06, 1.74146282e-06,
          3.26192230e-06, 1.47777359e-06, 1.58075682e-06, 4.00324689e-06,
          2.03784384e-06, 2.02088563e-06, 2.40308827e-06, 1.08862321e-06,
          2.36722281e-06, 2.34784716e-06, 1.03338220e-06, 2.31198169e-06,
          1.61985940e-06, 1.16746060e-06, 2.16323269e-06, 1.61970036e-06,
          1.16730166e-06, 2.16307376e-06, 1.31804302e-06, 1.18183277e-06,
          2.30533715e-06, 1.25340944e-06, 1.11719930e-06, 2.24070368e-06,
          1.23255154e-06, 1.10911378e-06, 2.28671820e-06, 1.23766779e-06,
          1.11423003e-06, 2.29183456e-06, 1.92170228e-06, 1.35617699e-06,
          2.65755443e-06, 2.00525437e-06, 1.43972920e-06, 2.74110675e-06,
          2.63504103e-06, 1.53216899e-06, 2.82773203e-06, 2.72195416e-06,
          1.61908213e-06, 2.91464517e-06, 3.29401564e-06, 1.75644948e-06,
          3.09915640e-06, 3.08043832e-06, 1.54287216e-06, 2.88557908e-06,
          2.56960629e-06, 1.03177831e-06, 2.43400791e-06, 2.06559207e-06,
          5.27763973e-07, 1.92999369e-06, 1.26055102e-06, 7.33204208e-09,
          1.26968337e-06, 1.19481808e-06, -5.84009499e-08,
          1.20395032e-06, 8.93763456e-07, 1.30510614e-07, 1.21596497e-06,
          9.83505061e-07, 2.20252261e-07, 1.30570663e-06, 1.35532457e-06,
          7.42667339e-07, 1.63129528e-06, 1.52284338e-06, 9.10186145e-07,
          1.79881397e-06, 2.13148542e-06, 5.87813304e-07, 9.39866766e-07,
          1.48278730e-06, -6.08848936e-08, 2.91168618e-07,
          8.44155409e-07, -9.57587645e-07, -9.11264067e-07,
          8.72596956e-07, -9.29146097e-07, -8.82822462e-07,
          1.35242442e-06, -6.53346206e-07, -8.38060487e-07,
          1.93563301e-06, -7.01375455e-08, -2.54851813e-07,
          2.88081787e-06, 9.56596864e-07, 2.41108637e-07, 3.07602704e-06,
          1.15180580e-06, 4.36317663e-07, 3.33732419e-06, 1.53081817e-06,
          1.73310170e-07, 3.20588197e-06, 1.39937606e-06, 4.18680095e-08,
          3.05028993e-06, 1.11347106e-06, 1.02730553e-07, 2.98959526e-06,
          1.20109257e-06, 4.20358290e-08, 2.97897168e-06, 1.22734320e-06,
          4.47322037e-07, 3.26778468e-06, 1.49967673e-06, 7.36135178e-07,
          3.67194571e-06, 2.29253169e-06, 1.78691482e-06, 4.28928161e-06,
          2.90162757e-06, 2.40425061e-06, 3.25700057e-06, 3.03369075e-06,
          2.41774796e-06, 2.78216430e-06, 2.55885470e-06, 1.94291192e-06,
          1.95756229e-06, 1.98131761e-06, 1.76111121e-06, 1.68782685e-06,
          1.70334238e-06, 1.49137577e-06, 1.92388302e-06, 1.83735960e-06,
          1.81921257e-06, 2.20603511e-06, 2.11951192e-06, 2.10136477e-06,
          2.73666024e-06, 2.29356647e-06, 2.71618183e-06, 2.75923617e-06,
          2.33262199e-06, 2.73875776e-06, 2.89054492e-06, 2.44723583e-06,
          2.90273215e-06, 2.87680973e-06, 2.42526062e-06, 2.88899673e-06,
          2.93551261e-06, 2.50937546e-06, 2.62981848e-06, 2.89128252e-06,
          2.47338494e-06, 2.58558816e-06, 3.10025916e-06, 2.54120050e-06,
          2.01714806e-06, 3.02993567e-06, 2.47911680e-06, 1.94682457e-06,
          2.97648307e-06, 2.33036417e-06, 1.50336336e-06, 2.58094838e-06,
          1.93482947e-06, 1.10782855e-06, 2.16173476e-06, 1.36417179e-06,
          9.07686172e-07, 1.86567638e-06, 1.07635321e-06, 6.11627854e-07,
          1.22019446e-06, 3.68157771e-07, 5.29220081e-08, 2.94860030e-07,
          -5.48936839e-07, -8.72412386e-07, 5.76270224e-07,
          -6.61279728e-07, -1.27301774e-07, 5.22998448e-07,
          -7.14551447e-07, -1.80573508e-07, 4.06108711e-07,
          -8.35915330e-07, -1.74036600e-07, 3.31943681e-07,
          -9.18320154e-07, -2.48201616e-07, 1.81197657e-09,
          -1.04020921e-06, -4.16707991e-07, -4.37249135e-08,
          -1.10222561e-06, -4.62244884e-07, 2.64075339e-07,
          -1.18482967e-06, -3.17238147e-07, 1.58325420e-07,
          -1.29057958e-06, -4.22988052e-07, 6.70106942e-07,
          -1.35255175e-06, -1.67588041e-07, 7.80577295e-07,
          -1.22560175e-06, -5.71176670e-08, 1.80756922e-06,
          -7.39376901e-07, 7.37442576e-07, 2.49769232e-06,
          -2.22289501e-07, 1.42756562e-06, 3.50284949e-06,
          3.05481649e-07, 1.82176245e-06, 3.80568054e-06, 6.08312689e-07,
          2.12459349e-06, 4.22368521e-06, 6.21062100e-07, 2.11579118e-06,
          4.44629495e-06, 8.43672069e-07, 2.33840115e-06, 4.17357660e-06,
          5.38123459e-07, 1.91882373e-06, 3.39196231e-06,
          -2.43490661e-07, 1.13720967e-06, 2.80170525e-06,
          -9.60545208e-07, 5.42341468e-07, 2.60094612e-06,
          -1.05785512e-06, 3.41582393e-07, 2.53133544e-06,
          -1.26144903e-06, 1.20477083e-07, 2.95759332e-06,
          -8.35191088e-07, 5.46735066e-07, 3.16378942e-06,
          -1.54743731e-07, 1.40455404e-06, 3.59649152e-06,
          2.95949349e-07, 1.83725604e-06, 4.79683922e-06, 1.27208330e-06,
          3.22485243e-06, 3.86419379e-06, 3.48433048e-07, 2.29220655e-06,
          3.90138621e-06, -1.33653231e-07, 2.13328190e-06,
          4.22575886e-06, 1.99714762e-07, 2.45765432e-06, 4.66199117e-06,
          3.38505998e-07, 2.39165388e-06, 5.06248762e-06, 7.39002246e-07,
          2.79215033e-06, 5.86098258e-06, 1.62337460e-06, 2.93419339e-06,
          6.17698197e-06, 1.97936060e-06, 3.29017939e-06, 5.99525947e-06,
          1.77894174e-06, 2.68976191e-06, 6.01149623e-06, 1.79517826e-06,
          2.70599844e-06, 5.31530804e-06, 2.27531427e-06, 2.66105872e-06,
          5.46422598e-06, 2.42423243e-06, 2.80997688e-06, 5.18446586e-06,
          2.35824541e-06, 2.67499695e-06, 4.98133522e-06, 2.15511500e-06,
          2.47186654e-06, 4.25897997e-06, 1.82194458e-06, 1.77160302e-06,
          3.97137092e-06, 1.53433518e-06, 1.48399363e-06, 3.20150525e-06,
          1.67920848e-06, 1.42015756e-06, 3.38747986e-06, 1.67566793e-06,
          1.60613217e-06, 3.61349021e-06, 1.93455912e-06, 1.92178459e-06,
          3.57071121e-06, 1.89177990e-06, 1.87900559e-06, 3.32117975e-06,
          1.53703093e-06, 1.64001415e-06, 3.04409423e-06, 1.25994529e-06,
          1.36292863e-06, 3.64304674e-06, 1.67764370e-06, 1.66068526e-06,
          2.79973779e-06, 1.48749461e-06, 2.55811779e-06, 2.79643928e-06,
          1.48419610e-06, 2.55481928e-06, 1.57449620e-06, 1.60109482e-06,
          2.37644508e-06, 1.52163398e-06, 1.54823260e-06, 2.32358298e-06,
          1.01252681e-06, 1.54268957e-06, 2.37109998e-06, 9.77420541e-07,
          1.50758319e-06, 2.33599371e-06, 9.22446418e-07, 1.51098664e-06,
          2.31685976e-06, 9.64335527e-07, 1.55287569e-06, 2.35874882e-06,
          1.58203443e-06, 1.89349146e-06, 2.68954773e-06, 1.76490755e-06,
          2.07636458e-06, 2.87242074e-06, 2.10600410e-06, 2.38268035e-06,
          3.00882743e-06, 1.93800452e-06, 2.21468076e-06, 2.84082785e-06,
          2.01859689e-06, 2.12415284e-06, 2.66885718e-06, 1.38109328e-06,
          1.48664913e-06, 2.03135346e-06, 1.27174346e-07, 2.48423902e-07,
          8.26208122e-07, -7.09010862e-07, -5.87761292e-07,
          -9.97706806e-09, -1.89232992e-06, -1.68783913e-06,
          -1.02955744e-06, -2.40978261e-06, -2.20529182e-06,
          -1.54701002e-06, -2.85361261e-06, -2.39161614e-06,
          -1.94956988e-06, -2.45625370e-06, -1.99425745e-06,
          -1.55221107e-06, -6.43272983e-07, -2.75214404e-07,
          3.14631876e-07, 2.46276556e-07, 6.14335136e-07, 1.20418144e-06,
          1.50643734e-06, 5.86772842e-07, 1.83994405e-06, 9.02402178e-07,
          -1.72623036e-08, 1.23590894e-06, 1.98692774e-07,
          -1.36776339e-06, 2.09848352e-08, -1.47736143e-08,
          -1.58122975e-06, -1.92481565e-07, 5.90355342e-07,
          -1.01204648e-06, -1.73539462e-07, 1.14085833e-06,
          -4.61543408e-07, 3.76963555e-07, 2.08886172e-06,
          6.11551343e-07, 9.78699632e-07, 2.40817167e-06, 9.30861347e-07,
          1.29800969e-06, 2.20785887e-06, 9.50373533e-07, 9.07685546e-07,
          1.91569393e-06, 6.58208535e-07, 6.15520548e-07, 5.08524408e-07,
          -2.79507475e-07, -4.46538309e-07, 5.30635191e-07,
          -2.82116076e-07, -4.24427498e-07, 8.61543938e-08,
          -1.74120203e-07, -3.13595052e-07, 9.59879912e-07,
          6.91365472e-07, 5.60130445e-07, 1.86447448e-06, 2.29779039e-06,
          2.27867827e-06, 2.65369431e-06, 3.07053051e-06, 3.06789821e-06,
          1.51083805e-06, 3.19110291e-06, 3.02951389e-06, 6.32315619e-07,
          2.29610100e-06, 2.15099158e-06, -1.27755573e-06,
          6.35019830e-07, 6.67777783e-07, -1.75231548e-06,
          1.68499881e-07, 2.01257834e-07, -8.62697959e-07,
          -1.75942745e-08, 4.79236803e-07, -6.43833857e-07,
          2.01269842e-07, 6.98100905e-07, 3.97142585e-08, 5.59774946e-07,
          1.05925483e-06, 1.20687403e-07, 8.38503070e-07, 1.13198814e-06,
          1.48029756e-07, 9.05448076e-07, 1.32836101e-06, 3.76890341e-07,
          1.13430860e-06, 1.55722159e-06, 8.23928019e-07, 1.40338273e-06,
          1.47249602e-06, 1.09983569e-06, 1.68753024e-06, 1.74840363e-06,
          2.13489466e-06, 2.00570207e-06, 2.00923955e-06, 2.39456358e-06,
          2.45488604e-06, 2.26890825e-06, 2.36231585e-06, 2.09592463e-06,
          1.92948437e-06, 1.89364278e-06, 1.62725144e-06, 1.46081129e-06,
          1.52997495e-06, 1.16116985e-06, 1.17395621e-06, 4.31474717e-07,
          5.44298402e-08, 7.54560716e-08, -1.37346910e-06,
          -1.45037723e-06, -1.48120080e-06, -2.19704611e-06,
          -2.26571456e-06, -2.30477781e-06, -3.01113141e-06,
          -2.95185509e-06, -2.37935137e-06, -3.22319647e-06,
          -3.16392016e-06, -2.59141643e-06, -4.04952243e-06,
          -3.56652640e-06, -2.93583184e-06, -4.15980594e-06,
          -3.69328950e-06, -3.04611535e-06, -4.41766906e-06,
          -3.77544484e-06, -3.60854642e-06, -4.51431015e-06,
          -3.88856552e-06, -3.66520067e-06, -4.24259588e-06,
          -3.98451220e-06, -3.20469712e-06, -4.23844176e-06,
          -3.98035809e-06, -3.20054278e-06, -3.52591996e-06,
          -4.13175394e-06, -3.24545476e-06, -3.20224717e-06,
          -3.80808137e-06, -2.92178220e-06, -1.84685246e-06,
          -2.97712563e-06, -1.82659107e-06, -1.04618903e-06,
          -2.17646220e-06, -1.02592765e-06, 6.85161183e-07,
          -8.28728844e-07, -3.27016902e-09, 1.61780815e-06,
          1.20397658e-07, 9.29376768e-07, 2.83208465e-06, 1.04896424e-06,
          1.88068134e-06, 2.94435563e-06, 1.19419440e-06, 1.99295232e-06,
          2.08494635e-06, 3.94141011e-07, 9.32771513e-07, 6.55086296e-07,
          -1.11354530e-06, -4.97088536e-07, -9.23858693e-07,
          -2.61152240e-06, -2.06156051e-06, -1.72093496e-06,
          -3.42658973e-06, -2.85863666e-06, -2.04006938e-06,
          -3.68889891e-06, -3.40348197e-06, -1.45700642e-06,
          -3.10583596e-06, -2.82041901e-06, -6.72799217e-07,
          -2.12347231e-06, -1.86736804e-06, -1.33806026e-07,
          -1.57998124e-06, -1.32837488e-06, -1.54076844e-07,
          -1.32549167e-06, -1.23781376e-06, -1.19019592e-06,
          -2.36161054e-06, -2.27393275e-06, -8.92907963e-07,
          -2.46412878e-06, -1.93474739e-06, -4.09901560e-07,
          -1.98562020e-06, -1.45174101e-06, 3.25921548e-08,
          -1.44188220e-06, -1.13125407e-06, 6.55957933e-07,
          -8.14018676e-07, -5.07888274e-07, 2.13744829e-06,
          3.82702794e-08, 8.30433322e-08, 3.23473023e-06, 1.04109847e-06,
          1.18032517e-06, 3.83834276e-06, 1.29194950e-06, 1.28528438e-06,
          3.84156147e-06, 1.29516820e-06, 1.28850309e-06, 3.95519282e-06,
          1.26293742e-06, 1.12244129e-06, 3.51463132e-06, 8.22376080e-07,
          6.81880010e-07, 2.68810072e-06, 3.51221360e-07,
          -8.51464677e-08, 2.10790949e-06, -2.28969768e-07,
          -6.65337609e-07, 2.00210252e-06, -3.83180293e-07,
          -7.11207576e-07, 2.13949488e-06, -2.45787874e-07,
          -5.73815157e-07, 1.93611027e-06, -7.60817329e-07,
          -8.53778488e-07, 2.55875716e-06, -1.38170435e-07,
          -2.31131608e-07, 3.98593693e-06, 1.07653068e-06,
          1.34053221e-06, 4.37969220e-06, 1.47028607e-06, 1.73428759e-06,
          4.30537102e-06, 1.34026391e-06, 1.72006457e-06, 3.81309769e-06,
          8.47990577e-07, 1.22779124e-06, 3.91826779e-06, 1.18181185e-06,
          1.30675198e-06, 3.15352622e-06, 1.84128317e-06, 2.91190622e-06,
          3.10008068e-06, 1.78783762e-06, 2.85846068e-06, 1.85513272e-06,
          1.88173135e-06, 2.65708172e-06, 1.88829324e-06, 1.91489198e-06,
          2.69024213e-06, 1.28464694e-06, 1.81480971e-06, 2.64322011e-06,
          1.24863459e-06, 1.77879735e-06, 2.60720776e-06, 1.07756534e-06,
          1.66610562e-06, 2.47197863e-06, 9.66775247e-07, 1.55531541e-06,
          2.36118854e-06, 1.29543298e-06, 1.60689001e-06, 2.40294617e-06,
          1.35819130e-06, 1.66964833e-06, 2.46570448e-06, 1.96542078e-06,
          2.24209703e-06, 2.86824411e-06, 2.01395414e-06, 2.29063039e-06,
          2.91677748e-06, 1.27448345e-06, 1.38003929e-06, 1.92474363e-06,
          5.71331668e-07, 6.76887510e-07, 1.22159202e-06,
          -1.09998780e-06, -9.78738171e-07, -4.00953951e-07,
          -2.02790966e-06, -1.90666003e-06, -1.32887578e-06,
          -3.44850491e-06, -3.24401412e-06, -2.58573232e-06,
          -4.28346038e-06, -3.67910116e-06, -3.02081935e-06,
          -4.52305358e-06, -3.86112288e-06, -3.41907685e-06,
          -3.65826168e-06, -3.19626542e-06, -2.75421917e-06,
          -1.38875680e-06, -1.02069828e-06, -4.30851969e-07,
          -3.13890891e-09, 3.64919657e-07, 9.54765937e-07,
          1.73574188e-06, 8.16077375e-07, 2.06924869e-06, 1.09821883e-06,
          1.78554416e-07, 1.43172565e-06, 2.46986104e-07,
          -1.31947002e-06, 6.92781725e-08, 4.54701521e-09,
          -1.56190913e-06, -1.73160927e-07, 1.07620519e-06,
          -5.26196516e-07, 3.12310448e-07, 1.44668434e-06,
          -1.55717416e-07, 6.82789562e-07, 2.21686582e-06,
          7.39555333e-07, 1.10670362e-06, 2.27313717e-06, 7.95826793e-07,
          1.16297508e-06, 1.83014129e-06, 5.72655949e-07, 5.29967906e-07,
          1.18015589e-06, -7.73293820e-08, -1.20017404e-07,
          -5.63485912e-07, -1.51631366e-06, -1.51854863e-06,
          -7.41161557e-07, -1.69398925e-06, -1.69622433e-06,
          -1.43288128e-06, -1.83323232e-06, -1.83263069e-06,
          -5.81599465e-07, -9.81950507e-07, -9.81348876e-07,
          6.78562913e-07, 9.55322662e-07, 1.09276675e-06, 1.66468806e-06,
          1.94144786e-06, 2.07889184e-06, 5.41445218e-07, 2.04043477e-06,
          2.06012123e-06, -4.52093076e-07, 1.04689639e-06,
          1.06658285e-06, -2.63529773e-06, -9.12237340e-07,
          -8.79479387e-07, -3.72926479e-06, -2.00620434e-06,
          -1.97344639e-06, -2.90550179e-06, -2.06039817e-06,
          -1.75308230e-06, -2.83882832e-06, -1.99372448e-06,
          -1.68640872e-06, -2.49305526e-06, -1.97299460e-06,
          -1.66302993e-06, -2.35864172e-06, -1.83858106e-06,
          -1.52861639e-06, -2.31423701e-06, -1.74633396e-06,
          -1.33166077e-06, -2.27893725e-06, -1.71103409e-06,
          -1.29636089e-06, -1.97566715e-06, -1.56924807e-06,
          -1.32709920e-06, -5.52623874e-07, -1.46204741e-07,
          9.59441380e-08, 2.40726285e-06, 2.27807004e-06, 2.28160752e-06,
          2.65821063e-06, 2.52901805e-06, 2.53255530e-06, 2.50411813e-06,
          2.05645142e-06, 2.07128664e-06, 1.91381355e-06, 1.66390191e-06,
          1.48098206e-06, 1.51376025e-06, 1.14495515e-06, 1.15774162e-06,
          -2.50935216e-07, -6.19740320e-07, -6.06953904e-07,
          -2.66697043e-06, -2.71915928e-06, -2.61475475e-06,
          -3.52293955e-06, -3.77288325e-06, -3.49071729e-06,
          -4.47756565e-06, -4.60780484e-06, -4.06571371e-06,
          -4.77471440e-06, -4.90495358e-06, -4.22290805e-06,
          -5.79134530e-06, -6.51549453e-06, -4.71764179e-06,
          -6.07653192e-06, -5.63134381e-06, -4.46300601e-06,
          -6.22407242e-06, -5.59493674e-06, -4.47525872e-06,
          -6.32389447e-06, -6.30138356e-06, -4.57508077e-06,
          -5.87506474e-06, -5.36058042e-06, -4.35732363e-06,
          -6.14485862e-06, -6.26812835e-06, -4.62711751e-06,
          -7.18187812e-06, -6.24758377e-06, -5.54260168e-06,
          -4.98673444e-06, -5.62754167e-06, -4.98605368e-06,
          -3.54335612e-06, -5.44303612e-06, -3.52309485e-06,
          -2.62473918e-06, -3.75501236e-06, -2.60447791e-06,
          -5.31219200e-07, -1.93716232e-06, -1.21965058e-06,
          5.85080215e-07, -8.43351813e-07, -1.03351127e-07,
          2.22680387e-06, 4.86430963e-07, 1.27540056e-06, 2.50417406e-06,
          7.62289403e-07, 1.55277064e-06, 1.09894336e-06,
          -5.77575918e-07, -5.32315170e-08, -3.74254682e-07,
          -2.06426739e-06, -1.52642951e-06, -2.42866054e-06,
          -4.02046953e-06, -3.56636224e-06, -3.48774256e-06,
          -5.46425508e-06, -4.97517476e-06, -4.06088066e-06,
          -5.98171027e-06, -5.65431037e-06, -3.43275701e-06,
          -5.42864882e-06, -5.00600800e-06, -2.99948078e-06,
          -5.14511703e-06, -4.85853752e-06, -3.28600913e-06,
          -5.15635884e-06, -4.86528143e-06, -4.21557297e-06,
          -5.92726474e-06, -5.57909425e-06, -4.46736112e-06,
          -5.94922085e-06, -5.62104378e-06, -3.84922441e-06,
          -5.89566616e-06, -5.19096511e-06, -3.17331842e-06,
          -4.94447386e-06, -4.51505912e-06, -2.72878401e-06,
          -4.62761818e-06, -3.89263050e-06, -1.86091938e-06,
          -3.33989146e-06, -3.02476565e-06, -4.95291886e-07,
          -2.61246100e-06, -2.54969677e-06, 1.00367333e-06,
          -1.11799363e-06, -1.05073173e-06, 3.35926848e-06,
          8.84839778e-07, 8.06209982e-07, 3.28089550e-06, 8.24457913e-07,
          7.27836948e-07, 2.89465993e-06, 2.92360539e-07, 6.19086222e-08,
          1.66430914e-06, -9.42488157e-07, -1.16844228e-06,
          3.06072423e-07, -1.94085101e-06, -2.46717468e-06,
          -6.38570725e-07, -2.89898753e-06, -3.41181772e-06,
          -1.12142629e-06, -3.40775773e-06, -3.83473662e-06,
          -6.89917101e-07, -3.07519986e-06, -3.40322731e-06,
          7.23904407e-07, -1.97302325e-06, -2.06598429e-06,
          1.96339647e-06, -7.33531067e-07, -8.26492226e-07,
          4.03656395e-06, 1.12715804e-06, 1.39115957e-06, 4.38799589e-06,
          1.47858964e-06, 1.74259117e-06, 4.16796729e-06, 1.20286029e-06,
          1.58266084e-06, 3.78516029e-06, 8.20053231e-07, 1.19985384e-06,
          3.40307338e-06, 6.66617268e-07, 7.91557397e-07, 2.89957802e-06,
          2.23708707e-06, 2.97173392e-06, 2.85881333e-06, 2.19632238e-06,
          2.93096923e-06, 1.52535767e-06, 2.00379418e-06, 2.86286036e-06,
          1.57350325e-06, 2.05193987e-06, 2.91100605e-06, 8.35576941e-07,
          1.91234994e-06, 2.88016076e-06, 8.42987220e-07, 1.91976028e-06,
          2.88757110e-06, 7.37742482e-07, 1.82257827e-06, 2.78071366e-06,
          4.74078576e-07, 1.55891439e-06, 2.51704978e-06, 6.89302794e-07,
          1.48653703e-06, 2.18486139e-06, 6.40871633e-07, 1.43810587e-06,
          2.13643011e-06, 1.14802026e-06, 1.86779141e-06, 2.35018092e-06,
          9.26626569e-07, 1.64639766e-06, 2.12878717e-06, 2.29085106e-08,
          4.98422196e-07, 7.34124626e-07, -9.51663310e-07,
          -4.76149580e-07, -2.40447150e-07, -2.98947134e-06,
          -2.51347888e-06, -2.24482960e-06, -4.17816318e-06,
          -3.70217094e-06, -3.43352144e-06, -5.69934764e-06,
          -5.27404063e-06, -4.86387307e-06, -5.96724431e-06,
          -6.08175969e-06, -5.55163160e-06, -6.36935874e-06,
          -5.04180525e-06, -5.40992733e-06, -4.98447480e-06,
          -3.71690135e-06, -4.08502365e-06, -2.12610689e-06,
          -1.04241030e-06, -8.61394881e-07, -1.61728593e-07,
          9.21967910e-07, 1.10298333e-06, 1.28083502e-06, 9.96109861e-07,
          2.48237075e-06, 6.49599144e-07, 3.64873927e-07, 1.85113493e-06,
          -7.03693786e-07, -1.97505051e-06, 2.18882732e-07,
          -9.62028366e-07, -2.23338520e-06, -3.94519084e-08,
          1.21964388e-06, 3.94590131e-07, 9.97951474e-07, 1.75956689e-06,
          9.34513196e-07, 1.53787448e-06, 2.07342987e-06, 1.17952482e-06,
          1.78845414e-06, 1.91098570e-06, 1.01708054e-06, 1.62600986e-06,
          1.00024135e-06, 4.39459768e-07, 6.21961874e-07,
          -4.77988920e-07, -1.03877051e-06, -8.56268400e-07,
          -2.57690795e-06, -2.83139411e-06, -2.96114695e-06,
          -3.40114889e-06, -3.65563528e-06, -3.78538812e-06,
          -4.49120535e-06, -3.92582706e-06, -4.64855702e-06,
          -3.33546654e-06, -2.77008826e-06, -3.09294978e-06,
          -1.63245397e-06, -2.07049311e-07, -7.44607974e-07,
          -3.77555523e-07, 1.04784920e-06, 5.10290477e-07,
          -1.26515795e-06, 1.42128079e-06, 8.11732718e-07,
          -2.80385780e-06, -1.17419155e-07, -7.26967244e-07,
          -5.49981496e-06, -2.70385067e-06, -3.56121518e-06,
          -7.54013354e-06, -3.90469222e-06, -4.18224727e-06,
          -7.53200675e-06, -6.06114600e-06, -4.90766524e-06,
          -7.51527614e-06, -5.54457938e-06, -4.89093418e-06,
          -6.39323207e-06, -5.50744744e-06, -4.93588959e-06,
          -6.38686561e-06, -5.44110071e-06, -4.92952313e-06,
          -6.48236846e-06, -5.29043291e-06, -4.84915199e-06,
          -5.94821540e-06, -5.19613513e-06, -4.81483448e-06,
          -5.56869099e-06, -5.12253337e-06, -4.64957930e-06,
          -4.29405918e-06, -3.21838684e-06, -3.39494068e-06,
          2.62735148e-06, 3.07399500e-06, 2.94728147e-06, 2.01106354e-06,
          2.45770707e-06, 2.33099331e-06, 1.70321812e-06, 2.33073411e-06,
          1.92705147e-06, 1.16615422e-06, 1.77719073e-06, 1.38998746e-06,
          1.26782197e-07, 6.05807827e-07, 5.98120323e-07,
          -1.44968828e-06, -9.78902449e-07, -9.78350158e-07,
          -3.87011551e-06, -3.11300664e-06, -3.03657339e-06,
          -4.77580124e-06, -4.00221279e-06, -3.82229837e-06,
          -5.45215380e-06, -4.61926675e-06, -4.24065411e-06,
          -5.63939602e-06, -4.80650897e-06, -4.34792264e-06,
          -7.54218399e-06, -6.27203735e-06, -5.65021719e-06,
          -8.05330274e-06, -6.24333370e-06, -5.62151399e-06,
          -8.06209300e-06, -6.49542289e-06, -4.71618296e-06,
          -8.04988667e-06, -6.28546195e-06, -5.57830299e-06,
          -6.46265516e-06, -6.24730137e-06, -4.49974186e-06,
          -6.59638590e-06, -6.21440677e-06, -5.40287965e-06,
          -7.09509050e-06, -6.14993678e-06, -5.38346012e-06,
          -5.40353312e-06, -6.11865426e-06, -5.33569755e-06,
          -3.69717986e-06, -4.51743654e-06, -5.10871496e-06,
          -2.57365105e-06, -3.40740121e-06, -2.79591723e-06,
          -1.18686380e-07, -1.28114300e-06, -7.07554989e-07,
          1.35784273e-06, 1.99128067e-07, 7.77213870e-07, 3.34141419e-06,
          1.90448452e-06, 2.42083343e-06, 3.22267579e-06, 1.78499022e-06,
          2.30209480e-06, 1.15181751e-06, -3.11892990e-07,
          1.99373162e-07, -6.59294585e-07, -2.12300506e-06,
          -1.61173898e-06, -4.27121267e-06, -5.27707880e-06,
          -5.65016353e-06, -6.22473908e-06, -5.85327916e-06,
          -5.67478810e-06, -7.05088905e-06, -5.78558684e-06,
          -5.78106983e-06, -4.73620776e-06, -5.79435300e-06,
          -5.89778301e-06, -3.33433422e-06, -4.13724410e-06,
          -4.90228922e-06, -3.72733439e-06, -4.97665451e-06,
          -5.95977735e-06, -6.72762008e-06, -5.75247350e-06,
          -6.10229336e-06, -6.70147301e-06, -5.53681184e-06,
          -6.07614675e-06, -5.69116582e-06, -5.41626696e-06,
          -6.19819320e-06, -4.66276333e-06, -4.45781006e-06,
          -5.02989815e-06, -4.57775695e-06, -4.39355426e-06,
          -4.97450583e-06, -3.64195125e-06, -4.28096109e-06,
          -4.75846309e-06, -1.92501648e-06, -2.97257452e-06,
          -3.30758940e-06, 8.33985396e-08, -8.60710315e-07,
          -1.29917441e-06, 3.98379416e-06, 1.70347982e-06,
          1.45014633e-06, 3.92380662e-06, 1.64349228e-06, 1.39015879e-06,
          3.09121901e-06, 5.45166017e-07, 5.25668611e-07, 5.31485057e-07,
          -1.90662092e-06, -1.92611833e-06, -1.62225933e-06,
          -3.66370978e-06, -4.17072170e-06, -2.81827829e-06,
          -5.58380452e-06, -6.36616505e-06, -3.14996350e-06,
          -5.54390272e-06, -6.29700662e-06, -2.44133616e-06,
          -5.50502455e-06, -5.63833191e-06, -6.20842798e-07,
          -3.00957845e-06, -3.24277016e-06, 1.31864192e-06,
          -1.06559582e-06, -1.30328544e-06, 4.07834614e-06,
          1.34183210e-06, 1.56557576e-06, 4.51121423e-06, 1.67574888e-06,
          1.99844385e-06, 4.31150420e-06, 1.11567067e-06, 1.50107985e-06,
          4.17828551e-06, 9.82451866e-07, 1.36786105e-06, 3.65467008e-06,
          6.44601187e-07, 9.04621174e-07, 2.83052827e-06, 2.16803733e-06,
          2.90268417e-06, 2.79298888e-06, 2.13049771e-06, 2.86514478e-06,
          1.40796658e-06, 1.88640308e-06, 2.74546915e-06, 1.30614785e-06,
          1.78458447e-06, 2.64365053e-06, 7.29734495e-07, 1.80650750e-06,
          2.77431832e-06, 7.82755990e-07, 1.85952899e-06, 2.82733981e-06,
          6.88641251e-07, 1.77347704e-06, 2.73161254e-06, 5.09161396e-07,
          1.59399713e-06, 2.55213263e-06, 6.31442958e-07, 1.42867725e-06,
          2.12700138e-06, 6.16713237e-07, 1.41394753e-06, 2.11227166e-06,
          1.28470981e-06, 2.00448085e-06, 2.48687047e-06, 9.00674081e-07,
          1.62044523e-06, 2.10283474e-06, -9.80828574e-09,
          4.65705426e-07, 7.01407828e-07, -1.17608670e-06,
          -7.00573025e-07, -4.64870595e-07, -3.38106202e-06,
          -2.90506978e-06, -2.63642028e-06, -4.92070876e-06,
          -4.44471607e-06, -4.17606680e-06, -5.83365591e-06,
          -6.57768624e-06, -5.41804320e-06, -6.24799122e-06,
          -6.53737197e-06, -7.22164350e-06, -6.41990437e-06,
          -5.27210614e-06, -5.22055143e-06, -4.67185737e-06,
          -3.40428392e-06, -3.77240599e-06, -1.59003241e-06,
          -5.06335880e-07, -3.25320514e-07, 5.86474755e-07,
          1.67017129e-06, 1.85118665e-06, 1.81847258e-06, 1.53374731e-06,
          3.02000831e-06, 9.17394630e-07, 6.32669469e-07, 2.11893052e-06,
          -8.25989275e-07, -2.09734594e-06, 9.65872147e-08,
          -1.19030415e-06, -2.46166087e-06, -2.67727700e-07,
          1.70800456e-06, 8.82950872e-07, 1.48631216e-06, 2.08183269e-06,
          1.25677889e-06, 1.86014029e-06, 2.56133058e-06, 1.66742552e-06,
          2.27635473e-06, 2.41314751e-06, 1.51924257e-06, 2.12817190e-06,
          1.44147441e-06, 8.80692824e-07, 1.06319499e-06,
          -5.08212111e-07, -1.06899370e-06, -8.86491591e-07,
          -2.89133368e-06, -3.14582007e-06, -3.27557268e-06,
          -4.44357511e-06, -4.51812093e-06, -4.90778802e-06,
          -5.67086408e-06, -5.48016169e-06, -5.12844599e-06,
          -4.09158201e-06, -3.52620373e-06, -4.16896000e-06,
          -1.33292235e-06, 9.24823595e-08, -4.45076324e-07,
          1.35008634e-07, 1.56041335e-06, 1.02285469e-06,
          -1.81932671e-06, 8.67112021e-07, 2.57563983e-07,
          -3.99655028e-06, -1.31011166e-06, -1.91965978e-06,
          -7.63761636e-06, -3.84228997e-06, -4.13983844e-06,
          -7.56735562e-06, -6.10055258e-06, -4.87395755e-06,
          -7.60918147e-06, -6.13832071e-06, -6.27884265e-06,
          -7.58585884e-06, -6.11499809e-06, -6.25551957e-06,
          -7.59062732e-06, -6.09055496e-06, -6.09831204e-06,
          -7.61221418e-06, -6.11214182e-06, -6.11989890e-06,
          -7.74154159e-06, -6.13525253e-06, -6.07335187e-06,
          -7.67351867e-06, -6.06722961e-06, -6.00532894e-06,
          -7.76514116e-06, -6.13497559e-06, -5.86146098e-06,
          -6.30094974e-06, -6.17462501e-06, -4.64208097e-06,
          1.19451011e-06, 1.64115352e-06, 1.51443987e-06, 1.50751350e-06,
          1.95415691e-06, 1.82744327e-06, 1.69992325e-06, 2.14616398e-06,
          1.92375660e-06, 1.08192194e-06, 1.52816267e-06, 1.30575518e-06,
          -4.88344142e-07, -1.65874567e-07, -1.70060126e-08,
          -1.76480285e-06, -1.44233331e-06, -1.29346472e-06,
          -2.69722022e-06, -1.89891250e-06, -2.14358602e-06,
          -4.49938943e-06, -3.70108182e-06, -3.84578834e-06,
          -4.92862500e-06, -4.29349302e-06, -3.53718451e-06,
          -4.93615426e-06, -4.30102227e-06, -3.54471399e-06,
          -5.85453790e-06, -4.41725069e-06, -3.68272526e-06,
          -8.04609863e-06, -6.23612959e-06, -5.61430943e-06,
          -8.04959200e-06, -6.48292144e-06, -5.57800786e-06,
          -8.01833357e-06, -6.25390885e-06, -5.54674989e-06,
          -5.64100583e-06, -5.70878638e-06, -4.45783644e-06,
          -5.47786385e-06, -5.52715073e-06, -4.41465500e-06,
          -4.82001542e-06, -6.14759574e-06, -5.15040483e-06,
          -4.62445723e-06, -5.98128645e-06, -5.08304720e-06,
          -2.38416283e-06, -3.22464120e-06, -2.63114839e-06,
          -1.32291564e-06, -2.14615852e-06, -1.56166141e-06,
          1.16818273e-06, 3.19569899e-08, 5.87553870e-07, 2.67625819e-06,
          1.53477890e-06, 1.89787443e-06, 4.86364070e-06, 3.33524372e-06,
          3.94305971e-06, 4.55574309e-06, 3.02734588e-06, 3.63516233e-06,
          2.29267312e-06, 6.39447421e-07, 1.34022878e-06,
          -7.27819895e-07, -2.27759642e-06, -1.68026429e-06,
          -4.60362526e-06, -5.77789660e-06, -5.52233496e-06,
          -5.64448555e-06, -5.77427045e-06, -5.51870880e-06,
          -5.25655241e-06, -5.62674313e-06, -5.63496405e-06,
          -4.75529851e-06, -5.61511206e-06, -5.62333298e-06,
          -3.71634746e-06, -4.29109014e-06, -4.42458531e-06,
          -3.76771504e-06, -4.35069751e-06, -4.47595312e-06,
          -6.59964144e-06, -5.44321983e-06, -5.97431517e-06,
          -6.57722057e-06, -5.41255940e-06, -5.95189431e-06,
          -6.47972502e-06, -5.33050024e-06, -6.11242649e-06,
          -3.56207920e-06, -3.57705380e-06, -4.64897767e-06,
          -4.00613817e-06, -5.24180723e-06, -5.18263050e-06,
          -3.41662007e-06, -3.65576125e-06, -4.13326325e-06,
          -1.51513780e-06, -2.45474894e-06, -2.89771083e-06,
          1.25421218e-06, 3.14601039e-07, -1.28360810e-07,
          5.57790599e-06, 3.18964453e-06, 3.04425794e-06, 4.78215361e-06,
          2.50183916e-06, 2.24850555e-06, 3.76104049e-06, 1.32293451e-06,
          1.30343710e-06, 1.26704754e-06, -1.17105856e-06,
          -1.19055596e-06, -2.14177021e-06, -5.42244243e-06,
          -4.69023280e-06, -3.76176240e-06, -5.47785021e-06,
          -6.26021028e-06, -4.46070271e-06, -5.45000466e-06,
          -6.19861066e-06, -3.78449454e-06, -5.44901377e-06,
          -6.20211767e-06, -1.37368215e-06, -4.29151123e-06,
          -3.99560940e-06, 2.19410140e-06, -2.03629710e-07,
          -4.27825853e-07, 4.94756387e-06, 2.19305889e-06,
          2.43479371e-06, 4.75919387e-06, 2.00468867e-06, 2.24642349e-06,
          4.33428340e-06, 1.21491200e-06, 1.52385871e-06, 4.44195211e-06,
          1.32707873e-06, 1.63152765e-06, 4.06651861e-06, 1.13740998e-06,
          1.31646971e-06, 1.69225780e-06, 2.15623845e-06, 2.83693271e-06,
          1.48017341e-06, 1.94415406e-06, 2.62484832e-06, 5.87996567e-07,
          1.69174734e-06, 2.88137198e-06, 3.76359367e-07, 1.48011020e-06,
          2.66973484e-06, 1.78692659e-07, 1.75353921e-06, 3.39053781e-06,
          4.36960676e-07, 2.01180728e-06, 3.64880589e-06, 4.52518123e-07,
          1.98243811e-06, 3.65960909e-06, 2.31341417e-07, 1.76126139e-06,
          3.43843226e-06, 3.39743139e-07, 1.45519050e-06, 2.59951116e-06,
          2.02400145e-07, 1.31784748e-06, 2.46216837e-06, 6.11165490e-07,
          1.51172185e-06, 2.29112948e-06, -1.36049073e-06,
          -4.59934228e-07, 3.19473287e-07, -2.29501256e-06,
          -1.76211461e-06, -1.63125526e-06, -2.66279312e-06,
          -2.12989517e-06, -1.99903570e-06, -4.76049036e-06,
          -4.56454018e-06, -4.02601381e-06, -6.90088063e-06,
          -5.84268810e-06, -6.77635853e-06, -6.85557779e-06,
          -5.86972828e-06, -6.75990850e-06, -3.86043985e-06,
          -3.17251829e-06, -3.13488431e-06, -2.47688899e-06,
          -1.48038248e-06, -1.34241020e-06, -1.65297450e-07,
          8.39448944e-07, 9.69181315e-07, 2.36782716e-06, 3.48524964e-06,
          3.64499715e-06, 2.16474837e-06, 3.10089558e-06, 3.44191835e-06,
          -1.43249764e-07, 6.45006594e-07, 1.11687882e-06,
          -3.95203779e-06, -3.16378123e-06, -2.69190900e-06,
          -6.76035870e-06, -4.96203438e-06, -4.99780390e-06,
          -5.84392501e-06, -5.61969682e-06, -5.29558474e-06,
          -5.51350604e-06, -5.01845079e-06, -5.30834950e-06,
          -5.13876375e-06, -5.60822173e-06, -4.29914098e-06,
          -2.93255016e-06, -3.11934173e-06, -2.32413413e-06,
          9.79561605e-07, 7.92770265e-07, 1.58797775e-06, 2.50160997e-06,
          2.26226007e-06, 2.90403773e-06, 6.85790837e-07, 4.46440879e-07,
          1.08821871e-06, -5.63799631e-06, -5.13659734e-06,
          -4.72103784e-06, -7.07711888e-06, -5.75159402e-06,
          -6.62019511e-06, -7.15520628e-06, -5.76346702e-06,
          -6.67047107e-06, -4.61466971e-06, -2.80313043e-06,
          -3.25065662e-06, 1.55601481e-06, 3.63650543e-06,
          3.12526686e-06, 3.23835820e-06, 5.31884871e-06, 4.80760991e-06,
          -1.07166932e-06, 1.04249807e-06, 5.88429032e-07,
          -4.78402808e-06, -2.66986058e-06, -3.60377180e-06,
          -7.23812263e-06, -5.78723120e-06, -6.58179169e-06,
          -7.26450298e-06, -5.81361155e-06, -6.60817204e-06,
          -7.34110154e-06, -5.83183464e-06, -6.58791805e-06,
          -4.47325010e-06, -2.81907751e-06, -3.43551574e-06,
          -4.98080090e-06, -2.44622061e-06, -3.18907519e-06,
          -3.57646309e-06, -1.81128996e-06, -2.55414443e-06,
          -5.37844744e-06, -3.76096523e-06, -4.29521060e-06,
          -7.56480404e-06, -5.98724682e-06, -6.58128738e-06,
          -7.67040365e-06, -6.05254536e-06, -5.41546297e-06,
          -6.59838952e-06, -5.14047906e-06, -6.55721169e-06,
          -5.92861761e-06, -4.12606369e-06, -4.56763337e-06,
          -1.36357642e-06, 4.38977594e-07, -1.42546000e-07,
          8.97424115e-07, 2.69550401e-06, 2.21371215e-06, 2.35921121e-07,
          2.03400100e-06, 1.55220903e-06, 7.11111170e-09, 1.73390720e-06,
          1.48132506e-06, -1.04193691e-06, 6.84859231e-07,
          4.32277091e-07, -2.74529981e-07, 1.12778810e-06,
          1.20889479e-06, 2.40491181e-06, 3.80722986e-06, 3.88833632e-06,
          4.32458637e-06, 5.52278198e-06, 5.42987709e-06, 7.78110689e-07,
          1.97630629e-06, 2.44297030e-06, -5.91214302e-06,
          -4.37162817e-06, -4.33869582e-06, -7.69761300e-06,
          -6.31692183e-06, -5.97393682e-06, -7.78044796e-06,
          -6.36306959e-06, -4.95091399e-06, -7.77738842e-06,
          -6.36000959e-06, -5.89212641e-06, -4.96689654e-06,
          -5.39003986e-06, -3.74316164e-06, 2.08392791e-07,
          7.35932076e-07, 1.43212776e-06, 6.13732800e-06, 6.03463877e-06,
          6.51525397e-06, 5.86081796e-06, 5.47834452e-06, 5.95895972e-06,
          5.72504405e-06, 4.71059457e-06, 5.00815531e-06, 6.22050493e-06,
          5.34594756e-06, 5.64350830e-06, 6.35180322e-06, 5.11598682e-06,
          4.85165083e-06, 6.52661311e-06, 5.57241037e-06, 5.48110984e-06,
          6.18255581e-06, 4.95091672e-06, 4.50659309e-06, 5.60882518e-06,
          4.37718609e-06, 3.93286246e-06, 4.00353792e-06, 2.42767669e-06,
          2.80820336e-06, -7.16932561e-07, -2.18934474e-06,
          -1.91226695e-06, -4.41869088e-06, -5.55884708e-06,
          -5.96598193e-06, -4.79102482e-06, -5.54589997e-06,
          -5.94853736e-06, 2.09375521e-08, -8.79014010e-07,
          -1.28757995e-06, 4.05134188e-06, 3.14689260e-06,
          2.74282456e-06, 7.00702230e-06, 6.32589081e-06, 5.99109626e-06,
          5.96865675e-06, 5.25108180e-06, 4.81283814e-06, 5.79132575e-06,
          5.52378287e-06, 5.07355935e-06, 5.66963581e-06, 5.40209294e-06,
          4.95186941e-06, 5.43686701e-06, 5.47707987e-06, 4.91004494e-06,
          -4.40889067e-07, -3.96178081e-07, -9.67711003e-07,
          -4.42467899e-06, -5.06446986e-06, -5.66589824e-06,
          -5.60332910e-06, -5.64542643e-06, -6.35480183e-06,
          -3.40588622e-06, -4.05592118e-06, -4.58901377e-06,
          1.31287015e-06, 7.67300435e-07, 3.09683344e-07, 6.94795926e-06,
          4.94659935e-06, 4.72456941e-06, 5.06163951e-06, 2.81097027e-06,
          2.59343847e-06, 4.15717204e-06, 1.94935842e-06, 1.86209081e-06,
          3.39483404e-06, 1.18252285e-06, 1.09525524e-06,
          -2.77178037e-06, -3.52592656e-06, -4.40023405e-06,
          -4.35029779e-06, -5.16765067e-06, -6.06373942e-06,
          -5.24265715e-06, -5.25189444e-06, -5.99580881e-06,
          -5.60015224e-06, -5.23775361e-06, -5.97342842e-06,
          -1.94118320e-06, -3.16681349e-06, -3.39575149e-06,
          2.82250880e-06, 1.60511831e-06, 1.17018544e-06, 5.72350746e-06,
          4.20053402e-06, 3.99232522e-06, 4.26870156e-06, 2.57269244e-06,
          2.53751932e-06, 4.06737945e-06, 1.13962665e-06, 1.33001129e-06,
          4.58605518e-06, 1.66279995e-06, 1.74073989e-06, 4.55717691e-06,
          1.61875187e-06, 1.77111144e-06, 1.52763528e-06, 1.99161605e-06,
          2.67231007e-06, 1.42562010e-06, 1.88960075e-06, 2.57029501e-06,
          4.68928505e-07, 1.57267925e-06, 2.76230389e-06, 2.79739908e-07,
          1.38349071e-06, 2.57311535e-06, 2.74908359e-07, 1.84975488e-06,
          3.48675349e-06, 6.63107414e-07, 2.23795405e-06, 3.87495265e-06,
          6.25034772e-07, 2.15495470e-06, 3.83212591e-06, 4.38862287e-07,
          1.96878227e-06, 3.64595326e-06, 4.42592722e-07, 1.55804003e-06,
          2.70236092e-06, 2.28086378e-07, 1.34353377e-06, 2.48785454e-06,
          -7.50338643e-07, 1.50217815e-07, 9.29625344e-07,
          -2.53516168e-06, -1.43685031e-06, -8.55197811e-07,
          -2.97123256e-06, -2.25705912e-06, -2.30747514e-06,
          -3.21712014e-06, -2.54414590e-06, -2.55336272e-06,
          -4.76876266e-06, -4.43273620e-06, -4.41416159e-06,
          -6.61390459e-06, -5.66282915e-06, -6.29986744e-06,
          -6.57193959e-06, -5.64376887e-06, -6.29499482e-06,
          -3.02887179e-06, -2.34919003e-06, -2.30331625e-06,
          1.95982511e-06, 2.95633163e-06, 3.09430379e-06, 3.62811079e-06,
          4.63285733e-06, 4.76258947e-06, 4.15998420e-06, 5.26916665e-06,
          5.43715396e-06, 2.99929866e-06, 4.11672136e-06, 4.27646864e-06,
          -1.85423482e-06, -8.84703070e-07, -5.94106268e-07,
          -6.04502475e-06, -4.57763099e-06, -4.81986945e-06,
          -6.70502504e-06, -5.44167506e-06, -5.64224001e-06,
          -6.68806115e-06, -5.43295073e-06, -5.72524323e-06,
          -6.71340831e-06, -5.40729616e-06, -6.40884127e-06,
          -6.72074566e-06, -5.41463396e-06, -6.41617862e-06,
          -5.03687306e-06, -4.76691912e-06, -4.83798203e-06,
          -1.62670730e-07, -2.17625455e-07, 4.45745343e-07,
          2.86999921e-06, 2.76248579e-06, 3.27242697e-06,
          -3.04687745e-07, -4.20440841e-07, 9.77400489e-08,
          -6.82034442e-06, -5.38770246e-06, -5.76361799e-06,
          -6.88853970e-06, -5.43117812e-06, -6.43161593e-06,
          -6.88171394e-06, -5.35813842e-06, -6.39697919e-06,
          -4.48953688e-06, -2.53792132e-06, -3.12552424e-06,
          3.03914044e-06, 5.29266663e-06, 4.60839237e-06, 4.84808106e-06,
          7.10984705e-06, 5.82279108e-06, -7.89764499e-07,
          1.32440289e-06, 8.70333849e-07, -4.91958826e-06,
          -2.80542076e-06, -3.59937803e-06, -6.86313069e-06,
          -5.41223926e-06, -5.15760894e-06, -6.91042396e-06,
          -5.45953299e-06, -6.25409348e-06, -6.20445508e-06,
          -4.65520134e-06, -6.25100847e-06, -1.68289671e-06,
          -2.87240525e-08, -6.45162345e-07, 1.74432145e-07,
          1.93960523e-06, 1.19675087e-06, 1.38295448e-07, 1.90346861e-06,
          1.16061415e-06, -3.55361226e-06, -1.93613005e-06,
          -2.47037565e-06, -7.39214738e-06, -5.81459062e-06,
          -6.40863072e-06, -7.52643837e-06, -5.90858053e-06,
          -5.23652488e-06, -6.55974554e-06, -5.10183463e-06,
          -5.41440932e-06, -6.81403026e-06, -5.04644913e-06,
          -6.48738114e-06, -1.47583637e-06, 3.26717668e-07,
          -2.54805911e-07, 1.45240710e-06, 3.25048700e-06,
          2.76869491e-06, 6.25944210e-07, 2.42402416e-06, 1.94223207e-06,
          9.38433118e-07, 2.66522920e-06, 2.41264706e-06, 1.08411044e-07,
          1.83520717e-06, 1.58262503e-06, 1.01412343e-06, 2.41644148e-06,
          2.49754817e-06, 2.08969527e-06, 3.49201355e-06, 3.57312001e-06,
          2.23872576e-06, 3.43692136e-06, 3.90358537e-06,
          -8.26764449e-07, 3.71431213e-07, 8.38095104e-07,
          -7.00723513e-06, -5.74650448e-06, -5.14899011e-06,
          -7.72869225e-06, -6.34800153e-06, -6.00501653e-06,
          -7.84887834e-06, -6.43149997e-06, -4.98437157e-06,
          -7.82886127e-06, -6.41148335e-06, -5.94359972e-06,
          -4.82975565e-06, -5.25289897e-06, -3.60602075e-06,
          -3.58611913e-07, -1.23480621e-08, 8.65123127e-07,
          3.65949245e-06, 3.10398309e-06, 3.75763420e-06, 3.65563142e-06,
          3.10012229e-06, 3.75377317e-06, 5.05181242e-06, 3.87256705e-06,
          4.33492369e-06, 5.74754449e-06, 4.68825965e-06, 5.15061629e-06,
          5.58769034e-06, 4.51872620e-06, 4.42742612e-06, 6.17862861e-06,
          5.00969782e-06, 4.91839728e-06, 5.71334976e-06, 4.48171068e-06,
          4.03738704e-06, 5.00349688e-06, 3.77185779e-06, 3.32753416e-06,
          3.51641324e-06, 1.94055178e-06, 2.32107868e-06,
          -9.79688252e-07, -2.55554960e-06, -2.17502270e-06,
          -4.60639012e-06, -5.74553087e-06, -6.05371451e-06,
          -4.94862388e-06, -5.70801285e-06, -6.01619695e-06,
          6.24501055e-08, -1.14320335e-06, -1.24606743e-06,
          3.64408652e-06, 2.43843283e-06, 2.33556898e-06, 5.71185228e-06,
          4.89082822e-06, 4.55603367e-06, 5.61666684e-06, 4.79564278e-06,
          4.46084823e-06, 4.75843626e-06, 4.49089384e-06, 4.04066986e-06,
          3.99084593e-06, 3.72330351e-06, 3.27307976e-06, 4.14242322e-06,
          4.07918742e-06, 3.61560114e-06, 6.20573417e-07, 5.57337444e-07,
          9.37514670e-08, -4.67438031e-06, -4.92643949e-06,
          -5.63581489e-06, -5.65993378e-06, -5.71102692e-06,
          -6.41140696e-06, -2.99002431e-06, -3.54458962e-06,
          -3.99321107e-06, 2.71809313e-06, 2.15453224e-06,
          1.71490626e-06, 6.93592028e-06, 4.97751944e-06, 4.87693023e-06,
          5.10952214e-06, 2.82736846e-06, 2.72677903e-06, 4.50386233e-06,
          2.26456405e-06, 2.17729644e-06, 4.24683276e-06, 2.00753493e-06,
          1.92026732e-06, -2.99593353e-06, -4.58968634e-06,
          -5.38580798e-06, -4.20741935e-06, -5.15466400e-06,
          -6.01779357e-06, -5.11976032e-06, -5.17620538e-06,
          -5.69764552e-06, -5.62517471e-06, -5.17728631e-06,
          -5.69872645e-06, -1.85926876e-06, -3.10587643e-06,
          -3.33481444e-06, 3.68817769e-06, 2.45056549e-06,
          2.10918279e-06, 6.59041643e-06, 5.07269624e-06, 4.75128718e-06,
          4.47520188e-06, 2.79268625e-06, 2.63607285e-06, 4.07701054e-06,
          1.16275078e-06, 1.23169514e-06, 4.66838492e-06, 1.75862317e-06,
          1.82306962e-06, 4.70889017e-06, 1.77946083e-06, 1.92282482e-06,
          1.26035604e-06, 1.98650378e-06, 2.64362779e-06, 1.19909691e-06,
          1.92524476e-06, 2.58236855e-06, 1.64756898e-07, 1.64538289e-06,
          3.10267887e-06, 6.84165116e-08, 1.54904251e-06, 3.00633837e-06,
          1.73960785e-07, 1.99463693e-06, 3.94359222e-06, 6.28069813e-07,
          2.44874582e-06, 4.39770110e-06, 4.44811036e-07, 2.25348799e-06,
          4.22089943e-06, 1.29062357e-07, 1.93773917e-06, 3.90515061e-06,
          1.47550105e-08, 1.64553853e-06, 2.68776967e-06,
          -3.15431492e-07, 1.25767349e-06, 2.35758330e-06,
          -4.23207712e-06, -3.04886566e-06, -2.33028777e-06,
          -5.88173179e-06, -5.02634566e-06, -3.60006698e-06,
          -5.37570668e-06, -4.18146738e-06, -4.09383620e-06,
          -5.00186752e-06, -3.83586166e-06, -3.74823026e-06,
          -5.25120549e-06, -4.64685718e-06, -5.00827673e-06,
          -6.59795387e-06, -5.56568921e-06, -6.20689298e-06,
          -6.62354842e-06, -5.47430909e-06, -5.61389697e-06,
          -1.90969058e-06, -1.20790730e-06, -1.02166382e-06,
          4.73289356e-06, 5.34051833e-06, 5.23440076e-06, 6.17048454e-06,
          6.77810931e-06, 6.65199832e-06, 5.47099989e-06, 5.97360031e-06,
          5.92560536e-06, 3.38439713e-06, 3.88699755e-06, 3.83900260e-06,
          -2.20088828e-06, -1.61691219e-06, -1.85153601e-06,
          -5.88388093e-06, -4.53049779e-06, -4.93998687e-06,
          -6.69078054e-06, -5.59125101e-06, -5.54515373e-06,
          -6.66495362e-06, -5.56542409e-06, -5.79923471e-06,
          -6.71992575e-06, -5.33807315e-06, -5.88318017e-06,
          -6.72792385e-06, -5.34607125e-06, -6.39101427e-06,
          -5.72624685e-06, -4.64594268e-06, -5.05598337e-06,
          -1.91075074e-07, 1.77828937e-07, -3.06131831e-08,
          3.12122893e-06, 3.39865937e-06, 3.19399942e-06,
          -1.70408362e-06, -1.44313287e-06, -1.63131324e-06,
          -6.73383101e-06, -5.25544738e-06, -5.70027123e-06,
          -5.85538419e-06, -5.25132646e-06, -6.29595343e-06,
          -6.69129986e-06, -5.20547565e-06, -6.25503390e-06,
          -3.18034563e-06, -1.36616063e-06, -1.91463027e-06,
          3.19630021e-06, 5.49337892e-06, 4.80481458e-06, 4.15958675e-06,
          6.46490525e-06, 5.76810135e-06, -4.08669052e-07,
          1.82118936e-06, 1.19139133e-06, -5.48854905e-06,
          -2.41933753e-06, -3.04913556e-06, -6.49415688e-06,
          -4.94355663e-06, -6.02646924e-06, -5.94499306e-06,
          -4.38966708e-06, -6.07710808e-06, -4.24625387e-06,
          -1.49880123e-06, -2.29477928e-06, 2.10378948e-06,
          3.81413383e-06, 3.21591074e-06, 5.53540258e-06, 7.13981717e-06,
          6.19534103e-06, 4.23664824e-06, 5.84106283e-06, 5.28129021e-06,
          -1.83920361e-06, -2.95575745e-07, -6.81255415e-07,
          -6.82396148e-06, -5.37516325e-06, -6.16046418e-06,
          -6.88747468e-06, -5.46028514e-06, -6.14843475e-06,
          -6.00768772e-06, -4.69247925e-06, -4.77444428e-06,
          -5.39491930e-06, -3.99728242e-06, -3.84332816e-06,
          -1.49659456e-07, 1.92045172e-06, 1.43690454e-06,
          2.05741435e-06, 4.33725882e-06, 3.92028187e-06, 7.55149017e-07,
          3.03499337e-06, 2.61801665e-06, 6.46604690e-07, 2.95805012e-06,
          2.63895254e-06, 1.05813444e-06, 3.36957987e-06, 3.05048229e-06,
          1.61015873e-06, 3.49279753e-06, 3.22658798e-06, 6.59030547e-07,
          2.54616702e-06, 2.27545979e-06, -1.61587400e-06,
          -7.94215325e-08, -8.78832651e-08, -4.24835753e-06,
          -2.71190493e-06, -2.72036664e-06, -7.20516073e-06,
          -5.98994393e-06, -6.35373408e-06, -7.22264440e-06,
          -6.11537462e-06, -6.37121775e-06, -7.35020785e-06,
          -6.21710024e-06, -5.33021966e-06, -7.38048584e-06,
          -6.24737822e-06, -6.44466172e-06, -5.47098171e-06,
          -5.52637403e-06, -5.78241270e-06, -3.11105464e-06,
          -2.50195944e-06, -2.58313275e-06, -9.01429473e-07,
          -1.37840800e-06, -1.51287520e-06, 2.62447166e-08,
          -4.50733779e-07, -5.85201064e-07, 2.84204566e-06,
          1.75943114e-06, 1.36477149e-06, 4.06135678e-06, 2.97874226e-06,
          2.58408272e-06, 4.54887368e-06, 3.05701633e-06, 2.35032621e-06,
          5.00811939e-06, 3.51626204e-06, 2.80957192e-06, 4.50331663e-06,
          3.14302838e-06, 2.48899573e-06, 4.47627463e-06, 3.11598660e-06,
          2.46195418e-06, 3.08110634e-06, 1.51235463e-06, 1.73181138e-06,
          -1.05768709e-06, -2.62643880e-06, -2.40698228e-06,
          -5.02398916e-06, -5.62587729e-06, -6.30548811e-06,
          -5.38285030e-06, -5.61495290e-06, -6.29456372e-06,
          -2.06071218e-06, -2.82440965e-06, -3.51948847e-06,
          2.79213282e-07, -4.84484190e-07, -1.17956313e-06,
          1.43440616e-06, 9.17164812e-07, 2.32578586e-07, 1.02700540e-06,
          5.09764050e-07, -1.74822176e-07, 1.48624122e-06,
          1.16182434e-06, 4.48022121e-07, 8.28636757e-07, 5.04219827e-07,
          -2.09582410e-07, 8.89099738e-07, 8.31427258e-07,
          2.92650270e-07, -1.75853143e-06, -1.81620385e-06,
          -2.35498078e-06, -5.19079185e-06, -5.52284018e-06,
          -6.20781020e-06, -5.71402325e-06, -5.49120750e-06,
          -6.17617752e-06, -2.64798473e-06, -3.11291478e-06,
          -3.40028214e-06, 3.69211671e-06, 3.33513367e-06,
          2.93981930e-06, 6.97655605e-06, 5.28759028e-06, 5.32180911e-06,
          5.01361956e-06, 3.02687840e-06, 3.07908840e-06, 4.63233982e-06,
          2.80696918e-06, 2.78351717e-06, 4.61050649e-06, 2.78063794e-06,
          2.75718594e-06, -3.44684918e-06, -4.81018560e-06,
          -5.33680168e-06, -4.35484435e-06, -5.16695536e-06,
          -5.91010803e-06, -5.32021522e-06, -5.17106355e-06,
          -5.77375476e-06, -6.23590904e-06, -5.11807730e-06,
          -5.83321298e-06, -2.14282818e-06, -2.94568554e-06,
          -3.60138506e-06, 3.38883410e-06, 2.59047442e-06,
          1.93027722e-06, 6.28952648e-06, 5.17052604e-06, 4.78505262e-06,
          4.30192631e-06, 3.19940500e-06, 2.79745223e-06, 4.18999480e-06,
          1.39329325e-06, 1.30092599e-06, 4.88887326e-06, 2.12063333e-06,
          1.99980468e-06, 4.99267799e-06, 2.14124748e-06, 2.14307829e-06,
          1.53639144e-06, 2.26253928e-06, 2.91966307e-06, 1.42799502e-06,
          2.15414275e-06, 2.81126677e-06, 4.33248772e-07, 1.91387471e-06,
          3.37117058e-06, 4.63739269e-07, 1.94436529e-06, 3.40166116e-06,
          4.48495285e-07, 2.26917132e-06, 4.21812638e-06, 8.40914652e-07,
          2.66159077e-06, 4.61054606e-06, 5.38955305e-07, 2.34763229e-06,
          4.31504350e-06, -7.57799712e-10, 1.80791903e-06,
          3.77533047e-06, -3.71974238e-07, 1.25056954e-06,
          2.30104047e-06, -8.20171977e-07, 7.44693295e-07,
          1.85284273e-06, -6.89420131e-06, -5.34471747e-06,
          -4.15299655e-06, -6.80475023e-06, -5.77509581e-06,
          -5.65751179e-06, -6.78601145e-06, -5.70367865e-06,
          -5.71589089e-06, -5.44153363e-06, -5.62646983e-06,
          -4.37959079e-06, -5.54704229e-06, -5.52899610e-06,
          -4.73605769e-06, -6.51342680e-06, -5.48116213e-06,
          -6.12236590e-06, -5.54659891e-06, -5.41157760e-06,
          -5.37122514e-06, -1.22891106e-06, -3.29372767e-07,
          -3.49124150e-07, 4.07687776e-06, 4.68450253e-06,
          4.57838496e-06, 5.02571856e-06, 5.63334333e-06, 5.52722577e-06,
          4.05198398e-06, 4.55458394e-06, 4.50658945e-06, 2.40736154e-06,
          2.90996195e-06, 2.86196700e-06, -8.99238046e-07,
          -3.15262042e-07, -5.49885840e-07, -2.30986416e-06,
          -1.72588818e-06, -1.96051201e-06, -3.31659521e-06,
          -2.95137579e-06, -3.09530856e-06, -3.27050043e-06,
          -2.90528124e-06, -3.04921377e-06, -3.80819938e-06,
          -3.46333081e-06, -3.52588472e-06, -5.14117119e-06,
          -4.83127587e-06, -5.13864097e-06, -3.26912823e-06,
          -2.90022422e-06, -3.10866631e-06, 1.54185170e-06,
          1.71300076e-06, 1.70231363e-06, 3.47017613e-06, 3.54985150e-06,
          3.54294662e-06, -2.31197487e-06, -2.23229949e-06,
          -2.23920438e-06, -6.72673514e-06, -5.42962653e-06,
          -6.29297801e-06, -5.48398884e-06, -5.41093686e-06,
          -6.27428835e-06, -6.67478253e-06, -5.35375420e-06,
          -6.23851656e-06, -2.11146767e-06, -2.47843900e-07,
          -8.45752254e-07, 3.44834575e-06, 5.79486323e-06,
          5.05686012e-06, 3.57971658e-06, 5.92623383e-06, 5.18823072e-06,
          -7.75303249e-07, 1.47927449e-06, 8.24757137e-07,
          -5.11192047e-06, -3.37168467e-06, -3.16212959e-06,
          -5.52774782e-06, -4.01362104e-06, -5.89978436e-06,
          -5.18117531e-06, -3.66704853e-06, -5.09336314e-06,
          -1.17612251e-06, 6.74298462e-07, -6.40010214e-08,
          3.51661083e-06, 5.35879190e-06, 4.62873231e-06, 6.47408797e-06,
          8.18360604e-06, 6.92418826e-06, 4.48288893e-06, 6.33007312e-06,
          5.52753045e-06, -2.18823561e-06, -4.15331414e-07,
          -1.03028754e-06, -6.52420704e-06, -4.84390193e-06,
          -5.86070973e-06, -6.54876158e-06, -4.88106934e-06,
          -5.80972119e-06, -5.66197650e-06, -4.19848857e-06,
          -5.86262740e-06, -3.58513239e-06, -1.34425306e-06,
          -1.99856845e-06, 1.60419575e-06, 3.63832464e-06,
          3.19075980e-06, 3.10261703e-06, 5.35547451e-06, 4.96548455e-06,
          1.50902702e-06, 3.76188473e-06, 3.37189454e-06, 1.45486433e-06,
          3.73932312e-06, 3.44721207e-06, 2.44223861e-06, 4.72669717e-06,
          4.43458657e-06, 2.34496451e-06, 4.19611888e-06, 3.96139376e-06,
          2.14062538e-07, 2.06521690e-06, 1.83049178e-06,
          -3.13161217e-06, -1.62214644e-06, -1.60362140e-06,
          -5.82393068e-06, -4.77361255e-06, -3.98118254e-06,
          -6.87029387e-06, -5.69105941e-06, -6.01886723e-06,
          -6.94554092e-06, -5.76180901e-06, -6.09411427e-06,
          -7.07650315e-06, -5.87143131e-06, -4.98656891e-06,
          -7.12289511e-06, -5.92232072e-06, -6.18707099e-06,
          -6.35249535e-06, -5.45709918e-06, -6.24944914e-06,
          -4.99040880e-06, -5.05176922e-06, -4.46248669e-06,
          -3.32430159e-06, -4.50074094e-06, -3.93574737e-06,
          -1.76149433e-06, -2.23847292e-06, -2.37294012e-06,
          1.72189857e-06, 6.39283996e-07, 2.44624346e-07, 3.19967216e-06,
          2.11705765e-06, 1.72239800e-06, 3.95284496e-06, 2.46098784e-06,
          1.75429773e-06, 4.43453564e-06, 2.94267829e-06, 2.23598818e-06,
          4.23413439e-06, 2.87384637e-06, 2.21981372e-06, 4.50569132e-06,
          3.14540307e-06, 2.49137042e-06, 3.15287343e-06, 1.58412172e-06,
          1.80357836e-06, -7.17835576e-07, -2.28658723e-06,
          -2.06713071e-06, -4.56592170e-06, -5.41255940e-06,
          -5.18287106e-06, -5.58749116e-06, -5.20018875e-06,
          -6.06931462e-06, -3.29630143e-06, -4.45986734e-06,
          -4.91502533e-06, -1.84646888e-06, -2.61016635e-06,
          -3.30524540e-06, -1.63850973e-06, -2.15575096e-06,
          -2.84033717e-06, -2.24768428e-06, -2.90487947e-06,
          -3.44951172e-06, -2.23229040e-06, -2.55670739e-06,
          -3.27050952e-06, -3.00890861e-06, -3.33332559e-06,
          -4.04712773e-06, -2.95667792e-06, -3.01435034e-06,
          -3.55312727e-06, -4.82349742e-06, -4.95111590e-06,
          -5.69973145e-06, -6.74882494e-06, -5.54676399e-06,
          -6.23173401e-06, -6.57422379e-06, -5.28976489e-06,
          -6.05713285e-06, -2.92206869e-06, -3.55276188e-06,
          -3.99426108e-06, 3.23073323e-06, 2.96355802e-06,
          2.47843582e-06, 7.24496476e-06, 5.29567569e-06, 5.41535292e-06,
          4.86826730e-06, 2.81405914e-06, 2.93373591e-06, 4.34654430e-06,
          2.45370643e-06, 2.39427209e-06, 4.41805605e-06, 2.52521818e-06,
          2.46578384e-06, -3.66933659e-06, -5.09564234e-06,
          -5.64924494e-06, -4.50271136e-06, -5.49937477e-06,
          -6.11295809e-06, -4.49391109e-06, -5.29928957e-06,
          -5.72747058e-06, -6.29748683e-06, -5.27709471e-06,
          -5.70527527e-06, -2.15519640e-06, -3.06448942e-06,
          -3.42423823e-06, 3.38528457e-06, 2.47599178e-06,
          2.11624297e-06, 6.28503312e-06, 5.06333890e-06, 4.97831434e-06,
          4.43714862e-06, 3.20721460e-06, 3.12218981e-06, 4.17090041e-06,
          1.25952386e-06, 1.28183171e-06, 4.90951425e-06, 1.86630086e-06,
          2.02044544e-06, 4.97664178e-06, 1.86221973e-06, 2.12704185e-06,
          1.52335178e-06, 2.14634952e-06, 2.78540233e-06, 1.54931922e-06,
          2.17231695e-06, 2.81136977e-06, 6.93777963e-07, 2.07108724e-06,
          3.35882214e-06, 8.13086217e-07, 2.19039566e-06, 3.47813034e-06,
          6.27219720e-07, 2.40425857e-06, 4.03677177e-06, 1.01409910e-06,
          2.79113783e-06, 4.42365126e-06, 6.75218473e-07, 2.46341642e-06,
          4.08591177e-06, 7.78874991e-08, 1.86608531e-06, 3.48858089e-06,
          -7.22827679e-07, 6.97050382e-07, 1.59823344e-06,
          -1.97316103e-06, -5.53282973e-07, 3.47900141e-07,
          -6.01543525e-06, -5.94368930e-06, -4.37914696e-06,
          -6.85913346e-06, -5.91306116e-06, -5.97739563e-06,
          -6.86944077e-06, -5.87796148e-06, -6.61106060e-06,
          -5.58450438e-06, -5.26227905e-06, -4.84621978e-06,
          -5.61488696e-06, -5.14197836e-06, -4.83397571e-06,
          -6.67169979e-06, -5.48170192e-06, -6.45066621e-06,
          -5.27622160e-06, -4.99170937e-06, -4.22680750e-06,
          -6.73777834e-07, 5.27982369e-09, 3.57477141e-08,
          3.47873197e-06, 4.14390479e-06, 4.23996789e-06, 3.88809849e-06,
          4.55327154e-06, 4.64933464e-06, 2.71068052e-06, 3.00973397e-06,
          3.81812833e-06, 1.65342010e-06, 1.95247344e-06, 2.76086803e-06,
          9.78880735e-07, 1.30850765e-06, 2.01796524e-06, 1.32281230e-06,
          1.65243921e-06, 2.36189680e-06, 1.50855578e-06, 1.73132446e-06,
          2.08631718e-06, 1.87076125e-06, 2.09352993e-06, 2.44852276e-06,
          2.13434214e-06, 2.27599958e-06, 2.32680782e-06, 1.12190821e-06,
          1.26356565e-06, 1.31437400e-06, 1.56161263e-06, 1.56690919e-06,
          1.28541330e-06, 4.77314734e-06, 4.77844378e-06, 4.49694789e-06,
          3.95237748e-06, 4.00773069e-06, 3.75055902e-06,
          -2.83825921e-06, -2.78290645e-06, -3.04007790e-06,
          -6.70720556e-06, -5.43289843e-06, -6.16523857e-06,
          -5.18537718e-06, -5.41491090e-06, -6.14725104e-06,
          -6.67186077e-06, -5.36519929e-06, -5.59432647e-06,
          -5.05786034e-07, 1.22568929e-06, 1.16127615e-06,
          4.14027454e-06, 5.98790302e-06, 6.16063380e-06, 3.51717108e-06,
          5.36479956e-06, 5.53753034e-06, 7.53695133e-07, 2.50343192e-06,
          2.76843457e-06, -2.06229220e-06, -3.12555386e-07,
          -4.75528097e-08, -2.98610962e-06, -1.05652839e-06,
          -1.20094478e-06, -2.22870199e-06, -3.07360750e-07,
          -4.43537402e-07, 2.91377296e-06, 4.88816522e-06,
          4.56648240e-06, 5.02503599e-06, 6.97769474e-06, 6.66950518e-06,
          6.00816065e-06, 7.72266594e-06, 7.15967917e-06, 2.69776751e-06,
          4.41601469e-06, 3.84928580e-06, -3.48776666e-06,
          -2.00889986e-06, -2.39729729e-06, -6.15824183e-06,
          -4.85142027e-06, -5.60221042e-06, -6.17895148e-06,
          -4.89690956e-06, -5.61463094e-06, -5.30408533e-06,
          -3.95832103e-06, -3.65572373e-06, -9.75144658e-08,
          1.95614894e-06, 1.55157420e-06, 3.79193762e-06, 5.84110330e-06,
          5.43652868e-06, 4.03381182e-06, 6.20589253e-06, 5.86456053e-06,
          2.51005690e-06, 4.68213739e-06, 4.34080539e-06, 2.54267684e-06,
          4.70005398e-06, 4.45688192e-06, 3.49070774e-06, 5.66906238e-06,
          5.40941073e-06, 2.09795212e-06, 3.91603498e-06, 3.52502161e-06,
          -1.40345514e-06, 2.41592005e-07, 2.36141986e-08,
          -5.53262271e-06, -3.53865812e-06, -4.01324496e-06,
          -5.81664835e-06, -5.30671650e-06, -5.77102855e-06,
          -6.36487357e-06, -5.30312036e-06, -5.82137454e-06,
          -6.43294925e-06, -5.37119558e-06, -5.88945022e-06,
          -6.48140258e-06, -5.43833312e-06, -6.03936360e-06,
          -6.55420899e-06, -5.51113999e-06, -6.11217047e-06,
          -5.78248500e-06, -5.49304832e-06, -6.16262150e-06,
          -5.61589331e-06, -4.86211002e-06, -5.61615479e-06,
          -5.84278587e-06, -5.48283469e-06, -6.16731495e-06,
          -5.41308600e-06, -4.72874217e-06, -6.11749010e-06,
          -9.93026447e-07, -8.87183432e-07, -2.10694907e-06,
          9.51902166e-07, 1.05774518e-06, -1.62020598e-07,
          2.60094293e-06, 2.28328827e-06, 9.14580937e-07, 3.33464641e-06,
          3.01249383e-06, 1.64828430e-06, 3.28533338e-06, 3.10386145e-06,
          1.93331948e-06, 3.51927611e-06, 3.32880859e-06, 2.16726198e-06,
          2.82672977e-06, 2.44515513e-06, 2.25012991e-06,
          -8.28553709e-07, -1.21012840e-06, -1.40515363e-06,
          -4.41387920e-06, -5.17117087e-06, -4.38624056e-06,
          -5.46411138e-06, -4.92196068e-06, -4.95681616e-06,
          -5.08108087e-06, -4.69722454e-06, -5.07487766e-06,
          -3.92429774e-06, -4.41476823e-06, -4.39756650e-06,
          -5.55397537e-06, -5.41906775e-06, -6.17868955e-06,
          -6.57142436e-06, -5.41685176e-06, -6.17647311e-06,
          -5.99159466e-06, -5.50523282e-06, -6.26212477e-06,
          -6.03539911e-06, -5.62901096e-06, -6.38590291e-06,
          -4.77371259e-06, -5.65916389e-06, -6.43593057e-06,
          -6.37020776e-06, -5.73182433e-06, -6.50859101e-06,
          -7.02456191e-06, -5.71160672e-06, -6.51655273e-06,
          -6.83433564e-06, -5.52138044e-06, -6.32632646e-06,
          -2.95287509e-06, -3.19941205e-06, -3.72871409e-06,
          2.36808637e-06, 2.18746800e-06, 1.59224737e-06, 6.94376558e-06,
          5.01965087e-06, 5.01738350e-06, 4.41960901e-06, 2.49549453e-06,
          2.49322716e-06, 3.86116244e-06, 2.16660646e-06, 1.95339726e-06,
          3.86713418e-06, 2.17257821e-06, 1.95936923e-06,
          -4.01960642e-06, -5.20419917e-06, -5.87222712e-06,
          -4.68882808e-06, -5.34892888e-06, -6.24173299e-06,
          -4.70341865e-06, -5.37932283e-06, -6.14455530e-06,
          -6.45829550e-06, -5.32669674e-06, -6.07544962e-06,
          -2.69917314e-06, -3.17953027e-06, -3.80523488e-06,
          2.83438703e-06, 2.40346867e-06, 1.72832517e-06, 5.95363645e-06,
          4.95705126e-06, 4.52070708e-06, 4.05418041e-06, 3.06583502e-06,
          2.62125081e-06, 3.63820391e-06, 8.94485197e-07, 9.06594494e-07,
          4.36373421e-06, 1.62001561e-06, 1.63212496e-06, 4.43692579e-06,
          1.62544632e-06, 1.78748746e-06, 6.73473153e-07, 1.29647094e-06,
          1.93552364e-06, 7.86278349e-07, 1.40927614e-06, 2.04832895e-06,
          6.40883400e-08, 1.44139779e-06, 2.72913258e-06, 4.05184835e-07,
          1.78249422e-06, 3.07022901e-06, 4.40777796e-07, 2.21781647e-06,
          3.85032990e-06, 9.08050083e-07, 2.68508893e-06, 4.31760191e-06,
          5.50046138e-07, 2.33824403e-06, 3.96073938e-06, 6.81171386e-08,
          1.85631495e-06, 3.47881041e-06, -7.27790564e-07,
          6.92087440e-07, 1.59327055e-06, -1.46418677e-06,
          -4.43087096e-08, 8.56874408e-07, -5.98490942e-06,
          -5.36832704e-06, -4.22866015e-06, -6.82064046e-06,
          -5.87456816e-06, -5.77895526e-06, -5.86035003e-06,
          -5.84811596e-06, -6.08137907e-06, -4.62081698e-06,
          -3.88906665e-06, -4.24241398e-06, -4.75812385e-06,
          -4.02560954e-06, -4.41706743e-06, -6.83848657e-06,
          -5.84624331e-06, -6.61745253e-06, -5.38634140e-06,
          -5.07682216e-06, -4.27694704e-06, -8.47182150e-07,
          -1.68124487e-07, -1.37656599e-07, 3.81576638e-06,
          4.28318481e-06, 4.57700253e-06, 3.19778292e-06, 3.66520112e-06,
          3.95901907e-06, 2.02613342e-06, 2.32518664e-06, 3.13358123e-06,
          1.96986525e-06, 2.26891871e-06, 3.07731329e-06, 2.37777340e-06,
          2.70740020e-06, 3.41685768e-06, 2.79403753e-06, 3.12366456e-06,
          3.83312226e-06, 3.17446074e-06, 3.39722942e-06, 3.75222226e-06,
          3.73500734e-06, 3.95777579e-06, 4.31276885e-06, 4.24238578e-06,
          4.38404277e-06, 4.43485123e-06, 4.17213096e-06, 4.31378839e-06,
          4.36459686e-06, 4.30881346e-06, 4.31410990e-06, 4.03261402e-06,
          6.07419724e-06, 6.07949369e-06, 5.79799780e-06, 3.89801562e-06,
          3.95336838e-06, 3.69619693e-06, -2.85273927e-06,
          -2.79738651e-06, -3.05455796e-06, -6.63078890e-06,
          -5.35648223e-06, -6.08882192e-06, -5.24183861e-06,
          -5.33148022e-06, -6.06381991e-06, -6.58543786e-06,
          -4.59900002e-06, -5.18800834e-06, 1.94895478e-07,
          1.92637071e-06, 1.86195768e-06, 4.82165615e-06, 6.66928418e-06,
          6.84201495e-06, 4.06708932e-06, 5.91471780e-06, 6.08744858e-06,
          2.67161363e-06, 4.42135024e-06, 4.68635290e-06, 7.75927958e-07,
          2.52566474e-06, 2.79066717e-06, 8.76894035e-07, 2.79823530e-06,
          2.66205871e-06, 2.23595225e-06, 4.25250300e-06, 4.21887216e-06,
          4.97147084e-06, 6.92413005e-06, 6.61594049e-06, 5.20726053e-06,
          7.14642601e-06, 6.85173018e-06, 4.69591077e-06, 6.40591816e-06,
          5.84742884e-06, 8.50143920e-07, 2.55565328e-06, 2.00166210e-06,
          -4.98761210e-06, -2.85325268e-06, -3.23265454e-06,
          -6.21082108e-06, -4.88751994e-06, -5.65478922e-06,
          -6.21666914e-06, -4.92638719e-06, -5.65234859e-06,
          -3.89450179e-06, -1.98916905e-06, -2.35105972e-06,
          1.79125630e-06, 3.85765725e-06, 3.44484283e-06, 4.44348188e-06,
          6.51438086e-06, 6.10156621e-06, 3.98829934e-06, 6.06067260e-06,
          5.82354551e-06, 2.86376053e-06, 4.93613379e-06, 4.69900669e-06,
          2.72213356e-06, 4.89224840e-06, 4.64083632e-06, 3.14771796e-06,
          5.32607237e-06, 5.06642073e-06, 9.63436378e-07, 2.79799883e-06,
          2.39050587e-06, -2.66202733e-06, -8.34948878e-07,
          -1.23495795e-06, -5.59505770e-06, -4.13421776e-06,
          -4.12557119e-06, -6.24582208e-06, -5.13022314e-06,
          -5.66037943e-06, -6.26540395e-06, -5.11758481e-06,
          -5.72190493e-06, -6.27090913e-06, -5.20915546e-06,
          -4.81811094e-06, -6.30556360e-06, -5.25349878e-06,
          -5.86352508e-06, -6.36112509e-06, -5.31805608e-06,
          -5.91908656e-06, -5.47883519e-06, -4.72505189e-06,
          -5.95893880e-06, -5.61174329e-06, -5.06105789e-06,
          -5.91190610e-06, -5.71120063e-06, -5.07647201e-06,
          -5.89577530e-06, -5.68876840e-06, -5.09776919e-06,
          -5.91333037e-06, -1.92934226e-06, -1.66845473e-06,
          -3.04326500e-06, 3.15620724e-07, 5.68268320e-07,
          -7.98302096e-07, 2.70532360e-06, 2.37867312e-06,
          1.01896137e-06, 3.92117045e-06, 3.58552438e-06, 2.23480811e-06,
          3.73501393e-06, 3.54004874e-06, 2.38299981e-06, 3.53014843e-06,
          3.32618765e-06, 2.17813454e-06, 3.38903874e-06, 2.99397061e-06,
          2.81243888e-06, -3.37255130e-07, -7.32323201e-07,
          -9.13855047e-07, -3.78147320e-06, -3.66988411e-06,
          -4.13370981e-06, -4.08900405e-06, -4.67687596e-06,
          -4.46123431e-06, -3.10043401e-06, -2.71107092e-06,
          -3.57370232e-06, -2.94788947e-06, -2.55852660e-06,
          -3.42115800e-06, -5.27900056e-06, -4.61927266e-06,
          -5.56382611e-06, -6.57440432e-06, -5.37035612e-06,
          -6.17945352e-06, -6.57323517e-06, -5.30414081e-06,
          -6.12400163e-06, -6.52215203e-06, -5.23956442e-06,
          -6.07291850e-06, -3.60765762e-06, -3.97800841e-06,
          -4.63039487e-06, -4.28370549e-06, -4.64636150e-06,
          -5.53107520e-06, -5.16709133e-06, -5.07831601e-06,
          -5.88326202e-06, -5.73977513e-06, -5.68584937e-06,
          -6.49079493e-06, -2.82536143e-06, -3.15429611e-06,
          -3.60120043e-06, 1.92489142e-06, 1.59595675e-06,
          1.14905242e-06, 6.58729323e-06, 4.66317897e-06, 4.66091160e-06,
          4.32619936e-06, 2.40208465e-06, 2.39981750e-06, 3.94371409e-06,
          2.24915834e-06, 2.03594936e-06, 4.00371164e-06, 2.30915566e-06,
          2.09594668e-06, -3.93019354e-06, -4.89029844e-06,
          -5.74784144e-06, -4.79910159e-06, -5.41598956e-06,
          -6.31703369e-06, -4.89726835e-06, -5.45781540e-06,
          -6.33840500e-06, -6.74193643e-06, -5.46202091e-06,
          -6.35909009e-06, -2.99651288e-06, -3.54278814e-06,
          -4.10257462e-06, 2.55537111e-06, 2.00909585e-06,
          1.44930948e-06, 5.68857013e-06, 4.54366864e-06, 4.25564031e-06,
          3.64328298e-06, 2.49838149e-06, 2.21035316e-06, 3.24814141e-06,
          5.04422758e-07, 5.16532054e-07, 4.09016002e-06, 1.34644119e-06,
          1.35855055e-06, 4.23316806e-06, 1.42168903e-06, 1.58373007e-06,
          -4.77326303e-08, 6.67194797e-07, 1.61715843e-06,
          -1.32050184e-08, 7.01722456e-07, 1.65168603e-06,
          -8.30590409e-07, 8.54707650e-07, 2.06573395e-06,
          -5.13342229e-07, 1.17195577e-06, 2.38298207e-06,
          -2.77184881e-07, 1.69243606e-06, 3.13143664e-06,
          9.47899395e-08, 2.06441086e-06, 3.50341156e-06,
          -1.99846099e-07, 1.77784102e-06, 3.19882292e-06,
          -4.49448351e-07, 1.52823873e-06, 2.94922052e-06,
          -9.37368384e-07, 6.63999913e-07, 1.56106591e-06,
          -1.44319063e-06, 1.58177713e-07, 1.05524373e-06,
          -5.04841682e-06, -3.39720168e-06, -2.97236465e-06,
          -5.75811055e-06, -4.80666540e-06, -3.98195971e-06,
          -4.50459038e-06, -3.56766236e-06, -3.77929723e-06,
          -3.62005312e-06, -2.68312510e-06, -2.89476020e-06,
          -4.29624743e-06, -3.29200930e-06, -3.59774072e-06,
          -6.85202485e-06, -5.69297663e-06, -6.68826488e-06,
          -5.47669106e-06, -5.14432440e-06, -4.35127549e-06,
          -1.28574914e-06, -5.13835801e-07, -4.20247858e-07,
          4.73038426e-06, 5.32945023e-06, 5.82380380e-06, 2.96444591e-06,
          3.56351188e-06, 4.05786523e-06, 1.46307593e-06, 1.79707911e-06,
          2.72815714e-06, 2.14529859e-06, 2.47930188e-06, 3.41037980e-06,
          3.13745704e-06, 3.47102355e-06, 4.42296596e-06, 3.32544073e-06,
          3.65900701e-06, 4.61094942e-06, 2.90029175e-06, 3.22602591e-06,
          3.65944425e-06, 3.02359877e-06, 3.34933293e-06, 3.78275104e-06,
          3.40420138e-06, 3.81504105e-06, 3.91025105e-06, 4.39474343e-06,
          4.80558310e-06, 4.90079310e-06, 4.52714175e-06, 4.80404560e-06,
          4.53626808e-06, 4.90688217e-06, 5.18378602e-06, 4.91600895e-06,
          2.36692199e-06, 2.53413191e-06, 2.39505835e-06,
          -4.38172128e-06, -3.81464270e-06, -3.95371626e-06,
          -6.61945933e-06, -5.41599229e-06, -5.97686039e-06,
          -5.21805759e-06, -5.41351255e-06, -4.32532443e-06,
          -6.58368435e-06, -4.47331149e-06, -4.86645922e-06,
          1.33749563e-06, 3.38281234e-06, 3.51426024e-06, 5.03900719e-06,
          7.27385577e-06, 7.33542356e-06, 3.03331967e-06, 5.26816802e-06,
          5.71443934e-06, 2.90760454e-06, 5.09952952e-06, 5.61194338e-06,
          1.80219740e-06, 4.18363743e-06, 4.50653624e-06, 2.31586159e-06,
          4.80114159e-06, 4.86632644e-06, 4.24323980e-06, 6.71204043e-06,
          6.99145949e-06, 4.94880078e-06, 6.89928856e-06, 6.43558724e-06,
          4.09217728e-06, 6.03442550e-06, 5.78056233e-06, 3.34704191e-06,
          4.85139526e-06, 4.54646897e-06, -1.22358813e-06,
          2.72525455e-07, -3.24008553e-08, -4.98670670e-06,
          -4.25675262e-06, -5.43574288e-06, -6.20152059e-06,
          -5.02698504e-06, -5.46621823e-06, -6.14930013e-06,
          -4.33449623e-06, -3.97087888e-06, -2.44122930e-06,
          -2.98538083e-07, -4.54440823e-07, 4.13552061e-06,
          5.90980881e-06, 5.37427604e-06, 4.64489722e-06, 6.41918541e-06,
          5.88365265e-06, 3.33043795e-06, 5.16913178e-06, 4.76345895e-06,
          2.91680453e-06, 4.55774352e-06, 4.34982530e-06, 2.29117177e-06,
          4.14158876e-06, 3.74413071e-06, 1.45170804e-06, 3.19417791e-06,
          2.90916478e-06, -1.57788509e-06, 6.71826612e-08,
          -4.47184590e-07, -4.84343082e-06, -4.14566284e-06,
          -3.92256834e-06, -5.33032198e-06, -4.67930477e-06,
          -5.70519160e-06, -5.35128856e-06, -4.70027180e-06,
          -5.66617791e-06, -4.99274847e-06, -3.91629010e-06,
          -4.19756543e-06, -6.18705053e-06, -4.41113116e-06,
          -4.69240649e-06, -5.66156996e-06, -5.32826789e-06,
          -5.87089380e-06, -5.57541443e-06, -4.78226366e-06,
          -5.92469223e-06, -3.00329907e-06, -1.94683525e-06,
          -3.24604707e-06, -2.39854512e-06, -1.45002832e-06,
          -2.64129335e-06, -6.28303223e-06, -4.42990631e-06,
          -6.16107945e-06, -6.29739861e-06, -5.35357140e-06,
          -6.17544538e-06, -4.13935504e-06, -4.53375196e-06,
          -6.24116092e-06, -1.55930775e-06, -9.16596377e-07,
          -2.76667038e-06, 1.91074628e-06, 1.99192300e-06,
          2.13009272e-07, 3.19086189e-06, 3.27203884e-06, 1.49312496e-06,
          3.98686552e-06, 4.04628645e-06, 2.73758678e-06, 3.35096820e-06,
          3.41038935e-06, 2.10168946e-06, 3.36539165e-06, 3.71939018e-06,
          3.20611866e-06, -5.63906042e-07, -2.14405361e-07,
          -7.23179198e-07, -3.37453798e-06, -2.60321394e-06,
          -2.79728579e-06, -2.74355602e-06, -1.98122757e-06,
          -2.17529941e-06, -6.81321637e-07, 4.48511855e-07,
          -4.72623810e-07, -2.16829960e-07, 9.13003532e-07,
          -8.13215006e-09, -2.86662384e-06, -2.11034899e-06,
          -2.94806568e-06, -5.77229048e-06, -5.43587748e-06,
          -6.18359309e-06, -6.84750785e-06, -5.51906578e-06,
          -6.40738608e-06, -4.86819226e-06, -4.48530182e-06,
          -5.41759073e-06, -2.77711479e-07, 8.72120296e-08,
          -9.77538321e-07, 5.30439195e-07, 8.99860481e-07,
          -1.69387647e-07, 6.15816020e-07, 1.00894647e-06,
          -3.07050705e-08, -1.47903464e-07, 2.49724764e-07,
          -7.94424579e-07, 4.49740725e-07, 2.78903968e-07,
          -3.94567252e-07, 4.08506730e-06, 3.81527934e-06,
          3.24075950e-06, 6.33793798e-06, 4.58045452e-06, 4.55525287e-06,
          4.32211846e-06, 2.56463500e-06, 2.53943313e-06, 4.34476578e-06,
          2.83789313e-06, 2.62267486e-06, 3.90906189e-06, 2.36923006e-06,
          2.18697096e-06, -3.48395361e-06, -3.77143670e-06,
          -5.73679745e-06, -4.85081500e-06, -5.52768597e-06,
          -6.38426627e-06, -5.01995646e-06, -5.62171090e-06,
          -6.45269893e-06, -6.91814739e-06, -5.69591884e-06,
          -6.52690687e-06, -2.18078753e-06, -3.02133003e-06,
          -3.74083857e-06, 2.87948615e-06, 2.03894388e-06,
          1.31943546e-06, 5.73713623e-06, 4.19476419e-06, 3.79135372e-06,
          3.90754712e-06, 2.36517508e-06, 1.96176438e-06, 3.41150053e-06,
          5.51462279e-07, 3.29209144e-07, 4.09158702e-06, 1.23154894e-06,
          1.00929583e-06, 4.37755534e-06, 1.44398382e-06, 1.42355748e-06,
          1.63604966e-07, 8.78532433e-07, 1.82849601e-06, 1.28748084e-07,
          8.43675537e-07, 1.79363917e-06, -6.72200713e-07,
          1.01309729e-06, 2.22412359e-06, -4.89525974e-07,
          1.19577203e-06, 2.40679833e-06, -4.81898212e-07,
          1.48772267e-06, 2.92672325e-06, -2.68810453e-07,
          1.70081046e-06, 3.13981104e-06, -6.32067611e-07,
          1.34561947e-06, 2.76660126e-06, -9.76922706e-07,
          1.00076443e-06, 2.42174633e-06, -1.13658223e-06,
          4.64786098e-07, 1.36185213e-06, -1.55795612e-06,
          4.34122178e-08, 9.40478230e-07, -4.15681006e-06,
          -2.82548967e-06, -2.40065287e-06, -5.23811013e-06,
          -3.90678997e-06, -3.48195294e-06, -3.51229323e-06,
          -2.57536522e-06, -2.78700008e-06, -2.59786066e-06,
          -1.66093264e-06, -1.87256751e-06, -4.58271097e-06,
          -3.57847284e-06, -3.88420449e-06, -7.14693761e-06,
          -5.98788938e-06, -6.98317808e-06, -5.77517585e-06,
          -5.46781621e-06, -4.70974010e-06, -1.75046341e-06,
          -9.78550133e-07, -8.84962105e-07, 4.64792856e-06,
          5.24699453e-06, 5.42145290e-06, 2.70312944e-06, 3.30219518e-06,
          3.65659480e-06, 1.97506279e-06, 2.30906585e-06, 3.24014400e-06,
          3.14318572e-06, 3.47718878e-06, 4.40826670e-06, 3.70670887e-06,
          4.04027514e-06, 4.99221778e-06, 3.36402331e-06, 3.69758959e-06,
          4.64953246e-06, 2.62621802e-06, 2.95195218e-06, 3.38537052e-06,
          2.25276995e-06, 2.57850411e-06, 3.01192244e-06, 8.03314379e-07,
          1.21415417e-06, 1.30936417e-06, 2.61459491e-06, 3.02543458e-06,
          3.12064458e-06, 3.29405157e-06, 3.57095564e-06, 3.30317835e-06,
          3.15470425e-06, 3.43160832e-06, 3.16383102e-06, 1.05336619e-06,
          1.22057611e-06, 1.08150255e-06, -4.75049319e-06,
          -5.07779578e-06, -4.48243554e-06, -6.80539461e-06,
          -5.60192757e-06, -6.16279567e-06, -4.22656876e-06,
          -4.02240266e-06, -3.75369746e-06, -5.30205944e-06,
          -3.25674296e-06, -3.12529505e-06, 2.32164848e-06,
          4.36696519e-06, 4.49841309e-06, 4.91768606e-06, 7.15253509e-06,
          7.28404848e-06, 2.64548498e-06, 4.88033356e-06, 5.32660442e-06,
          2.05139713e-06, 4.24332211e-06, 4.75573597e-06, 8.41088934e-07,
          3.22252913e-06, 3.54542794e-06, 1.03453067e-06, 3.50333130e-06,
          3.78275035e-06, 3.29213208e-06, 5.72797353e-06, 6.00739259e-06,
          3.81129871e-06, 5.71234796e-06, 5.45848479e-06, 3.23069594e-06,
          5.12350516e-06, 4.86964200e-06, 3.06331231e-06, 4.52646691e-06,
          4.22154062e-06, -2.25532722e-06, -7.92172727e-07,
          -1.09709902e-06, -5.21027141e-06, -4.51327651e-06,
          -5.45234570e-06, -5.50529876e-06, -5.00351234e-06,
          -5.44274553e-06, -6.16983925e-06, -4.17982028e-06,
          -4.47078719e-06, -1.52746452e-06, 5.82267603e-07,
          4.26364863e-07, 5.00337364e-06, 6.72822262e-06, 6.40692451e-06,
          4.18013269e-06, 5.92970127e-06, 5.60840317e-06, 2.57137776e-06,
          4.40183203e-06, 3.90544710e-06, 2.10122334e-06, 3.74216233e-06,
          3.43529291e-06, 1.32480739e-06, 3.06727748e-06, 2.67431710e-06,
          3.62237614e-07, 2.10470762e-06, 1.71174736e-06,
          -4.30112959e-06, -1.95962889e-06, -2.36604910e-06,
          -5.01634076e-06, -4.31857279e-06, -5.14466956e-06,
          -5.42824682e-06, -4.77722961e-06, -5.76312959e-06,
          -5.39697976e-06, -4.74596300e-06, -5.77184937e-06,
          -3.64006087e-06, -2.66356960e-06, -3.64461494e-06,
          -4.49150275e-06, -3.51501149e-06, -4.01621446e-06,
          -6.22795096e-06, -5.33483308e-06, -5.87745853e-06,
          -5.70049315e-06, -4.90734237e-06, -5.94980384e-06,
          -1.43602756e-06, -3.84061593e-07, -1.67877567e-06,
          -1.42656688e-06, -3.74600916e-07, -1.66931500e-06,
          -5.55858560e-06, -4.50983907e-06, -6.34593152e-06,
          -6.37617359e-06, -5.43234637e-06, -6.25422035e-06,
          -5.42226553e-06, -5.32722470e-06, -6.25489020e-06,
          -2.85586134e-06, -2.41090493e-06, -4.06322397e-06,
          7.23491610e-07, 8.04668446e-07, -9.74245381e-07,
          2.79576534e-06, 2.87694206e-06, 1.09802841e-06, 4.23723304e-06,
          4.29665397e-06, 2.98795430e-06, 3.47399282e-06, 3.53341375e-06,
          2.22471408e-06, 3.36527614e-06, 3.61132766e-06, 3.20600293e-06,
          -4.30462052e-07, -1.84410567e-07, -5.89735180e-07,
          -3.68927022e-06, -2.90895059e-06, -3.21996504e-06,
          -1.63115362e-06, -8.59829527e-07, -1.05390154e-06,
          1.24707060e-06, 2.38589973e-06, 1.46476395e-06, 1.92220614e-06,
          3.06103539e-06, 2.13989961e-06, -9.56835152e-07,
          -1.82569124e-07, -1.13273063e-06, -4.48689207e-06,
          -3.70812836e-06, -4.66278789e-06, -5.16387718e-06,
          -5.54042799e-06, -6.43774365e-06, -4.28838848e-06,
          -3.60109880e-06, -5.03772117e-06, 2.18852028e-06,
          2.56243925e-06, 1.48869344e-06, 4.31153694e-06, 4.68095823e-06,
          3.61171010e-06, 5.30105035e-06, 5.68968289e-06, 4.65452922e-06,
          4.24414475e-06, 4.63727520e-06, 3.59762385e-06, 3.55401380e-06,
          3.37867914e-06, 2.70970577e-06, 6.27065492e-06, 6.17079650e-06,
          5.50632058e-06, 6.20403443e-06, 4.54100473e-06, 4.42134933e-06,
          4.25838743e-06, 2.59535773e-06, 2.47570233e-06, 4.38010966e-06,
          2.81563234e-06, 2.65801873e-06, 3.71628062e-06, 2.15630121e-06,
          1.99418969e-06, -3.41283976e-06, -3.79988228e-06,
          -4.93124980e-06, -4.90231696e-06, -5.52420488e-06,
          -6.47074103e-06, -5.04966647e-06, -5.54797180e-06,
          -6.48240893e-06, -6.00140947e-06, -5.65350683e-06,
          -6.48449486e-06, -1.84369912e-06, -2.68424151e-06,
          -3.40375004e-06, 3.06925426e-06, 2.22871199e-06,
          1.50920357e-06, 5.66266817e-06, 4.12029613e-06, 3.71688543e-06,
          4.05645051e-06, 2.51407846e-06, 2.11066777e-06, 3.54471035e-06,
          6.84671988e-07, 4.62418853e-07, 4.16011426e-06, 1.30007606e-06,
          1.07782296e-06, 4.42462397e-06, 1.49105244e-06, 1.47062610e-06,
          -6.61237038e-07, 1.21570827e-06, 2.40607574e-06,
          -5.81160634e-07, 1.29578461e-06, 2.48615197e-06,
          -3.22320545e-07, 1.37071254e-06, 2.74592458e-06,
          -1.38951151e-07, 1.55408202e-06, 2.92929394e-06,
          -1.36739658e-07, 1.47997673e-06, 3.28317083e-06,
          -6.34123083e-08, 1.55330406e-06, 3.35649815e-06,
          -3.84342201e-07, 1.38709152e-06, 3.11740996e-06,
          -7.22044206e-07, 1.04938954e-06, 2.77970776e-06,
          -7.64692118e-07, 7.69707583e-07, 1.75663638e-06,
          -9.01166572e-07, 6.33233128e-07, 1.62016192e-06,
          -9.84709416e-08, 1.29830937e-06, 1.81945222e-06,
          -2.94983892e-07, 1.10179644e-06, 1.62293929e-06,
          -8.45492650e-07, 1.88314871e-07, 1.74847131e-07,
          -2.56921226e-06, -1.53540475e-06, -1.54887255e-06,
          -5.64550282e-06, -4.56961607e-06, -4.65031326e-06,
          -7.80110804e-06, -6.71030375e-06, -7.62546370e-06,
          -6.93884431e-06, -6.72703254e-06, -5.31618525e-06,
          -2.78892026e-06, -1.69269310e-06, -1.38618873e-06,
          3.25170640e-06, 4.09289987e-06, 4.56916769e-06, 1.90555238e-06,
          2.74674585e-06, 3.22301366e-06, 1.03046898e-06, 2.04901335e-06,
          2.81522102e-06, 2.62650860e-06, 3.64505308e-06, 4.41126076e-06,
          2.94148936e-06, 3.90243758e-06, 4.67525570e-06, 1.73835758e-06,
          2.69930592e-06, 3.47212381e-06, 2.03044715e-06, 2.84163934e-06,
          3.26238683e-06, 3.08096583e-06, 3.89215802e-06, 4.31290528e-06,
          2.34565528e-06, 2.77040431e-06, 3.08370750e-06, 3.15580814e-06,
          3.58055718e-06, 3.89386059e-06, 3.47913351e-06, 3.96287123e-06,
          3.81061272e-06, 2.10672192e-06, 2.48701053e-06, 2.43820114e-06,
          -2.30848605e-06, -2.01339799e-06, -2.03509694e-06,
          -5.62793184e-06, -4.21370669e-06, -4.23540541e-06,
          -6.72679835e-06, -5.62192463e-06, -5.34703122e-06,
          -5.80957840e-06, -5.64897709e-06, -5.47405079e-06,
          -3.34627953e-06, -1.38699102e-06, -9.40593679e-07,
          2.46342051e-06, 4.42270903e-06, 4.86910631e-06, 3.77620495e-06,
          6.00526664e-06, 6.76386480e-06, 2.03961577e-06, 4.26867746e-06,
          5.02727562e-06, 5.25848122e-07, 3.64462380e-06, 4.17025149e-06,
          -6.67236804e-07, 2.45153888e-06, 2.97716633e-06,
          -1.91000126e-07, 3.19219680e-06, 3.40034762e-06,
          2.93766902e-06, 6.51862092e-06, 6.49404365e-06, 2.36400138e-06,
          4.88111800e-06, 4.45007799e-06, 3.69342138e-06, 6.18581862e-06,
          5.77949777e-06, -4.74013973e-07, 1.14035117e-06,
          8.86571570e-07, -6.19111097e-06, -4.00542331e-06,
          -3.79935432e-06, -6.21314393e-06, -4.99096495e-06,
          -5.46935462e-06, -5.56579835e-06, -4.98340887e-06,
          -5.46179854e-06, -3.03673551e-06, -7.07302263e-07,
          -8.79041352e-07, 1.85138606e-06, 4.18081936e-06,
          4.00908039e-06, 4.03435570e-06, 5.82989014e-06, 4.91692435e-06,
          3.77962510e-06, 5.60811895e-06, 4.48091851e-06, 1.52055452e-06,
          3.46217166e-06, 2.63948846e-06, 1.47371236e-06, 3.23405425e-06,
          2.59264630e-06, -1.19131732e-06, 6.21807828e-07,
          -9.33822406e-08, -3.73042508e-06, -1.91729987e-06,
          -2.63248990e-06, -5.46679667e-06, -4.70931309e-06,
          -4.98344934e-06, -5.66423932e-06, -4.90675620e-06,
          -5.94020958e-06, -4.18934451e-06, -1.99981628e-06,
          -2.62053481e-06, 8.82998847e-07, 2.23317397e-06,
          1.61245555e-06, 3.39140433e-06, 4.61091395e-06, 3.79592848e-06,
          -4.53176881e-06, -3.31225920e-06, -4.12724467e-06,
          -6.48667765e-06, -5.41482359e-06, -6.13704424e-06,
          -5.38033237e-06, -4.40844588e-06, -5.39058055e-06,
          -2.10009534e-06, -9.92701530e-07, -2.60791853e-06,
          5.28956707e-06, 6.39696100e-06, 4.78174388e-06,
          -1.44954208e-06, -4.79394544e-07, -2.34960453e-06,
          -4.83080430e-06, -3.93060282e-06, -5.38113636e-06,
          -6.54899031e-06, -5.50077993e-06, -6.54069936e-06,
          -6.36551658e-06, -5.20935919e-06, -6.35722563e-06,
          -4.13213456e-06, -4.31932403e-06, -5.28991950e-06,
          1.47180089e-07, 2.43380413e-07, -1.25052645e-06,
          3.86913371e-06, 3.97717440e-06, 3.04815649e-06, 3.80897768e-06,
          4.02496516e-06, 2.98800046e-06, 2.01744842e-06, 2.08658457e-06,
          1.46336288e-06, -3.88151693e-06, -4.62125854e-06,
          -4.75549723e-06, -4.85683404e-06, -4.07205971e-06,
          -4.10460689e-06, -6.46637318e-06, -5.27541533e-06,
          -6.20973651e-06, -4.12347299e-06, -3.38123436e-06,
          -4.28494104e-06, 8.26945836e-07, 1.56918463e-06,
          6.65478126e-07, -3.75825971e-06, -3.70344264e-06,
          -3.96607902e-06, -5.99354280e-06, -5.21586799e-06,
          -6.14538021e-06, -6.55303393e-06, -5.20060212e-06,
          -6.10675579e-06, -5.79612015e-06, -4.68360940e-06,
          -6.14957889e-06, -6.68130451e-06, -5.42392854e-06,
          -6.19825232e-06, -5.53549125e-06, -5.36227981e-06,
          -6.13660359e-06, -5.66159088e-06, -5.35380559e-06,
          -6.11022142e-06, -6.61123840e-06, -5.35918070e-06,
          -6.11559653e-06, -2.67803830e-06, -2.80623499e-06,
          -3.57799127e-06, 6.40298268e-08, 4.37802470e-08,
          -8.35923117e-07, 3.91183494e-06, 3.19688047e-06,
          2.22165613e-06, 3.69426652e-06, 2.97931206e-06, 2.00408772e-06,
          4.35111770e-06, 3.25839210e-06, 2.47224307e-06, 3.25161454e-06,
          2.05543961e-06, 1.37273992e-06, -2.55865575e-06,
          -2.93381891e-06, -4.01155603e-06, -4.60579940e-06,
          -5.42228827e-06, -6.42860914e-06, -4.52528138e-06,
          -5.57930480e-06, -6.01736247e-06, -4.44456964e-06,
          -5.09872416e-06, -5.93665072e-06, -6.51407333e-07,
          -1.85946317e-06, -2.40365057e-06, 3.50522282e-06,
          2.29716716e-06, 1.75297976e-06, 5.66440212e-06, 3.94563403e-06,
          3.55915586e-06, 4.11298606e-06, 2.39421797e-06, 2.00773979e-06,
          3.63315598e-06, 6.30823024e-07, 4.46028849e-07, 4.02740352e-06,
          1.02507056e-06, 8.40276414e-07, 4.50343714e-06, 1.34398306e-06,
          1.37920892e-06, -4.01875553e-07, 1.47506978e-06,
          2.66543725e-06, -3.25826761e-07, 1.55111854e-06,
          2.74148601e-06, -1.04670349e-07, 1.58836281e-06,
          2.96357462e-06, -4.33131682e-08, 1.64971993e-06,
          3.02493186e-06, -8.34374916e-08, 1.53327892e-06,
          3.33647290e-06, -7.71844029e-08, 1.53953204e-06,
          3.34272613e-06, -2.25234260e-07, 1.54619943e-06,
          3.27651787e-06, -4.05524759e-07, 1.36590893e-06,
          3.09622737e-06, -2.26310448e-07, 1.30808928e-06,
          2.29501802e-06, -4.21284795e-07, 1.11311488e-06,
          2.10004373e-06, 4.43920989e-08, 1.44117246e-06, 1.96231531e-06,
          -1.37148987e-07, 1.25963140e-06, 1.78077426e-06,
          -7.43247483e-07, 2.90560052e-07, 2.77092312e-07,
          -2.43447039e-06, -1.40066288e-06, -1.41413068e-06,
          -6.39082282e-06, -4.85508735e-06, -4.93578455e-06,
          -8.09591711e-06, -7.00511282e-06, -7.92027276e-06,
          -7.21607739e-06, -7.00426563e-06, -5.67339157e-06,
          -3.20889376e-06, -2.11266661e-06, -1.80616223e-06,
          2.43705495e-06, 3.27824841e-06, 3.75451623e-06, 1.08581946e-06,
          1.92701305e-06, 2.40328086e-06, 9.85605084e-07, 2.00414956e-06,
          2.77035701e-06, 2.47644402e-06, 3.49498850e-06, 4.26119595e-06,
          2.53635721e-06, 3.49730544e-06, 4.27012355e-06, 1.26116890e-06,
          2.31657077e-06, 2.99493513e-06, 1.48642391e-06, 2.36058509e-06,
          2.71836348e-06, 2.67814971e-06, 3.54331519e-06, 3.91008916e-06,
          2.72865918e-06, 3.21637708e-06, 3.46671118e-06, 3.57970225e-06,
          4.08541155e-06, 4.31775425e-06, 3.98406337e-06, 4.44081434e-06,
          4.31554236e-06, 2.89463105e-06, 3.35587993e-06, 3.22611027e-06,
          -1.71788577e-06, -1.32384628e-06, -1.44449655e-06,
          -6.02541331e-06, -4.50324069e-06, -4.63288688e-06,
          -6.56703060e-06, -5.35420986e-06, -5.86704027e-06,
          -6.54865835e-06, -5.44378508e-06, -5.84866802e-06,
          -2.40976192e-06, -4.50473522e-07, -4.07615142e-09,
          2.44859962e-06, 4.40788790e-06, 4.85428518e-06, 2.87782859e-06,
