%YAML:1.0
---
opencv_ml_svm:
   format: 3
   svmType: C_SVC
   kernel:
      type: LINEAR
   C: 1.
   term_criteria: { iterations:100 }
   var_count: 8652
   class_count: 2
   class_labels: !!opencv-matrix
      rows: 2
      cols: 1
      dt: i
      data: [ -1, 1 ]
   sv_total: 1
   support_vectors:
      - [ 1.65620258e-06, 2.18007881e-06, 1.39917438e-06, 1.58981265e-06,
          2.26526436e-06, 1.36114318e-06, 1.58981265e-06, 2.26526436e-06,
          1.36114318e-06, 1.54309816e-06, 2.26526436e-06, 1.35724156e-06,
          1.58363014e-06, 2.30785713e-06, 1.39777353e-06, 1.56382021e-06,
          2.40191730e-06, 1.38284963e-06, 1.58533658e-06, 2.42321380e-06,
          1.40436600e-06, 1.60663296e-06, 2.44451007e-06, 1.41741918e-06,
          1.59627200e-06, 2.43208819e-06, 1.40705822e-06, 1.59627200e-06,
          2.43208819e-06, 1.39488338e-06, 1.57475563e-06, 2.41079192e-06,
          1.37336701e-06, 1.62103004e-06, 2.41079192e-06, 1.41718681e-06,
          1.62103004e-06, 2.41079192e-06, 1.41718681e-06, 1.68491920e-06,
          2.30354976e-06, 1.49580990e-06, 1.64219625e-06, 2.26019665e-06,
          1.45289687e-06, 1.55682062e-06, 2.15352475e-06, 1.56627959e-06,
          1.59754268e-06, 2.19630761e-06, 1.56440876e-06, 1.54830354e-06,
          2.09361656e-06, 1.58944840e-06, 1.49667301e-06, 2.04198614e-06,
          1.58906835e-06, 1.52770633e-06, 2.01127182e-06, 1.54547160e-06,
          1.49775224e-06, 1.98131784e-06, 1.52815642e-06, 1.56495332e-06,
          2.00147383e-06, 1.35629477e-06, 1.56419321e-06, 2.00071372e-06,
          1.35553455e-06, 1.54210670e-06, 1.91495792e-06, 1.41451198e-06,
          1.53836515e-06, 1.91533809e-06, 1.41077044e-06, 1.40687519e-06,
          1.93682445e-06, 1.30307762e-06, 1.36117819e-06, 1.89046750e-06,
          1.25738063e-06, 1.30327930e-06, 1.95470989e-06, 1.05244271e-06,
          1.26684336e-06, 1.92077482e-06, 1.01600665e-06, 1.16794899e-06,
          2.19743788e-06, 3.19493154e-07, 1.18880541e-06, 2.21873438e-06,
          3.40349573e-07, 1.04426658e-06, 2.26998486e-06, 5.48913704e-07,
          1.11021666e-06, 2.33387391e-06, 6.14863666e-07, 1.07889366e-06,
          2.26710608e-06, 8.45688021e-07, 1.08777135e-06, 2.27576356e-06,
          8.54565656e-07, 1.02705349e-06, 2.18220885e-06, 9.56965209e-07,
          9.80479626e-07, 2.13563499e-06, 9.10391236e-07, 1.07850440e-06,
          1.93998608e-06, 9.92811692e-07, 1.13205215e-06, 1.98675025e-06,
          1.04635956e-06, 1.19126480e-06, 2.09651785e-06, 9.80802952e-07,
          1.22052347e-06, 2.12577652e-06, 1.01006162e-06, 1.18418802e-06,
          2.21342725e-06, 9.99341296e-07, 1.20548441e-06, 2.23472352e-06,
          1.02063780e-06, 1.18317860e-06, 2.44029548e-06, 7.04330887e-07,
          1.23784525e-06, 2.47461071e-06, 7.58997658e-07, 1.13732654e-06,
          2.56763337e-06, 8.14995701e-07, 1.16882302e-06, 2.57199463e-06,
          8.46492242e-07, 1.32565344e-06, 2.37185941e-06, 1.35488722e-06,
          1.35304367e-06, 2.37211430e-06, 1.40825034e-06, 1.30904425e-06,
          2.37628547e-06, 1.43140983e-06, 1.34575521e-06, 2.40621262e-06,
          1.45080548e-06, 1.19016920e-06, 2.39399924e-06, 1.36481174e-06,
          1.02717706e-06, 2.24476480e-06, 1.20200957e-06, 8.23519827e-07,
          2.19262461e-06, 1.24750954e-06, 7.73438614e-07, 2.16289504e-06,
          1.19742833e-06, 8.14448526e-07, 2.22022163e-06, 1.11473400e-06,
          7.95593053e-07, 2.20136621e-06, 1.09587859e-06, 9.90253398e-07,
          2.29421698e-06, 9.52600033e-07, 1.05639037e-06, 2.35452035e-06,
          1.01873707e-06, 1.16301294e-06, 2.10388862e-06, 1.31125512e-06,
          1.19694812e-06, 2.13782369e-06, 1.33653259e-06, 1.33632386e-06,
          2.20816924e-06, 1.29210616e-06, 1.31822014e-06, 2.20363336e-06,
          1.28266004e-06, 1.25925419e-06, 2.28688145e-06, 1.13293356e-06,
          1.25586007e-06, 2.29781494e-06, 1.12915927e-06, 1.27513601e-06,
          2.25584199e-06, 1.17273021e-06, 1.26197688e-06, 2.24832638e-06,
          1.16033129e-06, 1.25207498e-06, 2.31261788e-06, 9.88072770e-07,
          1.22553047e-06, 2.29342731e-06, 9.60197895e-07, 1.20124105e-06,
          2.24430300e-06, 9.91133902e-07, 1.19011270e-06, 2.23317488e-06,
          9.81715971e-07, 1.16468482e-06, 2.20798643e-06, 9.47207980e-07,
          1.27515784e-06, 2.31845956e-06, 1.03170805e-06, 6.67684390e-07,
          1.74444119e-06, 4.56477864e-07, 1.06420339e-06, 2.14096008e-06,
          8.52996834e-07, 8.63110472e-07, 1.93614505e-06, 5.85586065e-07,
          7.82080804e-07, 1.85511533e-06, 5.04556340e-07, 7.71968587e-07,
          1.91648769e-06, 4.56153884e-07, 7.83546398e-07, 1.92806556e-06,
          4.67731667e-07, 6.97611711e-07, 1.93074266e-06, 3.96957461e-07,
          7.38745030e-07, 1.97187592e-06, 4.38090780e-07, 8.78082687e-07,
          2.13180579e-06, 5.79011328e-07, 9.45218233e-07, 2.20572520e-06,
          6.46146873e-07, 1.02231422e-06, 2.16344711e-06, 8.80282983e-07,
          1.05789559e-06, 2.19902836e-06, 9.15864291e-07, 1.12790599e-06,
          2.15240789e-06, 1.14289719e-06, 1.20121376e-06, 2.22571566e-06,
          1.21620508e-06, 1.23398149e-06, 2.28651675e-06, 1.24802432e-06,
          1.28838428e-06, 2.32443313e-06, 1.30242711e-06, 1.33288677e-06,
          2.33381297e-06, 1.23199925e-06, 1.30792921e-06, 2.28412569e-06,
          1.20704181e-06, 1.24098676e-06, 2.38651069e-06, 8.30843874e-07,
          1.16492743e-06, 2.32509706e-06, 7.54784537e-07, 1.07234086e-06,
          2.30601472e-06, 5.13096950e-07, 1.03359946e-06, 2.27323562e-06,
          4.74355545e-07, 9.51749087e-07, 2.35134439e-06, 3.48266013e-07,
          9.90740887e-07, 2.39033625e-06, 3.87257785e-07, 1.07592643e-06,
          2.31866829e-06, 6.44904105e-07, 1.15837111e-06, 2.39905216e-06,
          7.27348777e-07, 1.18715491e-06, 2.63846073e-06, 3.22747098e-07,
          1.22991082e-06, 2.68121676e-06, 3.65503041e-07, 1.28072247e-06,
          2.61722926e-06, 6.31620992e-07, 1.27626288e-06, 2.61276955e-06,
          6.27161455e-07, 1.56717601e-06, 2.18362584e-06, 1.46867296e-06,
          1.43378963e-06, 2.24396786e-06, 1.40598820e-06, 1.45508602e-06,
          2.26526436e-06, 1.42747467e-06, 1.36739959e-06, 2.32915340e-06,
          1.34855702e-06, 1.40793156e-06, 2.37174640e-06, 1.38908899e-06,
          1.34220159e-06, 2.45693195e-06, 1.39549149e-06, 1.35107621e-06,
          2.46580657e-06, 1.40436600e-06, 1.35107621e-06, 2.50839935e-06,
          1.40068437e-06, 1.35313701e-06, 2.50839935e-06, 1.40274528e-06,
          1.26633063e-06, 2.48710285e-06, 1.40543614e-06, 1.25324880e-06,
          2.47468120e-06, 1.39235431e-06, 1.21499761e-06, 2.53857024e-06,
          1.30839578e-06, 1.23813481e-06, 2.55910641e-06, 1.33115293e-06,
          1.24228643e-06, 2.64372193e-06, 1.15459920e-06, 1.24234634e-06,
          2.64334176e-06, 1.15465912e-06, 1.35088908e-06, 2.53685994e-06,
          1.34495417e-06, 1.36952463e-06, 2.55777627e-06, 1.36358972e-06,
          1.29678767e-06, 2.38272855e-06, 1.45699346e-06, 1.21160213e-06,
          2.29754278e-06, 1.37180791e-06, 1.31519755e-06, 2.11415272e-06,
          1.54623183e-06, 1.36158144e-06, 2.16053672e-06, 1.55469945e-06,
          1.13156796e-06, 2.30455476e-06, 1.09360064e-06, 1.11349243e-06,
          2.28647946e-06, 1.07552523e-06, 1.26995940e-06, 2.32053981e-06,
          9.85788347e-07, 1.29108525e-06, 2.34600748e-06, 1.00691432e-06,
          1.10833071e-06, 2.24420182e-06, 9.93510412e-07, 1.07053916e-06,
          2.20597030e-06, 9.55718860e-07, 1.04585683e-06, 1.96753876e-06,
          1.33571200e-06, 9.88154397e-07, 1.91211711e-06, 1.27800956e-06,
          9.19434058e-07, 2.09961354e-06, 6.97515588e-07, 9.61396836e-07,
          2.14201623e-06, 7.39478367e-07, 9.06684761e-07, 2.24849828e-06,
          8.23124026e-07, 9.27981148e-07, 2.26979478e-06, 8.44420413e-07,
          9.08502898e-07, 2.35519724e-06, 7.85345208e-07, 9.38456935e-07,
          2.38515122e-06, 8.15299245e-07, 9.28071870e-07, 2.45160504e-06,
          5.80581514e-07, 9.23395362e-07, 2.44692865e-06, 5.75905005e-07,
          1.11336840e-06, 2.17683692e-06, 7.79011827e-07, 1.10283702e-06,
          2.15952173e-06, 7.68480390e-07, 1.11876147e-06, 2.22669655e-06,
          7.64243850e-07, 1.14871546e-06, 2.25665053e-06, 7.94197888e-07,
          1.16219621e-06, 2.14227111e-06, 1.09378175e-06, 1.17725767e-06,
          2.15054865e-06, 1.10884309e-06, 1.19284573e-06, 2.15908108e-06,
          1.15775276e-06, 1.24334122e-06, 2.18922514e-06, 1.20824825e-06,
          1.25817451e-06, 2.33817468e-06, 1.04239120e-06, 1.32267724e-06,
          2.38910980e-06, 1.10689405e-06, 1.51913002e-06, 2.31277204e-06,
          1.33369451e-06, 1.56459043e-06, 2.35144830e-06, 1.37915481e-06,
          1.55711643e-06, 2.38885946e-06, 1.33776803e-06, 1.61780133e-06,
          2.43597651e-06, 1.38979522e-06, 1.53541828e-06, 2.69412476e-06,
          1.20606944e-06, 1.42934141e-06, 2.59622470e-06, 1.09999257e-06,
          1.34015454e-06, 2.50144626e-06, 1.09238249e-06, 1.26589441e-06,
          2.45432147e-06, 1.01812236e-06, 1.20116022e-06, 2.39807514e-06,
          7.84577992e-07, 1.19343451e-06, 2.38356552e-06, 7.76852289e-07,
          1.12554198e-06, 2.36088954e-06, 7.88912757e-07, 1.13517513e-06,
          2.35036123e-06, 7.98545784e-07, 1.14078659e-06, 2.26348766e-06,
          1.25511349e-06, 1.15646162e-06, 2.25919121e-06, 1.27078852e-06,
          1.09935274e-06, 2.25828990e-06, 1.28447232e-06, 1.09317034e-06,
          2.25210738e-06, 1.27828980e-06, 1.19333492e-06, 2.28603267e-06,
          1.24477060e-06, 9.89273531e-07, 2.10384314e-06, 1.03975890e-06,
          1.63566085e-07, 1.23058635e-06, 2.30942220e-07,
          -2.80571243e-07, 7.93232800e-07, -2.13195108e-07,
          -2.27983605e-07, 7.97559721e-07, -2.68705179e-07,
          1.70459430e-07, 1.20278662e-06, 1.29737856e-07, 3.31773293e-07,
          1.30701039e-06, 2.53144577e-07, -3.42578033e-07,
          6.46226681e-07, -4.21206749e-07, -6.80222513e-07,
          3.96395762e-07, -8.99220083e-07, 1.68286704e-06,
          2.62911658e-06, 1.45521176e-06, 9.03397563e-07, 1.98699263e-06,
          7.94115806e-07, 1.01588262e-06, 2.09269388e-06, 9.06981029e-07,
          9.09286200e-07, 2.03406830e-06, 7.54655503e-07, 8.19845923e-07,
          1.94462814e-06, 6.65215225e-07, 6.82642792e-07, 1.76761057e-06,
          8.62479055e-07, 6.59973637e-07, 1.74494130e-06, 8.39809843e-07,
          6.21677259e-07, 1.80307848e-06, 6.78155970e-07, 6.21380991e-07,
          1.80278221e-06, 6.77859703e-07, 8.20410207e-07, 1.92561743e-06,
          7.15137446e-07, 8.49124831e-07, 1.95433199e-06, 7.43852070e-07,
          8.31593923e-07, 1.91717527e-06, 6.87383533e-07, 8.75418493e-07,
          1.96099973e-06, 7.31208104e-07, 1.00763816e-06, 2.07967901e-06,
          5.97869928e-07, 1.05751235e-06, 2.12955320e-06, 6.47744059e-07,
          1.09256541e-06, 2.18328773e-06, 5.77518904e-07, 1.16488843e-06,
          2.25561075e-06, 6.49841922e-07, 1.19581671e-06, 2.31741228e-06,
          6.46035971e-07, 1.24573637e-06, 2.36733194e-06, 6.95955634e-07,
          1.07552887e-06, 2.26237944e-06, 5.92597701e-07, 1.12367718e-06,
          2.31074773e-06, 6.40746066e-07, 1.09171265e-06, 2.37810468e-06,
          6.46376293e-07, 1.05519939e-06, 2.34137156e-06, 6.09863150e-07,
          9.75105991e-07, 2.41922203e-06, 5.02205694e-07, 1.02234105e-06,
          2.45821366e-06, 5.49440699e-07, 9.78676212e-07, 2.43453724e-06,
          7.41153144e-07, 9.94239372e-07, 2.45216120e-06, 7.56716247e-07,
          8.90322610e-07, 2.37865220e-06, 8.45911472e-07, 9.40109317e-07,
          2.43049953e-06, 8.95698179e-07, 8.29668181e-07, 2.52897485e-06,
          8.21819526e-07, 8.40246116e-07, 2.54161364e-06, 8.32397461e-07,
          1.50122605e-06, 2.11935662e-06, 1.40234283e-06, 1.41043245e-06,
          2.22267158e-06, 1.38244093e-06, 1.43172883e-06, 2.24396786e-06,
          1.40411737e-06, 1.36739959e-06, 2.32915340e-06, 1.34855702e-06,
          1.40793156e-06, 2.37174640e-06, 1.38908899e-06, 1.36349797e-06,
          2.47822823e-06, 1.41678788e-06, 1.38479436e-06, 2.49952473e-06,
          1.43808427e-06, 1.38479436e-06, 2.54211750e-06, 1.43459272e-06,
          1.46005902e-06, 2.61488140e-06, 1.50966719e-06, 1.35379696e-06,
          2.57228839e-06, 1.49271239e-06, 1.23879477e-06, 2.45338470e-06,
          1.37752022e-06, 1.20444531e-06, 2.51708389e-06, 1.29784337e-06,
          1.24865892e-06, 2.55910641e-06, 1.34167692e-06, 1.27204601e-06,
          2.66501843e-06, 1.18435889e-06, 1.28950069e-06, 2.68593476e-06,
          1.20181357e-06, 1.37424627e-06, 2.55815621e-06, 1.36831136e-06,
          1.37180541e-06, 2.55777627e-06, 1.36587050e-06, 1.29906857e-06,
          2.38272855e-06, 1.45927424e-06, 1.21388291e-06, 2.29754278e-06,
          1.37408870e-06, 1.30466617e-06, 2.09683753e-06, 1.53570033e-06,
          1.40612144e-06, 2.19807293e-06, 1.56132319e-06, 1.16005822e-06,
          2.32604134e-06, 1.12209091e-06, 1.15516173e-06, 2.32136472e-06,
          1.11719442e-06, 1.29749913e-06, 2.34335653e-06, 1.01332819e-06,
          1.31411900e-06, 2.35997641e-06, 1.02994807e-06, 1.12886369e-06,
          2.25817098e-06, 1.01404339e-06, 1.18469529e-06, 2.31378272e-06,
          1.06987500e-06, 1.17243178e-06, 2.08798974e-06, 1.46228695e-06,
          1.12319697e-06, 2.04103571e-06, 1.41305202e-06, 1.07602295e-06,
          2.24963856e-06, 8.54104485e-07, 1.07526273e-06, 2.24887845e-06,
          8.53344318e-07, 9.13848680e-07, 2.24887845e-06, 8.30287945e-07,
          9.35145067e-07, 2.27017472e-06, 8.51584332e-07, 9.26247822e-07,
          2.36799906e-06, 8.03090131e-07, 9.43563123e-07, 2.38531447e-06,
          8.20405376e-07, 9.57493626e-07, 2.48102697e-06, 6.10003326e-07,
          9.27539645e-07, 2.45107276e-06, 5.80049289e-07, 1.10885503e-06,
          2.17232355e-06, 7.74498460e-07, 1.08568486e-06, 2.14236957e-06,
          7.51328230e-07, 1.11892462e-06, 2.22685981e-06, 7.64406991e-07,
          1.21605353e-06, 2.32398861e-06, 8.61535966e-07, 1.16389651e-06,
          2.13718772e-06, 1.09548205e-06, 1.16389651e-06, 2.13718772e-06,
          1.09548205e-06, 1.17324964e-06, 2.13270118e-06, 1.13815668e-06,
          1.22561903e-06, 2.17150296e-06, 1.19052606e-06, 1.21635310e-06,
          2.30313708e-06, 1.00056991e-06, 1.29307114e-06, 2.37985523e-06,
          1.07728783e-06, 1.49253265e-06, 2.33366131e-06, 1.30709702e-06,
          1.49988659e-06, 2.33423157e-06, 1.31445108e-06, 1.53013900e-06,
          2.40936856e-06, 1.30213289e-06, 1.59885440e-06, 2.45215142e-06,
          1.35353298e-06, 1.50070230e-06, 2.71409090e-06, 1.17154354e-06,
          1.53409269e-06, 2.73159617e-06, 1.20493405e-06, 1.54829638e-06,
          2.80035192e-06, 1.30052433e-06, 1.47922731e-06, 2.70157352e-06,
          1.23145526e-06, 1.36466861e-06, 2.59550279e-06, 9.48086438e-07,
          1.30715284e-06, 2.53120311e-06, 8.90570675e-07, 1.18944013e-06,
          2.45173305e-06, 8.53000984e-07, 1.10578890e-06, 2.34773029e-06,
          7.69349640e-07, 1.10768713e-06, 2.24300561e-06, 1.22258416e-06,
          1.12908367e-06, 2.25083454e-06, 1.24398071e-06, 1.06658479e-06,
          2.22400149e-06, 1.25246459e-06, 1.10538349e-06, 2.25601639e-06,
          1.29126317e-06, 1.28422153e-06, 2.35149423e-06, 1.33470689e-06,
          5.86604415e-07, 1.65895062e-06, 6.38040092e-07,
          -2.03148147e-06, -1.00516434e-06, -1.96410542e-06,
          -3.67418443e-06, -2.72746843e-06, -3.70065163e-06,
          -3.69459394e-06, -2.73091905e-06, -3.80053507e-06,
          -2.85525402e-06, -1.86362979e-06, -2.89597551e-06,
          -2.65826111e-06, -1.71015949e-06, -2.73688988e-06,
          -3.74706042e-06, -2.74534477e-06, -3.87953514e-06,
          -3.74643378e-06, -2.72740908e-06, -3.87297905e-06,
          1.00958948e-06, 2.05907236e-06, 7.90591912e-07, 1.05157324e-06,
          2.10803296e-06, 9.42671591e-07, 1.11826819e-06, 2.17472802e-06,
          1.00936666e-06, 1.05233801e-06, 2.13641715e-06, 8.97707253e-07,
          9.07787751e-07, 1.99865076e-06, 7.53157053e-07, 8.32606133e-07,
          1.89043851e-06, 1.01244234e-06, 8.13563645e-07, 1.87817989e-06,
          9.93399908e-07, 7.75407784e-07, 1.93645747e-06, 8.31886496e-07,
          7.44171643e-07, 1.91878917e-06, 8.00650355e-07, 8.63463924e-07,
          1.96188716e-06, 7.58191106e-07, 8.87314968e-07, 1.99252213e-06,
          7.82042207e-07, 8.77334742e-07, 1.96269593e-06, 7.33124295e-07,
          8.95030098e-07, 1.98039152e-06, 7.50819709e-07, 9.83010523e-07,
          2.05483138e-06, 5.73242289e-07, 1.02459194e-06, 2.09641280e-06,
          6.14823648e-07, 1.09673965e-06, 2.18724199e-06, 5.81693087e-07,
          1.12125394e-06, 2.21197615e-06, 6.06207379e-07, 1.04872709e-06,
          2.17032266e-06, 4.98946406e-07, 1.01800129e-06, 2.13959675e-06,
          4.68220520e-07, 9.38123151e-07, 2.12497366e-06, 4.55192037e-07,
          1.01808848e-06, 2.20515903e-06, 5.35157426e-07, 9.94283710e-07,
          2.28067574e-06, 5.48947355e-07, 1.00563341e-06, 2.29180546e-06,
          5.60297110e-07, 8.93114759e-07, 2.28983208e-06, 4.20214405e-07,
          1.00231466e-06, 2.39903193e-06, 5.29414308e-07, 1.01773219e-06,
          2.43237719e-06, 7.80209120e-07, 1.05143840e-06, 2.46586319e-06,
          8.13915335e-07, 9.38861035e-07, 2.43543377e-06, 8.94449897e-07,
          9.99583108e-07, 2.49615573e-06, 9.55172027e-07, 8.70480847e-07,
          2.56978751e-06, 8.62632135e-07, 8.77294610e-07, 2.57866213e-06,
          8.69445955e-07, 1.41384953e-06, 2.16080912e-06, 1.35793914e-06,
          1.37138682e-06, 2.18305581e-06, 1.33781305e-06, 1.43527609e-06,
          2.24732503e-06, 1.40208226e-06, 1.28620127e-06, 2.39658993e-06,
          1.35959272e-06, 1.30543685e-06, 2.41788644e-06, 1.37882830e-06,
          1.32489242e-06, 2.48177548e-06, 1.44131661e-06, 1.34662878e-06,
          2.50307198e-06, 1.46305297e-06, 1.36792517e-06, 2.48177548e-06,
          1.63342418e-06, 9.87637009e-07, 2.09844643e-06, 1.31588490e-06,
          6.71803946e-07, 1.74167121e-06, 8.18878391e-07, 1.57547595e-06,
          2.63916081e-06, 1.59477202e-06, 1.65483038e-06, 2.60245952e-06,
          1.62339097e-06, 1.05590050e-06, 2.00235945e-06, 1.08778011e-06,
          -6.92834305e-07, 4.48120616e-08, -9.85323027e-07,
          6.73175748e-07, 1.41310295e-06, 3.80687027e-07, 1.53450424e-06,
          2.40242980e-06, 1.11536531e-06, 1.79405174e-06, 2.66425809e-06,
          1.37491293e-06, 1.77532638e-06, 2.81523353e-06, 1.26641032e-06,
          1.68652991e-06, 2.72567672e-06, 1.17704371e-06, 1.34430752e-06,
          2.18917035e-06, 1.57923398e-06, 1.52127552e-06, 2.36819915e-06,
          1.57717318e-06, 1.31777972e-06, 2.20180891e-06, 1.47906781e-06,
          1.47359185e-06, 2.35499010e-06, 1.57061061e-06, 1.27203157e-06,
          2.21121695e-06, 1.55885232e-06, 1.64045730e-06, 2.58116302e-06,
          1.57055069e-06, 1.12238638e-06, 2.16787384e-06, 1.27863746e-06,
          6.33054810e-07, 1.67702183e-06, 7.88355578e-07, 1.29314788e-06,
          2.34681806e-06, 1.21238293e-06, 1.34147183e-06, 2.39758288e-06,
          1.26108694e-06, 1.16675903e-06, 2.29167108e-06, 9.85243901e-07,
          1.07549192e-06, 2.19945377e-06, 8.93406593e-07, 1.03987622e-06,
          2.27010014e-06, 8.05220509e-07, 9.55290716e-07, 2.18529453e-06,
          7.20635001e-07, 9.73116244e-07, 2.19835147e-06, 6.53931920e-07,
          9.65144181e-07, 2.19037929e-06, 6.45959744e-07, 9.64550281e-07,
          2.26916086e-06, 6.18010688e-07, 1.14073828e-06, 2.44534885e-06,
          7.94198684e-07, 1.16336503e-06, 2.38664597e-06, 6.30214458e-07,
          7.00297676e-07, 1.91679464e-06, 1.67147135e-07, 4.92675952e-07,
          1.70917303e-06, 4.79967390e-08, 1.28294312e-06, 2.49944014e-06,
          8.38263873e-07, 1.21757569e-06, 2.36727692e-06, 8.05713114e-07,
          1.14912541e-06, 2.29882653e-06, 7.37262781e-07, 1.14296506e-06,
          2.29940656e-06, 7.43551141e-07, 1.16445142e-06, 2.32089292e-06,
          7.65037612e-07, 1.22056849e-06, 2.34256959e-06, 7.92927779e-07,
          1.30219655e-06, 2.41062980e-06, 8.74555781e-07, 1.36987671e-06,
          2.44020384e-06, 9.74194563e-07, 1.33973265e-06, 2.41005978e-06,
          9.44050441e-07, 1.30963474e-06, 2.47003254e-06, 1.03631407e-06,
          1.51259394e-06, 2.67977566e-06, 1.23927327e-06, 1.68890301e-06,
          2.84566045e-06, 1.39497263e-06, 1.82332781e-06, 2.99492513e-06,
          1.47745152e-06, 1.51763265e-06, 2.81083976e-06, 1.34028835e-06,
          1.51657957e-06, 2.78505695e-06, 1.34789286e-06, 1.44842818e-06,
          2.73778755e-06, 1.20594541e-06, 1.37489099e-06, 2.63153402e-06,
          1.13240810e-06, 1.41945054e-06, 2.60268257e-06, 1.18499202e-06,
          1.28288616e-06, 2.45933438e-06, 1.04842752e-06, 1.16284878e-06,
          2.39430096e-06, 1.07107746e-06, 1.13619569e-06, 2.36086385e-06,
          1.04442427e-06, 1.16900492e-06, 2.27210444e-06, 1.16546357e-06,
          1.16993374e-06, 2.25946565e-06, 1.16639251e-06, 1.27424732e-06,
          2.33627225e-06, 1.29479497e-06, 1.15113096e-06, 2.21315577e-06,
          1.17167872e-06, -2.00542081e-06, -1.02092235e-06,
          -1.81316352e-06, -3.65440724e-06, -2.71231488e-06,
          -3.65659912e-06, -3.66182053e-06, -2.71437557e-06,
          -3.59034061e-06, -1.95719736e-06, -8.93814672e-07,
          -1.79054382e-06, -2.67033943e-06, -1.70257988e-06,
          -2.67682799e-06, -3.70549924e-06, -2.72473676e-06,
          -3.70864154e-06, -3.69425516e-06, -2.72141665e-06,
          -3.66271820e-06, 1.11553561e-06, 2.11457950e-06,
          1.01455294e-06, 1.15239641e-06, 2.06662662e-06, 1.26086672e-06,
          1.18797948e-06, 2.07583457e-06, 1.29625982e-06, 1.15002615e-06,
          2.12383065e-06, 1.30805813e-06, 1.06973403e-06, 2.04334856e-06,
          1.22757592e-06, 7.38733206e-07, 1.73556134e-06, 1.04470575e-06,
          8.41977510e-07, 1.86594104e-06, 1.14795000e-06, 8.70818667e-07,
          2.00434692e-06, 1.10945143e-06, 8.69418272e-07, 2.04364937e-06,
          1.10805092e-06, 8.73493150e-07, 2.00474778e-06, 8.13829615e-07,
          8.71136990e-07, 2.00917566e-06, 8.11473512e-07, 9.80838877e-07,
          2.07801031e-06, 6.63480080e-07, 9.71614099e-07, 2.07556945e-06,
          6.54255359e-07, 1.05592983e-06, 2.07726180e-06, 6.46377714e-07,
          1.05612412e-06, 2.07745620e-06, 6.46572062e-07, 1.09029884e-06,
          2.10465396e-06, 6.36134587e-07, 1.10721942e-06, 2.12179452e-06,
          6.53055110e-07, 1.03404602e-06, 2.14328088e-06, 5.38660402e-07,
          1.02561262e-06, 2.13484759e-06, 5.30227112e-07, 8.97086295e-07,
          2.10755138e-06, 5.70369082e-07, 9.23298785e-07, 2.13376393e-06,
          5.96581572e-07, 9.30109593e-07, 2.13568410e-06, 7.09394158e-07,
          9.36782897e-07, 2.14235752e-06, 7.16067461e-07, 9.15248904e-07,
          2.21361711e-06, 7.12383724e-07, 9.74190471e-07, 2.27255873e-06,
          7.71325290e-07, 9.98872679e-07, 2.22680455e-06, 8.17428827e-07,
          9.78016033e-07, 2.20572792e-06, 7.96572181e-07, 1.00112516e-06,
          2.25309691e-06, 8.24091387e-07, 1.12243583e-06, 2.37440759e-06,
          9.45402064e-07, 1.20508344e-06, 2.55880491e-06, 9.55028213e-07,
          1.20131494e-06, 2.55481655e-06, 9.51259665e-07, 1.42589124e-06,
          2.17285083e-06, 1.36998085e-06, 1.36875587e-06, 2.18210562e-06,
          1.33480194e-06, 1.43321517e-06, 2.24656492e-06, 1.39926124e-06,
          1.26284408e-06, 2.37491349e-06, 1.33547530e-06, 1.28414047e-06,
          2.39658993e-06, 1.35715175e-06, 1.28229965e-06, 2.43918271e-06,
          1.39872384e-06, 1.34662878e-06, 2.50307198e-06, 1.46305297e-06,
          1.42769272e-06, 2.54566476e-06, 1.62892252e-06,
          -1.37394193e-06, -2.61071847e-07, -1.04569403e-06,
          -2.38298526e-06, -1.31105708e-06, -2.23591064e-06,
          5.14615238e-07, 1.57992088e-06, 6.61689683e-07, 1.41279543e-06,
          2.35932453e-06, 1.44524518e-06, 1.87297374e-07, 1.13155625e-06,
          2.19176968e-07, -3.50761184e-06, -2.30342471e-06,
          -3.28898705e-06, -2.40047893e-06, -1.66415259e-06,
          -2.69296766e-06, -6.60986871e-07, 2.06498711e-07,
          -1.08012580e-06, 1.54356485e-06, 2.41333123e-06,
          1.12442592e-06, 1.95782923e-06, 3.01761247e-06, 1.46963941e-06,
          1.44535534e-06, 2.48406218e-06, 9.35869139e-07, 1.52127552e-06,
          2.36819915e-06, 1.57717318e-06, 1.42531485e-06, 2.27128817e-06,
          1.58674425e-06, 1.33487799e-06, 2.21890741e-06, 1.49616608e-06,
          1.94451150e-06, 2.87909575e-06, 1.58135174e-06, 1.39754229e-06,
          2.33802803e-06, 1.58319256e-06, 1.12728287e-06, 2.07004950e-06,
          1.44071146e-06, 1.23030418e-06, 2.27427131e-06, 1.38560506e-06,
          -1.87227738e-06, -8.28530347e-07, -1.71697661e-06,
          -1.28082502e-06, -2.25093927e-07, -1.36158997e-06,
          6.25767370e-07, 1.68149847e-06, 5.45002365e-07, 1.22839754e-06,
          2.35213952e-06, 1.04631226e-06, 1.54898385e-06, 2.67272571e-06,
          1.36689857e-06, 1.13304384e-06, 2.36421806e-06, 8.98958262e-07,
          1.04652793e-06, 2.27675173e-06, 8.11872212e-07, 9.69105145e-07,
          2.19456024e-06, 6.49920821e-07, 6.46618446e-07, 1.87207354e-06,
          3.27434066e-07, 7.89457545e-07, 2.09612904e-06, 4.42918008e-07,
          -1.31608942e-07, 1.17506249e-06, -4.78148536e-07,
          -1.34994946e-06, -1.24607794e-07, -1.88310003e-06,
          -1.92348989e-06, -7.04931892e-07, -2.45664023e-06,
          -2.43820432e-06, -1.21964649e-06, -2.88288356e-06,
          1.11467239e-06, 2.33323021e-06, 6.69993142e-07, 1.34701952e-06,
          2.49878144e-06, 9.35157004e-07, 9.84845656e-07, 2.13660769e-06,
          5.72983083e-07, 1.17671311e-06, 2.34199933e-06, 7.77299306e-07,
          1.18368700e-06, 2.34218942e-06, 7.84273197e-07, 1.21850769e-06,
          2.34256959e-06, 7.90866977e-07, 1.26129055e-06, 2.38535222e-06,
          8.33649835e-07, 1.31013508e-06, 2.39609062e-06, 9.14452869e-07,
          1.15934984e-06, 2.24530550e-06, 7.63667629e-07, 8.85925658e-07,
          2.05722904e-06, 6.12604936e-07, 1.03271987e-06, 2.20402308e-06,
          7.59399143e-07, 1.16421643e-06, 2.34072400e-06, 8.87601288e-07,
          1.26774682e-06, 2.45043680e-06, 9.91131628e-07, 1.62900540e-06,
          2.94221923e-06, 1.40837278e-06, 1.20963989e-06, 2.51667120e-06,
          1.04095318e-06, 1.39994825e-06, 2.69102361e-06, 1.15746536e-06,
          1.41351586e-06, 2.69102361e-06, 1.17103309e-06, 1.50350024e-06,
          2.71232011e-06, 1.26904172e-06, 1.47291246e-06, 2.62900926e-06,
          1.23845393e-06, 1.36723008e-06, 2.60546585e-06, 1.27545866e-06,
          1.30966475e-06, 2.54111683e-06, 1.21789333e-06, 1.32648256e-06,
          2.42958231e-06, 1.32294133e-06, 1.19990489e-06, 2.27586929e-06,
          1.19636366e-06, 1.21756057e-06, 2.26601787e-06, 1.23810833e-06,
          1.19396384e-06, 2.24242103e-06, 1.21451149e-06,
          -1.80858751e-06, -8.44440592e-07, -1.61633034e-06,
          -3.63202298e-06, -2.71231488e-06, -3.63516529e-06,
          -3.63310551e-06, -2.71849717e-06, -3.56029523e-06,
          -2.02522870e-06, -9.95765276e-07, -1.85857527e-06,
          -2.74876174e-06, -1.82170527e-06, -2.75525031e-06,
          -3.64346647e-06, -2.72267584e-06, -3.64527841e-06,
          -2.89813602e-06, -1.94771906e-06, -3.30168859e-06,
          1.14886018e-06, 2.09249333e-06, 1.04863773e-06, 1.20701213e-06,
          2.06773166e-06, 1.31529237e-06, 1.42452870e-06, 2.27168061e-06,
          1.53280894e-06, 1.22934080e-06, 2.16244234e-06, 1.38737278e-06,
          1.48962067e-06, 2.41593830e-06, 1.64765254e-06, 1.33989272e-06,
          2.29601778e-06, 1.64586515e-06, -9.00883151e-07,
          7.55935474e-08, -5.94910659e-07, -1.59105298e-06,
          -4.84660120e-07, -1.35242033e-06, -1.61818832e-06,
          -4.84660120e-07, -1.37955567e-06, -6.80578466e-07,
          4.30324803e-07, -7.40241944e-07, 9.01870862e-07,
          2.03312561e-06, 8.42207328e-07, 9.20878506e-07, 2.01826992e-06,
          6.03519766e-07, 8.92965659e-07, 1.99714100e-06, 5.75606919e-07,
          9.47897490e-07, 1.96944939e-06, 5.38345432e-07, 9.70904580e-07,
          1.99223655e-06, 5.61352465e-07, 1.01392698e-06, 2.02828210e-06,
          5.59762725e-07, 1.05106756e-06, 2.06542268e-06, 5.96903249e-07,
          9.99980671e-07, 2.10877556e-06, 5.04595050e-07, 1.00017076e-06,
          2.10896565e-06, 5.04785135e-07, 9.01460908e-07, 2.11126599e-06,
          5.74743694e-07, 9.01240924e-07, 2.11126599e-06, 5.74523710e-07,
          9.05926697e-07, 2.11128122e-06, 6.85211205e-07, 8.70672579e-07,
          2.07624726e-06, 6.49957144e-07, 1.30536034e-06, 2.60372872e-06,
          1.10249516e-06, 1.00686066e-06, 2.30500882e-06, 8.03995420e-07,
          1.00963666e-06, 2.23734855e-06, 8.28192753e-07, 9.56515464e-07,
          2.18422724e-06, 7.75071555e-07, 9.63668981e-07, 2.21542064e-06,
          7.86635269e-07, 9.64019137e-07, 2.21599089e-06, 7.86985424e-07,
          9.39336132e-07, 2.29283773e-06, 6.89280910e-07, 9.92149126e-07,
          2.34565073e-06, 7.42093903e-07, 1.29548187e-06, 2.25746635e-06,
          1.28726742e-06, 1.29605201e-06, 2.27933288e-06, 1.24508472e-06,
          1.29624198e-06, 2.27952296e-06, 1.24527469e-06, 1.18782941e-06,
          2.42916781e-06, 1.12881048e-06, 1.20931577e-06, 2.45122442e-06,
          1.15086709e-06, 1.25212864e-06, 2.38771531e-06, 1.41114560e-06,
          1.33775416e-06, 2.47290086e-06, 1.49677123e-06, 5.21401603e-07,
          1.61319531e-06, 7.43607529e-07, -3.50845448e-06,
          -2.28910244e-06, -3.00939541e-06, -3.53056862e-06,
          -2.31045647e-06, -3.87170121e-06, -1.43989132e-06,
          -3.95882012e-07, -1.44123169e-06, 1.21060452e-06,
          2.20226775e-06, 1.13107967e-06, -2.08837628e-06,
          -1.10075371e-06, -2.16790090e-06, -3.51336394e-06,
          -2.31045647e-06, -3.84965642e-06, -3.51424387e-06,
          -2.31045647e-06, -3.85053636e-06, -3.51100289e-06,
          -2.30494493e-06, -3.86128113e-06, -1.15622561e-06,
          -2.04404458e-07, -1.44261446e-06, -8.71860095e-07,
          7.85302703e-08, -1.16984302e-06, -7.43921873e-07,
          2.08969340e-07, -1.04190474e-06, -8.09709434e-07,
          -3.20959934e-08, -7.66500136e-07, -1.20876098e-06,
          -4.31147498e-07, -1.16555168e-06, -1.20553466e-06,
          -3.61366801e-07, -1.16891351e-06, 7.27295287e-07,
          1.57146326e-06, 7.63916432e-07, 1.56751764e-06, 2.41057501e-06,
          1.58319256e-06, 1.63140680e-06, 2.47446405e-06, 1.58319256e-06,
          -5.87969510e-07, 3.45975508e-07, -6.78526703e-07,
          -2.86667319e-06, -2.30342471e-06, -2.95723044e-06,
          -3.51908375e-06, -2.31045647e-06, -3.90475498e-06,
          -2.33271317e-06, -1.28984516e-06, -2.48721949e-06,
          -8.06271885e-08, 1.04723631e-06, -4.05314609e-07,
          4.00436761e-07, 1.52830023e-06, 7.57493410e-08, 1.33202639e-06,
          2.46401146e-06, 1.00527814e-06, 7.09679568e-07, 1.84166470e-06,
          3.82931375e-07, -4.74960274e-07, 6.60364890e-07,
          -8.07895276e-07, -1.07258984e-06, 6.27353742e-08,
          -1.40552481e-06, -2.23471102e-06, -1.05515699e-06,
          -2.65047106e-06, -2.90003072e-06, -1.72047658e-06,
          -3.31579076e-06, -3.53067639e-06, -2.29195302e-06,
          -3.94264544e-06, -3.52921393e-06, -2.29803459e-06,
          -3.94137305e-06, -3.54278154e-06, -2.29290322e-06,
          -3.95494044e-06, 5.89145301e-08, 1.32363198e-06,
          -4.46897673e-07, 1.05596962e-06, 2.25833423e-06,
          5.88133560e-07, 1.35126845e-06, 2.55363307e-06, 8.83432449e-07,
          1.22482038e-06, 2.40588861e-06, 7.79225672e-07, 1.20352399e-06,
          2.38459211e-06, 7.57929286e-07, 1.21144285e-06, 2.33839842e-06,
          7.49271635e-07, 1.23330938e-06, 2.36026494e-06, 7.71138218e-07,
          1.20536129e-06, 2.35380321e-06, 7.26423650e-07, 7.61689932e-07,
          1.90334799e-06, 2.82752296e-07, -1.04196158e-06,
          1.01592015e-07, -1.42335432e-06, -1.34904349e-06,
          -2.05489826e-07, -1.73043611e-06, -1.54683426e-06,
          -3.41915978e-07, -1.80076040e-06, -9.33298566e-07,
          2.64835847e-07, -1.18722471e-06, 1.10218252e-06,
          2.36297046e-06, 9.55623818e-07, 1.18042476e-06, 2.42352348e-06,
          1.03386606e-06, 1.38771770e-06, 2.60634329e-06, 1.23703740e-06,
          1.40334623e-06, 2.60634329e-06, 1.25266592e-06, 1.46527475e-06,
          2.67819473e-06, 1.30724800e-06, 1.50764015e-06, 2.70347232e-06,
          1.34961351e-06, 1.50192568e-06, 2.69949123e-06, 1.46797333e-06,
          1.49048981e-06, 2.68685244e-06, 1.45653735e-06, 1.48926267e-06,
          2.66102393e-06, 1.41687178e-06, 1.45860827e-06, 2.59645049e-06,
          1.38621749e-06, 1.40416921e-06, 2.49959248e-06, 1.37385257e-06,
          1.36074675e-06, 2.46428408e-06, 1.33043011e-06,
          -1.47919275e-06, -4.17783440e-07, -1.45059767e-06,
          -3.36020184e-06, -2.21543860e-06, -3.28105193e-06,
          -3.31471938e-06, -2.05038032e-06, -2.75250159e-06,
          -1.93712617e-06, -9.76117235e-07, -1.67823873e-06,
          -2.67534233e-06, -1.73014894e-06, -2.49984737e-06,
          -3.35411323e-06, -2.33702622e-06, -2.93848188e-06,
          -2.41655084e-06, -1.49110758e-06, -2.17914362e-06,
          1.27588510e-06, 2.20811216e-06, 1.51329232e-06, 1.12057069e-06,
          1.93959590e-06, 1.40279724e-06, 1.69814803e-06, 2.50208518e-06,
          1.94612426e-06, 1.38348298e-06, 2.23381926e-06, 1.58584635e-06,
          1.63434640e-06, 2.49260688e-06, 1.81092696e-06, 1.20059678e-06,
          1.97066061e-06, 1.41405030e-06, -2.23280745e-06,
          -1.44917590e-06, -2.01935381e-06, -3.62317837e-06,
          -2.70613236e-06, -3.52310371e-06, -3.66324775e-06,
          -2.71323279e-06, -3.56412329e-06, -2.58817522e-06,
          -1.54926920e-06, -2.50647054e-06, -3.94355979e-08,
          1.01982187e-06, 4.22690682e-08, 7.93010372e-07, 1.90511923e-06,
          6.20334049e-07, 7.58556325e-07, 1.88401293e-06, 5.85880059e-07,
          6.96777477e-07, 1.90620995e-06, 4.56056085e-07, 6.84355712e-07,
          1.89378818e-06, 4.43634292e-07, 7.52456344e-07, 1.95916800e-06,
          5.19978187e-07, 7.49599053e-07, 1.95543089e-06, 5.17120895e-07,
          7.38999802e-07, 2.01028229e-06, 5.64655409e-07, 7.63587138e-07,
          2.03420950e-06, 5.89242745e-07, 7.60902367e-07, 2.06871482e-06,
          6.86620012e-07, 7.15148758e-07, 2.02406136e-06, 6.40866404e-07,
          6.30106285e-07, 2.03482932e-06, 5.38619815e-07, 6.23426899e-07,
          2.02858996e-06, 5.31940486e-07, 4.85004080e-07, 1.95519647e-06,
          2.94042735e-07, -1.33512032e-07, 1.33668038e-06,
          -3.24473376e-07, 8.25585914e-07, 2.19703384e-06,
          6.81038387e-07, 7.83373196e-07, 2.15482100e-06, 6.38825668e-07,
          8.16100510e-07, 2.10335793e-06, 6.74840692e-07, 8.08427387e-07,
          2.09568475e-06, 6.67167569e-07, 8.49356582e-07, 2.02948354e-06,
          7.58051101e-07, 9.25788413e-07, 2.10569533e-06, 8.34482933e-07,
          1.27323517e-06, 2.23521965e-06, 1.26502084e-06, 1.27174451e-06,
          2.25708618e-06, 1.22077722e-06, 1.27212468e-06, 2.25746635e-06,
          1.22115728e-06, 1.12318003e-06, 2.36451842e-06, 1.06416110e-06,
          1.42227987e-06, 2.66361826e-06, 1.36326094e-06, 1.33731419e-06,
          2.47290086e-06, 1.49595110e-06, 1.23127222e-06, 2.36641904e-06,
          1.39028919e-06, -1.95765415e-06, -8.65860500e-07,
          -1.73544834e-06, -3.51608605e-06, -2.29803459e-06,
          -3.16496153e-06, -3.53056862e-06, -2.31045647e-06,
          -3.87170121e-06, -3.52622715e-06, -2.31045647e-06,
          -3.86735974e-06, -1.32473713e-06, -3.26671454e-07,
          -1.40426187e-06, -3.50816231e-06, -2.30551518e-06,
          -3.84324403e-06, -3.50418168e-06, -2.30304454e-06,
          -3.28676765e-06, -2.98301484e-06, -2.31045647e-06,
          -3.25541782e-06, -3.51696463e-06, -2.31045647e-06,
          -3.86724287e-06, -3.50674281e-06, -2.29803459e-06,
          -3.85702106e-06, -3.50512209e-06, -2.29803459e-06,
          -3.86680404e-06, -3.50762275e-06, -2.29803459e-06,
          -3.86930515e-06, -2.82344740e-06, -2.29081274e-06,
          -2.78023799e-06, -3.51842391e-06, -2.31045647e-06,
          -3.88900935e-06, -3.50558980e-06, -2.30475484e-06,
          -3.29531167e-06, -7.72604665e-07, 6.95024198e-08,
          -7.35983519e-07, 1.57993941e-06, 2.42299666e-06,
          1.59561432e-06, 1.54302018e-06, 2.38718803e-06, 1.57942122e-06,
          -1.02225965e-06, -8.83145788e-08, -1.11281679e-06,
          -3.51702306e-06, -2.31045647e-06, -3.90225387e-06,
          -3.51908375e-06, -2.31045647e-06, -3.90475498e-06,
          -3.51908375e-06, -2.31045647e-06, -3.90475498e-06,
          -2.88774982e-06, -1.75988635e-06, -3.21243738e-06,
          -8.05084881e-07, 3.22778646e-07, -1.12977227e-06,
          -2.27256555e-06, -1.14058037e-06, -2.59931380e-06,
          -2.65761105e-06, -1.52562598e-06, -2.98435930e-06,
          -3.50418622e-06, -2.29233319e-06, -3.91036338e-06,
          -3.51007770e-06, -2.29803459e-06, -3.91701542e-06,
          -3.53714358e-06, -2.28561271e-06, -3.94930248e-06,
          -3.53714358e-06, -2.28561271e-06, -3.94930248e-06,
          -3.52357597e-06, -2.28561271e-06, -3.93573509e-06,
          -3.51679205e-06, -2.28561271e-06, -3.92895117e-06,
          -3.53035966e-06, -2.28561271e-06, -3.94251902e-06,
          -7.26893006e-07, 5.37824405e-07, -1.23270524e-06,
          9.79974971e-07, 2.18233959e-06, 5.12138968e-07, 1.08911763e-06,
          2.29148213e-06, 6.21281629e-07, 1.13057024e-06, 2.31163835e-06,
          6.84975475e-07, 1.17335298e-06, 2.35442121e-06, 7.27758277e-07,
          1.24516100e-06, 2.37211657e-06, 7.82989844e-07, 1.30962042e-06,
          2.43657587e-06, 8.47449201e-07, 1.21569258e-06, 2.36413462e-06,
          7.36754941e-07, 4.09222224e-07, 1.55088037e-06,
          -6.97154192e-08, -2.71030262e-06, -1.56674901e-06,
          -3.09169536e-06, -3.52428174e-06, -2.31045647e-06,
          -3.90908554e-06, -3.52944471e-06, -2.31045647e-06,
          -3.90230161e-06, -2.73890055e-06, -1.53870531e-06,
          -2.99282669e-06, 3.40114070e-07, 1.60296293e-06,
          1.93555337e-07, 1.18246192e-06, 2.42495935e-06, 1.03590321e-06,
          1.38186283e-06, 2.59370449e-06, 1.23118252e-06, 1.39070744e-06,
          2.59370449e-06, 1.24002713e-06, 1.44059857e-06, 2.65291737e-06,
          1.28257193e-06, 1.47265996e-06, 2.67819473e-06, 1.31463332e-06,
          1.47958428e-06, 2.68685244e-06, 1.44563194e-06, 1.51350343e-06,
          2.68685244e-06, 1.47955109e-06, 1.55297801e-06, 2.74208401e-06,
          1.48058723e-06, 1.59101887e-06, 2.74208401e-06, 1.51862798e-06,
          1.38116911e-06, 2.50934409e-06, 1.35085247e-06, 1.69864109e-06,
          2.79539472e-06, 1.66832456e-06, 1.13462829e-06, 2.19603771e-06,
          1.16322337e-06, 9.59124577e-07, 2.04088519e-06, 9.87719545e-07,
          5.39117934e-07, 1.50691062e-06, 7.98005317e-07, 1.33730282e-06,
          2.31187937e-06, 1.59619026e-06, 5.77877188e-07, 1.54342194e-06,
          7.53371978e-07, 3.83550457e-07, 1.34231141e-06, 5.59045247e-07,
          1.10605356e-06, 2.03828063e-06, 1.34346089e-06, 1.45719139e-06,
          2.38339476e-06, 1.69364853e-06, 9.73556666e-07, 1.79125152e-06,
          1.25578322e-06, -1.51376810e-06, -7.03047078e-07,
          -1.23116149e-06, -1.75728144e-06, -9.00161297e-07,
          -1.55491807e-06, -1.45218769e-06, -6.01851355e-07,
          -1.24982432e-06, -1.51252380e-06, -7.56027760e-07,
          -1.29907028e-06, -3.56479950e-06, -2.69412976e-06,
          -3.47185733e-06, -3.60961076e-06, -2.70613236e-06,
          -3.50953610e-06, -3.62317837e-06, -2.70613236e-06,
          -3.52310371e-06, -3.45432204e-06, -2.37369386e-06,
          -3.38525615e-06, -1.43756972e-06, -3.98663758e-07,
          -1.35586504e-06, -1.03634875e-06, 6.87563428e-08,
          -1.20902496e-06, -1.05800086e-06, 6.74557157e-08,
          -1.23067707e-06, -1.13163139e-06, 7.78011469e-08,
          -1.37235270e-06, -1.15232763e-06, 5.68848435e-08,
          -1.39304905e-06, -1.43515081e-07, 1.06297659e-06,
          -3.75993238e-07, 2.76732862e-07, 1.48234460e-06,
          4.42547012e-08, 6.36724963e-07, 1.90734750e-06, 4.62380626e-07,
          7.22100651e-07, 1.99272313e-06, 5.47756258e-07, 6.78503795e-07,
          1.98631642e-06, 6.04221441e-07, 6.78503795e-07, 1.98631642e-06,
          6.04221441e-07, 5.96372161e-07, 1.99933515e-06, 5.04885691e-07,
          5.74029343e-07, 1.97655231e-06, 4.82542873e-07,
          -2.29827583e-06, -8.30503382e-07, -2.48923720e-06,
          -2.37768973e-06, -9.09037283e-07, -2.56865110e-06,
          2.52890061e-07, 1.62345793e-06, 1.08342540e-07, 8.55180929e-07,
          2.22640870e-06, 7.10633401e-07, 1.04103776e-06, 2.32851517e-06,
          8.99777888e-07, 7.80819107e-07, 2.06807658e-06, 6.39559289e-07,
          7.84996359e-07, 1.96512337e-06, 6.93690879e-07, 7.52448386e-07,
          1.93235542e-06, 6.61142906e-07, 1.36802157e-06, 2.20409834e-06,
          1.29629814e-06, 1.35204834e-06, 2.14984402e-06, 1.34985623e-06,
          1.37334473e-06, 2.17114052e-06, 1.37115262e-06, 1.17651564e-06,
          2.46662944e-06, 1.00483237e-06, 1.39851284e-06, 2.68244412e-06,
          1.22682957e-06, 1.18934997e-06, 2.42859778e-06, 1.08754830e-06,
          -2.56833744e-07, 9.81973926e-07, -3.58635447e-07,
          -3.47904074e-06, -2.26076918e-06, -3.83069710e-06,
          -3.51003450e-06, -2.29252328e-06, -3.26653230e-06,
          -3.51608605e-06, -2.29803459e-06, -3.85721842e-06,
          -2.96215967e-06, -1.72303180e-06, -3.04773539e-06,
          -1.73246053e-06, -8.18700528e-07, -1.95256848e-06,
          -2.97095221e-06, -2.29803459e-06, -3.19087007e-06,
          -3.49618063e-06, -2.29328339e-06, -3.84137638e-06,
          -3.49732090e-06, -2.29803459e-06, -3.84251643e-06,
          -3.50086134e-06, -2.29803459e-06, -3.85267913e-06,
          -3.50262121e-06, -2.29803459e-06, -3.85443946e-06,
          -3.50306118e-06, -2.29803459e-06, -3.86540341e-06,
          -3.48071831e-06, -2.27319106e-06, -3.84306031e-06,
          -3.50806295e-06, -2.29803459e-06, -3.24019607e-06,
          -3.14153885e-06, -2.29803459e-06, -2.96334292e-06,
          -3.50188043e-06, -2.29803459e-06, -3.88733133e-06,
          -5.76817911e-07, 3.33299965e-07, -6.25382370e-07,
          1.50780693e-06, 2.42299666e-06, 1.46783589e-06, 1.72606440e-06,
          2.64236473e-06, 1.57904117e-06, 1.08556219e-06, 2.02362889e-06,
          9.60655484e-07, -1.17070488e-06, -2.32638186e-07,
          -1.29561158e-06, -3.51199265e-06, -2.30000387e-06,
          -3.88923036e-06, -3.52320535e-06, -2.31045647e-06,
          -3.90063315e-06, -3.51807421e-06, -2.31045647e-06,
          -3.89512161e-06, -3.16285855e-06, -2.30494493e-06,
          -3.29749219e-06, -3.52732718e-06, -2.31045647e-06,
          -3.90887635e-06, -3.52732718e-06, -2.31045647e-06,
          -3.90887635e-06, -3.51419931e-06, -2.29803459e-06,
          -3.92379889e-06, -3.51419931e-06, -2.29803459e-06,
          -3.92379889e-06, -3.52630946e-06, -2.27687065e-06,
          -3.93396658e-06, -3.53448149e-06, -2.28561271e-06,
          -3.94251902e-06, -3.52091365e-06, -2.28561271e-06,
          -3.94664039e-06, -3.52091365e-06, -2.28067142e-06,
          -3.94664039e-06, -3.53448149e-06, -2.28561271e-06,
          -3.94664039e-06, -1.32807406e-06, -5.92349920e-08,
          -1.83388624e-06, 9.27179087e-07, 2.13366525e-06,
          4.59343028e-07, 1.23255052e-06, 2.43903651e-06, 7.64714400e-07,
          -3.18274687e-07, 8.66915059e-07, -7.63869423e-07,
          -2.08035340e-06, -8.95163680e-07, -2.52594805e-06,
          -1.85795022e-06, -7.26873111e-07, -2.30655382e-06,
          -1.87943670e-06, -7.48359582e-07, -2.32804018e-06,
          -1.49591142e-06, -3.43347892e-07, -1.97484906e-06,
          -2.04663502e-06, -9.00855241e-07, -2.52557265e-06,
          -3.25135898e-06, -2.31045647e-06, -3.65347796e-06,
          -3.52840334e-06, -2.31045647e-06, -3.91320691e-06,
          -3.53150563e-06, -2.31045647e-06, -3.90642344e-06,
          -3.24987332e-06, -1.97557711e-06, -3.29732347e-06,
          -8.70065833e-07, 4.25134488e-07, -1.11505972e-06,
          -3.41299142e-07, 9.40333507e-07, -5.86292970e-07,
          -5.81028928e-07, 6.91759112e-07, -8.26022756e-07,
          2.59397098e-07, 1.51243501e-06, 1.44032697e-08, 1.63691652e-06,
          2.88869796e-06, 1.42450699e-06, 1.16703575e-06, 2.41675639e-06,
          9.54626103e-07, -2.38400889e-06, -1.15670048e-06,
          -2.48131323e-06, -3.37956249e-06, -2.31045647e-06,
          -3.56887449e-06, -3.35080631e-06, -2.31045647e-06,
          -3.53555674e-06, -3.33929938e-06, -2.31045647e-06,
          -3.52404982e-06, -3.34342121e-06, -2.31045647e-06,
          -3.51434710e-06, -3.33105618e-06, -2.31045647e-06,
          -3.50198229e-06, -3.34848892e-06, -2.31045647e-06,
          -3.51915833e-06, -3.39150938e-06, -2.31045647e-06,
          -3.56217879e-06, -3.49033303e-06, -2.43822683e-06,
          -3.76272351e-06, -3.54863732e-06, -2.48974698e-06,
          -3.82102735e-06, -3.57130625e-06, -2.53096323e-06,
          -3.74434467e-06, -3.59131286e-06, -2.55775399e-06,
          -3.76435128e-06, -2.73363457e-06, -1.62215122e-06,
          -2.76799506e-06, 1.36351628e-06, 2.45464821e-06,
          1.32915602e-06, 1.37790357e-06, 2.33310379e-06, 1.42624856e-06,
          -2.02217097e-06, -1.08053848e-06, -1.97382610e-06,
          -3.59972478e-06, -2.69376756e-06, -3.55912039e-06,
          -3.59706246e-06, -2.69788916e-06, -3.33135949e-06,
          -3.57937324e-06, -2.69995007e-06, -3.51283620e-06,
          -3.58349484e-06, -2.70407168e-06, -3.51695780e-06,
          -3.59706246e-06, -2.70613236e-06, -3.52640404e-06,
          -3.62419769e-06, -2.70613236e-06, -3.55353927e-06,
          -3.64308994e-06, -2.70613236e-06, -3.61785737e-06,
          -3.68997530e-06, -2.71231488e-06, -3.66474274e-06,
          -3.76016260e-06, -2.71431372e-06, -3.96367841e-06,
          -3.79674248e-06, -2.71697445e-06, -4.00462932e-06,
          -3.80187385e-06, -2.72267584e-06, -4.00050794e-06,
          -3.80165375e-06, -2.72267584e-06, -4.00028784e-06,
          -3.80083407e-06, -2.72090597e-06, -3.98523252e-06,
          -2.35071661e-06, -1.14768659e-06, -2.57701231e-06,
          -2.77298462e-10, 1.15755029e-06, -1.05940245e-07,
          5.23759525e-07, 1.68158715e-06, 4.18096590e-07, 1.23678319e-06,
          2.43563863e-06, 1.17847776e-06, 7.89618980e-07, 1.98781436e-06,
          7.31313492e-07, -3.63353593e-07, 8.84098256e-07,
          -4.72583224e-07, -3.11093822e-06, -1.86166528e-06,
          -3.21636685e-06, -3.78232039e-06, -2.72882608e-06,
          -3.96127052e-06, -3.77081733e-06, -2.09073505e-06,
          -3.73294665e-06, -4.10566550e-08, 1.17262016e-06,
          -9.92912774e-08, 9.88783086e-07, 2.20355969e-06,
          9.30548424e-07, 1.02188494e-06, 2.21702339e-06, 9.81413223e-07,
          9.50333686e-07, 2.14670240e-06, 9.10242136e-07, 9.38606831e-07,
          2.14743272e-06, 9.01588805e-07, 7.29664293e-07, 1.93783035e-06,
          6.92646267e-07, 1.36370988e-06, 2.20390848e-06, 1.29198645e-06,
          1.36164908e-06, 2.16150556e-06, 1.35945709e-06, 1.36164908e-06,
          2.16150556e-06, 1.35945709e-06, 1.20548270e-06, 2.49559639e-06,
          1.03379932e-06, 1.38171561e-06, 2.66976849e-06, 1.21003234e-06,
          9.14436271e-07, 2.15162322e-06, 8.12634596e-07,
          -2.82554470e-06, -1.58879777e-06, -2.92734649e-06,
          -3.47697983e-06, -2.26076918e-06, -3.82863664e-06,
          -3.49146239e-06, -2.27319106e-06, -3.84311898e-06,
          -2.76295418e-06, -1.52249561e-06, -2.84948010e-06,
          -1.02137767e-06, 2.17020045e-07, -1.10790359e-06,
          -2.20712309e-06, -1.29064222e-06, -2.42723104e-06,
          -3.50762275e-06, -2.29803459e-06, -3.85531939e-06,
          -3.50078039e-06, -2.29803459e-06, -3.84597615e-06,
          -2.47080152e-06, -1.52604287e-06, -2.75210800e-06,
          -2.84995576e-06, -2.28853219e-06, -3.13788451e-06,
          -2.76378364e-06, -2.26330849e-06, -3.05171238e-06,
          -2.65793165e-06, -1.73108856e-06, -2.91379183e-06,
          -2.57486681e-06, -1.64552284e-06, -2.83072677e-06,
          -2.51021356e-06, -1.68794645e-06, -2.53133339e-06,
          -2.40240115e-06, -1.58013415e-06, -2.42352121e-06,
          -2.35734228e-06, -1.44722446e-06, -2.40590680e-06,
          -9.95549456e-08, 8.10562938e-07, -1.48119412e-07,
          1.35873222e-06, 2.27392184e-06, 1.31876106e-06, 1.23320638e-06,
          2.14950683e-06, 1.19266520e-06, 1.51377071e-06, 2.45183742e-06,
          1.38886401e-06, 1.01749197e-06, 1.95555867e-06, 8.92585206e-07,
          -2.33569449e-06, -1.24611211e-06, -2.54584666e-06,
          -3.51826429e-06, -2.31045647e-06, -3.89550178e-06,
          -2.83159329e-06, -1.69960811e-06, -3.14803742e-06,
          1.16421170e-07, 1.24840631e-06, -2.00022996e-07,
          -2.89865375e-06, -1.76254707e-06, -3.21921948e-06,
          -3.52143547e-06, -2.30551518e-06, -3.90260493e-06,
          -3.51419931e-06, -2.29803459e-06, -3.92379889e-06,
          -3.51419931e-06, -2.29803459e-06, -3.92379889e-06,
          -3.53448149e-06, -2.28561271e-06, -3.94251902e-06,
          -3.53448149e-06, -2.28561271e-06, -3.94251902e-06,
          -3.51369181e-06, -2.27763076e-06, -3.93922846e-06,
          -2.04162461e-06, -7.86353326e-07, -2.56100452e-06,
          -1.94912655e-08, 1.24934775e-06, -5.25303506e-07,
          8.01174792e-07, 2.07001381e-06, 2.95362554e-07, 9.99810482e-07,
          2.20629659e-06, 5.31974422e-07, 1.02281729e-06, 2.22930339e-06,
          5.54981227e-07, -1.04596313e-06, 1.39226543e-07,
          -1.49155790e-06, -3.50963774e-06, -2.29803459e-06,
          -3.94170820e-06, -3.52320535e-06, -2.29803459e-06,
          -3.92814081e-06, -3.52320535e-06, -2.29803459e-06,
          -3.92814081e-06, -3.52320535e-06, -2.29803459e-06,
          -3.92814081e-06, -3.51642166e-06, -2.29803459e-06,
          -3.92135689e-06, -3.52840334e-06, -2.31045647e-06,
          -3.91320691e-06, -3.52840334e-06, -2.31045647e-06,
          -3.91320691e-06, -3.52428378e-06, -2.30342471e-06,
          -3.90034165e-06, -3.52472171e-06, -2.31045647e-06,
          -3.89963952e-06, -3.51137419e-06, -2.31045647e-06,
          -3.88629178e-06, -3.49660831e-06, -2.30323462e-06,
          -3.87266618e-06, -3.49368474e-06, -2.31045647e-06,
          -3.86860256e-06, -1.42861438e-06, -1.75576474e-07,
          -1.67360827e-06, 1.11666384e-06, 2.37522931e-06,
          9.04254307e-07, 9.54023676e-07, 2.19696062e-06, 7.41614144e-07,
          -2.34988056e-06, -1.11372754e-06, -2.44718512e-06,
          -3.39991402e-06, -2.31045647e-06, -3.58922603e-06,
          -3.38000245e-06, -2.31045647e-06, -3.56475289e-06,
          -3.37055644e-06, -2.31045647e-06, -3.55530688e-06,
          -3.37261736e-06, -2.31045647e-06, -3.54354324e-06,
          -3.40533370e-06, -2.31045647e-06, -3.57625981e-06,
          -3.41864461e-06, -2.31045647e-06, -3.58931402e-06,
          -3.41838791e-06, -2.31045647e-06, -3.58905754e-06,
          -3.41648865e-06, -2.31045647e-06, -3.68887891e-06,
          -3.45126568e-06, -2.31045647e-06, -3.72365616e-06,
          -3.48011713e-06, -2.39907126e-06, -3.65315555e-06,
          -3.50132677e-06, -2.41349699e-06, -3.67436519e-06,
          -2.91252195e-06, -1.73998399e-06, -2.94688220e-06,
          1.44216381e-06, 2.58756631e-06, 1.40780344e-06, 1.39455301e-06,
          2.39045607e-06, 1.44289800e-06, -2.30562478e-06,
          -1.33007313e-06, -2.25727990e-06, -3.64042762e-06,
          -2.69376756e-06, -3.59982323e-06, -3.65279243e-06,
          -2.70613236e-06, -3.61218827e-06, -3.65365054e-06,
          -2.72674060e-06, -3.58711372e-06, -3.63183972e-06,
          -2.71849717e-06, -3.56530268e-06, -3.61947468e-06,
          -2.70819328e-06, -3.54881627e-06, -3.63304252e-06,
          -2.70819328e-06, -3.56238388e-06, -3.65931965e-06,
          -2.70201076e-06, -3.63408731e-06, -3.68173210e-06,
          -2.70407168e-06, -3.65649953e-06, -3.74957040e-06,
          -2.70407168e-06, -3.95232610e-06, -3.78533036e-06,
          -2.70613236e-06, -3.98808606e-06, -3.78945197e-06,
          -2.71025397e-06, -3.98808606e-06, -3.80187385e-06,
          -2.72267584e-06, -4.00050794e-06, -3.79981293e-06,
          -2.72061493e-06, -3.98402108e-06, -1.88944955e-06,
          -6.85979558e-07, -2.11574525e-06, 3.55107574e-07,
          1.51337520e-06, 2.49444639e-07, 5.13524640e-07, 1.67157225e-06,
          4.07861705e-07, 5.71111400e-07, 1.76996684e-06, 5.12615884e-07,
          -9.67037977e-07, 2.31597426e-07, -1.02534341e-06,
          -3.77389711e-06, -2.08984420e-06, -3.70062071e-06,
          -3.77855781e-06, -2.72685429e-06, -3.96729138e-06,
          -3.77907872e-06, -2.73097612e-06, -3.95802908e-06,
          -3.78232039e-06, -2.73509772e-06, -3.96127052e-06,
          -1.13159479e-06, 7.96620299e-08, -1.18982939e-06,
          1.03974719e-06, 2.25166400e-06, 9.81512471e-07, 9.95346682e-07,
          2.18907530e-06, 9.55255132e-07, 1.71329788e-07, 1.36615847e-06,
          1.31238210e-07, -2.03819718e-06, -8.30251111e-07,
          -2.07521521e-06, -3.69945496e-07, 8.38220501e-07,
          -4.06963522e-07, 1.36145911e-06, 2.24650125e-06,
          1.21375638e-06, 1.35727453e-06, 2.22937592e-06, 1.25450538e-06,
          1.26362136e-06, 2.13572275e-06, 1.16085221e-06, 9.09253401e-07,
          2.22740073e-06, 6.29815702e-07, 1.30149112e-06, 2.61757782e-06,
          1.02205343e-06, -1.52095538e-06, -1.96302125e-07,
          -1.75428318e-06, -3.47697983e-06, -2.26076918e-06,
          -3.81963036e-06, -3.47697983e-06, -2.26076918e-06,
          -3.81300788e-06, -3.47162882e-06, -2.25411759e-06,
          -3.80879715e-06, -1.99074248e-06, -7.07911113e-07,
          -2.28144631e-06, -3.11468256e-07, 9.69742246e-07,
          -6.02172179e-07, -2.95535187e-06, -2.27319106e-06,
          -3.27177713e-06, -3.48896174e-06, -2.27319106e-06,
          -3.83009410e-06, -3.47159516e-06, -2.27319106e-06,
          -3.81272775e-06, -2.20022321e-06, -1.15931653e-06,
          -2.54154588e-06, -1.75782134e-06, -7.08671280e-07,
          -2.10738722e-06, -1.71350621e-06, -6.65698394e-07,
          -2.06307209e-06, -1.84077430e-06, -7.19979710e-07,
          -2.03546892e-06, -1.84283510e-06, -7.19979710e-07,
          -2.03752984e-06, -1.86933039e-06, -8.51664595e-07,
          -1.88137233e-06, -1.97625241e-06, -9.58146529e-07,
          -1.98829434e-06, 4.42278491e-07, 1.64600999e-06,
          3.92884147e-07, 1.55862347e-06, 2.76330525e-06, 1.51017935e-06,
          1.99788565e-06, 3.19321430e-06, 1.62317872e-06, 9.52631638e-07,
          2.05614310e-06, 9.31051034e-07, -6.48489902e-07,
          4.21526323e-07, -7.67514791e-07, 3.58142302e-07,
          1.42815850e-06, 2.39117412e-07, 2.71331082e-08, 1.15482180e-06,
          -2.13353232e-07, -2.24244832e-06, -1.11475958e-06,
          -2.48293463e-06, 8.51790162e-07, 2.00058525e-06,
          5.77748779e-07, 1.02273145e-06, 2.17152660e-06, 7.48690070e-07,
          -1.25648296e-06, -1.03566236e-07, -1.53464600e-06,
          -1.38578173e-06, -2.32865006e-07, -1.66394477e-06,
          -1.60513639e-06, -4.40222010e-07, -1.89011871e-06,
          -2.78175980e-06, -1.61684534e-06, -3.06674201e-06,
          -3.52725760e-06, -2.28561271e-06, -3.93507480e-06,
          -3.52833990e-06, -2.27991131e-06, -3.93615755e-06,
          -1.40935526e-06, -2.04953722e-07, -1.86031605e-06,
          8.17633293e-07, 2.02203478e-06, 3.66672538e-07, 1.21515882e-06,
          2.43312820e-06, 7.77765763e-07, 1.36575397e-06, 2.58372324e-06,
          9.28360919e-07, 6.41232646e-07, 1.80948780e-06, 2.02530572e-07,
          1.54138286e-06, 2.70963801e-06, 1.10268081e-06,
          -1.33685080e-06, -1.77253355e-07, -1.75265166e-06,
          -3.50919777e-06, -2.29803459e-06, -3.94104836e-06,
          -3.52276538e-06, -2.29803459e-06, -3.92748052e-06,
          -3.52276538e-06, -2.29803459e-06, -3.92748052e-06,
          -3.52276538e-06, -2.29803459e-06, -3.92748052e-06,
          -3.52276538e-06, -2.29803459e-06, -3.92748052e-06,
          -3.53496716e-06, -2.31045647e-06, -3.91933099e-06,
          -3.53496716e-06, -2.31045647e-06, -3.91933099e-06,
          -3.52875554e-06, -2.30399473e-06, -3.91425965e-06,
          -3.52349207e-06, -2.30551518e-06, -3.91298727e-06,
          -3.51527569e-06, -2.31045647e-06, -3.89919933e-06,
          -3.51733661e-06, -2.31045647e-06, -3.90126024e-06,
          -3.50437040e-06, -2.31045647e-06, -3.88829403e-06,
          -1.11935947e-06, 7.82149741e-08, -1.51813765e-06,
          1.17624666e-06, 2.34161917e-06, 8.88454451e-07, 8.88980992e-07,
          2.03216132e-06, 6.01188731e-07, -2.13075714e-06,
          -1.02651620e-06, -2.35714651e-06, -3.42644785e-06,
          -2.31045647e-06, -3.67659436e-06, -3.40815723e-06,
          -2.31045647e-06, -3.63795220e-06, -3.40549514e-06,
          -2.31045647e-06, -3.63529011e-06, -3.41021814e-06,
          -2.31045647e-06, -3.65358073e-06, -3.44825889e-06,
          -2.31045647e-06, -3.69162149e-06, -3.48011713e-06,
          -2.31045647e-06, -3.76212211e-06, -3.49162406e-06,
          -2.31045647e-06, -3.77362880e-06, -3.49488755e-06,
          -2.31045647e-06, -3.97790654e-06, -3.50639448e-06,
          -2.31045647e-06, -3.98941347e-06, -3.51730000e-06,
          -2.31045647e-06, -3.87881119e-06, -3.51790140e-06,
          -2.31045647e-06, -3.87941282e-06, -2.32801494e-06,
          -1.07605626e-06, -2.45815545e-06, 1.53573353e-06,
          2.73969226e-06, 1.40559325e-06, 1.43353782e-06, 2.62655885e-06,
          1.38627991e-06, -1.78892174e-06, -6.17012404e-07,
          -1.83712984e-06, -3.67000280e-06, -2.60376282e-06,
          -3.80771644e-06, -3.46503248e-06, -2.31130480e-06,
          -3.25119640e-06, -3.74295496e-06, -2.72055809e-06,
          -3.60103672e-06, -3.73144826e-06, -2.72261900e-06,
          -3.84060149e-06, -3.67580628e-06, -2.68346344e-06,
          -3.73249304e-06, -3.67580628e-06, -2.68346344e-06,
          -3.73249304e-06, -3.68525230e-06, -2.68758504e-06,
          -3.68474957e-06, -3.67314396e-06, -2.69582824e-06,
          -3.67264124e-06, -3.78146706e-06, -2.69913039e-06,
          -4.01715715e-06, -3.77807601e-06, -2.69573911e-06,
          -4.01015541e-06, -3.78130994e-06, -2.69269844e-06,
          -3.98219481e-06, -3.79199128e-06, -2.70359988e-06,
          -3.99287592e-06, -3.78210734e-06, -2.70462124e-06,
          -3.97268786e-06, -1.62177776e-06, -4.29627534e-07,
          -1.78240441e-06, 8.55492999e-07, 1.93799792e-06,
          6.78823426e-07, 1.04795049e-06, 2.13045541e-06, 8.71280918e-07,
          1.26109353e-06, 2.32576826e-06, 1.11480119e-06, 1.44308942e-07,
          1.20898380e-06, -1.98329730e-09, -2.75036064e-06,
          -1.95101916e-06, -3.11118447e-06, -3.76539515e-06,
          -2.71649333e-06, -3.96791665e-06, -3.76701610e-06,
          -2.72061493e-06, -3.95052803e-06, -3.77231845e-06,
          -2.72679745e-06, -3.95583038e-06, -3.03457819e-06,
          -2.06745494e-06, -3.33100775e-06, 4.18207833e-07,
          1.38445125e-06, 1.21778442e-07, -1.12550720e-06,
          -5.43851328e-08, -1.26402347e-06, -2.40343866e-06,
          -1.33165656e-06, -2.54195493e-06, -3.76517278e-06,
          -2.72765601e-06, -3.95375901e-06, -2.25454301e-06,
          -1.07737526e-06, -2.41854696e-06, 1.36104904e-06,
          2.24631117e-06, 1.21334642e-06, 1.34422567e-06, 2.21654727e-06,
          1.24145652e-06, 1.38719861e-06, 2.25951999e-06, 1.28442946e-06,
          1.39041958e-06, 2.70200303e-06, 1.11098188e-06, 1.09243024e-06,
          2.40195300e-06, 8.12992596e-07, -4.60126444e-07,
          8.64526839e-07, -6.93454183e-07, -3.45758622e-06,
          -1.64539654e-06, -3.20109666e-06, -2.94500978e-06,
          -1.66447001e-06, -3.23844506e-06, -2.03668765e-06,
          -7.56907866e-07, -2.33126320e-06, -2.51263100e-06,
          -1.22979975e-06, -2.80333506e-06, -2.54415841e-06,
          -1.26294788e-06, -2.83486224e-06, -3.50132655e-06,
          -2.27319106e-06, -3.84245914e-06, -3.48940171e-06,
          -2.27319106e-06, -3.83053430e-06, -3.47453602e-06,
          -2.27319106e-06, -3.81566861e-06, -3.45575017e-06,
          -2.26444877e-06, -3.79707285e-06, -3.47409605e-06,
          -2.27319106e-06, -3.82347162e-06, -3.46690263e-06,
          -2.27319106e-06, -3.82102962e-06, -3.46633237e-06,
          -2.27319106e-06, -3.82274084e-06, -3.46820320e-06,
          -2.27319106e-06, -3.82461167e-06, -3.45099488e-06,
          -2.26292832e-06, -3.81780865e-06, -3.47403693e-06,
          -2.26539896e-06, -3.84085070e-06, 3.43503899e-07,
          1.54723534e-06, 2.94109526e-07, 1.56367025e-06, 2.76740184e-06,
          1.51427594e-06, 1.47343792e-06, 2.57561874e-06, 1.45280751e-06,
          3.61083664e-07, 1.46459513e-06, 3.39503032e-07,
          -3.49655966e-06, -2.28682165e-06, -3.87183673e-06,
          -3.49919060e-06, -2.28967247e-06, -3.15039006e-06,
          -1.46567550e-06, -3.38206718e-07, -1.70616181e-06,
          8.14168573e-07, 1.94163727e-06, 5.73682200e-07, 4.35071605e-08,
          1.19208221e-06, -2.30534241e-07, -8.44658985e-07,
          3.03916067e-07, -1.11870042e-06, -1.01388832e-06,
          1.32024496e-07, -1.29205137e-06, -1.10078440e-06,
          4.51284698e-08, -1.37894745e-06, -1.32976834e-06,
          -1.85425407e-07, -1.61475054e-06, -3.50827804e-06,
          -2.29233319e-06, -3.36733228e-06, -3.52725760e-06,
          -2.28561271e-06, -3.93507480e-06, -3.53404130e-06,
          -2.28561271e-06, -3.94185872e-06, -2.37174208e-06,
          -1.17412446e-06, -2.82270298e-06, -1.13440262e-06,
          6.99989897e-08, -1.58536341e-06, -9.89363116e-07,
          2.28386128e-07, -1.42675617e-06, -9.53421988e-07,
          2.64327241e-07, -1.39081510e-06, -4.57967076e-07,
          7.10068036e-07, -8.96669178e-07, 1.38796690e-06,
          2.55600207e-06, 9.49264859e-07, -6.72641477e-07,
          4.86735985e-07, -1.08844233e-06, -2.71385397e-06,
          -1.55447651e-06, -3.12965471e-06, -2.84013049e-06,
          -1.69603391e-06, -3.28858869e-06, -2.95174368e-06,
          -2.29309330e-06, -3.39507073e-06, -2.39781730e-06,
          -1.25451095e-06, -2.84114435e-06, -2.69596694e-06,
          -1.55266059e-06, -3.13929399e-06, -3.53496716e-06,
          -2.31045647e-06, -3.91933099e-06, -3.53452720e-06,
          -2.31045647e-06, -3.91889080e-06, -3.53746805e-06,
          -2.31045647e-06, -3.92183165e-06, -3.28294891e-06,
          -2.30532510e-06, -3.36532275e-06, -2.57345687e-06,
          -1.32921707e-06, -2.97223528e-06, -2.10229678e-06,
          -8.71624593e-07, -2.50107496e-06, -1.55663599e-06,
          -3.36869249e-07, -1.95541429e-06, -8.43235227e-07,
          3.67906864e-07, -1.24201347e-06, 1.13968213e-06,
          2.31862236e-06, 8.51889808e-07, 1.38430755e-06, 2.55497321e-06,
          1.09803568e-06, -2.09508403e-06, -9.61866817e-07,
          -2.32147340e-06, -3.44864020e-06, -2.31045647e-06,
          -3.69878671e-06, -3.44207638e-06, -2.31045647e-06,
          -3.67187135e-06, -3.43941429e-06, -2.31045647e-06,
          -3.66920926e-06, -3.43735337e-06, -2.31045647e-06,
          -3.68071596e-06, -3.45976559e-06, -2.31045647e-06,
          -3.70312841e-06, -3.48484014e-06, -2.31045647e-06,
          -3.76684511e-06, -3.48956314e-06, -2.31045647e-06,
          -3.77156812e-06, -3.50725259e-06, -2.31045647e-06,
          -3.99027158e-06, -3.52082020e-06, -2.31045647e-06,
          -4.00383897e-06, -3.51647850e-06, -2.31045647e-06,
          -3.87798991e-06, -3.51707990e-06, -2.31045647e-06,
          -3.87859154e-06, -1.61112860e-06, -3.71754652e-07,
          -1.74126899e-06, 1.58937439e-06, 2.81166035e-06,
          1.45923400e-06, 1.50322398e-06, 2.74196441e-06, 1.45615616e-06,
          -9.75007424e-07, 2.10249624e-07, -1.02321553e-06,
          -1.92309972e-06, -7.94127743e-07, -1.94616905e-06,
          -1.10750466e-06, 1.46834500e-08, -1.13057411e-06,
          -1.78619234e-06, -6.70370639e-07, -1.72706496e-06,
          -3.59880210e-06, -2.56302769e-06, -3.47628952e-06,
          -3.68379278e-06, -2.67109863e-06, -3.74047954e-06,
          -3.45898525e-06, -2.31769422e-06, -3.09841698e-06,
          -1.84609223e-06, -8.20850175e-07, -1.77873426e-06,
          -1.24661130e-06, -1.94233920e-07, -1.17925333e-06,
          -1.09726795e-06, 6.61467148e-09, -1.28207796e-06,
          -6.37084213e-07, 4.87149975e-07, -8.21894162e-07,
          3.26692771e-07, 1.50447090e-06, 1.30484480e-07, 8.24622816e-07,
          2.00218096e-06, 6.28414512e-07, 1.70818339e-07, 1.36274855e-06,
          1.01916315e-08, 8.11551160e-07, 2.00370141e-06, 6.50924449e-07,
          1.05115134e-06, 2.12687246e-06, 8.74481771e-07, 7.58483452e-07,
          1.83325437e-06, 5.82003906e-07, 1.27133490e-06, 2.33666970e-06,
          1.12504267e-06, 9.04764931e-07, 1.96987980e-06, 7.58472709e-07,
          -1.34629124e-06, -5.46509796e-07, -1.70711508e-06,
          -3.75002264e-06, -2.70613236e-06, -3.95311417e-06,
          -3.75731497e-06, -2.71025397e-06, -3.94082690e-06,
          -3.76761909e-06, -2.72055809e-06, -3.95113102e-06,
          -3.76728008e-06, -2.71561680e-06, -3.94876952e-06,
          -2.27750297e-06, -1.30861974e-06, -2.57393253e-06,
          -3.52978350e-06, -2.39945530e-06, -3.70621592e-06,
          -3.76068351e-06, -2.72267584e-06, -3.95481129e-06,
          -3.75321133e-06, -2.72267584e-06, -3.94179779e-06,
          -3.74553906e-06, -2.70978239e-06, -3.93412529e-06,
          1.39924032e-06, 2.26758061e-06, 1.16930767e-06, 1.35664754e-06,
          2.28906720e-06, 1.13540250e-06, 1.44259332e-06, 2.37501285e-06,
          1.22134827e-06, 9.84605549e-07, 2.23123970e-06, 7.35420713e-07,
          1.34756488e-06, 2.59213812e-06, 1.09838004e-06, 1.16777119e-06,
          2.44945022e-06, 9.01137753e-07, -8.36208358e-07,
          4.42969963e-07, -1.10284179e-06, -1.14598060e-06,
          1.31136929e-07, -1.42580768e-06, -1.85614385e-06,
          -5.76965590e-07, -2.13597104e-06, -2.83656800e-06,
          -1.61655578e-06, -3.15810780e-06, -3.47564992e-06,
          -2.25563781e-06, -3.79718995e-06, -2.64554160e-06,
          -1.55391240e-06, -2.99699968e-06, -1.30877959e-06,
          -2.25173537e-07, -1.66023744e-06, -2.78519110e-06,
          -1.71572037e-06, -3.13982036e-06, -3.46357365e-06,
          -2.26076918e-06, -3.80556412e-06, -3.45457056e-06,
          -2.26076918e-06, -3.79201833e-06, -2.54510587e-06,
          -1.48380923e-06, -2.89082141e-06, -2.48511833e-06,
          -1.35603091e-06, -2.66414418e-06, -3.44287878e-06,
          -2.27319106e-06, -3.78400819e-06, -3.43056945e-06,
          -2.27319106e-06, -3.56904502e-06, -3.40181327e-06,
          -2.27319106e-06, -3.54028884e-06, 3.89973195e-07,
          1.48549157e-06, 6.23437074e-07, 1.67840517e-06, 2.75395223e-06,
          1.91262939e-06, 1.57323370e-06, 2.59823560e-06, 1.78439029e-06,
          6.29672627e-07, 1.64789071e-06, 8.40829273e-07,
          -3.33958906e-06, -2.26824977e-06, -2.74924878e-06,
          -3.36994390e-06, -2.29803459e-06, -2.86421914e-06,
          -3.42212616e-06, -2.28929230e-06, -3.03579122e-06,
          -1.36297103e-06, -2.18505946e-07, -1.40654527e-06,
          -3.83100655e-07, 7.31174396e-07, -5.34174887e-07,
          -3.49858919e-06, -2.28929230e-06, -3.76082176e-06,
          -3.48076605e-06, -2.29803459e-06, -3.78519258e-06,
          -3.48488766e-06, -2.29803459e-06, -3.78931418e-06,
          -3.47132004e-06, -2.29803459e-06, -3.78975415e-06,
          -3.47132004e-06, -2.29803459e-06, -3.78975415e-06,
          -3.48076605e-06, -2.28561271e-06, -3.83653514e-06,
          -3.49433367e-06, -2.28561271e-06, -3.85010253e-06,
          -3.48673188e-06, -2.27839087e-06, -3.85704880e-06,
          -3.49433367e-06, -2.28561271e-06, -3.86389047e-06,
          -3.49433367e-06, -2.28561271e-06, -3.88424178e-06,
          -3.49433367e-06, -2.28561271e-06, -3.88424178e-06,
          -2.63342031e-06, -1.48100639e-06, -3.01285422e-06,
          1.37808377e-06, 2.53049780e-06, 9.98649853e-07, 1.83727582e-06,
          2.98874488e-06, 1.49155812e-06, -1.63244380e-07,
          9.88224656e-07, -5.08961989e-07, 7.38166639e-09,
          1.10450458e-06, -4.19225159e-07, 1.98669170e-07,
          1.29579212e-06, -2.27937647e-07, 6.30078603e-07,
          1.72742148e-06, 2.03471771e-07, -1.94560652e-08,
          1.07788685e-06, -4.46062870e-07, -2.08562938e-06,
          -8.95798621e-07, -2.44436592e-06, -3.52666711e-06,
          -2.29803459e-06, -3.92616084e-06, -3.51309950e-06,
          -2.29803459e-06, -3.92283846e-06, -1.54033728e-06,
          -4.02370517e-07, -1.94761560e-06, 8.75714591e-07,
          2.05220590e-06, 4.08148054e-07, 1.52524922e-06, 2.70174064e-06,
          1.05768277e-06, 1.38207702e-06, 2.55856821e-06, 9.14510451e-07,
          1.30405715e-06, 2.46329910e-06, 8.36490585e-07, 1.20358732e-06,
          2.34606887e-06, 7.86707744e-07, 1.45652280e-06, 2.60334605e-06,
          1.03964317e-06, -1.04642663e-06, 8.51451603e-08,
          -1.44979879e-06, -1.20570235e-06, -8.50359925e-08,
          -1.60907450e-06, -1.08679455e-06, 1.43087489e-08,
          -1.47044216e-06, -9.77650302e-07, 1.20790745e-07,
          -1.36129790e-06, -5.24622010e-07, 5.43677970e-07,
          -8.69798498e-07, -1.75255059e-06, -6.82189807e-07,
          -2.09772702e-06, -3.45124545e-06, -2.29803459e-06,
          -3.85742032e-06, -3.45596845e-06, -2.29803459e-06,
          -3.86214333e-06, -3.49184393e-06, -2.31045647e-06,
          -3.91482808e-06, -3.48858339e-06, -2.31045647e-06,
          -3.91688855e-06, -2.78935681e-06, -1.65770075e-06,
          -3.07455639e-06, -9.93617618e-07, 1.38038487e-07,
          -1.27881719e-06, 1.03012769e-06, 2.14521037e-06,
          7.59784143e-07, 1.63261609e-06, 2.73286173e-06, 1.36246263e-06,
          1.50988819e-06, 2.67820042e-06, 1.23955135e-06, 1.11710244e-06,
          2.27393889e-06, 8.46195462e-07, 1.59468505e-06, 2.69520024e-06,
          1.41849171e-06, 1.70325916e-06, 2.80016184e-06, 1.52611551e-06,
          1.44175112e-06, 2.60089246e-06, 1.32945934e-06,
          -3.45938861e-06, -2.35928633e-06, -3.73770035e-06,
          -3.56340774e-06, -2.48974698e-06, -3.80922734e-06,
          -2.92227105e-06, -1.83972463e-06, -3.00777242e-06,
          6.12599990e-07, 1.65232825e-06, 5.17858950e-07, 1.70833846e-06,
          2.74128274e-06, 1.57030922e-06, -1.01583055e-06,
          8.56193427e-09, -9.53221161e-07, -2.71849217e-06,
          -1.69409964e-06, -2.65588278e-06, -2.86617910e-06,
          -1.78026517e-06, -2.93811104e-06, -1.88904994e-06,
          -7.82564484e-07, -1.96098199e-06, 5.61431534e-07,
          1.69921429e-06, 3.60489310e-07, 5.40703979e-07, 1.68505051e-06,
          3.39761755e-07, 4.66434500e-07, 1.50831147e-06, 1.83508021e-07,
          9.93333060e-07, 2.03521017e-06, 7.10406596e-07, 6.31461205e-07,
          1.61094567e-06, 3.91619153e-07, 1.03951231e-06, 2.02556066e-06,
          7.99670318e-07, 1.17713546e-06, 2.09198720e-06, 8.86052874e-07,
          -2.46801801e-06, -1.55316638e-06, -2.75910065e-06,
          -3.77522429e-06, -2.70819328e-06, -3.95325014e-06,
          -3.78346749e-06, -2.71643648e-06, -3.96149335e-06,
          -3.78080540e-06, -2.72261900e-06, -3.94970812e-06,
          -3.77874449e-06, -2.72055809e-06, -3.94764720e-06,
          -3.77223796e-06, -2.72679745e-06, -3.95931420e-06,
          -3.76435582e-06, -2.71979548e-06, -3.95105235e-06,
          -3.76274579e-06, -2.72090597e-06, -3.94628114e-06,
          -3.75928403e-06, -2.71678437e-06, -3.94281960e-06,
          1.39924032e-06, 2.26758061e-06, 1.16930767e-06, 1.37002519e-06,
          2.28887711e-06, 1.14878003e-06, 1.45559079e-06, 2.37444283e-06,
          1.23434575e-06, 1.04773449e-06, 2.29436864e-06, 7.98549706e-07,
          1.51964639e-06, 2.76421974e-06, 1.27046167e-06, 1.46674040e-06,
          2.75330126e-06, 1.20124730e-06, 1.09206030e-06, 2.37351946e-06,
          8.25426866e-07, -1.32199375e-06, -4.07546530e-08,
          -1.60182083e-06, -3.45828539e-06, -2.24093537e-06,
          -3.78070536e-06, -3.48360231e-06, -2.26076918e-06,
          -3.80400184e-06, -3.47616015e-06, -2.26076918e-06,
          -3.80150118e-06, -2.38010193e-06, -1.29303430e-06,
          -2.73155979e-06, 2.71394725e-07, 1.35684161e-06,
          -8.00632165e-08, -2.38567281e-06, -1.30272667e-06,
          -2.74125227e-06, -3.46665570e-06, -2.26076918e-06,
          -3.81358745e-06, -3.46855632e-06, -2.26076918e-06,
          -3.80600409e-06, -2.78066432e-06, -1.71806971e-06,
          -3.12637962e-06, -2.82119618e-06, -1.69677332e-06,
          -3.00022225e-06, -3.44499813e-06, -2.27319106e-06,
          -3.78612754e-06, -3.41065788e-06, -2.27319106e-06,
          -3.54913345e-06, -3.38824566e-06, -2.27319106e-06,
          -3.52672123e-06, 3.33226581e-07, 1.40839347e-06,
          5.66690517e-07, 1.67255030e-06, 2.74131344e-06, 1.90677440e-06,
          1.75266928e-06, 2.77126742e-06, 1.96458609e-06, 6.64974664e-07,
          1.67640894e-06, 8.76131310e-07, -2.30016485e-06,
          -1.27160547e-06, -2.07584458e-06, -3.34753167e-06,
          -2.29803459e-06, -3.44676369e-06, -3.37694792e-06,
          -2.29803459e-06, -3.58634202e-06, -1.22337701e-06,
          -1.62598752e-07, -1.26695124e-06, -4.16158684e-07,
          6.16710395e-07, -5.67232917e-07, -3.44684690e-06,
          -2.29803459e-06, -3.70850944e-06, -3.47398236e-06,
          -2.29803459e-06, -3.77840865e-06, -3.47132004e-06,
          -2.29803459e-06, -3.77574656e-06, -3.47132004e-06,
          -2.29803459e-06, -3.78975415e-06, -3.47132004e-06,
          -2.29803459e-06, -3.78975415e-06, -3.46904108e-06,
          -2.28561271e-06, -3.82975122e-06, -3.48711205e-06,
          -2.27877103e-06, -3.84364103e-06, -3.49433367e-06,
          -2.28561271e-06, -3.86389047e-06, -3.49433367e-06,
          -2.28561271e-06, -3.86389047e-06, -3.49433367e-06,
          -2.28561271e-06, -3.88424178e-06, -3.49433367e-06,
          -2.28561271e-06, -3.88424178e-06, -3.48844219e-06,
          -2.28010140e-06, -3.89245815e-06, 1.35108587e-06,
          2.50349990e-06, 9.71652071e-07, 1.17328648e-06, 2.32475554e-06,
          8.27568840e-07, -1.40641760e-06, -2.54948503e-07,
          -1.75213518e-06, -2.00759314e-06, -9.10470249e-07,
          -2.43420004e-06, -2.05151628e-06, -9.54393386e-07,
          -2.47812318e-06, -2.04866569e-06, -9.51542688e-07,
          -2.47527237e-06, -2.11825613e-06, -1.02113336e-06,
          -2.54486304e-06, -3.52666711e-06, -2.29803459e-06,
          -3.92616084e-06, -3.52644702e-06, -2.29803459e-06,
          -3.92594075e-06, -3.51265953e-06, -2.29803459e-06,
          -3.92239872e-06, -2.77999970e-06, -1.64269295e-06,
          -3.18727803e-06, -1.80449013e-06, -6.28658825e-07,
          -2.27205669e-06, -1.67291080e-06, -4.97079441e-07,
          -2.14047736e-06, -1.62844742e-06, -4.52396108e-07,
          -2.09601399e-06, 1.29982993e-06, 2.48288507e-06,
          8.32263424e-07, 1.34841491e-06, 2.51492952e-06, 9.31535283e-07,
          1.28769659e-06, 2.45465139e-06, 8.70817018e-07, 1.21449511e-06,
          2.37298218e-06, 8.11122959e-07, 1.13025976e-06, 2.28874683e-06,
          7.26887606e-07, 1.35793016e-06, 2.49685422e-06, 9.74282443e-07,
          1.41412033e-06, 2.54153747e-06, 1.03047262e-06,
          -5.51245080e-07, 5.37406379e-07, -8.96421568e-07,
          -2.71960266e-06, -1.64451876e-06, -3.06477909e-06,
          -3.45596845e-06, -2.29803459e-06, -3.86214333e-06,
          -3.45743092e-06, -2.29803459e-06, -3.86892680e-06,
          -3.47942228e-06, -2.29803459e-06, -3.90240621e-06,
          -2.49236609e-06, -1.31300419e-06, -2.78043444e-06,
          9.10698077e-08, 1.20481661e-06, -1.94129797e-07,
          1.13435874e-06, 2.26373413e-06, 8.49159164e-07, 1.43462864e-06,
          2.54495831e-06, 1.16447518e-06, 1.59236106e-06, 2.70307078e-06,
          1.32258765e-06, 1.49078903e-06, 2.67368705e-06, 1.22083236e-06,
          1.40728423e-06, 2.58717114e-06, 1.13637725e-06, 1.50508060e-06,
          2.64088226e-06, 1.32793696e-06, -5.86073384e-07,
          5.36160599e-07, -7.63216917e-07, -1.37472932e-06,
          -1.94378586e-07, -1.48702122e-06, -3.43815509e-06,
          -2.29005263e-06, -3.71285591e-06, -3.42175599e-06,
          -2.29803459e-06, -3.66757581e-06, -3.43351962e-06,
          -2.35985885e-06, -3.67933922e-06, -1.48083870e-06,
          -4.27542773e-07, -1.57557974e-06, -8.19225022e-07,
          2.34070868e-07, -9.13966062e-07, -1.99110605e-06,
          -1.05490346e-06, -1.92849666e-06, -3.64870766e-06,
          -2.70201076e-06, -3.67109374e-06, -3.69977147e-06,
          -2.72679745e-06, -3.80184770e-06, -2.58449268e-06,
          -1.53249778e-06, -2.65642461e-06, 8.55494989e-07,
          1.97949021e-06, 6.54552821e-07, 1.27409726e-06, 2.41108978e-06,
          1.07315498e-06, 1.14364138e-06, 2.17873458e-06, 8.60714863e-07,
          7.07478932e-07, 1.74935587e-06, 4.24552468e-07, 9.76488082e-07,
          1.95597249e-06, 7.36645973e-07, 9.24421272e-07, 1.91046956e-06,
          6.84579220e-07, 8.70655981e-07, 1.78550761e-06, 5.79573395e-07,
          -2.41001814e-08, 8.83967687e-07, -3.15182746e-07,
          -3.77718061e-06, -2.71649333e-06, -3.95520647e-06,
          -3.78564391e-06, -2.72473676e-06, -3.96366977e-06,
          -3.79388712e-06, -2.73504065e-06, -3.96278983e-06,
          -3.79388712e-06, -2.73504065e-06, -3.96278983e-06,
          -3.78729965e-06, -2.73921933e-06, -3.97437634e-06,
          -3.78538016e-06, -2.73839964e-06, -3.97207623e-06,
          -3.77955848e-06, -2.73595879e-06, -3.96309406e-06,
          -2.58420937e-06, -1.39241479e-06, -2.74644844e-06,
          1.41280793e-06, 2.30170576e-06, 1.15234127e-06, 1.36983510e-06,
          2.32262209e-06, 1.10280450e-06, 1.45521074e-06, 2.40799773e-06,
          1.18818014e-06, 1.26075190e-06, 2.34543904e-06, 1.00535158e-06,
          1.57921784e-06, 2.66184406e-06, 1.32381763e-06, 1.26528323e-06,
          2.45477167e-06, 1.01400337e-06, -7.27028748e-09,
          1.19518563e-06, -2.58930271e-07, -2.92923687e-06,
          -2.24017526e-06, -3.17059266e-06, -3.47013906e-06,
          -2.24834730e-06, -3.79554035e-06, -3.48500316e-06,
          -2.26076918e-06, -3.80268193e-06, -3.47172954e-06,
          -2.25031658e-06, -3.19424953e-06, -4.91764979e-07,
          7.08351592e-07, -7.32783747e-07, 1.12860175e-06,
          2.33143919e-06, 8.87582985e-07, -2.47050821e-06,
          -1.27201247e-06, -2.71240697e-06, -3.47181685e-06,
          -2.26076918e-06, -3.79776088e-06, -3.47517880e-06,
          -2.26076918e-06, -3.80644406e-06, -2.47649518e-06,
          -1.29216858e-06, -2.71839394e-06, -2.37413497e-06,
          -1.12179737e-06, -2.57756255e-06, -3.44147952e-06,
          -2.26076918e-06, -3.20186382e-06, -3.41109785e-06,
          -2.27319106e-06, -3.60222339e-06, -3.38846553e-06,
          -2.27319106e-06, -3.57959107e-06, 2.24683774e-07,
          1.38311600e-06, 4.49531655e-07, 1.63468042e-06, 2.77992513e-06,
          1.86028853e-06, 1.66954453e-06, 2.80103154e-06, 1.96242081e-06,
          1.45319473e-06, 2.56620092e-06, 1.74588092e-06,
          -2.15964334e-07, 8.26368819e-07, 3.17896536e-08,
          -2.65920562e-06, -1.62365632e-06, -2.41145176e-06,
          -2.34847380e-06, -1.26332793e-06, -2.22939411e-06,
          3.48073343e-07, 1.44206399e-06, 4.67153029e-07, 4.10846610e-07,
          1.48465676e-06, 4.46571931e-07, -2.59174999e-06,
          -1.49758830e-06, -2.55602458e-06, -2.54395695e-06,
          -1.44263140e-06, -2.54817451e-06, -2.13769454e-06,
          -1.00282989e-06, -2.14267220e-06, -2.35686025e-06,
          -1.16171361e-06, -2.39689257e-06, -3.47132004e-06,
          -2.29803459e-06, -3.70156431e-06, -3.45883632e-06,
          -2.27801092e-06, -3.77460265e-06, -3.47316427e-06,
          -2.27877103e-06, -3.78893037e-06, -3.48407116e-06,
          -2.27611031e-06, -3.83419683e-06, -2.18226546e-06,
          -1.07541462e-06, -2.48979791e-06, -2.28969748e-06,
          -1.18284686e-06, -2.62436561e-06, -2.60857337e-06,
          -1.50172275e-06, -2.94324150e-06, -1.98717680e-06,
          -8.80326184e-07, -2.34898016e-06, 1.35678681e-06,
          2.46319746e-06, 9.94983452e-07, 1.30106434e-06, 2.42782653e-06,
          9.43463192e-07, -2.05215179e-06, -9.25389600e-07,
          -2.40975282e-06, -3.51424524e-06, -2.28561271e-06,
          -3.91329877e-06, -3.51424524e-06, -2.28561271e-06,
          -3.91329877e-06, -3.50974392e-06, -2.28561271e-06,
          -3.91373896e-06, -3.50974392e-06, -2.28561271e-06,
          -3.91373896e-06, -3.52666711e-06, -2.29803459e-06,
          -3.92550055e-06, -3.52622715e-06, -2.29803459e-06,
          -3.92506081e-06, -3.51221934e-06, -2.29803459e-06,
          -3.92764241e-06, -3.51133940e-06, -2.29803459e-06,
          -3.92676247e-06, -3.51133940e-06, -2.29803459e-06,
          -3.92610264e-06, -3.51155950e-06, -2.29803459e-06,
          -3.92632228e-06, -2.83977806e-06, -1.73387559e-06,
          -3.36292351e-06, 8.47894057e-08, 1.19113201e-06,
          -4.38356039e-07, 1.57499517e-06, 2.68834151e-06,
          1.04956894e-06, 1.59325077e-06, 2.70659712e-06, 1.06782454e-06,
          1.59442084e-06, 2.71001818e-06, 1.11229951e-06, 1.65523932e-06,
          2.77105664e-06, 1.17311799e-06, 5.95593406e-07, 1.70072519e-06,
          1.13032158e-07, -4.65353367e-07, 6.33434581e-07,
          -9.47914600e-07, -3.47807327e-06, -2.29005263e-06,
          -3.89880597e-06, -3.48022172e-06, -2.29803459e-06,
          -3.89886418e-06, -3.47610012e-06, -2.29803459e-06,
          -3.86760712e-06, -3.46339652e-06, -2.28834210e-06,
          -3.85699423e-06, -1.75567573e-06, -7.54916812e-07,
          -2.00561294e-06, 6.01561908e-07, 1.60232082e-06,
          3.51624664e-07, 1.84708540e-06, 2.84822931e-06, 1.65980384e-06,
          1.69801058e-06, 2.69915449e-06, 1.56267492e-06, 1.53536814e-06,
          2.55007967e-06, 1.37232701e-06, 1.63412142e-06, 2.63450511e-06,
          1.47012997e-06, 1.37704421e-06, 2.37666768e-06, 1.21597429e-06,
          1.39589974e-06, 2.39758401e-06, 1.23482971e-06,
          -8.46996556e-07, 1.64133851e-07, -1.01328817e-06,
          -3.48605840e-06, -2.29328339e-06, -3.85736166e-06,
          -3.47898231e-06, -2.29803459e-06, -3.82286316e-06,
          -3.47714149e-06, -2.29803459e-06, -3.82102235e-06,
          -3.46623597e-06, -2.29803459e-06, -3.79981270e-06,
          -3.44236423e-06, -2.29803459e-06, -3.77594097e-06,
          -3.42527642e-06, -2.29803459e-06, -3.73618400e-06,
          -3.42438716e-06, -2.31045647e-06, -3.48422327e-06,
          -3.44614659e-06, -2.44647003e-06, -3.57543831e-06,
          -3.45198418e-06, -2.47944308e-06, -3.58127591e-06,
          -2.97578754e-06, -2.01646935e-06, -2.98674991e-06,
          -2.36212418e-06, -1.38112409e-06, -2.37289646e-06,
          4.58245182e-07, 1.47909020e-06, 4.01702238e-07, 1.15260184e-06,
          2.20736615e-06, 1.09605890e-06, 1.12758676e-06, 2.12984105e-06,
          9.04862361e-07, 1.35551159e-06, 2.37887753e-06, 1.13297722e-06,
          1.13561896e-06, 2.12728128e-06, 9.38862399e-07, 8.87571161e-07,
          1.89280115e-06, 6.90814602e-07, 7.35293142e-08, 1.02263016e-06,
          -2.41644955e-07, -2.60904585e-06, -1.65994493e-06,
          -2.92422010e-06, -3.77533979e-06, -2.71031104e-06,
          -3.97333588e-06, -3.78564391e-06, -2.72061493e-06,
          -3.98364000e-06, -3.79594803e-06, -2.73504065e-06,
          -3.97419399e-06, -3.79778885e-06, -2.73710157e-06,
          -3.97603480e-06, -3.78839968e-06, -2.73921933e-06,
          -3.97679605e-06, -3.18850061e-06, -2.07609105e-06,
          -3.30864668e-06, -1.12536168e-06, 1.45011327e-08,
          -1.30645606e-06, 1.27928047e-06, 2.41804332e-06,
          1.09818609e-06, 1.42656575e-06, 2.30189585e-06, 1.16609897e-06,
          1.38378289e-06, 2.32300226e-06, 1.11675229e-06, 1.46199454e-06,
          2.40799773e-06, 1.19496394e-06, 1.31259912e-06, 2.39126257e-06,
          1.05833919e-06, 1.51193751e-06, 2.59662465e-06, 1.25653730e-06,
          6.58911574e-07, 1.84801979e-06, 4.07251576e-07,
          -2.51472306e-06, -1.31226705e-06, -2.76638298e-06,
          -3.47263995e-06, -2.24834730e-06, -3.79804123e-06,
          -3.47219998e-06, -2.24834730e-06, -3.79760104e-06,
          -3.47857144e-06, -2.25487770e-06, -3.79739049e-06,
          -1.37803067e-06, -1.77914089e-07, -1.61166417e-06,
          1.17749653e-06, 2.37555219e-06, 9.36477761e-07, 6.05854950e-07,
          1.80206985e-06, 3.64836183e-07, -2.46356535e-06,
          -1.27353292e-06, -2.70546411e-06, -3.46541447e-06,
          -2.26076918e-06, -3.79135849e-06, -3.46149386e-06,
          -2.26076918e-06, -3.79275934e-06, -1.84477483e-06,
          -6.74573016e-07, -2.08667348e-06, -1.46253967e-06,
          -2.27348607e-07, -1.66596715e-06, -2.38537109e-06,
          -1.17465277e-06, -2.59297985e-06, -3.39639519e-06,
          -2.26076918e-06, -3.58752072e-06, -3.37604365e-06,
          -2.26076918e-06, -3.56716919e-06, 1.73216378e-07,
          1.33164860e-06, 3.98064259e-07, 1.61316405e-06, 2.75862863e-06,
          1.83877216e-06, 1.49477228e-06, 2.62628919e-06, 1.78745847e-06,
          1.83875079e-06, 2.95029622e-06, 2.06830805e-06, 1.76034905e-06,
          2.80103154e-06, 2.00829300e-06, 2.42899851e-08, 1.05777849e-06,
          2.72043991e-07, -2.19334743e-06, -1.10798157e-06,
          -2.07426774e-06, -2.72464536e-06, -1.64400251e-06,
          -2.60556567e-06, -2.00240856e-06, -9.62517674e-07,
          -1.96668339e-06, -4.93537186e-07, 5.53137625e-07,
          -4.57811893e-07, 1.25541715e-06, 2.30209207e-06,
          1.25043948e-06, 1.42774138e-06, 2.50155153e-06, 1.42276372e-06,
          8.50026595e-07, 1.99090277e-06, 8.09994390e-07,
          -3.41071996e-06, -2.06886034e-06, -2.98621262e-06,
          -3.43327929e-06, -2.28561271e-06, -3.74790534e-06,
          -3.46719844e-06, -2.28561271e-06, -3.78182449e-06,
          -1.21879611e-06, -1.11945354e-07, -1.52632867e-06,
          9.62236754e-07, 2.07587141e-06, 6.54704138e-07, 1.40007990e-06,
          2.50693051e-06, 1.06541188e-06, 8.65389325e-07, 1.97223994e-06,
          5.30721366e-07, 1.05553647e-06, 2.16238732e-06, 6.93733227e-07,
          1.43074851e-06, 2.53791950e-06, 1.07008555e-06, 1.09095106e-06,
          2.21847336e-06, 7.34490186e-07, -2.45526303e-06,
          -1.32850084e-06, -2.81286407e-06, -3.51424524e-06,
          -2.28561271e-06, -3.91329877e-06, -3.51424524e-06,
          -2.28561271e-06, -3.91329877e-06, -3.51468520e-06,
          -2.28561271e-06, -3.91373896e-06, -3.51402537e-06,
          -2.28561271e-06, -3.91307913e-06, -3.52644702e-06,
          -2.29803459e-06, -3.92528091e-06, -3.52600705e-06,
          -2.29803459e-06, -3.92484071e-06, -3.51199947e-06,
          -2.29803459e-06, -3.92742231e-06, -3.51111953e-06,
          -2.29803459e-06, -3.92654238e-06, -3.51089943e-06,
          -2.29803459e-06, -3.92566244e-06, -3.51089943e-06,
          -2.29803459e-06, -3.92566244e-06, -2.73703722e-06,
          -1.63157461e-06, -3.26018267e-06, 1.08698021e-06,
          2.19244293e-06, 5.63834817e-07, 1.06574180e-06, 2.17798811e-06,
          5.40315511e-07, 1.27110388e-06, 2.38335019e-06, 7.45677596e-07,
          1.21348626e-06, 2.32592265e-06, 7.31364935e-07, 7.57489659e-07,
          1.87014621e-06, 2.75368421e-07, -1.74764170e-06,
          -6.38446863e-07, -2.23020288e-06, -3.49634479e-06,
          -2.28701174e-06, -3.91501680e-06, -3.49785228e-06,
          -2.29803459e-06, -3.91649473e-06, -3.49807237e-06,
          -2.29803459e-06, -3.91671483e-06, -3.47750256e-06,
          -2.29803459e-06, -3.87395085e-06, -1.10568021e-06,
          -3.69207562e-08, -1.43936961e-06, 1.25039628e-06,
          2.25071517e-06, 1.00045906e-06, 1.44437411e-06, 2.44827424e-06,
          1.19671745e-06, 1.73876265e-06, 2.74174727e-06, 1.59476917e-06,
          1.69823056e-06, 2.69858447e-06, 1.56156455e-06, 1.57045224e-06,
          2.57137617e-06, 1.40798113e-06, 1.59174863e-06, 2.59210242e-06,
          1.42794727e-06, 1.29112846e-06, 2.29053194e-06, 1.13005842e-06,
          1.23149118e-06, 2.22493236e-06, 1.07042126e-06,
          -2.62301864e-06, -1.62057165e-06, -2.78931043e-06,
          -3.48614753e-06, -2.29803459e-06, -3.85117892e-06,
          -3.48430672e-06, -2.29803459e-06, -3.82818735e-06,
          -3.48452659e-06, -2.29803459e-06, -3.82840744e-06,
          -3.46805200e-06, -2.28720182e-06, -3.80390907e-06,
          -3.46053616e-06, -2.29119291e-06, -3.79639323e-06,
          -3.46357365e-06, -2.29803459e-06, -3.77448146e-06,
          -3.45152239e-06, -2.31045647e-06, -3.76243020e-06,
          -3.44829550e-06, -2.40113218e-06, -3.57758722e-06,
          -3.41703844e-06, -2.39701058e-06, -3.54633039e-06,
          -3.37699385e-06, -2.41767566e-06, -3.43054876e-06,
          -3.42782528e-06, -2.46717650e-06, -3.48119011e-06,
          -1.49728885e-06, -5.30714431e-07, -1.55383179e-06,
          1.02807496e-06, 2.03535228e-06, 9.71532018e-07, 1.21156688e-06,
          2.17311822e-06, 9.88842430e-07, 1.17903676e-06, 2.17526735e-06,
          9.56502390e-07, 1.09426094e-06, 2.06557183e-06, 8.97504378e-07,
          -4.43417036e-07, 5.55029146e-07, -6.40173596e-07,
          -3.05317076e-06, -2.10406984e-06, -3.36834501e-06,
          -3.77679930e-06, -2.71443264e-06, -4.02846445e-06,
          -3.78976551e-06, -2.72473676e-06, -3.98776137e-06,
          -3.79594803e-06, -2.73091905e-06, -3.99394366e-06,
          -3.80419124e-06, -2.74328386e-06, -3.98243719e-06,
          -3.80419124e-06, -2.74328386e-06, -3.98243719e-06,
          -1.89892262e-06, -7.85853047e-07, -2.01906869e-06,
          -3.65141837e-08, 1.07611538e-06, -1.56660150e-07,
          8.51681932e-07, 1.99198485e-06, 6.70587553e-07, 1.39543556e-06,
          2.53551843e-06, 1.21396113e-06, 1.46161983e-06, 2.32338243e-06,
          1.24863982e-06, 1.41205317e-06, 2.34448862e-06, 1.17894172e-06,
          1.41186308e-06, 2.34429876e-06, 1.17875163e-06, 1.33915898e-06,
          2.41027828e-06, 1.10144799e-06, 1.41147916e-06, 2.48938250e-06,
          1.17376828e-06, -1.51347047e-06, -3.22301389e-07,
          -1.77131290e-06, -3.47285982e-06, -2.24834730e-06,
          -3.81474774e-06, -3.47263995e-06, -2.24834730e-06,
          -3.81040604e-06, -3.47219998e-06, -2.24834730e-06,
          -3.80996607e-06, -2.50264861e-06, -1.29634964e-06,
          -2.75961111e-06, -5.50422669e-07, 6.55876306e-07,
          -8.07385163e-07, 1.04866717e-06, 2.25062468e-06,
          7.88719433e-07, 3.73994453e-07, 1.57389104e-06, 1.14046649e-07,
          -2.43730847e-06, -1.24653502e-06, -2.68519216e-06,
          -3.46343450e-06, -2.26076918e-06, -3.79536345e-06,
          -3.45593207e-06, -2.26076918e-06, -3.77115475e-06,
          -3.43986358e-06, -2.26076918e-06, -3.75508625e-06,
          -3.43317129e-06, -2.25601798e-06, -3.79578159e-06,
          -3.42761587e-06, -2.26076918e-06, -3.78471464e-06,
          -3.39709118e-06, -2.25487770e-06, -3.67963139e-06,
          -3.38529208e-06, -2.26076918e-06, -3.66707218e-06,
          5.38559050e-07, 1.71346346e-06, 7.03012404e-07, 1.32859157e-06,
          2.49470986e-06, 1.49304492e-06, 1.42715805e-06, 2.56696103e-06,
          1.69346913e-06, 1.21885739e-06, 2.35171660e-06, 1.48440824e-06,
          1.24633732e-06, 2.33270066e-06, 1.48617789e-06, 9.33775596e-07,
          2.01135435e-06, 1.17285595e-06, -2.18462924e-06,
          -1.10188898e-06, -1.97565464e-06, -3.32290801e-06,
          -2.27319106e-06, -3.36949029e-06, -3.31818501e-06,
          -2.27319106e-06, -3.38517725e-06, -1.09997791e-06,
          -6.00868830e-08, -9.76062779e-07, 1.03453442e-06,
          2.06764162e-06, 1.11774648e-06, 8.15224553e-07, 1.86189936e-06,
          8.98436667e-07, 4.48387027e-07, 1.54443842e-06, 5.03328465e-07,
          -3.37547044e-06, -2.05887250e-06, -2.83469308e-06,
          -3.41292775e-06, -2.28561271e-06, -3.71398619e-06,
          -3.44684690e-06, -2.28561271e-06, -3.74790534e-06,
          -1.61309083e-06, -5.19807770e-07, -1.88670424e-06,
          7.73419856e-07, 1.88705440e-06, 4.99806390e-07, 1.12018586e-06,
          2.22703670e-06, 8.12653298e-07, 9.26047676e-07, 2.03289846e-06,
          6.18515060e-07, 1.55409589e-06, 2.66094662e-06, 1.21942799e-06,
          8.68109851e-07, 1.97452050e-06, 5.33441892e-07, 1.21131757e-06,
          2.33807987e-06, 8.60500279e-07, -1.35983430e-06,
          -2.33072086e-07, -1.71065165e-06, -2.64902110e-06,
          -1.52225891e-06, -3.00662236e-06, -2.62335357e-06,
          -1.49659138e-06, -2.98095483e-06, -2.20331708e-06,
          -1.07655490e-06, -2.56091835e-06, -2.54269935e-06,
          -1.41615703e-06, -2.90030039e-06, -2.81383882e-06,
          -1.63718164e-06, -3.18407888e-06, -3.51986569e-06,
          -2.29309330e-06, -3.92462061e-06, -3.51133940e-06,
          -2.29803459e-06, -3.92044103e-06, -2.30914884e-06,
          -1.16153342e-06, -2.74144713e-06, -1.27776946e-06,
          -1.72966821e-07, -1.79327333e-06, -1.16691638e-06,
          -6.21137204e-08, -1.68242025e-06, -9.69867529e-07,
          1.34495110e-07, -1.48537140e-06, 1.23468442e-06,
          2.33904711e-06, 7.19180491e-07, 1.42964075e-06, 2.54078714e-06,
          9.09795176e-07, 1.19462015e-06, 2.30576666e-06, 6.74774583e-07,
          1.42698002e-06, 2.53831649e-06, 9.32368835e-07,
          -1.21623304e-06, -1.04896564e-07, -1.71084434e-06,
          -3.51334165e-06, -2.29803459e-06, -3.94425388e-06,
          -3.51378162e-06, -2.29803459e-06, -3.94469407e-06,
          -3.49862489e-06, -2.29803459e-06, -3.93879009e-06,
          -3.49583411e-06, -2.29062266e-06, -3.93295841e-06,
          -8.50238393e-07, 2.35550289e-07, -1.21086543e-06,
          1.31777233e-06, 2.40378108e-06, 9.57145289e-07, 1.36770768e-06,
          2.40245072e-06, 1.06156108e-06, 1.46684101e-06, 2.48801643e-06,
          1.16069441e-06, 1.67699409e-06, 2.67595760e-06, 1.49211098e-06,
          1.69867064e-06, 2.69782413e-06, 1.51397751e-06, 1.27274257e-06,
          2.27322653e-06, 1.11030147e-06, 1.63272057e-06, 2.63469519e-06,
          1.46913919e-06, 8.28219640e-07, 1.82924407e-06, 6.67149664e-07,
          -1.83156840e-06, -8.32604826e-07, -1.99263832e-06,
          -2.85093711e-06, -2.29803459e-06, -3.01761042e-06,
          -3.48776825e-06, -2.29803459e-06, -3.85546218e-06,
          -3.47395462e-06, -2.28530143e-06, -3.14756880e-06,
          -3.47800551e-06, -2.28891236e-06, -3.21550897e-06,
          -3.49214042e-06, -2.29803459e-06, -3.61664911e-06,
          -3.48332378e-06, -2.29803459e-06, -3.84549503e-06,
          -2.74155695e-06, -1.68511554e-06, -2.87459443e-06,
          -3.46858224e-06, -2.31045647e-06, -3.60358922e-06,
          -3.45542412e-06, -2.31045647e-06, -3.82970393e-06,
          -3.44185651e-06, -2.31045647e-06, -3.81613609e-06,
          -3.41950113e-06, -2.32287812e-06, -3.69382747e-06,
          -3.38206155e-06, -2.32287812e-06, -3.65638789e-06,
          -3.38352106e-06, -2.32287812e-06, -3.50628557e-06,
          -1.94191261e-06, -9.04067917e-07, -2.02189449e-06,
          1.72958028e-06, 2.70004693e-06, 1.59953368e-06, 1.37293750e-06,
          2.36375558e-06, 1.24289079e-06, 4.29631655e-07, 1.41708426e-06,
          2.78734035e-07, -2.93095468e-06, -1.92372067e-06,
          -3.08223252e-06, -3.79088010e-06, -2.71855424e-06,
          -3.98226075e-06, -3.79294102e-06, -2.72061493e-06,
          -3.98432167e-06, -3.79474523e-06, -2.71855424e-06,
          -3.98707198e-06, -3.79886683e-06, -2.72267584e-06,
          -3.99119335e-06, -2.56519365e-06, -1.53150870e-06,
          -2.86425211e-06, -9.16378838e-07, 1.17526206e-07,
          -1.21543712e-06, 5.79527523e-07, 1.71351212e-06,
          4.08649669e-07, 8.66714458e-07, 2.00069917e-06, 6.95836661e-07,
          1.05848392e-06, 2.19266303e-06, 8.74749617e-07, 1.11542647e-06,
          2.24960559e-06, 9.31692171e-07, 1.44710725e-06, 2.30208593e-06,
          1.23412735e-06, 1.40432439e-06, 2.32319235e-06, 1.17121294e-06,
          1.41883697e-06, 2.34448862e-06, 1.18572552e-06, 1.31463150e-06,
          2.37896711e-06, 1.07692063e-06, 1.32553316e-06, 2.39665269e-06,
          1.08782228e-06, -5.72058013e-07, 6.12327199e-07,
          -8.29900443e-07, -3.45166609e-06, -2.22585300e-06,
          -3.79469429e-06, -3.46227898e-06, -2.23592542e-06,
          -3.80004508e-06, -3.47219998e-06, -2.24834730e-06,
          -3.80996607e-06, -3.47474293e-06, -2.24302607e-06,
          -3.81689097e-06, -1.40973157e-06, -1.97690113e-07,
          -1.66669406e-06, 9.51556729e-07, 2.16543890e-06,
          6.91608932e-07, 9.97250481e-07, 2.20841184e-06, 7.37302628e-07,
          -2.34795311e-06, -1.14385398e-06, -2.59583680e-06,
          -3.47469927e-06, -2.26076918e-06, -3.80662846e-06,
          -3.46307525e-06, -2.26076918e-06, -3.77829792e-06,
          -3.43820466e-06, -2.25544773e-06, -3.75456739e-06,
          -2.46557011e-06, -1.27220255e-06, -2.67473456e-06,
          -2.16101694e-06, -9.74433078e-07, -2.37018116e-06,
          -2.16646663e-06, -9.90408125e-07, -2.15085720e-06,
          -2.44039688e-06, -1.27068211e-06, -2.42478745e-06,
          6.83012971e-08, 1.26547889e-06, 2.32754658e-07, 1.39226233e-06,
          2.57653232e-06, 1.55671569e-06, 1.40178270e-06, 2.56696103e-06,
          1.66809377e-06, 1.32858452e-06, 2.48025503e-06, 1.59413537e-06,
          1.63333823e-06, 2.73733235e-06, 1.87317880e-06, 9.35322589e-07,
          2.02580895e-06, 1.17440300e-06, -3.34592187e-06,
          -2.27319106e-06, -2.64713003e-06, -3.34119864e-06,
          -2.27319106e-06, -3.38778091e-06, -3.33093453e-06,
          -2.26596921e-06, -3.39868711e-06, -8.30040676e-07,
          2.23417985e-07, -7.06125547e-07, -2.44963303e-06,
          -1.40974203e-06, -2.36642086e-06, -2.47244975e-06,
          -1.43255886e-06, -2.38923758e-06, -2.39859355e-06,
          -1.31610977e-06, -2.34365211e-06, -3.37634651e-06,
          -2.29803459e-06, -3.51161702e-06, -3.39936014e-06,
          -2.28561271e-06, -3.70041835e-06, -3.42649537e-06,
          -2.28561271e-06, -3.72755380e-06, -3.46244724e-06,
          -2.28561271e-06, -3.78226446e-06, -2.68881786e-06,
          -1.58196713e-06, -2.96243115e-06, -2.82870133e-06,
          -1.71506679e-06, -3.13623400e-06, -1.98546650e-06,
          -8.78615765e-07, -2.29299917e-06, 9.35550077e-07,
          2.04240087e-06, 6.00882117e-07, 1.34062168e-06, 2.44703233e-06,
          1.00595366e-06, 1.32521143e-06, 2.45216370e-06, 9.74584168e-07,
          1.23318409e-06, 2.35994639e-06, 8.82366805e-07, 9.91891966e-07,
          2.11865427e-06, 6.34290814e-07, 7.57631540e-07, 1.88439378e-06,
          4.00030416e-07, 1.04303683e-06, 2.16979902e-06, 6.85435737e-07,
          7.97813584e-07, 1.92413586e-06, 4.40212489e-07,
          -1.08610993e-06, 9.01073278e-08, -1.45634988e-06,
          -3.51828544e-06, -2.29195302e-06, -3.91847925e-06,
          -3.50699793e-06, -2.29803459e-06, -3.91609910e-06,
          -1.27883902e-06, -1.35125205e-07, -1.71113720e-06,
          1.10596659e-06, 2.20708762e-06, 5.90462719e-07, 1.50000437e-06,
          2.60068532e-06, 9.84500502e-07, 8.34554555e-07, 1.93479559e-06,
          3.19050628e-07, 1.65335007e-06, 2.75337106e-06, 1.13784620e-06,
          1.58590933e-06, 2.69119232e-06, 1.06796438e-06, 1.43575414e-06,
          2.53945677e-06, 9.15908629e-07, 1.57633474e-06, 2.68701115e-06,
          1.08172355e-06, -1.93949063e-06, -8.28594068e-07,
          -2.43410182e-06, -3.51246172e-06, -2.29803459e-06,
          -3.94337394e-06, -3.51268181e-06, -2.29803459e-06,
          -3.94359404e-06, -3.49689503e-06, -2.29138300e-06,
          -3.93401979e-06, -1.35689220e-06, -2.59482761e-07,
          -1.85790577e-06, 9.67647566e-07, 2.05049537e-06,
