%YAML:1.0
---
opencv_ml_svm:
   format: 3
   svmType: C_SVC
   kernel:
      type: LINEAR
   C: 1.
   term_criteria: { iterations:100 }
   var_count: 12648
   class_count: 2
   class_labels: !!opencv-matrix
      rows: 2
      cols: 1
      dt: i
      data: [ -1, 1 ]
   sv_total: 1
   support_vectors:
      - [ 1.62430104e-06, 6.42650889e-07, -7.19714478e-07,
          1.47418859e-06, 8.83736220e-07, -8.19735021e-07,
          1.19596120e-06, 6.13724808e-07, -4.32195861e-07,
          1.42882527e-06, 7.66971993e-07, -4.83990732e-07,
          2.04172807e-06, 9.53213259e-07, -6.32737169e-07,
          1.93451979e-06, 8.47742513e-07, -7.55777023e-07,
          2.04377784e-06, 6.34498917e-07, -6.47265381e-07,
          -1.17618322e-06, -2.53273288e-06, -3.67054781e-06,
          -9.90622652e-07, -2.84342195e-06, -3.96163659e-06,
          -1.85228919e-06, -3.65941696e-06, -4.79054597e-06,
          -2.21732057e-06, -4.28563317e-06, -5.45443390e-06,
          -1.94340123e-06, -4.20184779e-06, -5.39080156e-06,
          -1.25645852e-06, -2.98432587e-06, -4.96956272e-06,
          -1.49056731e-07, -1.87692399e-06, -3.86278361e-06,
          1.04346299e-07, -9.58767146e-07, -5.19728519e-06,
          -2.15049923e-07, -1.27816338e-06, -5.53075915e-06,
          -2.02036659e-07, -1.53428391e-06, -5.61474826e-06,
          -2.32530880e-07, -1.56477813e-06, -5.64218999e-06,
          -4.53969022e-07, -1.89482478e-06, -5.34370247e-06,
          3.86660986e-07, -1.05419474e-06, -4.42402643e-06,
          7.83356938e-07, -1.01377168e-06, -3.25085625e-06,
          6.62671823e-07, -1.12248267e-06, -3.32954710e-06,
          1.34238587e-06, -7.90329977e-07, -2.16232479e-06,
          3.20126810e-06, 1.16501224e-06, -3.08680143e-07,
          3.18462480e-06, 1.37152267e-06, -5.11664780e-07,
          3.09229290e-06, 1.11181623e-06, -7.06449725e-07,
          2.90521621e-06, 8.82996972e-07, -8.10575216e-07,
          2.75437856e-06, 7.26625274e-07, -9.66884386e-07,
          2.86449244e-06, 6.50600271e-07, -8.61912952e-07,
          2.90779872e-06, 6.82053383e-07, -8.16459021e-07,
          2.89964373e-06, 8.85335851e-07, -8.40265670e-07,
          2.94895813e-06, 9.47135220e-07, -7.97066434e-07,
          3.09969846e-06, 9.08211348e-07, -7.86569103e-07,
          3.05136859e-06, 8.70523252e-07, -9.02444981e-07,
          3.07114897e-06, 8.52794528e-07, -8.64397009e-07,
          3.02959052e-06, 8.29658973e-07, -8.72729288e-07,
          2.90915159e-06, 8.12813596e-07, -8.87503745e-07,
          2.99392013e-06, 8.92953665e-07, -8.12705537e-07,
          2.86951558e-06, 8.68773043e-07, -7.95125800e-07,
          3.06545462e-06, 1.06471202e-06, -5.99654982e-07,
          3.06529409e-06, 1.38964617e-06, -3.04320764e-07,
          2.84366297e-06, 1.17611842e-06, -5.21401773e-07,
          2.24448490e-06, 8.87553597e-07, -5.05645289e-07,
          2.11468750e-06, 7.57756311e-07, -6.34974356e-07,
          2.02664046e-06, 7.04209128e-07, -1.04319167e-06,
          1.92780999e-06, 6.36541529e-07, -1.05091192e-06,
          1.72589012e-06, 6.78043023e-07, -9.41974690e-07,
          1.65292374e-06, 6.01012005e-07, -1.07277435e-06,
          1.61695641e-06, 5.97837015e-07, -1.18900903e-06,
          1.49034383e-06, 4.68514685e-07, -1.41460760e-06,
          1.33681181e-06, 1.32913684e-07, -1.71923421e-06,
          8.96093695e-07, -3.11869144e-07, -2.32603361e-06,
          6.51521816e-07, -5.79736479e-07, -2.37969630e-06,
          5.51038909e-07, -7.33088712e-07, -2.62997037e-06,
          7.56261045e-07, -4.89352146e-07, -2.34882668e-06,
          8.81469532e-07, -3.65240425e-07, -2.12598775e-06,
          9.39490803e-07, -2.21860191e-07, -1.84869771e-06,
          9.41434507e-07, -2.21013238e-07, -1.93893834e-06,
          9.68331392e-07, -2.33682570e-07, -1.85766987e-06,
          1.05591732e-06, -1.46225673e-07, -1.81450457e-06,
          9.42273573e-07, -2.13192791e-07, -2.02255978e-06,
          6.82326743e-07, -4.73139636e-07, -2.22337349e-06,
          9.75923172e-07, -2.43821063e-07, -2.07038488e-06,
          8.99694328e-07, -3.20049907e-07, -2.18812806e-06,
          1.09678251e-06, -1.09473966e-07, -1.79063647e-06,
          1.34905565e-06, 1.42799223e-07, -1.50444168e-06,
          1.45114586e-06, 2.86341646e-07, -1.49934033e-06,
          1.29141301e-06, 1.26608825e-07, -1.58582122e-06,
          1.30949240e-06, 1.52621382e-07, -1.56381145e-06,
          1.43954844e-06, 2.82677433e-07, -1.46089269e-06,
          1.91270283e-06, 6.38435779e-07, -1.18066521e-06,
          2.02779620e-06, 7.46050830e-07, -9.91364004e-07,
          1.93234746e-06, 7.02720911e-07, -9.73123974e-07,
          1.86859472e-06, 6.38968118e-07, -1.11495297e-06,
          1.78051835e-06, 6.17100341e-07, -1.19887807e-06,
          1.81065548e-06, 6.49730282e-07, -1.10190524e-06,
          1.91384265e-06, 7.99666111e-07, -1.01243711e-06,
          2.08974916e-06, 9.75572789e-07, -7.21871004e-07,
          2.12660416e-06, 1.04414778e-06, -6.71276950e-07,
          2.05370520e-06, 9.71248937e-07, -7.61896615e-07,
          1.97544909e-06, 9.43198529e-07, -8.34517664e-07,
          2.06911636e-06, 1.03686580e-06, -6.84818360e-07,
          2.01968896e-06, 9.59187787e-07, -6.70951692e-07,
          1.71679505e-06, 6.77972196e-07, -1.10139615e-06,
          1.63881850e-06, 6.44000977e-07, -1.05592380e-06,
          1.72955265e-06, 7.34735124e-07, -1.01139130e-06,
          1.52814539e-06, 9.12529913e-07, -8.40720077e-07,
          1.25054828e-06, 7.02596139e-07, -1.06098992e-06,
          1.35300866e-06, 8.64600338e-07, -6.96748884e-07,
          1.39311453e-06, 9.21460696e-07, -6.19126297e-07,
          7.93659297e-07, 2.79345386e-07, -4.99368923e-07,
          9.08640516e-07, 3.94326605e-07, -2.73410535e-07,
          -9.52211678e-07, -9.67943151e-07, -1.23640928e-06,
          -3.04911828e-06, -3.31152160e-06, -2.98991085e-06,
          -5.15451711e-06, -4.50759944e-06, -3.14526596e-06,
          -4.79411028e-06, -4.51883852e-06, -3.10152996e-06,
          -2.21871892e-06, -1.38544453e-06, 1.48589265e-07,
          -8.42323914e-07, 5.07039877e-09, 1.59676961e-06,
          -5.49372271e-06, -4.60117190e-06, -2.55856617e-06,
          -6.16543593e-06, -4.98543477e-06, -2.97129645e-06,
          -5.13638042e-06, -4.78002903e-06, -3.14337058e-06,
          -1.80641564e-06, -7.64186666e-07, 9.19489651e-07,
          3.63664344e-06, 3.81415794e-06, 4.10000030e-06, 3.35928166e-06,
          3.51052518e-06, 3.83775114e-06, 2.22724952e-06, 1.54410054e-06,
          1.84791725e-06, 7.28601265e-07, 6.02007049e-08, 3.98064060e-07,
          1.22851498e-06, -2.84155448e-07, 6.49420073e-08,
          1.03484922e-06, -5.02188072e-07, -1.12914826e-07,
          8.45780392e-07, -5.94342396e-07, -3.44440537e-07,
          8.36866889e-07, -6.02820307e-07, -3.14487664e-07,
          7.19260072e-07, -9.35051617e-07, -3.90926402e-07,
          4.36330339e-07, -1.21188964e-06, -7.12651854e-07,
          2.00094121e-07, -1.62473521e-06, -9.21323988e-07,
          -9.37278628e-08, -1.91857271e-06, -1.42832698e-06,
          -3.57318584e-07, -2.24747419e-06, -1.66374230e-06,
          -5.76787727e-07, -2.46446598e-06, -2.09422547e-06,
          -4.17340942e-07, -2.58597493e-06, -1.81446057e-06,
          -3.43253021e-07, -2.51745678e-06, -2.19305184e-06,
          -2.31596246e-07, -2.46236459e-06, -1.48090123e-06,
          -3.14640005e-07, -2.54937345e-06, -2.12516693e-06,
          -4.51691648e-07, -2.70508644e-06, -1.65366964e-06,
          -5.76264199e-07, -2.83464442e-06, -2.27447117e-06,
          -7.27854001e-07, -3.10499172e-06, -1.82714189e-06,
          -7.34565845e-07, -3.10553264e-06, -1.82993153e-06,
          1.53616850e-06, 8.84611495e-07, -8.69573910e-07,
          1.71768306e-06, 9.95852702e-07, -8.25659015e-07,
          1.56980150e-06, 8.75035255e-07, -1.91554975e-07,
          1.63219647e-06, 9.21627873e-07, -2.31098241e-07,
          2.22493941e-06, 1.13913438e-06, -4.62776967e-07,
          2.15217960e-06, 1.06235643e-06, -8.82879476e-07,
          2.42143574e-06, 9.98884275e-07, -2.64713918e-07,
          -8.77296088e-07, -2.22005883e-06, -3.68592828e-06,
          -9.43879229e-07, -2.77392496e-06, -4.27246323e-06,
          -1.58450825e-06, -3.39163603e-06, -4.50563539e-06,
          -1.69492444e-06, -3.75484547e-06, -4.89988133e-06,
          -1.31757361e-06, -3.46918955e-06, -4.50591006e-06,
          -9.96863491e-07, -2.72473085e-06, -4.71853173e-06,
          -7.70295827e-08, -1.80489678e-06, -3.75020727e-06,
          6.33345962e-08, -9.99778877e-07, -5.22789469e-06,
          9.87557200e-08, -9.64357696e-07, -5.20349886e-06,
          1.70699380e-07, -1.16154786e-06, -5.23285553e-06,
          1.92352481e-08, -1.31301204e-06, -5.38126733e-06,
          -9.35892444e-07, -2.37674817e-06, -5.80606729e-06,
          -5.80200037e-07, -2.02105571e-06, -5.45199600e-06,
          4.75269360e-07, -1.44427918e-06, -3.72915656e-06,
          7.00134706e-07, -1.07304561e-06, -3.35669938e-06,
          1.22338122e-06, -9.19772901e-07, -2.36240294e-06,
          3.08258927e-06, 1.04633352e-06, -5.00111241e-07,
          2.97421252e-06, 1.14190664e-06, -7.90268416e-07,
          2.91569950e-06, 9.62828153e-07, -9.31317743e-07,
          2.74548506e-06, 7.48866285e-07, -9.42169834e-07,
          2.63005654e-06, 6.45000853e-07, -1.07098776e-06,
          2.79152391e-06, 5.85652288e-07, -9.17247633e-07,
          2.78658354e-06, 6.55581744e-07, -8.37071639e-07,
          2.87796342e-06, 8.40855307e-07, -8.46586090e-07,
          2.85398187e-06, 8.30535782e-07, -8.59192710e-07,
          2.95081873e-06, 7.58231636e-07, -9.54956477e-07,
          2.81913844e-06, 6.28314183e-07, -1.08620338e-06,
          2.81698385e-06, 6.26625706e-07, -1.17264676e-06,
          2.88151114e-06, 6.98287920e-07, -1.06893958e-06,
          2.82744600e-06, 7.31445766e-07, -9.77265245e-07,
          2.91935976e-06, 8.19748152e-07, -8.90311810e-07,
          2.80683366e-06, 7.78006722e-07, -8.81604024e-07,
          3.06278821e-06, 1.02853198e-06, -6.32060562e-07,
          3.03131878e-06, 1.35743369e-06, -3.34799950e-07,
          2.66642041e-06, 1.00085560e-06, -8.41344161e-07,
          2.00201703e-06, 6.42783959e-07, -8.63156004e-07,
          1.88751517e-06, 5.28281987e-07, -9.71614554e-07,
          1.76874141e-06, 4.75170850e-07, -1.13444571e-06,
          1.67610949e-06, 3.82538985e-07, -1.18122148e-06,
          1.19859249e-06, 1.77843447e-07, -1.37756660e-06,
          1.23404595e-06, 2.13296858e-07, -1.54106215e-06,
          1.41221506e-06, 3.90385850e-07, -1.63031859e-06,
          1.25094709e-06, 2.15953946e-07, -1.63230231e-06,
          1.19689503e-06, -9.71289715e-09, -1.83390944e-06,
          7.81782717e-07, -4.26180094e-07, -2.25441886e-06,
          5.29090755e-07, -6.87062027e-07, -2.76922106e-06,
          3.94848314e-07, -9.34595846e-07, -2.71258295e-06,
          5.71189105e-07, -6.75779006e-07, -2.57089255e-06,
          7.71606210e-07, -4.75232810e-07, -2.23180450e-06,
          9.81250082e-07, -1.80100955e-07, -2.08262986e-06,
          1.05594393e-06, -1.06245729e-07, -2.05820515e-06,
          1.38674750e-06, 1.84991677e-07, -1.61346338e-06,
          1.74991851e-06, 5.48033540e-07, -9.44129852e-07,
          1.53632413e-06, 3.80857813e-07, -1.43914383e-06,
          9.47044555e-07, -2.08421810e-07, -1.91929416e-06,
          9.28542306e-07, -2.91201900e-07, -2.35925927e-06,
          8.60192642e-07, -3.59551564e-07, -2.09138148e-06,
          1.15858063e-06, -4.76758686e-08, -1.71026034e-06,
          1.66421546e-06, 4.57959004e-07, -1.19105675e-06,
          1.89033210e-06, 7.25527855e-07, -9.83197879e-07,
          1.54028760e-06, 3.75483410e-07, -1.34550589e-06,
          1.27417718e-06, 1.17306193e-07, -1.62803883e-06,
          1.35186929e-06, 1.94998279e-07, -1.62054653e-06,
          1.92323614e-06, 6.66418714e-07, -1.16163153e-06,
          2.02336832e-06, 7.44115709e-07, -1.06527375e-06,
          2.01085004e-06, 7.86209171e-07, -8.84626331e-07,
          1.82574865e-06, 5.96122050e-07, -1.15015757e-06,
          1.77148308e-06, 6.05572325e-07, -1.06771381e-06,
          1.82825943e-06, 6.67334234e-07, -1.01800038e-06,
          1.79386188e-06, 6.79685400e-07, -1.02894967e-06,
          1.93931714e-06, 8.22647849e-07, -8.96923780e-07,
          1.94161271e-06, 8.56663746e-07, -8.59196575e-07,
          1.92462676e-06, 8.39677739e-07, -1.20520224e-06,
          1.96352676e-06, 9.31276190e-07, -8.30035106e-07,
          1.98153862e-06, 9.47933188e-07, -8.83505038e-07,
          2.09008022e-06, 1.05125730e-06, -5.78316246e-07,
          1.82324970e-06, 7.84426902e-07, -9.91281809e-07,
          1.63841912e-06, 6.43601538e-07, -1.08569441e-06,
          1.23431175e-06, 6.69972849e-07, -1.20196967e-06,
          2.06877371e-06, 1.46913828e-06, -2.72632036e-07,
          2.00426916e-06, 1.45734964e-06, -9.00439900e-08,
          2.20440484e-06, 1.71470583e-06, 2.10818030e-07, 1.99713782e-06,
          1.52458040e-06, -1.43293178e-07, 9.08703726e-07,
          3.94389758e-07, -2.23641152e-07, 8.66111634e-07,
          3.19653253e-07, -3.23421148e-07, -4.69591470e-07,
          -4.72833136e-07, -6.04042214e-07, -2.42531405e-06,
          -2.65359131e-06, -2.40960480e-06, -4.56629505e-06,
          -3.65018309e-06, -2.17236266e-06, -4.83868462e-06,
          -3.73230841e-06, -2.18258469e-06, -1.53872270e-06,
          -7.08175378e-07, 1.00985176e-06, -7.06706828e-07,
          1.42026522e-07, 1.73506533e-06, -6.25645771e-06,
          -4.93441030e-06, -3.15299167e-06, -6.30132308e-06,
          -4.97914607e-06, -3.14643171e-06, -6.25113717e-06,
          -4.99683165e-06, -3.05424101e-06, -1.97640065e-06,
          -9.34042532e-07, 7.54087637e-07, 4.24187101e-06,
          4.41951488e-06, 4.71046542e-06, 4.14174110e-06, 4.32003026e-06,
          4.66830761e-06, 2.24316250e-06, 1.53545261e-06, 1.84232636e-06,
          5.54264318e-07, -1.26658577e-07, 1.89101712e-07,
          7.53303652e-07, -7.76870252e-07, -4.23625409e-07,
          6.80517985e-07, -7.86029034e-07, -4.10285566e-07,
          7.96482936e-07, -6.46250101e-07, -3.77023298e-07,
          5.48938601e-07, -8.93022843e-07, -7.59837747e-07,
          5.33934781e-07, -1.12129624e-06, -6.96844950e-07,
          2.40485861e-07, -1.40560758e-06, -1.21485482e-06,
          4.48442101e-08, -1.77695483e-06, -1.37848372e-06,
          -1.26384805e-07, -1.94570657e-06, -1.36450126e-06,
          -3.41868343e-07, -2.23129155e-06, -1.45133413e-06,
          -5.26592373e-07, -2.41687258e-06, -2.06295135e-06,
          -4.99612042e-07, -2.71059116e-06, -1.85010640e-06,
          -4.67594703e-07, -2.74593594e-06, -2.35966013e-06,
          -3.53888254e-07, -2.57983584e-06, -1.75910054e-06,
          -4.19607915e-07, -2.64746336e-06, -2.00309591e-06,
          -5.92700871e-07, -2.83518307e-06, -1.67673954e-06,
          -6.85786461e-07, -2.93571520e-06, -2.29122975e-06,
          -8.63116554e-07, -3.23287122e-06, -1.85237218e-06,
          -8.63169817e-07, -3.22988353e-06, -1.83395377e-06,
          1.31800869e-06, 5.68319479e-07, -9.79785455e-07,
          1.61121977e-06, 8.24552899e-07, -4.03096237e-07,
          1.89853779e-06, 1.01475564e-06, 1.37555119e-07, 1.92670836e-06,
          1.02847878e-06, 1.68571376e-07, 2.71235967e-06, 1.36429878e-06,
          6.09111126e-08, 3.24067787e-06, 1.89220623e-06, 5.34094681e-07,
          3.30776516e-06, 1.90221124e-06, 3.89909786e-07,
          -2.68178241e-07, -1.58374303e-06, -2.95306427e-06,
          -4.63172711e-07, -2.66758934e-06, -4.41143857e-06,
          -1.06490540e-06, -3.24569874e-06, -4.63314382e-06,
          -4.83225620e-07, -4.44342959e-06, -4.80054086e-06,
          5.64320771e-07, -3.35491268e-06, -3.91479898e-06,
          7.59727868e-07, -3.82984808e-06, -3.61715479e-06,
          1.10891324e-06, -3.46452316e-06, -3.09437314e-06,
          2.79302139e-06, -1.09677694e-06, -2.52351379e-06,
          2.01334979e-06, -1.97724421e-06, -3.22156279e-06,
          8.95046071e-07, -1.94702648e-06, -4.76748755e-06,
          8.27559518e-07, -1.98842349e-06, -4.82671703e-06,
          -1.24531152e-06, -3.57830345e-06, -5.97023291e-06,
          -4.14940530e-07, -2.74793251e-06, -5.14901831e-06,
          7.33236106e-07, -1.53129167e-06, -3.42144585e-06,
          8.61242825e-07, -1.35974437e-06, -3.24567827e-06,
          1.01144030e-06, -1.10827978e-06, -2.25775784e-06,
          2.79324786e-06, 8.00353234e-07, -4.48585695e-07,
          2.80434529e-06, 9.49767525e-07, -6.34490505e-07,
          2.54798124e-06, 6.19808532e-07, -8.38839981e-07,
          2.59176227e-06, 5.76199056e-07, -6.88223111e-07,
          2.49242430e-06, 4.73196849e-07, -7.57947646e-07,
          2.65645167e-06, 6.95087010e-07, -6.82841971e-07,
          2.71289514e-06, 8.21409515e-07, -5.53473228e-07,
          2.76664287e-06, 6.99953716e-07, -7.57411385e-07,
          2.76768742e-06, 6.24016593e-07, -8.30776742e-07,
          2.84029966e-06, 5.93164543e-07, -1.01329385e-06,
          2.73004957e-06, 5.05959633e-07, -1.10192320e-06,
          2.77630215e-06, 5.12068254e-07, -1.13096951e-06,
          2.88800584e-06, 6.44610452e-07, -1.01614989e-06,
          2.88178990e-06, 7.22140669e-07, -9.07412755e-07,
          3.31439537e-06, 1.15208184e-06, -4.84152849e-07,
          3.32677064e-06, 1.58725948e-06, -4.95636883e-08,
          3.61172397e-06, 1.87492265e-06, 2.36729008e-07, 3.22943606e-06,
          1.78441655e-06, 4.77452659e-07, 1.41144096e-06,
          -3.10857651e-08, -1.86028751e-06, -2.08486540e-06,
          -2.62627918e-06, -2.80608265e-06, -2.05595552e-06,
          -2.20398601e-06, -3.00976194e-06, -2.69672114e-06,
          -1.85222871e-06, -2.94035658e-06, -2.50052403e-06,
          -1.65874133e-06, -2.82949554e-06, -5.55907150e-07,
          -1.09077473e-06, -2.68383883e-06, 8.43762734e-07,
          3.07540319e-07, -9.68479640e-07, 1.39182214e-06,
          3.84524327e-07, -9.82990514e-07, 8.95572725e-07,
          -1.13999256e-07, -1.93161691e-06, 7.04695424e-07,
          -5.30731825e-07, -2.37480640e-06, 6.99103680e-07,
          -5.39033351e-07, -2.34771142e-06, 6.79677953e-07,
          -5.72077681e-07, -2.68777740e-06, 5.07031643e-07,
          -7.44723991e-07, -3.08035305e-06, 5.84360350e-07,
          -6.95173696e-07, -2.72781540e-06, 7.34342848e-07,
          -5.46546119e-07, -2.19548815e-06, 8.69781616e-07,
          -4.16482038e-07, -2.17138245e-06, 1.19263598e-06,
          -9.43372243e-08, -1.89985781e-06, 2.37212225e-06,
          9.17980572e-07, -8.86133364e-07, 2.52204177e-06,
          1.26202315e-06, -7.95043206e-07, 2.49678169e-06,
          1.01752687e-06, -5.57176861e-07, 1.98578027e-06,
          5.06525453e-07, -1.24035978e-06, 1.24752842e-06,
          -2.36150441e-07, -2.19192225e-06, 1.23054940e-06,
          -2.53129514e-07, -2.15364935e-06, 1.57687964e-06,
          2.27332833e-07, -1.75492119e-06, 2.51874417e-06,
          1.38356086e-06, -7.44008787e-07, 2.69880093e-06,
          1.33468109e-06, -7.83473752e-07, 2.46865170e-06,
          1.15859348e-06, -7.16689954e-07, 1.92257130e-06,
          7.02694138e-07, -1.00748127e-06, 9.09905395e-07,
          -3.09971853e-07, -2.31060585e-06, 1.53579367e-06,
          5.28648684e-07, -1.00636305e-06, 1.57248701e-06,
          5.10500513e-07, -1.10279154e-06, 1.09874770e-06,
          5.77223716e-07, -9.21283799e-07, 1.06372670e-06,
          5.39709959e-07, -9.66897915e-07, 8.63438174e-07,
          9.25794410e-08, -1.86057594e-06, 1.47271498e-06,
          7.01856209e-07, -1.14692261e-06, 2.13000544e-06,
          3.59918715e-07, -1.25044994e-06, 2.10023654e-06,
          3.30149817e-07, -1.29115551e-06, 1.77160746e-06,
          6.56853956e-07, -1.12623172e-06, 1.83271595e-06,
          7.17962507e-07, -1.35933146e-06, 1.71471424e-06,
          7.60086152e-07, -1.32988657e-06, 1.91954950e-06,
          9.66276275e-07, -8.78519131e-07, 2.15438604e-06,
          1.03687887e-06, -7.90138074e-07, 2.05559331e-06,
          9.38086146e-07, -9.38453013e-07, 2.02684009e-06,
          8.11580435e-07, -1.10256065e-06, 2.40813847e-06,
          1.62142135e-06, -4.06514118e-07, 3.01111299e-06,
          2.06980462e-06, -2.35599472e-07, 2.95867153e-06,
          2.07146695e-06, -2.14625928e-07, 3.11436179e-06,
          2.45501224e-06, 2.58730182e-07, 2.68446524e-06, 2.20222114e-06,
          2.74096664e-07, 9.19913191e-07, 4.69832969e-07,
          -5.52103131e-07, 6.97608527e-07, 2.23468803e-07,
          -7.83075620e-07, 6.91679105e-08, 8.78201831e-08,
          -4.91371395e-07, 6.72119938e-07, 5.25339658e-07,
          -3.89923798e-07, -6.30991451e-07, -6.89315925e-07,
          -7.32704279e-07, -1.09260377e-07, 7.28991196e-08,
          -2.77850120e-07, 2.54798169e-06, 2.95294240e-06,
          3.62634501e-06, 2.33326568e-06, 2.94571851e-06, 3.75859986e-06,
          1.14401544e-07, 4.95374934e-07, 1.64495202e-06,
          -1.98639395e-06, -1.60529157e-06, -4.04418500e-07,
          -2.03476202e-06, -1.86110310e-06, -1.50200299e-06,
          2.15604950e-06, 2.32970842e-06, 3.01805335e-06, 4.18180025e-06,
          4.09082713e-06, 4.50021571e-06, 4.11536985e-06, 4.02651085e-06,
          4.50958396e-06, 2.01276043e-06, 1.25962902e-06, 1.90374556e-06,
          2.45214068e-07, -4.95878737e-07, 1.57826705e-07,
          7.94870459e-07, -9.66248422e-07, -2.36464629e-07,
          4.29437506e-07, -1.26154282e-06, -7.21608387e-07,
          4.57368088e-07, -1.35544633e-06, -1.18423759e-06,
          6.92234323e-07, -1.11584325e-06, -6.45032401e-07,
          3.16368329e-07, -1.49939990e-06, -1.30702938e-06,
          1.05005045e-08, -1.79613028e-06, -1.52710152e-06,
          -3.41426500e-07, -1.99624219e-06, -1.34543870e-06,
          -3.62427642e-07, -2.01725879e-06, -1.12184046e-06,
          -6.18236072e-07, -2.30112778e-06, -1.32151285e-06,
          -8.43468172e-07, -2.52805808e-06, -1.63992263e-06,
          -5.36946231e-07, -2.69245947e-06, -1.71806687e-06,
          -5.18076774e-07, -2.64898290e-06, -1.65777828e-06,
          -5.81163135e-07, -2.79609026e-06, -1.91304389e-06,
          -5.59390401e-07, -2.77610798e-06, -1.66409143e-06,
          -5.74550143e-07, -2.79537107e-06, -1.58339901e-06,
          -6.98714814e-07, -2.92045502e-06, -1.89374998e-06,
          -7.51608752e-07, -3.17555282e-06, -1.90438527e-06,
          -8.03564035e-07, -3.24055054e-06, -1.93153483e-06,
          1.17732202e-06, 3.95040360e-07, -1.20293635e-06,
          1.27739554e-06, 4.73571447e-07, -9.34554009e-07,
          1.33067317e-06, 4.45536159e-07, -7.75730598e-07,
          1.31834349e-06, 4.18759072e-07, -7.92791695e-07,
          2.40152576e-06, 1.05114725e-06, -1.43277120e-07,
          3.00293982e-06, 1.57741590e-06, -1.47073223e-07,
          3.58012903e-06, 2.24528071e-06, 2.46621426e-07, 4.12574622e-07,
          -7.26202018e-07, -2.42974443e-06, 3.86541899e-07,
          -1.80188385e-06, -3.17936633e-06, -9.07117169e-07,
          -3.09661505e-06, -4.46964168e-06, -2.94160230e-07,
          -4.21037294e-06, -4.52707764e-06, 4.56420423e-07,
          -3.29785803e-06, -3.85214435e-06, 8.36710512e-07,
          -3.77295100e-06, -3.29701243e-06, 9.01438682e-07,
          -3.65858614e-06, -3.67307234e-06, 1.90312505e-06,
          -2.00933164e-06, -3.70344765e-06, 1.76674985e-06,
          -2.22384415e-06, -3.68122619e-06, 4.61196095e-07,
          -2.37503036e-06, -5.28032479e-06, 1.35755457e-07,
          -2.68422787e-06, -5.61935212e-06, -1.96107794e-06,
          -4.30241880e-06, -6.78698552e-06, -6.18053491e-07,
          -2.95104542e-06, -5.34414539e-06, 6.97180553e-07,
          -1.54252780e-06, -3.44005502e-06, 7.79461345e-07,
          -1.44109026e-06, -3.33577009e-06, 8.91848003e-07,
          -1.22442282e-06, -2.31263903e-06, 2.65597987e-06,
          6.57238957e-07, -6.09086612e-07, 2.63555125e-06,
          8.06390062e-07, -8.03249804e-07, 2.71890462e-06,
          7.57922294e-07, -8.01774490e-07, 2.55642613e-06,
          5.44943134e-07, -7.71473026e-07, 2.47620596e-06,
          4.68803108e-07, -8.50605261e-07, 2.70496867e-06,
          7.40940720e-07, -6.45821842e-07, 2.72079365e-06,
          8.57316422e-07, -5.25312259e-07, 2.79385472e-06,
          7.22711945e-07, -7.33906347e-07, 2.83225882e-06,
          6.84134193e-07, -7.69257667e-07, 2.82820224e-06,
          5.94952155e-07, -1.00666989e-06, 2.74230820e-06,
          5.21943207e-07, -1.08306108e-06, 2.85723900e-06,
          6.11970165e-07, -1.02317267e-06, 2.94210986e-06,
          7.05876005e-07, -9.55794462e-07, 2.97333600e-06,
          8.15041517e-07, -8.15431179e-07, 3.84905570e-06,
          1.68945212e-06, 4.07807619e-08, 3.76659432e-06, 2.03250261e-06,
          3.02176318e-07, 3.77352831e-06, 2.00827412e-06, 2.86452121e-07,
          3.51413610e-06, 2.06911659e-06, 7.56505358e-07, 1.10021995e-06,
          -3.39813937e-07, -2.17712386e-06, -3.60332888e-06,
          -4.27714940e-06, -3.35475102e-06, -3.48735830e-06,
          -4.22326957e-06, -3.30665034e-06, -4.57780880e-06,
          -4.01244051e-06, -3.18033267e-06, -4.48750461e-06,
          -3.70113617e-06, -3.12825387e-06, -2.12327768e-06,
          -2.62698268e-06, -3.21799985e-06, -3.72278066e-07,
          -8.75982948e-07, -2.57346301e-06, 7.85445934e-07,
          -2.25916509e-07, -2.05570814e-06, 7.44403906e-07,
          -2.66522989e-07, -1.71899887e-06, 1.01426429e-06,
          -2.21162963e-07, -1.60604475e-06, 7.77036064e-07,
          -4.59746104e-07, -2.26391171e-06, 8.07018068e-07,
          -4.44737566e-07, -2.57941156e-06, 7.89556793e-07,
          -4.62198813e-07, -2.69212751e-06, 5.66851327e-07,
          -7.14037640e-07, -2.76198966e-06, 6.33085108e-07,
          -6.47803859e-07, -2.66311940e-06, 7.10620498e-07,
          -5.75643185e-07, -2.32227035e-06, 1.67738199e-06,
          3.90408729e-07, -1.35882749e-06, 2.55249211e-06,
          1.17358434e-06, -7.91291882e-07, 2.87896410e-06,
          1.27595945e-06, -7.15484020e-07, 2.74347440e-06,
          1.35560788e-06, -6.47111790e-07, 2.29487705e-06,
          8.13712575e-07, -8.33019442e-07, 1.60086836e-06,
          1.06735250e-07, -1.78919686e-06, 1.28091540e-06,
          -2.13217689e-07, -2.19591357e-06, 2.10889425e-06,
          7.48893228e-07, -1.30196827e-06, 2.89733794e-06,
          1.32388959e-06, -7.97331438e-07, 2.59502622e-06,
          1.22800509e-06, -8.71936777e-07, 2.59846479e-06,
          1.34267816e-06, -7.75945409e-07, 2.33929359e-06,
          1.31407921e-06, -7.96530799e-07, 4.54614820e-07,
          -7.50788615e-07, -2.60179445e-06, -6.50489028e-07,
          -1.70511964e-06, -3.00793772e-06, -6.51901871e-07,
          -1.72774628e-06, -2.98442706e-06, -9.81376616e-07,
          -1.51920096e-06, -2.72625675e-06, -1.03908997e-06,
          -1.56366752e-06, -2.82042947e-06, -5.54014207e-07,
          -1.33532717e-06, -2.85617216e-06, 1.33444678e-06,
          5.55626684e-07, -1.32619323e-06, 2.02413435e-06,
          2.46086216e-07, -1.32380796e-06, 2.14779061e-06,
          3.67249640e-07, -1.32669084e-06, 1.57583304e-06,
          4.61079566e-07, -1.31522177e-06, 1.78289940e-06,
          6.69500878e-07, -1.42360625e-06, 1.79965082e-06,
          8.47732508e-07, -9.35796947e-07, 2.15888986e-06,
          1.20697155e-06, -6.69138785e-07, 2.32665639e-06,
          1.20914910e-06, -6.24111578e-07, 2.14197939e-06,
          1.02447211e-06, -8.52155836e-07, 2.15317209e-06,
          9.37912318e-07, -1.08490258e-06, 2.31119975e-06,
          1.52448263e-06, -4.52919636e-07, 3.12770180e-06,
          2.46417562e-06, 4.28804668e-07, 2.77993240e-06, 1.91817549e-06,
          -4.16891567e-07, 2.59021704e-06, 1.94327367e-06,
          -3.53934183e-07, 2.41663292e-06, 2.10121266e-06,
          6.44923726e-10, 7.85803479e-07, 3.48764672e-07,
          -8.59205841e-07, 6.02311388e-07, 1.58976718e-07,
          -8.90085516e-07, 7.66234450e-07, 7.63457081e-07,
          2.38504839e-07, 1.62444519e-06, 1.72023704e-06, 1.08261781e-06,
          1.32423156e-06, 1.51174856e-06, 1.35239270e-06, 1.98975090e-06,
          2.17057118e-06, 2.06933714e-06, 4.04890352e-06, 4.70100395e-06,
          5.37353526e-06, 4.42533519e-06, 5.03778801e-06, 5.85066937e-06,
          3.37898746e-06, 3.76031585e-06, 4.92721529e-06, 1.02497381e-06,
          1.40617306e-06, 2.62920935e-06, -3.55089782e-07,
          -1.82205227e-07, 4.35728566e-07, 3.34867309e-06,
          3.52220309e-06, 4.21460527e-06, 4.44748366e-06, 4.35676930e-06,
          4.77179174e-06, 3.69696090e-06, 3.60758509e-06, 4.09376389e-06,
          1.49454365e-06, 7.42767156e-07, 1.39015731e-06,
          -8.92683403e-08, -8.30298973e-07, -4.70932576e-07,
          4.71204004e-07, -1.29845660e-06, -9.35653759e-07,
          3.01616126e-07, -1.39068800e-06, -1.10565736e-06,
          6.70978807e-07, -1.14183570e-06, -7.50559479e-07,
          5.92361573e-07, -1.21528046e-06, -7.66971368e-07,
          3.65166784e-07, -1.45195645e-06, -1.34444667e-06,
          7.75039908e-08, -1.73048159e-06, -1.45550302e-06,
          -3.74214153e-07, -2.02994920e-06, -1.65502320e-06,
          -4.21524618e-07, -2.07727521e-06, -1.49184996e-06,
          -5.10673374e-07, -2.19205299e-06, -1.29669706e-06,
          -4.85607302e-07, -2.17256365e-06, -1.30542446e-06,
          -4.17069572e-07, -2.54661973e-06, -1.58071316e-06,
          -6.91102798e-07, -2.82165729e-06, -1.73568321e-06,
          -6.10443578e-07, -2.82379733e-06, -1.86097054e-06,
          -6.08704170e-07, -2.82210590e-06, -1.82081794e-06,
          -6.69620988e-07, -2.88411275e-06, -1.92916104e-06,
          -7.35085848e-07, -2.95010955e-06, -2.06121922e-06,
          -7.11975815e-07, -3.13709029e-06, -1.92158041e-06,
          -7.15399779e-07, -3.15435977e-06, -1.78296227e-06,
          1.18813887e-06, 2.88245900e-07, -1.05923368e-06,
          1.13154169e-06, 2.14491550e-07, -8.98316330e-07,
          9.74518457e-07, 1.23958912e-07, -9.32279136e-07,
          1.18242940e-06, -1.03382874e-07, -1.18689934e-06,
          1.07807227e-06, -5.81536064e-08, -1.40304189e-06,
          5.74460898e-07, -6.55610393e-07, -2.20154766e-06,
          1.60698312e-06, -3.60935744e-08, -1.25714814e-06,
          -1.18476123e-06, -2.51605138e-06, -3.82382086e-06,
          -2.02088032e-07, -2.21344726e-06, -3.68140445e-06,
          -9.46787281e-07, -2.96510393e-06, -4.06715253e-06,
          -4.74780109e-07, -3.93369100e-06, -4.29510283e-06,
          1.73022045e-07, -3.37593542e-06, -3.77686229e-06,
          5.34878723e-07, -3.75537707e-06, -3.34691208e-06,
          3.04271964e-07, -3.98862994e-06, -3.58004240e-06,
          1.00435511e-06, -3.15149055e-06, -4.07328662e-06,
          1.67538815e-06, -2.46328932e-06, -3.28905753e-06,
          4.16404504e-07, -2.57056718e-06, -4.97875226e-06,
          -1.08416589e-06, -4.03851391e-06, -6.90071965e-06,
          -3.38873951e-06, -5.51435278e-06, -7.61155570e-06,
          -1.26378745e-06, -3.38914265e-06, -5.08964604e-06,
          4.66228556e-07, -1.59478543e-06, -3.15249849e-06,
          1.13713065e-06, -9.25673987e-07, -2.42160172e-06,
          1.80237578e-06, -6.94186213e-07, -1.44120145e-06,
          3.55103384e-06, 1.07839276e-06, 2.72897410e-07, 3.60434092e-06,
          1.40303848e-06, 1.19424843e-08, 3.19824017e-06, 9.28169356e-07,
          -3.84534019e-07, 2.62863637e-06, 6.33051968e-07,
          -5.41987561e-07, 2.57758711e-06, 5.85614941e-07,
          -5.97175415e-07, 2.51411007e-06, 8.06019216e-07,
          -6.48608477e-07, 2.64409778e-06, 9.39820552e-07,
          -5.15287297e-07, 3.06395714e-06, 8.43574696e-07,
          -6.67903009e-07, 3.03215234e-06, 7.83253313e-07,
          -6.93616130e-07, 2.93240055e-06, 6.82137625e-07,
          -9.46366299e-07, 2.92378559e-06, 6.80381845e-07,
          -9.49326022e-07, 3.08528115e-06, 7.89510636e-07,
          -8.10954475e-07, 3.10562496e-06, 8.32326350e-07,
          -7.98024473e-07, 2.91035212e-06, 8.81956282e-07,
          -8.08707000e-07, 3.79601215e-06, 1.77208460e-06,
          8.31674711e-08, 3.55540760e-06, 1.92123207e-06, 1.09209765e-07,
          3.63197114e-06, 1.93544156e-06, 1.96542004e-07, 3.14959448e-06,
          1.75970274e-06, 5.31614774e-07, 5.53104144e-07,
          -4.67845240e-07, -2.01808712e-06, -5.01478553e-06,
          -4.31615217e-06, -3.42707813e-06, -4.68956569e-06,
          -4.18470700e-06, -3.28632586e-06, -5.19993728e-06,
          -4.21109689e-06, -3.16648448e-06, -5.16386444e-06,
          -4.19876187e-06, -3.14880890e-06, -2.93790276e-06,
          -3.09022857e-06, -3.17697572e-06, -8.23382663e-07,
          -8.52907419e-07, -2.35887228e-06, 6.49506603e-07,
          1.20611485e-08, -1.28851877e-06, 6.09167330e-07,
          -2.64876565e-08, -1.46455795e-06, 1.17976526e-06,
          2.81135772e-08, -1.30787453e-06, 8.82770223e-07,
          -2.68881422e-07, -1.60525678e-06, 1.01616365e-06,
          -3.85800860e-07, -2.38077928e-06, 9.10122026e-07,
          -4.88744888e-07, -2.58041655e-06, 9.64799483e-07,
          -6.58590523e-07, -2.97225097e-06, 9.94872266e-07,
          -6.28517626e-07, -2.68303461e-06, 1.47860544e-06,
          -1.91546192e-07, -2.50297308e-06, 2.54329575e-06,
          8.73660440e-07, -1.31145248e-06, 3.16487262e-06,
          1.12687576e-06, -1.21509606e-06, 3.30283046e-06,
          1.26483383e-06, -6.69276972e-07, 3.03568459e-06,
          1.23581333e-06, -7.20033256e-07, 2.88057458e-06,
          1.08462177e-06, -1.05403137e-06, 1.95527559e-06,
          2.97661785e-07, -1.59670492e-06, 1.77651555e-06,
          1.18901845e-07, -1.77164509e-06, 2.50109542e-06,
          1.09159691e-06, -7.50800893e-07, 2.56757107e-06,
          1.15807256e-06, -6.77816161e-07, 2.46212267e-06,
          1.06701805e-06, -7.24732047e-07, 2.65827271e-06,
          1.26316809e-06, -3.69200194e-07, 2.02561114e-06,
          8.39525853e-07, -4.22366497e-07, -2.53356973e-07,
          -1.67991573e-06, -2.31163767e-06, -2.30189721e-06,
          -3.36463518e-06, -2.68168378e-06, -2.67293171e-06,
          -3.53680230e-06, -2.85385090e-06, -3.24271082e-06,
          -3.41093323e-06, -2.60092543e-06, -2.93801895e-06,
          -3.41106238e-06, -2.60105458e-06, -2.27437681e-06,
          -3.29166869e-06, -2.37487234e-06, -1.83297431e-07,
          -2.56434305e-07, -9.46331454e-07, 8.76448780e-07,
          -3.32152332e-08, -1.27463329e-06, 1.14752197e-06,
          2.35365135e-07, -1.38248970e-06, 1.64115545e-06,
          1.91869205e-07, -1.35212406e-06, 1.82437691e-06,
          3.76445598e-07, -1.51195411e-06, 2.92516825e-06,
          1.61924629e-06, -4.50739833e-07, 3.54789972e-06,
          2.27459782e-06, 3.50929952e-08, 3.75678974e-06, 2.20180664e-06,
          6.96224447e-08, 3.62423998e-06, 2.06925688e-06,
          -9.64010951e-08, 3.41512759e-06, 2.14360239e-06,
          7.22892821e-08, 3.01157502e-06, 2.16859257e-06, 3.16288947e-07,
          8.49788080e-07, 4.58076073e-07, -9.85578254e-07,
          -6.27555835e-07, -1.14879560e-06, -1.83403154e-06,
          -1.58808280e-06, -2.25275789e-06, -1.99830265e-06,
          -1.30291448e-06, -1.28045872e-06, -2.00676300e-06,
          -1.35629841e-06, -1.28998181e-06, -1.75531807e-06,
          -1.16097340e-06, -1.01861087e-06, -1.19224103e-06,
          -4.17451673e-07, -4.42408094e-07, -7.16833483e-07,
          -3.07432742e-07, -3.25193867e-07, -6.20013395e-07,
          2.90906314e-07, 2.65877361e-07, -3.63345180e-07,
          1.45508795e-06, 1.42292663e-06, 1.17735965e-06, 3.77480092e-06,
          3.45765898e-06, 3.51579251e-06, 4.77192089e-06, 4.41301290e-06,
          4.54719566e-06, 5.26027634e-06, 4.63927836e-06, 4.79942446e-06,
          3.85972771e-06, 3.23808422e-06, 3.45553826e-06, 2.23530515e-06,
          2.29979378e-06, 1.54246175e-06, 5.45608873e-06, 5.40133260e-06,
          4.70501300e-06, 4.17011279e-06, 3.85014346e-06, 3.96799987e-06,
          3.58862144e-06, 3.27424846e-06, 3.45834860e-06, 1.06049833e-06,
          3.83986105e-07, 6.80802259e-07, -2.03734061e-07,
          -8.82785741e-07, -7.65721097e-07, 4.66118394e-07,
          -1.26687837e-06, -1.18948810e-06, 7.63125740e-07,
          -9.75634521e-07, -9.54591883e-07, 1.23649306e-06,
          -7.77803621e-07, -9.67742494e-07, 1.01745161e-06,
          -9.90753392e-07, -1.16964964e-06, 3.68032943e-07,
          -1.31322122e-06, -1.59185117e-06, -3.98607426e-07,
          -2.07072389e-06, -2.17683510e-06, -1.62171455e-06,
          -2.75280149e-06, -2.24638211e-06, -1.52164284e-06,
          -2.65008225e-06, -1.94374070e-06, -1.11912516e-06,
          -2.31775789e-06, -1.07593632e-06, -9.89740897e-07,
          -2.19240724e-06, -5.49422850e-07, -5.72107240e-07,
          -2.45083402e-06, -1.41901535e-06, -8.67626682e-07,
          -2.74692206e-06, -1.58566343e-06, -6.07174627e-07,
          -2.69709358e-06, -1.98330054e-06, -5.68999610e-07,
          -2.66985649e-06, -1.88577815e-06, -2.66700482e-07,
          -2.57743363e-06, -1.66344887e-06, -3.23358080e-07,
          -2.63416860e-06, -1.70195847e-06, -3.69477135e-07,
          -2.83813756e-06, -1.74890317e-06, -4.06209239e-07,
          -2.89519016e-06, -1.80942368e-06, 1.26563566e-06,
          3.51646833e-07, -6.07062134e-07, 1.08271308e-06,
          1.34425349e-07, -1.01465207e-06, 1.13378940e-06,
          -1.61115082e-07, -1.31236072e-06, 9.29097439e-07,
          -3.67513536e-07, -1.37436166e-06, -2.52427412e-07,
          -1.41029091e-06, -2.70628266e-06, -1.19685819e-06,
          -2.88792876e-06, -2.57916531e-06, -8.82763118e-07,
          -2.85273632e-06, -2.49091249e-06, -3.73007629e-06,
          -5.31265050e-06, -5.52902929e-06, -2.10905637e-06,
          -4.23979282e-06, -5.16112596e-06, -1.84228247e-06,
          -3.85586691e-06, -5.31850492e-06, -8.73212684e-07,
          -4.30552927e-06, -4.91327000e-06, -3.89876618e-07,
          -3.97212534e-06, -4.72028341e-06, 3.13349091e-07,
          -3.97955273e-06, -3.57592126e-06, 1.70721659e-08,
          -4.27582972e-06, -3.78735467e-06, 2.21218002e-07,
          -3.97697113e-06, -4.81361667e-06, 1.83193401e-06,
          -2.34360255e-06, -3.19374431e-06, 3.21982071e-07,
          -2.73044202e-06, -5.26194481e-06, -2.37425570e-06,
          -5.45366811e-06, -8.28231623e-06, -4.85796090e-06,
          -7.64961351e-06, -8.94087589e-06, -2.39455198e-06,
          -4.63836523e-06, -6.80267931e-06, -2.96224016e-07,
          -2.46714535e-06, -4.70204577e-06, 6.55785982e-07,
          -1.34540346e-06, -3.62396008e-06, 2.55876034e-06,
          2.55280440e-07, -8.07395452e-07, 4.18947093e-06,
          1.89384400e-06, 7.72678391e-07, 4.13758289e-06, 2.02824799e-06,
          4.08672690e-07, 3.49710695e-06, 1.22661265e-06,
          -1.22601193e-07, 2.67479527e-06, 6.77780235e-07,
          -4.85819783e-07, 2.62803997e-06, 6.57461953e-07,
          -5.22674895e-07, 2.51472534e-06, 8.13080192e-07,
          -6.37539017e-07, 2.59348917e-06, 9.16124122e-07,
          -5.43654494e-07, 2.93671155e-06, 7.08235575e-07,
          -7.93839206e-07, 2.94552774e-06, 6.91648097e-07,
          -7.76540162e-07, 2.92746358e-06, 6.89123340e-07,
          -9.37880998e-07, 2.86378031e-06, 6.38978292e-07,
          -9.86301075e-07, 2.93580115e-06, 6.37728647e-07,
          -9.54336429e-07, 2.74253762e-06, 4.66952599e-07,
          -1.15239720e-06, 2.53202779e-06, 5.03631838e-07,
          -1.18398555e-06, 3.40197744e-06, 1.34417496e-06,
          -2.71613175e-07, 3.22805363e-06, 1.69670693e-06,
          -4.18143969e-07, 3.46142042e-06, 1.93877418e-06,
          -1.46043703e-07, 2.53236158e-06, 1.40411817e-06,
          1.78015156e-07, -7.61672538e-08, -1.37937923e-06,
          -2.10878579e-06, -5.10780046e-06, -4.39864561e-06,
          -3.50334108e-06, -4.66809706e-06, -4.34659114e-06,
          -3.44430532e-06, -5.27117345e-06, -4.28189696e-06,
          -3.23504150e-06, -5.20045114e-06, -4.22326139e-06,
          -3.17234094e-06, -1.81532880e-06, -1.84441797e-06,
          -2.96492226e-06, 8.60330488e-07, 8.31241323e-07,
          -1.20572906e-07, 2.30516798e-06, 1.66636755e-06,
          3.65416071e-07, 1.32856940e-06, 6.91559592e-07,
          -6.11698738e-07, 8.84482517e-07, -2.67169128e-07,
          -2.05726064e-06, 6.98591293e-07, -4.54415243e-07,
          -2.23238476e-06, 9.71101144e-07, -4.31960132e-07,
          -2.61371770e-06, 7.86507030e-07, -6.16683337e-07,
          -2.81944313e-06, 9.11057498e-07, -7.13687371e-07,
          -2.92649656e-06, 1.17165087e-06, -4.53093946e-07,
          -2.56153203e-06, 2.11573547e-06, 4.45583822e-07,
          -1.72297973e-06, 2.81350594e-06, 1.31512161e-06,
          -1.08583458e-06, 3.41454802e-06, 1.37629320e-06,
          -4.38596487e-07, 3.50637902e-06, 1.46838227e-06,
          -3.46765574e-07, 3.15564921e-06, 1.35634264e-06,
          -4.52691296e-07, 2.88614638e-06, 1.08645258e-06,
          -1.29091961e-06, 2.58241835e-06, 8.85414863e-07,
          -1.22785877e-06, 2.77814411e-06, 1.08088227e-06,
          -1.11469819e-06, 2.45652541e-06, 1.04746255e-06,
          -7.76705349e-07, 2.56896351e-06, 1.15990065e-06,
          -6.62158129e-07, 2.53465851e-06, 1.13459305e-06,
          -7.37386756e-07, 2.80861468e-06, 1.40854900e-06,
          -4.60831757e-07, 1.90805190e-06, 7.77243713e-07,
          -4.41127327e-07, -2.03147099e-08, -1.48702293e-06,
          -1.72431623e-06, -1.35150560e-06, -2.28451609e-06,
          -1.72657724e-06, -1.61069227e-06, -2.28354565e-06,
          -1.72560692e-06, -2.37234826e-06, -2.28283352e-06,
          -1.72728949e-06, -2.48358083e-06, -2.28296267e-06,
          -1.72741852e-06, -1.48378388e-06, -2.34451545e-06,
          -1.73962735e-06, 8.14637303e-07, 7.41935992e-07,
          1.52821968e-07, 4.20598127e-07, -4.88630292e-07,
          -2.02336196e-06, 9.30003921e-07, 1.82826909e-08,
          -1.69788905e-06, 1.47933929e-06, 3.09242409e-08,
          -1.80310656e-06, 1.49026255e-06, 4.18474855e-08,
          -1.79722531e-06, 2.90325193e-06, 1.58097248e-06,
          -5.29544138e-07, 3.33486310e-06, 2.01355306e-06,
          -4.35642164e-07, 3.52377447e-06, 1.96789188e-06,
          -1.18602713e-07, 3.38078348e-06, 2.01778471e-06,
          -7.26437008e-08, 3.40710812e-06, 2.13198541e-06,
          2.22533018e-07, 2.58914542e-06, 1.75425771e-06,
          -1.06316257e-07, -2.88470943e-07, -6.90201546e-07,
          -1.87094020e-06, -1.88111972e-06, -2.44859575e-06,
          -2.04719277e-06, -3.22355527e-06, -2.40328700e-06,
          -2.00419140e-06, -2.49390882e-06, -2.40969121e-06,
          -2.01038620e-06, -3.26804934e-06, -2.85898795e-06,
          -2.01789908e-06, -3.01041518e-06, -2.92718914e-06,
          -2.06668915e-06, -2.51410029e-06, -3.00369265e-06,
          -2.08311008e-06, -2.61679475e-06, -3.02430772e-06,
          -2.05489619e-06, -2.57541296e-06, -2.97393581e-06,
          -2.04530966e-06, -2.62404046e-06, -3.02563899e-06,
          -2.03801960e-06, -1.58057162e-06, -2.59780427e-06,
          -2.08290135e-06, -6.34144556e-07, -9.77994205e-07,
          -1.21528808e-06, 1.62675235e-06, 1.00523812e-06,
          1.17244736e-06, 2.34672166e-06, 1.72533635e-06, 1.95038888e-06,
          1.14150396e-06, 1.11417273e-06, 2.94273576e-07, 2.37205609e-06,
          2.03006584e-06, 1.33791673e-06, 1.74687807e-06, 1.41987562e-06,
          1.55065732e-06, 1.78322944e-06, 1.46072716e-06, 1.64182654e-06,
          1.60052380e-07, -5.06960021e-07, -5.36762855e-07,
          -5.76377602e-07, -1.25401220e-06, -1.25254769e-06,
          1.04160790e-06, -7.04766876e-07, -7.07844777e-07,
          1.73894341e-06, 3.28125047e-08, -1.28021270e-07,
          2.17239653e-06, 8.12416872e-08, -3.24357785e-07,
          1.99525039e-06, 1.04546686e-07, -2.50008696e-07,
          1.04141407e-06, -6.36842401e-07, -8.85704083e-07,
          -9.15018120e-07, -2.58718273e-06, -2.06442814e-06,
          -3.27281691e-06, -4.88628257e-06, -2.68794770e-06,
          -3.09661255e-06, -4.21763616e-06, -2.77065146e-06,
          -2.06515324e-06, -3.26246209e-06, -2.17754473e-06,
          -1.90681078e-06, -3.10474024e-06, -2.09448626e-06,
          -1.05130221e-06, -2.91615470e-06, -2.00039335e-06,
          -6.32053968e-07, -2.50965832e-06, -1.61861010e-06,
          -5.65922221e-07, -2.67924747e-06, -1.81261180e-06,
          -1.26644991e-07, -2.23252709e-06, -1.44804233e-06,
          6.09042502e-07, -1.70542069e-06, -7.11008965e-07,
          6.28855958e-07, -1.68658585e-06, -6.98990732e-07,
          4.22177749e-07, -2.04912931e-06, -9.68717018e-07,
          2.79206517e-07, -2.22151562e-06, -1.00060106e-06,
          1.17991431e-06, -4.98539379e-08, -5.22391019e-07,
          1.02180570e-06, -2.28165732e-07, -1.09892824e-06,
          8.72196779e-07, -4.37526609e-07, -1.25127463e-06,
          1.21223636e-07, -1.19459139e-06, -1.91550703e-06,
          -2.21833034e-06, -3.05471826e-06, -3.78256550e-06,
          -2.84868406e-06, -3.73430112e-06, -3.37065399e-06,
          -3.06198103e-06, -2.99915496e-06, -2.32326693e-06,
          -5.90752961e-06, -6.02593127e-06, -5.39784423e-06,
          -5.29125418e-06, -6.42938357e-06, -6.17588012e-06,
          -4.92460003e-06, -6.24659469e-06, -6.43672865e-06,
          -4.24681048e-06, -6.37972107e-06, -6.61097192e-06,
          -3.48370372e-06, -5.68905534e-06, -6.42967416e-06,
          -1.67885014e-06, -4.71665999e-06, -4.26854058e-06,
          -1.14599231e-06, -4.19084927e-06, -3.73789521e-06,
          -1.19179174e-06, -4.43622685e-06, -4.48546234e-06,
          -8.43345106e-07, -3.78676054e-06, -3.91983667e-06,
          -3.09917709e-06, -4.94090364e-06, -6.65747257e-06,
          -5.56038822e-06, -8.16064494e-06, -8.45631530e-06,
          -7.74922682e-06, -8.52055291e-06, -8.53023539e-06,
          -5.48129083e-06, -6.99800876e-06, -7.00657620e-06,
          -3.50831533e-06, -5.42584439e-06, -5.19297328e-06,
          -2.15505224e-06, -3.24066650e-06, -4.64143341e-06,
          3.28775764e-06, 8.40124642e-07, -7.19271895e-07,
          4.18345508e-06, 1.70580915e-06, 1.19209083e-07, 4.30399268e-06,
          1.82099348e-06, -1.34878874e-07, 3.40709494e-06,
          1.02034096e-06, -3.25883462e-07, 2.83472741e-06,
          8.35419257e-07, -4.81339839e-07, 2.75855223e-06,
          7.61521619e-07, -7.28584212e-07, 2.56409544e-06,
          8.09201993e-07, -8.23219978e-07, 2.36319306e-06,
          6.08299558e-07, -9.40227949e-07, 2.96374697e-06,
          8.26377573e-07, -8.10988524e-07, 2.90978141e-06,
          7.46040826e-07, -8.63217622e-07, 2.81824327e-06,
          6.66161895e-07, -9.15583314e-07, 2.58341925e-06,
          4.57012561e-07, -1.12887733e-06, 2.38092207e-06,
          2.95785128e-07, -1.13074975e-06, 2.10063922e-06,
          6.23623393e-08, -1.38645771e-06, 1.72793602e-06,
          5.17254470e-08, -1.37334416e-06, 2.91432457e-06,
          1.27816509e-06, -1.59904531e-07, 2.90801427e-06,
          1.66951031e-06, 1.73618151e-08, 3.35237974e-06, 1.81483870e-06,
          2.27745730e-07, 1.98738530e-06, 8.78373555e-07,
          -8.01720148e-07, -4.42684041e-07, -1.62348840e-06,
          -2.28809859e-06, -5.11900225e-06, -4.54623341e-06,
          -3.66484369e-06, -4.87623493e-06, -4.69905763e-06,
          -3.81377981e-06, -5.01944760e-06, -4.52224685e-06,
          -3.49756397e-06, -4.66449364e-06, -4.33124978e-06,
          -3.30460239e-06, -1.59649699e-06, -9.32491446e-07,
          -8.80421339e-07, 1.36290487e-06, 2.02812043e-06,
          2.07898051e-06, 2.38721759e-06, 2.60579827e-06, 2.56337535e-06,
          9.18289857e-07, 1.13935482e-06, 1.09444761e-06,
          -4.21341042e-07, -6.75651961e-07, -7.01454553e-07,
          -8.78855303e-07, -1.13404315e-06, -1.14727652e-06,
          -2.86328600e-07, -7.84877159e-07, -1.30680633e-06,
          -2.45849293e-07, -7.43913915e-07, -1.24600717e-06,
          -5.84857048e-07, -1.32044897e-06, -2.46955960e-06,
          -5.25461644e-07, -1.25721385e-06, -2.49429763e-06,
          7.09024619e-07, -1.60623841e-07, -2.10239114e-06,
          1.27611429e-06, 3.40962487e-07, -1.76850733e-06,
          2.83110126e-06, 1.12540181e-06, -1.02195543e-06,
          3.08527592e-06, 1.37983466e-06, -3.18458916e-07,
          3.01658179e-06, 1.25694851e-06, -6.57172166e-07,
          2.87445619e-06, 1.11456484e-06, -8.44572185e-07,
          2.74264949e-06, 1.06703931e-06, -9.84315648e-07,
          2.80656513e-06, 1.13095484e-06, -9.27648443e-07,
          2.50140192e-06, 1.09585267e-06, -6.05809248e-07,
          2.61432615e-06, 1.20877712e-06, -6.12198789e-07,
          2.72051079e-06, 1.37375764e-06, -4.08215783e-07,
          3.20608092e-06, 1.85932777e-06, 2.90987742e-07, 2.42745909e-06,
          1.26590419e-06, 5.86823852e-08, 2.43826861e-07,
          -1.20272796e-06, -1.72337377e-06, -2.87076296e-06,
          -2.30077262e-06, -1.76135904e-06, -2.91824495e-06,
          -2.29203238e-06, -1.75261869e-06, -3.22260917e-06,
          -2.27212740e-06, -1.73126546e-06, -3.02837407e-06,
          -2.27426403e-06, -1.73340209e-06, -2.43000022e-06,
          -2.11275096e-06, -1.74020829e-06, 1.96181236e-06,
          2.45101251e-06, 2.60671663e-06, 2.05722836e-06, 1.70970850e-06,
          1.18120943e-06, 1.62941876e-06, 1.27805117e-06, 7.51035998e-07,
          1.88932313e-06, 4.45715500e-07, -1.16814124e-06,
          1.69398049e-06, 2.50372779e-07, -1.68219754e-06,
          2.44476564e-06, 1.15866203e-06, -9.76117917e-07,
          2.95075893e-06, 1.71552540e-06, -6.85485361e-07,
          3.05142453e-06, 1.72663783e-06, -6.42671807e-07,
          3.09033408e-06, 1.76554738e-06, -1.70589502e-07,
          2.86122349e-06, 1.87888475e-06, 1.07504007e-07, 1.51531663e-06,
          9.78662115e-07, -6.24160634e-07, -2.57362194e-06,
          -2.34203230e-06, -2.03742502e-06, -3.42803651e-06,
          -2.36352957e-06, -2.05461470e-06, -3.89413799e-06,
          -2.31058425e-06, -2.02262549e-06, -3.88593890e-06,
          -2.31407762e-06, -2.02586057e-06, -3.97031226e-06,
          -2.77189110e-06, -2.01098669e-06, -4.06597610e-06,
          -2.87699868e-06, -2.05841479e-06, -4.08874985e-06,
          -2.96035319e-06, -2.08219490e-06, -4.08755159e-06,
          -2.96050416e-06, -2.05335687e-06, -4.11358360e-06,
          -2.99933913e-06, -2.03682498e-06, -4.16009607e-06,
          -3.00431225e-06, -2.04412140e-06, -4.25408643e-06,
          -3.17428362e-06, -2.10940607e-06, -4.13584985e-06,
          -3.28428155e-06, -2.15386831e-06, -1.56537840e-06,
          -2.53122448e-06, -1.90743799e-06, 4.71656421e-07,
          5.01435373e-08, 2.82077508e-07, 1.63779043e-06, 1.36104484e-06,
          3.65729250e-07, 1.81956113e-06, 1.36395090e-06, 4.71623025e-07,
          3.20307265e-07, -5.04886771e-07, -5.57220233e-07,
          5.22079745e-07, -2.98721972e-07, -2.83607392e-07,
          1.10360496e-07, -1.04076287e-06, -1.27570161e-06,
          3.30820910e-07, -8.27559631e-07, -1.03441789e-06,
          1.55852035e-06, -2.29769253e-08, -4.55247488e-07,
          1.94296194e-06, 4.72251003e-07, -6.64717845e-08,
          2.17070351e-06, 2.95563353e-07, -3.81968050e-07,
          1.97965073e-06, 1.27162991e-07, -3.31394915e-07,
          7.74237947e-07, -5.11548080e-07, -5.91748233e-07,
          -1.58029525e-06, -3.08034532e-06, -1.45579088e-06,
          -4.97649489e-06, -4.77531330e-06, -2.05105448e-06,
          -4.23904430e-06, -5.19482910e-06, -2.42492183e-06,
          -4.37817926e-06, -5.57861176e-06, -2.56779435e-06,
          -4.34589720e-06, -5.62884816e-06, -2.44468424e-06,
          -2.50940684e-06, -3.93387882e-06, -1.95317693e-06,
          -1.28533100e-06, -2.73414707e-06, -1.24487121e-06,
          -3.97469364e-07, -2.56172689e-06, -1.70851229e-06,
          4.06258692e-07, -1.75862090e-06, -8.48337436e-07,
          1.47293508e-06, -1.14609873e-06, -5.55058762e-07,
          1.43999080e-06, -1.22220752e-06, -5.38311099e-07,
          1.10977101e-06, -1.31517288e-06, -5.88961598e-07,
          8.92264495e-07, -1.66103121e-06, -6.40324686e-07,
          1.40588850e-06, -2.75319707e-07, -1.15789180e-06,
          1.34554989e-06, -3.40426226e-07, -1.12210626e-06,
          7.46513024e-07, -5.63210335e-07, -1.45444892e-06,
          -6.61100216e-07, -1.97827012e-06, -2.77658023e-06,
          -2.91005836e-06, -4.38365441e-06, -4.04821776e-06,
          -3.64352923e-06, -4.16304056e-06, -3.77977790e-06,
          -3.53297673e-06, -3.75104719e-06, -3.04347054e-06,
          -6.16380839e-06, -5.85196085e-06, -5.22090795e-06,
          -6.36806271e-06, -6.35680772e-06, -6.10186908e-06,
          -6.87324564e-06, -7.40131418e-06, -7.10611721e-06,
          -5.65154687e-06, -8.24655490e-06, -7.40982023e-06,
          -5.39792200e-06, -8.17141427e-06, -7.72976273e-06,
          -3.65736310e-06, -6.70213967e-06, -6.80760013e-06,
          -2.26471343e-06, -5.34279934e-06, -5.05419848e-06,
          -1.10251494e-06, -4.31638546e-06, -4.43267390e-06,
          -1.51954339e-06, -4.68582039e-06, -4.81998131e-06,
          -4.09209451e-06, -6.08372466e-06, -7.77504829e-06,
          -5.71519831e-06, -8.50950892e-06, -8.59124975e-06,
          -7.54810299e-06, -8.44018814e-06, -8.45288923e-06,
          -6.05263449e-06, -6.90266825e-06, -6.91210698e-06,
          -4.89836975e-06, -5.29717909e-06, -5.05934077e-06,
          -2.51976257e-06, -3.52436427e-06, -4.87017587e-06,
          3.63003164e-06, 1.17891398e-06, -3.36369339e-07,
          4.12972804e-06, 1.66792870e-06, 9.52076462e-08, 4.22363610e-06,
          1.70261035e-06, -2.61994131e-07, 3.31022170e-06,
          9.20322293e-07, -8.54976918e-07, 2.40757663e-06,
          4.04611740e-07, -1.40461020e-06, 2.38849225e-06,
          3.92332851e-07, -1.07015740e-06, 2.31691774e-06,
          5.61991499e-07, -1.05471088e-06, 2.41460907e-06,
          6.33924401e-07, -9.13756423e-07, 2.81374810e-06,
          6.65170091e-07, -9.54018560e-07, 2.61578020e-06,
          4.65732967e-07, -1.15220894e-06, 2.34335471e-06,
          2.41173638e-07, -1.36978827e-06, 2.23371171e-06,
          1.12472385e-07, -1.47145340e-06, 1.92288690e-06,
          -1.31102937e-07, -1.55832254e-06, 1.74993193e-06,
          -3.00039972e-07, -1.73892647e-06, 1.79605399e-06,
          1.51660757e-07, -1.31054287e-06, 2.91453443e-06,
          1.33961316e-06, -2.03050305e-07, 2.84273756e-06,
          1.54294821e-06, -1.55608234e-07, 3.13442547e-06,
          1.63005677e-06, 1.50430850e-08, 1.34501454e-06, 2.19209610e-07,
          -1.32542596e-06, -8.07826154e-07, -1.93711503e-06,
          -2.46369450e-06, -5.57240583e-06, -4.65820040e-06,
          -3.77343872e-06, -5.05319167e-06, -4.83784424e-06,
          -3.95334109e-06, -5.34698484e-06, -4.68720827e-06,
          -3.66317113e-06, -4.86468480e-06, -4.31105173e-06,
          -3.28914416e-06, -4.27368514e-06, -4.18284662e-06,
          -3.13213218e-06, -2.78166453e-06, -2.11252882e-06,
          -3.12464249e-06, -2.38151165e-06, -2.15992986e-06,
          -3.12560883e-06, -3.06565016e-06, -3.37302231e-06,
          -3.12336033e-06, -3.00218653e-06, -4.13590305e-06,
          -3.08106837e-06, -3.18051775e-06, -4.18484115e-06,
          -3.11730855e-06, -3.00935380e-06, -4.20485048e-06,
          -3.16823207e-06, -3.06313882e-06, -4.26639372e-06,
          -3.23025938e-06, -2.79840719e-06, -4.39552241e-06,
          -3.43804527e-06, -1.84404792e-06, -3.46041838e-06,
          -2.49696609e-06, -5.08341657e-07, -2.28632052e-06,
          -2.10073949e-06, 2.76560485e-07, -8.45280965e-07,
          -2.11984070e-06, 2.18187165e-06, 4.75784930e-07,
          -1.75938965e-06, 2.69199654e-06, 9.86732744e-07,
          -1.22166261e-06, 2.73678893e-06, 9.77333002e-07,
          -1.35486789e-06, 2.61478112e-06, 6.51529717e-07,
          -1.35996856e-06, 2.62325193e-06, 9.44931344e-07,
          -1.21394385e-06, 2.73575779e-06, 1.05730805e-06,
          -1.09775419e-06, 2.40834675e-06, 9.99699978e-07,
          -8.22463733e-07, 2.48183619e-06, 1.07331846e-06,
          -8.36637980e-07, 2.76064679e-06, 1.41389376e-06,
          -5.30186469e-07, 3.41413011e-06, 2.00299201e-06,
          2.74300191e-07, 2.48995002e-06, 1.32620096e-06, 1.81818919e-07,
          3.27904104e-07, -8.26152359e-07, -1.66449490e-06,
          -2.96953067e-06, -2.25406006e-06, -1.71490456e-06,
          -3.16846558e-06, -2.23899951e-06, -1.69842440e-06,
          -3.36495441e-06, -2.40885970e-06, -1.67711380e-06,
          -3.28444230e-06, -2.21686696e-06, -1.67290750e-06,
          -8.62498894e-07, -3.16488439e-07, -8.88067007e-07,
          4.24111067e-06, 4.73074670e-06, 4.88898377e-06, 5.04816671e-06,
          4.70108262e-06, 4.17201863e-06, 3.76568664e-06, 3.41475447e-06,
          2.88730394e-06, 1.58521902e-06, 1.41611324e-07,
          -1.88641684e-06, 1.83036866e-06, 3.84051219e-07,
          -1.59735055e-06, 2.56161775e-06, 1.27551414e-06,
          -8.65662855e-07, 2.52341988e-06, 1.23517873e-06,
          -7.26794440e-07, 2.25703866e-06, 1.00114266e-06,
          -9.76921797e-07, 2.52325981e-06, 1.26736381e-06,
          -6.53857285e-07, 2.30996125e-06, 1.26706220e-06,
          -5.98587405e-07, 5.11621863e-07, -8.55929301e-08,
          -2.04142339e-06, -3.70365888e-06, -2.27649025e-06,
          -1.97236704e-06, -3.82043345e-06, -2.32687626e-06,
          -2.02031697e-06, -3.88340004e-06, -2.31711670e-06,
          -2.01701187e-06, -3.89311117e-06, -2.29836155e-06,
          -2.02615843e-06, -4.58763498e-06, -3.25910423e-06,
          -2.56929138e-06, -4.51615506e-06, -3.18678303e-06,
          -2.44788635e-06, -4.42480268e-06, -3.22702567e-06,
          -2.32865159e-06, -4.13769249e-06, -2.99868861e-06,
          -2.03260106e-06, -4.12960208e-06, -3.02038848e-06,
          -2.04221374e-06, -4.17087904e-06, -3.03847901e-06,
          -2.03504419e-06, -3.90498644e-06, -3.12317115e-06,
          -2.06554205e-06, -4.56561202e-06, -3.42909061e-06,
          -2.34720324e-06, -3.06867332e-06, -3.66416748e-06,
          -2.64195614e-06, -9.81551693e-07, -1.20815105e-06,
          -1.86071793e-06, 1.32926334e-06, 9.83683776e-07,
          -4.94434005e-08, 1.60049615e-06, 1.22575364e-06,
          2.76607352e-07, 1.79374595e-07, -6.48157197e-07,
          -7.09937694e-07, 3.24223294e-07, -5.03636159e-07,
          -4.96522148e-07, -8.25558288e-08, -1.23821314e-06,
          -1.27133671e-06, 5.50141408e-07, -6.08708319e-07,
          -9.68635959e-07, 1.95210578e-06, 5.65438313e-07,
          -2.54107970e-08, 2.12706050e-06, 4.21057052e-07,
          -1.73142993e-07, 2.01274156e-06, 1.29388994e-07,
          -8.02556826e-07, 1.68638417e-06, -1.89047412e-07,
          -7.27143970e-07, -1.45488485e-07, -1.45702950e-06,
          -1.24207918e-06, -2.13593012e-06, -4.18366335e-06,
          -1.85159263e-06, -4.51253572e-06, -4.28043131e-06,
          -1.78540415e-06, -4.44532589e-06, -4.47287766e-06,
          -1.72120167e-06, -4.95367158e-06, -5.09932488e-06,
          -1.96094038e-06, -5.39771600e-06, -5.74415071e-06,
          -2.54742281e-06, -2.87344778e-06, -4.34500771e-06,
          -2.37413997e-06, -1.22681149e-06, -2.71187969e-06,
          -8.41639405e-07, -1.38630538e-08, -2.23459119e-06,
          -1.40367104e-06, 5.90383081e-07, -1.61631033e-06,
          -7.53884478e-07, 1.28280931e-06, -1.32093783e-06,
          -7.80009543e-07, 1.12235580e-06, -1.28323336e-06,
          -6.22786217e-07, 1.43758575e-06, -1.29899547e-06,
          -6.51859693e-07, 1.34820652e-06, -1.38734038e-06,
          -6.47327170e-07, 1.44159208e-06, -5.31972319e-07,
          -1.58527530e-06, 1.49269783e-06, -5.17411763e-07,
          -1.50779999e-06, 9.47962349e-07, -7.60249236e-07,
          -1.35865241e-06, 5.92432237e-08, -1.65470851e-06,
          -2.22125118e-06, -1.82547979e-06, -2.52580389e-06,
          -3.39273583e-06, -3.10515293e-06, -4.34114099e-06,
          -3.65732353e-06, -5.07654249e-06, -4.44238231e-06,
          -3.71858596e-06, -7.00591681e-06, -6.23055485e-06,
          -5.60526178e-06, -7.34595005e-06, -7.01184536e-06,
          -6.69332167e-06, -7.49499941e-06, -7.17441208e-06,
          -6.85337000e-06, -6.41258248e-06, -7.16518116e-06,
          -6.60749356e-06, -7.15337183e-06, -7.58625038e-06,
          -7.03024034e-06, -5.93973618e-06, -7.90864124e-06,
          -6.87458441e-06, -3.81346194e-06, -5.35786694e-06,
          -4.95257746e-06, -1.98970588e-06, -3.98665361e-06,
          -3.30375315e-06, -2.73891260e-06, -4.68031521e-06,
          -4.10247867e-06, -5.75448894e-06, -6.76841319e-06,
          -7.70409861e-06, -7.13124473e-06, -8.51284312e-06,
          -7.90221020e-06, -8.69987616e-06, -8.02904196e-06,
          -7.74174441e-06, -7.02895977e-06, -6.35029164e-06,
          -6.05785681e-06, -5.00695432e-06, -4.69092811e-06,
          -4.43038016e-06, -1.34308175e-06, -1.12654675e-06,
          -1.96749056e-06, 5.50205732e-06, 3.27662428e-06,
          2.87693433e-06, 5.29806312e-06, 2.94913639e-06, 2.58670343e-06,
          4.63027618e-06, 2.32153229e-06, 1.24693076e-06, 3.54854569e-06,
          1.25845168e-06, 1.62652611e-07, 2.31116223e-06, 2.90460662e-07,
          -1.26538635e-06, 2.21504160e-06, 2.03388822e-07,
          -1.49297091e-06, 2.31955323e-06, 3.66243938e-07,
          -1.13407771e-06, 2.38745179e-06, 4.04334770e-07,
          -1.10812005e-06, 2.45117803e-06, 3.43240771e-07,
          -1.05760853e-06, 2.20543347e-06, 9.57323394e-08,
          -1.28550494e-06, 1.88014178e-06, -1.21658758e-07,
          -1.47320179e-06, 1.72937973e-06, -2.37267173e-07,
          -1.69428392e-06, 1.39936333e-06, -3.48823875e-07,
          -1.61462447e-06, 1.27457827e-06, -4.77752906e-07,
          -1.79845392e-06, 1.27951660e-06, 1.49627397e-07,
          -1.27106159e-06, 2.17829961e-06, 1.07456276e-06,
          -4.80562278e-07, 2.28352110e-06, 1.32451498e-06,
          -3.62291303e-07, 2.50392486e-06, 1.27577323e-06,
          -3.38216694e-07, 4.98367854e-07, -2.85831476e-07,
          -2.08817596e-06, -1.44418448e-06, -2.58326259e-06,
          -2.56228964e-06, -5.53317705e-06, -4.63972856e-06,
          -4.00429735e-06, -5.71218470e-06, -4.81725237e-06,
          -4.18330501e-06, -5.67792677e-06, -4.66363554e-06,
          -3.87375849e-06, -5.27782322e-06, -4.26253155e-06,
          -3.47365471e-06, -5.39399434e-06, -4.09784843e-06,
          -3.13313967e-06, -5.40704741e-06, -4.10902976e-06,
          -3.14753220e-06, -5.43357555e-06, -4.11248266e-06,
          -3.15943475e-06, -5.44139493e-06, -4.12025429e-06,
          -3.16725436e-06, -5.44404566e-06, -4.10006851e-06,
          -3.14075874e-06, -5.47109175e-06, -4.12543068e-06,
          -3.16559886e-06, -5.40507153e-06, -4.10574967e-06,
          -3.18615866e-06, -5.40548945e-06, -4.10529628e-06,
          -3.18657658e-06, -4.70500072e-06, -3.66952531e-06,
          -2.90093726e-06, -3.79601897e-06, -2.56636690e-06,
          -2.07193375e-06, -2.59193894e-06, -2.55570330e-06,
          -2.08051824e-06, -6.87855334e-07, -1.00588488e-06,
          -2.09796804e-06, 1.72366629e-06, 7.55647818e-07,
          -2.66740869e-07, 2.20816628e-06, 1.24053497e-06,
          2.04717665e-07, 1.61584967e-06, 4.02497420e-07,
          -9.33759452e-07, 7.08453229e-07, -5.04850675e-07,
          -2.64264281e-06, 4.25650228e-07, -7.14696910e-07,
          -2.57810825e-06, 8.34112029e-07, -3.06235108e-07,
          -2.39417500e-06, 7.42315024e-07, -3.40561911e-07,
          -2.04225375e-06, 7.90548370e-07, -2.92457628e-07,
          -1.99142050e-06, 1.04650519e-06, 1.12186271e-07,
          -1.78001631e-06, 1.21831181e-06, 4.55885186e-07,
          -1.51524671e-06, -1.09762745e-07, -5.38341453e-07,
          -2.16789090e-06, -1.50310791e-06, -2.79565074e-06,
          -2.51443385e-06, -3.99676037e-06, -3.12724114e-06,
          -2.64492928e-06, -3.90572768e-06, -3.03342654e-06,
          -2.55389637e-06, -3.85417752e-06, -2.94745496e-06,
          -2.39999804e-06, -4.02813657e-06, -3.12389716e-06,
          -2.57146417e-06, -2.37769859e-06, -1.70226508e-06,
          -2.43879344e-06, 1.09749806e-06, 1.77511129e-06,
          1.85281499e-06, 1.90151354e-06, 1.85728720e-06, 1.39473968e-06,
          7.18855063e-07, 6.72135968e-07, 2.09846533e-07, 2.82421894e-07,
          -8.17943089e-07, -2.45277965e-06, 1.09045277e-06,
          1.78854638e-08, -1.54711427e-06, 1.33999401e-06,
          4.09468640e-07, -1.21318135e-06, 1.28538977e-06,
          3.43186201e-07, -1.25320696e-06, 1.61323169e-06,
          7.52161270e-07, -1.00346801e-06, 1.66896621e-06,
          8.07054505e-07, -6.99995553e-07, 2.21456702e-07,
          -2.87364713e-07, -1.40485952e-06, -2.07853827e-06,
          -2.34001732e-06, -3.55139377e-06, -3.16517412e-06,
          -2.26425095e-06, -1.99515739e-06, -3.03994148e-06,
          -2.57937791e-06, -2.05306469e-06, -3.26897430e-06,
          -2.57421311e-06, -2.05933134e-06, -3.78452455e-06,
          -2.76904757e-06, -2.40265854e-06, -5.28113242e-06,
          -4.66074152e-06, -3.82227381e-06, -4.44925581e-06,
          -3.85304156e-06, -2.96585949e-06, -4.31817080e-06,
          -2.95363384e-06, -2.07892163e-06, -4.14901524e-06,
          -3.01740124e-06, -2.07194171e-06, -3.97265876e-06,
          -3.05905724e-06, -2.08677830e-06, -4.49552090e-06,
          -3.15784359e-06, -2.33088440e-06, -4.73261935e-06,
          -3.56514875e-06, -2.51920187e-06, -5.48565322e-06,
          -4.29116926e-06, -3.20300887e-06, -6.26601332e-06,
          -5.11667622e-06, -3.86215197e-06, -5.84158488e-06,
          -5.19727973e-06, -3.88595436e-06, -1.87627904e-06,
          -2.02484762e-06, -2.17374668e-06, -1.83438260e-07,
          -3.41818833e-07, -2.53884934e-07, -1.40707328e-07,
          -1.02953834e-06, -1.11591726e-06, 1.83452769e-07,
          -7.04567981e-07, -7.60496562e-07, 3.53825058e-08,
          -1.31783850e-06, -1.42736417e-06, 8.57311193e-07,
          -5.01112424e-07, -6.21046411e-07, 1.93065512e-06,
          3.88452889e-07, 2.01094764e-07, 1.86818988e-06, 4.12429728e-07,
          -2.28019672e-07, 1.64967969e-06, 2.58444544e-07,
          4.81087966e-07, 1.19086246e-06, -2.02209890e-07,
          -2.92571826e-07, -1.63697734e-06, -2.93027279e-06,
          -1.59202398e-06, -3.25954488e-06, -4.20551260e-06,
          -1.79067308e-06, -4.42645887e-06, -4.28277372e-06,
          -1.73861622e-06, -4.44134184e-06, -4.28596513e-06,
          -1.70328883e-06, -4.48884202e-06, -4.47030197e-06,
          -1.68615065e-06, -3.52829738e-06, -5.07130335e-06,
          -1.95925622e-06, -3.03654701e-07, -1.84807652e-06,
          4.17829568e-07, 8.61200363e-07, -6.94702521e-07,
          1.60850880e-06, 9.40508585e-07, -1.33298283e-06,
          2.55446281e-07, 1.11666736e-06, -9.07810772e-07,
          4.51993216e-08, 1.35917105e-06, -1.27114481e-06,
          -4.14164305e-07, 1.25089650e-06, -1.38473104e-06,
          -4.64313302e-07, 1.35784478e-06, -1.41865667e-06,
          -5.99950852e-07, 1.26598832e-06, -1.48019615e-06,
          -6.90154764e-07, 1.25337829e-06, -7.17476325e-07,
          -1.75766036e-06, 1.33485253e-06, -6.72547344e-07,
          -1.65623737e-06, 1.05869515e-06, -6.52562335e-07,
          -1.15802595e-06, 1.18606977e-06, -5.27881866e-07,
          -1.02905756e-06, 3.46073932e-07, -3.78301593e-07,
          -1.13485737e-06, -7.44232182e-07, -1.47678156e-06,
          -2.09515929e-06, -2.86038062e-06, -3.49142670e-06,
          -3.38401628e-06, -6.21515801e-06, -6.66371852e-06,
          -6.06272488e-06, -7.81359995e-06, -7.48603725e-06,
          -6.96509233e-06, -7.28218629e-06, -6.85771329e-06,
          -6.35077276e-06, -5.26439817e-06, -6.30012892e-06,
          -5.72212002e-06, -6.01851116e-06, -6.49936146e-06,
          -5.97293911e-06, -3.90912464e-06, -5.77236597e-06,
          -5.24164398e-06, -2.15820887e-06, -3.67278358e-06,
          -3.17146009e-06, -1.49791504e-06, -3.34175911e-06,
          -2.70464511e-06, -2.84813018e-06, -4.68385042e-06,
          -4.12200779e-06, -6.75347428e-06, -8.19963043e-06,
          -7.97264966e-06, -7.68984319e-06, -8.39050335e-06,
          -7.81722883e-06, -8.43469115e-06, -7.64867218e-06,
          -7.48383582e-06, -6.78379820e-06, -5.99289660e-06,
          -5.83036172e-06, -3.38869495e-06, -3.30343141e-06,
          -4.48499213e-06, 5.61214335e-07, 7.58499425e-07,
          -8.77192079e-08, 5.94571657e-06, 3.77569268e-06,
          3.22788424e-06, 5.58187730e-06, 3.27926023e-06, 2.75934281e-06,
          4.45766727e-06, 2.17190268e-06, 1.09738914e-06, 3.43545821e-06,
          1.22341021e-06, 1.33553371e-07, 2.47988146e-06, 4.60051155e-07,
          -9.23019343e-07, 2.04644061e-06, 3.70137769e-08,
          -1.51006805e-06, 2.01639500e-06, 3.10035979e-08,
          -1.45825470e-06, 1.94286599e-06, -3.44115385e-08,
          -1.53985206e-06, 2.05976562e-06, -7.97532920e-08,
          -1.48194181e-06, 1.93130154e-06, -1.46154747e-07,
          -1.55262182e-06, 1.79177403e-06, -1.54305951e-07,
          -1.50415360e-06, 1.74137097e-06, -2.11919172e-07,
          -1.64687515e-06, 1.47869764e-06, -2.64873563e-07,
          -1.52613677e-06, 1.30333194e-06, -4.55257464e-07,
          -1.72350030e-06, 1.04252263e-06, -7.93549759e-08,
          -1.50394214e-06, 1.94343693e-06, 8.45000557e-07,
          -1.06644870e-06, 2.21354298e-06, 1.28675424e-06,
          -4.00487664e-07, 2.05733340e-06, 1.12737371e-06,
          -6.85465295e-07, 1.65212668e-07, -6.18551098e-07,
          -2.17251477e-06, -1.23317227e-06, -2.69015732e-06,
          -2.18083437e-06, -5.01935801e-06, -4.12521604e-06,
          -3.50744585e-06, -5.14626299e-06, -4.25050803e-06,
          -3.62310811e-06, -5.16831415e-06, -4.15345812e-06,
          -3.36682479e-06, -4.88502747e-06, -3.86973579e-06,
          -3.08353810e-06, -5.33010916e-06, -4.03324520e-06,
          -3.07104347e-06, -5.31780188e-06, -4.02186561e-06,
          -3.06952916e-06, -5.33006551e-06, -4.01105444e-06,
          -3.05592494e-06, -5.35035906e-06, -4.03165404e-06,
          -3.07926416e-06, -5.39489565e-06, -4.04652428e-06,
          -3.08112749e-06, -5.42234875e-06, -4.07484822e-06,
          -3.11667486e-06, -5.39426583e-06, -4.07947573e-06,
          -3.17839840e-06, -5.34049013e-06, -4.02651176e-06,
          -3.12462294e-06, -3.49019001e-06, -3.24111602e-06,
          -2.48625224e-06, -3.56873761e-06, -2.53049507e-06,
          -2.05139349e-06, -2.71960971e-06, -2.51842971e-06,
          -2.05748506e-06, -3.63132045e-07, -5.38728159e-07,
          -1.83568488e-06, 2.27933583e-06, 1.32610944e-06,
          2.84881281e-07, 2.70254259e-06, 1.74944523e-06, 7.08088010e-07,
          1.95986513e-06, 7.59955867e-07, -5.87495549e-07,
          3.97150586e-07, -8.04375645e-07, -2.73195928e-06,
          -1.62163019e-06, -3.14232216e-06, -2.71560816e-06,
          -7.64253969e-07, -2.56916769e-06, -2.13003068e-06,
          -8.03301987e-07, -2.58544469e-06, -2.10862891e-06,
          -7.64478443e-07, -2.39663314e-06, -1.92007542e-06,
          -6.72208103e-07, -2.07857056e-06, -1.65858398e-06,
          -3.37596049e-07, -2.07934590e-06, -1.65115102e-06,
          -1.89121499e-06, -2.78251787e-06, -2.32950379e-06,
          -2.69812244e-06, -2.81012831e-06, -2.35976700e-06,
          -3.77579090e-06, -2.90506478e-06, -2.42146689e-06,
          -3.58400212e-06, -2.71596491e-06, -2.23217103e-06,
          -3.69531585e-06, -2.79311962e-06, -2.24113614e-06,
          -4.18020227e-06, -3.27561588e-06, -2.72279567e-06,
          -4.79449182e-06, -3.82621283e-06, -3.15092575e-06,
          -4.64234427e-06, -3.99226656e-06, -3.45219610e-06,
          -3.53863061e-06, -4.30357341e-06, -3.47866990e-06,
          -3.65231062e-06, -4.26032693e-06, -3.46597767e-06,
          -8.27341012e-07, -2.07856988e-06, -2.90742764e-06,
          2.85406429e-07, -7.81677784e-07, -2.52025688e-06,
          1.05991944e-06, 1.37401074e-07, -1.45386605e-06,
          1.59084948e-06, 6.56652844e-07, -9.31342413e-07,
          2.24056430e-06, 1.31197305e-06, -6.55066685e-07,
          2.29146235e-06, 1.36371250e-06, -6.23573328e-07,
          3.97885572e-07, -1.02087647e-07, -1.41245494e-06,
          -2.90500407e-06, -3.59407227e-06, -3.17947865e-06,
          -4.83554822e-06, -3.41499845e-06, -3.04924106e-06,
          -4.10156781e-06, -3.42014914e-06, -3.05439153e-06,
          -4.35000766e-06, -3.51294238e-06, -3.14065778e-06,
          -3.94469225e-06, -3.48781805e-06, -3.10126438e-06,
          -2.12326950e-06, -1.18349772e-06, -3.33834549e-07,
          3.46168235e-07, 1.28338615e-06, 2.18331752e-06, 2.57540165e-07,
          1.25854638e-06, 2.08813617e-06, -6.14306259e-07,
          4.40723511e-07, 1.34082109e-06, -1.61970195e-06,
          -4.79803361e-07, 4.84931945e-07, -3.24753432e-06,
          -2.04689673e-06, -1.19373738e-06, -5.54119606e-06,
          -4.38532879e-06, -3.31156957e-06, -6.24627137e-06,
          -5.11041117e-06, -3.99794271e-06, -6.29267697e-06,
          -5.32153354e-06, -4.05689661e-06, -6.01717238e-06,
          -5.03000683e-06, -3.70568137e-06, -2.32022057e-06,
          -2.47182675e-06, -2.99075009e-06, 2.18253987e-07,
          5.80861617e-08, 1.21427789e-07, 1.31256868e-07,
          -7.59483498e-07, -8.56703650e-07, 4.31140649e-07,
          -4.58789458e-07, -5.35102004e-07, 2.44124180e-07,
          -1.11455142e-06, -1.22666324e-06, 4.12115469e-07,
          -9.49269975e-07, -1.08037796e-06, 8.13068482e-07,
          -6.34659443e-07, -1.31998149e-06, 9.61435148e-07,
          -5.90098807e-07, -1.43537079e-06, 8.51529819e-07,
          -4.08966145e-07, -7.80898461e-07, 1.40713666e-07,
          -1.11240240e-06, -1.37711788e-06, -2.64361847e-06,
          -4.16713692e-06, -1.79221047e-06, -3.51885865e-06,
          -4.22391895e-06, -1.80482539e-06, -4.40022586e-06,
          -4.29027796e-06, -1.72446073e-06, -4.40276199e-06,
          -4.31311310e-06, -1.69091572e-06, -4.71812609e-06,
          -4.45844171e-06, -1.67443022e-06, -2.04605362e-06,
          -2.80412974e-06, -3.92044370e-07, 2.52206269e-06,
          8.72395788e-07, 3.17484091e-06, 3.18204798e-06, 1.52922178e-06,
          3.87606678e-06, 2.72221223e-06, 4.50544377e-07, 2.09195082e-06,
          2.39864721e-06, 1.16592339e-07, 1.67746816e-06, 1.86944874e-06,
          -7.89226249e-07, 2.79256369e-07, 1.25680492e-06,
          -1.39042106e-06, -4.60382410e-07, 1.29178727e-06,
          -1.48412937e-06, -5.97849805e-07, 5.92227252e-07,
          -2.18171749e-06, -1.26721625e-06, 1.80899565e-06,
          -8.57651230e-07, -1.74901345e-06, 1.98167322e-06,
          -7.23696871e-07, -1.65342260e-06, 1.79744734e-06,
          -5.35537993e-07, -1.15508874e-06, 2.27692908e-06,
          -6.39742552e-08, -8.36613594e-07, 1.21130722e-06,
          -4.38705342e-07, -1.61206026e-06, 1.12555722e-06,
          -5.08134235e-07, -1.53840404e-06, 6.29756471e-07,
          6.00400313e-07, 8.61233730e-07, -6.56321149e-08,
          -3.13274100e-08, 1.15003786e-07, -2.89428726e-06,
          -3.10640235e-06, -2.76891114e-06, -3.96461110e-06,
          -4.84271550e-06, -4.63891956e-06, -4.93280504e-06,
          -5.62364676e-06, -4.91734545e-06, -5.66240533e-06,
          -5.66150993e-06, -4.95408858e-06, -8.32055093e-07,
          -1.84777070e-06, -1.56179431e-06, 2.50997778e-06,
          1.52667474e-06, 1.82473627e-06, 2.22074937e-06, 1.28868282e-06,
          1.78238804e-06, -9.39294125e-07, -1.89406433e-06,
          -1.38964435e-06, -5.42622593e-06, -5.74134492e-06,
          -4.85950795e-06, -4.82908581e-06, -5.53755899e-06,
          -4.66241909e-06, -4.44663738e-06, -3.94150857e-06,
          -3.05555704e-06, -3.91241474e-06, -3.49567313e-06,
          -2.49009668e-06, -1.60974685e-06, -2.13937051e-06,
          -2.54037514e-06, 3.60541526e-06, 3.24220105e-06,
          3.23654581e-06, 6.74390458e-06, 5.86827446e-06, 5.40922701e-06,
          6.15652607e-06, 5.26546182e-06, 4.83537542e-06, 3.90292325e-06,
          2.93372545e-06, 1.85504928e-06, 1.10752376e-06, 1.59427060e-07,
          -9.72895009e-07, 4.54226097e-07, -5.79211871e-07,
          -1.30904061e-06, -3.63910846e-10, -1.03422042e-06,
          -1.73404510e-06, 7.05679923e-08, -1.12209023e-06,
          -1.59657247e-06, 3.91827086e-07, -8.07590027e-07,
          -1.30771548e-06, 7.26669612e-07, -5.57690498e-07,
          -1.02760100e-06, 3.84848363e-07, -9.06301807e-07,
          -1.35242090e-06, 3.96170861e-07, -1.02313993e-06,
          -1.51755751e-06, 6.11867620e-07, -8.00309692e-07,
          -1.25204735e-06, 7.35533376e-07, -8.80895186e-07,
          -1.99362898e-06, 5.71878502e-07, -1.04993967e-06,
          -2.37306972e-06, 1.12485611e-06, -4.59190829e-07,
          -2.06083769e-06, 2.55703708e-06, 9.92034074e-07,
          -7.84139843e-07, 2.15669934e-06, 1.22063830e-06,
          -5.27923760e-07, 2.20950665e-06, 9.97106895e-07,
          -7.14888415e-07, -4.27702815e-07, -1.18480432e-06,
          -2.24283622e-06, -1.47298704e-06, -2.63845254e-06,
          -2.26232351e-06, -3.99921100e-06, -3.05902813e-06,
          -2.64136224e-06, -3.93242544e-06, -2.99225690e-06,
          -2.57277793e-06, -4.04660614e-06, -3.00765896e-06,
          -2.21808818e-06, -4.02887872e-06, -2.98993155e-06,
          -2.21254936e-06, -4.09390213e-06, -3.02512012e-06,
          -2.20612060e-06, -3.31934780e-06, -2.93553808e-06,
          -2.18508762e-06, -4.03361219e-06, -3.52387792e-06,
          -2.70333840e-06, -5.22805840e-06, -4.20526521e-06,
          -3.38516134e-06, -5.30413308e-06, -4.05964602e-06,
          -3.12316956e-06, -5.30854459e-06, -4.06405798e-06,
          -3.12745237e-06, -5.31094474e-06, -4.09540598e-06,
          -3.14901536e-06, -4.89516196e-06, -3.67949428e-06,
          -2.73323280e-06, -3.97288977e-06, -2.97876704e-06,
          -2.10385906e-06, -3.63409026e-06, -2.53882058e-06,
          -2.03391050e-06, -3.35728828e-06, -2.52744871e-06,
          -2.04000207e-06, -2.16559016e-07, 5.25279404e-07,
          4.41281344e-07, 4.95874929e-06, 4.78874608e-06, 3.82295548e-06,
          5.07248751e-06, 4.90261300e-06, 3.93973960e-06, 3.65005258e-06,
          2.88339402e-06, 1.82203553e-06, 1.06949694e-08,
          -8.66698599e-07, -2.07350695e-06, -2.42845795e-06,
          -2.56291241e-06, -2.07155972e-06, -3.02484773e-06,
          -2.56054864e-06, -2.06906680e-06, -3.16822502e-06,
          -2.51726078e-06, -2.02670026e-06, -3.09612369e-06,
          -2.29971943e-06, -1.80928805e-06, -2.91642550e-06,
          -2.09349992e-06, -1.62227150e-06, -2.83001873e-06,
          -2.09349992e-06, -1.62311278e-06, -2.90304388e-06,
          -2.09375798e-06, -1.62447611e-06, -2.93661901e-06,
          -2.12099849e-06, -1.64920993e-06, -3.00461716e-06,
          -2.18892319e-06, -1.75595301e-06, -2.94968208e-06,
          -2.13482963e-06, -1.70114708e-06, -3.13106875e-06,
          -2.07705921e-06, -1.65031622e-06, -3.62386709e-06,
          -2.67285941e-06, -2.20079187e-06, -5.06658034e-06,
          -4.02688602e-06, -3.46529350e-06, -5.06749848e-06,
          -4.02948672e-06, -3.46608249e-06, -4.95581389e-06,
          -4.12253439e-06, -3.44845193e-06, -4.49592972e-06,
          -4.09202403e-06, -3.41794112e-06, -2.71802173e-06,
          -3.70302337e-06, -3.03253773e-06, 4.29629523e-07,
          -2.56397669e-07, -8.84404415e-07, 7.39962331e-07,
          -1.09691591e-07, -1.42367014e-06, 1.91354070e-06,
          1.05045376e-06, -2.70088037e-07, 2.05298829e-06,
          1.22996300e-06, -6.96387531e-07, 2.52125983e-06,
          1.69823443e-06, 4.47014727e-08, -7.13880688e-09,
          -5.69970595e-08, -1.69832481e-06, -2.41041630e-06,
          -2.55096757e-06, -1.92242032e-06, -4.75851175e-06,
          -3.28183273e-06, -2.89472086e-06, -5.41090822e-06,
          -3.88280387e-06, -3.49448192e-06, -5.50533923e-06,
          -3.92764741e-06, -3.60638091e-06, -3.57316890e-06,
          -2.37155541e-06, -2.68202416e-06, 3.86314241e-06,
          4.78035099e-06, 5.42689577e-06, 5.26153372e-06, 6.10021789e-06,
          6.73689146e-06, 5.44822888e-06, 5.72843237e-06, 5.92543893e-06,
          6.23675896e-06, 6.52267408e-06, 6.80127914e-06, 5.68874930e-06,
          5.97004509e-06, 6.47299612e-06, 8.48754155e-07, 1.12696580e-06,
          1.66837481e-06, -4.66735582e-06, -3.60187278e-06,
          -2.63118272e-06, -4.85960709e-06, -3.59412343e-06,
          -2.58085743e-06, -4.90917591e-06, -3.59323053e-06,
          -2.50192829e-06, -4.83930580e-06, -3.52963593e-06,
          -2.38127450e-06, -9.42348706e-08, -1.56317881e-07,
          5.94338758e-07, 3.17113813e-06, 3.10313044e-06, 3.90738160e-06,
          2.17007482e-06, 1.32773368e-06, 1.21697462e-06, 6.23555593e-07,
          -2.17478629e-07, -2.91990148e-07, 3.29999892e-07,
          -1.39480539e-06, -1.65664517e-06, 8.16732268e-07,
          -9.07637457e-07, -1.11491988e-06, 7.68287578e-07,
          -8.60170587e-07, -1.07836217e-06, 9.77155537e-07,
          -6.73822228e-07, -1.24481835e-06, 3.03972598e-08,
          -1.25190275e-06, -1.04953017e-06, -1.37369329e-06,
          -2.67865016e-06, -2.31481727e-06, -5.03350748e-06,
          -4.84309476e-06, -2.52849441e-06, -4.67703649e-06,
          -4.40726808e-06, -2.10424446e-06, -4.42546025e-06,
          -4.26525503e-06, -1.73648493e-06, -4.46184913e-06,
          -4.30227783e-06, -1.70698445e-06, -4.88921251e-06,
          -4.71652038e-06, -1.65595100e-06, -5.87230090e-07,
          -1.38958205e-06, 1.05900278e-06, 3.71311899e-06,
          2.06237246e-06, 4.44704756e-06, 3.97874464e-06, 2.31489389e-06,
          4.75161960e-06, 5.20234744e-06, 2.80872428e-06, 4.94287133e-06,
          3.19762285e-06, 6.87982890e-07, 2.58159844e-06, 1.30677586e-06,
          -1.43811087e-06, -2.97497280e-07, 1.08222901e-06,
          -1.64178766e-06, -3.10262180e-07, 1.27785745e-06,
          -1.77083018e-06, -3.34623223e-07, 2.52356529e-07,
          -2.65295148e-06, -1.18197647e-06, 1.89585728e-06,
          -8.01481292e-07, -1.70186672e-06, 1.78807920e-06,
          -8.79448748e-07, -1.55033740e-06, 1.60128445e-06,
          -7.41043721e-07, -1.44150010e-06, 1.92715811e-06,
          -4.07101282e-07, -1.37268978e-06, 4.07136298e-07,
          -1.99880060e-06, -2.50584117e-06, -4.48780526e-07,
          -2.53434791e-06, -2.53006692e-06, -1.01705416e-06,
          -1.71140277e-06, -1.44386513e-06, 1.67984194e-06,
          1.64335381e-06, 1.90505841e-06, 3.31363844e-06, 3.09779603e-06,
          3.15737861e-06, 2.55235932e-06, 2.30046544e-06, 2.38897792e-06,
          -1.26497127e-07, -8.82795007e-07, -9.45022180e-07,
          -1.12031364e-06, -2.30203841e-06, -2.33787455e-06,
          3.22510118e-06, 2.30726869e-06, 2.17820275e-06, 6.93446827e-06,
          5.59090267e-06, 5.88264402e-06, 6.09173230e-06, 5.56165105e-06,
          5.60344142e-06, 1.45919694e-06, 9.60417424e-07, 9.87490466e-07,
          -2.21819846e-06, -3.03547790e-06, -2.21202868e-06,
          -2.11486304e-06, -2.99513158e-06, -2.16766421e-06,
          -3.37824144e-06, -2.98158011e-06, -2.02075807e-06,
          -3.40956763e-06, -3.00842908e-06, -2.05557990e-06,
          -3.67864743e-08, -4.48572450e-07, -5.33301261e-07,
          4.89950753e-06, 4.46754848e-06, 4.36559185e-06, 6.62002640e-06,
          5.57700332e-06, 5.05235948e-06, 4.01932903e-06, 3.24646362e-06,
          2.75603520e-06, -1.04423272e-07, -1.20463596e-06,
          -2.68494364e-06, -2.61822674e-06, -4.29418969e-06,
          -3.85257317e-06, -2.53633198e-06, -4.31071157e-06,
          -3.80566757e-06, -2.24877408e-06, -3.93695063e-06,
          -3.79839821e-06, -2.22993299e-06, -3.90520609e-06,
          -3.47653850e-06, -2.05248216e-06, -3.89724210e-06,
          -3.31914339e-06, -1.76288006e-06, -3.53530254e-06,
          -3.15927650e-06, -1.76336482e-06, -3.47087621e-06,
          -3.17399849e-06, -1.70409169e-06, -3.96280620e-06,
          -3.16299247e-06, -1.86582315e-06, -4.16998682e-06,
          -3.22015103e-06, -1.75989976e-06, -4.27002306e-06,
          -3.31818273e-06, -1.73137801e-06, -4.31645685e-06,
          -3.35870641e-06, 2.67762289e-07, -1.30625051e-06,
          -3.47069886e-06, 2.60581260e-06, 1.03881814e-06,
          -7.43187684e-07, 1.93283381e-06, 9.65255595e-07,
          -1.09618964e-06, 2.17945990e-06, 9.69117764e-07,
          -7.30298098e-07, -5.73450791e-07, -1.15724140e-06,
          -2.22266112e-06, -1.48964727e-06, -2.61615310e-06,
          -2.24056066e-06, -3.46289198e-06, -2.63426136e-06,
          -2.25929330e-06, -3.46531851e-06, -2.60633260e-06,
          -2.22643712e-06, -3.71409692e-06, -2.61552191e-06,
          -2.21559526e-06, -3.40908969e-06, -2.61534456e-06,
          -2.21254936e-06, -1.74025752e-06, -1.87099999e-06,
          -2.03126524e-06, -1.28858392e-06, -8.87350609e-07,
          -7.30596753e-07, -1.80317898e-06, -1.58489092e-06,
          -1.03053105e-06, -3.96846599e-06, -4.07057723e-06,
          -3.25224846e-06, -5.33174443e-06, -4.08725782e-06,
          -3.15212060e-06, -5.45442026e-06, -4.20993319e-06,
          -3.27466705e-06, -5.35047184e-06, -4.13480439e-06,
          -3.18988214e-06, -4.53898383e-06, -3.32331638e-06,
          -2.34113168e-06, -3.47242781e-06, -2.59501985e-06,
          -2.09960626e-06, -3.42195085e-06, -2.52898940e-06,
          -2.03335730e-06, -2.20085417e-06, -1.42710678e-06,
          -2.04194180e-06, 9.66126549e-07, 1.70840065e-06,
          1.62701281e-06, 5.88038574e-06, 5.70769862e-06, 4.74628905e-06,
          5.93077357e-06, 5.76102866e-06, 4.79802611e-06, 3.99224155e-06,
          3.22558299e-06, 2.16422450e-06, -1.02960058e-07,
          -1.02694037e-06, -2.35000766e-06, -2.56242697e-06,
          -2.56488897e-06, -2.07405242e-06, -2.44056764e-06,
          -2.50768358e-06, -2.01671810e-06, -2.69588872e-06,
          -2.41256316e-06, -1.92200264e-06, -2.52331324e-06,
          -2.23430425e-06, -1.74056879e-06, -2.90968092e-06,
          -2.09362884e-06, -1.62227150e-06, -2.83324539e-06,
          -2.09362884e-06, -1.62311278e-06, -3.09954476e-06,
          -2.09388713e-06, -1.62447611e-06, -3.14616136e-06,
          -2.13416888e-06, -1.66225141e-06, -3.41937198e-06,
          -2.52219547e-06, -2.07939570e-06, -3.17092395e-06,
          -2.14459396e-06, -1.70799478e-06, -3.30956391e-06,
          -2.31831200e-06, -1.85508202e-06, -3.66730637e-06,
          -2.71670433e-06, -2.24448945e-06, -4.63199467e-06,
          -3.59230035e-06, -3.03070760e-06, -4.72485817e-06,
          -3.68684618e-06, -3.12318389e-06, -4.20183869e-06,
          -3.78050777e-06, -3.10616701e-06, -3.53059454e-06,
          -3.81211657e-06, -3.13777559e-06, -2.65373296e-06,
          -3.81643304e-06, -3.14688077e-06, 1.47229503e-06,
          7.85020859e-07, 1.58390122e-07, 2.34572235e-06, 1.49527125e-06,
          3.81417493e-07, 2.88260253e-06, 2.01911007e-06, 9.24803430e-07,
          1.99806277e-06, 1.17590866e-06, -7.77263267e-07,
          1.64160906e-06, 8.19454897e-07, -1.16188210e-06,
          -1.05499328e-06, -1.84665544e-06, -1.92073799e-06,
          -2.54593488e-06, -2.18273976e-06, -1.92428888e-06,
          -4.00350609e-06, -2.54350357e-06, -1.98456110e-06,
          -4.58977138e-06, -3.07877895e-06, -2.69234238e-06,
          -5.26774511e-06, -3.70629436e-06, -3.38308928e-06,
          -2.75181333e-06, -1.54992097e-06, -1.62644005e-06,
          3.19905166e-06, 4.03776539e-06, 4.62688286e-06, 4.00504632e-06,
          4.84637349e-06, 5.48840808e-06, 4.55344343e-06, 4.83713211e-06,
          5.04178388e-06, 4.47299271e-06, 4.75406478e-06, 4.98448617e-06,
          3.63009576e-06, 3.91350977e-06, 4.42198007e-06,
          -3.71948055e-08, 2.40083125e-07, 7.89846808e-07,
          -4.30096952e-06, -3.13411579e-06, -2.10699704e-06,
          -4.25942471e-06, -3.09357165e-06, -2.04011553e-06,
          -4.21091863e-06, -3.05695539e-06, -1.97987879e-06,
          -2.92889308e-06, -3.05267281e-06, -1.94393829e-06,
          1.98605289e-06, 1.94342374e-06, 2.75328080e-06, 3.97050508e-06,
          3.91604908e-06, 4.72199099e-06, 4.03333388e-06, 3.20024810e-06,
          3.08456242e-06, 1.70978569e-06, 8.76095669e-07, 7.94744835e-07,
          7.69727762e-07, -9.46922000e-07, -1.20151003e-06,
          9.15386863e-07, -8.00391774e-07, -1.16505578e-06,
          1.36499500e-06, -2.64746291e-07, -4.41998367e-07,
          1.63787831e-06, 8.92163854e-08, -7.36154846e-07,
          -5.24017558e-08, -1.11602651e-06, -1.00260786e-06,
          -2.18251648e-06, -4.12556346e-06, -2.37260156e-06,
          -6.10013922e-06, -5.84537838e-06, -3.52315396e-06,
          -6.01476813e-06, -5.80095457e-06, -3.42646103e-06,
          -5.35763138e-06, -5.03824458e-06, -2.51133588e-06,
          -4.92603931e-06, -4.60984893e-06, -2.03355853e-06,
          -2.97110023e-06, -4.03207196e-06, -1.90877404e-06,
          5.68266273e-07, -2.38050831e-07, 2.24378960e-06,
          3.51893982e-06, 1.89425089e-06, 4.34377353e-06, 4.14671786e-06,
          2.45535512e-06, 4.93424432e-06, 4.45736077e-06, 2.20883567e-06,
          4.06851086e-06, 2.65445010e-06, 1.43455168e-07, 2.03707077e-06,
          1.08335405e-06, -1.68916233e-06, -3.17256308e-07,
          9.29451403e-07, -1.76162951e-06, -3.10343580e-07,
          9.65925324e-07, -1.85428473e-06, -4.49956502e-07,
          -3.68073273e-07, -3.31257911e-06, -1.92410948e-06,
          1.93123492e-06, -7.47909951e-07, -1.40524367e-06,
          2.01173293e-06, -6.80825167e-07, -9.16573583e-07,
          8.33804393e-07, -1.12347584e-06, -1.67712562e-06,
          2.68550025e-07, -1.76609308e-06, -2.06312097e-06,
          -1.49540699e-06, -2.86341492e-06, -2.73141950e-06,
          -2.09342579e-06, -2.85986152e-06, -2.72852049e-06,
          -3.18460752e-06, -2.90657158e-06, -2.56026988e-06,
          -2.87631383e-06, -3.31452088e-06, -2.80704307e-06,
          -1.21344863e-06, -1.27887154e-06, -9.50555659e-07,
          2.32523212e-06, 2.10981557e-06, 2.43777254e-06, 4.34693584e-06,
          3.71411693e-06, 3.80497636e-06, 5.26291615e-06, 4.62274875e-06,
          4.71496742e-06, 5.94700259e-06, 5.28384362e-06, 5.63285266e-06,
          6.50037009e-06, 5.84007103e-06, 6.15990257e-06, 5.60799117e-06,
          5.13355735e-06, 5.60502758e-06, -2.84445974e-07,
          -7.33462855e-07, -3.53310668e-07, -3.32892432e-06,
          -2.87658281e-06, -2.36539472e-06, -3.33725666e-06,
          -2.85197007e-06, -2.33631158e-06, -3.37734355e-06,
          -2.90949379e-06, -2.13332942e-06, -3.37302640e-06,
          -2.98033888e-06, -2.21451182e-06, 1.36799804e-06,
          1.34932384e-06, 1.51697748e-06, 5.98461975e-06, 5.95059328e-06,
          6.13359907e-06, 6.27372310e-06, 5.97361077e-06, 5.96140808e-06,
          2.94385381e-06, 2.66217376e-06, 2.66623624e-06,
          -2.92810159e-06, -3.30666876e-06, -2.94475603e-06,
          -5.01146224e-06, -4.37620110e-06, -3.73316652e-06,
          -5.28889223e-06, -4.32548813e-06, -3.61249499e-06,
          -5.19702326e-06, -4.23179426e-06, -3.55803809e-06,
          -5.28452119e-06, -4.32184333e-06, -3.40245151e-06,
          -5.24404277e-06, -4.27952773e-06, -3.36737844e-06,
          -5.14836802e-06, -4.26996394e-06, -3.15135776e-06,
          -5.10459358e-06, -4.22265157e-06, -3.11085682e-06,
          -5.17771423e-06, -4.12648069e-06, -3.07141840e-06,
          -5.22609480e-06, -4.16862713e-06, -3.12475231e-06,
          -4.43639055e-06, -4.25526059e-06, -3.22333449e-06,
          -4.11299243e-06, -4.31533726e-06, -3.28244869e-06,
          -1.68040469e-06, -1.89511672e-06, -3.43608349e-06,
          7.05174216e-07, 4.94447704e-07, -8.81135023e-08,
          1.24584392e-06, 5.72780664e-07, -4.17293819e-07,
          9.89649720e-07, 3.21908601e-07, -6.14646297e-07,
          -1.66306404e-06, -2.59808735e-06, -2.23460756e-06,
          -3.12583961e-06, -2.60993443e-06, -2.24921314e-06,
          -3.43915235e-06, -2.60746606e-06, -2.24973110e-06,
          -3.41312079e-06, -2.58408863e-06, -2.22594804e-06,
          -3.41462169e-06, -2.59144895e-06, -2.20672268e-06,
          -6.09857409e-07, 3.35007485e-07, 3.61392154e-07,
          5.30494981e-06, 5.12561837e-06, 5.41512145e-06, 5.38695758e-06,
          5.20582307e-06, 5.49003653e-06, 4.13045018e-06, 4.06789513e-06,
          4.39162568e-06, 3.44982311e-07, 3.14313667e-07, 6.39641542e-07,
          -5.39822895e-06, -4.25777716e-06, -3.44040359e-06,
          -5.36348944e-06, -4.22303765e-06, -3.40566407e-06,
          -5.46812225e-06, -4.17416231e-06, -3.38373457e-06,
          -4.82250880e-06, -3.52854840e-06, -2.73812088e-06,
          -9.53442395e-07, 2.96123545e-07, 6.22470736e-07,
          1.87244132e-06, 2.91907600e-06, 3.24789607e-06, 2.90163598e-06,
          3.36076096e-06, 3.09512620e-06, 4.03471086e-06, 4.49465870e-06,
          4.22820131e-06, 6.48431023e-06, 6.09885001e-06, 4.93982270e-06,
          6.43547401e-06, 6.05070773e-06, 4.89098693e-06, 3.18120215e-06,
          2.50010589e-06, 1.09468954e-06, -8.48929176e-07,
          -1.53214489e-06, -3.26503050e-06, -4.58145587e-06,
          -3.78717368e-06, -3.38024006e-06, -3.40993461e-06,
          -2.96602570e-06, -2.55857594e-06, -3.12124735e-06,
          -2.32197408e-06, -1.82854535e-06, -2.95450150e-06,
          -2.10563030e-06, -1.62690037e-06, -2.82715177e-06,
          -2.09574273e-06, -1.61397520e-06, -3.13648366e-06,
          -2.37339600e-06, -1.91070467e-06, -4.11544897e-06,
          -3.27025896e-06, -2.76674291e-06, -4.44997204e-06,
          -3.60298327e-06, -3.09964912e-06, -4.36568098e-06,
          -3.60406125e-06, -2.86598242e-06, -4.19902062e-06,
          -3.43875558e-06, -2.69750217e-06, -4.10264147e-06,
          -3.24984785e-06, -2.35757716e-06, -4.26907854e-06,
          -3.41628493e-06, -2.52401423e-06, -4.92180288e-06,
          -3.88162698e-06, -2.86438467e-06, -4.93411153e-06,
          -3.89434172e-06, -2.87617740e-06, -4.10025496e-06,
          -3.81983682e-06, -2.71163412e-06, -3.28200213e-06,
          -3.77486731e-06, -2.66971074e-06, -1.22439735e-06,
          -1.14212673e-06, -1.04083779e-06, 3.24798066e-06,
          3.33025127e-06, 3.43020088e-06, 4.70681880e-06, 4.25976668e-06,
          3.58096349e-06, 3.94697236e-06, 3.48463050e-06, 2.80703762e-06,
          2.04605885e-06, 1.55274142e-06, 6.41627082e-07, 7.68796440e-07,
          4.66268091e-07, -1.56939268e-06, -2.08051256e-06,
          -2.17822253e-06, -1.92344783e-06, -2.09861628e-06,
          -2.17778688e-06, -1.92344783e-06, -3.22873802e-06,
          -2.21403616e-06, -1.96141809e-06, -4.09584391e-06,
          -2.49103891e-06, -1.99326837e-06, -5.50911545e-06,
          -3.84566511e-06, -3.46725710e-06, -4.73266800e-06,
          -3.05294725e-06, -2.66247821e-06, -2.54719885e-06,
          -2.75801540e-06, -2.02234128e-06, -1.44591377e-06,
          -6.18075717e-07, -9.57425499e-08, -2.05818921e-07,
          5.12042391e-07, 9.25652614e-07, 1.81716501e-07, 8.96459198e-07,
          1.35086418e-06, -1.27349807e-07, 3.77402131e-07,
          7.85071506e-07, -1.85865508e-06, -1.35822779e-06,
          -2.04170624e-06, -4.27409577e-06, -3.08640665e-06,
          -2.09786913e-06, -4.18856007e-06, -3.00212946e-06,
          -1.97324789e-06, -4.18286572e-06, -3.01578189e-06,
          -1.97826557e-06, -1.47596324e-06, -7.34164132e-07,
          1.44363838e-07, 3.34513720e-06, 3.66146355e-06, 4.18033324e-06,
          3.80353549e-06, 4.13134876e-06, 4.70139912e-06, 4.91528544e-06,
          4.37242534e-06, 4.32701972e-06, 2.28861268e-06, 1.61745095e-06,
          1.62204185e-06, 7.33124637e-07, -7.68449752e-07,
          -1.06774007e-06, 8.74675891e-07, -6.27769680e-07,
          -1.13129988e-06, 1.85119904e-06, 4.14742146e-07,
          -1.35882175e-07, 1.85542228e-06, 4.40692460e-08,
          -4.14676833e-07, -7.79141203e-07, -1.91874346e-06,
          -1.59082595e-06, -2.29881198e-06, -3.98866541e-06,
          -1.91400750e-06, -4.89939612e-06, -4.38508278e-06,
          -2.03853460e-06, -5.64413540e-06, -5.17087483e-06,
          -2.76971173e-06, -5.99413215e-06, -5.67865209e-06,
          -3.10301107e-06, -6.16207944e-06, -5.84843201e-06,
          -3.20647268e-06, -1.50171854e-06, -2.37678705e-06,
          2.01163797e-08, 1.94141489e-06, 1.03397997e-06, 3.48296317e-06,
          3.75368700e-06, 1.94997028e-06, 4.57370106e-06, 4.25158623e-06,
          2.48463584e-06, 5.17596163e-06, 3.22210644e-06, 9.01429303e-07,
          2.87415537e-06, 1.54804388e-06, -7.71557779e-07,
          1.23660448e-06, 7.31883063e-07, -2.03294394e-06,
          -3.57243550e-07, 8.29608325e-07, -1.92698576e-06,
          -3.36419475e-07, 1.14440979e-06, -1.98980979e-06,
          -3.67115490e-07, -7.31868738e-07, -3.89164006e-06,
          -2.35607740e-06, 1.95817415e-06, -7.15480439e-07,
          -1.43323439e-06, 2.15186947e-06, -5.31880005e-07,
          -8.36137701e-07, 3.66367459e-07, -1.62658478e-06,
          -2.21607365e-06, -9.28924464e-07, -3.02265630e-06,
          -3.13473197e-06, -2.61075274e-06, -3.29853924e-06,
          -2.72917850e-06, -2.08284428e-06, -2.86032127e-06,
          -2.73007072e-06, -3.67749408e-06, -2.95515110e-06,
          -2.56711382e-06, -3.82971803e-06, -3.70451062e-06,
          -3.21861307e-06, -4.65573976e-06, -4.20728429e-06,
          -3.67819530e-06, -3.23312202e-06, -3.56982719e-06,
          -2.90680214e-06, -8.52526512e-07, -1.99840906e-06,
          -1.78943753e-06, 1.89473565e-06, 1.45743741e-06,
          1.54965585e-06, 5.92370543e-06, 5.25967471e-06, 5.60798981e-06,
          6.46454828e-06, 5.80324149e-06, 6.16470470e-06, 4.16134981e-06,
          3.64763673e-06, 4.10058101e-06, -1.18445337e-06,
          -1.93703568e-06, -1.84335136e-06, -3.32169020e-06,
          -2.85630063e-06, -2.35816060e-06, -3.33814910e-06,
          -2.83966165e-06, -2.34856157e-06, -3.38857490e-06,
          -2.92196864e-06, -2.13955082e-06, -2.22715721e-06,
          -2.96215035e-06, -2.18337300e-06, 2.45367028e-06,
          2.41351017e-06, 2.59284434e-06, 5.76819320e-06, 5.71330020e-06,
          5.87257409e-06, 5.89159072e-06, 5.60105855e-06, 5.60801391e-06,
          2.78079801e-06, 2.52390123e-06, 2.51653000e-06,
          -2.67425071e-06, -3.15757825e-06, -3.01402042e-06,
          -4.99703356e-06, -4.56551015e-06, -3.92373295e-06,
          -5.53565405e-06, -4.54728479e-06, -3.85794738e-06,
          -5.24914503e-06, -4.29103147e-06, -3.57561157e-06,
          -5.28432929e-06, -4.32024990e-06, -3.39691678e-06,
          -5.17244371e-06, -4.20792867e-06, -3.29076943e-06,
          -5.11630151e-06, -4.24238306e-06, -3.11189001e-06,
          -5.07004825e-06, -4.18851141e-06, -3.07238292e-06,
          -5.18620391e-06, -4.13453472e-06, -3.07401569e-06,
          -5.30741954e-06, -4.24774134e-06, -3.19952983e-06,
          -4.32874458e-06, -4.12301824e-06, -3.08823837e-06,
          -3.78817845e-06, -4.25630833e-06, -3.22014648e-06,
          -1.29718183e-06, -1.51231382e-06, -2.26848420e-06,
          1.19423567e-06, 1.01270541e-06, 3.38841289e-07, 2.00339332e-06,
          1.32200489e-06, 4.72102300e-07, 8.51622872e-07, 1.84335562e-07,
          -7.45895420e-07, -1.97967779e-06, -2.57695729e-06,
          -2.20867241e-06, -2.34921913e-06, -2.58815885e-06,
          -2.22388780e-06, -3.42692283e-06, -2.59791523e-06,
          -2.23750158e-06, -3.40800625e-06, -2.58165278e-06,
          -2.22083327e-06, -3.41199984e-06, -2.58839145e-06,
          -2.20727566e-06, 6.66200094e-07, 1.60972559e-06,
          1.63744960e-06, 6.07750189e-06, 6.08673145e-06, 6.37344692e-06,
          5.82814482e-06, 5.76811408e-06, 6.16501575e-06, 4.56492626e-06,
          4.53677012e-06, 4.86363297e-06, 1.04988914e-07, 7.64455166e-08,
          4.05034854e-07, -5.68103678e-06, -4.53923030e-06,
          -3.72187219e-06, -5.39157691e-06, -4.24933478e-06,
          -3.43241231e-06, -5.45379316e-06, -4.15983322e-06,
          -3.36806625e-06, -5.17438093e-06, -3.87819455e-06,
          -3.08865356e-06, -3.27916780e-07, 7.62083687e-07,
          1.34484662e-06, 3.84900022e-06, 4.93327798e-06, 5.51851372e-06,
          5.19886453e-06, 5.67626967e-06, 5.69770964e-06, 5.53534983e-06,
          5.99529722e-06, 5.73188572e-06, 6.64984191e-06, 6.26468864e-06,
          5.10840027e-06, 6.44729516e-06, 6.06296408e-06, 4.89976173e-06,
