%YAML:1.0
---
opencv_ml_svm:
   format: 3
   svmType: C_SVC
   kernel:
      type: LINEAR
   C: 1.
   term_criteria: { iterations:100 }
   var_count: 13230
   class_count: 2
   class_labels: !!opencv-matrix
      rows: 2
      cols: 1
      dt: i
      data: [ -1, 1 ]
   sv_total: 1
   support_vectors:
      - [ -3.67269593e-07, 5.16103398e-07, 7.27182794e-08,
          -3.44688601e-07, 4.57242464e-07, 7.53134657e-08,
          -4.30811440e-07, 3.60188551e-07, -3.48423512e-08,
          -3.91169721e-07, 3.87906113e-07, 3.75793583e-08,
          -4.39477560e-07, 3.39598273e-07, -1.09436353e-08,
          -3.11377363e-07, 3.70040624e-07, 7.74600366e-08,
          -2.75817200e-07, 4.07587208e-07, 1.15006628e-07,
          -1.78163972e-07, 3.93956213e-07, 2.38525161e-07,
          -1.94399377e-08, 5.52618758e-07, 3.97187733e-07,
          4.98102501e-08, 5.83446877e-07, 4.07255584e-07, 6.14392803e-08,
          5.99049713e-07, 4.18884611e-07, 2.65122431e-08, 6.51170808e-07,
          4.65552034e-07, 3.55058560e-08, 6.64138270e-07, 4.90977129e-07,
          -6.11589286e-08, 5.79903372e-07, 3.75692906e-07,
          -8.07777880e-08, 5.56310681e-07, 3.55981854e-07,
          -1.93490706e-07, 4.47007778e-07, 2.68446087e-07,
          -2.24261015e-07, 4.07035429e-07, 2.32493676e-07,
          -1.69823139e-07, 4.53036733e-07, 2.47174142e-07,
          -2.38209140e-07, 3.89371479e-07, 1.79535036e-07,
          -2.16389267e-07, 3.56373704e-07, 1.91276740e-07,
          -2.29197582e-07, 3.43565404e-07, 1.78468412e-07,
          -1.94610223e-07, 3.99615203e-07, 2.04270506e-07,
          -1.18606373e-07, 4.75619032e-07, 2.80274350e-07,
          -3.20076907e-07, 3.11072029e-07, 6.75146765e-08,
          -2.90308890e-07, 3.40840046e-07, 9.72827010e-08,
          -2.39558148e-07, 4.26313363e-07, 1.85184120e-07,
          -3.21220767e-07, 3.44650744e-07, 1.03521501e-07,
          -2.46390300e-07, 4.27263302e-07, 1.93718606e-07,
          -3.42170154e-07, 3.31483449e-07, 9.79387380e-08,
          -2.97450839e-07, 3.44555900e-07, 8.00639555e-08,
          -1.46294894e-07, 4.95711845e-07, 2.31219900e-07,
          -2.24277741e-07, 4.75444210e-07, 1.86673702e-07,
          -1.44154242e-07, 5.55567738e-07, 2.66781853e-07,
          -9.98958924e-08, 5.85914108e-07, 3.31107714e-07,
          -1.05849942e-07, 5.79960044e-07, 3.25138302e-07,
          -7.11279142e-08, 5.94436642e-07, 4.25631072e-07,
          -1.69128754e-07, 4.96435803e-07, 3.27568756e-07,
          -2.04806767e-07, 3.98360953e-07, 3.15690784e-07,
          -2.17480888e-07, 3.85686832e-07, 3.03047386e-07,
          -2.95844558e-07, 4.10480482e-07, 3.37762572e-07,
          -2.71770688e-07, 4.34508252e-07, 3.61790342e-07,
          -2.78998158e-07, 3.98672569e-07, 4.17101973e-07,
          -1.23919563e-07, 5.53843392e-07, 5.72272768e-07,
          5.78486095e-08, 7.15180875e-07, 7.72443570e-07, 4.55496867e-08,
          7.02881948e-07, 7.60144644e-07, 4.77632156e-08, 6.97737676e-07,
          8.07147671e-07, 6.08661708e-08, 7.11313703e-07, 8.20723699e-07,
          2.07874137e-07, 6.48021683e-07, 9.58098667e-07, 2.19249145e-07,
          6.63105538e-07, 1.01500711e-06, 5.41445928e-08, 5.07859795e-07,
          9.74953650e-07, 6.10633677e-08, 5.14778549e-07, 9.81872404e-07,
          2.30431837e-07, 6.89967692e-07, 1.13475869e-06, 3.51427644e-07,
          7.99946406e-07, 1.25575457e-06, 3.08691625e-07, 7.31931607e-07,
          1.21016501e-06, 1.85312217e-07, 6.08552170e-07, 1.08678569e-06,
          1.49394083e-07, 5.49398919e-07, 1.06510913e-06, 1.99138810e-07,
          5.99143618e-07, 1.11485383e-06, 4.02037557e-07, 8.22703328e-07,
          1.23482573e-06, 6.44240117e-07, 1.06670825e-06, 1.47332207e-06,
          6.82944119e-07, 1.26469365e-06, 1.54378711e-06, 7.27448139e-07,
          1.30919773e-06, 1.60992010e-06, 5.31421449e-07, 1.13905878e-06,
          1.39372173e-06, 2.89546989e-07, 9.26023006e-07, 1.15184730e-06,
          2.05873221e-08, 8.84212568e-07, 7.94969708e-07,
          -4.39851107e-08, 8.19640150e-07, 7.30397289e-07,
          9.67783365e-09, 7.94327548e-07, 7.76642366e-07, 8.37268033e-09,
          7.96627262e-07, 7.75337185e-07, -4.63817535e-08,
          7.59989348e-07, 7.33717002e-07, 5.58908404e-08, 8.69471592e-07,
          8.35989567e-07, 7.36022514e-08, 9.16297267e-07, 8.25268216e-07,
          1.25060339e-07, 9.71621148e-07, 8.70927693e-07, 1.67514514e-07,
          8.98945189e-07, 7.11593486e-07, 2.56505537e-08, 7.60686021e-07,
          5.69729480e-07, -8.32521465e-08, 6.51557798e-07,
          4.08557014e-07, -1.29352955e-07, 6.07259437e-07,
          3.62456205e-07, -1.91763931e-07, 5.76415630e-07,
          3.28952240e-07, -1.05554690e-07, 6.64427262e-07,
          4.15161480e-07, -8.91206184e-08, 6.92774279e-07,
          4.71143693e-07, 5.83282578e-08, 8.40223151e-07, 6.18592594e-07,
          -3.46579554e-07, 5.90077548e-07, 3.27935908e-07,
          -3.07182177e-07, 6.29947976e-07, 3.67806336e-07,
          -3.83455188e-07, 5.98977692e-07, 4.13425738e-07,
          -4.46524297e-07, 5.39882421e-07, 3.50356629e-07,
          -3.37718319e-07, 5.96925759e-07, 4.36355123e-07,
          -3.27978029e-07, 6.02692182e-07, 4.46095413e-07,
          -1.59395199e-07, 8.14782084e-07, 6.73639647e-07,
          -5.42115615e-08, 8.48354830e-07, 7.07212450e-07,
          -3.65472317e-07, 4.81005998e-07, 3.51611391e-07,
          -3.14674196e-07, 5.24290670e-07, 3.85883936e-07,
          -3.76054118e-07, 5.40956876e-07, 2.95282092e-07,
          -4.86580973e-07, 3.88265505e-07, 1.23169258e-07,
          -4.73103199e-07, 2.90181475e-07, 8.22205592e-08,
          -4.99094710e-07, 2.69698518e-07, 6.17376017e-08,
          -3.23549841e-07, 3.90124143e-07, 2.11340605e-07,
          -2.20480615e-07, 4.93193397e-07, 3.14409817e-07,
          -1.70914035e-07, 5.03422200e-07, 2.37463354e-07,
          -6.27956993e-08, 6.13034274e-07, 3.47075456e-07,
          -1.22522678e-07, 6.01637282e-07, 3.48190383e-07,
          -1.56384075e-07, 6.14021417e-07, 3.60574518e-07,
          -1.64238031e-07, 6.30548641e-07, 2.90477971e-07,
          -1.90307631e-07, 6.04478998e-07, 2.64408385e-07,
          -1.15733044e-07, 6.59120360e-07, 3.65458845e-07,
          -8.31169018e-08, 6.91736489e-07, 3.98075002e-07,
          1.23247418e-07, 7.02034583e-07, 5.16876639e-07, 2.30969334e-07,
          8.09756500e-07, 6.24598556e-07, -3.45209287e-07,
          3.10605600e-07, 8.51115871e-08, -3.88457607e-07,
          2.83919434e-07, 4.17873842e-08, -4.22308887e-07,
          2.50068126e-07, -3.65661812e-08, -4.35165617e-07,
          1.65354251e-07, -9.18787002e-09, -3.09864845e-07,
          2.90655009e-07, 1.15790179e-07, -2.92481218e-07,
          3.15842556e-07, 1.94776693e-08, -2.12770459e-07,
          3.95384262e-07, 9.90193740e-08, -6.14014510e-08,
          4.73489109e-07, 2.17099455e-07, 2.53482959e-08, 5.60177398e-07,
          3.03787715e-07, 9.94793510e-08, 6.55146039e-07, 3.89757417e-07,
          1.20302303e-07, 6.75969034e-07, 4.10580384e-07, 1.23014786e-07,
          6.78940864e-07, 3.90769088e-07, 3.14004360e-08, 5.91300363e-07,
          2.99154721e-07, 1.38063299e-07, 6.48322782e-07, 3.52192586e-07,
          1.04261915e-07, 6.14521355e-07, 3.18345087e-07, 1.71666841e-08,
          5.09395136e-07, 3.67190864e-07, 4.86156324e-08, 5.28654482e-07,
          3.90454801e-07, 9.17272729e-08, 5.34570859e-07, 4.11245452e-07,
          -7.15513977e-08, 3.73532885e-07, 2.96596454e-07,
          -1.99735112e-07, 2.71817555e-07, 1.77728424e-07,
          -1.65038614e-07, 3.06514039e-07, 1.95029031e-07,
          -2.88926252e-08, 4.36728612e-07, 3.47373202e-07,
          -3.50018752e-08, 4.30619366e-07, 3.34940012e-07,
          -6.34846700e-08, 4.12384139e-07, 2.54866251e-07,
          -2.24634320e-08, 4.58913888e-07, 2.87575773e-07,
          -1.75800707e-08, 4.79849518e-07, 3.36766192e-07,
          -7.15426935e-08, 4.25886924e-07, 2.78937819e-07,
          -4.33571294e-08, 3.60570425e-07, 2.86801367e-07,
          -1.37063637e-07, 2.66863907e-07, 2.57169916e-07,
          -1.87115376e-07, 2.01625710e-07, 2.14263679e-07,
          -2.84142985e-08, 3.60326794e-07, 2.95649699e-07,
          -3.55607561e-08, 4.76699398e-07, 2.16236273e-07,
          -1.71315495e-08, 4.95128575e-07, 2.34650116e-07,
          5.26511243e-08, 5.93355708e-07, 3.02787669e-07, 1.17120273e-07,
          6.57824842e-07, 3.67287555e-07, 9.01498254e-09, 6.35362937e-07,
          4.26997786e-07, -8.76780604e-09, 6.17580156e-07,
          4.09107429e-07, -1.32534410e-07, 5.09823849e-07,
          3.54979562e-07, -2.01917473e-07, 4.40440772e-07,
          2.85350609e-07, -3.39985377e-07, 3.31101347e-07,
          1.83308629e-07, -2.24678487e-07, 4.21219369e-07,
          3.06285557e-07, -6.25887679e-08, 5.27983218e-07,
          5.49824392e-07, 3.54193763e-09, 6.02092371e-07, 6.15985812e-07,
          2.08541948e-07, 7.71936016e-07, 8.15461647e-07, 7.44360946e-08,
          6.37830169e-07, 6.81355800e-07, 2.69594995e-08, 5.37274502e-07,
          6.40559620e-07, 3.99818347e-08, 5.50296818e-07, 6.53581935e-07,
          1.21889656e-07, 5.45874684e-07, 8.00163434e-07, 7.90549848e-08,
          5.21064180e-07, 8.04191586e-07, 7.47766933e-08, 4.76036263e-07,
          8.81516939e-07, 1.16850494e-07, 5.18110028e-07, 9.23590733e-07,
          2.36047427e-07, 6.58356896e-07, 1.06129710e-06, 3.20647075e-07,
          7.42956558e-07, 1.14589682e-06, 2.25775921e-07, 6.80522533e-07,
          1.06883954e-06, 1.40663644e-07, 5.95410256e-07, 9.83727205e-07,
          6.95949112e-08, 5.18461604e-07, 8.84019755e-07, 1.33422176e-07,
          5.82288862e-07, 9.47847070e-07, 1.67127325e-07, 6.38366942e-07,
          9.75614284e-07, 3.27744488e-07, 8.06295077e-07, 1.14173997e-06,
          3.66649232e-07, 9.30482145e-07, 1.25088343e-06, 4.60171123e-07,
          9.86153282e-07, 1.29213515e-06, 3.17453470e-07, 8.95749622e-07,
          1.06503592e-06, 8.85986182e-08, 7.02943112e-07, 8.36181016e-07,
          3.11307247e-08, 6.06150536e-07, 6.07962306e-07,
          -2.95670635e-08, 5.67035613e-07, 5.47218406e-07,
          9.64691793e-08, 6.71304122e-07, 5.07403286e-07, 1.11345869e-07,
          6.96995301e-07, 5.22280004e-07, 1.72117453e-07, 8.00449300e-07,
          6.60885178e-07, 3.27931247e-07, 9.63472758e-07, 8.16698957e-07,
          4.39063939e-07, 1.10711835e-06, 8.94983430e-07, 3.94648168e-07,
          1.10956546e-06, 8.50567687e-07, 8.13409926e-08, 8.40588200e-07,
          5.24706536e-07, 6.43059792e-08, 8.25355585e-07, 5.07671473e-07,
          7.66035768e-08, 8.75342778e-07, 4.62318127e-07, 8.35388292e-08,
          8.78673177e-07, 4.69253365e-07, 1.38685380e-07, 8.05675313e-07,
          4.64215162e-07, 1.46208308e-07, 8.13198255e-07, 4.71738076e-07,
          -1.01218191e-07, 6.21479728e-07, 2.56380218e-07,
          -2.40416369e-07, 4.82281564e-07, 1.14725999e-07,
          -3.23975257e-07, 4.61958678e-07, 1.48255737e-07,
          -2.86283779e-07, 4.99650127e-07, 1.85947201e-07,
          -3.20732198e-07, 5.50895550e-07, 2.40392694e-07,
          -2.88008266e-07, 5.83619453e-07, 2.73116598e-07,
          -2.73704018e-07, 6.35831896e-07, 3.21957430e-07,
          -2.72298337e-07, 6.29289900e-07, 3.23363111e-07,
          -6.69251278e-07, 2.27895015e-07, -1.85979179e-08,
          -8.87204692e-07, -3.73263411e-08, -2.53178200e-07,
          -3.11750625e-07, 4.30214442e-07, 1.72053390e-07,
          -2.27123735e-07, 4.85293754e-07, 2.63180993e-07,
          -3.18855712e-07, 4.31072976e-07, 2.48230037e-07,
          -4.19359253e-07, 3.45292563e-07, 1.19191654e-07,
          -4.87526393e-07, 2.65049039e-07, 2.34074697e-08,
          -4.43758779e-07, 3.03308155e-07, 6.16665758e-08,
          -2.69394974e-07, 4.13377876e-07, 1.31460112e-07,
          -2.24722243e-07, 5.01308591e-07, 2.19390841e-07,
          -1.01848563e-07, 5.47423269e-07, 2.33159170e-07,
          -1.25186432e-07, 5.24832274e-07, 2.10568189e-07,
          -7.64383898e-08, 5.82842858e-07, 1.84778060e-07,
          -3.20620686e-08, 6.28712939e-07, 2.30648155e-07,
          -7.53702878e-08, 5.77637820e-07, 1.84440793e-07,
          -4.98564781e-08, 6.03151648e-07, 2.09954592e-07,
          -9.10720122e-09, 6.70333066e-07, 2.37327754e-07,
          5.23676640e-08, 7.33740819e-07, 2.99413330e-07,
          -1.08070594e-07, 5.60738556e-07, 1.43491519e-07,
          2.33095520e-07, 9.01904684e-07, 4.84657619e-07,
          -4.07735428e-07, 2.48079431e-07, -6.24465590e-10,
          -4.56192538e-07, 2.16184475e-07, -7.04037291e-08,
          -5.18303295e-07, 1.54073732e-07, -1.32560587e-07,
          -4.85056773e-07, 1.15463074e-07, -5.90329421e-08,
          -4.23898001e-07, 1.76621867e-07, 1.75703385e-09,
          -3.42772381e-07, 2.65551392e-07, -3.08134886e-08,
          -2.34957625e-07, 3.73150982e-07, 7.67861081e-08,
          -1.07305695e-07, 4.27554141e-07, 1.71164473e-07,
          4.64703263e-08, 5.81299446e-07, 3.24909763e-07, 9.76456604e-08,
          6.53312384e-07, 3.87923734e-07, 7.88784931e-08, 6.34545188e-07,
          3.69156567e-07, 1.47433283e-07, 7.03359376e-07, 4.15187571e-07,
          4.18064250e-09, 5.64080551e-07, 2.72288389e-07, 6.29155039e-08,
          5.73174987e-07, 2.77029415e-07, 5.61017117e-08, 5.62387356e-07,
          2.70154146e-07, -3.34005676e-08, 4.62801722e-07,
          3.16623613e-07, 2.49471821e-08, 5.09706751e-07, 3.67533232e-07,
          4.10435419e-08, 4.83140241e-07, 3.59814834e-07,
          -9.28713320e-08, 3.52212936e-07, 2.28887487e-07,
          -1.87460742e-07, 2.67566321e-07, 1.81498820e-07,
          -1.53162020e-07, 3.01865043e-07, 2.02267401e-07,
          -1.68467395e-07, 2.97153861e-07, 2.25194327e-07,
          -1.24961915e-07, 3.40659341e-07, 2.74280922e-07,
          -1.88626629e-07, 2.87242159e-07, 2.05106460e-07,
          -1.66298889e-07, 3.09569913e-07, 2.32942725e-07,
          -1.77150312e-07, 3.18785538e-07, 2.89741905e-07,
          -1.86985062e-07, 3.10444534e-07, 2.85266651e-07,
          -9.46733536e-08, 3.14762730e-07, 3.10577235e-07,
          -1.62325023e-07, 2.41602521e-07, 1.98759508e-07,
          -2.05904200e-07, 1.82836871e-07, 1.54884432e-07,
          -1.03188967e-07, 2.85552119e-07, 3.02055838e-07,
          -9.09713123e-08, 4.21288831e-07, 1.60825721e-07,
          -1.15167261e-07, 3.97092890e-07, 1.36629765e-07,
          -2.38398918e-08, 5.16864702e-07, 2.26327387e-07,
          4.10949568e-08, 5.81799554e-07, 2.91262239e-07,
          -5.63897267e-08, 5.69958218e-07, 3.61562343e-07,
          -6.19410017e-08, 5.64406946e-07, 3.55934219e-07,
          -8.52080007e-08, 5.57150258e-07, 4.02413548e-07,
          -1.28574897e-07, 5.13783334e-07, 3.58693200e-07,
          -1.54352549e-07, 4.91529931e-07, 3.76596148e-07,
          -7.72359172e-08, 5.68646556e-07, 4.53712772e-07,
          3.26027880e-08, 6.15257818e-07, 6.45046669e-07, 4.01391986e-08,
          6.30711213e-07, 6.52552387e-07, 1.35074075e-07, 6.98468114e-07,
          7.41993802e-07, -5.07382936e-09, 5.58320210e-07,
          6.01845898e-07, -2.93498115e-08, 4.80965184e-07,
          5.84250301e-07, 1.79134041e-09, 5.12106340e-07, 6.15391457e-07,
          2.59389115e-08, 4.50292958e-07, 7.00607870e-07, 6.27833074e-08,
          5.04792524e-07, 7.87919930e-07, 7.81925351e-08, 4.79452069e-07,
          8.84932774e-07, 1.86209917e-07, 5.87469458e-07, 9.92950163e-07,
          3.31329346e-07, 7.53638858e-07, 1.15657906e-06, 4.29364974e-07,
          8.51674486e-07, 1.25461463e-06, 3.64730056e-07, 8.19476668e-07,
          1.20779362e-06, 2.45384797e-07, 7.00131409e-07, 1.08844836e-06,
          2.12902734e-07, 6.61769434e-07, 1.02732758e-06, 1.50142270e-07,
          5.99008956e-07, 9.64567107e-07, 1.31709839e-07, 6.02949456e-07,
          9.40196799e-07, 1.37942649e-07, 6.10984728e-07, 9.46429566e-07,
          1.33290698e-07, 6.91615128e-07, 1.01021385e-06, 1.67735351e-07,
          7.31568264e-07, 1.04836465e-06, 1.00971009e-09, 6.08144546e-07,
          8.00862210e-07, -9.80029995e-08, 4.99491478e-07,
          6.45713669e-07, -4.59670133e-08, 5.21973561e-07,
          5.44394709e-07, -8.08300200e-08, 5.06875665e-07,
          5.09470226e-07, 1.82429520e-08, 5.93469281e-07, 4.29177078e-07,
          8.87436400e-08, 6.74393050e-07, 4.99677753e-07, 1.78036402e-07,
          8.06368234e-07, 6.66804112e-07, 4.28412505e-07, 1.06395407e-06,
          9.17180216e-07, 5.42882617e-07, 1.21273945e-06, 9.98802079e-07,
          5.27413363e-07, 1.24233065e-06, 9.83332939e-07, 1.70022290e-07,
          9.31071895e-07, 6.13387840e-07, 1.13639175e-07, 8.74688794e-07,
          5.57004682e-07, 8.94986698e-08, 8.86435430e-07, 4.75213227e-07,
          9.81556081e-09, 7.83455505e-07, 3.72233274e-07, 6.36097326e-08,
          7.30599709e-07, 3.89139501e-07, 1.07139279e-07, 7.72326814e-07,
          4.32669054e-07, -1.49152314e-07, 5.81981965e-07,
          2.18110486e-07, -2.77768919e-07, 4.47566748e-07,
          8.36952552e-08, -3.70087577e-07, 4.08080751e-07,
          9.48508685e-08, -3.43353122e-07, 4.42580813e-07,
          1.28877872e-07, -3.51578450e-07, 5.24023164e-07,
          2.09546442e-07, -2.87096611e-07, 5.88504975e-07,
          2.74028253e-07, -2.03483140e-07, 7.06052731e-07,
          3.92178293e-07, -1.21221049e-07, 7.80367145e-07,
          4.74440384e-07, 1.04551020e-07, 9.87277986e-07, 7.60611670e-07,
          9.44737337e-08, 9.44352109e-07, 7.28500254e-07,
          -4.34936602e-08, 6.89155513e-07, 4.68845201e-07,
          -3.28490501e-07, 3.89435513e-07, 1.67322781e-07,
          -5.06699678e-07, 2.87297183e-07, 1.04454266e-07,
          -4.65347682e-07, 3.23140654e-07, 1.40297743e-07,
          -4.56868946e-07, 2.97508905e-07, 5.58673214e-08,
          -4.50021730e-07, 2.98847596e-07, 5.16974907e-08,
          -2.95739113e-07, 3.88836156e-07, 1.06918392e-07,
          -2.46149057e-07, 4.36623793e-07, 1.54706044e-07,
          -1.13593650e-07, 5.37918822e-07, 2.23654737e-07,
          -1.51629550e-07, 4.99882901e-07, 1.85618845e-07,
          -1.47437532e-07, 5.12590589e-07, 1.14525797e-07,
          -1.76138684e-07, 4.84636303e-07, 8.65715322e-08,
          -8.87367051e-08, 5.64271431e-07, 1.71074376e-07,
          -1.05194346e-07, 5.47813784e-07, 1.54616728e-07,
          -9.43169187e-09, 6.71941450e-07, 2.35171086e-07,
          1.09104931e-07, 7.50955394e-07, 3.12252126e-07, 7.27694882e-08,
          7.43511521e-07, 3.24331609e-07, 4.00931611e-07, 1.02828517e-06,
          6.11038161e-07, -3.42251894e-07, 2.35461101e-07,
          -1.58134029e-07, -4.01008208e-07, 1.84933668e-07,
          -3.02358018e-07, -4.52708292e-07, 1.42188412e-07,
          -3.49672888e-07, -3.68235845e-07, 1.88879028e-07,
          -1.67741462e-07, -3.49625907e-07, 2.07488966e-07,
          -1.49131537e-07, -3.25750278e-07, 2.42833778e-07,
          -2.73912804e-07, -2.75844968e-07, 2.88015798e-07,
          -2.24253370e-07, 1.67531738e-10, 4.02039973e-07,
          2.91483104e-08, 1.13889627e-07, 5.06807226e-07, 1.42870405e-07,
          1.25066748e-07, 4.92199320e-07, 2.11362874e-07, 6.92329607e-08,
          4.36365525e-07, 1.55529079e-07, -1.06849267e-08,
          5.03558397e-07, 1.47464760e-07, -1.29346205e-08,
          5.00835654e-07, 1.40556580e-07, 8.93922660e-08, 5.60260446e-07,
          2.03961605e-07, 7.40285699e-08, 5.45369801e-07, 1.89009498e-07,
          4.39978862e-08, 4.48382423e-07, 2.23635610e-07, 5.12352720e-08,
          4.54399867e-07, 2.29683778e-07, 2.16817870e-08, 4.04199739e-07,
          1.96351678e-07, -6.88110404e-08, 3.12213132e-07,
          1.04365078e-07, -6.76546534e-08, 3.09053149e-07,
          9.64766329e-08, -4.38219026e-08, 3.32885918e-07,
          1.20309380e-07, -1.66636269e-07, 2.47913334e-07,
          3.93084036e-08, -1.72448736e-07, 2.42421947e-07,
          2.83084827e-08, -2.03797342e-07, 1.65661106e-07,
          9.15346732e-09, -2.29213725e-07, 1.36510295e-07,
          -1.99973442e-08, -2.46042788e-07, 1.48518751e-07,
          1.07781517e-08, -2.66102290e-07, 1.43957621e-07,
          6.21702290e-09, -1.40565874e-07, 1.75270884e-07,
          8.08617955e-08, -1.76081528e-07, 1.39755215e-07,
          4.53461340e-08, -1.80605142e-07, 1.13004234e-07,
          3.99592466e-08, -1.36001972e-07, 1.57607403e-07,
          8.45624157e-08, -1.10770515e-07, 2.34346174e-07,
          -9.50285184e-09, -1.09444336e-07, 2.35672346e-07,
          -8.17667622e-09, -7.70275008e-08, 2.88075142e-07,
          3.77742140e-08, -1.47798884e-08, 3.50322750e-07,
          1.00021829e-07, -9.65026672e-08, 4.03019243e-07,
          1.69290004e-07, 4.47858852e-08, 5.44307795e-07, 3.16300344e-07,
          5.40715348e-08, 5.90235459e-07, 3.98207476e-07, 7.15973769e-08,
          6.07761308e-07, 3.73210014e-07, 6.67421460e-08, 5.56974669e-07,
          4.51726834e-07, 6.49426610e-08, 5.55190525e-07, 4.49942689e-07,
          1.26622510e-07, 5.14966018e-07, 6.34401374e-07, 4.07320933e-08,
          4.29060236e-07, 5.48495564e-07, 1.60737116e-07, 4.41134773e-07,
          6.71103237e-07, 1.22820012e-07, 4.03217655e-07, 6.33186175e-07,
          1.63865508e-07, 4.04212727e-07, 6.94042740e-07, 2.78006326e-07,
          5.18353545e-07, 8.08183586e-07, 2.97963595e-07, 4.88244609e-07,
          8.72192913e-07, 2.83240297e-07, 4.91176479e-07, 9.02530076e-07,
          2.54434269e-07, 4.37178670e-07, 8.68203074e-07, 3.51153147e-07,
          5.33897548e-07, 9.64921924e-07, 4.29271438e-07, 6.62038588e-07,
          1.07908056e-06, 4.79020230e-07, 7.11787379e-07, 1.12882935e-06,
          3.35038607e-07, 5.97932853e-07, 1.09525092e-06, 2.99318344e-07,
          5.62212620e-07, 1.02667173e-06, 2.23906525e-07, 5.10346581e-07,
          1.04237108e-06, 1.84898056e-07, 4.71338126e-07, 1.03680179e-06,
          6.38210480e-08, 3.63350381e-07, 9.08802463e-07, 1.04081849e-07,
          4.05413573e-07, 9.54571760e-07, 1.47346483e-07, 5.05516198e-07,
          1.04000856e-06, 1.20721694e-07, 4.82626717e-07, 1.01338378e-06,
          8.59734186e-08, 4.57922937e-07, 8.45684724e-07, 4.87321117e-08,
          3.90301466e-07, 7.46204591e-07, 1.20469025e-07, 5.48777678e-07,
          4.98733641e-07, 8.89327580e-08, 5.55016868e-07, 5.17720252e-07,
          1.89471123e-07, 6.24755330e-07, 2.89083061e-07, 2.21751478e-07,
          6.75059880e-07, 3.21363416e-07, 9.06032795e-08, 7.75159378e-07,
          3.85291372e-07, 2.03415468e-07, 8.95181188e-07, 4.98103532e-07,
          2.98608256e-07, 9.95436608e-07, 5.82441828e-07, 3.62840524e-07,
          1.10472934e-06, 6.46674152e-07, 1.91885235e-07, 1.00819500e-06,
          4.90454738e-07, 2.47891762e-07, 1.06420157e-06, 5.46461251e-07,
          2.59100176e-07, 1.01683565e-06, 4.67056736e-07, 2.30478449e-07,
          1.01551529e-06, 4.48065265e-07, 2.65852378e-07, 8.80689868e-07,
          3.80108673e-07, 1.58543784e-07, 8.28565646e-07, 2.96096914e-07,
          2.17046946e-07, 8.35874914e-07, 2.40457354e-07, 2.10390311e-07,
          8.28745215e-07, 2.33327668e-07, 2.65212847e-08, 6.66309973e-07,
          1.66249208e-07, -8.09670624e-08, 5.59294676e-07,
          5.92339191e-08, -1.07381602e-07, 5.90453851e-07,
          1.91262430e-07, 7.95610333e-08, 7.77396508e-07, 3.78205073e-07,
          1.37353481e-07, 8.43782630e-07, 4.53486109e-07, 7.58697354e-08,
          7.86056546e-07, 3.99733864e-07, 2.51478696e-07, 1.09256609e-06,
          7.10500785e-07, 1.64500975e-07, 9.94773927e-07, 6.23523079e-07,
          1.24879847e-07, 8.20515027e-07, 4.86028853e-07,
          -6.42781515e-07, 3.26219833e-08, -3.03666610e-07,
          -5.35247807e-07, 3.41393218e-07, -1.49427024e-07,
          -5.21847255e-07, 3.54793769e-07, -1.36026472e-07,
          -3.41926409e-07, 4.05209107e-07, -4.90378866e-08,
          -3.35040937e-07, 4.06586025e-07, -5.31694972e-08,
          -2.15531060e-07, 4.05917632e-07, -2.49531418e-08,
          -1.70541341e-07, 4.54613456e-07, 2.37426931e-08,
          9.66477316e-08, 5.91126650e-07, 1.80447103e-07,
          -6.38443183e-08, 4.68384059e-07, 5.77045185e-08,
          -9.29068520e-08, 4.17130224e-07, 4.34134719e-08,
          -2.59297330e-08, 4.42651753e-07, 6.89350088e-08,
          -9.14214837e-08, 4.56709500e-07, 1.29907622e-08,
          -6.06775572e-08, 4.87453406e-07, 3.02986898e-08,
          1.46626121e-07, 6.52526410e-07, 1.62140410e-07, 2.85875956e-07,
          7.95381084e-07, 3.04995069e-07, 3.28927996e-07, 7.98097290e-07,
          3.25349475e-07, 4.46448752e-07, 9.15618045e-07, 4.40937356e-07,
          -4.41082818e-07, 1.59017247e-07, -2.52518277e-07,
          -4.53687193e-07, 1.41209512e-07, -3.50913041e-07,
          -4.73514376e-07, 1.07950100e-07, -3.74879534e-07,
          -4.27044739e-07, 1.03205657e-07, -2.31027755e-07,
          -4.32511087e-07, 1.15648959e-07, -2.36494117e-07,
          -3.62646574e-07, 2.01429359e-07, -3.10839795e-07,
          -3.08069446e-07, 2.69223563e-07, -2.52000433e-07,
          -1.39560669e-07, 2.66773810e-07, -1.06117838e-07,
          1.04267466e-08, 4.03328983e-07, 3.93921589e-08, 1.57914304e-08,
          3.82923986e-07, 1.02087554e-07, 8.30313152e-09, 3.75435690e-07,
          9.45992582e-08, -5.41684777e-08, 4.60074858e-07,
          9.95037936e-08, 2.20876123e-10, 5.13518103e-07, 1.53239014e-07,
          4.81023683e-08, 5.10015752e-07, 1.53716883e-07, 6.10239397e-08,
          5.32365164e-07, 1.76004860e-07, -1.66607741e-08,
          3.87723759e-07, 1.62976946e-07, -4.14616608e-08,
          3.62449811e-07, 1.37733736e-07, -5.70645007e-08,
          3.25453442e-07, 1.21106169e-07, -1.10000705e-07,
          2.66289788e-07, 6.19425293e-08, -9.57924655e-08,
          2.84889182e-07, 6.78657628e-08, -6.35062989e-08,
          3.13201525e-07, 1.00151929e-07, -1.63690203e-07,
          2.49913313e-07, 5.10178815e-08, -2.15802672e-07,
          1.97800816e-07, -1.08041149e-08, -3.31764653e-07,
          3.64472825e-08, -1.20060349e-07, -3.44240192e-07,
          1.47618389e-08, -1.36237261e-07, -3.61133715e-07,
          2.81996222e-08, -1.09540970e-07, -3.47912078e-07,
          6.21478264e-08, -7.55927658e-08, -2.44473483e-07,
          6.58547421e-08, -2.30458195e-08, -2.39996695e-07,
          7.03315379e-08, -1.85690201e-08, -2.66026092e-07,
          2.75832885e-08, -4.54617002e-08, -1.74719489e-07,
          1.18889886e-07, 4.58448994e-08, -2.07187512e-07,
          1.37929177e-07, -1.05919852e-07, -2.75472786e-07,
          6.96439102e-08, -1.74205113e-07, -3.17464412e-07,
          4.76382205e-08, -2.02662704e-07, -3.13118449e-07,
          5.19841841e-08, -1.98316741e-07, -3.55334066e-07,
          1.44187837e-07, -8.95567638e-08, -1.30741853e-07,
          3.68780064e-07, 1.50437003e-07, 1.30156623e-08, 5.49179617e-07,
          3.14628295e-07, 1.64977010e-07, 7.01140948e-07, 4.74321155e-07,
          2.18617544e-07, 7.08865400e-07, 5.86221688e-07, 2.05998518e-07,
          6.96200289e-07, 5.92885328e-07, 1.67889624e-07, 5.56202394e-07,
          6.81436347e-07, 8.29574489e-08, 4.71270226e-07, 6.29363115e-07,
          1.29545626e-07, 4.09943283e-07, 6.39911775e-07, 1.34014456e-07,
          4.14412085e-07, 6.44380577e-07, 2.35833355e-07, 4.76180588e-07,
          7.66010601e-07, 2.79448500e-07, 5.19795719e-07, 8.09625760e-07,
          2.24337469e-07, 4.14618484e-07, 7.98566816e-07, 2.55049173e-07,
          4.66959193e-07, 8.74338980e-07, 2.21292439e-07, 4.11984502e-07,
          8.35061257e-07, 2.50152056e-07, 4.40844104e-07, 8.63920832e-07,
          2.81225823e-07, 5.17966839e-07, 9.31034947e-07, 3.27282635e-07,
          5.60049784e-07, 9.77091759e-07, 1.30550063e-07, 3.93444310e-07,
          8.67567792e-07, 5.53576811e-08, 3.18251921e-07, 7.92375431e-07,
          -4.91752239e-08, 2.44575773e-07, 8.19254069e-07,
          -6.30984331e-08, 2.25144049e-07, 7.72279691e-07,
          -1.37427932e-07, 1.63903806e-07, 7.07553454e-07,
          -4.54835423e-08, 2.57650612e-07, 7.99497855e-07,
          2.34531061e-08, 3.75693730e-07, 9.16115198e-07, 3.22159508e-08,
          3.84456570e-07, 9.24878009e-07, 2.40308111e-08, 3.84963272e-07,
          7.73780584e-07, 2.15317915e-08, 3.39206252e-07, 7.23671860e-07,
          6.25347738e-08, 4.63575446e-07, 4.33389573e-07, 5.17116945e-08,
          5.08728533e-07, 4.75036757e-07, 3.37940804e-07, 7.67817767e-07,
          4.37552728e-07, 3.43059980e-07, 7.92763558e-07, 4.42671904e-07,
          1.68417699e-07, 8.49368917e-07, 4.63105778e-07, 1.26008359e-07,
          8.14169255e-07, 4.20696438e-07, 1.73125542e-07, 8.68151517e-07,
          4.56959128e-07, 1.36760150e-07, 8.78648962e-07, 4.20593750e-07,
          1.83102699e-07, 9.99412464e-07, 4.81672203e-07, 4.09283075e-07,
          1.22559288e-06, 7.07852564e-07, 4.44781421e-07, 1.25311510e-06,
          6.70133829e-07, 4.80843823e-07, 1.27364626e-06, 6.98430597e-07,
          5.78106267e-07, 1.23259690e-06, 6.84596955e-07, 3.98314029e-07,
          1.05280469e-06, 5.12570352e-07, 4.33444683e-07, 1.05227264e-06,
          4.56855076e-07, 3.59328510e-07, 9.77210334e-07, 3.86239719e-07,
          3.13180493e-07, 9.56469989e-07, 4.48934571e-07, 1.53372255e-07,
          7.97134817e-07, 2.89126348e-07, 1.79361628e-08, 7.15771648e-07,
          3.12606346e-07, 2.88923417e-07, 9.86758891e-07, 5.83593646e-07,
          5.66323138e-07, 1.27275234e-06, 8.78481956e-07, 9.50922754e-07,
          1.62644994e-06, 1.26642544e-06, 3.93790373e-07, 1.23561574e-06,
          8.44864758e-07, 1.51451275e-07, 9.81724156e-07, 6.10473364e-07,
          2.84188872e-07, 9.79824108e-07, 6.45337877e-07, 5.22730392e-09,
          6.78828371e-07, 3.44342226e-07, -4.31071470e-07,
          4.45569555e-07, -4.52506903e-08, -3.94317709e-07,
          4.85928126e-07, 3.83658936e-08, -2.16730101e-07,
          5.32207821e-07, 7.61584076e-08, -2.01826396e-07,
          5.43405406e-07, 7.45365298e-08, -3.64184460e-09,
          6.23214078e-07, 2.35601320e-07, 6.52108341e-08, 6.93970435e-07,
          2.63099707e-07, 1.67363709e-07, 6.65447487e-07, 2.54767912e-07,
          -3.48819178e-08, 4.61399424e-07, 5.07198692e-08,
          -5.48665149e-08, 4.11811271e-07, 3.80945337e-08,
          -5.85695474e-08, 4.17221599e-07, 4.35048619e-08,
          3.19293960e-08, 5.27587758e-07, 7.04330034e-08,
          -4.44561152e-08, 5.03674869e-07, 4.65201282e-08,
          1.79130055e-07, 6.88635168e-07, 1.98249182e-07, 1.68076795e-07,
          6.73977070e-07, 1.83591084e-07, 2.48367115e-07, 7.17536409e-07,
          2.42855691e-07, 3.83746595e-07, 8.52915889e-07, 3.78235200e-07,
          -6.08889593e-07, 2.59773429e-07, -4.52366550e-07,
          -6.41461270e-07, 1.89001526e-07, -5.88767534e-07,
          -6.90941704e-07, 1.12656558e-07, -6.42725411e-07,
          -5.73844773e-07, 1.48648624e-07, -5.20723972e-07,
          -5.44059276e-07, 1.78434163e-07, -4.90938419e-07,
          -4.86226952e-07, 1.69834053e-07, -3.89214222e-07,
          -4.43312814e-07, 2.21457100e-07, -3.46545988e-07,
          -2.17352166e-07, 3.01208786e-07, -1.71265896e-07,
          -1.06069265e-07, 4.12522411e-07, -7.19024342e-08,
          4.50154669e-09, 5.26935537e-07, 6.99676121e-08,
          -4.70532520e-08, 4.75380773e-07, 1.84128144e-08,
          -9.63266160e-08, 4.53945376e-07, -6.19690610e-08,
          4.31695302e-09, 5.48692356e-07, 3.30698988e-08,
          -3.30695720e-08, 5.84749671e-07, 5.58897710e-08,
          -5.66275737e-08, 5.61664763e-07, 3.27433582e-08,
          -1.42050922e-07, 3.64974397e-07, 3.39841968e-08,
          -1.52817620e-07, 3.51254585e-07, 2.02951114e-08,
          -1.39125220e-07, 3.10800147e-07, 1.86367224e-08,
          -1.92341304e-07, 2.49368298e-07, -4.32681659e-08,
          -1.79842758e-07, 2.58419504e-07, -4.90527761e-08,
          -1.16800969e-07, 3.21461300e-07, 1.04882325e-08,
          -1.57572643e-07, 2.74526201e-07, 2.78216561e-08,
          -2.25802722e-07, 2.05049616e-07, -5.58457529e-08,
          -3.38536637e-07, 4.73482444e-08, -1.34360491e-07,
          -3.43450239e-07, 3.92048918e-08, -1.42503850e-07,
          -3.94323393e-07, 8.55830606e-09, -1.50957248e-07,
          -3.92533877e-07, 1.35877078e-08, -1.45927842e-07,
          -2.75062547e-07, 5.24943715e-08, -5.73462131e-08,
          -2.90039338e-07, 4.30260805e-08, -7.23230258e-08,
          -3.12669414e-07, -1.42483643e-08, -6.32882262e-08,
          -2.19532609e-07, 7.88884336e-08, 2.98485681e-08,
          -3.07051437e-07, -1.69484835e-08, -7.96881139e-08,
          -3.50622827e-07, -5.50113377e-08, -1.23259497e-07,
          -3.82222197e-07, -8.78944775e-08, -1.79006960e-07,
          -3.84610217e-07, -9.02824837e-08, -1.81394952e-07,
          -4.83089252e-07, -9.88564182e-08, -1.27143565e-07,
          -2.51739067e-07, 1.32493767e-07, 1.04114406e-07,
          -6.59578703e-08, 3.35370459e-07, 3.27658398e-07,
          1.67449457e-07, 5.68777807e-07, 5.03079434e-07, 2.37482425e-07,
          6.69031920e-07, 5.74216813e-07, 2.69342650e-07, 7.00861392e-07,
          6.09912036e-07, 3.34316752e-07, 6.85152941e-07, 7.55415215e-07,
          1.93674111e-07, 5.44525676e-07, 6.63109859e-07, 2.53623256e-07,
          4.34073883e-07, 7.47204751e-07, 1.88866053e-07, 3.69316666e-07,
          6.82447535e-07, 1.78415249e-07, 3.75062740e-07, 7.42859527e-07,
          2.45421290e-07, 4.46042606e-07, 8.09865583e-07, 2.85613197e-07,
          4.31111374e-07, 8.51749974e-07, 2.83865916e-07, 4.50993070e-07,
          8.95063067e-07, 2.54144624e-07, 3.80208888e-07, 8.68742177e-07,
          2.46513935e-07, 3.72578199e-07, 8.61111516e-07, 2.68108323e-07,
          4.41055761e-07, 9.22242293e-07, 3.26112939e-07, 4.98587326e-07,
          9.79773858e-07, 1.35676302e-07, 3.54210130e-07, 8.92591459e-07,
          6.38768185e-08, 2.80239249e-07, 8.20792025e-07,
          -7.99258171e-09, 2.31654553e-07, 8.79950960e-07,
          -4.26597886e-08, 1.98789763e-07, 8.45283751e-07,
          -1.27669864e-07, 1.52360585e-07, 7.66195740e-07,
          -5.64042146e-08, 2.25428650e-07, 8.31952889e-07,
          1.09054072e-08, 3.29729545e-07, 9.28023894e-07, 3.36105757e-08,
          3.48728605e-07, 9.71175268e-07, -2.75083991e-08,
          3.53392380e-07, 8.18945580e-07, -4.57813343e-08,
          3.35119438e-07, 7.99178849e-07, -9.85140858e-09,
          4.47585649e-07, 6.15965575e-07, 4.92790022e-08, 5.12224574e-07,
          7.08387631e-07, 2.77954967e-07, 7.38608435e-07, 7.39836537e-07,
          2.49354372e-07, 7.26229587e-07, 7.11235941e-07, 1.35258375e-07,
          7.09891424e-07, 6.30056604e-07, 9.53904618e-08, 6.79035622e-07,
          5.90188733e-07, -4.17547561e-08, 6.45481578e-07,
          5.08272365e-07, 2.17781384e-08, 7.09014444e-07, 5.71805288e-07,
          2.49376512e-07, 9.94896027e-07, 6.54323060e-07, 6.11518658e-07,
          1.35703817e-06, 1.01646526e-06, 8.72692794e-07, 1.46950595e-06,
          1.22286224e-06, 8.81300252e-07, 1.42764566e-06, 1.23146970e-06,
          5.85254043e-07, 1.24757742e-06, 8.21791332e-07, 3.42035833e-07,
          1.00435921e-06, 5.78573122e-07, 4.08937211e-07, 1.05969718e-06,
          5.25508028e-07, 4.82755752e-07, 1.13256954e-06, 5.98853489e-07,
          6.17368016e-07, 1.09306723e-06, 6.98663712e-07, 5.09679467e-07,
          9.85851671e-07, 5.90975105e-07, 2.43266726e-07, 9.31450700e-07,
          5.65688140e-07, 5.41372742e-07, 1.23400366e-06, 8.64267236e-07,
          9.90316153e-07, 1.69297061e-06, 1.32691548e-06, 1.03435309e-06,
          1.71898330e-06, 1.37816210e-06, 7.60849730e-07, 1.46399645e-06,
          1.23542588e-06, 4.07561430e-07, 1.09688017e-06, 8.81664562e-07,
          3.34072382e-07, 1.06032076e-06, 7.43238218e-07, 5.76687391e-08,
          7.45357454e-07, 4.28274888e-07, -1.12300164e-07,
          6.65160712e-07, 2.84144846e-07, -3.30463877e-07,
          4.36568911e-07, 5.37506288e-08, -5.88644973e-08,
          5.82238897e-07, 2.14446473e-07, 3.04908774e-08, 6.56711450e-07,
          2.92784790e-07, 7.69438699e-08, 6.73262036e-07, 3.61883281e-07,
          1.69915879e-07, 7.64431604e-07, 4.54855297e-07, 1.78702010e-07,
          8.11986752e-07, 4.34844935e-07, 1.92554062e-08, 6.56145005e-07,
          3.22261172e-07, 6.90784319e-08, 4.92824597e-07, 3.21524794e-07,
          8.52268922e-09, 4.41382184e-07, 2.66477571e-07,
          -2.56851713e-08, 5.68592725e-07, 2.10718397e-07,
          -7.00795795e-08, 5.76670971e-07, 2.29813679e-07,
          3.18844728e-09, 6.34555590e-07, 3.20608905e-07, 4.93665340e-08,
          6.80733649e-07, 3.64344061e-07, 1.28487244e-07, 5.55373219e-07,
          3.78703277e-07, 2.48376324e-07, 6.75262299e-07, 4.98592385e-07,
          -6.05806065e-07, 2.62856958e-07, -4.49313774e-07,
          -6.16121099e-07, 2.14341654e-07, -5.63427363e-07,
          -6.92485685e-07, 1.24544826e-07, -6.44269392e-07,
          -5.67746838e-07, 1.63701444e-07, -5.14625981e-07,
          -5.22410971e-07, 2.00082454e-07, -4.69290114e-07,
          -4.96107816e-07, 1.59953174e-07, -3.99095086e-07,
          -4.72968196e-07, 1.91832484e-07, -3.76170618e-07,
          -2.97410935e-07, 2.16687965e-07, -2.63259466e-07,
          -8.69224763e-08, 4.31684583e-07, -5.27402690e-08,
          -6.89992561e-08, 4.53434751e-07, -3.53319018e-09,
          -8.99593218e-08, 4.32474707e-07, -2.44932536e-08,
          -9.74095613e-08, 4.61817251e-07, -5.40971783e-08,
          -3.82638667e-08, 5.07530672e-07, -8.07637690e-09,
          -4.43760264e-08, 5.73916282e-07, 4.80439191e-08,
          -1.21814523e-07, 4.96477810e-07, -3.24435945e-08,
          -1.93851221e-07, 3.12427204e-07, -1.85629929e-08,
          -2.33274747e-07, 2.75244332e-07, -5.57151267e-08,
          -2.20214815e-07, 2.37658227e-07, -5.84790314e-08,
          -2.34473291e-07, 2.06489432e-07, -8.61470397e-08,
          -2.15041680e-07, 2.23220582e-07, -8.02778644e-08,
          -1.52491879e-07, 2.85770369e-07, -1.77280572e-08,
          -1.74700403e-07, 2.64638714e-07, 2.41486777e-08,
          -2.36491132e-07, 1.98100722e-07, -5.88208202e-08,
          -3.76557125e-07, 1.18207630e-08, -1.69887983e-07,
          -3.74587927e-07, 9.31369648e-09, -1.72395048e-07,
          -4.20539351e-07, -1.69107803e-08, -1.76426326e-07,
          -4.22607684e-07, -1.64861067e-08, -1.76001649e-07,
          -3.13399454e-07, 1.41574441e-08, -9.56831414e-08,
          -3.20432804e-07, 7.12410753e-09, -1.02716477e-07,
          -3.33305081e-07, -3.48840281e-08, -8.39238936e-08,
          -2.25965564e-07, 7.24554852e-08, 2.34156197e-08,
          -2.59231228e-07, 3.08717283e-08, -3.18678985e-08,
          -2.53531340e-07, 3.65716062e-08, -2.61680206e-08,
          -2.64787445e-07, 2.40317508e-08, -6.15721945e-08,
          -2.83063599e-07, 1.12641168e-08, -7.98483555e-08,
          -4.20488334e-07, -1.97299421e-08, -5.34948796e-08,
          -2.69384742e-07, 1.14848078e-07, 8.64994618e-08,
          -1.54683107e-07, 2.46645243e-07, 2.54396184e-07,
          4.16906474e-08, 4.43018990e-07, 4.70098712e-07, 5.86921516e-08,
          4.90210937e-07, 5.46160209e-07, 1.92117184e-07, 6.23635970e-07,
          6.17733178e-07, 2.79433380e-07, 6.30284944e-07, 7.48869127e-07,
          2.29907457e-07, 5.80774383e-07, 7.34150319e-07, 2.89606419e-07,
          4.70057046e-07, 7.83187943e-07, 2.59664148e-07, 4.40114775e-07,
          7.53245615e-07, 1.48763291e-07, 3.45410768e-07, 7.13207555e-07,
          1.95133225e-07, 3.91307651e-07, 7.59104466e-07, 3.46617043e-07,
          4.87195223e-07, 9.18552473e-07, 3.34596905e-07, 5.00777958e-07,
          9.80314439e-07, 2.98821135e-07, 4.24412349e-07, 9.22610013e-07,
          3.40418978e-07, 4.66483272e-07, 9.74345312e-07, 3.34946691e-07,
          5.03447268e-07, 1.01953367e-06, 3.73143138e-07, 5.41643715e-07,
          1.07126016e-06, 1.63404948e-07, 3.83268144e-07, 9.19847082e-07,
          1.22500950e-07, 3.42837211e-07, 8.79416120e-07, 4.65786769e-08,
          2.92002056e-07, 9.34522234e-07, 4.25766045e-09, 2.47509632e-07,
          8.92201228e-07, -1.23734367e-07, 1.52589962e-07,
          7.70131237e-07, -4.64356162e-08, 2.29888727e-07,
          8.47429988e-07, 1.95467607e-08, 3.40173330e-07, 9.42173756e-07,
          5.86192215e-08, 3.75539685e-07, 9.93943331e-07,
          -2.22105569e-08, 3.66001160e-07, 8.21255867e-07,
          -4.43801440e-08, 3.43831573e-07, 7.98339386e-07,
          3.06208481e-09, 4.54990612e-07, 6.21129857e-07, 7.16008515e-08,
          5.12917438e-07, 6.79803577e-07, 1.73287660e-07, 6.28533883e-07,
          6.52347637e-07, 1.36609202e-07, 6.08077187e-07, 5.98490772e-07,
          7.74760025e-08, 6.46701835e-07, 5.72274246e-07, 1.56056771e-07,
          7.34294645e-07, 6.50855043e-07, 2.26652489e-07, 9.06679134e-07,
          7.76679599e-07, 2.04174341e-07, 8.86003420e-07, 7.54201494e-07,
          4.36944987e-07, 1.13379929e-06, 8.41891563e-07, 4.71817799e-07,
          1.21733729e-06, 8.76764375e-07, 7.11551195e-07, 1.30836429e-06,
          1.06172070e-06, 6.30745205e-07, 1.21313894e-06, 9.80914592e-07,
          4.34630607e-07, 1.09695407e-06, 6.71167925e-07, 2.79194950e-07,
          9.41518351e-07, 5.15732268e-07, 3.68591088e-07, 1.01935098e-06,
          4.85161877e-07, 4.02873439e-07, 1.05363335e-06, 5.19444256e-07,
          6.25701546e-07, 1.09837299e-06, 7.06997184e-07, 6.88852595e-07,
          1.16152410e-06, 7.70148290e-07, 5.84360805e-07, 1.27254486e-06,
          9.06782248e-07, 9.53694666e-07, 1.64187861e-06, 1.27611600e-06,
          1.13810324e-06, 1.81011660e-06, 1.48191225e-06, 1.20183677e-06,
          1.93332994e-06, 1.54564577e-06, 8.86776604e-07, 1.58775197e-06,
          1.36135282e-06, 7.59516809e-07, 1.44713727e-06, 1.23409302e-06,
          3.23350577e-07, 1.06061600e-06, 7.43533462e-07, 7.17025785e-07,
          1.39920598e-06, 1.08212339e-06, -6.87200128e-08,
          6.90739171e-07, 3.17454834e-07, -5.28161365e-07,
          2.27591755e-07, -1.47495030e-07, -1.67008835e-07,
          4.60854523e-07, 1.00793599e-07, 8.48043982e-08, 7.12667770e-07,
          3.52606833e-07, 1.70923570e-07, 7.63535638e-07, 4.50354463e-07,
          2.09428791e-07, 8.02040859e-07, 4.88859655e-07, 2.22277635e-07,
          8.62772026e-07, 5.25283383e-07, 2.12588162e-07, 8.47574029e-07,
          5.10085385e-07, 2.76934884e-07, 7.06088258e-07, 5.29381225e-07,
          2.17357922e-07, 6.46511296e-07, 4.69804291e-07, 1.38831666e-07,
          7.74565137e-07, 4.16690824e-07, 6.35648334e-08, 6.99298312e-07,
          3.52441049e-07, 1.25029047e-07, 7.56396162e-07, 4.40006573e-07,
          1.64243716e-07, 7.95610845e-07, 4.79221228e-07, 2.01031014e-07,
          6.27916961e-07, 4.51247047e-07, 3.39740978e-07, 7.66626954e-07,
          5.89956983e-07, -5.33193941e-07, 3.04775284e-07,
          -4.17081424e-07, -5.10202199e-07, 2.97791104e-07,
          -4.90687682e-07, -5.60836781e-07, 2.47156521e-07,
          -5.41322265e-07, -5.02332512e-07, 2.31172351e-07,
          -4.48673433e-07, -4.85803184e-07, 2.47701649e-07,
          -4.32144134e-07, -4.23890185e-07, 2.27953095e-07,
          -3.45340851e-07, -2.71445799e-07, 3.80213066e-07,
          -2.04097930e-07, -1.83958932e-07, 3.31981511e-07,
          -1.88755436e-07, 6.63652600e-08, 5.82351788e-07,
          6.16148554e-08, 7.73267139e-09, 5.17796366e-07,
          -2.20536034e-09, -1.87167490e-08, 4.86869510e-07,
          -2.86547817e-08, -8.78394388e-08, 4.45524165e-07,
          -1.02372177e-07, -1.35229357e-08, 5.10885855e-07,
          -1.20329799e-08, 8.07611933e-09, 6.67100323e-07,
          1.02967881e-07, -6.19104128e-08, 5.97113797e-07,
          2.76763092e-08, -1.61973702e-07, 3.93673588e-07,
          -1.29100044e-07, -2.38494124e-07, 3.17157060e-07,
          -1.96661730e-07, -3.01521624e-07, 2.35876740e-07,
          -2.63404445e-07, -2.53214409e-07, 2.66526740e-07,
          -2.32754445e-07, -2.13171873e-07, 3.11630970e-07,
          -1.71624748e-07, -1.92406745e-07, 3.32869149e-07,
          -1.50386555e-07, -3.77133205e-07, 1.27571553e-07,
          -2.88793814e-07, -4.43342941e-07, 7.00873173e-08,
          -3.54172556e-07, -3.93371778e-07, 1.69955072e-08,
          -2.08562781e-07, -4.05975612e-07, -3.36914274e-10,
          -2.25895207e-07, -4.11163654e-07, -1.85114981e-08,
          -2.14143071e-07, -4.41078726e-07, -4.84265890e-08,
          -2.44058157e-07, -3.53852556e-07, -2.31918751e-08,
          -1.60824143e-07, -3.61207782e-07, -3.05470955e-08,
          -1.68179369e-07, -3.12810101e-07, 6.87425095e-09,
          -8.39234602e-08, -1.56203697e-07, 1.63480649e-07,
          7.26829441e-08, -1.16635796e-07, 2.34785844e-07,
          1.36723244e-07, -1.01802996e-07, 2.55127162e-07,
          1.51556051e-07, -1.60508961e-07, 1.88536163e-07,
          9.41102343e-08, -1.74155090e-07, 1.74890019e-07,
          8.04640976e-08, -2.66494311e-07, 1.03631564e-07,
          5.86610120e-08, -2.33009573e-07, 1.26099266e-07,
          9.20535541e-08, -1.70022702e-07, 1.91454603e-07,
          1.88342227e-07, -4.20959445e-08, 3.19381371e-07,
          3.16268967e-07, -7.93834474e-08, 2.52263646e-07,
          2.82610898e-07, 1.05230910e-07, 4.36893373e-07, 4.67240625e-07,
          3.18285288e-07, 5.17714398e-07, 7.46008425e-07, 2.90624399e-07,
          4.90068885e-07, 7.18362912e-07, 1.88781030e-07, 1.99917181e-07,
          6.35764650e-07, 3.59295370e-07, 3.70431536e-07, 8.06278990e-07,
          3.10497967e-07, 3.92054460e-07, 8.21809806e-07, 3.51257370e-07,
          4.32813863e-07, 8.54045481e-07, 2.84251485e-07, 4.71504137e-07,
          8.39652046e-07, 3.41414648e-07, 5.38729523e-07, 8.80593461e-07,
          3.61750153e-07, 5.20352728e-07, 8.79267759e-07, 3.70026726e-07,
          5.26193958e-07, 8.87544331e-07, 3.46264045e-07, 5.00194915e-07,
          8.96706922e-07, 3.92537203e-07, 5.48006597e-07, 9.42980080e-07,
          3.29691346e-07, 5.35998595e-07, 9.65272079e-07, 4.31717126e-07,
          6.39826794e-07, 1.06729794e-06, 1.74402942e-07, 4.53764414e-07,
          9.45190379e-07, 1.92252870e-07, 4.73416748e-07, 9.63040293e-07,
          2.70343072e-08, 3.52407966e-07, 8.30396232e-07,
          -8.18780066e-08, 2.43495634e-07, 7.21483957e-07,
          3.09754533e-08, 3.60757497e-07, 8.32018998e-07, 5.90124074e-08,
          3.90596853e-07, 8.66497601e-07, 1.21293752e-07, 4.46494369e-07,
          7.84504948e-07, 1.14618146e-07, 4.50633252e-07, 7.77829371e-07,
          7.40595212e-08, 5.04069305e-07, 5.39271355e-07, 1.05384039e-07,
          4.99345504e-07, 5.45564603e-07, 1.83030096e-07, 5.22241976e-07,
          6.07514266e-07, 1.34085923e-07, 5.02136459e-07, 5.59316959e-07,
          1.98747813e-07, 6.58247075e-07, 6.56745613e-07, 3.17736550e-07,
          7.82643042e-07, 7.76481215e-07, 4.92241895e-07, 1.02922934e-06,
          8.51156017e-07, 7.33245372e-07, 1.26843042e-06, 1.09215944e-06,
          8.85405370e-07, 1.43271882e-06, 1.09073414e-06, 7.62057596e-07,
          1.30937110e-06, 9.67386313e-07, 3.24111681e-07, 8.78970297e-07,
          5.31199532e-07, 1.37510071e-07, 6.92368701e-07, 3.44597908e-07,
          8.82057272e-09, 5.43756471e-07, 2.38297048e-07, 1.78786152e-07,
          7.13722045e-07, 4.08262622e-07, 3.91519222e-07, 8.80311291e-07,
          4.97046756e-07, 5.23644985e-07, 1.01243700e-06, 6.29172519e-07,
          5.45938690e-07, 9.37978939e-07, 7.33673858e-07, 6.11302198e-07,
          1.00334239e-06, 7.99037366e-07, 1.38951793e-06, 1.74538673e-06,
          1.71448357e-06, 1.88736271e-06, 2.24370456e-06, 2.21280129e-06,
          1.20214190e-06, 1.65620975e-06, 1.48056029e-06, 4.81978873e-07,
          8.84736892e-07, 7.59924148e-07, 9.85831321e-07, 1.37189636e-06,
          1.32300818e-06, 1.30224726e-06, 1.68518068e-06, 1.63989728e-06,
          5.66107133e-07, 9.77761943e-07, 9.44013436e-07,
          -2.69255253e-07, 7.25910994e-08, 3.70402411e-08,
          -7.25256939e-08, 3.03622386e-07, 2.08990613e-07,
          9.19924901e-07, 1.30889248e-06, 1.21245819e-06, 4.31022329e-07,
          7.70485826e-07, 6.96101608e-07, 7.29800647e-08, 4.14245989e-07,
          3.38059380e-07, 2.98241076e-07, 6.37896051e-07, 5.84109387e-07,
          3.94764555e-07, 7.32617082e-07, 6.80632866e-07, 5.58033264e-07,
          8.54955942e-07, 8.83660050e-07, 6.09607980e-07, 9.02925876e-07,
          8.88371915e-07, 7.04828494e-07, 1.03605214e-06, 9.05878096e-07,
          4.45921302e-07, 8.09385881e-07, 6.79211837e-07, 3.43185008e-07,
          7.20388755e-07, 5.48005687e-07, 2.10318916e-07, 5.87522663e-07,
          4.15139624e-07, 2.32815935e-07, 6.74701823e-07, 5.15099771e-07,
          3.76074439e-07, 8.17960313e-07, 6.58358260e-07, 4.61763904e-07,
          7.80672792e-07, 7.04080207e-07, 5.64400182e-07, 8.83309042e-07,
          8.06716457e-07, -5.06429785e-07, 3.31539439e-07,
          -3.90332644e-07, -5.18280331e-07, 2.89713000e-07,
          -4.98765758e-07, -5.37229937e-07, 2.70763366e-07,
          -5.17715421e-07, -4.67864112e-07, 2.65640722e-07,
          -4.14205061e-07, -4.73055962e-07, 2.60448843e-07,
          -4.19396940e-07, -3.12779349e-07, 3.39063945e-07,
          -2.45247065e-07, -2.35424139e-07, 4.16311565e-07,
          -1.67999431e-07, 9.26606170e-09, 5.07342918e-07,
          -8.91658392e-09, 2.39476179e-07, 7.33106390e-07,
          2.21324257e-07, 1.84794587e-07, 6.90380887e-07, 1.74856552e-07,
          1.35946465e-07, 6.50487550e-07, 1.26008430e-07, 1.18265682e-08,
          5.49667561e-07, 1.77124670e-09, 1.05680712e-07, 6.39044288e-07,
          1.02704718e-07, 2.83118773e-08, 6.87336126e-07, 1.17990808e-07,
          1.21317299e-07, 7.79868458e-07, 2.10461707e-07, 6.27450675e-07,
          1.18160426e-06, 6.58845977e-07, 3.80782041e-07, 9.34939465e-07,
          4.21136036e-07, 2.96476628e-07, 8.33874992e-07, 3.34593778e-07,
          2.73561170e-07, 7.95782398e-07, 2.96501213e-07, 3.65258501e-07,
          8.90534409e-07, 4.07278691e-07, 2.80855346e-07, 8.06131254e-07,
          3.22875536e-07, -1.10102327e-07, 4.10806933e-07,
          -3.31776762e-09, -4.72657860e-07, 4.02993408e-08,
          -3.91003738e-07, -4.50673355e-07, -4.03060909e-08,
          -2.61890534e-07, -4.15271955e-07, -9.63325686e-09,
          -2.35191550e-07, -4.38162544e-07, -4.67568952e-08,
          -2.42388467e-07, -4.66986222e-07, -7.43340749e-08,
          -2.69965653e-07, -4.25526281e-07, -9.48655909e-08,
          -2.32497868e-07, -4.64237075e-07, -1.28067882e-07,
          -2.71208677e-07, -3.89495739e-07, -6.98113851e-08,
          -1.60609090e-07, -1.92200005e-07, 1.27484341e-07,
          3.66866324e-08, -5.72930183e-08, 2.94128625e-07,
          1.96066026e-07, -4.64823096e-08, 3.04939334e-07,
          2.06876734e-07, -8.10650249e-08, 2.67980084e-07,
          1.73554170e-07, -1.49068740e-07, 1.94467844e-07,
          1.05565817e-07, -2.32466306e-07, 1.26642533e-07,
          9.27043899e-08, -3.06412090e-07, 5.26967447e-08,
          1.87125053e-08, -2.62708312e-07, 9.87690001e-08,
          9.82185071e-08, -2.05408327e-07, 1.56068978e-07,
          1.52956602e-07, -5.73761589e-08, 2.74286293e-07,
          3.04633545e-07, 1.07389496e-07, 4.39067321e-07, 4.69414573e-07,
          2.95541838e-07, 4.94986352e-07, 7.23280380e-07, 3.60252727e-07,
          5.59697241e-07, 7.87991269e-07, 3.81988258e-07, 3.93124424e-07,
          8.28971906e-07, 5.43381987e-07, 5.54518124e-07, 1.00984846e-06,
          3.65953781e-07, 4.19503721e-07, 8.35864682e-07, 3.17546750e-07,
          3.75967403e-07, 7.87457623e-07, 3.42768942e-07, 5.32456966e-07,
          8.97696452e-07, 4.06017790e-07, 6.00897295e-07, 9.48328363e-07,
          4.25823373e-07, 5.90542356e-07, 9.42094459e-07, 4.04327437e-07,
          5.61976265e-07, 9.21845015e-07, 3.98199802e-07, 5.56680618e-07,
          9.49115758e-07, 3.70117220e-07, 5.31354146e-07, 9.21033177e-07,
          4.39378226e-07, 6.28317196e-07, 1.04255480e-06, 5.48478454e-07,
          7.41655185e-07, 1.15118200e-06, 4.43067961e-07, 7.09035021e-07,
          1.19193726e-06, 4.77271271e-07, 7.40169980e-07, 1.22614051e-06,
          2.22388479e-07, 5.47762113e-07, 1.03305649e-06, 8.41424779e-08,
          4.13120972e-07, 9.06987225e-07, 1.07281011e-07, 4.48080101e-07,
          9.19341630e-07, 9.21902625e-08, 4.23774708e-07, 8.89685623e-07,
          1.88500678e-07, 5.13701309e-07, 8.39947916e-07, 1.05085412e-07,
          4.39298105e-07, 7.67549693e-07, 3.96776372e-08, 4.69687421e-07,
          5.03395711e-07, 1.15783962e-07, 5.04338175e-07, 5.49810352e-07,
          1.53501773e-07, 4.67479822e-07, 5.15209990e-07, 2.03073313e-07,
          5.67519066e-07, 6.26810618e-07, 3.23682684e-07, 7.77774687e-07,
          7.79439802e-07, 4.43673400e-07, 9.01370242e-07, 9.00177440e-07,
          1.00086618e-06, 1.53605117e-06, 1.37770553e-06, 1.94365862e-06,
          2.48064612e-06, 2.30257274e-06, 3.43934425e-06, 3.92754146e-06,
          3.61452044e-06, 2.85950046e-06, 3.37099459e-06, 3.04244213e-06,
          1.77480786e-06, 2.32966636e-06, 1.98189559e-06, 8.41404699e-07,
          1.39626331e-06, 1.04849255e-06, 1.20037029e-07, 6.54972894e-07,
          3.49513499e-07, 3.74153785e-07, 9.09089692e-07, 6.03630269e-07,
          5.70147108e-07, 1.05893923e-06, 6.75674642e-07, 4.96423809e-07,
          9.38622236e-07, 5.94185735e-07, 1.34440722e-06, 1.73644753e-06,
          1.53214251e-06, 4.06685388e-07, 7.98725694e-07, 5.94420612e-07,
          1.37033567e-06, 1.72620446e-06, 1.69530119e-06, 2.97164860e-07,
          6.13853558e-07, 5.82950349e-07, -3.47451601e-06,
          -3.02442209e-06, -3.19609762e-06, -5.98793986e-06,
          -5.59058890e-06, -5.70999464e-06, -5.01731802e-06,
          -4.63761126e-06, -4.68317830e-06, -3.21295852e-06,
          -2.83002532e-06, -2.87530861e-06, -5.10537666e-06,
          -4.69191946e-06, -4.72747024e-06, -6.35515835e-06,
          -5.98209090e-06, -6.01944430e-06, -3.78637969e-06,
          -3.41213536e-06, -3.51037193e-06, -3.13052588e-08,
          3.74723328e-07, 2.66736635e-07, 4.66997761e-07, 8.10066069e-07,
          7.32077069e-07, 2.31843188e-07, 5.74911496e-07, 4.96922496e-07,
          9.30845715e-07, 1.27050066e-06, 1.21671405e-06, 6.01165254e-07,
          9.37215361e-07, 8.87033536e-07, 4.90700927e-07, 8.27276835e-07,
          8.12722874e-07, 6.82733400e-07, 1.01930925e-06, 1.00475540e-06,
          8.12149665e-07, 1.19213985e-06, 1.06196569e-06, 4.95045754e-07,
          8.58510361e-07, 7.28336261e-07, 3.37451837e-07, 7.14655641e-07,
          5.42272517e-07, 1.43243483e-07, 5.20447259e-07, 3.48064191e-07,
          2.10514585e-07, 6.52400445e-07, 4.95852021e-07, 3.10875947e-07,
          7.50318918e-07, 6.19421030e-07, 6.65987614e-07, 9.84896474e-07,
          9.08303889e-07, 7.02838577e-07, 1.02174749e-06, 9.53705012e-07,
          -2.43810888e-07, 5.31629382e-07, -3.43450779e-07,
          -3.64897801e-07, 4.32624091e-07, -3.98879251e-07,
          -3.75889357e-07, 4.21632564e-07, -4.09870779e-07,
          -2.73812134e-07, 4.23641012e-07, -4.10246798e-07,
          -2.98508553e-07, 3.98944593e-07, -4.34943217e-07,
          -2.59986251e-07, 3.95201795e-07, -3.27876222e-07,
          -1.67726512e-07, 4.70536889e-07, -2.30154029e-07,
          -1.84295228e-08, 6.50620620e-07, -4.78786752e-08,
          2.14950688e-07, 8.30655551e-07, 1.72100030e-07, 1.33777135e-07,
          8.15196131e-07, 3.45430067e-08, 1.07824256e-07, 7.89243245e-07,
          8.59013127e-09, -8.85791849e-08, 6.06804633e-07,
          -1.90861570e-07, 2.58966288e-08, 7.21280458e-07,
          -6.55912658e-08, 2.92302474e-07, 9.32010039e-07,
          1.67957992e-07, 1.11788540e-06, 1.75759305e-06, 9.93479489e-07,
          1.73800584e-06, 2.08855568e-06, 1.66744337e-06, 1.54762824e-06,
          1.91113236e-06, 1.48754259e-06, 6.49922697e-07, 1.03037837e-06,
          5.54976850e-07, 1.06688071e-06, 1.44383546e-06, 9.72407861e-07,
          1.30729291e-06, 1.68244617e-06, 1.19955496e-06, 1.00450609e-06,
          1.39595068e-06, 9.03523187e-07, -7.88157664e-08,
          2.66649010e-07, -1.30043404e-07, -1.46723409e-07,
          1.98268310e-07, -2.16349363e-07, -3.83148063e-07,
          7.05281593e-08, -3.15019065e-07, -2.98354934e-07,
          1.55560713e-07, -2.33975712e-07, -2.33970880e-07,
          1.85518743e-07, -1.59079860e-07, -3.45385331e-07,
          7.53507905e-08, -2.57690431e-07, -3.28686156e-07,
          8.14680092e-08, -2.62955751e-07, -4.05013651e-07,
          5.14049869e-09, -3.39283275e-07, -2.04894874e-07,
          2.41745767e-07, -1.11580697e-07, -1.92728606e-08,
          4.27367780e-07, 7.40413171e-08, -3.71876685e-09,
          4.36375842e-07, 1.30801354e-07, -2.85900530e-08,
          4.11504573e-07, 1.05930063e-07, -1.12939532e-07,
          1.74069029e-07, -2.79012502e-09, -1.11533801e-07,
          1.75474753e-07, 6.57865007e-09, -1.55509554e-07,
          2.38786356e-07, 7.25867295e-08, -3.60035159e-07,
          3.42607365e-08, -1.31938890e-07, -2.76028942e-07,
          -1.04102185e-07, -7.91996513e-08, -2.91012185e-07,
          -1.19131506e-07, -9.93527678e-08, -8.19320789e-08,
          5.84335353e-08, 1.79838963e-07, 7.69212249e-07, 9.09501011e-07,
          1.02834451e-06, 1.57505622e-06, 1.66588302e-06, 1.87913668e-06,
          1.26695397e-06, 1.36546635e-06, 1.57397585e-06, 4.77216645e-07,
          4.51286780e-07, 8.07077754e-07, 1.91341019e-06, 1.89600405e-06,
          2.24327118e-06, 2.96739449e-06, 3.01676778e-06, 3.37901383e-06,
          2.87281114e-06, 2.92218442e-06, 3.28262809e-06, 2.18788250e-06,
          2.25267536e-06, 2.60650154e-06, 7.93315792e-07, 8.67120889e-07,
          1.21193489e-06, 2.32401604e-07, 4.23134622e-07, 8.11131372e-07,
          2.00400322e-07, 4.04675205e-07, 7.86895669e-07, 1.40258052e-07,
          3.58137612e-07, 7.30658826e-07, 3.18898515e-07, 5.39213431e-07,
          9.09299274e-07, 6.50514835e-07, 8.54344364e-07, 1.24135158e-06,
          5.47096249e-07, 7.58504427e-07, 1.13793305e-06, 6.43518945e-07,
          8.24892140e-07, 1.28915997e-06, 5.80189351e-07, 7.65749235e-07,
          1.22279312e-06, 3.56457889e-07, 5.70403017e-07, 1.00183570e-06,
          3.08420276e-08, 2.40987902e-07, 6.69662256e-07,
          -1.19341399e-08, 2.20660425e-07, 7.14303951e-07,
          1.22852853e-07, 3.55447412e-07, 8.26787925e-07, 1.18844696e-06,
          1.42485123e-06, 1.81923178e-06, 8.67351730e-07, 1.09253642e-06,
          1.46359162e-06, 1.18753626e-07, 2.92512880e-07, 7.20970434e-07,
          -1.86598967e-07, -4.15770991e-08, 3.86880430e-07,
          3.78130494e-07, 4.87280374e-07, 7.85676718e-07, 1.16574688e-06,
          1.30543663e-06, 1.60437730e-06, -3.47881404e-08,
          1.86752047e-07, 4.37229545e-07, -6.66230517e-06,
          -6.43155045e-06, -6.16711304e-06, -5.83118754e-06,
          -5.58663578e-06, -5.71502733e-06, -7.19871537e-07,
          -7.18956187e-07, -3.75991647e-07, -8.14712166e-07,
          -5.83869735e-07, -5.82675170e-07, -5.16351156e-06,
          -4.89525155e-06, -5.10770906e-06, -4.48093351e-06,
          -4.38422512e-06, -4.42813234e-06, -4.53093151e-07,
          -3.17067702e-07, -4.22576960e-07, 6.81646156e-07,
          7.80134485e-07, 7.24849201e-07, 1.11305565e-06, 1.21154392e-06,
          1.15625858e-06, 1.36076142e-06, 1.49139134e-06, 1.46657101e-06,
          1.77091329e-06, 1.90154321e-06, 1.87672288e-06, 1.97872032e-06,
          2.09436757e-06, 2.15220871e-06, 3.05229662e-07, 4.20876802e-07,
          4.78717993e-07, -1.56649790e-07, 1.23016477e-07,
          2.64103875e-07, 4.31798412e-07, 6.78283186e-07, 8.51814093e-07,
          -4.36475466e-06, -4.16745615e-06, -4.05420496e-06,
          -8.47469983e-06, -8.09421635e-06, -8.25365987e-06,
          -5.18622301e-06, -4.87814441e-06, -4.77864842e-06,
          -4.05251239e-06, -3.74962769e-06, -3.65382198e-06,
          -6.20030914e-06, -6.09814970e-06, -5.96838390e-06,
          -8.61614353e-06, -8.41850215e-06, -8.52108406e-06,
          -3.38492964e-06, -3.35321488e-06, -3.16326077e-06,
          9.32311991e-07, 9.73703322e-07, 1.14018337e-06, 5.44719626e-07,
          6.59310672e-07, 8.64330900e-07, 1.16348451e-06, 1.28168040e-06,
          1.48262268e-06, 1.55317161e-06, 1.64968276e-06, 1.86139368e-06,
          1.03066350e-06, 1.12356975e-06, 1.33888545e-06, 3.34574906e-07,
          6.76405477e-07, 7.16888337e-07, 5.42453677e-07, 8.84284191e-07,
          9.24767050e-07, 6.02244654e-07, 1.01871331e-06, 9.21094852e-07,
          4.28953058e-07, 8.23387609e-07, 7.25769155e-07, 3.92947356e-07,
          5.94085918e-07, 6.67568031e-07, 2.51284519e-07, 4.52423052e-07,
          5.25905193e-07, 1.11832463e-07, 4.35053039e-07, 4.33632863e-07,
          6.46653859e-07, 9.58827741e-07, 9.66608241e-07, 6.66092205e-07,
          8.93443428e-07, 1.04236892e-06, 7.02412478e-07, 9.35301955e-07,
          1.08053530e-06, -4.41009398e-08, 7.31339298e-07,
          -9.73517871e-08, -1.66919065e-07, 6.30602813e-07,
          -1.54511469e-07, -2.01893570e-07, 5.95628364e-07,
          -1.83977434e-07, -1.13616494e-07, 5.83836652e-07,
          -2.03662125e-07, -1.61418257e-07, 5.36034861e-07,
          -2.40446838e-07, -1.79126118e-07, 4.69522291e-07,
          -2.00627042e-07, -2.04497290e-08, 6.14704959e-07,
          -4.20121147e-08, 3.54016237e-07, 9.77245804e-07,
          3.57508526e-07, 3.31517839e-07, 9.69272264e-07, 3.29563079e-07,
          8.51310773e-08, 7.71027487e-07, 3.22859890e-08,
          -1.86419253e-08, 6.89641581e-07, -6.70096014e-08,
          1.62392467e-07, 8.48821458e-07, 1.04266263e-07, 4.79290350e-07,
          1.17915158e-06, 3.87798565e-07, 7.08586583e-07, 1.34829418e-06,
          5.93196944e-07, 1.53805138e-06, 2.17775892e-06, 1.41812279e-06,
          1.89625325e-06, 2.24625910e-06, 1.82514702e-06, 1.75605305e-06,
          2.11100951e-06, 1.69786040e-06, 8.86334362e-07, 1.26376221e-06,
          7.92334617e-07, 1.28474278e-06, 1.65593815e-06, 1.18700359e-06,
          1.43852139e-06, 1.81017390e-06, 1.33125650e-06, 8.75640012e-07,
          1.27105841e-06, 7.74657110e-07, -4.92273813e-08,
          2.96237403e-07, -1.01201898e-07, -6.83391050e-08,
          2.76652599e-07, -1.37965060e-07, -1.56623742e-07,
          3.03753666e-07, -8.97412278e-08, -2.16280213e-07,
          2.40857304e-07, -1.52637597e-07, -1.07456358e-07,
          3.09540269e-07, -3.10691348e-08, -2.76394957e-07,
          1.44341186e-07, -2.00242056e-07, -3.20599526e-07,
          8.83081483e-08, -2.56100236e-07, -3.29555206e-07,
          8.05989586e-08, -2.63809426e-07, -2.59122743e-07,
          1.87517870e-07, -1.65793210e-07, 4.49145325e-08,
          4.91555170e-07, 1.38244076e-07, 9.02730601e-09, 4.49121927e-07,
          1.43547425e-07, 1.73407585e-07, 6.13502209e-07, 3.07927706e-07,
          1.46928357e-07, 4.33936918e-07, 2.57077772e-07,
          -1.04359337e-07, 1.82649217e-07, 5.79007242e-09,
          -1.25410182e-07, 2.68885714e-07, 1.02624639e-07,
          -2.23545314e-07, 1.70750582e-07, 4.61243932e-09,
          4.57322180e-08, 2.17658979e-07, 2.45123402e-07,
          -4.83838903e-07, -3.11912146e-07, -2.89571517e-07,
          5.66723429e-07, 7.07012191e-07, 8.25855750e-07, 1.38369057e-06,
          1.50950325e-06, 1.67696714e-06, 1.43078000e-06, 1.52160669e-06,
          1.72268358e-06, 2.40580971e-06, 2.47715366e-06, 2.66727147e-06,
          2.81312373e-06, 2.79008600e-06, 3.15904572e-06, 3.93978962e-06,
          3.98695784e-06, 4.39039604e-06, 3.75433660e-06, 3.74352044e-06,
          4.07687958e-06, 4.27546547e-06, 4.30610498e-06, 4.64847608e-06,
          2.81081407e-06, 2.98219243e-06, 3.32793638e-06, 1.73590763e-06,
          1.80610789e-06, 2.15499972e-06, 4.18179383e-07, 6.06079254e-07,
          1.00514774e-06, 3.04838352e-07, 4.93107223e-07, 8.46746332e-07,
          3.95973530e-07, 6.07597201e-07, 9.86374289e-07, 4.22136168e-07,
          6.29416945e-07, 1.01253693e-06, 2.29118385e-07, 4.17785685e-07,
          7.89365799e-07, 4.46979129e-07, 6.58756335e-07, 1.03781588e-06,
          5.12731447e-07, 6.57768851e-07, 1.10762289e-06, 3.11814716e-07,
          5.02938008e-07, 9.46470834e-07, 1.64999989e-07, 3.83886800e-07,
          8.03948694e-07, -6.81506265e-08, 1.47667890e-07,
          5.70798079e-07, -2.34365473e-07, 1.29522659e-08,
          4.97439146e-07, -3.84877552e-07, -1.52282979e-07,
          3.16816880e-07, 3.28296522e-07, 5.64700883e-07, 9.56840722e-07,
          5.10823611e-07, 7.26996291e-07, 1.10631663e-06, 5.08563119e-07,
          6.65796790e-07, 1.08174356e-06, 6.97776500e-07, 8.66229811e-07,
          1.33104425e-06, 7.55200290e-07, 8.84075462e-07, 1.19233687e-06,
          6.85562156e-07, 8.30659076e-07, 1.15046214e-06,
          -8.24293636e-07, -5.82724340e-07, -3.09365447e-07,
          -6.89450508e-06, -6.70223199e-06, -6.69326300e-06,
          -3.16937326e-06, -3.11554732e-06, -2.80132554e-06,
          8.03530895e-07, 8.28219015e-07, 1.14423415e-06,
          -2.79862684e-06, -2.50500602e-06, -2.50764037e-06,
          -4.80862036e-06, -4.47486764e-06, -4.69297538e-06,
          -3.31713363e-06, -3.22042524e-06, -3.21816265e-06,
          1.08958341e-06, 1.23662596e-06, 1.17160630e-06, 1.61760772e-06,
          1.71609611e-06, 1.69028328e-06, 1.32042328e-06, 1.41891155e-06,
          1.36362632e-06, 1.69440284e-06, 1.82503277e-06, 1.80021243e-06,
          1.05656306e-06, 1.18719288e-06, 1.16237266e-06, 1.82253905e-06,
          1.93818619e-06, 2.01264174e-06, 7.05228729e-07, 8.20875869e-07,
          8.79663162e-07, 9.08288428e-07, 1.21281948e-06, 1.33003732e-06,
          5.05070489e-07, 8.05627735e-07, 9.10148401e-07,
          -5.24149891e-06, -5.04022682e-06, -4.92697518e-06,
          -8.39217228e-06, -7.96302356e-06, -8.17113232e-06,
          -4.48322453e-06, -4.17154070e-06, -4.07564994e-06,
          -3.18457751e-06, -2.87808803e-06, -2.77173672e-06,
          -6.62056073e-06, -6.50531456e-06, -6.36744289e-06,
          -6.53979396e-06, -6.52672225e-06, -6.39904283e-06,
          -3.98478704e-07, -3.98086257e-07, -2.11736932e-07,
          2.62449203e-06, 2.63844186e-06, 2.81399366e-06, 5.83771737e-07,
          7.04877095e-07, 8.81726976e-07, 1.12364330e-06, 1.28079694e-06,
          1.44012279e-06, 1.83470750e-08, 1.45499342e-07, 3.27515238e-07,
          2.75179417e-07, 4.02331665e-07, 5.83401459e-07, 4.62752922e-07,
          7.93566414e-07, 8.34049274e-07, 2.89249442e-07, 6.14554381e-07,
          6.55037240e-07, 3.49727003e-07, 7.38653000e-07, 6.41034603e-07,
          6.12765616e-10, 3.89538798e-07, 2.91920344e-07, 1.87071535e-07,
          3.88210083e-07, 4.61692224e-07, 4.82915027e-07, 6.84053589e-07,
          7.57535759e-07, 2.95503185e-07, 6.18723789e-07, 6.17303613e-07,
          4.88453850e-07, 8.11674454e-07, 8.10254278e-07, 4.38696446e-07,
          6.71585894e-07, 8.16819238e-07, 5.10740051e-07, 7.43629471e-07,
          8.88862871e-07, -6.01403087e-08, 8.42761438e-07,
          -1.76408165e-07, -2.52202568e-07, 7.38378048e-07,
          -2.41568813e-07, -3.07563141e-07, 6.77508922e-07,
          -3.02437911e-07, -2.20279048e-07, 6.78939045e-07,
          -3.04790433e-07, -2.09265963e-07, 6.89952117e-07,
          -2.82760311e-07, -2.10777714e-07, 6.24742427e-07,
          -2.33470871e-07, -1.48969576e-07, 6.86489045e-07,
          -1.71724224e-07, -4.83750682e-07, 3.14007735e-07,
          -4.28981338e-07, -6.59423494e-09, 7.91148864e-07,
          4.81597660e-08, -5.65939899e-07, 2.92588027e-07,
          -6.06484150e-07, -6.16110299e-07, 2.42417656e-07,
          -6.49932531e-07, -2.03422417e-07, 6.37618939e-07,
          -2.54515697e-07, 1.55521349e-07, 1.00999489e-06,
          1.20439083e-07, 5.26461406e-07, 1.30462706e-06, 4.64042671e-07,
          1.37821769e-06, 2.15638329e-06, 1.31575291e-06, 1.73074602e-06,
          2.27609689e-06, 1.65326946e-06, 1.18515788e-06, 1.74505601e-06,
          1.10998053e-06, 7.39351947e-07, 1.30090018e-06, 7.07629511e-07,
          1.33545609e-06, 1.84371106e-06, 1.25968836e-06, 1.33856076e-06,
          1.86990007e-06, 1.25847191e-06, 3.94625488e-07, 9.91926413e-07,
          3.59328823e-07, -2.24588362e-07, 2.86726390e-07,
          -2.38112960e-07, -2.10494903e-07, 3.00819863e-07,
          -2.41197881e-07, -1.96092159e-07, 3.65713788e-07,
          -8.82284823e-08, -1.56274837e-07, 4.03038115e-07,
          -5.09041698e-08, -9.61307620e-08, 3.97210897e-07,
          1.89057356e-08, -2.81209907e-07, 2.12131752e-07,
          -1.66173407e-07, -3.94192938e-07, 1.39086779e-07,
          -2.41757959e-07, -4.34072064e-07, 9.92076323e-08,
          -2.76128588e-07, -4.13499436e-07, 1.04534635e-07,
          -2.38259375e-07, -1.26371635e-09, 5.16770342e-07,
          1.73976346e-07, -9.85739135e-08, 4.36879986e-07,
          1.50457765e-07, -1.06200709e-07, 4.29253191e-07,
          1.42830970e-07, -8.00214224e-08, 2.51460477e-07,
          1.07558030e-07, -1.30739011e-07, 2.00742889e-07,
          5.68404381e-08, 1.76512245e-08, 3.00330868e-07, 2.31908999e-07,
          -1.61740530e-07, 1.20939092e-07, 5.27631236e-08,
          -2.19530122e-07, 1.88670711e-07, 1.05119376e-07,
          -4.42812336e-07, -3.46115065e-08, -1.13039050e-07,
          6.39974871e-07, 8.49310595e-07, 9.05754462e-07, 1.33514004e-06,
          1.53120413e-06, 1.60787545e-06, 8.85985060e-07, 1.14204272e-06,
          1.08867971e-06, 1.50425183e-06, 1.77126856e-06, 1.70694648e-06,
          4.25313283e-06, 4.39884070e-06, 4.47154071e-06, 4.10096118e-06,
          4.24023983e-06, 4.33358991e-06, 2.56704561e-06, 2.63591755e-06,
          2.83904410e-06, 3.03010347e-06, 3.19747846e-06, 3.38722998e-06,
          2.98267400e-06, 3.11397366e-06, 3.28955889e-06, 1.81622227e-06,
          1.95705275e-06, 2.19117805e-06, 2.56226315e-07, 3.64474289e-07,
          6.74467174e-07, 2.43634730e-07, 4.32166331e-07, 7.03804233e-07,
          6.01984652e-07, 7.77812431e-07, 9.94379434e-07, 4.65230642e-07,
          6.41058421e-07, 8.57625423e-07, 2.57848285e-07, 4.49282567e-07,
          6.61701563e-07, 4.38808883e-07, 6.37452843e-07, 8.41716030e-07,
          2.56930463e-07, 5.41679015e-07, 8.36931008e-07, 8.94972700e-08,
          3.82289926e-07, 6.71390069e-07, 1.61461216e-07, 4.40866131e-07,
          7.78850165e-07, 2.21267015e-07, 5.12976669e-07, 8.36763775e-07,
          1.69251507e-07, 4.49840002e-07, 8.56453084e-07, 5.88577507e-08,
          3.25880137e-07, 7.85765678e-07, 7.27937817e-08, 2.54921105e-07,
          7.92577168e-07, 4.44792278e-07, 6.05898947e-07, 1.17436718e-06,
          8.23286030e-07, 1.02000558e-06, 1.51079917e-06, 1.17993943e-06,
          1.37125176e-06, 1.89385730e-06, 1.64326639e-06, 1.81768416e-06,
          2.35419930e-06, 1.41061804e-07, 3.24491651e-07, 8.92529215e-07,
          -1.69742157e-06, -1.39301653e-06, -9.56930648e-07,
          -6.28374073e-06, -5.96496238e-06, -5.99337682e-06,
          -2.35121547e-06, -2.08090205e-06, -1.76946344e-06,
          8.92601236e-07, 8.98272276e-07, 1.31967477e-06,
          -2.91685524e-06, -2.63412994e-06, -2.71076851e-06,
          -3.32380705e-06, -4.35675702e-06, -3.15439820e-06,
          -1.07531491e-06, -1.15701903e-06, -1.03923196e-06,
          1.96222641e-06, 1.93335904e-06, 1.93507526e-06, 2.40936151e-06,
          2.38754546e-06, 2.45076853e-06, 1.08511097e-06, 1.08069025e-06,
          1.04191213e-06, 1.05587594e-06, 1.39275812e-06, 1.26614020e-06,
          1.08992742e-06, 1.43234774e-06, 1.33895890e-06, 7.07106210e-07,
          1.05108313e-06, 1.07958840e-06, 1.60396993e-07, 4.88842659e-07,
          5.25113592e-07, 3.32312027e-07, 7.32293756e-07, 7.85755049e-07,
          -3.42107637e-06, -3.02109470e-06, -2.97387646e-06,
          -6.44032207e-06, -6.05060222e-06, -5.98628549e-06,
          -6.64362051e-06, -6.21281424e-06, -6.19753155e-06,
          -3.23285190e-06, -2.73463957e-06, -2.91272045e-06,
          -3.41491887e-06, -2.92608752e-06, -3.13655596e-06,
          -8.38779306e-06, -7.91149614e-06, -8.24035942e-06,
          -5.44039085e-06, -5.25939959e-06, -5.35250001e-06,
          6.83002099e-07, 8.16790077e-07, 7.59603893e-07, 2.96089388e-06,
          3.08376616e-06, 3.03198726e-06, 1.84186732e-07, 3.98205941e-07,
          5.97132953e-07, 2.05882444e-07, 4.04910736e-07, 6.09639642e-07,
          -2.10540534e-07, 1.61371659e-07, 1.57810618e-07,
          5.16019796e-08, 4.27248608e-07, 4.22466115e-07, 7.18997455e-07,
          1.17548507e-06, 1.02239198e-06, 9.97296752e-07, 1.45378431e-06,
          1.30069122e-06, -3.13296511e-07, 2.63093000e-07,
          5.52863044e-09, -3.94669911e-07, 1.81719585e-07,
          -7.58447740e-08, -7.01675662e-10, 6.05226830e-07,
          2.98199325e-07, 4.65987569e-07, 1.06089897e-06, 7.53871518e-07,
          4.67167837e-07, 1.04814842e-06, 7.72888654e-07, 4.12185670e-07,
          9.83991526e-07, 7.36367042e-07, 2.64228134e-07, 7.30745683e-07,
          4.29096161e-07, 3.69172881e-07, 8.24114352e-07, 5.67269922e-07,
          -2.43755380e-07, 6.59146338e-07, -3.60007874e-07,
          -3.98349670e-07, 5.92230947e-07, -3.87715886e-07,
          -5.25846872e-07, 4.59225248e-07, -5.26230110e-07,
          -4.37993720e-07, 4.61224346e-07, -5.22505104e-07,
          -4.24764636e-07, 4.74391953e-07, -4.98320446e-07,
          -3.27873352e-07, 5.07600703e-07, -3.50612623e-07,
          -3.23868676e-07, 5.28130897e-07, -3.41099422e-07,
          -7.23037886e-07, 9.67392921e-08, -6.73792385e-07,
          -2.05408938e-07, 6.14260671e-07, -1.56271028e-07,
          -1.36656786e-06, -5.08039932e-07, -1.39217434e-06,
          -1.52523899e-06, -6.88745160e-07, -1.56176839e-06,
          -1.06322818e-06, -2.08754557e-07, -1.10014230e-06,
          -4.29162441e-07, 3.89491817e-07, -4.85153350e-07,
          2.89528685e-07, 1.08112658e-06, 2.31587379e-07, 7.08765697e-07,
          1.50036362e-06, 6.50762900e-07, 9.01152816e-07, 1.47673563e-06,
          8.41644692e-07, 4.93497510e-07, 1.06609275e-06, 4.31017241e-07,
          7.12625763e-08, 6.32063916e-07, 3.87932246e-08, 2.17961414e-07,
          7.80256528e-07, 1.86985829e-07, 2.14450864e-07, 8.11751875e-07,
          1.75180361e-07, -3.75128337e-07, 2.20753449e-07,
          -4.14871920e-07, -3.80599516e-07, 1.24733674e-07,
          -3.89741444e-07, -3.45653689e-07, 1.65661078e-07,
          -3.76356667e-07, -4.48526407e-07, 1.15772544e-07,
          -3.38169741e-07, -5.00493854e-07, 6.38050821e-08,
          -3.90137188e-07, -4.16356102e-07, 7.69855433e-08,
          -3.01319602e-07, -5.22758398e-07, -2.94167677e-08,
          -4.07721927e-07, -6.51359812e-07, -1.18080123e-07,
          -4.98451811e-07, -5.45705234e-07, -1.24255406e-08,
          -3.93270284e-07, 4.64769414e-08, 5.64511026e-07,
          2.21717002e-07, 8.35203139e-07, 1.35323717e-06, 1.01044316e-06,
          -7.64946932e-08, 4.58959192e-07, 1.72536986e-07,
          -1.43221911e-07, 3.92231982e-07, 1.05809775e-07,
          1.02095797e-07, 4.33577696e-07, 2.89675256e-07, 1.14721921e-07,
          4.46203813e-07, 3.02301373e-07, 2.16738513e-07, 4.99418150e-07,
          4.31027019e-07, 2.30280065e-07, 5.12959673e-07, 4.44430270e-07,
          -1.83174421e-07, 2.25026412e-07, 1.41475084e-07,
          6.49847181e-08, 4.73185537e-07, 3.89634209e-07, 1.00101988e-06,
          1.19464858e-06, 1.27375517e-06, 1.00509328e-06, 1.21089874e-06,
          1.27782869e-06, 8.25812322e-07, 1.08270808e-06, 1.01825947e-06,
          1.71012039e-06, 1.96175120e-06, 1.89121408e-06, 4.03015429e-06,
          4.17586216e-06, 4.23954998e-06, 3.75676132e-06, 3.89482238e-06,
          3.98758766e-06, 2.40659574e-06, 2.47424987e-06, 2.67498922e-06,
          3.04085415e-06, 3.12613861e-06, 3.28840383e-06, 3.03098955e-06,
          3.16769638e-06, 3.33787443e-06, 1.61132050e-06, 1.75575576e-06,
          1.98627640e-06, 3.19956513e-07, 4.35414165e-07, 7.88665034e-07,
          7.97744008e-07, 9.26930454e-07, 1.22139204e-06, 9.85022893e-07,
          1.17691297e-06, 1.39834731e-06, 7.77308401e-07, 9.83291443e-07,
          1.20995639e-06, 3.99377228e-07, 6.17771036e-07, 7.80973664e-07,
          3.01337252e-07, 4.60127268e-07, 6.71015414e-07, 1.65024787e-07,
          4.64022548e-07, 7.03479486e-07, 2.51768995e-07, 5.60360547e-07,
          8.31769512e-07, 3.56248989e-07, 6.31895773e-07, 9.44295664e-07,
          8.25511961e-07, 1.09831262e-06, 1.40466875e-06, 1.17974025e-06,
          1.46246316e-06, 1.86028558e-06, 1.08841357e-06, 1.35496293e-06,
          1.84218720e-06, 8.14328246e-07, 1.04512719e-06, 1.54171289e-06,
          7.98744452e-07, 9.87758085e-07, 1.54289057e-06, 1.27773319e-06,
          1.45503122e-06, 1.94887730e-06, 1.32937009e-06, 1.54091413e-06,
          2.06532218e-06, 1.16368119e-06, 1.35802918e-06, 1.92344373e-06,
          -1.43510562e-07, 6.34543440e-08, 6.16559475e-07,
          -3.09367874e-06, -2.71222757e-06, -2.35790003e-06,
          -6.72380975e-06, -6.32841693e-06, -4.98453846e-06,
          -2.78068705e-06, -2.63310676e-06, -2.44082298e-06,
          2.64682853e-07, 2.70078289e-07, 7.03978401e-07,
          -1.57548254e-06, -1.42856072e-06, -1.25878591e-06,
          -2.16879653e-06, -1.97695522e-06, -2.01985017e-06,
          -1.36988035e-06, -1.39874760e-06, -1.38738176e-06,
          9.65849381e-07, 9.36982190e-07, 1.01428236e-06, 1.87081378e-06,
          1.84899784e-06, 1.91569075e-06, 8.22691106e-07, 8.18270451e-07,
          7.95442588e-07, 1.57268653e-06, 1.90956871e-06, 1.77694164e-06,
          1.57357908e-06, 1.91599929e-06, 1.81106316e-06, 6.44808438e-07,
          9.88785359e-07, 1.01729063e-06, -2.33801734e-06,
          -2.02865522e-06, -1.98577322e-06, -3.22010055e-06,
          -2.86878389e-06, -2.77063123e-06, -3.88405169e-06,
          -3.53093264e-06, -3.44782711e-06, -3.95473626e-06,
          -3.57402837e-06, -3.50069968e-06, -5.27870213e-07,
          -1.45360048e-07, -6.18834903e-08, 8.43267514e-07,
          1.33029641e-06, 1.12163059e-06, 6.54766097e-07, 1.14576881e-06,
          9.56972258e-07, 7.26326164e-07, 9.80462801e-07, 8.94363836e-07,
          4.91265908e-08, 3.33275381e-07, 2.46225454e-07, 2.42602573e-06,
          2.58729119e-06, 2.50466292e-06, 2.32788602e-06, 2.53060693e-06,
          2.44797889e-06, -4.24900037e-07, -2.31380255e-07,
          -2.39211264e-08, -2.19428060e-07, -2.59082782e-08,
          1.81550845e-07, -1.21591111e-08, 3.55755986e-07,
          3.51446573e-07, 8.20660730e-08, 4.55995973e-07, 4.31817369e-07,
          3.19553067e-07, 7.88707098e-07, 6.24010227e-07, 6.57346618e-07,
          1.12161490e-06, 9.61803721e-07, 6.79522827e-07, 1.26341479e-06,
          1.00462898e-06, 6.86377916e-07, 1.26843770e-06, 1.01148407e-06,
          5.11100268e-07, 1.10434132e-06, 7.99756720e-07, 6.07078448e-07,
          1.17767456e-06, 8.73700742e-07, 4.02192001e-07, 9.56924396e-07,
          6.84718316e-07, 2.70369725e-07, 8.21229833e-07, 5.47802244e-07,
          -4.78475286e-08, 3.81154422e-07, 1.11591987e-07,
          9.63480375e-07, 1.39675740e-06, 1.12098701e-06,
          -1.41604545e-07, 6.31347064e-07, -1.42438012e-07,
          -3.33723989e-07, 5.37395294e-07, -1.93026892e-07,
          -4.07620803e-07, 4.63498480e-07, -2.66923678e-07,
          -3.98312295e-07, 3.76249744e-07, -3.17800215e-07,
          -3.99705925e-07, 3.74748538e-07, -3.08284342e-07,
          -2.58353225e-07, 4.81335633e-07, -1.25762284e-07,
          4.83567021e-07, 1.23981215e-06, 6.21697211e-07, 2.48282049e-07,
          1.03223522e-06, 4.27239456e-07, -9.36446156e-07,
          -1.52508363e-07, -7.57504154e-07, -4.08243159e-06,
          -3.26570489e-06, -3.97467420e-06, -5.97757480e-06,
          -5.67630059e-06, -5.12467659e-06, -4.15033219e-06,
          -3.36484368e-06, -4.01622947e-06, -2.74419449e-06,
          -1.94768927e-06, -2.61264358e-06, 9.69670850e-07,
          1.68134761e-06, 1.06028426e-06, 1.64465212e-06, 2.35632888e-06,
          1.73520402e-06, 6.86422425e-07, 1.20049731e-06, 6.51449284e-07,
          7.86521298e-07, 1.31549359e-06, 7.25250857e-07, 4.77580670e-07,
          9.93766093e-07, 4.84699342e-07, -1.28692657e-08,
          5.34500657e-07, 2.54338506e-08, -9.62036850e-08,
          4.50214884e-07, -7.85316061e-08, -1.09385141e-07,
          3.79127442e-07, -1.40371014e-07, -1.06423450e-07,
          3.41422464e-07, -1.71921130e-07, -3.39069970e-07,
          1.09014657e-07, -4.04801995e-07, -4.38578326e-07,
          1.35777483e-07, -4.01189027e-07, -5.06137383e-07,
          5.77620476e-08, -4.79204459e-07, -3.66578547e-07,
          1.43228931e-07, -2.89543266e-07, -4.52360695e-07,
          5.98744592e-08, -3.72897716e-07, -5.46138779e-07,
          -7.85697463e-09, -3.67088177e-07, 6.26575797e-07,
          1.19223489e-06, 8.34448429e-07, 2.44091098e-06, 2.96627536e-06,
          2.73028604e-06, 2.91131119e-06, 3.44115301e-06, 3.18803882e-06,
          1.21010862e-06, 1.72739260e-06, 1.56310534e-06,
          -1.39437270e-06, -8.77088780e-07, -1.04137609e-06,
          -8.91138370e-07, -5.61718139e-07, -5.76086620e-07,
          3.73564291e-07, 7.43252770e-07, 6.83107544e-07, 9.68535574e-07,
          1.21796916e-06, 1.24144685e-06, 1.40006546e-06, 1.67902908e-06,
          1.66726841e-06, 8.26606936e-07, 1.22656115e-06, 1.18251023e-06,
          2.06055961e-06, 2.42826854e-06, 2.44078569e-06, 3.50263781e-06,
          3.64714242e-06, 3.78451477e-06, 2.65134031e-06, 2.78543007e-06,
          2.94586084e-06, 1.01282751e-06, 1.19611104e-06, 1.17386571e-06,
          1.93665710e-06, 2.12359350e-06, 2.09769519e-06, 3.40715496e-06,
          3.52306188e-06, 3.56081273e-06, 3.48104936e-06, 3.60231479e-06,
          3.66339100e-06, 2.96816711e-06, 3.16695241e-06, 3.31937144e-06,
          3.09448342e-06, 3.28787564e-06, 3.44776936e-06, 2.73806791e-06,
          2.80944482e-06, 3.14927797e-06, 1.62054801e-06, 1.69192492e-06,
          2.03175796e-06, 1.71463250e-06, 1.67061910e-06, 2.19290564e-06,
          2.66124357e-06, 2.61914238e-06, 3.11813210e-06, 2.72978264e-06,
          2.85084957e-06, 3.32492209e-06, 2.32432149e-06, 2.42227361e-06,
          2.92614277e-06, 1.32516152e-06, 1.39227791e-06, 1.88310935e-06,
          1.76672501e-07, 2.51190329e-07, 7.85331110e-07,
          -2.70031569e-06, -2.56376597e-06, -1.87469061e-06,
          -2.37661038e-06, -2.22311519e-06, -1.55826888e-06,
          -8.67447341e-07, -6.91809760e-07, 6.56409060e-09,
          7.04270406e-07, 8.40547955e-07, 1.58534988e-06, 2.08199936e-06,
          2.17746310e-06, 2.93198627e-06, 2.32423167e-06, 2.40181157e-06,
          3.18905950e-06, 1.46073717e-06, 1.38787027e-06, 2.21609434e-06,
          7.57870851e-07, 7.88494788e-07, 1.59696935e-06,
          -3.11095005e-06, -3.06494894e-06, -2.43425325e-06,
          -1.69083194e-06, -1.62707613e-06, -8.18575472e-07,
          -4.53077575e-07, -4.07584906e-07, 3.60746725e-07,
          -5.88458420e-07, -5.61862123e-07, 2.14537067e-07,
          -1.44364117e-06, -1.40404177e-06, -5.17036142e-07,
          -1.26299528e-06, -1.23421046e-06, -3.15422596e-07,
          1.97159852e-06, 1.98063617e-06, 2.72345937e-06, 4.03989907e-06,
          3.99143710e-06, 4.78994161e-06, 3.86596639e-06, 3.76823027e-06,
          4.24531390e-06, 2.86375416e-06, 2.82078236e-06, 3.29072100e-06,
          1.75902164e-06, 1.55454370e-06, 2.00302702e-06, 2.02898536e-06,
          1.79460937e-06, 2.23508891e-06, 9.22635877e-07, 7.00360090e-07,
          1.23211203e-06, 2.03710715e-06, 1.81539940e-06, 2.30300611e-06,
          2.83311056e-06, 2.91558081e-06, 3.32885725e-06, 1.68413658e-06,
          1.72414764e-06, 2.14014608e-06, 1.14576846e-06, 1.31024797e-06,
          1.61020091e-06, -4.25205235e-06, -4.08577034e-06,
          -3.78884147e-06, -6.77919434e-06, -6.49657113e-06,
          -6.35227661e-06, -7.15444639e-06, -7.97399298e-06,
          -6.67045470e-06, -3.08776976e-06, -2.82338897e-06,
          -2.66733059e-06, 1.41720591e-06, 1.69515431e-06,
          1.82616816e-06, 1.76727394e-06, 2.19836011e-06, 1.98921339e-06,
          2.69562861e-06, 3.12109660e-06, 2.91555466e-06, 3.40307952e-06,
          3.66845552e-06, 3.41382224e-06, 3.12414340e-06, 3.38411201e-06,
          3.13394003e-06, 2.92173900e-06, 3.13039072e-06, 2.86405361e-06,
          2.47027492e-06, 2.68991971e-06, 2.41258954e-06, 1.66222924e-06,
          1.79097958e-06, 1.82499775e-06, 2.23347865e-06, 2.35978609e-06,
          2.39624728e-06, 2.68908911e-06, 3.01648402e-06, 2.98490249e-06,
          1.87050682e-06, 2.18627406e-06, 2.13326916e-06,
          -1.86773278e-07, 9.45930978e-08, 1.11524507e-07,
          -1.06779044e-06, -7.87034821e-07, -7.69492715e-07,
          4.42447458e-07, 9.27797032e-07, 6.96372297e-07, 6.07724417e-07,
          1.09246332e-06, 8.61649312e-07, 1.03287186e-06, 1.55858334e-06,
          1.19545109e-06, 1.00836303e-06, 1.53407450e-06, 1.17094226e-06,
          6.79364632e-07, 1.16872366e-06, 8.93015340e-07, 5.79365746e-07,
          1.06749678e-06, 7.91788409e-07, 2.55681925e-07, 6.10243035e-07,
          4.56832055e-07, 1.45873889e-06, 1.81330006e-06, 1.65988911e-06,
          1.16421006e-07, 9.11890822e-07, 1.29277481e-07,
          -4.09818579e-09, 8.95047776e-07, 1.62569080e-07,
          -7.06881025e-08, 8.19985928e-07, 8.13131891e-08,
          -1.40783447e-08, 7.99217844e-07, 7.02687686e-08,
          -2.56359662e-08, 7.84883468e-07, 6.96359947e-08,
          2.72833120e-07, 1.00455941e-06, 3.91952966e-07, 1.19236950e-06,
          1.97559621e-06, 1.37192865e-06, 1.22380266e-06, 2.01128364e-06,
          1.41301291e-06, -5.89001274e-07, 1.73952500e-07,
          -3.93342503e-07, -4.06936852e-06, -3.59982369e-06,
          -4.44679063e-06, -4.42437431e-06, -3.89209390e-06,
          -4.76221476e-06, -4.45522392e-06, -3.64941184e-06,
          -4.30624823e-06, -2.52149721e-06, -1.71375234e-06,
          -2.36327946e-06, 1.48170113e-06, 2.21955611e-06,
          1.60931143e-06, 1.64013545e-06, 2.40269287e-06, 1.77078289e-06,
          1.27598526e-06, 1.82090741e-06, 1.32098046e-06, 1.90877518e-06,
          2.45369756e-06, 1.95377061e-06, 1.83803536e-06, 2.53961821e-06,
          1.92097946e-06, 1.34191646e-06, 1.78592666e-06, 1.31445893e-06,
          9.04990486e-07, 1.39999622e-06, 9.73621241e-07, 1.92649139e-07,
          6.86235751e-07, 2.73264476e-07, -6.90600857e-08,
          3.93674100e-07, -1.18503657e-07, -5.02139756e-07,
          -4.39018848e-08, -5.57230123e-07, -7.50954712e-07,
          -1.68736108e-07, -7.05687228e-07, -6.62521984e-07,
          -7.47783986e-08, -6.19495154e-07, -5.28549151e-07,
          -1.48759280e-08, -4.47632743e-07, -2.81025564e-07,
          2.32647679e-07, -2.00109142e-07, 6.81339714e-07,
          1.21990911e-06, 8.60693319e-07, 2.15461523e-06, 2.71630051e-06,
          2.37971199e-06, 3.28763986e-06, 3.85870862e-06, 3.61782304e-06,
          3.44163936e-06, 3.96611222e-06, 3.77182255e-06,
          -2.97969308e-07, 1.92817993e-07, 1.68913292e-08,
          -4.83722170e-06, -4.32187062e-06, -4.48615765e-06,
          -5.14087287e-06, -4.90165348e-06, -4.89991453e-06,
          -4.94031747e-06, -4.68979852e-06, -4.57867827e-06,
          -2.42906412e-06, -2.24475752e-06, -2.06328968e-06,
          1.41562884e-06, 1.59851606e-06, 1.68338192e-06, 1.25653094e-06,
          1.61468859e-06, 1.66017173e-06, 1.66552709e-08, 4.20324170e-07,
          4.70364881e-07, -2.36160190e-06, -2.19125059e-06,
          -2.04520438e-06, -2.24706014e-06, -2.08943993e-06,
          -1.83519899e-06, -4.53123721e-06, -4.33393461e-06,
          -4.35387756e-06, -2.71325735e-06, -2.52418840e-06,
          -2.53591725e-06, 1.41508792e-06, 1.52246650e-06,
          1.60433251e-06, 2.25656709e-06, 2.39046358e-06, 2.42320039e-06,
          2.59182025e-06, 2.76525611e-06, 2.96252074e-06, 2.48209631e-06,
          2.63541438e-06, 2.87145053e-06, 2.24310179e-06, 2.33534161e-06,
          2.68617327e-06, 1.45327488e-06, 1.57686361e-06, 1.89247226e-06,
          2.19945173e-06, 2.21921505e-06, 2.71462523e-06, 3.29770637e-06,
          3.33813591e-06, 3.77216315e-06, 3.23573204e-06, 3.33581556e-06,
          3.82868939e-06, 2.63606034e-06, 2.74138824e-06, 3.21330845e-06,
          1.15719092e-06, 1.22544395e-06, 1.74002287e-06,
          -4.43796011e-07, -3.39002952e-07, 1.67029228e-07,
          -6.54954783e-06, -6.38672645e-06, -5.72892986e-06,
          -5.71088412e-06, -5.57075327e-06, -4.86735735e-06,
          -3.06430411e-06, -2.92986738e-06, -2.19457252e-06,
          -4.79824905e-07, -3.16684122e-07, 4.14829060e-07,
          1.78039443e-06, 1.86805801e-06, 2.49863797e-06, 2.09630116e-06,
          2.18741116e-06, 2.91766446e-06, 1.06825701e-06, 1.12958855e-06,
          1.90081903e-06, 1.62994496e-07, 2.87873149e-07, 9.94809625e-07,
          -3.47713035e-06, -3.39876760e-06, -3.36106132e-06,
          -3.45712692e-06, -3.39882399e-06, -3.30427520e-06,
          -3.79242852e-06, -3.64323455e-06, -3.48662638e-06,
          -5.02451803e-06, -4.87995976e-06, -3.48091362e-06,
          -4.28953672e-06, -4.30762157e-06, -3.40164706e-06,
          -3.92792117e-06, -3.86465263e-06, -3.01818341e-06,
          -3.30322723e-06, -3.30812259e-06, -2.49636514e-06,
          -1.63946902e-06, -1.64436460e-06, -8.27700205e-07,
          1.72230557e-06, 1.67933365e-06, 2.12626446e-06, 2.52531459e-06,
          2.43746149e-06, 2.92636651e-06, 2.82351107e-06, 2.59573631e-06,
          3.09993470e-06, 2.75977868e-06, 2.48277024e-06, 2.96081407e-06,
          1.45241984e-06, 1.24082533e-06, 1.79300355e-06, 2.35606399e-06,
          2.15790146e-06, 2.80106224e-06, 3.64623065e-06, 3.75153036e-06,
          4.08799997e-06, 3.03759316e-06, 3.11110875e-06, 3.45699368e-06,
          1.08844847e-06, 1.26892121e-06, 1.56681347e-06,
          -5.33010234e-06, -5.13340819e-06, -4.83753092e-06,
          -7.49174615e-06, -7.25273458e-06, -7.25363680e-06,
          -7.65842469e-06, -7.37074834e-06, -7.40936503e-06,
          -1.77377228e-06, -1.54917154e-06, -1.36257881e-06,
          2.66522375e-06, 2.99183739e-06, 3.07432720e-06, 2.01837338e-06,
          2.41810949e-06, 2.22631365e-06, 2.37494010e-06, 2.75644948e-06,
          2.57186343e-06, 2.79981418e-06, 3.10340988e-06, 2.80297832e-06,
          3.20894446e-06, 3.51254016e-06, 3.21210860e-06, 2.63068819e-06,
          2.85430679e-06, 2.56997509e-06, 2.49574850e-06, 2.71570275e-06,
          2.43503541e-06, 2.89063746e-06, 3.01969703e-06, 3.05037815e-06,
          3.38966629e-06, 3.55275279e-06, 3.61394200e-06, 3.17036074e-06,
          3.54901704e-06, 3.43306192e-06, 3.09595293e-06, 3.37132542e-06,
          3.38054770e-06, -1.52172689e-07, 5.95075207e-08,
          1.67519701e-07, -4.21418281e-06, -3.99042392e-06,
          -3.89848356e-06, -3.30342732e-06, -2.83799955e-06,
          -3.02992498e-06, -1.46889090e-06, -8.46596549e-07,
          -1.07435699e-06, 9.86668624e-07, 1.50932635e-06,
          1.14924774e-06, 2.11096585e-06, 2.63362358e-06, 2.28848285e-06,
          1.44223338e-06, 1.93098163e-06, 1.65588403e-06, 1.14606632e-06,
          1.64087010e-06, 1.34826848e-06, 9.18478634e-07, 1.27254077e-06,
          1.11518193e-06, 2.39331735e-06, 2.74737931e-06, 2.59002059e-06,
          2.54453568e-07, 7.09594133e-07, 3.94222383e-07, 2.49175542e-07,
          8.13416193e-07, 5.31043099e-07, -1.36005966e-07,
          4.39251750e-07, 1.45861620e-07, 2.80773293e-07, 6.86829594e-07,
          5.25338123e-07, 1.58083679e-07, 5.64063157e-07, 4.19728821e-07,
          8.43614487e-07, 1.39711904e-06, 1.13275689e-06, 2.25008534e-06,
          2.75782281e-06, 2.62146523e-06, 2.76906803e-06, 3.32024888e-06,
          3.00159559e-06, -3.66677959e-08, 5.14512976e-07,
          1.89137680e-07, -3.82109965e-06, -3.41098621e-06,
          -2.76636501e-06, -3.84894975e-06, -3.42240492e-06,
          -4.07694779e-06, -1.53834105e-06, -9.83353289e-07,
          -1.37187305e-06, 5.22915911e-07, 1.10857764e-06,
          6.98789847e-07, 2.73092019e-06, 3.15013563e-06, 2.88847150e-06,
          2.12374334e-06, 2.54295878e-06, 2.28126396e-06, 2.55878740e-06,
          2.92323716e-06, 2.54907468e-06, 2.57342413e-06, 3.01019713e-06,
          2.56913791e-06, 2.18697028e-06, 2.50504399e-06, 2.28779095e-06,
          1.91784011e-06, 2.16887861e-06, 1.95346342e-06, 1.16898082e-06,
          1.55574514e-06, 1.20882748e-06, 2.55517136e-07, 6.57894759e-07,
          3.04318661e-07, -9.07977480e-08, 2.31336458e-07,
          -1.69050992e-07, -4.13688412e-07, -8.75803607e-08,
          -4.87967839e-07, -3.64374785e-07, 1.59576473e-07,
          -4.46859104e-07, -5.12951999e-07, 1.79606161e-08,
          -5.88948012e-07, -5.83631170e-08, 3.74959171e-07,
          -1.28453067e-07, 9.16164709e-07, 1.34948698e-06,
          8.46074727e-07, 2.29940224e-06, 2.75078764e-06, 2.38689563e-06,
          3.05318599e-06, 3.50854521e-06, 3.18029834e-06, 3.60816875e-06,
          3.95973120e-06, 3.82586450e-06, 3.80241295e-06, 4.08812184e-06,
          4.01963553e-06, -1.64090397e-06, -1.38332257e-06,
          -1.30266267e-06, -8.41157453e-06, -8.24985727e-06,
          -8.37613698e-06, -8.42527697e-06, -8.41269411e-06,
          -8.39241420e-06, -7.67472284e-06, -7.64686592e-06,
          -7.62503396e-06, -3.78371101e-06, -3.56330884e-06,
          -3.34932997e-06, 1.41230134e-06, 1.69323152e-06,
          1.83357326e-06, 2.02656020e-06, 2.21504570e-06, 2.58029399e-06,
          -1.28309512e-06, -1.10307406e-06, -7.45455907e-07,
          -5.47499849e-06, -5.59436648e-06, -5.40618021e-06,
          -6.35396964e-06, -6.42724262e-06, -6.26436076e-06,
          -8.18533863e-06, -8.29288365e-06, -8.20377682e-06,
          -4.63842071e-06, -4.42105738e-06, -4.14975557e-06,
          9.08190316e-07, 1.03415232e-06, 1.43640614e-06, 1.97310078e-06,
          1.98058933e-06, 2.44082912e-06, 7.99498366e-07, 5.44152556e-07,
          1.31647187e-06, 2.58941412e-07, 5.79548569e-08, 7.49434662e-07,
          5.91466573e-07, 2.81761515e-07, 9.57423936e-07, 2.65575466e-07,
          -5.30153876e-09, 6.22961409e-07, 1.54873169e-06,
          1.36457447e-06, 2.05285005e-06, 2.70632927e-06, 2.51272741e-06,
          3.20098638e-06, 2.68936378e-06, 2.52798600e-06, 3.34330912e-06,
          1.70395026e-06, 1.55173780e-06, 2.31021909e-06,
          -3.20577755e-07, -5.55911811e-07, 2.64261132e-07,
          -2.14430020e-06, -2.32978914e-06, -1.52233406e-06,
          -7.91426828e-06, -8.23846949e-06, -7.71167106e-06,
          -7.71370196e-06, -8.04044339e-06, -7.50163963e-06,
          -3.33891694e-06, -3.43974807e-06, -2.58837235e-06,
          5.07386915e-07, 4.10548978e-07, 1.24084750e-06, 2.64699020e-06,
          2.54979591e-06, 3.40156248e-06, 2.64387290e-06, 2.44528860e-06,
          3.34428887e-06, 8.71458269e-07, 5.41807310e-07, 1.45439583e-06,
          -1.03374668e-06, -1.24816188e-06, -3.11042783e-07,
          -2.96380949e-06, -3.27856173e-06, -2.85941701e-06,
          -3.10001360e-06, -3.39035728e-06, -2.97121255e-06,
          -3.56980399e-06, -3.79533890e-06, -3.15329544e-06,
          -4.42936562e-06, -4.72535612e-06, -4.02644127e-06,
          -5.37976211e-06, -5.64345373e-06, -4.92237132e-06,
          -5.45442390e-06, -5.71902001e-06, -5.07227423e-06,
          -5.48449771e-06, -5.63000549e-06, -4.96694838e-06,
          -5.83518431e-06, -5.99971509e-06, -5.48615662e-06,
          -2.27257738e-06, -2.15777118e-06, -1.79448159e-06,
          6.98186625e-07, 7.56031909e-07, 1.16937235e-06, 1.79167489e-06,
          1.78777850e-06, 2.16945887e-06, 1.30382273e-06, 1.31765501e-06,
          1.68532836e-06, 7.34133181e-08, 1.08614245e-07, 6.18587819e-07,
          -2.44340890e-06, -2.42047963e-06, -1.92431253e-06,
          -4.68325152e-06, -3.48874619e-06, -3.02819717e-06,
          -4.58581690e-06, -4.60985393e-06, -4.25942790e-06,
          -3.81778591e-06, -3.86238162e-06, -3.33170760e-06,
          -7.16273462e-06, -7.11932353e-06, -6.81420806e-06,
          -7.20348680e-06, -7.09138703e-06, -6.89680110e-06,
          -7.19217951e-06, -7.08007974e-06, -6.88265573e-06,
          -4.52243376e-06, -4.39052837e-06, -4.06905292e-06,
          -3.90935384e-06, -3.83152064e-06, -3.45351668e-06,
          -3.99094597e-06, -3.73733110e-06, -3.73672447e-06,
          -2.94675579e-06, -2.68306803e-06, -2.75707976e-06,
          -1.61331320e-06, -1.40711393e-06, -1.63147911e-06,
          1.49989739e-06, 1.70548594e-06, 1.48466870e-06, 2.22890162e-06,
          2.29583065e-06, 2.12503187e-06, 2.98267082e-06, 3.04776745e-06,
          2.87506668e-06, 4.07479365e-06, 3.97683425e-06, 4.02552359e-06,
          4.51725737e-06, 4.40906160e-06, 4.34297044e-06, 4.72191550e-06,
          4.75691240e-06, 4.70566556e-06, 2.63758284e-06, 2.65029189e-06,
          2.56198564e-06, -1.49726918e-06, -1.34287552e-06,
          -1.29770899e-06, -6.13986822e-06, -6.11169162e-06,
          -6.34021308e-06, -6.52986637e-06, -6.46270519e-06,
          -6.79696041e-06, -4.75385013e-06, -4.58314116e-06,
          -4.71961721e-06, -6.76195882e-08, 1.52149042e-07,
          -3.05909675e-09, 2.49903042e-06, 2.71787371e-06,
          2.56615772e-06, 2.31737113e-06, 2.39866790e-06, 2.46778131e-06,
          2.52219547e-06, 2.70161013e-06, 2.67212454e-06, 2.92299296e-06,
          3.21861376e-06, 3.20482286e-06, 3.39210055e-06, 3.68218321e-06,
          3.66654626e-06, 3.01817749e-07, 7.46027240e-07, 4.22954258e-07,
          2.92274564e-07, 8.56515271e-07, 5.75370166e-07,
          -2.25849931e-07, 3.42364586e-07, 5.60176510e-08,
          3.29312485e-07, 7.35368815e-07, 5.70193208e-07, 1.50714158e-07,
          5.56662883e-07, 4.00048322e-07, 1.09063808e-06, 1.49586742e-06,
          1.36500171e-06, 2.63074003e-06, 3.13847727e-06, 2.95559926e-06,
          2.79716050e-06, 3.36482071e-06, 3.04545574e-06,
          -5.20076526e-07, 4.19632187e-08, -2.84509753e-07,
          -3.73130683e-06, -3.32119362e-06, -3.92497304e-06,
          -3.56850501e-06, -3.15839156e-06, -3.79278413e-06,
          -2.70209512e-06, -2.12302734e-06, -2.52864015e-06,
          5.34239120e-07, 9.88420425e-07, 6.85870873e-07,
          -5.10045140e-07, -9.08296016e-08, -3.52509147e-07,
          6.91599155e-07, 1.11081465e-06, 8.49119772e-07, 3.59666797e-06,
          4.00751151e-06, 3.59814112e-06, 2.79344545e-06, 3.18294997e-06,
          2.78365042e-06, 2.04345929e-06, 2.32822845e-06, 2.13403246e-06,
          1.90081437e-06, 2.17939555e-06, 1.94786344e-06, 1.16849867e-06,
          1.53646170e-06, 1.25934230e-06, 3.80905419e-07, 7.68030134e-07,
          4.05306565e-07, 2.97304126e-07, 6.39341238e-07, 2.76058955e-07,
          1.22187615e-07, 4.48295680e-07, 4.79082125e-08,
          -3.79892896e-07, 1.52006010e-07, -4.54429539e-07,
          -5.92543969e-08, 4.71658240e-07, -1.35250389e-07,
          1.35652579e-06, 1.78984806e-06, 1.28643580e-06, 2.71017825e-06,
          3.21793596e-06, 2.66009692e-06, 2.85370061e-06, 3.30508578e-06,
          2.98020177e-06, 3.36996845e-06, 3.82135386e-06, 3.49455172e-06,
          3.85476369e-06, 4.14315718e-06, 4.07293237e-06, 3.29624891e-06,
          3.47300829e-06, 3.41401324e-06, -3.34755487e-06,
          -3.07972573e-06, -2.94042729e-06, -8.99698261e-06,
          -8.82274344e-06, -8.97945392e-06, -8.10646088e-06,
          -8.07420929e-06, -8.03363400e-06, -7.57732550e-06,
          -6.22634298e-06, -6.13355405e-06, -2.47631965e-06,
          -2.20505058e-06, -2.02899605e-06, 2.82914425e-06,
          3.09408983e-06, 3.27048792e-06, 2.66354846e-06, 2.84511157e-06,
          3.19262904e-06, -2.24628729e-06, -2.06625077e-06,
          -1.69759085e-06, -5.27736438e-06, -5.37162532e-06,
          -5.21019729e-06, -7.00473174e-06, -7.08812559e-06,
          -6.91554624e-06, -7.77781861e-06, -7.89145179e-06,
          -7.74540240e-06, -2.79653818e-06, -2.59616854e-06,
          -2.31771287e-06, 2.74493937e-06, 2.86339855e-06,
          3.24001644e-06, 2.05452807e-06, 2.04398953e-06, 2.53500798e-06,
          -1.30558306e-06, -1.55292469e-06, -8.06815876e-07,
          -4.81030247e-06, -5.07295408e-06, -4.28431667e-06,
          -2.22377435e-06, -2.44714010e-06, -1.75299908e-06,
          -1.80181007e-06, -2.07026528e-06, -1.39333690e-06,
          -5.35711990e-07, -8.24850872e-07, -6.50330776e-08,
          6.10892414e-07, 3.67226704e-07, 1.11819440e-06, 7.46444755e-07,
          5.49778292e-07, 1.33491767e-06, -2.59961922e-07,
