%YAML:1.0
---
opencv_ml_svm:
   format: 3
   svmType: C_SVC
   kernel:
      type: LINEAR
   C: 1.
   term_criteria: { iterations:100 }
   var_count: 14058
   class_count: 2
   class_labels: !!opencv-matrix
      rows: 2
      cols: 1
      dt: i
      data: [ -1, 1 ]
   sv_total: 1
   support_vectors:
      - [ -2.93047719e-06, -3.14866588e-06, -3.21498806e-06,
          -1.34116669e-06, -1.53374526e-06, -1.60019772e-06,
          -2.49707318e-06, -2.71057525e-06, -2.73503292e-06,
          -2.91728952e-06, -3.13160172e-06, -3.15668603e-06,
          -3.63149502e-06, -4.39018504e-06, -4.31326816e-06,
          -2.55466080e-06, -2.74833951e-06, -2.69580937e-06,
          3.78826684e-07, 1.59224030e-07, 1.79738407e-07, 3.38080980e-07,
          1.32334250e-07, 1.53234055e-07, 4.01766385e-07, 1.14726163e-07,
          1.78682924e-07, 4.07624839e-07, 1.22206743e-07, 1.87043256e-07,
          3.08465445e-07, 3.28462022e-08, 2.37316172e-07, 4.15315725e-07,
          1.93365892e-07, 3.99083632e-07, 3.70041050e-07, 2.92720017e-07,
          6.56710824e-07, 3.52106554e-07, 2.74935303e-07, 6.40323663e-07,
          2.24993954e-07, 2.39815364e-07, 6.05903040e-07, 2.36335666e-07,
          1.65327108e-07, 5.33922446e-07, 2.56888569e-07, 2.73199475e-07,
          6.90965635e-07, 3.50659434e-07, 3.74405062e-07, 8.04197782e-07,
          3.05155851e-07, 2.78973147e-07, 6.69820452e-07, 3.47350010e-07,
          3.15052517e-07, 6.94193716e-07, 3.76516425e-07, 1.15336100e-07,
          3.19931218e-07, 3.42295323e-07, 7.76653621e-08, 2.89069277e-07,
          4.08737662e-07, 8.25026660e-08, 2.33541627e-07, 4.65440024e-07,
          1.44279340e-07, 2.96139490e-07, 5.14914291e-07, 1.92089118e-07,
          3.59936024e-07, 4.94358687e-07, 1.70981764e-07, 3.30660754e-07,
          5.17580474e-07, 2.28569945e-07, 3.97294514e-07, 5.90250579e-07,
          2.87679825e-07, 4.71184848e-07, 6.59663272e-07, 3.68520659e-07,
          4.98852842e-07, 7.02660770e-07, 3.88584965e-07, 5.22087021e-07,
          7.37680182e-07, 4.54642219e-07, 5.14157648e-07, 7.51784000e-07,
          4.92784807e-07, 5.41826751e-07, 7.84914619e-07, 5.82908115e-07,
          6.18812578e-07, 7.99352563e-07, 5.94144524e-07, 6.30437796e-07,
          8.46955686e-07, 7.34035723e-07, 7.26497774e-07, 8.35899243e-07,
          7.17356158e-07, 7.10374820e-07, 8.43221926e-07, 6.98345048e-07,
          7.07525032e-07, 7.95086464e-07, 6.50023594e-07, 6.43880867e-07,
          8.07665003e-07, 6.70956183e-07, 5.82221389e-07, 7.59919317e-07,
          6.28385067e-07, 5.36774508e-07, 6.49795311e-07, 5.28803355e-07,
          4.44999785e-07, 5.27541602e-07, 4.04709652e-07, 3.20746494e-07,
          4.36483163e-07, 3.26252348e-07, 2.01317064e-07, 4.59088312e-07,
          3.40653088e-07, 2.20213465e-07, 4.33861999e-07, 3.23981851e-07,
          2.36845167e-07, 4.00242499e-07, 2.91217447e-07, 2.04527410e-07,
          3.64001608e-07, 3.33359850e-07, 1.13571183e-07, 3.22713731e-07,
          3.01129745e-07, 7.54072786e-08, 2.51909029e-07, 2.05020143e-07,
          2.57150266e-08, 2.16830443e-07, 1.59019123e-07,
          -1.89237159e-08, 2.22583253e-07, 1.66966757e-07,
          4.03331285e-10, 2.36174998e-07, 1.88987244e-07, 1.88809324e-08,
          2.12968985e-07, 1.88098454e-07, 6.63861712e-08, 1.95942107e-07,
          1.62787444e-07, 4.79598050e-08, 1.93190075e-07, 7.10438783e-08,
          1.67909008e-07, 1.58727630e-07, 3.58966759e-08, 1.29257003e-07,
          1.44084936e-07, -7.07517955e-09, 1.51791411e-07,
          1.82716278e-07, 3.12040704e-08, 1.90070665e-07, 1.96484592e-07,
          1.55678812e-08, 2.58071623e-07, 1.97548005e-07, 1.59548890e-08,
          2.58882352e-07, 1.17701973e-07, 7.16105149e-08, 2.93140999e-07,
          1.68517346e-07, 1.19632489e-07, 3.43956515e-07, 4.16688493e-07,
          3.68024473e-07, 5.95812423e-07, 6.77108630e-07, 6.65464654e-07,
          8.94411130e-07, 5.66464053e-07, 4.67932836e-07, 7.16383511e-07,
          6.32618082e-07, 5.33273237e-07, 7.78129277e-07,
          -3.60749596e-06, -3.68237147e-06, -4.24841164e-06,
          -6.86603357e-07, -7.80412392e-07, -7.73616364e-07,
          -3.39988856e-06, -4.06551226e-06, -3.97982194e-06,
          -4.03758804e-06, -4.06913750e-06, -3.98450766e-06,
          -4.11650035e-06, -4.13298994e-06, -4.07051039e-06,
          -3.02527201e-06, -3.16435012e-06, -3.10193195e-06,
          4.12871287e-07, 2.74032629e-07, 3.08708593e-07, 5.65303367e-07,
          4.22659241e-07, 4.57104591e-07, 4.00495850e-07, 2.93114113e-07,
          3.97128133e-07, 2.11072717e-07, 8.33678371e-08, 1.88411406e-07,
          1.68302051e-07, 8.97476795e-08, 2.88249822e-07, 2.95024307e-07,
          2.67523291e-07, 4.66717012e-07, 2.59392493e-07, 3.15964229e-07,
          6.16336308e-07, 2.19438320e-07, 2.71026352e-07, 5.68320388e-07,
          -2.76142735e-08, 3.70490625e-08, 3.57995873e-07,
          3.28486323e-07, 3.36844352e-07, 6.47475758e-07, 3.01883404e-07,
          4.17475235e-07, 7.24475910e-07, 2.78892287e-07, 4.27420247e-07,
          7.42933935e-07, 1.25239495e-07, 2.05397896e-07, 4.52981737e-07,
          3.43076039e-07, 3.58914917e-07, 6.06995116e-07, 4.31983352e-07,
          1.93504050e-07, 3.98807231e-07, 2.88027024e-07, 5.05814484e-08,
          2.68687330e-07, 2.70984145e-07, 2.72589720e-08, 1.76674320e-07,
          4.12100690e-07, 1.87095992e-07, 3.25321423e-07, 5.04552474e-07,
          2.20995545e-07, 3.44691642e-07, 3.28629341e-07, 5.25586117e-08,
          1.64281985e-07, 7.46793603e-07, 5.05185540e-07, 6.00886835e-07,
          6.64547827e-07, 3.81860076e-07, 4.97452504e-07, 8.01467650e-07,
          5.16959915e-07, 6.34264154e-07, 8.32282410e-07, 5.43357942e-07,
          6.62565810e-07, 7.92726723e-07, 5.17588035e-07, 5.26073620e-07,
          7.86746455e-07, 5.39288123e-07, 5.45656349e-07, 1.11435520e-06,
          8.68797599e-07, 8.74117916e-07, 7.67821405e-07, 5.21489312e-07,
          5.29102920e-07, 9.35901653e-07, 7.60524017e-07, 7.53853442e-07,
          9.69528969e-07, 7.95178664e-07, 7.89637454e-07, 1.08746872e-06,
          9.25844006e-07, 8.88521242e-07, 8.06651258e-07, 6.57983662e-07,
          6.28338910e-07, 6.72918929e-07, 4.92820163e-07, 5.45319892e-07,
          6.44078511e-07, 4.65253919e-07, 4.90620607e-07, 5.94014580e-07,
          4.66534402e-07, 4.51154648e-07, 5.07322284e-07, 3.85681318e-07,
          3.67819013e-07, 4.22516592e-07, 3.55040129e-07, 2.85247864e-07,
          3.49816730e-07, 2.75332070e-07, 2.08945863e-07, 3.55649803e-07,
          3.01996636e-07, 1.82372560e-07, 3.43938922e-07, 2.94144826e-07,
          1.76660464e-07, 3.81873889e-07, 3.52013615e-07, 1.21293311e-07,
          3.48798039e-07, 3.26309419e-07, 9.22731758e-08, 2.74532056e-07,
          2.34601302e-07, 2.84847861e-08, 2.09136431e-07, 1.79734187e-07,
          -2.96771123e-08, 1.72786940e-07, 1.96166184e-07,
          3.38579143e-09, 1.73574676e-07, 2.01088994e-07, 5.27808508e-09,
          1.28621750e-07, 1.32960423e-07, -3.82662186e-08,
          1.24731315e-07, 1.32590543e-07, -3.67614454e-08,
          2.86014995e-07, 3.07703516e-07, 2.55249432e-07, 9.37801232e-08,
          1.18072172e-07, 6.83659138e-08, 1.88011775e-08, 3.91535728e-08,
          6.39230393e-08, 9.01310173e-08, 1.06082211e-07, 1.36036036e-07,
          1.97785624e-07, 1.54607832e-07, 2.97465505e-07, 1.53820181e-07,
          1.09235124e-07, 2.47620562e-07, 8.53024176e-08, 2.47230094e-08,
          1.69681456e-07, 3.44692914e-08, -1.48937884e-08,
          1.26384634e-07, 3.83764387e-07, 3.98637610e-07, 5.73607679e-07,
          5.96095560e-07, 6.53365930e-07, 8.23078096e-07, 6.32469266e-07,
          6.00915939e-07, 7.83244559e-07, 6.41764530e-07, 6.00106944e-07,
          7.80391929e-07, -3.60084528e-06, -4.23086612e-06,
          -4.17543970e-06, -5.00935471e-07, -5.95341589e-07,
          -5.88666808e-07, -3.43782267e-06, -4.08087089e-06,
          -3.99689952e-06, -4.05456103e-06, -4.08532196e-06,
          -4.00148065e-06, -4.02437308e-06, -4.06227491e-06,
          -3.98875591e-06, -2.85921851e-06, -2.99780140e-06,
          -2.93619178e-06, 1.24442977e-06, 1.10638132e-06,
          1.14153272e-06, 1.32378898e-06, 1.18488288e-06, 1.21976325e-06,
          9.32357977e-07, 8.24901520e-07, 9.29681391e-07, 5.01938757e-07,
          3.75420456e-07, 4.80714050e-07, 1.62185984e-07, 8.96387249e-08,
          2.87875139e-07, 2.26261690e-07, 2.04975407e-07, 4.04419154e-07,
          1.18534672e-07, 1.77425548e-07, 4.75137625e-07, 1.19117956e-07,
          1.76452446e-07, 4.72714959e-07, 1.79489064e-07, 2.03940459e-07,
          5.23054780e-07, 4.35653504e-07, 3.46926015e-07, 6.57788007e-07,
          2.90408082e-07, 2.74232860e-07, 5.80698327e-07, 2.24837152e-07,
          2.94909199e-07, 5.91235334e-07, -8.88683900e-08,
          -2.74146092e-08, 2.20500098e-07, 3.83340506e-07,
          3.27605903e-07, 5.75460774e-07, 6.33663149e-07, 3.96081646e-07,
          6.04645209e-07, 4.45954669e-07, 2.09405371e-07, 4.28673673e-07,
          6.95301196e-07, 4.47825812e-07, 6.06639276e-07, 6.53714551e-07,
          4.18739660e-07, 5.69849476e-07, 5.36056064e-07, 2.62593289e-07,
          3.84087173e-07, 4.84700308e-07, 2.15947907e-07, 3.22469504e-07,
          6.24165807e-07, 3.53731394e-07, 4.68957268e-07, 4.54453442e-07,
          1.72614278e-07, 2.76968734e-07, 5.76836783e-07, 3.01033737e-07,
          4.08084219e-07, 7.66362405e-07, 4.83085671e-07, 6.00147075e-07,
          8.84856206e-07, 5.97784549e-07, 6.01016438e-07, 7.95361700e-07,
          5.51757068e-07, 5.54199346e-07, 8.45814611e-07, 6.02859757e-07,
          6.06054471e-07, 7.02818284e-07, 4.50496088e-07, 4.42175804e-07,
          8.54283314e-07, 6.80130086e-07, 6.71288660e-07, 8.16588056e-07,
          6.30334114e-07, 6.04192735e-07, 9.13481244e-07, 7.50339325e-07,
          7.05747027e-07, 8.15507633e-07, 6.54369217e-07, 6.18237891e-07,
          8.13085762e-07, 6.41875943e-07, 6.81387121e-07, 8.75482954e-07,
          7.02108480e-07, 7.50819765e-07, 7.77726882e-07, 6.67893403e-07,
          6.44448164e-07, 6.40808139e-07, 5.06735716e-07, 5.02032265e-07,
          4.82777750e-07, 4.13042699e-07, 3.45174044e-07, 3.97327341e-07,
          3.14844300e-07, 2.34460970e-07, 4.35727117e-07, 3.82423991e-07,
          2.68448645e-07, 3.51157780e-07, 3.02281364e-07, 1.62005051e-07,
          3.41694061e-07, 3.24774817e-07, 8.48787636e-08, 3.17099335e-07,
          2.84582029e-07, 2.85507138e-08, 3.07698002e-07, 2.74225044e-07,
          5.80851882e-08, 2.10076365e-07, 1.72390457e-07,
          -4.15057357e-08, 1.65690196e-07, 1.93794648e-07,
          -1.07579723e-09, 1.53966582e-07, 1.61066438e-07,
          -3.11495150e-08, 9.87877513e-08, 1.12097389e-07,
          -6.09445223e-08, 1.39911691e-07, 1.48286702e-07,
          -2.10529141e-08, 1.00046996e-07, 1.30943789e-07,
          7.40238164e-08, 6.85969468e-08, 9.80466979e-08, 4.31827409e-08,
          2.12191278e-08, 3.06416119e-08, 5.54183828e-08, 7.27617291e-08,
          8.87129303e-08, 1.11986459e-07, 2.50629824e-07, 2.08831636e-07,
          3.53682026e-07, 1.59517910e-07, 1.24820957e-07, 2.42269863e-07,
          8.50505586e-08, 3.24496163e-08, 1.78103861e-07, 1.07962308e-07,
          5.10756557e-08, 1.95953277e-07, 9.68347038e-08, 9.87588251e-08,
          2.73779051e-07, 3.49587964e-07, 3.50945044e-07, 5.24456823e-07,
          4.66449251e-07, 4.46639092e-07, 6.25739290e-07, 4.19779127e-07,
          4.06041380e-07, 5.77689320e-07, -4.18607351e-06,
          -4.21904906e-06, -4.15411250e-06, -1.60591966e-07,
          -2.62486822e-07, -1.96043416e-07, -4.23345318e-06,
          -4.21639970e-06, -4.14930537e-06, -4.10903885e-06,
          -4.11766268e-06, -4.04925095e-06, -4.07291009e-06,
          -4.06182153e-06, -3.97835402e-06, -2.85411920e-06,
          -2.91555193e-06, -2.78323114e-06, 1.65568804e-06,
          1.56187548e-06, 1.62891592e-06, 1.72320529e-06, 1.67967096e-06,
          1.72225612e-06, 1.01269438e-06, 9.06167315e-07, 1.02886258e-06,
          2.42733194e-08, -1.00896933e-07, 2.22717347e-08,
          1.02440474e-07, 9.24453580e-09, 1.80746113e-07, 1.42748590e-07,
          5.08134583e-08, 2.22490840e-07, -6.25620000e-09,
          -9.71662999e-08, 1.44787791e-07, -1.26499478e-08,
          -7.71870461e-08, 1.62538697e-07, 4.58110662e-07,
          3.55795407e-07, 4.78928030e-07, 5.07673292e-07, 4.13162468e-07,
          5.39905443e-07, -1.08333282e-07, -1.70652413e-07,
          -5.38986704e-08, -1.14186889e-07, -2.02803619e-07,
          -8.33775999e-08, 1.44636232e-08, -4.74679069e-08,
          3.41421043e-08, 4.69558245e-07, 3.94588966e-07, 4.77089827e-07,
          6.91594551e-07, 5.53871416e-07, 5.48333901e-07, 8.60249713e-07,
          6.77230275e-07, 7.19420711e-07, 6.99571331e-07, 4.99264445e-07,
          6.09104632e-07, 4.00857999e-07, 2.03487119e-07, 3.14156580e-07,
          3.50154693e-07, 7.99461688e-08, 1.64849368e-07, 5.18025900e-07,
          2.66653132e-07, 3.42718522e-07, 4.80579388e-07, 2.32609480e-07,
          3.02200675e-07, 4.48732749e-07, 1.88693235e-07, 2.34219385e-07,
          5.63709136e-07, 3.08838850e-07, 3.66474751e-07, 5.27635109e-07,
          2.65288435e-07, 3.41178264e-07, 6.05047148e-07, 3.14882044e-07,
          3.16276555e-07, 8.65492495e-07, 5.96330381e-07, 6.14789997e-07,
          6.72032058e-07, 4.19249432e-07, 4.36918356e-07, 7.50509344e-07,
          4.99195437e-07, 5.17886235e-07, 9.03483738e-07, 7.25340499e-07,
          7.27699216e-07, 1.10134499e-06, 9.13214762e-07, 9.14470320e-07,
          1.20920402e-06, 1.03849868e-06, 1.03699415e-06, 1.23199879e-06,
          1.05281003e-06, 1.04704145e-06, 1.10425810e-06, 9.29689577e-07,
          9.47852641e-07, 1.06463551e-06, 8.97614484e-07, 9.19525917e-07,
          1.04806895e-06, 9.83944346e-07, 9.73458782e-07, 1.26534258e-06,
          1.20414722e-06, 1.18263495e-06, 1.22263918e-06, 1.24444989e-06,
          1.15715227e-06, 9.80488494e-07, 9.73396482e-07, 8.93382605e-07,
          8.40118673e-07, 8.16384045e-07, 7.01360648e-07, 5.90800710e-07,
          5.67062045e-07, 4.52042684e-07, 3.50042598e-07, 3.59128819e-07,
          1.68877762e-07, 3.54292069e-07, 3.65291584e-07, 1.72629115e-07,
          3.68243690e-07, 4.01718751e-07, 1.89423474e-07, 2.56201645e-07,
          2.95276919e-07, 5.73855274e-08, 2.15733181e-07, 2.02771588e-07,
          6.61022526e-08, 1.92312029e-07, 1.79089938e-07, 4.05335783e-08,
          6.38908872e-08, 8.48160653e-08, 4.76372719e-08, 1.08728756e-07,
          1.25339113e-07, 8.80356481e-08, 1.12482923e-07, 1.22947924e-07,
          1.00721522e-07, 1.06247079e-07, 1.03218476e-07, 8.51913526e-08,
          2.71992597e-08, 7.71328246e-08, 8.26648900e-08,
          -7.07399721e-08, -2.07869668e-08, -2.13475211e-08,
          -7.68971642e-09, -2.10127311e-08, 9.45512468e-08,
          3.17561355e-09, -1.01668389e-08, 1.05539868e-07,
          5.54358905e-08, 1.32385543e-08, 1.73383398e-07, 1.57528348e-07,
          1.12843672e-07, 2.62305804e-07, 9.68887406e-08, 7.13673600e-08,
          2.36110566e-07, 1.33785150e-07, 1.24867015e-07, 2.83406649e-07,
          2.57916696e-07, 2.75512548e-07, 4.54895911e-07, 5.51233882e-07,
          5.69479653e-07, 7.46829471e-07, -4.07230846e-06,
          -4.08769074e-06, -4.02382602e-06, 8.12457017e-08,
          3.97331164e-08, 4.99048873e-08, -4.15029945e-06,
          -4.14967553e-06, -4.07990501e-06, -3.97572012e-06,
          -3.95879124e-06, -3.88922672e-06, -3.91969434e-06,
          -3.90975856e-06, -3.82617009e-06, -2.70355940e-06,
          -2.71213662e-06, -2.57977536e-06, 1.44602927e-06,
          1.35305663e-06, 1.42069371e-06, 1.54582767e-06, 1.45444142e-06,
          1.52192877e-06, 6.85180567e-07, 5.60686203e-07, 6.83897269e-07,
          -5.34935396e-07, -6.57991166e-07, -5.34782032e-07,
          -1.16180900e-06, -1.25482006e-06, -1.08350332e-06,
          -1.06290190e-06, -1.15465218e-06, -9.83159680e-07,
          -1.10800431e-06, -1.16493402e-06, -8.94463824e-07,
          -1.01226465e-06, -1.07337178e-06, -8.35193418e-07,
          -7.56127008e-07, -8.54422865e-07, -7.32547107e-07,
          -7.18082106e-07, -8.21115691e-07, -6.97983069e-07,
          -1.02389754e-06, -1.08860047e-06, -9.76036063e-07,
          -1.01242506e-06, -1.06588971e-06, -9.49458013e-07,
          -7.57622729e-07, -8.29607302e-07, -7.50677941e-07,
          -1.75224713e-07, -2.37460128e-07, -1.56062001e-07,
          2.10962114e-07, 5.75614258e-08, 5.13253084e-08, 8.36821812e-07,
          6.99143015e-07, 6.97113876e-07, 8.84626274e-07, 7.00363671e-07,
          7.89007004e-07, 7.40494102e-07, 5.46845911e-07, 6.44580552e-07,
          6.01658314e-07, 3.31449797e-07, 4.04355461e-07, 7.44593592e-07,
          4.90006755e-07, 5.69286215e-07, 5.84651616e-07, 3.35816082e-07,
          4.00000005e-07, 5.82184327e-07, 3.22628040e-07, 3.44597225e-07,
          5.99643272e-07, 3.46972115e-07, 4.03918449e-07, 5.97877886e-07,
          3.49967763e-07, 4.09390225e-07, 9.16667204e-07, 6.33639104e-07,
          6.22102391e-07, 1.25809800e-06, 9.73347255e-07, 9.53489916e-07,
          1.31981494e-06, 1.05995127e-06, 1.07328071e-06, 1.18228741e-06,
          9.32749174e-07, 9.48730872e-07, 1.09957966e-06, 9.19717650e-07,
          9.20155571e-07, 1.43340787e-06, 1.29936916e-06, 1.29112232e-06,
          1.42339593e-06, 1.23133736e-06, 1.20958907e-06, 1.43167313e-06,
          1.24287453e-06, 1.23333223e-06, 1.36580059e-06, 1.21002017e-06,
          1.21071798e-06, 1.12902512e-06, 9.86054147e-07, 1.00360216e-06,
          1.30447484e-06, 1.27590897e-06, 1.24695180e-06, 1.68242047e-06,
          1.60634067e-06, 1.57504542e-06, 1.73680792e-06, 1.73066576e-06,
          1.60815023e-06, 1.37466702e-06, 1.37480561e-06, 1.28764441e-06,
          6.99892155e-07, 6.64468359e-07, 5.37577307e-07, 9.62865215e-07,
          9.29229600e-07, 8.22545871e-07, 6.80053006e-07, 6.86816179e-07,
          4.97754343e-07, 6.48400885e-07, 6.65775531e-07, 4.66385814e-07,
          4.91108267e-07, 5.31057481e-07, 3.11935963e-07, 3.33538452e-07,
          3.80109128e-07, 1.48686510e-07, 2.75151933e-07, 2.56606711e-07,
          1.19069519e-07, 3.01897757e-07, 2.95140808e-07, 1.49415087e-07,
          1.53345894e-07, 1.86092421e-07, 1.31707182e-07, 1.82134315e-07,
          2.10211212e-07, 1.67829455e-07, 2.26698674e-07, 2.19991719e-07,
          2.01644326e-07, 2.81704814e-07, 2.82193724e-07, 2.69776251e-07,
          1.24450821e-07, 1.74726424e-07, 1.73825953e-07, 1.05236211e-07,
          1.54927278e-07, 1.55970596e-07, 1.71831616e-07, 1.58889506e-07,
          2.69267161e-07, 2.54424577e-07, 2.41121000e-07, 3.51331977e-07,
          2.37957693e-07, 1.96082951e-07, 3.49048861e-07, 2.82430818e-07,
          2.40150143e-07, 4.25534751e-07, 2.76426988e-07, 2.58810019e-07,
          4.20051464e-07, 1.32337590e-07, 1.11791643e-07, 2.71980298e-07,
          3.30063017e-07, 3.46411412e-07, 5.23734457e-07, 8.90267984e-07,
          8.92478852e-07, 1.08239408e-06, -1.53092219e-06,
          -1.64336268e-06, -1.57176510e-06, 2.90377358e-07,
          1.98155973e-07, 2.59391584e-07, -1.44899946e-06,
          -1.51317397e-06, -1.42849547e-06, -1.06794516e-06,
          -1.16874514e-06, -1.07252868e-06, -2.02210913e-06,
          -2.06613026e-06, -1.88797583e-06, -6.92136382e-07,
          -6.90308809e-07, -5.25670998e-07, 1.46922707e-06,
          1.62930496e-06, 1.96194196e-06, 1.49022014e-06, 1.62278604e-06,
          1.95475764e-06, 7.87173519e-07, 8.44273984e-07, 1.18251444e-06,
          -1.74319189e-06, -1.66424718e-06, -1.32608966e-06,
          -3.95415918e-06, -3.91790809e-06, -3.75025206e-06,
          -3.76610865e-06, -3.74341676e-06, -3.63469985e-06,
          -3.68922406e-06, -3.61981824e-06, -3.51251902e-06,
          -3.45231365e-06, -3.39926123e-06, -3.29191835e-06,
          -3.45089552e-06, -3.20501044e-06, -2.98607074e-06,
          -3.82021881e-06, -3.56667510e-06, -3.26316103e-06,
          -3.50304140e-06, -3.96478481e-06, -3.14302360e-06,
          -3.40048109e-06, -3.35780942e-06, -3.09834491e-06,
          -2.83408735e-06, -2.92095342e-06, -2.80421204e-06,
          -2.58169166e-06, -2.62621597e-06, -2.54865927e-06,
          -2.23012330e-06, -2.46729974e-06, -2.49340087e-06,
          -1.05190588e-06, -1.26072064e-06, -1.29368800e-06,
          1.01574358e-06, 8.56565521e-07, 9.02325951e-07, 1.16267563e-06,
          1.00349757e-06, 1.04986418e-06, 9.85366228e-07, 7.79468792e-07,
          8.15300382e-07, 8.76962304e-07, 6.87282125e-07, 6.92677986e-07,
          8.73763327e-07, 6.76875118e-07, 6.72748456e-07, 7.75882711e-07,
          5.57400028e-07, 5.29994793e-07, 9.14152793e-07, 6.85198188e-07,
          7.00092926e-07, 1.10285282e-06, 8.74802140e-07, 8.93506694e-07,
          1.56453200e-06, 1.26379655e-06, 1.23920404e-06, 1.40057887e-06,
          1.09275015e-06, 1.07143876e-06, 1.50370772e-06, 1.17587285e-06,
          1.15847922e-06, 1.63591824e-06, 1.31767160e-06, 1.36066831e-06,
          1.50920869e-06, 1.25650149e-06, 1.25477470e-06, 1.77575487e-06,
          1.57379634e-06, 1.56742840e-06, 1.73726812e-06, 1.52763096e-06,
          1.49371022e-06, 1.92098128e-06, 1.70018552e-06, 1.67269002e-06,
          2.01891930e-06, 1.88437286e-06, 1.89061745e-06, 1.05020638e-06,
          1.02005447e-06, 1.04550884e-06, -3.51697338e-07,
          -2.58068866e-07, -1.45956349e-07, -5.22323944e-07,
          -4.36503143e-07, -3.12681408e-07, -5.98057397e-07,
          -4.05485991e-07, -2.58651738e-07, -7.54761743e-07,
          -5.49913011e-07, -4.02066860e-07, -7.95720666e-07,
          -6.51047685e-07, -6.19106970e-07, 1.27498424e-06,
          1.27789554e-06, 1.28916633e-06, 1.33638650e-06, 1.40077725e-06,
          1.19092977e-06, 1.32908269e-06, 1.38190853e-06, 1.16689284e-06,
          9.70012820e-07, 1.08139864e-06, 8.17070486e-07, 5.83716087e-07,
          6.63302558e-07, 4.38346888e-07, 3.76314688e-07, 4.33176524e-07,
          3.84052072e-07, 4.97151518e-07, 5.64529046e-07, 5.10050427e-07,
          4.54795185e-07, 4.68140144e-07, 4.49364961e-07, 3.73878038e-07,
          3.65710946e-07, 3.86223235e-07, 3.00261462e-07, 3.62739883e-07,
          3.98332844e-07, 3.75312226e-07, 4.38610670e-07, 4.38217256e-07,
          4.68153928e-07, 4.57927683e-07, 5.34696198e-07, 4.76570136e-07,
          4.65962273e-07, 5.43657848e-07, 5.80764549e-07, 5.89285094e-07,
          7.11781752e-07, 5.81226061e-07, 5.89032368e-07, 7.10025233e-07,
          5.64332993e-07, 5.23940855e-07, 6.60175999e-07, 3.85594149e-07,
          3.45064791e-07, 4.81261111e-07, 3.97313698e-07, 3.72283012e-07,
          5.18993716e-07, 4.20760131e-07, 3.93938961e-07, 5.71737644e-07,
          4.23107281e-07, 4.66896125e-07, 7.15277110e-07,
          -2.29809515e-07, -1.88062643e-07, -1.30770506e-09,
          -9.66618131e-07, -1.06038692e-06, -9.97603934e-07,
          5.42244209e-07, 4.26274170e-07, 5.01401360e-07, 2.01108878e-06,
          1.93870778e-06, 2.03676223e-06, 2.00510794e-06, 1.89927982e-06,
          1.99549618e-06, 1.17309651e-06, 1.16052195e-06, 1.32841137e-06,
          1.62381139e-06, 1.62245249e-06, 1.78709035e-06, 1.46650257e-06,
          1.60177865e-06, 1.95588200e-06, 1.42235194e-06, 1.54664860e-06,
          1.87866056e-06, 8.13722522e-07, 8.65937920e-07, 1.20421873e-06,
          -1.57944521e-06, -1.52481084e-06, -1.18554090e-06,
          -3.92948596e-06, -3.85332214e-06, -3.68455380e-06,
          -3.78307300e-06, -3.73082094e-06, -3.62051628e-06,
          -3.63414711e-06, -3.56763394e-06, -3.45825219e-06,
          -3.33421417e-06, -3.27093835e-06, -3.16101659e-06,
          -3.32699142e-06, -3.08301151e-06, -2.84249563e-06,
          -3.67240978e-06, -3.38366772e-06, -3.11033000e-06,
          -3.85164412e-06, -3.66878817e-06, -3.47722039e-06,
          -3.92962102e-06, -3.72940963e-06, -3.53064775e-06,
          -3.65228766e-06, -3.57976455e-06, -3.56222722e-06,
          -3.86639476e-06, -3.81935070e-06, -3.79483504e-06,
          -3.91186495e-06, -3.95538746e-06, -4.01745456e-06,
          -2.32846742e-06, -2.53730150e-06, -2.55802411e-06,
          1.51816107e-06, 1.35439711e-06, 1.40347709e-06, 1.61100536e-06,
          1.44726073e-06, 1.48565175e-06, 1.49958203e-06, 1.30699857e-06,
          1.31550905e-06, 1.18920400e-06, 9.67516371e-07, 1.00663408e-06,
          1.72500813e-06, 1.50019616e-06, 1.52189580e-06, 1.52182633e-06,
          1.26495206e-06, 1.28864008e-06, 1.88566344e-06, 1.62893650e-06,
          1.67150142e-06, 2.10497615e-06, 1.88939146e-06, 1.93687288e-06,
          2.45117440e-06, 2.21799996e-06, 2.16927219e-06, 2.21123855e-06,
          1.86968362e-06, 1.83623183e-06, 2.02003662e-06, 1.64722155e-06,
          1.62982792e-06, 2.14017291e-06, 1.78022697e-06, 1.80056702e-06,
          1.85701947e-06, 1.59831677e-06, 1.57540296e-06, 1.97204940e-06,
          1.70269720e-06, 1.70249666e-06, 1.67005931e-06, 1.42341685e-06,
          1.40902023e-06, 2.05444985e-06, 1.80644054e-06, 1.79334677e-06,
          1.73735305e-06, 1.59328306e-06, 1.62351057e-06, 3.32786897e-07,
          2.93434852e-07, 3.48710984e-07, -2.17172078e-06,
          -2.03423519e-06, -1.91091158e-06, -2.62925550e-06,
          -2.91157517e-06, -2.78775360e-06, -2.79529627e-06,
          -2.96963594e-06, -2.78126549e-06, -2.85458896e-06,
          -3.01523391e-06, -2.88377169e-06, -2.26000725e-06,
          -2.12804002e-06, -2.11519432e-06, 7.45423051e-07,
          7.92685171e-07, 7.94763821e-07, 2.07785592e-06, 2.11315410e-06,
          1.89067600e-06, 1.94040967e-06, 1.97744771e-06, 1.76698109e-06,
          1.53846270e-06, 1.60282661e-06, 1.37343193e-06, 1.01183969e-06,
          1.06446680e-06, 8.26480971e-07, 8.08083200e-07, 8.29871340e-07,
          7.70161421e-07, 9.52024436e-07, 1.02872320e-06, 9.90094350e-07,
          8.71168993e-07, 8.72805231e-07, 8.43810767e-07, 5.92068375e-07,
          5.76256298e-07, 5.30542252e-07, 3.20593017e-07, 3.76889687e-07,
          3.42476852e-07, 3.95393783e-07, 4.46898071e-07, 4.29369720e-07,
          4.25993932e-07, 4.59889833e-07, 5.22832238e-07, 5.31354658e-07,
          5.13568011e-07, 5.76220941e-07, 5.86879196e-07, 5.86163708e-07,
          6.95789367e-07, 7.99539180e-07, 8.00011435e-07, 9.40372161e-07,
          9.65081540e-07, 9.11151233e-07, 1.03952016e-06, 6.50470952e-07,
          6.08728669e-07, 7.44905549e-07, 5.99196142e-07, 5.77698529e-07,
          7.36787740e-07, 8.48634613e-07, 8.18611227e-07, 1.01297007e-06,
          1.01748958e-06, 1.04583444e-06, 1.29168063e-06, 2.37320535e-07,
          2.63703981e-07, 4.73394522e-07, -3.86424654e-06,
          -3.91989943e-06, -3.81520158e-06, -2.97202678e-06,
          -3.02772014e-06, -2.96349913e-06, -2.47293741e-07,
          -1.89533381e-07, -8.46304360e-08, 1.23892471e-06,
          1.24450014e-06, 1.34925335e-06, 1.48409219e-06, 1.52122038e-06,
          1.73767489e-06, 1.36890833e-06, 1.41066710e-06, 1.62547371e-06,
          9.18735338e-07, 1.13392866e-06, 1.58428975e-06, 8.16538943e-07,
          1.04507126e-06, 1.46775062e-06, 3.94405845e-07, 5.32850549e-07,
          9.31013631e-07, -1.48465472e-06, -1.34690231e-06,
          -9.47750095e-07, -3.84458826e-06, -3.81349105e-06,
          -3.61575098e-06, -3.68679343e-06, -3.69045938e-06,
          -3.58389457e-06, -3.61580487e-06, -3.56181772e-06,
          -3.47871105e-06, -3.34501919e-06, -3.28673377e-06,
          -3.20102413e-06, -3.46440606e-06, -3.23449717e-06,
          -2.92321988e-06, -3.61566595e-06, -3.41423993e-06,
          -3.12741076e-06, -3.83446513e-06, -3.55785096e-06,
          -3.34234596e-06, -3.67684902e-06, -3.39775556e-06,
          -3.18397474e-06, -3.48032040e-06, -3.27354292e-06,
          -3.19817809e-06, -3.74315232e-06, -3.63162417e-06,
          -3.54790700e-06, -3.76408298e-06, -3.67943744e-06,
          -3.65363871e-06, -1.62518370e-06, -1.65806682e-06,
          -1.63861864e-06, 2.16637545e-06, 1.96675569e-06,
          1.96597512e-06, 2.01886064e-06, 1.86723480e-06, 1.84974067e-06,
          1.86084651e-06, 1.74133595e-06, 1.68513350e-06, 1.36815981e-06,
          1.24645453e-06, 1.20376615e-06, 2.01003922e-06, 1.88208503e-06,
          1.80668826e-06, 8.51358436e-07, 6.71086354e-07, 6.23679171e-07,
          8.40012831e-07, 6.41193594e-07, 6.15598083e-07, 1.28004615e-06,
          1.02706701e-06, 1.00282011e-06, 1.32744970e-06, 1.07327480e-06,
          1.04165815e-06, 1.14547595e-06, 8.82382551e-07, 8.25027882e-07,
          1.27919623e-06, 1.02555634e-06, 9.59791805e-07, 2.21636333e-06,
          1.98198268e-06, 1.91487925e-06, 2.39715337e-06, 2.22241374e-06,
          2.14262263e-06, 2.40556847e-06, 2.21529785e-06, 2.17099091e-06,
          1.50601693e-06, 1.35898233e-06, 1.26795044e-06, 2.10688177e-06,
          1.94250356e-06, 1.85434703e-06, 2.27017358e-06, 2.24420887e-06,
          2.12101668e-06, 1.47751473e-06, 1.51772281e-06, 1.39502868e-06,
          -1.76669107e-06, -1.49386597e-06, -1.47014009e-06,
          -2.92437062e-06, -2.40878239e-06, -2.34582785e-06,
          -3.04828995e-06, -2.44000375e-06, -2.33685319e-06,
          -3.24245570e-06, -2.65984750e-06, -2.55502800e-06,
          -2.60871548e-06, -2.87831563e-06, -2.89357058e-06,
          1.13741385e-06, 1.20608024e-06, 1.18608432e-06, 2.45365140e-06,
          2.54264614e-06, 2.42826763e-06, 2.41241605e-06, 2.53851545e-06,
          2.44431976e-06, 1.93168557e-06, 2.01431908e-06, 1.94607992e-06,
          1.38601831e-06, 1.48686559e-06, 1.40356428e-06, 1.18832463e-06,
          1.28395163e-06, 1.29004047e-06, 1.37902123e-06, 1.42333249e-06,
          1.47966296e-06, 1.07568064e-06, 1.15398757e-06, 1.19391541e-06,
          5.88609453e-07, 6.28254270e-07, 6.68182111e-07, 4.52400997e-07,
          4.78161155e-07, 5.22658752e-07, 4.90761920e-07, 5.17342244e-07,
          5.59444175e-07, 3.78320976e-07, 3.95828664e-07, 4.50838485e-07,
          4.78154902e-07, 4.95486518e-07, 5.49905963e-07, 4.50600425e-07,
          4.19182413e-07, 5.51915093e-07, 6.82104712e-07, 6.51033758e-07,
          7.87820511e-07, 9.49262187e-07, 9.21874346e-07, 1.08237589e-06,
          1.21623600e-07, 1.08761057e-07, 2.70733977e-07, 2.50009293e-07,
          2.13725684e-07, 4.03951930e-07, 6.42703640e-07, 6.08333210e-07,
          7.97495886e-07, 1.12218527e-06, 1.24910957e-06, 1.47898083e-06,
          5.26183499e-07, 6.40710766e-07, 8.67539882e-07,
          -4.00274348e-06, -4.01909210e-06, -3.95707502e-06,
          -3.91209687e-06, -3.96779024e-06, -3.90356945e-06,
          -3.70255634e-06, -3.65492519e-06, -3.55156953e-06,
          -5.57876206e-07, -5.52300776e-07, -4.47547592e-07,
          9.90855142e-07, 1.02794297e-06, 1.24495364e-06, 9.77183390e-07,
          1.04821459e-06, 1.28176828e-06, 1.05319270e-06, 1.25183772e-06,
          1.71638965e-06, 8.02544207e-07, 1.04339688e-06, 1.45305137e-06,
          5.47405421e-07, 7.02535317e-07, 1.10228405e-06,
          -1.13836893e-06, -1.03081061e-06, -6.29079580e-07,
          -3.44364958e-06, -3.40589759e-06, -3.25998576e-06,
          -3.38224618e-06, -3.36421976e-06, -3.28630472e-06,
          -3.33882781e-06, -3.38140057e-06, -3.30539319e-06,
          -3.22405094e-06, -3.16722412e-06, -3.09121151e-06,
          -3.43749957e-06, -3.17031049e-06, -2.90265598e-06,
          -3.42428075e-06, -3.19794685e-06, -2.82839619e-06,
          -3.33133767e-06, -3.05591243e-06, -2.82644123e-06,
          -3.03922525e-06, -2.75187949e-06, -2.52675181e-06,
          -2.86132990e-06, -2.62546223e-06, -2.54267297e-06,
          -3.21477523e-06, -3.04789478e-06, -2.96262874e-06,
          -3.28785973e-06, -3.26015629e-06, -3.26426334e-06,
          -8.30527711e-07, -8.64905246e-07, -8.59784336e-07,
          3.28684473e-06, 3.32831632e-06, 3.26230656e-06, 3.26835425e-06,
          3.11475424e-06, 3.07517485e-06, 2.68000622e-06, 2.55632040e-06,
          2.50477933e-06, 1.77114657e-06, 1.65556776e-06, 1.59431170e-06,
          1.27800320e-06, 1.14426825e-06, 1.09882967e-06,
          -1.01669877e-06, -1.18759249e-06, -1.22626022e-06,
          -1.98213320e-06, -2.23728966e-06, -2.25978692e-06,
          -1.87618014e-06, -2.11433780e-06, -2.18489549e-06,
          -2.70787564e-06, -2.70374903e-06, -2.74761646e-06,
          -1.89764023e-06, -2.68879876e-06, -2.70996702e-06,
          -7.07742686e-07, -8.75816283e-07, -9.88271040e-07,
          1.63776679e-06, 1.40190275e-06, 1.28805925e-06, 2.89797572e-06,
          2.80793711e-06, 2.68132499e-06, 2.63030574e-06, 2.45424849e-06,
          2.36821325e-06, 1.99094256e-06, 1.87037449e-06, 1.75923390e-06,
          2.52177483e-06, 2.43560999e-06, 2.28060276e-06, 2.44280000e-06,
          2.51517872e-06, 2.37437371e-06, 2.06254367e-06, 2.11168208e-06,
          1.97029226e-06, -1.59781223e-06, -1.35009691e-06,
          -1.31886452e-06, -2.69820202e-06, -2.20265702e-06,
          -2.13271414e-06, -3.05186109e-06, -2.46926402e-06,
          -2.31074205e-06, -3.16134538e-06, -2.58539808e-06,
          -2.46545278e-06, -2.31288664e-06, -2.11316546e-06,
          -2.73240425e-06, 1.64394385e-06, 1.86433317e-06,
          1.83085274e-06, 2.89705827e-06, 3.01240925e-06, 2.92260256e-06,
          2.84947828e-06, 3.00571719e-06, 2.90528487e-06, 2.49436835e-06,
          2.58559248e-06, 2.51721644e-06, 2.04776074e-06, 2.15469959e-06,
          2.08647543e-06, 1.76898243e-06, 1.80372547e-06, 1.86237401e-06,
          1.58644093e-06, 1.64121536e-06, 1.73434955e-06, 1.17570073e-06,
          1.24642952e-06, 1.29880652e-06, 5.45530668e-07, 6.21505706e-07,
          6.65024913e-07, 4.85240037e-07, 4.97498831e-07, 5.61776858e-07,
          5.49549043e-07, 5.73477394e-07, 6.29653641e-07, 5.18752245e-07,
          5.36083860e-07, 5.89253659e-07, 6.24445875e-07, 6.44342720e-07,
          6.98036956e-07, 3.16374894e-07, 2.84961885e-07, 4.22090721e-07,
          -9.68097780e-08, -1.26326512e-07, 8.90604746e-09,
          -7.26291375e-07, -7.51145024e-07, -5.78389233e-07,
          -1.50374262e-06, -1.51476513e-06, -1.29752345e-06,
          -1.78123082e-06, -1.79609208e-06, -1.59922786e-06,
          -1.38140479e-06, -1.43487580e-06, -1.23234327e-06,
          -9.30396368e-07, -8.50290576e-07, -6.24606628e-07,
          -1.52793575e-06, -1.48911761e-06, -1.24161693e-06,
          -4.04086040e-06, -4.05642459e-06, -4.02218529e-06,
          -3.83633142e-06, -3.85438625e-06, -3.81665996e-06,
          -3.51925701e-06, -3.51773747e-06, -3.39173630e-06,
          -2.25201165e-06, -2.26949624e-06, -2.09318364e-06,
          1.36685472e-07, 2.35048034e-07, 5.33879017e-07, 1.24657458e-06,
          1.36237179e-06, 1.65707991e-06, 6.09355652e-07, 8.62305853e-07,
          1.31864408e-06, 5.17781814e-07, 7.97016355e-07, 1.22731376e-06,
          7.88765874e-07, 9.22357856e-07, 1.28240458e-06, 1.04574679e-06,
          1.12492626e-06, 1.44285525e-06, -2.01979901e-07,
          -3.25733595e-07, -1.92122414e-07, -1.45958410e-07,
          -2.77138582e-07, -1.67595488e-07, -1.51320762e-07,
          -2.28649469e-07, -2.00388314e-07, -1.70825501e-07,
          -2.48641925e-07, -2.19579817e-07, -4.18941454e-07,
          -4.15066467e-07, -2.35673227e-07, -1.56096533e-07,
          -1.18598386e-07, 6.41666631e-08, -1.05614504e-07,
          6.01885475e-08, 4.30133355e-07, -1.70347576e-07,
          1.67542744e-08, 3.86289997e-07, -5.06849176e-07,
          -3.12538020e-07, 6.09555872e-09, -9.09583207e-07,
          -7.18624335e-07, -4.69141355e-07, -5.86514318e-07,
          -7.15042177e-07, -7.04359536e-07, 3.12825080e-07,
          2.22766531e-07, 2.39603793e-07, 3.11210374e-06, 3.05285471e-06,
          2.91513288e-06, 3.46847560e-06, 3.45799936e-06, 3.30377293e-06,
          2.58617661e-06, 2.47707317e-06, 2.37440258e-06, 1.88636989e-06,
          1.78793243e-06, 1.70573992e-06, 1.49038556e-06, 1.39947144e-06,
          1.30757610e-06, -1.86297427e-06, -2.00414638e-06,
          -2.08899951e-06, -2.91684410e-06, -2.92773620e-06,
          -2.96082385e-06, -2.88114597e-06, -2.88656088e-06,
          -2.97638849e-06, -2.65723975e-06, -2.69090197e-06,
          -2.74819854e-06, -2.73965406e-06, -2.75344951e-06,
          -2.82291830e-06, -1.69944826e-06, -1.98705152e-06,
          -2.01868716e-06, 2.02293609e-06, 1.77476466e-06,
          1.72779301e-06, 2.82231690e-06, 2.59211174e-06, 2.54808538e-06,
          1.44846376e-06, 1.26333009e-06, 1.23478299e-06, 1.17214347e-06,
          1.01729665e-06, 9.46194973e-07, 1.89964271e-06, 1.74241814e-06,
          1.67229575e-06, 1.64425819e-06, 1.84201076e-06, 1.99985971e-06,
          2.15979526e-06, 2.31649869e-06, 2.47319053e-06,
          -1.18381615e-06, -8.93635502e-07, -7.69794781e-07,
          -2.87951366e-06, -2.29406010e-06, -2.21070422e-06,
          -3.02914054e-06, -2.42652345e-06, -2.22765743e-06,
          -3.17211129e-06, -2.56652356e-06, -2.37397421e-06,
          -1.92083144e-06, -1.61806827e-06, -1.39437054e-06,
          1.88306024e-06, 2.18498462e-06, 2.40285749e-06, 3.24974962e-06,
          3.58928855e-06, 3.78113805e-06, 3.13986220e-06, 3.48138315e-06,
          3.66021936e-06, 2.26949646e-06, 2.54212432e-06, 2.86295926e-06,
          2.15712203e-06, 2.43048248e-06, 2.73770479e-06, 1.63997129e-06,
          1.87913531e-06, 2.20741822e-06, 1.16742592e-06, 1.36317180e-06,
          1.69816292e-06, 9.89435080e-07, 1.18585001e-06, 1.45979391e-06,
          7.85913869e-07, 7.88296575e-07, 1.06464279e-06, 7.68159452e-07,
          7.39823008e-07, 8.67361734e-07, 9.23460220e-07, 9.04357989e-07,
          1.02105810e-06, 6.13137161e-07, 6.42968246e-07, 7.85327131e-07,
          1.03124182e-06, 9.99707368e-07, 1.13909084e-06, 1.03419200e-06,
          9.59129807e-07, 1.10782173e-06, 3.74568828e-07, 3.01095213e-07,
          4.47719856e-07, -2.08468168e-06, -2.05937954e-06,
          -1.87130809e-06, -3.39220878e-06, -3.25280871e-06,
          -3.11320673e-06, -2.97007182e-06, -2.96089888e-06,
          -2.78496987e-06, -2.93063590e-06, -2.93099538e-06,
          -2.71234512e-06, -2.82223687e-06, -2.71996282e-06,
          -2.53183543e-06, -2.76748870e-06, -2.65173526e-06,
          -2.46755417e-06, -3.95674897e-06, -3.97936128e-06,
          -3.94001700e-06, -3.83401266e-06, -3.85656222e-06,
          -3.81721793e-06, -3.49456514e-06, -3.50130586e-06,
          -3.37420215e-06, -3.73524040e-06, -3.73933017e-06,
          -3.61363027e-06, -1.46750290e-06, -1.35809603e-06,
          -1.06058917e-06, 8.93671938e-07, 1.01500609e-06,
          1.31059414e-06, 8.32759781e-07, 1.08929919e-06, 1.55814314e-06,
          8.53232393e-07, 1.15253010e-06, 1.61844491e-06, 9.89715431e-07,
          1.12698751e-06, 1.44147998e-06, 1.36848837e-06, 1.48167862e-06,
          1.79092035e-06, 1.69519785e-06, 1.59857234e-06, 1.72264970e-06,
          1.90909373e-06, 1.78015193e-06, 1.89447599e-06, 2.26706015e-06,
          2.19633057e-06, 2.21406685e-06, 2.40873692e-06, 2.33974924e-06,
          2.35762604e-06, 2.39401766e-06, 2.33611468e-06, 2.50570838e-06,
          2.66218126e-06, 2.63924289e-06, 2.82710403e-06, 3.25132828e-06,
          3.41207465e-06, 3.78222580e-06, 3.41335749e-06, 3.62351102e-06,
          3.94877270e-06, 3.11151280e-06, 3.29278623e-06, 3.55078646e-06,
          2.73530327e-06, 2.77539743e-06, 3.02659828e-06, 2.75675552e-06,
          2.64832443e-06, 2.61500077e-06, 3.12209568e-06, 3.01487876e-06,
          3.03342790e-06, 3.27064004e-06, 3.21168159e-06, 3.06902757e-06,
          3.07431583e-06, 3.00402985e-06, 2.83298891e-06, 2.68609415e-06,
          2.57728129e-06, 2.46755690e-06, 2.03456443e-06, 1.93562369e-06,
          1.85399733e-06, 1.20617256e-06, 1.10937833e-06, 1.02461081e-06,
          -1.88298566e-06, -2.01757507e-06, -2.13069347e-06,
          -2.95010454e-06, -2.96744156e-06, -3.03536240e-06,
          -3.01256978e-06, -3.02138619e-06, -3.10990981e-06,
          -2.90512617e-06, -2.93944868e-06, -3.00206466e-06,
          -2.81369080e-06, -2.85382566e-06, -2.92286472e-06,
          -1.56040301e-06, -1.86801583e-06, -1.89176933e-06,
          2.02958086e-06, 1.74164620e-06, 1.71493389e-06, 2.08179381e-06,
          1.85192539e-06, 1.81676069e-06, -9.64223204e-07,
          -1.14777583e-06, -1.17727870e-06, -2.06442814e-06,
          -2.21561845e-06, -2.29842681e-06, -1.67202973e-06,
          -1.79897700e-06, -1.90092749e-06, -9.52560185e-07,
          -7.65328593e-07, -5.73882744e-07, -5.83735357e-07,
          -4.13949834e-07, -2.14257582e-07, -1.89373861e-06,
          -2.00742579e-06, -1.88082993e-06, -2.56615476e-06,
          -1.98226167e-06, -1.87839930e-06, -2.55131886e-06,
          -1.93590063e-06, -1.77930349e-06, -2.69016027e-06,
          -2.08064125e-06, -1.88376237e-06, -2.04211165e-06,
          -2.32200614e-06, -1.49159564e-06, -1.40140983e-08,
          2.79132081e-07, 5.14070223e-07, 9.60001671e-07, 1.29454793e-06,
          1.46143509e-06, 1.29592354e-06, 1.62567085e-06, 1.80159657e-06,
          1.99138617e-06, 2.31888725e-06, 2.58977843e-06, 2.18266678e-06,
          2.47044659e-06, 2.77372169e-06, 2.12798545e-06, 2.32962520e-06,
          2.74127228e-06, 1.30744365e-06, 1.52288339e-06, 1.95526013e-06,
          8.63878086e-07, 1.04414437e-06, 1.32049058e-06, 7.70975703e-07,
          7.62599825e-07, 1.03912214e-06, 5.99044540e-07, 5.44841555e-07,
          6.45624368e-07, 7.74407170e-07, 7.35511946e-07, 8.56300630e-07,
          8.73134979e-07, 8.33233912e-07, 9.73621354e-07, 1.36342987e-06,
          1.34690913e-06, 1.47646904e-06, 1.47395963e-06, 1.36065069e-06,
          1.49842617e-06, 5.82598034e-07, 4.70999197e-07, 6.07064578e-07,
          -1.85946578e-06, -1.86713135e-06, -1.68748011e-06,
          -3.41487930e-06, -3.30073522e-06, -3.16973455e-06,
          -2.93990888e-06, -2.95801146e-06, -2.79100618e-06,
          -2.85054011e-06, -2.85348119e-06, -2.68506824e-06,
          -2.89638160e-06, -2.78472180e-06, -2.59402373e-06,
          -3.03584443e-06, -2.91950141e-06, -2.73694150e-06,
          -3.91712683e-06, -3.96916630e-06, -3.91119420e-06,
          -3.83630595e-06, -3.88075205e-06, -3.82226426e-06,
          -3.48180288e-06, -3.47399555e-06, -3.30541434e-06,
          -3.82739290e-06, -3.77635661e-06, -3.63609274e-06,
          -2.23603411e-06, -2.06862501e-06, -1.77096558e-06,
          9.26449673e-07, 1.10130304e-06, 1.40003237e-06, 7.57926841e-07,
          1.04406547e-06, 1.49356288e-06, 4.69152553e-07, 7.66975916e-07,
          1.21513710e-06, -1.26616999e-06, -1.05590880e-06,
          -6.66165306e-07, -1.00921920e-06, -8.57331656e-07,
          -4.99566113e-07, -4.62076002e-07, -3.50729579e-07,
          -9.17898930e-08, -1.78326658e-07, -1.30682793e-07,
          1.28038167e-07, 2.73346132e-07, 3.20673621e-07, 5.08758490e-07,
          2.50199150e-07, 3.05346418e-07, 5.05741752e-07,
          -3.67353721e-08, 2.30210762e-09, 2.08567826e-07,
          7.21885769e-08, 3.93499846e-08, 2.46262346e-07, 1.03713751e-06,
          1.04497951e-06, 1.26125110e-06, 1.44954845e-06, 1.51519828e-06,
          1.68400561e-06, 1.78890457e-06, 1.79166852e-06, 1.89310379e-06,
          1.90863193e-06, 1.82110909e-06, 1.90474952e-06, 2.20362062e-06,
          2.17210231e-06, 2.14802458e-06, 2.87639318e-06, 2.78952689e-06,
          2.82945189e-06, 3.36600056e-06, 3.30652188e-06, 3.20352797e-06,
          2.96332496e-06, 2.90384628e-06, 2.80239988e-06, 2.78860898e-06,
          2.78307130e-06, 2.71756949e-06, 2.51528149e-06, 2.50197513e-06,
          2.40210488e-06, 1.90953369e-06, 1.89218599e-06, 1.81904886e-06,
          -1.48072638e-06, -1.51567326e-06, -1.57758120e-06,
          -2.59824174e-06, -2.55629084e-06, -2.59082412e-06,
          -2.71546082e-06, -2.71896647e-06, -2.75854359e-06,
          -2.62158574e-06, -2.71674844e-06, -2.76336959e-06,
          -2.59041417e-06, -2.69243651e-06, -2.75569209e-06,
          -1.21827634e-06, -1.49882476e-06, -1.54995143e-06,
          2.12408554e-06, 1.87767910e-06, 1.81117343e-06, 2.51992469e-06,
          2.36452524e-06, 2.23497295e-06, -1.84557723e-06,
          -1.97036638e-06, -2.12450823e-06, -3.39476151e-06,
          -3.21793914e-06, -3.41289433e-06, -3.20337199e-06,
          -2.92613367e-06, -3.13377359e-06, -2.95504879e-06,
          -2.47902676e-06, -2.39291512e-06, -2.58430691e-06,
          -2.05707533e-06, -2.11835868e-06, -2.72327884e-06,
          -2.14561032e-06, -2.02430056e-06, -2.64397568e-06,
          -2.06279697e-06, -1.92378616e-06, -2.51794404e-06,
          -1.86216550e-06, -1.75632204e-06, -2.65239851e-06,
          -1.97459167e-06, -1.86455486e-06, -2.83889835e-06,
          -2.28204681e-06, -2.16389412e-06, -2.42154329e-06,
          -2.47313915e-06, -2.35498646e-06, -1.71402621e-06,
          -1.46775176e-06, -1.26387613e-06, -7.39141456e-07,
          -4.92042318e-07, -2.59763738e-07, 1.87642354e-06,
          2.11155452e-06, 2.50974426e-06, 1.80476695e-06, 2.09295945e-06,
          2.45777937e-06, 1.74464867e-06, 1.99661963e-06, 2.40219583e-06,
          8.15702208e-07, 1.05499043e-06, 1.43597208e-06, 8.85823511e-07,
          1.00718717e-06, 1.31118861e-06, 1.12052737e-06, 1.11667453e-06,
          1.42067597e-06, 1.09561563e-06, 1.11721261e-06, 1.19100753e-06,
          9.46730722e-07, 9.61628871e-07, 1.05537720e-06, 1.02658851e-06,
          1.00623458e-06, 1.05231913e-06, 1.70423516e-06, 1.64746393e-06,
          1.73756723e-06, 1.59246713e-06, 1.61302341e-06, 1.75273385e-06,
          7.66434653e-07, 7.90218280e-07, 9.26606447e-07,
          -1.40018051e-06, -1.23453867e-06, -9.76809929e-07,
          -3.07652090e-06, -2.83755890e-06, -2.62907565e-06,
          -3.03632783e-06, -2.76529477e-06, -2.39216001e-06,
          -2.98490886e-06, -2.73327237e-06, -2.35460948e-06,
          -3.01542241e-06, -2.71163140e-06, -2.36687742e-06,
          -3.06808170e-06, -2.77259414e-06, -2.43290583e-06,
          -3.50451501e-06, -3.55121279e-06, -3.49066204e-06,
          -3.19737524e-06, -3.24407301e-06, -3.18352227e-06,
          -2.87570697e-06, -2.86006753e-06, -2.69239422e-06,
          -2.53385588e-06, -2.41954103e-06, -2.24085534e-06,
          -1.24003725e-06, -1.06681875e-06, -7.66580570e-07,
          1.12477017e-06, 1.29638909e-06, 1.59821298e-06, 1.35552818e-06,
          1.69336681e-06, 2.13436624e-06, 6.17632224e-07, 9.21684432e-07,
          1.37518532e-06, -2.63737002e-06, -2.42681836e-06,
          -2.04358435e-06, -3.19374431e-06, -2.92668597e-06,
          -2.51212259e-06, -2.62115873e-06, -2.47863909e-06,
          -2.25612507e-06, -2.54602492e-06, -2.40741133e-06,
          -2.19755134e-06, -2.43038971e-06, -2.30953174e-06,
          -2.17059096e-06, -2.68327130e-06, -2.55409168e-06,
          -2.41572093e-06, -2.98863165e-06, -2.84690668e-06,
          -2.68921167e-06, -3.05438334e-06, -2.90897833e-06,
          -2.74703734e-06, -2.81316852e-06, -2.70562305e-06,
          -2.60110551e-06, -2.60982529e-06, -2.52294535e-06,
          -2.45866727e-06, -1.94379754e-06, -2.00777095e-06,
          -1.91912409e-06, -1.91594995e-06, -2.00914019e-06,
          -1.95154257e-06, -1.54673319e-06, -1.62232470e-06,
          -1.64043513e-06, -6.58466035e-07, -6.09886570e-07,
          -5.65064170e-07, 2.45967317e-06, 2.39773408e-06,
          2.23309962e-06, 3.11539475e-06, 3.05400295e-06, 2.90231947e-06,
          2.82321889e-06, 2.81948701e-06, 2.64783966e-06, 2.36716983e-06,
          2.36796791e-06, 2.21276264e-06, 2.18375362e-06, 2.15675527e-06,
          2.03716559e-06, -1.30019396e-06, -1.33701496e-06,
          -1.44763214e-06, -2.46820287e-06, -2.46937861e-06,
          -2.50932771e-06, -2.58957903e-06, -2.56507769e-06,
          -2.61342507e-06, -2.45143247e-06, -2.49414029e-06,
          -2.54456518e-06, -2.52516293e-06, -2.56460089e-06,
          -2.62054778e-06, -1.15381556e-06, -1.42063209e-06,
          -1.49458617e-06, 1.98843509e-06, 1.76010963e-06,
          1.66965606e-06, 2.24592554e-06, 2.09122391e-06, 1.93001983e-06,
          -2.20985521e-06, -2.33021797e-06, -2.48994434e-06,
          -3.92792572e-06, -3.74016918e-06, -3.95460302e-06,
          -3.89918841e-06, -3.62845844e-06, -3.84291207e-06,
          -3.52870347e-06, -3.04159175e-06, -3.03199840e-06,
          -3.07523533e-06, -2.54145152e-06, -2.55914006e-06,
          -2.96668918e-06, -2.38071948e-06, -2.24991254e-06,
          -2.87312378e-06, -2.28866293e-06, -2.15382579e-06,
          -2.75136767e-06, -2.14587021e-06, -2.07118910e-06,
          -2.91890365e-06, -2.28509907e-06, -2.17728825e-06,
          -3.08087692e-06, -2.57529337e-06, -2.46165291e-06,
          -3.02492435e-06, -2.54309452e-06, -2.42648093e-06,
          -2.98066561e-06, -2.55122995e-06, -2.34874483e-06,
          -1.49766799e-06, -1.37732422e-06, -1.14504564e-06,
          2.21701180e-06, 2.24828227e-06, 2.60525189e-06, 1.84808937e-06,
          1.88441254e-06, 2.22826270e-06, 1.68244026e-06, 1.68528209e-06,
          2.04254457e-06, 8.84164592e-07, 8.79373886e-07, 1.23095663e-06,
          1.36330971e-06, 1.34551703e-06, 1.64951848e-06, 1.91729555e-06,
          1.86613306e-06, 2.14273859e-06, 1.74928812e-06, 1.79723827e-06,
          1.88518311e-06, 1.32653486e-06, 1.36429412e-06, 1.44867147e-06,
          1.21978007e-06, 1.19243521e-06, 1.30261640e-06, 1.68345593e-06,
          1.69420775e-06, 1.79351116e-06, 1.67411145e-06, 1.68859128e-06,
          1.83072825e-06, 8.83610141e-07, 9.06287653e-07, 1.05429956e-06,
          -6.58895885e-07, -5.06335368e-07, -2.41281782e-07,
          -1.79857989e-06, -1.63666334e-06, -1.42282840e-06,
          -1.62111689e-06, -1.37740881e-06, -8.84233827e-07,
          -1.68084341e-06, -1.42279566e-06, -9.29293549e-07,
          -2.00225008e-06, -1.63856782e-06, -1.21847449e-06,
          -1.92579023e-06, -1.55903251e-06, -1.14512159e-06,
          -3.22787218e-06, -3.29442355e-06, -3.10175619e-06,
          -2.96988742e-06, -2.99024441e-06, -2.80916765e-06,
          -2.71889553e-06, -2.61179093e-06, -2.31186505e-06,
          -1.81533915e-06, -1.61378739e-06, -1.30093770e-06,
          1.16181832e-06, 1.45340459e-06, 1.84760722e-06, 1.89005232e-06,
          2.17275556e-06, 2.59201556e-06, 1.77277002e-06, 2.11378051e-06,
          2.53582289e-06, 7.02680836e-07, 9.99631652e-07, 1.44383193e-06,
          -3.14093677e-06, -2.93964263e-06, -2.43990053e-06,
          -3.05466756e-06, -2.78189532e-06, -2.32337334e-06,
          -2.62510184e-06, -2.36320284e-06, -1.97438317e-06,
          -2.34614959e-06, -2.09246627e-06, -1.71923591e-06,
          -2.39282417e-06, -2.11404040e-06, -1.81056419e-06,
          -2.73131104e-06, -2.47029834e-06, -2.10320809e-06,
          -3.02991225e-06, -2.79122696e-06, -2.57350302e-06,
          -3.02666945e-06, -2.77544495e-06, -2.55514806e-06,
          -3.10159294e-06, -2.94111396e-06, -2.85696456e-06,
          -2.82349947e-06, -2.68139593e-06, -2.61218474e-06,
          -2.74402055e-06, -2.72136435e-06, -2.69275301e-06,
          -2.90974708e-06, -2.92322557e-06, -2.93526364e-06,
          -2.45810702e-06, -2.45871729e-06, -2.48150513e-06,
          -2.28425847e-06, -2.21917685e-06, -2.24785390e-06,
          -9.08921606e-07, -7.78527522e-07, -6.23273309e-07,
          1.42986755e-06, 1.62531842e-06, 1.72931584e-06, 2.85650549e-06,
          3.06102834e-06, 3.20455388e-06, 2.38793041e-06, 2.56849376e-06,
          2.72691068e-06, 1.77917650e-06, 2.00830959e-06, 2.16900071e-06,
          -1.10296924e-06, -8.69687142e-07, -7.17544594e-07,
          -2.87530565e-06, -2.54819747e-06, -2.37631502e-06,
          -3.15876673e-06, -2.83322106e-06, -2.66377697e-06,
          -3.18241086e-06, -2.81443204e-06, -2.74051854e-06,
          -3.08544236e-06, -2.80508220e-06, -2.73628211e-06,
          -1.39887811e-06, -1.44594412e-06, -1.43416560e-06,
          2.06256982e-06, 1.89599018e-06, 1.89050957e-06, 1.92946004e-06,
          1.77029801e-06, 1.63343827e-06, -1.82477243e-06,
          -1.93475785e-06, -2.06791947e-06, -3.78163372e-06,
          -3.64902780e-06, -3.84152372e-06, -3.87323325e-06,
          -3.72169666e-06, -3.90996274e-06, -3.71683473e-06,
          -3.49371749e-06, -3.58115994e-06, -2.58624618e-06,
          -2.93682774e-06, -2.99647832e-06, -2.13901785e-06,
          -2.32084062e-06, -2.26068050e-06, -2.58444175e-06,
          -2.14397824e-06, -2.05946094e-06, -2.51812321e-06,
          -2.01075204e-06, -1.91586309e-06, -2.59088142e-06,
          -2.03441164e-06, -2.01160333e-06, -2.82745259e-06,
          -2.56869862e-06, -2.59478475e-06, -3.09061488e-06,
          -2.83781424e-06, -2.92397135e-06, -2.49399864e-06,
          -3.02711510e-06, -3.12378188e-06, -8.21711637e-07,
          -8.73240026e-07, -9.32402372e-07, 3.10870996e-06,
          3.09870188e-06, 3.10629230e-06, 2.79158780e-06, 2.79931237e-06,
          2.80600261e-06, 2.56891099e-06, 2.53535995e-06, 2.56682347e-06,
          1.61974287e-06, 1.60722891e-06, 1.58633793e-06, 1.82881865e-06,
          1.78333505e-06, 1.80085249e-06, 2.30775822e-06, 2.33458150e-06,
          2.32181992e-06, 2.14580723e-06, 2.15656291e-06, 2.20675315e-06,
          1.81146413e-06, 1.83078942e-06, 1.88133174e-06, 1.34968695e-06,
          1.47445769e-06, 1.55343173e-06, 1.24208202e-06, 1.28619752e-06,
          1.42105421e-06, 1.34228776e-06, 1.34642414e-06, 1.55925954e-06,
          1.30876708e-06, 1.32670641e-06, 1.55089981e-06, 1.50925018e-06,
          1.69876728e-06, 2.02801289e-06, 1.42637202e-06, 1.61556648e-06,
          1.94495874e-06, 1.29866771e-06, 1.61000492e-06, 2.26731208e-06,
          1.93658184e-06, 2.21576420e-06, 2.83396935e-06, 2.09386872e-06,
          2.49553250e-06, 3.05010713e-06, 1.08531538e-06, 1.48892650e-06,
          2.02785827e-06, -3.19626179e-06, -3.24838538e-06,
          -3.05707727e-06, -2.93590324e-06, -2.95619748e-06,
          -2.77374943e-06, -2.63519269e-06, -2.52804784e-06,
          -2.22679114e-06, -6.23585436e-07, -4.21486419e-07,
          -1.20159669e-07, 2.04327648e-06, 2.37555741e-06,
          2.74333547e-06, 2.12812211e-06, 2.41439670e-06, 2.79659730e-06,
          1.59734316e-06, 1.88095760e-06, 2.32850311e-06, 6.58822273e-07,
          9.55773089e-07, 1.39979738e-06, -3.02279318e-06,
          -2.81648136e-06, -2.33201672e-06, -3.06614470e-06,
          -2.80805966e-06, -2.38467646e-06, -2.64265327e-06,
          -2.42280544e-06, -2.01805915e-06, -2.43006093e-06,
          -2.20879042e-06, -1.83169084e-06, -2.65519657e-06,
          -2.38750840e-06, -2.09788845e-06, -3.08806443e-06,
          -2.69618999e-06, -2.43644376e-06, -3.36411904e-06,
          -3.10035648e-06, -2.89014270e-06, -3.08933204e-06,
          -2.78256243e-06, -2.60999514e-06, -2.98315945e-06,
          -2.82685892e-06, -2.73869068e-06, -2.76053561e-06,
          -2.57867873e-06, -2.50026733e-06, -2.88567139e-06,
          -2.81521625e-06, -2.82559085e-06, -3.26829627e-06,
          -3.21201333e-06, -3.21831794e-06, -3.04601986e-06,
          -2.98374835e-06, -3.00270199e-06, -2.24184964e-06,
          -2.80795598e-06, -2.21727009e-06, -2.85708597e-06,
          -2.60150136e-06, -2.43109139e-06, -8.94892764e-07,
          -7.48961554e-07, -5.81167228e-07, 1.73089495e-06,
          1.91637264e-06, 2.08206052e-06, 2.23143843e-06, 2.45432147e-06,
          2.62223148e-06, 1.47254548e-06, 1.71261649e-06, 1.87190994e-06,
          -1.04815524e-06, -8.07243111e-07, -6.36918571e-07,
          -3.26651161e-06, -2.91586935e-06, -2.74365379e-06,
          -3.33586763e-06, -2.99359567e-06, -2.82139968e-06,
          -3.05524645e-06, -2.74056924e-06, -2.68587792e-06,
          -2.90796629e-06, -2.59408876e-06, -2.56204225e-06,
          -8.28814166e-07, -8.64718004e-07, -8.70883525e-07,
          2.68726626e-06, 2.64265122e-06, 2.63198763e-06, 3.07733831e-06,
          2.94173265e-06, 2.82750102e-06, 6.96392249e-07, 5.36358584e-07,
          4.25132413e-07, -6.21371214e-07, -7.58810700e-07,
          -9.41388009e-07, -8.70227211e-07, -9.77695095e-07,
          -1.15797957e-06, -9.47384706e-07, -9.96214453e-07,
          -1.08782615e-06, -3.29250582e-07, -3.09104706e-07,
          -3.90304763e-07, -1.24851533e-06, -1.04060439e-06,
          -9.08674792e-07, -2.71830345e-06, -2.25850636e-06,
          -2.19748404e-06, -2.68821714e-06, -2.18104424e-06,
          -2.10627582e-06, -2.65092990e-06, -2.13250473e-06,
          -2.05203264e-06, -2.07313133e-06, -2.05525544e-06,
          -2.10748112e-06, -6.24289612e-07, -5.99906798e-07,
          -6.63879518e-07, 6.53719781e-08, 2.84075377e-08,
          -4.65568419e-08, 1.14584782e-06, 1.10937822e-06,
          1.03191860e-06, 3.49090533e-06, 3.62962942e-06, 3.63439085e-06,
          3.31093929e-06, 3.27743669e-06, 3.28470605e-06, 2.80391851e-06,
          2.75942489e-06, 2.76295123e-06, 1.75857269e-06, 1.70749502e-06,
          1.71022339e-06, 1.71142631e-06, 1.64868698e-06, 1.65679683e-06,
          2.02383967e-06, 1.96191377e-06, 1.98854696e-06, 1.76101207e-06,
          1.78202902e-06, 1.83492978e-06, 1.65352947e-06, 1.66985672e-06,
          1.72198963e-06, 1.35873859e-06, 1.37548795e-06, 1.51057327e-06,
          1.19821732e-06, 1.20666289e-06, 1.34243442e-06, 1.22152903e-06,
          1.28438501e-06, 1.45955630e-06, 8.86557984e-07, 9.08333789e-07,
          1.13205817e-06, 4.10741023e-07, 6.02332022e-07, 9.29151668e-07,
          -3.39829711e-07, -1.49777875e-07, 1.78580933e-07,
          -6.71563726e-07, -3.13413295e-07, 2.48739951e-07,
          -2.98617891e-07, 4.61266758e-09, 5.80554968e-07,
          4.94560943e-08, 4.95311951e-07, 1.02794297e-06,
          -2.46197942e-07, 1.77298546e-07, 7.51551227e-07,
          -3.21624771e-06, -3.27147109e-06, -3.07673849e-06,
          -3.00804186e-06, -3.02841977e-06, -2.83265558e-06,
          -2.62950994e-06, -2.49814229e-06, -2.08252072e-06,
          1.13560077e-06, 1.32431046e-06, 1.73455794e-06, 2.61576201e-06,
          2.80567133e-06, 3.20416052e-06, 1.74002662e-06, 1.96637507e-06,
          2.35231641e-06, 1.09908308e-06, 1.31462696e-06, 1.75492357e-06,
          3.20459890e-07, 5.02227920e-07, 9.40805080e-07,
          -3.08060567e-06, -2.89598074e-06, -2.44547277e-06,
          -3.28324654e-06, -3.04614787e-06, -2.62804883e-06,
          -2.90675848e-06, -2.70770465e-06, -2.34516756e-06,
          -2.72374268e-06, -2.48386300e-06, -2.12115310e-06,
          -2.98235591e-06, -2.78868856e-06, -2.50017752e-06,
          -3.46418506e-06, -3.14503063e-06, -2.85799774e-06,
          -3.80895585e-06, -3.51795711e-06, -3.24483472e-06,
          -3.30210196e-06, -3.01787782e-06, -2.69947213e-06,
          -3.12104589e-06, -2.82036558e-06, -2.57685201e-06,
          -2.88248793e-06, -2.54610472e-06, -2.29865213e-06,
          -3.08514450e-06, -2.88534375e-06, -2.79609662e-06,
          -3.31901197e-06, -3.25053406e-06, -3.16319642e-06,
          -3.50975961e-06, -3.43589886e-06, -3.48360322e-06,
          -3.46832553e-06, -3.33113758e-06, -3.37836491e-06,
          -3.10411019e-06, -2.86149407e-06, -2.66064694e-06,
          -3.43855390e-06, -3.18902835e-06, -2.99140947e-06,
          -9.67065148e-07, -8.59957481e-07, -5.31114722e-07,
          1.93144842e-06, 2.01785429e-06, 2.32326715e-06, 1.68655072e-06,
          1.89980585e-06, 2.15749810e-06, -1.10245844e-06,
          -9.00244061e-07, -6.14928808e-07, -3.58535704e-06,
          -3.14250883e-06, -2.92169329e-06, -3.51901372e-06,
          -3.13960936e-06, -2.92257869e-06, -3.22055143e-06,
          -2.85805049e-06, -2.66714665e-06, -2.50325206e-06,
          -2.74482272e-06, -2.56297994e-06, -7.93397135e-07,
          -6.50594302e-07, -5.20677361e-07, 2.69975271e-06,
          2.83802137e-06, 2.92805407e-06, 3.17828062e-06, 3.16287810e-06,
          3.15193347e-06, 2.72909256e-06, 2.62939284e-06, 2.61909850e-06,
          1.91295385e-06, 1.73815124e-06, 1.65556412e-06, 1.41946248e-06,
          1.34984577e-06, 1.29227283e-06, 2.21290884e-06, 2.11871406e-06,
          2.05474907e-06, 2.68337976e-06, 2.67074802e-06, 2.59503395e-06,
          -5.10160476e-07, -2.67382347e-07, -1.13373041e-07,
          -2.85453211e-06, -2.37518293e-06, -2.30280602e-06,
          -2.84676275e-06, -2.29887655e-06, -2.23086386e-06,
          -2.77557592e-06, -2.25249391e-06, -2.17898582e-06,
          -1.63996742e-06, -1.64951359e-06, -1.69991085e-06,
          1.76979995e-06, 1.87920966e-06, 1.86560612e-06, 3.03324100e-06,
          3.22909500e-06, 3.41077839e-06, 3.25782321e-06, 3.44366276e-06,
          3.62094579e-06, 3.22769711e-06, 3.47402715e-06, 3.69095142e-06,
          2.78510993e-06, 3.02070475e-06, 3.25775341e-06, 2.14511465e-06,
          2.38768280e-06, 2.61666833e-06, 1.56956992e-06, 1.79415156e-06,
          2.02340698e-06, 1.42969861e-06, 1.65122140e-06, 1.86724492e-06,
          1.54517670e-06, 1.68999793e-06, 1.88391482e-06, 1.71611771e-06,
          1.82182976e-06, 1.90054800e-06, 1.48051242e-06, 1.58318494e-06,
          1.64858193e-06, 1.23778477e-06, 1.33185836e-06, 1.48640618e-06,
          9.94301558e-07, 1.09400673e-06, 1.24801898e-06, 9.02050715e-07,
          9.63230036e-07, 1.15562602e-06, 6.76167076e-07, 7.33606555e-07,
          9.31801026e-07, -8.12537735e-07, -7.21982985e-07,
          -4.39221651e-07, -3.41631562e-06, -3.17366084e-06,
          -3.01522050e-06, -3.28065516e-06, -3.05792605e-06,
          -2.75831258e-06, -3.29971681e-06, -3.10696100e-06,
          -2.81736584e-06, -2.31999434e-06, -2.09728955e-06,
          -1.59862225e-06, -9.94316338e-07, -7.97791245e-07,
          -2.93753232e-07, -3.28753049e-06, -3.32486525e-06,
          -3.12445718e-06, -3.14103113e-06, -3.13270584e-06,
          -2.93827134e-06, -1.78351172e-06, -1.64487733e-06,
          -1.28086026e-06, 1.76407934e-06, 1.90286346e-06,
          2.30061823e-06, 2.66369148e-06, 2.85962824e-06, 3.20502409e-06,
          1.98950738e-06, 2.19587855e-06, 2.59291392e-06, 1.55068221e-06,
          1.78451512e-06, 2.17102752e-06, 7.78794231e-07, 9.51628692e-07,
          1.37502741e-06, -2.50281278e-06, -2.34972799e-06,
          -1.96181531e-06, -2.25349436e-06, -2.10932262e-06,
          -1.72042996e-06, -1.40290422e-06, -1.39841950e-06,
          -1.03645959e-06, -1.15574107e-06, -1.22034635e-06,
          -8.55653298e-07, -1.34290156e-06, -1.29221360e-06,
          -1.05380764e-06, -1.87776288e-06, -1.81002895e-06,
          -1.55673308e-06, -2.09847258e-06, -1.92727089e-06,
          -1.65628319e-06, -1.57108138e-06, -1.40670875e-06,
          -1.14668114e-06, -1.17644595e-06, -9.86115083e-07,
          -7.44214844e-07, -5.69986014e-07, -4.08251708e-07,
          -8.35390139e-08, -7.20595040e-07, -5.43028307e-07,
          -4.96444329e-07, -1.35817606e-06, -1.44070543e-06,
          -1.37710424e-06, -3.15554871e-06, -3.09698203e-06,
          -3.19629726e-06, -3.17692775e-06, -3.03351408e-06,
          -3.11509848e-06, -3.02923672e-06, -2.75288971e-06,
          -2.54452061e-06, -3.27057683e-06, -2.98530699e-06,
          -2.77974777e-06, -2.25316717e-06, -2.19479625e-06,
          -1.90589651e-06, 1.74602769e-06, 1.80927339e-06,
          2.04656362e-06, 1.93932556e-06, 2.09643031e-06, 2.33869355e-06,
          -1.01485045e-06, -8.56262943e-07, -6.02538137e-07,
          -3.31315618e-06, -2.91139122e-06, -2.71081922e-06,
          -3.29630802e-06, -2.95441896e-06, -2.75486263e-06,
          -2.95067071e-06, -2.63231755e-06, -2.44205330e-06,
          -2.86976933e-06, -2.50856669e-06, -2.30604905e-06,
          -6.97146504e-07, -5.43204237e-07, -3.91640270e-07,
          2.89808145e-06, 3.00594047e-06, 3.15890429e-06, 3.06642642e-06,
          3.05357025e-06, 3.02725493e-06, 2.30348655e-06, 2.29466013e-06,
          2.27845771e-06, 1.13220972e-06, 9.67690312e-07, 9.07660421e-07,
          1.03173079e-06, 9.14465431e-07, 8.16995225e-07, 1.75637001e-06,
          1.67609255e-06, 1.58278647e-06, 2.23954680e-06, 2.20480320e-06,
          2.12979739e-06, -7.75845592e-07, -5.41312033e-07,
          -4.76803137e-07, -1.96063911e-06, -2.27302485e-06,
          -2.16174249e-06, -2.61086370e-06, -2.06135815e-06,
          -1.99521264e-06, -2.58198975e-06, -2.07433527e-06,
          -2.04905064e-06, -1.52978305e-06, -1.54467671e-06,
          -1.57864133e-06, 2.04316029e-06, 2.15220530e-06,
          2.13715816e-06, 2.72676834e-06, 2.93275980e-06, 3.11098233e-06,
          2.87290004e-06, 3.13743931e-06, 3.32204809e-06, 2.14028410e-06,
          2.38568168e-06, 2.61864557e-06, 2.01116109e-06, 2.24074029e-06,
          2.47819321e-06, 1.98793919e-06, 2.22100493e-06, 2.45000206e-06,
          1.69119437e-06, 1.96487190e-06, 2.18929085e-06, 1.42402394e-06,
          1.72024681e-06, 1.93618939e-06, 1.54586917e-06, 1.78566540e-06,
          2.00136560e-06, 1.51069935e-06, 1.66095606e-06, 1.74064053e-06,
          1.25354063e-06, 1.36816425e-06, 1.44863031e-06, 9.90363333e-07,
          1.04184176e-06, 1.18725814e-06, 5.96848338e-07, 6.61014496e-07,
          8.12048370e-07, 2.52437417e-07, 3.41158795e-07, 5.38732138e-07,
          3.05874948e-07, 4.35172950e-07, 6.18722822e-07,
          -1.36086226e-06, -1.30402964e-06, -1.02457011e-06,
          -3.86911233e-06, -3.68474389e-06, -3.53506312e-06,
          -3.62485889e-06, -3.60258900e-06, -3.31382284e-06,
          -3.53394694e-06, -3.46294041e-06, -3.19291894e-06,
          -3.49010588e-06, -3.47041532e-06, -3.07375853e-06,
          -7.83393602e-07, -7.20209812e-07, -2.20270593e-07,
          -3.70872431e-06, -3.77398169e-06, -3.66300446e-06,
          -3.42751969e-06, -3.43486727e-06, -3.37151619e-06,
          -2.50853361e-07, -2.85172717e-07, -1.36904774e-07,
          2.24464338e-06, 2.26605061e-06, 2.41258090e-06, 2.67103655e-06,
          2.80814447e-06, 3.04824539e-06, 1.85112958e-06, 2.00632712e-06,
          2.24283349e-06, 6.52994629e-07, 8.26284861e-07, 1.21297023e-06,
          4.36924722e-07, 6.14637258e-07, 1.00322234e-06, 8.32289174e-07,
          8.70149563e-07, 1.02357251e-06, 1.39842530e-06, 1.26708267e-06,
          1.41862301e-06, 2.13052181e-06, 1.97283020e-06, 1.98156181e-06,
          2.43368504e-06, 2.28743625e-06, 2.29906027e-06, 2.53766325e-06,
          2.39085853e-06, 2.37313748e-06, 2.49654272e-06, 2.41216458e-06,
          2.42681335e-06, 1.82796941e-06, 1.91012600e-06, 2.13271005e-06,
          2.72818033e-06, 2.95726522e-06, 3.21015000e-06, 3.03815591e-06,
          3.31182423e-06, 3.50965502e-06, 3.64185303e-06, 3.71766964e-06,
          3.99336022e-06, 3.09336133e-06, 3.13623332e-06, 3.17528497e-06,
          -5.44776128e-07, -7.29615522e-07, -7.19109721e-07,
          -2.84874727e-06, -2.79463757e-06, -2.85645410e-06,
          -2.79904793e-06, -2.64736377e-06, -2.70093915e-06,
          -2.79959067e-06, -2.57496185e-06, -2.52178393e-06,
          -2.60481352e-06, -2.98586338e-06, -2.93433823e-06,
          -6.64350239e-07, -6.33664683e-07, -5.93852292e-07,
          2.78810444e-06, 2.93882158e-06, 2.97839915e-06, 2.28356021e-06,
          2.27918508e-06, 2.32258253e-06, -6.63013168e-07,
          -6.55163319e-07, -6.11935150e-07, -3.37889173e-06,
          -3.07621167e-06, -3.07654818e-06, -3.41190571e-06,
          -3.24133475e-06, -3.19240553e-06, -3.10850260e-06,
          -2.81513917e-06, -2.82868928e-06, -2.81859275e-06,
          -2.53100097e-06, -2.54565862e-06, -3.25944205e-09,
          1.89892418e-07, 3.26519398e-07, 2.66974416e-06, 2.92500181e-06,
          3.01379146e-06, 2.98631994e-06, 3.24457301e-06, 3.26557847e-06,
          2.01630291e-06, 2.06949221e-06, 2.11383440e-06, 9.51645916e-07,
          8.45677448e-07, 7.25666553e-07, 1.24134681e-06, 1.12603789e-06,
          9.79111974e-07, 1.82767417e-06, 1.72774457e-06, 1.63376183e-06,
          2.35103766e-06, 2.38981806e-06, 2.28699673e-06,
          -2.02325339e-07, -2.52325094e-08, 4.28117488e-08,
          -2.10882922e-06, -2.34770800e-06, -2.32913476e-06,
          -2.79810024e-06, -2.24196765e-06, -2.17023580e-06,
          -2.24971200e-06, -2.44539979e-06, -2.36831897e-06,
          -1.59119827e-06, -1.56742522e-06, -1.46589059e-06,
          2.22919175e-06, 2.39148903e-06, 2.50951894e-06, 2.54471797e-06,
          2.98293594e-06, 3.27747307e-06, 2.27718738e-06, 2.72720172e-06,
          3.06135303e-06, 1.73862611e-06, 2.20413267e-06, 2.54997190e-06,
          1.13104818e-06, 1.59148283e-06, 1.93431038e-06, 1.59737431e-06,
          2.05269635e-06, 2.44533726e-06, 1.51420636e-06, 1.97520149e-06,
          2.30200135e-06, 1.09673397e-06, 1.60353386e-06, 1.94684526e-06,
          1.02275931e-06, 1.49132075e-06, 1.83471309e-06, 8.57115879e-07,
          1.09497716e-06, 1.23525660e-06, 5.81347706e-07, 7.70274369e-07,
          9.15249302e-07, 6.02862315e-07, 7.33686477e-07, 8.91220225e-07,
          3.38839612e-07, 4.71717556e-07, 6.28416615e-07, 4.63822659e-07,
          5.45176022e-07, 7.06210642e-07, 5.58863427e-08, 1.36422955e-07,
          3.12793333e-07, -2.45765955e-06, -2.44942908e-06,
          -2.20097490e-06, -3.98330894e-06, -3.89194884e-06,
          -3.78060167e-06, -3.65815458e-06, -3.62761762e-06,
          -3.52561324e-06, -3.42922499e-06, -3.37104598e-06,
          -3.30446119e-06, -2.37993459e-06, -2.35955804e-06,
          -1.90883793e-06, -5.09878817e-07, -4.65641961e-07,
          -1.16032668e-08, -3.88758781e-06, -3.96327459e-06,
          -3.85136173e-06, -2.88107685e-06, -3.04994819e-06,
          -2.97589600e-06, 1.84496673e-06, 1.76870412e-06,
          1.91645836e-06, 2.71245449e-06, 2.68661574e-06, 2.83267286e-06,
          2.18365039e-06, 2.33726860e-06, 2.57485613e-06, 1.35666016e-06,
          1.51237134e-06, 1.74836407e-06, 5.81593952e-07, 7.50883089e-07,
          1.11962515e-06, 6.19010962e-07, 8.41169026e-07, 1.17302363e-06,
          1.00628949e-06, 1.02918273e-06, 1.18157607e-06, 1.57470924e-06,
          1.44071601e-06, 1.57595559e-06, 1.93971823e-06, 1.80669576e-06,
          1.80601717e-06, 1.81908229e-06, 1.70305566e-06, 1.70781664e-06,
          1.52317409e-06, 1.34981735e-06, 1.37528900e-06, 1.45904733e-06,
          1.33847357e-06, 1.38275789e-06, 1.31878573e-06, 1.39848476e-06,
          1.61970172e-06, 1.65843255e-06, 1.74170498e-06, 2.00810518e-06,
          2.14895158e-06, 2.24413566e-06, 2.47988737e-06, 2.98956797e-06,
          3.03674301e-06, 3.31480624e-06, 2.74243803e-06, 2.74686977e-06,
          2.77868457e-06, -6.27635131e-07, -8.33312072e-07,
          -8.18259196e-07, -2.70461692e-06, -2.68892063e-06,
          -2.76169817e-06, -2.67822816e-06, -2.57578790e-06,
          -2.62829826e-06, -2.98028272e-06, -2.85875035e-06,
          -2.80865811e-06, -2.29471743e-06, -2.43477143e-06,
          -2.40111285e-06, 1.37523375e-06, 1.21263065e-06,
          1.25415102e-06, 2.67122050e-06, 2.50266635e-06, 2.54292036e-06,
          2.45591104e-06, 2.27104692e-06, 2.30500382e-06,
          -5.69149279e-07, -7.22178470e-07, -7.07412710e-07,
          -2.91170409e-06, -3.42779595e-06, -3.45494936e-06,
          -3.54134136e-06, -3.51266817e-06, -3.48956632e-06,
          -3.39577832e-06, -3.11309736e-06, -3.12664747e-06,
          -2.81678331e-06, -2.54212091e-06, -2.55677855e-06,
          5.42061230e-07, 7.22133791e-07, 8.60280124e-07, 2.74417289e-06,
          2.94347728e-06, 3.08089420e-06, 2.79596725e-06, 3.18421007e-06,
          3.18636739e-06, 1.72686384e-06, 1.80232894e-06, 1.83278200e-06,
          1.11442193e-06, 1.07928679e-06, 9.21297612e-07, 1.30479566e-06,
          1.18792957e-06, 1.04137791e-06, 1.96514407e-06, 1.85913439e-06,
          1.76562639e-06, 2.14515194e-06, 2.12385612e-06, 2.02525575e-06,
          4.07805381e-08, 2.25390153e-07, 2.68187705e-07,
          -1.92056586e-06, -1.72190573e-06, -1.67137614e-06,
          -2.97416318e-06, -2.46264335e-06, -2.36387314e-06,
          -3.06883999e-06, -2.69307566e-06, -2.61129458e-06,
          -1.61339176e-06, -1.60172476e-06, -1.50486096e-06,
          2.04588605e-06, 2.20333573e-06, 2.31390140e-06, 2.45296815e-06,
          2.89565151e-06, 3.21784273e-06, 2.14365718e-06, 2.59624221e-06,
          2.90394905e-06, 1.36560675e-06, 1.83074860e-06, 2.18401192e-06,
          1.29498073e-06, 1.75426123e-06, 2.12579721e-06, 1.44472085e-06,
          1.89520006e-06, 2.25894155e-06, 1.45444221e-06, 1.91638173e-06,
          2.31751483e-06, 1.00771683e-06, 1.50869630e-06, 1.84769692e-06,
          5.81262782e-07, 1.07983908e-06, 1.42287934e-06, 6.80140204e-07,
          9.90694730e-07, 1.13302110e-06, 4.53353039e-07, 6.02563773e-07,
          7.53308484e-07, 3.56383850e-07, 4.80318988e-07, 6.20640890e-07,
          1.89078392e-07, 3.15260280e-07, 4.91678350e-07, 5.11493056e-07,
          5.65166999e-07, 7.29108933e-07, -1.17305817e-07,
          -2.58436756e-08, 1.47751919e-07, -2.67179030e-06,
          -2.66613529e-06, -2.42173883e-06, -3.85843805e-06,
          -3.77439233e-06, -3.66874383e-06, -3.56779651e-06,
          -3.55883731e-06, -3.47137575e-06, -3.36058588e-06,
          -3.35741197e-06, -3.27348857e-06, -1.96783731e-06,
          -1.95153598e-06, -1.49844288e-06, -9.53137231e-08,
          -4.98829138e-08, 4.04333122e-07, -3.86863167e-06,
          -3.91199774e-06, -3.86116835e-06, -1.83219265e-06,
          -2.10284270e-06, -2.02589717e-06, 2.54160068e-06,
          2.39758924e-06, 2.54571432e-06, 2.72317857e-06, 2.61316109e-06,
          2.74810714e-06, 2.13152020e-06, 2.17266233e-06, 2.42405918e-06,
          1.60894535e-06, 1.64779237e-06, 1.89498769e-06, 8.28879877e-07,
          9.16713702e-07, 1.28082377e-06, 9.26700977e-07, 1.01508670e-06,
          1.31455386e-06, 1.17359343e-06, 1.05476840e-06, 1.19297010e-06,
          1.46066975e-06, 1.24964674e-06, 1.36994174e-06, 1.53403630e-06,
          1.32352216e-06, 1.33745846e-06, 1.26067243e-06, 1.07673759e-06,
          1.09788618e-06, 1.12970486e-06, 9.72978569e-07, 9.83886707e-07,
          1.26912073e-06, 1.10680401e-06, 1.12438090e-06, 1.07197400e-06,
          1.06207290e-06, 1.29863395e-06, 1.20391007e-06, 1.26353734e-06,
          1.44984199e-06, 1.54677412e-06, 1.56312626e-06, 1.80141387e-06,
          2.15504497e-06, 2.16556350e-06, 2.35898028e-06, 6.11538098e-07,
          6.28461692e-07, 5.85595728e-07, -1.44001683e-06,
          -1.66390396e-06, -1.68231247e-06, -2.40958184e-06,
          -2.29033049e-06, -2.44568423e-06, -2.37783001e-06,
          -2.22277822e-06, -2.36777032e-06, -3.11809299e-06,
          -2.99635690e-06, -3.13179430e-06, -1.03170566e-06,
          -1.22383926e-06, -1.33938170e-06, 3.02681428e-06,
          2.99964199e-06, 2.87884700e-06, 2.83735994e-06, 2.72800412e-06,
          2.61133209e-06, 2.57025408e-06, 2.39964447e-06, 2.29697503e-06,
          -4.93203402e-07, -7.08488813e-07, -8.10200504e-07,
          -2.77228787e-06, -3.33775711e-06, -3.43277679e-06,
          -3.51050221e-06, -3.46468096e-06, -3.61396292e-06,
          -3.47937385e-06, -3.20444269e-06, -3.22776737e-06,
          -2.77881827e-06, -2.47610546e-06, -2.48145534e-06,
          8.58890189e-07, 1.02475497e-06, 1.16968124e-06, 2.86138834e-06,
          3.04696732e-06, 3.18427442e-06, 2.55013492e-06, 2.64240134e-06,
          2.69368797e-06, 1.17048467e-06, 1.22570600e-06, 1.26730049e-06,
          4.12749984e-07, 3.01544105e-07, 1.62502943e-07, 3.36774349e-07,
          1.89036456e-07, 6.15731892e-08, -2.13352632e-06,
          -2.21557070e-06, -2.32449406e-06, -1.93392339e-06,
          -1.94400172e-06, -2.03068862e-06, -2.03235732e-06,
          -1.85310728e-06, -1.78574658e-06, -2.62120693e-06,
          -2.11306997e-06, -2.05496235e-06, -2.76061178e-06,
          -2.26910629e-06, -2.16455715e-06, -2.90746266e-06,
          -2.57432271e-06, -2.50399012e-06, -2.08161168e-06,
          -2.07623202e-06, -1.97305053e-06, 3.42045496e-07,
          4.91108437e-07, 6.17206069e-07, 9.13240626e-07, 1.30267756e-06,
          1.40790962e-06, 1.76420087e-06, 2.13320027e-06, 2.30043406e-06,
          1.16046431e-06, 1.60312777e-06, 1.78828338e-06, 8.30149247e-07,
          1.23317443e-06, 1.43029251e-06, 1.55246050e-06, 1.98442672e-06,
          2.22956032e-06, 1.50951882e-06, 1.98867269e-06, 2.24527776e-06,
          1.17022000e-06, 1.66414679e-06, 2.05327115e-06, 6.96288907e-07,
          1.18886680e-06, 1.52865164e-06, 7.57641999e-07, 1.01110982e-06,
          1.13526391e-06, 5.77939886e-07, 7.68285133e-07, 8.87872204e-07,
          3.48977466e-07, 4.76563713e-07, 5.92414096e-07, 1.82739271e-07,
          3.32512485e-07, 4.96869291e-07, 5.99374857e-07, 6.52180631e-07,
          8.26335850e-07, -7.50505990e-07, -6.81863071e-07,
          -4.85639134e-07, -3.32194008e-06, -3.32514833e-06,
          -3.06879497e-06, -3.76236608e-06, -3.66900440e-06,
          -3.54838062e-06, -3.57096883e-06, -3.50480400e-06,
          -3.40213910e-06, -3.53926794e-06, -3.46108686e-06,
          -3.36617813e-06, -1.34387597e-06, -1.35098367e-06,
          -9.04752994e-07, 3.98621381e-07, 4.21025220e-07,
          8.68642928e-07, -3.30022158e-06, -3.53265523e-06,
          -4.06572508e-06, -2.19066280e-07, -4.68285776e-07,
          -4.07086105e-07, 2.90615912e-06, 2.69648672e-06,
          2.84316434e-06, 2.91885544e-06, 2.97279735e-06, 3.10821883e-06,
          2.35227708e-06, 2.38946041e-06, 2.64081700e-06, 6.67708093e-07,
          7.12392136e-07, 9.59749059e-07, 8.71757777e-07, 9.62083618e-07,
          1.32343928e-06, 9.77548439e-07, 1.10504743e-06, 1.40351824e-06,
          1.16067315e-06, 9.85972633e-07, 1.11969973e-06, 1.29547357e-06,
          1.09522045e-06, 1.21351991e-06, 1.40627913e-06, 1.19479103e-06,
          1.20684479e-06, 1.36813276e-06, 1.18647802e-06, 1.20814241e-06,
          1.41383316e-06, 1.31603281e-06, 1.32814080e-06, 1.51526535e-06,
          1.33914068e-06, 1.35610071e-06, 1.25861982e-06, 1.25075724e-06,
          1.48926449e-06, 1.42369015e-06, 1.39813528e-06, 1.63715833e-06,
          1.74128650e-06, 1.78736900e-06, 2.02654314e-06, 1.51806444e-06,
          1.52326334e-06, 1.71725412e-06, -6.86660542e-07,
          -7.18086540e-07, -7.11361054e-07, -2.31704985e-06,
          -2.30117280e-06, -2.29210491e-06, -2.19096569e-06,
          -2.08197503e-06, -2.20891820e-06, -2.16219132e-06,
          -2.03587933e-06, -2.13097678e-06, -2.28966701e-06,
          -2.46938339e-06, -2.62219328e-06, 4.32188898e-07,
          2.39715462e-07, 9.79351427e-08, 2.48268316e-06, 2.26142379e-06,
          2.13978456e-06, 2.77099070e-06, 2.68763415e-06, 2.57061492e-06,
          2.43577256e-06, 2.20857441e-06, 2.10338089e-06,
          -4.67900747e-07, -6.85454381e-07, -7.83985115e-07,
          -3.20001868e-06, -3.08132212e-06, -3.17651779e-06,
          -3.53267137e-06, -3.49579818e-06, -3.60140280e-06,
          -3.68520432e-06, -3.41136979e-06, -3.43520833e-06,
          -2.59327953e-06, -2.28917952e-06, -2.37313839e-06,
          1.36785104e-06, 1.53986571e-06, 1.68483450e-06, 3.01741716e-06,
          3.23097402e-06, 3.36576636e-06, 2.23081361e-06, 2.34367326e-06,
          2.39469205e-06, 6.04625825e-07, 6.39503696e-07, 6.78744414e-07,
          -1.49297955e-06, -1.60339414e-06, -1.72683485e-06,
          -2.49806340e-06, -2.63141828e-06, -2.75371212e-06,
          -3.71911847e-06, -3.58204466e-06, -3.69245799e-06,
          -3.22484493e-06, -2.95963628e-06, -3.06705033e-06,
          -2.94941765e-06, -2.47503340e-06, -2.41333441e-06,
          -2.63955690e-06, -2.14191641e-06, -2.11927772e-06,
          -2.87490707e-06, -2.41617727e-06, -2.30034220e-06,
          -2.83812642e-06, -2.55390478e-06, -2.44571652e-06,
          -3.04727632e-06, -2.89190757e-06, -2.83063832e-06,
          -2.37975246e-06, -2.32968000e-06, -2.21201390e-06,
          -2.74895524e-06, -2.57027364e-06, -2.43500449e-06,
          1.86429403e-07, 3.25986633e-07, 4.56736359e-07, 1.49974176e-06,
          1.66375696e-06, 1.83263739e-06, 1.75138962e-06, 1.98561816e-06,
          2.17421916e-06, 1.59120827e-06, 1.96410269e-06, 2.20923630e-06,
          1.47297089e-06, 1.95319012e-06, 2.20979518e-06, 1.25746772e-06,
          1.74668810e-06, 2.14520287e-06, 9.08749996e-07, 1.40586906e-06,
          1.74628769e-06, 7.57642226e-07, 9.83122391e-07, 1.13164094e-06,
          5.58375177e-07, 7.45894511e-07, 8.57919417e-07, 3.91834703e-07,
          4.95187635e-07, 6.06168499e-07, 2.64056155e-07, 3.81498921e-07,
          5.45825685e-07, 7.74062300e-07, 8.24487302e-07, 9.98788551e-07,
          -9.78709181e-07, -9.31579166e-07, -7.43559383e-07,
          -4.02764272e-06, -3.93332539e-06, -3.79923608e-06,
          -3.74109914e-06, -3.66511631e-06, -3.54692975e-06,
          -3.57246608e-06, -3.44453611e-06, -3.40438442e-06,
          -3.45216154e-06, -3.42246358e-06, -3.32970990e-06,
          -1.03590708e-06, -1.04144203e-06, -6.43461419e-07,
          4.75622500e-07, 5.43588726e-07, 9.91741672e-07,
          -3.65408596e-06, -3.87881073e-06, -4.36927439e-06,
          6.14729913e-07, 3.60227347e-07, 4.65576420e-07, 2.72023226e-06,
          2.51066558e-06, 2.66794996e-06, 2.43518593e-06, 2.31059971e-06,
          2.47102389e-06, 2.04154026e-06, 2.04416392e-06, 2.31914305e-06,
          1.02431090e-06, 1.03480068e-06, 1.30072033e-06, 9.30390627e-07,
          1.00822069e-06, 1.40513180e-06, 9.81041012e-07, 1.07746871e-06,
          1.36155063e-06, 1.11043607e-06, 8.94568302e-07, 1.01518322e-06,
          1.21053688e-06, 1.02376919e-06, 1.14344107e-06, 1.32512412e-06,
          1.13709643e-06, 1.14473698e-06, 1.32360753e-06, 1.11795157e-06,
          1.12795283e-06, 1.18380990e-06, 1.02307513e-06, 1.03835328e-06,
          1.28552438e-06, 1.10676331e-06, 1.12374903e-06, 1.07202970e-06,
          1.04771152e-06, 1.29897387e-06, 1.48202935e-06, 1.45674244e-06,
          1.70903638e-06, 1.46522336e-06, 1.47123296e-06, 1.69012037e-06,
          7.77235073e-07, 7.68927237e-07, 9.88061174e-07,
          -1.78940252e-06, -1.87493652e-06, -1.84911687e-06,
          -2.64948494e-06, -2.63415654e-06, -2.61233981e-06,
          -2.39928841e-06, -2.36241021e-06, -2.46852233e-06,
          -2.49063282e-06, -2.37791005e-06, -2.50853009e-06,
          -1.64309745e-06, -1.82740825e-06, -1.97341205e-06,
          1.86237230e-06, 1.66475002e-06, 1.53029146e-06, 2.64609707e-06,
          2.45278898e-06, 2.30596311e-06, 2.87729245e-06, 2.70486225e-06,
          2.55880764e-06, 1.81893995e-06, 1.63371351e-06, 1.52452026e-06,
          -3.86769045e-07, -5.38729694e-07, -6.49269850e-07,
          -2.58272667e-06, -3.14982708e-06, -3.25269093e-06,
          -3.40545967e-06, -3.34298807e-06, -3.49532229e-06,
          -3.61644720e-06, -3.31653177e-06, -3.33861726e-06,
          -1.99855322e-06, -2.29198417e-06, -2.33244441e-06,
          3.28371129e-06, 3.44603063e-06, 3.61009984e-06, 3.16343744e-06,
          3.37037091e-06, 3.52013330e-06, 2.35896118e-06, 2.50642756e-06,
          2.59436592e-06, -1.19417041e-06, -1.20391030e-06,
          -1.13013618e-06, -3.47652667e-06, -3.62370974e-06,
          -3.72754835e-06, -3.81062682e-06, -3.72700219e-06,
          -3.85904013e-06, -3.50629239e-06, -3.37455435e-06,
          -3.43154557e-06, -3.27142607e-06, -2.98102555e-06,
          -3.04297214e-06, -3.11968324e-06, -2.70640544e-06,
          -2.58887917e-06, -2.85881401e-06, -2.45790989e-06,
          -2.33149194e-06, -2.82574183e-06, -2.46454579e-06,
          -2.25938265e-06, -2.70428382e-06, -2.48548508e-06,
          -2.28636577e-06, -2.96736903e-06, -2.74402964e-06,
          -2.77641220e-06, -3.33720891e-06, -3.14352224e-06,
          -3.12520274e-06, -3.72093200e-06, -3.46345860e-06,
          -3.49786978e-06, 3.14593933e-07, 4.54459467e-07,
          4.25935013e-07, 2.02464685e-06, 2.17899810e-06, 2.18403875e-06,
          1.78980747e-06, 1.99005353e-06, 2.02479259e-06, 1.62955439e-06,
          1.92582729e-06, 2.02604474e-06, 1.53941789e-06, 1.86419368e-06,
          1.96586939e-06, 1.24179928e-06, 1.60263050e-06, 1.79349365e-06,
          1.00233547e-06, 1.36338133e-06, 1.55424448e-06, 7.88088812e-07,
          9.58570581e-07, 1.03720288e-06, 5.98287841e-07, 8.18890499e-07,
          8.77072637e-07, 3.43721666e-07, 4.51949859e-07, 5.69535246e-07,
          3.65116108e-07, 4.87036857e-07, 6.25167331e-07, 8.42930035e-07,
          8.70521490e-07, 1.06217715e-06, -2.08221945e-06,
          -2.04524258e-06, -1.86508191e-06, -4.01880743e-06,
          -3.93602704e-06, -3.79314747e-06, -3.81161385e-06,
          -3.72850968e-06, -3.60186073e-06, -3.71652573e-06,
          -3.62694232e-06, -3.49647121e-06, -3.66765448e-06,
          -3.60773561e-06, -3.47927289e-06, -3.82678621e-07,
          -3.68569317e-07, 2.58954778e-08, 6.50314348e-07,
          6.87969191e-07, 1.09386156e-06, -2.95049063e-06,
          -3.18164643e-06, -3.08984204e-06, 1.86562715e-06,
          1.62262916e-06, 1.71001727e-06, 2.31328795e-06, 2.10206395e-06,
          2.25341000e-06, 2.44991861e-06, 2.32593788e-06, 2.48575634e-06,
          1.69720465e-06, 1.68789597e-06, 1.96281007e-06, 1.29088323e-06,
          1.31772185e-06, 1.58128989e-06, 1.00910472e-06, 1.09274731e-06,
          1.43179295e-06, 8.92717196e-07, 9.75964326e-07, 1.26069494e-06,
          9.69478606e-07, 7.63423998e-07, 8.73185797e-07, 1.19433412e-06,
          1.00756449e-06, 1.12826820e-06, 1.19874039e-06, 1.00125499e-06,
          1.00786599e-06, 1.13160468e-06, 9.47279261e-07, 9.55957717e-07,
          1.38560029e-06, 1.20890365e-06, 1.22539552e-06, 1.41911698e-06,
          1.25778718e-06, 1.27197836e-06, 1.29598050e-06, 1.28330316e-06,
          1.53280268e-06, 1.53542248e-06, 1.54237705e-06, 1.79570247e-06,
          6.86373824e-07, 6.90836146e-07, 9.11270831e-07,
          -7.15678894e-08, -8.22624031e-08, 1.36089739e-07,
          -2.87264402e-06, -2.69046336e-06, -2.63972197e-06,
          -2.83178633e-06, -2.83169220e-06, -2.81302846e-06,
          -2.61191963e-06, -2.58050341e-06, -2.69914472e-06,
          -2.72339526e-06, -2.61116429e-06, -2.74075273e-06,
          -4.85525788e-07, -6.92993694e-07, -8.26420717e-07,
          2.47719618e-06, 2.28385079e-06, 2.14242550e-06, 3.00872284e-06,
          3.03792649e-06, 2.90227717e-06, 2.53353460e-06, 2.35318134e-06,
          2.24322571e-06, 1.79786468e-06, 1.61676212e-06, 1.52822645e-06,
          -2.89201751e-07, -4.20451357e-07, -5.32117269e-07,
          -2.67902806e-06, -3.28235114e-06, -3.39530902e-06,
          -3.45124249e-06, -3.33450498e-06, -3.40815268e-06,
          -3.17745116e-06, -2.88326260e-06, -2.88812817e-06,
          -2.53378835e-06, -2.21612913e-06, -2.23988309e-06,
          2.51078745e-06, 2.66428242e-06, 2.87493549e-06, 3.17061472e-06,
          3.34433753e-06, 3.49398192e-06, 2.54175666e-06, 2.63456650e-06,
          2.71805857e-06, -1.61475020e-06, -1.64713686e-06,
          -1.57336274e-06, -4.13500766e-06, -4.04929551e-06,
          -4.16970897e-06, -3.74743558e-06, -3.61396974e-06,
          -3.73426383e-06, -3.47722312e-06, -3.30659827e-06,
          -3.35382583e-06, -1.76696346e-06, -1.70841338e-06,
          -1.75037360e-06, -1.99734177e-06, -1.84523265e-06,
          -1.65831773e-06, -2.85808619e-06, -2.47047387e-06,
          -2.34859044e-06, -2.86211002e-06, -2.47621665e-06,
          -2.28110707e-06, -2.76147830e-06, -2.56482599e-06,
          -2.37909217e-06, -3.19790161e-06, -2.98376381e-06,
          -3.02186959e-06, -3.52329585e-06, -3.33901744e-06,
          -3.30660305e-06, -3.92979109e-06, -3.66108861e-06,
          -3.69119289e-06, 3.62459872e-07, 5.02352862e-07,
          4.75349822e-07, 2.61391847e-06, 2.78870129e-06, 2.81328653e-06,
          2.40328336e-06, 2.57667352e-06, 2.56936983e-06, 1.47243156e-06,
          1.63626839e-06, 1.73035323e-06, 1.42888564e-06, 1.64104733e-06,
          1.69349141e-06, 1.08904726e-06, 1.31918091e-06, 1.50986807e-06,
          9.20933815e-07, 1.15138039e-06, 1.34206755e-06, 7.58382726e-07,
          9.21242133e-07, 9.80957566e-07, 6.98143140e-07, 8.41953351e-07,
          9.26676876e-07, 3.69172852e-07, 4.93687310e-07, 6.11272753e-07,
          5.09490690e-07, 6.40242433e-07, 7.72219437e-07, 6.69908502e-07,
          7.12714723e-07, 8.91197999e-07, -2.36800770e-06,
          -2.33152900e-06, -2.15122213e-06, -4.02458409e-06,
          -3.95591769e-06, -3.80792267e-06, -3.85050271e-06,
          -3.75751733e-06, -3.62997116e-06, -3.77789365e-06,
          -3.71925375e-06, -3.57900899e-06, -3.49682637e-06,
          -3.47384980e-06, -2.72198395e-06, 2.42791657e-07,
          2.58165613e-07, 6.53319887e-07, 6.78435924e-07, 7.17013336e-07,
          1.12445298e-06, -1.44644662e-06, -1.76556591e-06,
          -1.60116383e-06, 2.08448341e-06, 1.90743958e-06,
          2.07423500e-06, 2.30175078e-06, 2.02116325e-06, 2.21556570e-06,
          2.76368428e-06, 2.74992340e-06, 2.94152824e-06, 1.96350561e-06,
          1.92886114e-06, 2.19432013e-06, 9.65943968e-07, 9.54140205e-07,
          1.20806772e-06, 1.04159960e-06, 1.09852760e-06, 1.42026340e-06,
          9.41856911e-07, 9.94702191e-07, 1.24409098e-06, 9.05947672e-07,
          6.81217728e-07, 7.75360832e-07, 1.14559509e-06, 9.80105597e-07,
          1.07452763e-06, 1.10889698e-06, 9.33673675e-07, 9.06901050e-07,
          9.26291193e-07, 7.37778635e-07, 7.00524595e-07, 1.01391447e-06,
          8.20703576e-07, 7.98138728e-07, 8.35640321e-07, 6.53685731e-07,
          6.37911455e-07, -1.16923481e-07, -1.07002109e-07,
          1.20595416e-07, -6.97058795e-07, -7.02221826e-07,
          -4.74624329e-07, -1.48141987e-06, -1.46616810e-06,
          -1.25571012e-06, -2.14668626e-06, -2.11907786e-06,
          -1.95349435e-06, -2.98661053e-06, -2.80687414e-06,
          -2.75132174e-06, -3.07666710e-06, -3.05865888e-06,
          -3.04781702e-06, -2.97000361e-06, -2.83090685e-06,
          -2.94627034e-06, -1.44012904e-06, -1.60245315e-06,
          -1.74962963e-06, 1.41195812e-06, 1.22500262e-06,
          1.03816728e-06, 2.75924776e-06, 2.59357375e-06, 2.40834697e-06,
          2.93814855e-06, 2.81614052e-06, 2.65543645e-06, 1.88710158e-06,
          1.72567832e-06, 1.57407123e-06, 1.57093382e-06, 1.46851880e-06,
          1.26033353e-06, -2.60107726e-07, -3.83191718e-07,
          -5.57321528e-07, -2.69647194e-06, -3.42997441e-06,
          -3.58673992e-06, -3.39520852e-06, -3.30083594e-06,
          -3.49577022e-06, -3.16380351e-06, -2.89141872e-06,
          -2.86512432e-06, -2.60726188e-06, -2.31783565e-06,
          -2.30664591e-06, 3.59578280e-07, 4.77172591e-07,
          7.02285377e-07, 2.91072342e-06, 3.06125935e-06, 3.28919668e-06,
          2.52743212e-06, 2.60951856e-06, 2.73829664e-06,
          -1.55577209e-06, -1.66004213e-06, -1.51009067e-06,
          -3.94176323e-06, -3.83069028e-06, -3.98858992e-06,
          -3.73300509e-06, -3.63618915e-06, -3.76385674e-06,
          -3.51913673e-06, -3.23237714e-06, -3.26055533e-06,
          1.21574271e-06, 1.24026326e-06, 1.23070743e-06, 1.35193704e-06,
          1.48015886e-06, 1.63762422e-06, -2.04959451e-06,
          -1.86974853e-06, -1.70648536e-06, -3.11164422e-06,
          -2.76984247e-06, -2.51893880e-06, -3.18296202e-06,
          -3.08615768e-06, -2.84109933e-06, -2.61850755e-06,
          -3.24631287e-06, -3.16708838e-06, -2.10285998e-06,
          -2.06370646e-06, -1.94992890e-06, -2.65114954e-06,
          -2.50211770e-06, -2.47321623e-06, -5.88481051e-08,
          9.08344262e-08, 1.39976066e-07, 2.30852083e-06, 2.46881700e-06,
          2.52435757e-06, 2.55371947e-06, 2.69016164e-06, 2.74365198e-06,
          1.21827429e-06, 1.42601175e-06, 1.41869918e-06, 1.17768616e-06,
          1.36279596e-06, 1.36491064e-06, 1.02618594e-06, 1.20105858e-06,
          1.24900191e-06, 9.97993084e-07, 1.22274832e-06, 1.27069166e-06,
          1.01182218e-06, 1.21630751e-06, 1.27673241e-06, 8.45419379e-07,
          1.06849279e-06, 1.13155909e-06, 7.26475207e-07, 7.89607554e-07,
          9.34178104e-07, 8.45531304e-07, 9.27160670e-07, 1.07909136e-06,
          3.16366055e-07, 3.17745815e-07, 5.07414654e-07,
          -2.82022256e-06, -2.83108511e-06, -2.64541541e-06,
          -4.05135597e-06, -3.89191428e-06, -3.75316677e-06,
          -3.95758934e-06, -3.83328870e-06, -3.70994780e-06,
          -3.55148472e-06, -3.47172772e-06, -3.35092886e-06,
          -1.76822550e-06, -1.75059176e-06, -1.57024942e-06,
          1.75388720e-06, 1.75007006e-06, 2.08780352e-06, 1.06462880e-06,
          1.09778466e-06, 1.48423931e-06, 8.29712576e-07, 5.09580957e-07,
          6.97921223e-07, 2.47887260e-06, 2.16995886e-06, 2.32985917e-06,
          3.10761197e-06, 3.01342448e-06, 3.20567005e-06, 2.58480691e-06,
          2.39404335e-06, 2.58138016e-06, 2.11368183e-06, 2.07338235e-06,
          2.34449635e-06, 1.31158583e-06, 1.30197134e-06, 1.55399255e-06,
          1.11429688e-06, 1.15320302e-06, 1.46452305e-06, 1.17380853e-06,
          1.21909966e-06, 1.46826176e-06, 9.30035412e-07, 7.17097919e-07,
          8.19268223e-07, 1.07917901e-06, 9.33963065e-07, 1.00536272e-06,
          1.06457935e-06, 9.30254259e-07, 9.07733067e-07, 3.75739518e-07,
          1.78809913e-07, 1.41224874e-07, -6.82046675e-07,
          -8.76804847e-07, -8.97822360e-07, -1.27616852e-06,
          -1.46987009e-06, -1.48590880e-06, -2.65453627e-06,
          -2.65722429e-06, -2.43075851e-06, -3.47847845e-06,
          -3.27427279e-06, -3.03273919e-06, -3.18896764e-06,
          -2.93517405e-06, -2.70026635e-06, -2.96928852e-06,
          -2.74438548e-06, -2.50189464e-06, -3.06924426e-06,
          -2.87911416e-06, -2.82397946e-06, -3.10851601e-06,
          -3.06920970e-06, -3.06386937e-06, -2.88976571e-06,
          -2.75479192e-06, -2.92093546e-06, -4.84291490e-07,
          -6.40827864e-07, -7.88537591e-07, 2.74122272e-06,
          2.74606236e-06, 2.55745908e-06, 2.72037960e-06, 2.54843394e-06,
          2.36895380e-06, 2.72010129e-06, 2.55920895e-06, 2.40167242e-06,
          1.94200038e-06, 1.79781648e-06, 1.62742288e-06, 1.35692926e-06,
          1.23072266e-06, 1.04443961e-06, -3.47321389e-07,
          -4.60636471e-07, -6.46763795e-07, -2.88414435e-06,
          -3.02461558e-06, -3.21705011e-06, -3.67862845e-06,
          -3.56606552e-06, -3.73524153e-06, -3.44342243e-06,
          -3.15196371e-06, -3.10584642e-06, -2.68099325e-06,
          -2.40718055e-06, -2.41447901e-06, -1.35417702e-06,
          -1.80646157e-06, -1.04204912e-06, 1.12818850e-06,
          1.30147805e-06, 1.49171478e-06, 2.28346403e-06, 2.38815824e-06,
          2.48755805e-06, -1.49768368e-06, -1.52300220e-06,
          -1.43582281e-06, -3.69817280e-06, -3.58019361e-06,
          -3.75188847e-06, -3.79404651e-06, -3.67399912e-06,
          -3.82268308e-06, -3.47866421e-06, -3.17148078e-06,
          -3.22059850e-06, 1.91079835e-06, 1.94535892e-06,
          1.94510881e-06, 2.51599272e-06, 2.68549979e-06, 2.86212457e-06,
          -1.79431652e-06, -1.65518179e-06, -1.49973846e-06,
          -3.24759912e-06, -2.91815718e-06, -2.66492998e-06,
          -3.30791931e-06, -3.22901747e-06, -3.03097113e-06,
          -1.41293378e-06, -1.48983588e-06, -1.38497251e-06,
          1.15840965e-06, 1.16869865e-06, 1.27750820e-06, 1.41689281e-06,
          1.54060785e-06, 1.59363481e-06, 2.02321507e-06, 2.17492197e-06,
          2.22717586e-06, 2.71163321e-06, 2.89124955e-06, 2.94850679e-06,
          2.57183115e-06, 2.74002969e-06, 2.80032032e-06, 1.60736397e-06,
          1.78778089e-06, 1.90032472e-06, 1.43366299e-06, 1.63423704e-06,
          1.63242839e-06, 1.30802755e-06, 1.46642503e-06, 1.51472045e-06,
          1.46969762e-06, 1.64842857e-06, 1.69672410e-06, 1.45522813e-06,
          1.68208953e-06, 1.74139313e-06, 1.15993737e-06, 1.35859534e-06,
          1.41821033e-06, 1.17996547e-06, 1.21762162e-06, 1.34892491e-06,
          1.28616921e-06, 1.35305436e-06, 1.49341565e-06, 4.51377872e-07,
          4.51546271e-07, 6.41215138e-07, -2.76332753e-06,
          -2.75159778e-06, -2.56592807e-06, -3.78554773e-06,
          -3.65070150e-06, -3.48024537e-06, -3.69036934e-06,
          -3.57321665e-06, -3.44312684e-06, -3.36731364e-06,
          -3.26247005e-06, -3.14024442e-06, -1.04372418e-06,
          -1.05913932e-06, -8.23088385e-07, 2.66368011e-06,
          2.66188681e-06, 3.05924345e-06, 1.25054476e-06, 1.30254375e-06,
          1.70116562e-06, 2.12418490e-06, 1.88313084e-06, 1.92946914e-06,
          2.96072835e-06, 2.91182209e-06, 3.06104198e-06, 3.15056650e-06,
          2.84520092e-06, 3.00876445e-06, 2.66764573e-06, 2.47307003e-06,
          2.59293597e-06, 2.20803372e-06, 2.13743874e-06, 2.30924002e-06,
          1.59726778e-06, 1.58280682e-06, 1.74298907e-06, 1.24440976e-06,
          1.28549118e-06, 1.36841254e-06, 1.28885870e-06, 1.28972920e-06,
          1.39901056e-06, 1.04718902e-06, 9.07707260e-07, 8.23112885e-07,
          8.75063563e-07, 7.85838836e-07, 6.70478187e-07, 1.04176047e-06,
          9.76375532e-07, 9.02671673e-07, -2.41032035e-06,
          -2.45906335e-06, -2.53169719e-06, -2.77164531e-06,
          -3.15846319e-06, -2.99367844e-06, -3.48289291e-06,
          -3.07626306e-06, -2.94585925e-06, -3.51704148e-06,
          -3.15807415e-06, -2.85058172e-06, -3.19170090e-06,
          -2.77982008e-06, -2.50068592e-06, -3.24567941e-06,
          -2.97537690e-06, -2.79909000e-06, -3.06807806e-06,
          -2.87836565e-06, -2.70008991e-06, -2.16633975e-06,
          -2.64876030e-06, -2.66884444e-06, -2.51291522e-06,
          -2.37570862e-06, -2.44346143e-06, -1.73474746e-06,
          -1.83836858e-06, -2.04950538e-06, 1.59539763e-06,
          1.51759286e-06, 1.31695163e-06, 2.83703753e-06, 2.80983977e-06,
          2.51929259e-06, 2.67293535e-06, 2.58558453e-06, 2.30084197e-06,
          2.09112363e-06, 2.09207951e-06, 1.87112948e-06, 1.77794402e-06,
          1.82033364e-06, 1.58702437e-06, 1.08739050e-06, 1.32925209e-06,
          1.30398905e-06, 1.68129745e-07, 4.11168656e-07, 3.84720181e-07,
          -1.58101466e-06, -1.28324871e-06, -1.25662768e-06,
          -3.78069785e-06, -3.24399662e-06, -3.05057233e-06,
          -3.49311972e-06, -3.07653136e-06, -2.88184265e-06,
          -3.13321971e-06, -2.71054205e-06, -2.51778806e-06,
          -2.28031809e-06, -1.94679660e-06, -1.86514626e-06,
          -9.03517446e-07, -7.73520185e-07, -6.83119083e-07,
          1.44312116e-06, 1.44667513e-06, 1.38735243e-06,
          -1.17616287e-06, -1.30447972e-06, -1.37377572e-06,
          -3.31796332e-06, -3.14572026e-06, -3.28245119e-06,
          -3.39828398e-06, -3.21075572e-06, -3.34290576e-06,
          -3.31331876e-06, -2.93620406e-06, -2.81396660e-06,
          1.85164674e-06, 1.97325267e-06, 2.14061492e-06, 2.26339944e-06,
          2.35143057e-06, 2.64010669e-06, -1.85242789e-06,
          -1.76459480e-06, -1.46728109e-06, -3.38074096e-06,
          -3.13530290e-06, -2.90156913e-06, -3.24648590e-06,
          -3.19663741e-06, -2.99579096e-06, -9.66581410e-07,
          -1.01156775e-06, -7.90415697e-07, 2.75932530e-06,
          2.79218420e-06, 2.96067151e-06, 2.89245327e-06, 3.21453490e-06,
          3.57634826e-06, 2.62059120e-06, 3.00368197e-06, 3.41191640e-06,
          2.24761197e-06, 2.73426008e-06, 3.11233475e-06, 2.50333255e-06,
          2.98442956e-06, 3.34338574e-06, 2.09230234e-06, 2.56978319e-06,
          2.90083858e-06, 1.70215185e-06, 2.14984539e-06, 2.47635694e-06,
          1.33052845e-06, 1.75379341e-06, 2.08142751e-06, 1.26462464e-06,
          1.69871930e-06, 2.02899241e-06, 1.38278961e-06, 1.73020032e-06,
          1.91922891e-06, 1.20987920e-06, 1.34348090e-06, 1.52123221e-06,
          1.19366291e-06, 1.38174994e-06, 1.48463243e-06, 1.40242116e-06,
          1.48907179e-06, 1.59575904e-06, -8.89707053e-07,
          -7.64078493e-07, -5.71798921e-07, -2.57729084e-06,
          -2.43364343e-06, -2.24253586e-06, -3.73811804e-06,
          -3.41329724e-06, -3.12771499e-06, -3.65605251e-06,
          -3.32552395e-06, -3.04895775e-06, -3.22908795e-06,
          -2.91863284e-06, -2.60224988e-06, -6.07541040e-07,
          -3.90658528e-07, -4.06352889e-08, 2.79657365e-06,
          2.99578232e-06, 3.33870025e-06, 1.29509829e-06, 1.51223639e-06,
          1.84589339e-06, 2.07652010e-06, 1.81756138e-06, 1.89060370e-06,
          2.79313849e-06, 2.66541656e-06, 2.69722591e-06, 2.83423674e-06,
          2.50898802e-06, 2.64684058e-06, 2.21022265e-06, 1.98535804e-06,
          2.11091469e-06, 1.99766873e-06, 1.89403170e-06, 2.06110053e-06,
          1.52974269e-06, 1.49529774e-06, 1.67837391e-06, 9.91820684e-07,
          9.40197310e-07, 1.03987861e-06, 1.05042170e-06, 9.13096926e-07,
