%YAML:1.0
---
opencv_ml_svm:
   format: 3
   svmType: C_SVC
   kernel:
      type: LINEAR
   C: 1.
   term_criteria: { iterations:100 }
   var_count: 507
   class_count: 2
   class_labels: !!opencv-matrix
      rows: 2
      cols: 1
      dt: i
      data: [ -1, 1 ]
   sv_total: 1
   support_vectors:
      - [ 2.49013319e-05, 2.49013319e-05, 2.49013319e-05,
          -1.16405572e-05, -1.16405572e-05, -1.16405572e-05,
          -5.85459311e-05, -5.85459311e-05, -5.85459311e-05,
          -3.24654648e-05, -3.24654648e-05, -3.24654648e-05,
          -2.15410037e-05, -2.15410037e-05, -2.15410037e-05,
          -8.77951607e-06, -8.77951607e-06, -8.77951607e-06,
          6.19069033e-06, 6.19069033e-06, 6.19069033e-06,
          -8.77951607e-06, -8.77951607e-06, -8.77951607e-06,
          -2.15410037e-05, -2.15410037e-05, -2.15410037e-05,
          6.66373380e-05, 6.66373380e-05, 6.66373380e-05, 8.72556921e-05,
          8.72556921e-05, 8.72556921e-05, 8.74871694e-05, 8.74871694e-05,
          8.74871694e-05, 6.41023580e-05, 6.41023580e-05, 6.41023580e-05,
          7.84298609e-05, 7.84298609e-05, 7.84298609e-05, 1.16783507e-04,
          1.16783507e-04, 1.16783507e-04, 1.60072559e-05, 1.60072559e-05,
          1.60072559e-05, -3.68530164e-05, -3.68530164e-05,
          -3.68530164e-05, -3.68530164e-05, -3.68530164e-05,
          -3.68530164e-05, -4.13799680e-05, -4.13799680e-05,
          -4.13799680e-05, -4.91054707e-05, -4.91054707e-05,
          -4.91054707e-05, -4.91054707e-05, -4.91054707e-05,
          -4.91054707e-05, -4.90915736e-05, -4.90915736e-05,
          -4.90915736e-05, -3.70091038e-05, -3.70091038e-05,
          -3.70091038e-05, 2.03187537e-05, 2.03187537e-05,
          2.03187537e-05, 1.33900685e-04, 1.33900685e-04, 1.33900685e-04,
          1.16057170e-04, 1.16057170e-04, 1.16057170e-04, 8.06959724e-05,
          8.06959724e-05, 8.06959724e-05, 1.26661485e-04, 1.26661485e-04,
          1.26661485e-04, 1.12766516e-04, 1.12766516e-04, 1.12766516e-04,
          7.61653573e-05, 7.61653573e-05, 7.61653573e-05,
          -7.11248458e-06, -7.11248458e-06, -7.11248458e-06,
          -5.96894279e-06, -5.96894279e-06, -5.96894279e-06,
          -4.39580435e-06, -4.39580435e-06, -4.39580435e-06,
          7.00923647e-06, 7.00923647e-06, 7.00923647e-06, 1.28745860e-05,
          1.28745860e-05, 1.28745860e-05, -3.01710043e-05,
          -3.01710043e-05, -3.01710043e-05, -6.44835964e-05,
          -6.44835964e-05, -6.44835964e-05, -5.63548892e-05,
          -5.63548892e-05, -5.63548892e-05, -3.41444611e-05,
          -3.41444611e-05, -3.41444611e-05, 5.90639866e-05,
          5.90639866e-05, 5.90639866e-05, 9.81993580e-05, 9.81993580e-05,
          9.81993580e-05, 9.81993580e-05, 9.81993580e-05, 9.81993580e-05,
          2.86260420e-05, 2.86260420e-05, 2.86260420e-05, 8.34350885e-06,
          8.34350885e-06, 8.34350885e-06, 5.46919227e-06, 5.46919227e-06,
          5.46919227e-06, 1.41752535e-05, 1.41752535e-05, 1.41752535e-05,
          3.59109981e-05, 3.59109981e-05, 3.59109981e-05, 6.49849899e-05,
          6.49849899e-05, 6.49849899e-05, -3.79355261e-05,
          -3.79355261e-05, -3.79355261e-05, -9.19987287e-05,
          -9.19987287e-05, -9.19987287e-05, -7.62374839e-05,
          -7.62374839e-05, -7.62374839e-05, -8.45102259e-05,
          -8.45102259e-05, -8.45102259e-05, 5.22338487e-05,
          5.22338487e-05, 5.22338487e-05, 9.81993580e-05, 9.81993580e-05,
          9.81993580e-05, 9.81993580e-05, 9.81993580e-05, 9.81993580e-05,
          6.12300282e-05, 6.12300282e-05, 6.12300282e-05, 2.89934433e-05,
          2.89934433e-05, 2.89934433e-05, 5.46919227e-06, 5.46919227e-06,
          5.46919227e-06, 2.91843626e-05, 2.91843626e-05, 2.91843626e-05,
          5.47024720e-05, 5.47024720e-05, 5.47024720e-05, 6.15166209e-05,
          6.15166209e-05, 6.15166209e-05, -3.76095741e-05,
          -3.76095741e-05, -3.76095741e-05, -9.19923041e-05,
          -9.19923041e-05, -9.19923041e-05, -5.78972322e-05,
          -5.78972322e-05, -5.78972322e-05, -7.66469748e-05,
          -7.66469748e-05, -7.66469748e-05, 4.12944719e-05,
          4.12944719e-05, 4.12944719e-05, 8.62710585e-05, 8.62710585e-05,
          8.62710585e-05, 9.81993580e-05, 9.81993580e-05, 9.81993580e-05,
          7.74741056e-05, 7.74741056e-05, 7.74741056e-05, 6.41267543e-05,
          6.41267543e-05, 6.41267543e-05, 3.06811635e-05, 3.06811635e-05,
          3.06811635e-05, -4.07783227e-05, -4.07783227e-05,
          -4.07783227e-05, -2.55002033e-05, -2.55002033e-05,
          -2.55002033e-05, -2.30297283e-05, -2.30297283e-05,
          -2.30297283e-05, -5.69338699e-05, -5.69338699e-05,
          -5.69338699e-05, -7.16061768e-05, -7.16061768e-05,
          -7.16061768e-05, 4.89579998e-06, 4.89579998e-06,
          4.89579998e-06, 8.04528390e-05, 8.04528390e-05, 8.04528390e-05,
          3.46390116e-05, 3.46390116e-05, 3.46390116e-05, 4.52438398e-05,
          4.52438398e-05, 4.52438398e-05, 6.54959949e-05, 6.54959949e-05,
          6.54959949e-05, 4.47707462e-05, 4.47707462e-05, 4.47707462e-05,
          4.73357140e-05, 4.73357140e-05, 4.73357140e-05, 2.31150989e-05,
          2.31150989e-05, 2.31150989e-05, -1.04431841e-04,
          -1.04431841e-04, -1.04431841e-04, -8.88365175e-05,
          -8.88365175e-05, -8.88365175e-05, -7.88295656e-05,
          -7.88295656e-05, -7.88295656e-05, -8.07475153e-05,
          -8.07475153e-05, -8.07475153e-05, -5.62784408e-05,
          -5.62784408e-05, -5.62784408e-05, -7.18573983e-06,
          -7.18573983e-06, -7.18573983e-06, 2.26176453e-05,
          2.26176453e-05, 2.26176453e-05, 3.46390116e-05, 3.46390116e-05,
          3.46390116e-05, 5.69768054e-05, 5.69768054e-05, 5.69768054e-05,
          6.08683986e-05, 6.08683986e-05, 6.08683986e-05, 4.63514516e-05,
          4.63514516e-05, 4.63514516e-05, 6.02047621e-05, 6.02047621e-05,
          6.02047621e-05, 2.42699880e-05, 2.42699880e-05, 2.42699880e-05,
          6.04973047e-06, 6.04973047e-06, 6.04973047e-06, 5.23726294e-06,
          5.23726294e-06, 5.23726294e-06, -2.37302302e-05,
          -2.37302302e-05, -2.37302302e-05, -7.25258069e-05,
          -7.25258069e-05, -7.25258069e-05, -5.37879278e-05,
          -5.37879278e-05, -5.37879278e-05, -5.56601735e-05,
          -5.56601735e-05, -5.56601735e-05, -7.87922108e-05,
          -7.87922108e-05, -7.87922108e-05, 4.00395875e-05,
          4.00395875e-05, 4.00395875e-05, 6.08683986e-05, 6.08683986e-05,
          6.08683986e-05, 7.20956814e-05, 7.20956814e-05, 7.20956814e-05,
          5.95154634e-05, 5.95154634e-05, 5.95154634e-05, 3.82253420e-05,
          3.82253420e-05, 3.82253420e-05, 3.56055934e-05, 3.56055934e-05,
          3.56055934e-05, 5.12551633e-05, 5.12551633e-05, 5.12551633e-05,
          7.56183508e-05, 7.56183508e-05, 7.56183508e-05, 7.01324680e-05,
          7.01324680e-05, 7.01324680e-05, -5.80100505e-06,
          -5.80100505e-06, -5.80100505e-06, -1.97928839e-05,
          -1.97928839e-05, -1.97928839e-05, -6.50234433e-05,
          -6.50234433e-05, -6.50234433e-05, -7.53210625e-05,
          -7.53210625e-05, -7.53210625e-05, -1.50453518e-04,
          -1.50453518e-04, -1.50453518e-04, -1.18279248e-04,
          -1.18279248e-04, -1.18279248e-04, -1.06815598e-04,
          -1.06815598e-04, -1.06815598e-04, -8.95163103e-05,
          -8.95163103e-05, -8.95163103e-05, -3.00695883e-05,
          -3.00695883e-05, -3.00695883e-05, 5.00849746e-05,
          5.00849746e-05, 5.00849746e-05, 6.74180556e-05, 6.74180556e-05,
          6.74180556e-05, 7.30984757e-05, 7.30984757e-05, 7.30984757e-05,
          7.86196906e-05, 7.86196906e-05, 7.86196906e-05, 6.66480046e-05,
          6.66480046e-05, 6.66480046e-05, 6.56033299e-05, 6.56033299e-05,
          6.56033299e-05, -3.17375780e-05, -3.17375780e-05,
          -3.17375780e-05, -7.53210625e-05, -7.53210625e-05,
          -7.53210625e-05, -1.47112340e-04, -1.47112340e-04,
          -1.47112340e-04, -1.07702472e-04, -1.07702472e-04,
          -1.07702472e-04, -9.49198511e-05, -9.49198511e-05,
          -9.49198511e-05, -4.89338563e-05, -4.89338563e-05,
          -4.89338563e-05, -3.65042870e-05, -3.65042870e-05,
          -3.65042870e-05, 1.51746226e-05, 1.51746226e-05,
          1.51746226e-05, 4.27089653e-05, 4.27089653e-05, 4.27089653e-05,
          6.30059221e-05, 6.30059221e-05, 6.30059221e-05, 5.91317148e-05,
          5.91317148e-05, 5.91317148e-05, 2.26471184e-05, 2.26471184e-05,
          2.26471184e-05, 1.10993724e-05, 1.10993724e-05, 1.10993724e-05,
          -5.94453559e-05, -5.94453559e-05, -5.94453559e-05,
          -7.62761338e-05, -7.62761338e-05, -7.62761338e-05,
          -7.16771392e-05, -7.16771392e-05, -7.16771392e-05,
          -3.36465891e-05, -3.36465891e-05, -3.36465891e-05,
          -4.24856698e-05, -4.24856698e-05, -4.24856698e-05,
          -6.48778587e-05, -6.48778587e-05, -6.48778587e-05,
          -4.04048114e-05, -4.04048114e-05, -4.04048114e-05,
          -5.69495205e-05, -5.69495205e-05, -5.69495205e-05,
          -3.97896220e-05, -3.97896220e-05, -3.97896220e-05,
          -3.62180217e-05, -3.62180217e-05, -3.62180217e-05,
          -1.63549175e-05, -1.63549175e-05, -1.63549175e-05,
          -3.01364016e-05, -3.01364016e-05, -3.01364016e-05,
          -3.69912304e-05, -3.69912304e-05, -3.69912304e-05,
          -3.96340620e-05, -3.96340620e-05, -3.96340620e-05,
          1.91353411e-06, 1.91353411e-06, 1.91353411e-06, 2.82119163e-05,
          2.82119163e-05, 2.82119163e-05, -2.70343980e-06,
          -2.70343980e-06, -2.70343980e-06, -4.11316796e-05,
          -4.11316796e-05, -4.11316796e-05, -3.03137622e-05,
          -3.03137622e-05, -3.03137622e-05, -2.98773575e-05,
          -2.98773575e-05, -2.98773575e-05, -2.59928001e-05,
          -2.59928001e-05, -2.59928001e-05, -1.33736112e-05,
          -1.33736112e-05, -1.33736112e-05, -2.61907030e-06,
          -2.61907030e-06, -2.61907030e-06, -2.61907030e-06,
          -2.61907030e-06, -2.61907030e-06, -3.28239439e-05,
          -3.28239439e-05, -3.28239439e-05, -1.73020180e-05,
          -1.73020180e-05, -1.73020180e-05, 2.47756016e-05,
          2.47756016e-05, 2.47756016e-05, 4.98325171e-05, 4.98325171e-05,
          4.98325171e-05 ]
   uncompressed_sv_total: 14
   uncompressed_support_vectors:
      - [ 0., 0., 0., 0., 0., 0., 10., 10., 10., 255., 255., 255., 255.,
          255., 255., 255., 255., 255., 255., 255., 255., 255., 255.,
          255., 255., 255., 255., 255., 255., 255., 10., 10., 10., 0.,
          0., 0., 0., 0., 0., 0., 0., 0., 255., 255., 255., 255., 255.,
          255., 255., 255., 255., 255., 255., 255., 255., 255., 255.,
          255., 255., 255., 255., 255., 255., 255., 255., 255., 255.,
          255., 255., 255., 255., 255., 255., 255., 255., 10., 10., 10.,
          255., 255., 255., 255., 255., 255., 255., 255., 255., 255.,
          255., 255., 0., 0., 0., 0., 0., 0., 0., 0., 0., 0., 0., 0., 0.,
          0., 0., 255., 255., 255., 255., 255., 255., 255., 255., 255.,
          255., 255., 255., 255., 255., 255., 255., 255., 255., 255.,
          255., 255., 0., 0., 0., 0., 0., 0., 0., 0., 0., 0., 0., 0., 0.,
          0., 0., 0., 0., 0., 0., 0., 0., 255., 255., 255., 255., 255.,
          255., 255., 255., 255., 255., 255., 255., 255., 255., 255.,
          255., 255., 255., 0., 0., 0., 0., 0., 0., 0., 0., 0., 0., 0.,
          0., 0., 0., 0., 0., 0., 0., 0., 0., 0., 255., 255., 255., 255.,
          255., 255., 255., 255., 255., 255., 255., 255., 255., 255.,
          255., 255., 255., 255., 0., 0., 0., 0., 0., 0., 0., 0., 0., 0.,
          0., 0., 0., 0., 0., 0., 0., 0., 0., 0., 0., 255., 255., 255.,
          255., 255., 255., 255., 255., 255., 255., 255., 255., 255.,
          255., 255., 255., 255., 255., 0., 0., 0., 0., 0., 0., 0., 0.,
          0., 0., 0., 0., 0., 0., 0., 0., 0., 0., 0., 0., 0., 255., 255.,
          255., 255., 255., 255., 255., 255., 255., 255., 255., 255.,
          255., 255., 255., 255., 255., 255., 0., 0., 0., 0., 0., 0., 0.,
          0., 0., 0., 0., 0., 0., 0., 0., 0., 0., 0., 0., 0., 0., 255.,
          255., 255., 255., 255., 255., 255., 255., 255., 255., 255.,
          255., 255., 255., 255., 255., 255., 255., 0., 0., 0., 0., 0.,
          0., 0., 0., 0., 0., 0., 0., 0., 0., 0., 0., 0., 0., 0., 0., 0.,
          255., 255., 255., 255., 255., 255., 255., 255., 255., 255.,
          255., 255., 255., 255., 255., 255., 255., 255., 0., 0., 0., 0.,
          0., 0., 0., 0., 0., 0., 0., 0., 0., 0., 0., 0., 0., 0., 0., 0.,
          0., 255., 255., 255., 255., 255., 255., 255., 255., 255., 120.,
          120., 120., 255., 255., 255., 255., 255., 255., 255., 255.,
          255., 0., 0., 0., 0., 0., 0., 0., 0., 0., 0., 0., 0., 0., 0.,
          0., 119., 119., 119., 255., 255., 255., 255., 255., 255., 120.,
          120., 120., 0., 0., 0., 38., 38., 38., 255., 255., 255., 255.,
          255., 255., 255., 255., 255., 255., 255., 255., 226., 226.,
          226., 255., 255., 255., 255., 255., 255., 255., 255., 255.,
          255., 255., 255., 38., 38., 38., 0., 0., 0., 0., 0., 0., 0.,
          0., 0., 0., 0., 0., 113., 113., 113., 255., 255., 255., 255.,
          255., 255., 255., 255., 255., 255., 255., 255., 255., 255.,
          255., 113., 113., 113., 0., 0., 0., 0., 0., 0., 0., 0., 0. ]
      - [ 78., 78., 78., 78., 78., 78., 78., 78., 78., 78., 78., 78.,
          78., 78., 78., 78., 78., 78., 78., 78., 78., 78., 78., 78.,
          78., 78., 78., 78., 78., 78., 78., 78., 78., 78., 78., 78.,
          78., 78., 78., 255., 255., 255., 255., 255., 255., 255., 255.,
          255., 255., 255., 255., 255., 255., 255., 255., 255., 255.,
          255., 255., 255., 255., 255., 255., 255., 255., 255., 255.,
          255., 255., 255., 255., 255., 255., 255., 255., 255., 255.,
          255., 255., 255., 255., 255., 255., 255., 255., 255., 255.,
          255., 255., 255., 255., 255., 255., 255., 255., 255., 255.,
          255., 255., 255., 255., 255., 255., 255., 255., 255., 255.,
          255., 255., 255., 255., 255., 255., 255., 255., 255., 255., 0.,
          0., 0., 0., 0., 0., 0., 0., 0., 0., 0., 0., 0., 0., 0., 49.,
          49., 49., 127., 127., 127., 206., 206., 206., 255., 255., 255.,
          255., 255., 255., 255., 255., 255., 255., 255., 255., 255.,
          255., 255., 0., 0., 0., 0., 0., 0., 0., 0., 0., 0., 0., 0., 0.,
          0., 0., 49., 49., 49., 127., 127., 127., 206., 206., 206.,
          255., 255., 255., 255., 255., 255., 255., 255., 255., 255.,
          255., 255., 255., 255., 255., 0., 0., 0., 0., 0., 0., 0., 0.,
          0., 0., 0., 0., 0., 0., 0., 49., 49., 49., 127., 127., 127.,
          206., 206., 206., 255., 255., 255., 255., 255., 255., 255.,
          255., 255., 255., 255., 255., 255., 255., 255., 0., 0., 0., 0.,
          0., 0., 0., 0., 0., 0., 0., 0., 0., 0., 0., 49., 49., 49.,
          128., 128., 128., 206., 206., 206., 255., 255., 255., 255.,
          255., 255., 255., 255., 255., 255., 255., 255., 255., 255.,
          255., 0., 0., 0., 0., 0., 0., 0., 0., 0., 0., 0., 0., 0., 0.,
          0., 49., 49., 49., 127., 127., 127., 206., 206., 206., 255.,
          255., 255., 255., 255., 255., 255., 255., 255., 255., 255.,
          255., 255., 255., 255., 0., 0., 0., 0., 0., 0., 0., 0., 0., 0.,
          0., 0., 0., 0., 0., 49., 49., 49., 127., 127., 127., 206.,
          206., 206., 255., 255., 255., 255., 255., 255., 255., 255.,
          255., 255., 255., 255., 255., 255., 255., 0., 0., 0., 0., 0.,
          0., 0., 0., 0., 0., 0., 0., 0., 0., 0., 49., 49., 49., 127.,
          127., 127., 206., 206., 206., 255., 255., 255., 255., 255.,
          255., 255., 255., 255., 255., 255., 255., 255., 255., 255., 0.,
          0., 0., 0., 0., 0., 0., 0., 0., 0., 0., 0., 0., 0., 0., 49.,
          49., 49., 127., 127., 127., 206., 206., 206., 255., 255., 255.,
          255., 255., 255., 255., 255., 255., 255., 255., 255., 255.,
          255., 255., 0., 0., 0., 0., 0., 0., 69., 69., 69., 147., 147.,
          147., 225., 225., 225., 255., 255., 255., 255., 255., 255.,
          255., 255., 255., 255., 255., 255., 255., 255., 255., 255.,
          255., 255., 255., 255., 255., 255., 255., 255., 0., 0., 0., 0.,
          0., 0., 68., 68., 68., 147., 147., 147., 225., 225., 225.,
          255., 255., 255., 255., 255., 255., 255., 255., 255., 255.,
          255., 255., 255., 255., 255., 255., 255., 255., 255., 255.,
          255., 255., 255., 255. ]
      - [ 0., 0., 0., 9., 9., 9., 25., 25., 25., 29., 29., 29., 29., 29.,
          29., 133., 133., 133., 255., 255., 255., 133., 133., 133., 29.,
          29., 29., 29., 29., 29., 29., 29., 29., 29., 29., 29., 29.,
          29., 29., 255., 255., 255., 255., 255., 255., 255., 255., 255.,
          255., 255., 255., 255., 255., 255., 255., 255., 255., 255.,
          255., 255., 255., 255., 255., 255., 255., 255., 255., 255.,
          255., 255., 255., 255., 255., 255., 255., 255., 255., 255., 0.,
          0., 0., 0., 0., 0., 0., 0., 0., 98., 98., 98., 255., 255.,
          255., 255., 255., 255., 255., 255., 255., 255., 255., 255.,
          255., 255., 255., 255., 255., 255., 255., 255., 255., 255.,
          255., 255., 255., 255., 255., 0., 0., 0., 0., 0., 0., 0., 0.,
          0., 0., 0., 0., 0., 0., 0., 0., 0., 0., 0., 0., 0., 26., 26.,
          26., 65., 65., 65., 176., 176., 176., 255., 255., 255., 255.,
          255., 255., 255., 255., 255., 0., 0., 0., 0., 0., 0., 0., 0.,
          0., 0., 0., 0., 0., 0., 0., 0., 0., 0., 0., 0., 0., 0., 0., 0.,
          20., 20., 20., 157., 157., 157., 255., 255., 255., 255., 255.,
          255., 255., 255., 255., 0., 0., 0., 0., 0., 0., 0., 0., 0., 0.,
          0., 0., 0., 0., 0., 0., 0., 0., 0., 0., 0., 0., 0., 0., 20.,
          20., 20., 157., 157., 157., 255., 255., 255., 255., 255., 255.,
          255., 255., 255., 0., 0., 0., 0., 0., 0., 0., 0., 0., 0., 0.,
          0., 0., 0., 0., 0., 0., 0., 0., 0., 0., 0., 0., 0., 20., 20.,
          20., 157., 157., 157., 255., 255., 255., 255., 255., 255.,
          255., 255., 255., 0., 0., 0., 0., 0., 0., 0., 0., 0., 0., 0.,
          0., 0., 0., 0., 0., 0., 0., 0., 0., 0., 0., 0., 0., 20., 20.,
          20., 157., 157., 157., 255., 255., 255., 255., 255., 255.,
          255., 255., 255., 0., 0., 0., 0., 0., 0., 0., 0., 0., 0., 0.,
          0., 0., 0., 0., 0., 0., 0., 0., 0., 0., 137., 137., 137., 255.,
          255., 255., 255., 255., 255., 255., 255., 255., 255., 255.,
          255., 255., 255., 255., 0., 0., 0., 0., 0., 0., 0., 0., 0., 0.,
          0., 0., 0., 0., 0., 118., 118., 118., 255., 255., 255., 255.,
          255., 255., 255., 255., 255., 255., 255., 255., 255., 255.,
          255., 255., 255., 255., 255., 255., 255., 0., 0., 0., 0., 0.,
          0., 0., 0., 0., 0., 0., 0., 0., 0., 0., 118., 118., 118., 255.,
          255., 255., 255., 255., 255., 255., 255., 255., 255., 255.,
          255., 255., 255., 255., 255., 255., 255., 255., 255., 255., 0.,
          0., 0., 0., 0., 0., 0., 0., 0., 0., 0., 0., 0., 0., 0., 117.,
          117., 117., 255., 255., 255., 255., 255., 255., 255., 255.,
          255., 255., 255., 255., 255., 255., 255., 255., 255., 255.,
          255., 255., 255., 0., 0., 0., 0., 0., 0., 0., 0., 0., 0., 0.,
          0., 0., 0., 0., 14., 14., 14., 29., 29., 29., 29., 29., 29.,
          29., 29., 29., 29., 29., 29., 29., 29., 29., 29., 29., 29.,
          29., 29., 29. ]
      - [ 255., 255., 255., 255., 255., 255., 255., 255., 255., 255.,
          255., 255., 255., 255., 255., 255., 255., 255., 255., 255.,
          255., 255., 255., 255., 255., 255., 255., 255., 255., 255.,
          255., 255., 255., 255., 255., 255., 255., 255., 255., 0., 0.,
          0., 108., 108., 108., 255., 255., 255., 255., 255., 255., 255.,
          255., 255., 255., 255., 255., 255., 255., 255., 255., 255.,
          255., 255., 255., 255., 255., 255., 255., 255., 255., 255.,
          255., 255., 255., 255., 255., 255., 0., 0., 0., 0., 0., 0., 0.,
          0., 0., 0., 0., 0., 69., 69., 69., 226., 226., 226., 255.,
          255., 255., 255., 255., 255., 255., 255., 255., 255., 255.,
          255., 255., 255., 255., 255., 255., 255., 255., 255., 255., 0.,
          0., 0., 0., 0., 0., 0., 0., 0., 0., 0., 0., 0., 0., 0., 0., 0.,
          0., 0., 0., 0., 29., 29., 29., 186., 186., 186., 255., 255.,
          255., 255., 255., 255., 255., 255., 255., 255., 255., 255., 0.,
          0., 0., 0., 0., 0., 0., 0., 0., 0., 0., 0., 0., 0., 0., 0., 0.,
          0., 0., 0., 0., 29., 29., 29., 186., 186., 186., 255., 255.,
          255., 255., 255., 255., 255., 255., 255., 255., 255., 255., 0.,
          0., 0., 0., 0., 0., 0., 0., 0., 0., 0., 0., 0., 0., 0., 0., 0.,
          0., 0., 0., 0., 29., 29., 29., 186., 186., 186., 255., 255.,
          255., 255., 255., 255., 255., 255., 255., 255., 255., 255., 0.,
          0., 0., 0., 0., 0., 0., 0., 0., 0., 0., 0., 0., 0., 0., 0., 0.,
          0., 128., 128., 128., 255., 255., 255., 255., 255., 255., 255.,
          255., 255., 255., 255., 255., 255., 255., 255., 255., 255.,
          255., 0., 0., 0., 0., 0., 0., 0., 0., 0., 0., 0., 0., 0., 0.,
          0., 0., 0., 0., 128., 128., 128., 255., 255., 255., 255., 255.,
          255., 255., 255., 255., 255., 255., 255., 255., 255., 255.,
          255., 255., 255., 0., 0., 0., 0., 0., 0., 0., 0., 0., 0., 0.,
          0., 0., 0., 0., 0., 0., 0., 128., 128., 128., 255., 255., 255.,
          255., 255., 255., 255., 255., 255., 255., 255., 255., 108.,
          108., 108., 0., 0., 0., 0., 0., 0., 0., 0., 0., 0., 0., 0., 0.,
          0., 0., 0., 0., 0., 0., 0., 0., 128., 128., 128., 255., 255.,
          255., 255., 255., 255., 255., 255., 255., 255., 255., 255.,
          108., 108., 108., 0., 0., 0., 0., 0., 0., 0., 0., 0., 0., 0.,
          0., 0., 0., 0., 0., 0., 0., 0., 0., 0., 128., 128., 128., 255.,
          255., 255., 255., 255., 255., 255., 255., 255., 255., 255.,
          255., 108., 108., 108., 0., 0., 0., 0., 0., 0., 0., 0., 0., 0.,
          0., 0., 0., 0., 0., 0., 0., 0., 0., 0., 0., 128., 128., 128.,
          255., 255., 255., 255., 255., 255., 255., 255., 255., 255.,
          255., 255., 255., 255., 255., 255., 255., 255., 0., 0., 0., 0.,
          0., 0., 0., 0., 0., 0., 0., 0., 0., 0., 0., 0., 0., 0., 128.,
          128., 128., 255., 255., 255., 255., 255., 255., 255., 255.,
          255., 255., 255., 255., 108., 108., 108., 0., 0., 0. ]
      - [ 0., 0., 0., 0., 0., 0., 0., 0., 0., 0., 0., 0., 0., 0., 0., 0.,
          0., 0., 0., 0., 0., 0., 0., 0., 0., 0., 0., 0., 0., 0., 0., 0.,
          0., 0., 0., 0., 0., 0., 0., 0., 0., 0., 0., 0., 0., 157., 157.,
          157., 255., 255., 255., 255., 255., 255., 255., 255., 255.,
          255., 255., 255., 255., 255., 255., 255., 255., 255., 255.,
          255., 255., 161., 161., 161., 8., 8., 8., 0., 0., 0., 0., 0.,
          0., 0., 0., 0., 42., 42., 42., 155., 155., 155., 255., 255.,
          255., 255., 255., 255., 255., 255., 255., 255., 255., 255.,
          255., 255., 255., 255., 255., 255., 255., 255., 255., 255.,
          255., 255., 186., 186., 186., 0., 0., 0., 0., 0., 0., 0., 0.,
          0., 0., 0., 0., 0., 0., 0., 0., 0., 0., 0., 0., 0., 0., 0., 0.,
          0., 0., 0., 137., 137., 137., 255., 255., 255., 255., 255.,
          255., 255., 255., 255., 0., 0., 0., 0., 0., 0., 0., 0., 0., 0.,
          0., 0., 0., 0., 0., 0., 0., 0., 0., 0., 0., 0., 0., 0., 0., 0.,
          0., 137., 137., 137., 255., 255., 255., 255., 255., 255., 255.,
          255., 255., 0., 0., 0., 0., 0., 0., 0., 0., 0., 0., 0., 0., 0.,
          0., 0., 32., 32., 32., 206., 206., 206., 206., 206., 206.,
          206., 206., 206., 255., 255., 255., 255., 255., 255., 207.,
          207., 207., 49., 49., 49., 0., 0., 0., 0., 0., 0., 0., 0., 0.,
          0., 0., 0., 0., 0., 0., 39., 39., 39., 255., 255., 255., 255.,
          255., 255., 255., 255., 255., 255., 255., 255., 255., 255.,
          255., 196., 196., 196., 0., 0., 0., 0., 0., 0., 0., 0., 0., 0.,
          0., 0., 0., 0., 0., 0., 0., 0., 0., 0., 0., 0., 0., 0., 0., 0.,
          0., 143., 143., 143., 255., 255., 255., 255., 255., 255., 255.,
          255., 255., 255., 255., 255., 0., 0., 0., 0., 0., 0., 0., 0.,
          0., 0., 0., 0., 0., 0., 0., 0., 0., 0., 0., 0., 0., 0., 0., 0.,
          0., 0., 0., 16., 16., 16., 116., 116., 116., 255., 255., 255.,
          255., 255., 255., 255., 255., 255., 255., 255., 255., 255.,
          255., 255., 255., 255., 255., 176., 176., 176., 0., 0., 0., 0.,
          0., 0., 0., 0., 0., 0., 0., 0., 0., 0., 0., 98., 98., 98.,
          255., 255., 255., 255., 255., 255., 186., 186., 186., 255.,
          255., 255., 255., 255., 255., 255., 255., 255., 198., 198.,
          198., 69., 69., 69., 69., 69., 69., 69., 69., 69., 69., 69.,
          69., 69., 69., 69., 140., 140., 140., 255., 255., 255., 255.,
          255., 255., 0., 0., 0., 8., 8., 8., 161., 161., 161., 255.,
          255., 255., 255., 255., 255., 255., 255., 255., 255., 255.,
          255., 255., 255., 255., 255., 255., 255., 255., 255., 255.,
          255., 255., 255., 198., 198., 198., 10., 10., 10., 0., 0., 0.,
          0., 0., 0., 0., 0., 0., 41., 41., 41., 88., 88., 88., 88., 88.,
          88., 88., 88., 88., 88., 88., 88., 88., 88., 88., 88., 88.,
          88., 54., 54., 54., 0., 0., 0., 0., 0., 0. ]
      - [ 0., 0., 0., 78., 78., 78., 216., 216., 216., 255., 255., 255.,
          255., 255., 255., 255., 255., 255., 255., 255., 255., 255.,
          255., 255., 255., 255., 255., 104., 104., 104., 8., 8., 8., 3.,
          3., 3., 0., 0., 0., 0., 0., 0., 69., 69., 69., 191., 191.,
          191., 226., 226., 226., 226., 226., 226., 226., 226., 226.,
          226., 226., 226., 226., 226., 226., 228., 228., 228., 255.,
          255., 255., 220., 220., 220., 99., 99., 99., 29., 29., 29., 0.,
          0., 0., 0., 0., 0., 0., 0., 0., 0., 0., 0., 0., 0., 0., 0., 0.,
          0., 0., 0., 0., 0., 0., 0., 20., 20., 20., 157., 157., 157.,
          255., 255., 255., 255., 255., 255., 255., 255., 255., 0., 0.,
          0., 0., 0., 0., 0., 0., 0., 0., 0., 0., 0., 0., 0., 0., 0., 0.,
          0., 0., 0., 0., 0., 0., 20., 20., 20., 157., 157., 157., 255.,
          255., 255., 255., 255., 255., 255., 255., 255., 0., 0., 0., 0.,
          0., 0., 0., 0., 0., 0., 0., 0., 0., 0., 0., 0., 0., 0., 0., 0.,
          0., 0., 0., 0., 20., 20., 20., 157., 157., 157., 255., 255.,
          255., 194., 194., 194., 167., 167., 167., 0., 0., 0., 0., 0.,
          0., 0., 0., 0., 0., 0., 0., 0., 0., 0., 50., 50., 50., 108.,
          108., 108., 108., 108., 108., 119., 119., 119., 198., 198.,
          198., 216., 216., 216., 78., 78., 78., 0., 0., 0., 0., 0., 0.,
          0., 0., 0., 0., 0., 0., 0., 0., 0., 0., 0., 0., 118., 118.,
          118., 255., 255., 255., 255., 255., 255., 255., 255., 255.,
          255., 255., 255., 255., 255., 255., 167., 167., 167., 128.,
          128., 128., 0., 0., 0., 0., 0., 0., 0., 0., 0., 0., 0., 0., 0.,
          0., 0., 50., 50., 50., 108., 108., 108., 108., 108., 108.,
          119., 119., 119., 198., 198., 198., 255., 255., 255., 255.,
          255., 255., 255., 255., 255., 0., 0., 0., 0., 0., 0., 0., 0.,
          0., 0., 0., 0., 0., 0., 0., 0., 0., 0., 0., 0., 0., 0., 0., 0.,
          20., 20., 20., 157., 157., 157., 255., 255., 255., 255., 255.,
          255., 255., 255., 255., 186., 186., 186., 186., 186., 186.,
          186., 186., 186., 115., 115., 115., 14., 14., 14., 0., 0., 0.,
          0., 0., 0., 0., 0., 0., 5., 5., 5., 42., 42., 42., 97., 97.,
          97., 198., 198., 198., 255., 255., 255., 255., 255., 255.,
          255., 255., 255., 255., 255., 255., 157., 157., 157., 20., 20.,
          20., 0., 0., 0., 0., 0., 0., 0., 0., 0., 16., 16., 16., 127.,
          127., 127., 213., 213., 213., 255., 255., 255., 255., 255.,
          255., 255., 255., 255., 255., 255., 255., 255., 255., 255.,
          255., 255., 255., 228., 228., 228., 226., 226., 226., 226.,
          226., 226., 226., 226., 226., 228., 228., 228., 255., 255.,
          255., 255., 255., 255., 255., 255., 255., 255., 255., 255.,
          10., 10., 10., 85., 85., 85., 217., 217., 217., 255., 255.,
          255., 255., 255., 255., 255., 255., 255., 255., 255., 255.,
          255., 255., 255., 255., 255., 255., 255., 255., 255., 217.,
          217., 217., 85., 85., 85., 10., 10., 10. ]
      - [ 0., 0., 0., 0., 0., 0., 0., 0., 0., 0., 0., 0., 0., 0., 0., 0.,
          0., 0., 0., 0., 0., 0., 0., 0., 0., 0., 0., 0., 0., 0., 0., 0.,
          0., 0., 0., 0., 0., 0., 0., 167., 167., 167., 255., 255., 255.,
          255., 255., 255., 255., 255., 255., 255., 255., 255., 255.,
          255., 255., 255., 255., 255., 255., 255., 255., 255., 255.,
          255., 255., 255., 255., 255., 255., 255., 255., 255., 255.,
          187., 187., 187., 255., 255., 255., 255., 255., 255., 255.,
          255., 255., 255., 255., 255., 255., 255., 255., 255., 255.,
          255., 255., 255., 255., 255., 255., 255., 255., 255., 255.,
          255., 255., 255., 255., 255., 255., 255., 255., 255., 221.,
          221., 221., 255., 255., 255., 255., 255., 255., 255., 255.,
          255., 255., 255., 255., 16., 16., 16., 0., 0., 0., 0., 0., 0.,
          0., 0., 0., 0., 0., 0., 0., 0., 0., 0., 0., 0., 0., 0., 0., 0.,
          0., 0., 255., 255., 255., 255., 255., 255., 255., 255., 255.,
          255., 255., 255., 0., 0., 0., 0., 0., 0., 0., 0., 0., 0., 0.,
          0., 0., 0., 0., 0., 0., 0., 0., 0., 0., 0., 0., 0., 0., 0., 0.,
          255., 255., 255., 255., 255., 255., 255., 255., 255., 255.,
          255., 255., 255., 255., 255., 255., 255., 255., 255., 255.,
          255., 255., 255., 255., 230., 230., 230., 0., 0., 0., 0., 0.,
          0., 0., 0., 0., 0., 0., 0., 0., 0., 0., 255., 255., 255., 255.,
          255., 255., 255., 255., 255., 255., 255., 255., 255., 255.,
          255., 255., 255., 255., 255., 255., 255., 255., 255., 255.,
          255., 255., 255., 255., 255., 255., 0., 0., 0., 0., 0., 0., 0.,
          0., 0., 0., 0., 0., 0., 0., 0., 23., 23., 23., 39., 39., 39.,
          39., 39., 39., 39., 39., 39., 39., 39., 39., 255., 255., 255.,
          255., 255., 255., 255., 255., 255., 255., 255., 255., 255.,
          255., 255., 0., 0., 0., 0., 0., 0., 0., 0., 0., 0., 0., 0., 0.,
          0., 0., 0., 0., 0., 0., 0., 0., 0., 0., 0., 29., 29., 29.,
          255., 255., 255., 255., 255., 255., 255., 255., 255., 255.,
          255., 255., 137., 137., 137., 137., 137., 137., 137., 137.,
          137., 137., 137., 137., 16., 16., 16., 0., 0., 0., 0., 0., 0.,
          0., 0., 0., 14., 14., 14., 255., 255., 255., 255., 255., 255.,
          255., 255., 255., 255., 255., 255., 255., 255., 255., 255.,
          255., 255., 255., 255., 255., 255., 255., 255., 29., 29., 29.,
          0., 0., 0., 0., 0., 0., 0., 0., 0., 0., 0., 0., 255., 255.,
          255., 255., 255., 255., 255., 255., 255., 255., 255., 255.,
          128., 128., 128., 255., 255., 255., 255., 255., 255., 255.,
          255., 255., 255., 255., 255., 255., 255., 255., 255., 255.,
          255., 255., 255., 255., 255., 255., 255., 255., 255., 255.,
          255., 255., 255., 255., 255., 255., 167., 167., 167., 0., 0.,
          0., 0., 0., 0., 255., 255., 255., 255., 255., 255., 255., 255.,
          255., 255., 255., 255., 255., 255., 255., 255., 255., 255.,
          255., 255., 255., 255., 255., 255., 255., 255., 255., 0., 0.,
          0., 0., 0., 0. ]
      - [ 5., 5., 5., 20., 20., 20., 255., 255., 255., 255., 255., 255.,
          255., 255., 255., 255., 255., 255., 255., 255., 255., 255.,
          255., 255., 255., 255., 255., 255., 255., 255., 255., 255.,
          255., 255., 255., 255., 59., 59., 59., 59., 59., 59., 255.,
          255., 255., 255., 255., 255., 255., 255., 255., 255., 255.,
          255., 255., 255., 255., 196., 196., 196., 196., 196., 196.,
          196., 196., 196., 196., 196., 196., 196., 196., 196., 136.,
          136., 136., 0., 0., 0., 59., 59., 59., 255., 255., 255., 255.,
          255., 255., 194., 194., 194., 0., 0., 0., 0., 0., 0., 0., 0.,
          0., 0., 0., 0., 0., 0., 0., 0., 0., 0., 0., 0., 0., 0., 0., 0.,
          0., 0., 0., 59., 59., 59., 255., 255., 255., 255., 255., 255.,
          98., 98., 98., 0., 0., 0., 0., 0., 0., 0., 0., 0., 0., 0., 0.,
          0., 0., 0., 0., 0., 0., 0., 0., 0., 0., 0., 0., 0., 0., 0.,
          59., 59., 59., 255., 255., 255., 255., 255., 255., 255., 255.,
          255., 163., 163., 163., 0., 0., 0., 0., 0., 0., 0., 0., 0., 0.,
          0., 0., 0., 0., 0., 0., 0., 0., 0., 0., 0., 0., 0., 0., 9., 9.,
          9., 188., 188., 188., 255., 255., 255., 255., 255., 255., 255.,
          255., 255., 255., 255., 255., 255., 255., 255., 255., 255.,
          255., 219., 219., 219., 133., 133., 133., 0., 0., 0., 0., 0.,
          0., 0., 0., 0., 0., 0., 0., 0., 0., 0., 0., 0., 0., 0., 0., 0.,
          20., 20., 20., 255., 255., 255., 255., 255., 255., 255., 255.,
          255., 255., 255., 255., 255., 255., 255., 255., 255., 255.,
          177., 177., 177., 0., 0., 0., 0., 0., 0., 0., 0., 0., 0., 0.,
          0., 0., 0., 0., 0., 0., 0., 0., 0., 0., 0., 0., 0., 0., 0., 0.,
          0., 0., 0., 98., 98., 98., 255., 255., 255., 255., 255., 255.,
          255., 255., 255., 0., 0., 0., 0., 0., 0., 0., 0., 0., 0., 0.,
          0., 0., 0., 0., 0., 0., 0., 0., 0., 0., 0., 0., 0., 0., 0., 0.,
          0., 0., 0., 216., 216., 216., 255., 255., 255., 255., 255.,
          255., 0., 0., 0., 0., 0., 0., 0., 0., 0., 0., 0., 0., 0., 0.,
          0., 0., 0., 0., 0., 0., 0., 0., 0., 0., 0., 0., 0., 0., 0., 0.,
          116., 116., 116., 255., 255., 255., 255., 255., 255., 179.,
          179., 179., 255., 255., 255., 255., 255., 255., 194., 194.,
          194., 0., 0., 0., 0., 0., 0., 0., 0., 0., 0., 0., 0., 0., 0.,
          0., 0., 0., 0., 216., 216., 216., 255., 255., 255., 255., 255.,
          255., 59., 59., 59., 255., 255., 255., 255., 255., 255., 255.,
          255., 255., 255., 255., 255., 196., 196., 196., 196., 196.,
          196., 196., 196., 196., 255., 255., 255., 255., 255., 255.,
          255., 255., 255., 255., 255., 255., 255., 255., 255., 0., 0.,
          0., 0., 0., 0., 56., 56., 56., 255., 255., 255., 255., 255.,
          255., 255., 255., 255., 255., 255., 255., 255., 255., 255.,
          255., 255., 255., 255., 255., 255., 255., 255., 255., 14., 14.,
          14., 0., 0., 0. ]
      - [ 0., 0., 0., 0., 0., 0., 0., 0., 0., 255., 255., 255., 255.,
          255., 255., 255., 255., 255., 255., 255., 255., 255., 255.,
          255., 255., 255., 255., 255., 255., 255., 179., 179., 179., 0.,
          0., 0., 0., 0., 0., 0., 0., 0., 227., 227., 227., 255., 255.,
          255., 255., 255., 255., 255., 255., 255., 255., 255., 255.,
          255., 255., 255., 255., 255., 255., 255., 255., 255., 255.,
          255., 255., 255., 255., 255., 255., 255., 255., 226., 226.,
          226., 88., 88., 88., 255., 255., 255., 255., 255., 255., 255.,
          255., 255., 255., 255., 255., 49., 49., 49., 49., 49., 49.,
          49., 49., 49., 49., 49., 49., 49., 49., 49., 255., 255., 255.,
          255., 255., 255., 255., 255., 255., 88., 88., 88., 255., 255.,
          255., 255., 255., 255., 255., 255., 255., 225., 225., 225., 0.,
          0., 0., 0., 0., 0., 0., 0., 0., 0., 0., 0., 0., 0., 0., 255.,
          255., 255., 255., 255., 255., 255., 255., 255., 88., 88., 88.,
          255., 255., 255., 255., 255., 255., 255., 255., 255., 226.,
          226., 226., 0., 0., 0., 0., 0., 0., 0., 0., 0., 0., 0., 0., 0.,
          0., 0., 0., 0., 0., 0., 0., 0., 0., 0., 0., 88., 88., 88.,
          255., 255., 255., 255., 255., 255., 255., 255., 255., 255.,
          255., 255., 147., 147., 147., 201., 201., 201., 255., 255.,
          255., 255., 255., 255., 255., 255., 255., 108., 108., 108., 0.,
          0., 0., 0., 0., 0., 88., 88., 88., 255., 255., 255., 255.,
          255., 255., 255., 255., 255., 255., 255., 255., 255., 255.,
          255., 255., 255., 255., 255., 255., 255., 255., 255., 255.,
          255., 255., 255., 255., 255., 255., 255., 255., 255., 44., 44.,
          44., 88., 88., 88., 255., 255., 255., 255., 255., 255., 255.,
          255., 255., 225., 225., 225., 0., 0., 0., 0., 0., 0., 0., 0.,
          0., 0., 0., 0., 147., 147., 147., 255., 255., 255., 255., 255.,
          255., 255., 255., 255., 88., 88., 88., 255., 255., 255., 255.,
          255., 255., 255., 255., 255., 226., 226., 226., 0., 0., 0., 0.,
          0., 0., 0., 0., 0., 0., 0., 0., 147., 147., 147., 255., 255.,
          255., 255., 255., 255., 255., 255., 255., 88., 88., 88., 255.,
          255., 255., 255., 255., 255., 255., 255., 255., 165., 165.,
          165., 0., 0., 0., 0., 0., 0., 0., 0., 0., 0., 0., 0., 147.,
          147., 147., 255., 255., 255., 255., 255., 255., 255., 255.,
          255., 88., 88., 88., 255., 255., 255., 255., 255., 255., 255.,
          255., 255., 0., 0., 0., 0., 0., 0., 0., 0., 0., 0., 0., 0., 0.,
          0., 0., 147., 147., 147., 255., 255., 255., 255., 255., 255.,
          255., 255., 255., 78., 78., 78., 255., 255., 255., 255., 255.,
          255., 255., 255., 255., 255., 255., 255., 255., 255., 255.,
          255., 255., 255., 255., 255., 255., 255., 255., 255., 255.,
          255., 255., 255., 255., 255., 255., 255., 255., 255., 255.,
          255., 0., 0., 0., 0., 0., 0., 179., 179., 179., 255., 255.,
          255., 255., 255., 255., 255., 255., 255., 255., 255., 255.,
          255., 255., 255., 255., 255., 255., 255., 255., 255., 255.,
          255., 255., 9., 9., 9., 0., 0., 0. ]
      - [ 0., 0., 0., 0., 0., 0., 5., 5., 5., 47., 47., 47., 255., 255.,
          255., 255., 255., 255., 255., 255., 255., 255., 255., 255.,
          255., 255., 255., 255., 255., 255., 5., 5., 5., 0., 0., 0., 0.,
          0., 0., 9., 9., 9., 29., 29., 29., 255., 255., 255., 255.,
          255., 255., 255., 255., 255., 255., 255., 255., 255., 255.,
          255., 255., 255., 255., 255., 255., 255., 255., 255., 255.,
          255., 255., 255., 255., 255., 255., 9., 9., 9., 255., 255.,
          255., 255., 255., 255., 255., 255., 255., 174., 174., 174., 0.,
          0., 0., 0., 0., 0., 0., 0., 0., 0., 0., 0., 0., 0., 0., 174.,
          174., 174., 228., 228., 228., 255., 255., 255., 255., 255.,
          255., 255., 255., 255., 255., 255., 255., 255., 255., 255., 0.,
          0., 0., 0., 0., 0., 0., 0., 0., 0., 0., 0., 0., 0., 0., 0., 0.,
          0., 0., 0., 0., 0., 0., 0., 0., 0., 0., 0., 0., 0., 255., 255.,
          255., 255., 255., 255., 255., 255., 255., 0., 0., 0., 0., 0.,
          0., 0., 0., 0., 0., 0., 0., 0., 0., 0., 0., 0., 0., 0., 0., 0.,
          0., 0., 0., 0., 0., 0., 0., 0., 0., 255., 255., 255., 255.,
          255., 255., 255., 255., 255., 255., 255., 255., 142., 142.,
          142., 108., 108., 108., 108., 108., 108., 108., 108., 108., 0.,
          0., 0., 0., 0., 0., 0., 0., 0., 0., 0., 0., 0., 0., 0., 255.,
          255., 255., 255., 255., 255., 255., 255., 255., 255., 255.,
          255., 255., 255., 255., 255., 255., 255., 255., 255., 255.,
          255., 255., 255., 255., 255., 255., 255., 255., 255., 196.,
          196., 196., 118., 118., 118., 0., 0., 0., 255., 255., 255.,
          255., 255., 255., 255., 255., 255., 255., 255., 255., 25., 25.,
          25., 0., 0., 0., 0., 0., 0., 0., 0., 0., 25., 25., 25., 255.,
          255., 255., 255., 255., 255., 255., 255., 255., 180., 180.,
          180., 255., 255., 255., 255., 255., 255., 255., 255., 255., 0.,
          0., 0., 0., 0., 0., 0., 0., 0., 0., 0., 0., 0., 0., 0., 0., 0.,
          0., 0., 0., 0., 255., 255., 255., 255., 255., 255., 255., 255.,
          255., 255., 255., 255., 255., 255., 255., 255., 255., 255., 0.,
          0., 0., 0., 0., 0., 0., 0., 0., 0., 0., 0., 0., 0., 0., 0., 0.,
          0., 0., 0., 0., 255., 255., 255., 255., 255., 255., 255., 255.,
          255., 255., 255., 255., 255., 255., 255., 255., 255., 255.,
          174., 174., 174., 0., 0., 0., 0., 0., 0., 0., 0., 0., 0., 0.,
          0., 0., 0., 0., 174., 174., 174., 255., 255., 255., 255., 255.,
          255., 255., 255., 255., 255., 255., 255., 255., 255., 255.,
          255., 255., 255., 255., 255., 255., 255., 255., 255., 226.,
          226., 226., 226., 226., 226., 0., 0., 0., 255., 255., 255.,
          255., 255., 255., 255., 255., 255., 255., 255., 255., 255.,
          255., 255., 0., 0., 0., 0., 0., 0., 142., 142., 142., 255.,
          255., 255., 255., 255., 255., 255., 255., 255., 255., 255.,
          255., 255., 255., 255., 255., 255., 255., 255., 255., 255.,
          255., 255., 255., 255., 255., 255., 0., 0., 0. ]
      - [ 57., 57., 57., 255., 255., 255., 255., 255., 255., 255., 255.,
          255., 255., 255., 255., 255., 255., 255., 255., 255., 255.,
          255., 255., 255., 255., 255., 255., 255., 255., 255., 10., 10.,
          10., 10., 10., 10., 10., 10., 10., 255., 255., 255., 255.,
          255., 255., 255., 255., 255., 255., 255., 255., 255., 255.,
          255., 255., 255., 255., 255., 255., 255., 255., 255., 255.,
          255., 255., 255., 255., 255., 255., 255., 255., 255., 255.,
          255., 255., 255., 255., 255., 0., 0., 0., 0., 0., 0., 0., 0.,
          0., 0., 0., 0., 0., 0., 0., 0., 0., 0., 0., 0., 0., 182., 182.,
          182., 219., 219., 219., 255., 255., 255., 255., 255., 255.,
          255., 255., 255., 255., 255., 255., 0., 0., 0., 0., 0., 0., 0.,
          0., 0., 0., 0., 0., 0., 0., 0., 0., 0., 0., 0., 0., 0., 0., 0.,
          0., 0., 0., 0., 167., 167., 167., 255., 255., 255., 255., 255.,
          255., 255., 255., 255., 0., 0., 0., 0., 0., 0., 0., 0., 0., 0.,
          0., 0., 0., 0., 0., 0., 0., 0., 0., 0., 0., 0., 0., 0., 68.,
          68., 68., 255., 255., 255., 255., 255., 255., 255., 255., 255.,
          183., 183., 183., 0., 0., 0., 0., 0., 0., 0., 0., 0., 0., 0.,
          0., 0., 0., 0., 0., 0., 0., 0., 0., 0., 0., 0., 0., 69., 69.,
          69., 255., 255., 255., 255., 255., 255., 255., 255., 255., 49.,
          49., 49., 0., 0., 0., 0., 0., 0., 0., 0., 0., 0., 0., 0., 0.,
          0., 0., 0., 0., 0., 0., 0., 0., 0., 0., 0., 69., 69., 69.,
          255., 255., 255., 255., 255., 255., 255., 255., 255., 49., 49.,
          49., 0., 0., 0., 0., 0., 0., 0., 0., 0., 0., 0., 0., 0., 0.,
          0., 0., 0., 0., 0., 0., 0., 0., 0., 0., 69., 69., 69., 255.,
          255., 255., 255., 255., 255., 193., 193., 193., 21., 21., 21.,
          0., 0., 0., 0., 0., 0., 0., 0., 0., 0., 0., 0., 0., 0., 0., 0.,
          0., 0., 0., 0., 0., 0., 0., 0., 255., 255., 255., 255., 255.,
          255., 255., 255., 255., 147., 147., 147., 0., 0., 0., 0., 0.,
          0., 0., 0., 0., 0., 0., 0., 0., 0., 0., 0., 0., 0., 0., 0., 0.,
          0., 0., 0., 165., 165., 165., 255., 255., 255., 255., 255.,
          255., 255., 255., 255., 147., 147., 147., 0., 0., 0., 0., 0.,
          0., 0., 0., 0., 0., 0., 0., 0., 0., 0., 0., 0., 0., 0., 0., 0.,
          103., 103., 103., 255., 255., 255., 255., 255., 255., 255.,
          255., 255., 255., 255., 255., 0., 0., 0., 0., 0., 0., 0., 0.,
          0., 0., 0., 0., 0., 0., 0., 0., 0., 0., 0., 0., 0., 0., 0., 0.,
          127., 127., 127., 255., 255., 255., 255., 255., 255., 255.,
          255., 255., 28., 28., 28., 0., 0., 0., 0., 0., 0., 0., 0., 0.,
          0., 0., 0., 0., 0., 0., 0., 0., 0., 0., 0., 0., 0., 0., 0.,
          127., 127., 127., 255., 255., 255., 255., 255., 255., 255.,
          255., 255., 0., 0., 0., 0., 0., 0., 0., 0., 0. ]
      - [ 0., 0., 0., 0., 0., 0., 7., 7., 7., 228., 228., 228., 255.,
          255., 255., 255., 255., 255., 255., 255., 255., 255., 255.,
          255., 255., 255., 255., 255., 255., 255., 101., 101., 101., 0.,
          0., 0., 0., 0., 0., 0., 0., 0., 206., 206., 206., 255., 255.,
          255., 255., 255., 255., 255., 255., 255., 198., 198., 198.,
          196., 196., 196., 196., 196., 196., 196., 196., 196., 255.,
          255., 255., 255., 255., 255., 255., 255., 255., 112., 112.,
          112., 68., 68., 68., 255., 255., 255., 255., 255., 255., 255.,
          255., 255., 0., 0., 0., 0., 0., 0., 0., 0., 0., 0., 0., 0., 0.,
          0., 0., 0., 0., 0., 167., 167., 167., 255., 255., 255., 255.,
          255., 255., 154., 154., 154., 255., 255., 255., 255., 255.,
          255., 29., 29., 29., 0., 0., 0., 0., 0., 0., 0., 0., 0., 0.,
          0., 0., 0., 0., 0., 0., 0., 0., 0., 0., 0., 255., 255., 255.,
          255., 255., 255., 68., 68., 68., 255., 255., 255., 255., 255.,
          255., 186., 186., 186., 0., 0., 0., 0., 0., 0., 0., 0., 0., 0.,
          0., 0., 0., 0., 0., 0., 0., 0., 115., 115., 115., 255., 255.,
          255., 68., 68., 68., 11., 11., 11., 213., 213., 213., 255.,
          255., 255., 255., 255., 255., 147., 147., 147., 0., 0., 0., 0.,
          0., 0., 0., 0., 0., 0., 0., 0., 220., 220., 220., 255., 255.,
          255., 213., 213., 213., 11., 11., 11., 0., 0., 0., 0., 0., 0.,
          255., 255., 255., 255., 255., 255., 255., 255., 255., 255.,
          255., 255., 255., 255., 255., 255., 255., 255., 255., 255.,
          255., 255., 255., 255., 255., 255., 255., 206., 206., 206., 0.,
          0., 0., 0., 0., 0., 206., 206., 206., 255., 255., 255., 255.,
          255., 255., 255., 255., 255., 216., 216., 216., 216., 216.,
          216., 8., 8., 8., 216., 216., 216., 255., 255., 255., 255.,
          255., 255., 255., 255., 255., 69., 69., 69., 68., 68., 68.,
          255., 255., 255., 255., 255., 255., 255., 255., 255., 0., 0.,
          0., 0., 0., 0., 0., 0., 0., 0., 0., 0., 0., 0., 0., 0., 0., 0.,
          167., 167., 167., 255., 255., 255., 255., 255., 255., 68., 68.,
          68., 255., 255., 255., 255., 255., 255., 255., 255., 255., 0.,
          0., 0., 0., 0., 0., 0., 0., 0., 0., 0., 0., 0., 0., 0., 0., 0.,
          0., 167., 167., 167., 255., 255., 255., 255., 255., 255., 26.,
          26., 26., 225., 225., 225., 255., 255., 255., 255., 255., 255.,
          0., 0., 0., 0., 0., 0., 0., 0., 0., 0., 0., 0., 0., 0., 0.,
          18., 18., 18., 221., 221., 221., 255., 255., 255., 255., 255.,
          255., 0., 0., 0., 48., 48., 48., 255., 255., 255., 255., 255.,
          255., 255., 255., 255., 198., 198., 198., 196., 196., 196.,
          196., 196., 196., 230., 230., 230., 255., 255., 255., 255.,
          255., 255., 217., 217., 217., 16., 16., 16., 0., 0., 0., 0.,
          0., 0., 0., 0., 0., 17., 17., 17., 255., 255., 255., 255.,
          255., 255., 255., 255., 255., 255., 255., 255., 255., 255.,
          255., 20., 20., 20., 7., 7., 7., 0., 0., 0., 0., 0., 0. ]
      - [ 0., 0., 0., 0., 0., 0., 0., 0., 0., 0., 0., 0., 0., 0., 0., 0.,
          0., 0., 0., 0., 0., 0., 0., 0., 0., 0., 0., 0., 0., 0., 147.,
          147., 147., 255., 255., 255., 255., 255., 255., 0., 0., 0., 0.,
          0., 0., 0., 0., 0., 0., 0., 0., 0., 0., 0., 0., 0., 0., 0., 0.,
          0., 0., 0., 0., 10., 10., 10., 206., 206., 206., 255., 255.,
          255., 255., 255., 255., 255., 255., 255., 0., 0., 0., 0., 0.,
          0., 0., 0., 0., 0., 0., 0., 0., 0., 0., 0., 0., 0., 0., 0., 0.,
          50., 50., 50., 189., 189., 189., 255., 255., 255., 255., 255.,
          255., 255., 255., 255., 255., 255., 255., 0., 0., 0., 0., 0.,
          0., 0., 0., 0., 0., 0., 0., 0., 0., 0., 0., 0., 0., 0., 0., 0.,
          69., 69., 69., 255., 255., 255., 255., 255., 255., 255., 255.,
          255., 217., 217., 217., 147., 147., 147., 0., 0., 0., 0., 0.,
          0., 0., 0., 0., 0., 0., 0., 0., 0., 0., 0., 0., 0., 127., 127.,
          127., 255., 255., 255., 255., 255., 255., 255., 255., 255.,
          255., 255., 255., 148., 148., 148., 0., 0., 0., 0., 0., 0., 0.,
          0., 0., 0., 0., 0., 0., 0., 0., 0., 0., 0., 151., 151., 151.,
          230., 230., 230., 255., 255., 255., 255., 255., 255., 255.,
          255., 255., 108., 108., 108., 0., 0., 0., 0., 0., 0., 0., 0.,
          0., 0., 0., 0., 0., 0., 0., 0., 0., 0., 0., 0., 0., 186., 186.,
          186., 255., 255., 255., 255., 255., 255., 255., 255., 255.,
          49., 49., 49., 0., 0., 0., 0., 0., 0., 0., 0., 0., 0., 0., 0.,
          0., 0., 0., 0., 0., 0., 49., 49., 49., 255., 255., 255., 255.,
          255., 255., 255., 255., 255., 255., 255., 255., 198., 198.,
          198., 40., 40., 40., 0., 0., 0., 0., 0., 0., 0., 0., 0., 0.,
          0., 0., 0., 0., 0., 95., 95., 95., 255., 255., 255., 255.,
          255., 255., 255., 255., 255., 255., 255., 255., 186., 186.,
          186., 0., 0., 0., 0., 0., 0., 0., 0., 0., 0., 0., 0., 0., 0.,
          0., 0., 0., 0., 96., 96., 96., 193., 193., 193., 255., 255.,
          255., 255., 255., 255., 255., 255., 255., 127., 127., 127., 0.,
          0., 0., 0., 0., 0., 0., 0., 0., 0., 0., 0., 0., 0., 0., 0., 0.,
          0., 0., 0., 0., 167., 167., 167., 255., 255., 255., 255., 255.,
          255., 255., 255., 255., 68., 68., 68., 0., 0., 0., 0., 0., 0.,
          0., 0., 0., 0., 0., 0., 0., 0., 0., 0., 0., 0., 0., 0., 0.,
          255., 255., 255., 255., 255., 255., 255., 255., 255., 255.,
          255., 255., 255., 255., 255., 68., 68., 68., 0., 0., 0., 0.,
          0., 0., 0., 0., 0., 0., 0., 0., 0., 0., 0., 0., 0., 0., 0., 0.,
          0., 88., 88., 88., 197., 197., 197., 255., 255., 255., 206.,
          206., 206., 10., 10., 10., 0., 0., 0., 0., 0., 0., 0., 0., 0.,
          0., 0., 0., 0., 0., 0., 0., 0., 0., 0., 0., 0., 0., 0., 0. ]
      - [ 0., 0., 0., 0., 0., 0., 0., 0., 0., 0., 0., 0., 0., 0., 0., 0.,
          0., 0., 0., 0., 0., 0., 0., 0., 0., 0., 0., 0., 0., 0., 0., 0.,
          0., 0., 0., 0., 0., 0., 0., 0., 0., 0., 0., 0., 0., 0., 0., 0.,
          0., 0., 0., 0., 0., 0., 0., 0., 0., 0., 0., 0., 0., 0., 0., 0.,
          0., 0., 0., 0., 0., 0., 0., 0., 0., 0., 0., 0., 0., 0., 0., 0.,
          0., 0., 0., 0., 0., 0., 0., 0., 0., 0., 0., 0., 0., 0., 0., 0.,
          0., 0., 0., 0., 0., 0., 0., 0., 0., 0., 0., 0., 0., 0., 0., 0.,
          0., 0., 0., 0., 0., 0., 0., 0., 0., 0., 0., 0., 0., 0., 0., 0.,
          0., 0., 0., 0., 0., 0., 0., 0., 0., 0., 0., 0., 0., 0., 0., 0.,
          0., 0., 0., 0., 0., 0., 0., 0., 0., 0., 0., 0., 0., 0., 0., 0.,
          0., 0., 0., 0., 0., 0., 0., 0., 0., 0., 0., 0., 0., 0., 0., 0.,
          0., 0., 0., 0., 0., 0., 0., 0., 0., 0., 0., 0., 0., 0., 0., 0.,
          0., 0., 0., 0., 0., 0., 0., 0., 0., 0., 0., 0., 0., 0., 0., 0.,
          0., 0., 0., 0., 0., 0., 0., 0., 0., 0., 0., 0., 0., 0., 0., 0.,
          0., 0., 0., 0., 0., 0., 0., 0., 0., 0., 0., 0., 0., 0., 0., 0.,
          0., 0., 0., 0., 0., 0., 0., 0., 0., 0., 0., 0., 0., 0., 0., 0.,
          0., 0., 0., 0., 0., 0., 0., 0., 0., 0., 0., 0., 0., 0., 0., 0.,
          0., 0., 0., 0., 0., 0., 0., 0., 0., 0., 0., 0., 0., 0., 0., 0.,
          0., 0., 0., 0., 0., 0., 0., 0., 0., 0., 0., 0., 0., 0., 0., 0.,
          0., 0., 0., 0., 0., 0., 0., 0., 0., 0., 0., 0., 0., 0., 0., 0.,
          0., 0., 0., 0., 0., 0., 0., 0., 0., 0., 0., 0., 0., 0., 0., 0.,
          0., 0., 0., 0., 0., 0., 0., 0., 0., 0., 0., 0., 0., 0., 0., 0.,
          0., 0., 0., 0., 0., 0., 0., 0., 0., 0., 0., 0., 0., 0., 0., 0.,
          0., 0., 0., 0., 0., 0., 0., 0., 0., 0., 0., 0., 0., 0., 0., 0.,
          0., 0., 0., 0., 0., 0., 108., 108., 108., 108., 108., 108.,
          108., 108., 108., 108., 108., 108., 108., 108., 108., 108.,
          108., 108., 108., 108., 108., 108., 108., 108., 108., 108.,
          108., 108., 108., 108., 108., 108., 108., 108., 108., 108.,
          108., 108., 108., 255., 255., 255., 255., 255., 255., 255.,
          255., 255., 255., 255., 255., 255., 255., 255., 255., 255.,
          255., 255., 255., 255., 255., 255., 255., 255., 255., 255.,
          255., 255., 255., 255., 255., 255., 255., 255., 255., 255.,
          255., 255., 255., 255., 255., 255., 255., 255., 255., 255.,
          255., 255., 255., 255., 255., 255., 255., 255., 255., 255.,
          255., 255., 255., 255., 255., 255., 255., 255., 255., 255.,
          255., 255., 255., 255., 255., 255., 255., 255., 255., 255.,
          255. ]
   decision_functions:
      -
         sv_count: 1
         rho: -1.5771447418127755e+00
         alpha: [ 1. ]
         index: [ 0 ]
