%YAML:1.0
---
opencv_ml_svm:
   format: 3
   svmType: C_SVC
   kernel:
      type: LINEAR
   C: 1.
   term_criteria: { iterations:100 }
   var_count: 10290
   class_count: 2
   class_labels: !!opencv-matrix
      rows: 2
      cols: 1
      dt: i
      data: [ -1, 1 ]
   sv_total: 1
   support_vectors:
      - [ 3.31632941e-06, 1.84181215e-06, 3.46552861e-06, 3.02284343e-06,
          1.54832628e-06, 3.17204285e-06, 2.80000245e-06, 1.31456386e-06,
          3.05596768e-06, 2.70972691e-06, 1.22428833e-06, 2.85679107e-06,
          2.61199375e-06, 9.00659813e-07, 3.02027161e-06, 1.97997770e-06,
          2.68643760e-07, 2.38825555e-06, 2.25385747e-06,
          -8.01567381e-08, 2.53945791e-06, 2.50696439e-06,
          1.72950323e-07, 2.79256506e-06, 2.79229266e-06,
          -1.18362721e-06, 1.67801454e-06, 1.36623396e-06,
          -2.60968591e-06, 2.51955925e-07, 5.83645033e-07,
          -4.21056120e-06, -7.92483775e-07, 6.92764843e-07,
          -4.10144139e-06, -6.65165771e-07, 2.71642375e-06,
          -2.19735762e-06, 1.46545790e-06, 1.79725657e-06,
          -3.11652479e-06, 5.46290664e-07, 5.71973260e-07,
          -3.84609120e-06, 3.10712522e-08, 9.81642643e-07,
          -3.43642182e-06, 4.40740621e-07, 1.38962957e-06,
          -1.60138450e-06, 2.25763620e-06, 2.34949016e-06,
          -6.41523854e-07, 3.21749690e-06, 2.25229110e-06,
          -6.24279267e-07, 3.35502523e-06, 2.26833572e-06,
          -6.08234416e-07, 3.36986568e-06, 3.58907232e-06,
          7.60047044e-07, 5.00198894e-06, 3.88382068e-06, 1.05479546e-06,
          5.18754860e-06, 3.66540075e-06, 8.65704067e-07, 5.09583651e-06,
          3.27817747e-06, 4.78480899e-07, 4.61762238e-06, 3.10241808e-06,
          2.22380947e-07, 4.56798352e-06, 4.18705804e-06, 1.30702097e-06,
          5.59802902e-06, 3.93231176e-06, 1.33835795e-06, 5.70885140e-06,
          3.65469623e-06, 1.06074231e-06, 5.43070064e-06, 2.94853749e-06,
          5.95282188e-07, 5.40768406e-06, 3.04088667e-06, 6.87631200e-07,
          5.47822219e-06, 2.75821776e-06, 7.35869662e-07, 5.49541983e-06,
          2.81700068e-06, 7.94652408e-07, 5.54577218e-06, 2.76295623e-06,
          8.60190426e-07, 5.15784859e-06, 2.25897224e-06, 3.56206385e-07,
          4.65386438e-06, 1.82310123e-06, -2.45020800e-07,
          4.00058570e-06, 1.84053943e-06, -2.27582632e-07,
          4.01802390e-06, 2.22234462e-06, -1.94452070e-07,
          4.22956009e-06, 2.31576655e-06, -1.01030203e-07,
          4.32298202e-06, 2.36997676e-06, -2.95545050e-07,
          4.24835844e-06, 2.25358076e-06, -4.11941102e-07,
          4.13196221e-06, 1.82889482e-06, -8.50231288e-07,
          3.88504077e-06, 1.63702100e-06, -1.05884033e-06,
          3.69115855e-06, 1.46048365e-06, -1.15505236e-06,
          3.40548422e-06, 1.28108059e-06, -1.31972843e-06,
          3.24080816e-06, 1.21295318e-06, -1.10686949e-06,
          2.74365561e-06, 1.30250351e-06, -1.01598039e-06,
          2.81505572e-06, 1.26288489e-06, -8.92898868e-07,
          2.51596953e-06, 1.36221649e-06, -7.90220270e-07,
          2.54274846e-06, 1.58294233e-06, -1.50155444e-07,
          2.39505130e-06, 1.66504037e-06, -6.87267772e-08,
          2.47647995e-06, 1.51692313e-06, 2.68538685e-07, 1.64931168e-06,
          1.42681870e-06, 1.78434334e-07, 1.55920725e-06, 1.40262171e-06,
          2.53114450e-07, 1.16536296e-06, 1.36202937e-06, 2.12522181e-07,
          1.12410123e-06, 1.23862037e-06, 1.94342746e-07, 1.10454062e-06,
          1.28360011e-06, 2.39322475e-07, 1.14885097e-06, 1.39613053e-06,
          3.30609708e-07, 1.25523775e-06, 1.41937790e-06, 3.53857075e-07,
          1.27848512e-06, 1.72259615e-06, 6.14454734e-07, 1.62142885e-06,
          1.83506268e-06, 7.26921314e-07, 1.73389537e-06, 2.05576703e-06,
          8.80434300e-07, 1.84071848e-06, 2.04784487e-06, 8.72512317e-07,
          1.83279644e-06, 1.60526395e-06, 3.52956619e-07, 1.32161961e-06,
          1.58062426e-06, 3.28316901e-07, 1.29631053e-06, 2.23356574e-06,
          9.21804713e-07, 1.85182273e-06, 2.73100545e-06, 1.41924431e-06,
          2.34926233e-06, 2.79730921e-06, 1.47933542e-06, 2.23465031e-06,
          2.65609106e-06, 1.33811704e-06, 2.07523385e-06, 2.52474274e-06,
          1.18233334e-06, 1.92229413e-06, 2.51766801e-06, 1.17525860e-06,
          1.91455001e-06, 2.37706377e-06, 9.51852087e-07, 1.83277905e-06,
          2.47316643e-06, 1.04393837e-06, 1.94306358e-06, 2.59610511e-06,
          1.08848235e-06, 2.00598652e-06, 2.58163641e-06, 1.08405482e-06,
          2.00155887e-06, 2.54795259e-06, 9.48271691e-07, 1.99430951e-06,
          2.37313361e-06, 7.70775273e-07, 1.80129257e-06, 2.33567994e-06,
          5.31885348e-07, 1.82134295e-06, 2.34386243e-06, 5.38728841e-07,
          1.82952533e-06, 2.15109549e-06, 3.26513941e-07, 1.72931220e-06,
          2.01874332e-06, 1.92153507e-07, 1.59696003e-06, 2.14227566e-06,
          1.56869604e-07, 1.64521737e-06, 2.07145035e-06, 8.47056540e-08,
          1.57439229e-06, 1.94733116e-06, -8.61608669e-08,
          1.38806729e-06, 1.90839705e-06, -1.24425682e-07,
          1.34913307e-06, 1.31697175e-06, 4.21214054e-07,
          -7.45600701e-08, 1.95340206e-07, -7.03095111e-07,
          -1.21426558e-06, -1.15626506e-06, -1.16084141e-06,
          -2.41778889e-06, -1.33094773e-06, -1.33552408e-06,
          -2.59247167e-06, -1.16918602e-06, -1.04913079e-06,
          -2.40175450e-06, -1.08989104e-06, -9.69835810e-07,
          -2.32245952e-06, -9.78598564e-07, -7.75386241e-07,
          -2.22519225e-06, -1.11810141e-06, -9.14888972e-07,
          -2.36469509e-06, -1.02574961e-06, -8.11772168e-07,
          -2.39264705e-06, -9.24253015e-07, -7.10275629e-07,
          -2.29115039e-06, -8.14400778e-07, -6.64386505e-07,
          -2.25113035e-06, -9.30622889e-07, -7.80608673e-07,
          -2.36735241e-06, -8.95011169e-07, -6.25676819e-07,
          -2.52376230e-06, -1.11077577e-06, -8.41441363e-07,
          -2.73952674e-06, 3.36280596e-06, 1.91517825e-06,
          3.46004435e-06, 3.04745413e-06, 1.59982642e-06, 3.14469253e-06,
          2.77509093e-06, 1.28565796e-06, 3.03179627e-06, 2.72809257e-06,
          1.23865971e-06, 2.98479813e-06, 2.40195027e-06, 2.86975848e-07,
          3.62093419e-06, 1.62435435e-06, -4.90620096e-07,
          2.84333828e-06, 2.21436858e-06, -6.43705675e-08,
          1.59944284e-06, 2.47735966e-06, 1.98620526e-07, 1.86243392e-06,
          2.42794863e-06, -1.03385651e-06, -2.33885407e-06,
          4.87031784e-08, -3.41310192e-06, -4.71809972e-06,
          -1.45050114e-06, -5.62121431e-06, -8.36806794e-06,
          -1.65993606e-06, -5.83064912e-06, -8.57750274e-06,
          3.28850319e-06, -1.15544344e-06, -8.02377326e-06,
          1.01116552e-06, -3.43278111e-06, -1.03011107e-05,
          -1.59202853e-06, -5.98547877e-06, -1.06839734e-05,
          -4.62478852e-07, -4.85592909e-06, -9.55442374e-06,
          1.42020531e-06, -2.16163039e-06, -3.06611764e-06,
          3.91740241e-06, 3.35566483e-07, -5.68920655e-07,
          3.10435894e-06, 1.35464091e-07, 1.38495159e-06, 1.81983285e-06,
          -1.14906197e-06, 9.92212321e-08, 3.18967068e-06,
          1.50900505e-07, 4.22816220e-06, 3.68219094e-06, 6.43420776e-07,
          4.73888076e-06, 3.27201087e-06, 5.27366126e-07, 4.68570761e-06,
          2.85364740e-06, 1.09002784e-07, 4.26734459e-06, 2.80235145e-06,
          -6.57473294e-08, 4.43289582e-06, 3.91460253e-06,
          1.04650394e-06, 5.52694883e-06, 3.95289180e-06, 1.09297923e-06,
          5.54155213e-06, 3.80416600e-06, 9.44253600e-07, 5.39162193e-06,
          3.59088813e-06, 7.02018781e-07, 5.40188239e-06, 3.66646304e-06,
          7.77593812e-07, 5.47625314e-06, 3.63513391e-06, 6.45977934e-07,
          5.45913917e-06, 3.60455283e-06, 6.15396857e-07, 5.40728206e-06,
          3.68351130e-06, 5.09372569e-07, 5.60248236e-06, 3.08869608e-06,
          -8.54426219e-08, 5.00766691e-06, 2.74854915e-06,
          -6.91201592e-07, 4.40758458e-06, 2.77235199e-06,
          -6.67398695e-07, 4.41318934e-06, 2.84442649e-06,
          -5.60350315e-07, 4.10630537e-06, 2.85768215e-06,
          -5.47094771e-07, 4.11956080e-06, 2.87180023e-06,
          -3.85382322e-07, 3.79325184e-06, 2.84901398e-06,
          -4.08168432e-07, 3.77046581e-06, 2.78323910e-06,
          -5.81250333e-07, 3.66538734e-06, 2.36596065e-06,
          -9.98528776e-07, 3.24743951e-06, 2.38606981e-06,
          -1.04540220e-06, 3.30113585e-06, 2.19664958e-06,
          -1.23482243e-06, 3.11171561e-06, 2.05732999e-06,
          -1.22026097e-06, 2.70320288e-06, 2.17510637e-06,
          -1.11921986e-06, 2.79263963e-06, 1.95682901e-06,
          -1.03270861e-06, 2.41886823e-06, 2.01190096e-06,
          -9.78306161e-07, 2.40703912e-06, 2.08383995e-06,
          -4.73765539e-07, 2.12776376e-06, 2.33323613e-06,
          -2.23030668e-07, 2.37715994e-06, 2.06072491e-06,
          8.34273663e-08, 1.76935816e-06, 1.96310702e-06,
          -1.41904399e-08, 1.67174028e-06, 1.80153438e-06,
          -1.26888695e-08, 1.40222210e-06, 1.74553202e-06,
          -6.86912927e-08, 1.34621962e-06, 1.51196775e-06,
          -7.43938386e-08, 1.24772157e-06, 1.56894532e-06,
          -1.87550366e-08, 1.30469914e-06, 1.63546304e-06,
          5.30429389e-08, 1.35473101e-06, 1.64325559e-06, 5.09926572e-08,
          1.35401945e-06, 1.91802587e-06, 2.57960238e-07, 1.63675293e-06,
          2.16103581e-06, 4.91127366e-07, 1.86992008e-06, 2.33394735e-06,
          6.77952585e-07, 1.97331337e-06, 2.25714984e-06, 6.01155250e-07,
          1.89651610e-06, 2.00902628e-06, 2.92078425e-07, 1.62290462e-06,
          1.96457154e-06, 2.47623689e-07, 1.57711111e-06, 2.43687737e-06,
          7.41782912e-07, 2.03045897e-06, 2.90282719e-06, 1.20773279e-06,
          2.51460710e-06, 2.90816274e-06, 1.13292333e-06, 2.35163407e-06,
          2.82569613e-06, 1.05045672e-06, 2.25163876e-06, 2.90616549e-06,
          8.59981526e-07, 2.30641240e-06, 2.96455755e-06, 9.18373416e-07,
          2.36279629e-06, 2.85799410e-06, 7.49826029e-07, 2.26252064e-06,
          2.96191433e-06, 8.71151030e-07, 2.40003556e-06, 3.07874006e-06,
          9.89750447e-07, 2.53110670e-06, 2.89860827e-06, 8.18990543e-07,
          2.36034657e-06, 2.96901544e-06, 8.11879715e-07, 2.21873324e-06,
          2.84135149e-06, 6.84215706e-07, 2.07287098e-06, 2.75633965e-06,
          5.87098725e-07, 2.10917642e-06, 2.75309799e-06, 5.83856888e-07,
          2.10459575e-06, 2.65279550e-06, 3.10242086e-07, 2.19102412e-06,
          2.55472264e-06, 2.08822215e-07, 2.09295149e-06, 2.51719189e-06,
          -3.96906259e-08, 2.23380471e-06, 2.46808463e-06,
          -8.94673136e-08, 2.18469745e-06, 2.43215277e-06,
          -1.47712257e-07, 2.11345696e-06, 2.46334571e-06,
          -1.17188605e-07, 2.12645182e-06, 2.15706996e-06,
          3.34150229e-07, 1.05028732e-06, 1.21516894e-06,
          -6.07081347e-07, 1.08386303e-07, -2.33072470e-07,
          -9.96699669e-07, -1.14168381e-06, -7.05804780e-07,
          -1.46943194e-06, -1.61441608e-06, -4.20316923e-07,
          -1.12230305e-06, -1.38373150e-06, -8.69423573e-08,
          -7.74870955e-07, -1.04700985e-06, -6.38402639e-07,
          -9.37579728e-07, -1.39587496e-06, -7.36036498e-07,
          -1.03521359e-06, -1.49350876e-06, -7.93341201e-07,
          -6.97624557e-07, -1.67801306e-06, -9.34560035e-07,
          -8.38843391e-07, -1.81923190e-06, -1.25221334e-06,
          -8.45084571e-07, -2.10921507e-06, -1.26788905e-06,
          -8.60760338e-07, -2.12489067e-06, -1.66065831e-06,
          -6.11401504e-07, -2.39664473e-06, -2.00624868e-06,
          -9.56991926e-07, -2.74223521e-06, 3.32787022e-06,
          1.88024251e-06, 3.44330670e-06, 3.06460970e-06, 1.61698199e-06,
          3.18004618e-06, 2.71882004e-06, 1.22938718e-06, 2.99372368e-06,
          2.61380774e-06, 1.12437488e-06, 2.88871138e-06, 3.01934278e-06,
          9.04368392e-07, 4.25652479e-06, 2.22690051e-06, 1.11926113e-07,
          3.46408251e-06, 2.68547888e-06, 4.06739730e-07, 2.08875144e-06,
          3.17886315e-06, 9.00124121e-07, 2.56393764e-06, 2.78163316e-06,
          -6.80171922e-07, -1.96697147e-06, -2.43315753e-07,
          -3.70512089e-06, -4.99192038e-06, -2.13863041e-06,
          -6.30934392e-06, -9.05619709e-06, -2.45266324e-06,
          -6.62337652e-06, -9.36955985e-06, 4.54863539e-06,
          1.04688702e-07, -6.76297122e-06, 1.38541452e-06,
          -3.05853200e-06, -9.92686182e-06, -2.13113503e-06,
          -6.52458539e-06, -1.12230800e-05, -7.50936124e-07,
          -5.14438671e-06, -9.84288090e-06, 1.72120190e-06,
          -1.86063392e-06, -2.76512105e-06, 4.56338012e-06,
          9.81544304e-07, 7.70571091e-08, 3.62957303e-06, 6.60678211e-07,
          1.91016579e-06, 1.96208612e-06, -1.00680859e-06,
          2.41474538e-07, 2.82058818e-06, -2.18181924e-07,
          3.91300500e-06, 3.16684873e-06, 1.28078739e-07, 4.25926555e-06,
          2.91464062e-06, 1.69995900e-07, 4.38226243e-06, 2.84751650e-06,
          1.02871766e-07, 4.31513854e-06, 2.85113060e-06,
          -1.69680145e-08, 4.53560051e-06, 3.89229399e-06,
          1.02419540e-06, 5.57743306e-06, 3.94952349e-06, 1.08961126e-06,
          5.60977242e-06, 3.80200549e-06, 9.42093152e-07, 5.46292358e-06,
          3.68596466e-06, 7.97095311e-07, 5.53402469e-06, 3.60212493e-06,
          7.13255645e-07, 5.45018474e-06, 3.76902176e-06, 7.79865616e-07,
          5.59730961e-06, 3.54232111e-06, 5.53165080e-07, 5.35308027e-06,
          3.81816835e-06, 6.44029910e-07, 5.73914758e-06, 3.00004922e-06,
          -1.74089394e-07, 4.92102845e-06, 2.67412406e-06,
          -7.65626680e-07, 4.33516789e-06, 2.74006220e-06,
          -6.99688428e-07, 4.38424695e-06, 2.78654943e-06,
          -6.18227489e-07, 4.05311403e-06, 2.75926345e-06,
          -6.45513467e-07, 4.00762974e-06, 2.81833263e-06,
          -4.38849867e-07, 3.72828026e-06, 2.96706685e-06,
          -2.90115651e-07, 3.87768387e-06, 2.90984326e-06,
          -4.54646283e-07, 3.79935500e-06, 2.77885897e-06,
          -5.85630687e-07, 3.66837048e-06, 2.61995865e-06,
          -8.11513416e-07, 3.51013227e-06, 2.30778051e-06,
          -1.12369150e-06, 3.21615244e-06, 2.17628963e-06,
          -1.11803661e-06, 2.81093071e-06, 2.23306415e-06,
          -1.06126208e-06, 2.87682838e-06, 1.92874131e-06,
          -1.06079619e-06, 2.41701173e-06, 1.91550271e-06,
          -1.07403491e-06, 2.30327760e-06, 2.15676505e-06,
          -4.18244980e-07, 2.19131721e-06, 2.45960609e-06,
          -1.15404077e-07, 2.49148047e-06, 2.15567889e-06,
          1.58968589e-07, 1.85159342e-06, 2.06605523e-06, 6.93450488e-08,
          1.77949858e-06, 1.88279921e-06, 4.98325079e-08, 1.48829690e-06,
          1.78039272e-06, -5.25739381e-08, 1.38655980e-06,
          1.58227385e-06, -2.28311201e-08, 1.32350704e-06,
          1.61906632e-06, 1.39613068e-08, 1.36029951e-06, 1.63418986e-06,
          5.17697067e-08, 1.37634174e-06, 1.64359255e-06, 6.11723721e-08,
          1.38574444e-06, 1.81580788e-06, 1.55742313e-07, 1.55541079e-06,
          2.06020400e-06, 3.90295554e-07, 1.78996413e-06, 2.25285771e-06,
          5.96863174e-07, 1.91309982e-06, 2.21814980e-06, 5.62155208e-07,
          1.87839180e-06, 2.05799734e-06, 3.41049372e-07, 1.69275143e-06,
          2.11936276e-06, 4.02414940e-07, 1.75411697e-06, 2.40658710e-06,
          7.11492703e-07, 2.02238334e-06, 2.73004093e-06, 1.03494642e-06,
          2.36470487e-06, 2.73523096e-06, 9.59991553e-07, 2.19957815e-06,
          2.68572103e-06, 9.10481504e-07, 2.13186991e-06, 2.81874259e-06,
          7.72558565e-07, 2.23919596e-06, 2.94301003e-06, 8.96826009e-07,
          2.36279402e-06, 3.07262121e-06, 9.64453307e-07, 2.49936238e-06,
          3.10065525e-06, 9.92487344e-07, 2.52806581e-06, 3.04789774e-06,
          9.68949280e-07, 2.52850350e-06, 2.92229674e-06, 8.34646130e-07,
          2.39420046e-06, 2.95965924e-06, 7.87127135e-07, 2.19398066e-06,
          2.86460045e-06, 7.07464551e-07, 2.11431802e-06, 2.85770921e-06,
          6.88468106e-07, 2.22807466e-06, 2.90302933e-06, 7.17722628e-07,
          2.23779216e-06, 2.73581509e-06, 3.91253366e-07, 2.27404371e-06,
          2.67210112e-06, 3.26870065e-07, 2.21032974e-06, 2.71214572e-06,
          1.56602070e-07, 2.42875853e-06, 2.55138048e-06,
          -4.16323642e-09, 2.26799330e-06, 2.56710655e-06,
          -1.14195968e-08, 2.23021266e-06, 2.58908790e-06,
          9.22299215e-09, 2.23399593e-06, 2.33699052e-06, 5.14070791e-07,
          1.23020777e-06, 2.04780781e-06, 2.24888154e-07, 9.41025235e-07,
          7.81898905e-07, 4.88363527e-09, -1.27381810e-07,
          -1.06764517e-07, -8.70391659e-07, -9.99310032e-07,
          1.86549187e-07, -5.01379361e-07, -7.58121928e-07,
          8.53811855e-07, 1.65883279e-07, -1.06255634e-07,
          -2.94953253e-07, -5.94130313e-07, -1.05242555e-06,
          -6.05810101e-07, -9.04987189e-07, -1.36328242e-06,
          -6.08492485e-07, -5.12775841e-07, -1.49316440e-06,
          -5.78464096e-07, -4.82747453e-07, -1.46313596e-06,
          -1.04265803e-06, -6.35529261e-07, -1.89965965e-06,
          -1.09660346e-06, -6.89474689e-07, -1.95360508e-06,
          -1.80004611e-06, -7.50789297e-07, -2.53603253e-06,
          -1.99340298e-06, -9.44146223e-07, -2.72938951e-06,
          2.80235281e-06, 2.04189860e-06, 3.77810125e-06, 2.47150456e-06,
          1.71105046e-06, 3.44725322e-06, 3.70703242e-06, 1.31692730e-06,
          3.89768047e-06, 3.20784602e-06, 8.17741011e-07, 3.39849430e-06,
          2.63315906e-06, 9.84257099e-07, 3.17266608e-06, 1.99594933e-06,
          3.47047404e-07, 2.53492158e-06, 2.88274464e-06, 6.69163569e-07,
          1.75438390e-06, 3.19537094e-06, 9.81789753e-07, 2.06700997e-06,
          2.85654005e-06, -8.82085544e-07, -2.40851546e-06,
          -1.27339391e-07, -3.86596503e-06, -5.39239500e-06,
          -2.20163656e-06, -6.19664797e-06, -9.32507373e-06,
          -1.99099622e-06, -5.98600764e-06, -9.13263193e-06,
          6.04421666e-06, 2.80411177e-06, -3.00858483e-06,
          -1.78860901e-07, -3.41896612e-06, -9.23647985e-06,
          -7.29089322e-07, -6.32435831e-06, -1.41638020e-05,
          6.68584278e-07, -4.92668460e-06, -1.15332869e-05,
          6.84485576e-06, 3.96451560e-06, 1.77694665e-06, 6.81090341e-06,
          4.50654079e-06, 2.55723103e-06, 2.98615191e-06, 2.38488724e-07,
          3.20476624e-06, 1.33956007e-06, -1.40810312e-06,
          1.66587131e-06, 2.17901015e-06, -2.22000210e-07,
          4.11286965e-06, 2.24133373e-06, -1.59676688e-07,
          4.20772130e-06, 2.51855840e-06, -8.67499239e-07,
          4.63674360e-06, 2.62252979e-06, -7.63527794e-07,
          4.75891329e-06, 3.86926695e-06, 4.99995963e-07, 5.29665112e-06,
          4.20174092e-06, 8.32469880e-07, 5.63046387e-06, 3.36350831e-06,
          1.52330097e-06, 4.71182148e-06, 3.27256976e-06, 1.43236241e-06,
          4.60201545e-06, 3.21511629e-06, 1.34704828e-06, 4.47591765e-06,
          2.94965230e-06, 1.08158406e-06, 4.17405727e-06, 3.67715302e-06,
          1.19578829e-06, 5.18084198e-06, 3.22522396e-06, 7.44528563e-07,
          4.72770853e-06, 3.74738352e-06, 6.31511796e-07, 5.74611613e-06,
          2.92037930e-06, -1.95492461e-07, 4.89368767e-06,
          2.57677789e-06, -7.90840829e-07, 4.75328443e-06,
          2.39304109e-06, -9.74577688e-07, 4.55134932e-06,
          2.45026649e-06, -7.81534595e-07, 4.35729362e-06,
          2.34528943e-06, -8.86511657e-07, 4.23411848e-06,
          2.16604167e-06, -5.70707186e-07, 3.18268690e-06,
          2.45156502e-06, -2.85184001e-07, 3.46821002e-06,
          2.55098257e-06, -2.12699589e-07, 3.32000104e-06,
          3.42954513e-06, 6.65863070e-07, 4.19856360e-06, 2.91718970e-06,
          -6.36123957e-07, 3.80334518e-06, 2.54283168e-06,
          -1.01048215e-06, 3.44718524e-06, 2.60709430e-06,
          -9.39772690e-07, 2.90640446e-06, 2.53476719e-06,
          -1.01209969e-06, 2.85227566e-06, 1.26482348e-06,
          -6.62985826e-07, 1.28936824e-06, 1.27471719e-06,
          -6.53092115e-07, 1.29926195e-06, 9.50373419e-07,
          -2.88596340e-07, 1.16382910e-06, 1.53217593e-06,
          2.93206199e-07, 1.74563161e-06, 1.77940046e-06,
          -4.78593805e-08, 2.33085234e-06, 1.69275188e-06,
          -1.34507999e-07, 2.26240195e-06, 1.63954724e-06,
          -1.48282489e-08, 1.67640485e-06, 1.64373523e-06,
          -1.06403313e-08, 1.68059285e-06, 1.64993912e-06,
          -5.85364468e-08, 1.59263743e-06, 1.60626848e-06,
          -1.02207146e-07, 1.54896679e-06, 1.55538453e-06,
          -1.26046260e-07, 1.54567715e-06, 1.61891205e-06,
          -6.25187866e-08, 1.60920456e-06, 1.69766793e-06,
          -3.66873216e-08, 1.63859147e-06, 1.71787428e-06,
          -3.61666110e-08, 1.63911216e-06, 2.06123400e-06,
          2.72819051e-07, 1.85223382e-06, 2.08104439e-06, 2.92629352e-07,
          1.87204409e-06, 2.00265504e-06, 2.41100480e-07, 1.84214230e-06,
          2.18773289e-06, 4.26178360e-07, 2.02788965e-06, 2.46700097e-06,
          6.43984720e-07, 2.24599739e-06, 2.56260000e-06, 7.39583925e-07,
          2.34092704e-06, 2.78013863e-06, 8.88043303e-07, 2.51495021e-06,
          2.75235743e-06, 8.60262048e-07, 2.48649962e-06, 2.74650984e-06,
          7.12105305e-07, 2.44204875e-06, 2.86915133e-06, 8.34746970e-07,
          2.56602925e-06, 3.24912435e-06, 6.72464580e-07, 3.24434677e-06,
          3.28361170e-06, 7.06951880e-07, 3.29904060e-06, 3.08749281e-06,
          9.23230857e-07, 2.73297678e-06, 2.95112545e-06, 7.86863495e-07,
          2.57707256e-06, 2.81985785e-06, 7.62591867e-07, 2.66171764e-06,
          2.75409002e-06, 6.88791147e-07, 2.58791670e-06, 3.16399655e-06,
          9.36485264e-07, 2.59437888e-06, 3.07075425e-06, 8.43242958e-07,
          2.50113658e-06, 3.02991816e-06, 6.40380904e-07, 2.64413097e-06,
          2.81782582e-06, 4.28288530e-07, 2.41798102e-06, 2.72278885e-06,
          8.91747050e-08, 2.50820926e-06, 2.61292985e-06,
          -2.06843431e-08, 2.39901965e-06, 2.36393430e-06,
          -3.88886647e-08, 2.16011267e-06, 2.40639315e-06,
          3.57001984e-09, 2.20391007e-06, 2.30489991e-06, 3.64233017e-07,
          1.71851457e-06, 2.24915789e-06, 3.08490911e-07, 1.66277243e-06,
          1.89381444e-06, 4.41233283e-07, 1.14154000e-06, 1.27296960e-06,
          -1.82958559e-07, 5.17348212e-07, -4.87223645e-07,
          -1.91344725e-06, -1.22020958e-06, 8.15894396e-07,
          -6.10329209e-07, 8.29084073e-08, 2.13693198e-07,
          -1.19024810e-06, -7.96533129e-07, -1.47147308e-08,
          -1.41865598e-06, -1.02494107e-06, -5.71185922e-07,
          -1.04810795e-06, -1.82775966e-06, -2.73327032e-07,
          -7.50249114e-07, -1.52990083e-06, -2.33810297e-07,
          -6.82862037e-07, -2.65063619e-07, -1.52808568e-07,
          -6.01860279e-07, -1.84061889e-07, -1.30878493e-06,
          -1.28274201e-06, -1.09791097e-06, -1.36404503e-06,
          -1.33800222e-06, -1.15317118e-06, 2.17921729e-06,
          1.42947363e-06, 3.22495657e-06, 2.34727509e-06, 1.59753142e-06,
          3.39301437e-06, 4.05962464e-06, 1.68023007e-06, 4.32093293e-06,
          4.07230027e-06, 1.69290558e-06, 4.33360856e-06, 3.85097655e-06,
          2.21278492e-06, 4.46114382e-06, 2.90447861e-06, 1.26628720e-06,
          3.51344170e-06, 2.96019039e-06, 7.55980864e-07, 1.88228341e-06,
          2.56628596e-06, 3.62076406e-07, 1.48837898e-06, 1.95560597e-06,
          -1.77766435e-06, -3.27719385e-06, -4.99121484e-07,
          -4.23239180e-06, -5.75011927e-06, -1.84356895e-06,
          -5.83523297e-06, -8.95535777e-06, -1.68280428e-06,
          -5.67446841e-06, -8.79579693e-06, 7.03347860e-06,
          4.50290690e-06, -1.31915294e-06, 4.66752738e-07,
          -2.76933588e-06, -8.60103046e-06, -4.69878955e-07,
          -6.06180083e-06, -1.26736177e-05, 2.66256120e-06,
          -2.92936056e-06, -9.54719962e-06, 6.77806338e-06,
          4.58413388e-06, 2.62488697e-06, 6.74805824e-06, 3.19943592e-06,
          1.00959562e-06, 2.05609422e-06, -6.84874806e-07,
          2.30857108e-06, 1.74785555e-06, -9.93113531e-07,
          2.01358057e-06, 2.21502273e-06, -1.77285401e-07,
          4.09177346e-06, 1.81312282e-06, -5.79185269e-07,
          3.79877474e-06, 2.11185761e-06, -1.26281998e-06,
          4.26363749e-06, 3.00187753e-06, -3.72800002e-07,
          5.15365718e-06, 4.19922526e-06, 8.42672989e-07, 5.64200582e-06,
          3.79423500e-06, 4.37682900e-07, 5.23701556e-06, 2.72620719e-06,
          8.99388056e-07, 4.08924734e-06, 3.16697742e-06, 1.34015818e-06,
          4.53001758e-06, 3.25189876e-06, 1.38249175e-06, 4.51269989e-06,
          3.52092479e-06, 1.65151778e-06, 4.78052152e-06, 4.19802336e-06,
          1.71398119e-06, 5.71870623e-06, 3.18553521e-06, 7.01492695e-07,
          4.68681537e-06, 3.45231706e-06, 3.34437090e-07, 5.44864088e-06,
          2.90764933e-06, -2.10230539e-07, 4.90036018e-06,
          2.40767986e-06, -9.64624860e-07, 4.60238425e-06,
          2.29211719e-06, -1.08018753e-06, 4.46862350e-06,
          2.37957738e-06, -8.56909594e-07, 4.30480259e-06,
          2.37068048e-06, -8.65806498e-07, 4.29590591e-06,
          2.17761635e-06, -5.33025741e-07, 3.24605412e-06,
          2.34836830e-06, -3.62273823e-07, 3.41680607e-06,
          2.29092348e-06, -4.47990658e-07, 3.09353641e-06,
          2.58821547e-06, -1.52037472e-07, 3.39082840e-06,
          2.97731594e-06, -5.53907398e-07, 3.91459480e-06,
          2.57465672e-06, -9.57235898e-07, 3.51193557e-06,
          2.56348221e-06, -9.61294290e-07, 2.89638683e-06,
          2.63342213e-06, -8.91354375e-07, 2.98452505e-06,
          1.01882097e-06, -8.88906129e-07, 1.07428264e-06,
          1.10481506e-06, -8.02912041e-07, 1.16027672e-06,
          7.78664116e-07, -4.40223403e-07, 1.02303670e-06,
          1.45753040e-06, 2.38642912e-07, 1.70190310e-06, 1.63769801e-06,
          -1.70818439e-07, 2.22140557e-06, 1.53563292e-06,
          -2.72883625e-07, 2.14235615e-06, 1.51411291e-06,
          -1.23527457e-07, 1.58322621e-06, 1.50963763e-06,
          -1.44737854e-07, 1.56335466e-06, 1.59035358e-06,
          -1.18121996e-07, 1.54857253e-06, 1.50519088e-06,
          -1.84541292e-07, 1.47880610e-06, 1.48261904e-06,
          -1.78060120e-07, 1.50382857e-06, 1.51957727e-06,
          -1.41771309e-07, 1.54078680e-06, 1.59556930e-06,
          -1.20042529e-07, 1.56540159e-06, 1.64447056e-06,
          -9.01575703e-08, 1.59461706e-06, 1.83319526e-06,
          6.28542551e-08, 1.65176493e-06, 1.99236638e-06, 2.20686431e-07,
          1.81093594e-06, 1.95049324e-06, 1.79095963e-07, 1.79097253e-06,
          2.06010145e-06, 2.88704058e-07, 1.90058063e-06, 2.37400491e-06,
          5.50988773e-07, 2.16316676e-06, 2.49240429e-06, 6.69388044e-07,
          2.28223530e-06, 2.61640139e-06, 7.24306119e-07, 2.36472533e-06,
          2.59211060e-06, 7.00015221e-07, 2.32223647e-06, 2.73433557e-06,
          6.99931036e-07, 2.44472562e-06, 2.79407368e-06, 7.59669319e-07,
          2.50446396e-06, 3.10684595e-06, 5.30186242e-07, 3.11558074e-06,
          3.13224427e-06, 5.72319777e-07, 3.17256558e-06, 2.94623374e-06,
          7.98707049e-07, 2.59305671e-06, 2.97573297e-06, 8.28206112e-07,
          2.62255571e-06, 3.02309036e-06, 9.57791485e-07, 2.87511534e-06,
          3.00218835e-06, 9.36220147e-07, 2.83534587e-06, 3.35200139e-06,
          1.11311010e-06, 2.79857363e-06, 3.27387397e-06, 1.03163575e-06,
          2.72044622e-06, 3.16191267e-06, 7.64342644e-07, 2.77624963e-06,
          3.01114187e-06, 6.09555229e-07, 2.62547883e-06, 2.98475675e-06,
          3.36415667e-07, 2.74942545e-06, 2.68960548e-06, 5.59911868e-08,
          2.47368689e-06, 2.41798307e-06, 1.77196957e-09, 2.19675690e-06,
          2.42088549e-06, 4.67419126e-09, 2.18146079e-06, 2.21215419e-06,
          2.60107498e-07, 1.60903380e-06, 1.80386428e-06,
          -1.48851939e-07, 1.20074378e-06, 6.80357289e-07,
          -7.67538040e-07, -5.38431486e-08, -1.90236722e-06,
          -3.35360960e-06, -2.65330277e-06, -4.64895083e-06,
          -6.09057088e-06, -5.39733310e-06, -3.68322435e-06,
          -5.12484394e-06, -4.43160661e-06, -3.41344594e-06,
          -4.81738743e-06, -4.42367218e-06, -2.49013124e-06,
          -3.89407251e-06, -3.50035771e-06, -5.24472398e-06,
          -5.72164618e-06, -6.50129778e-06, -5.74222258e-06,
          -6.21914478e-06, -6.99879638e-06, -3.31393949e-06,
          -3.76299135e-06, -3.34519291e-06, -1.28681131e-06,
          -1.73586307e-06, -1.31806473e-06, -1.32351033e-06,
          -1.29746752e-06, -1.11263648e-06, -1.19042522e-06,
          -1.16438241e-06, -9.79551260e-07, 3.27622706e-06,
          2.20568859e-06, 3.03539991e-06, 2.85591409e-06, 1.78537573e-06,
          2.61508717e-06, 3.37624510e-06, 7.99916108e-07, 9.16147371e-07,
          2.74723357e-06, 1.70904542e-07, 2.87135805e-07, 1.96600286e-06,
          9.12157418e-07, 1.46261482e-06, 1.47695766e-06, 4.23112198e-07,
          9.73569513e-07, 1.66136192e-06, -1.25464126e-07,
          1.16714727e-06, 1.81474445e-06, 2.79184267e-08, 1.30233173e-06,
          3.53294763e-06, -5.91147284e-07, 2.47808089e-06,
          3.26337454e-06, -8.60720320e-07, 2.20850779e-06,
          4.87373973e-06, -1.86153414e-07, 3.68896190e-06,
          6.36834102e-06, 1.32618402e-06, 5.18189700e-06, 6.96561210e-06,
          4.24019254e-06, 5.93005552e-06, 2.96860776e-06,
          -2.82999309e-07, 1.30854824e-06, 1.40798977e-06,
          -2.49927598e-06, -1.71510658e-06, 4.63812466e-06,
          7.30858858e-07, 1.50780204e-06, 6.67655831e-06, 4.51161804e-06,
          7.35512367e-06, 4.62603111e-06, 2.04686262e-06, 3.68396695e-06,
          -4.95115387e-07, -1.00814998e-06, 2.86986574e-06,
          -7.07115646e-07, -1.22015024e-06, 2.63618676e-06,
          2.84362181e-06, -2.71818180e-07, 5.12633096e-06,
          9.76022534e-07, -2.13941735e-06, 3.25873179e-06,
          4.66640074e-07, -2.75566526e-06, -1.16941510e-06,
          1.40665236e-06, -1.81565304e-06, -2.29402843e-07,
          2.47964113e-06, -7.62214370e-07, 1.50184221e-07,
          2.15796831e-06, -1.08388701e-06, -1.71488452e-07,
          2.28998761e-06, -8.16582030e-07, 3.45822946e-06,
          3.99543705e-06, 8.88867305e-07, 5.16247428e-06, 2.54823340e-06,
          -1.24773640e-08, 6.83313965e-06, 2.38476969e-06,
          -1.75941139e-07, 6.66847154e-06, 2.13398812e-06,
          -9.59735971e-08, 6.24541872e-06, 1.77476602e-06,
          -4.55195789e-07, 5.84859572e-06, 1.84668841e-06,
          2.63391030e-07, 5.29447425e-06, 1.65794188e-06, 7.46445110e-08,
          5.08632502e-06, 2.18623723e-06, -1.38886548e-07,
          4.72452530e-06, 1.40922396e-06, -9.15899761e-07,
          3.94751214e-06, 1.83935879e-06, -1.33881701e-06,
          4.40507210e-06, 2.21560185e-06, -9.62573949e-07,
          4.78131506e-06, 3.01359455e-06, -4.74904844e-08,
          3.56346322e-06, 2.80546828e-06, -2.55616698e-07,
          3.35533718e-06, 2.88985893e-06, -8.92115111e-07,
          2.80618679e-06, 2.74742047e-06, -1.03455352e-06,
          2.66374832e-06, 3.28946953e-06, -1.13705073e-06,
          3.15080251e-06, 3.43161469e-06, -9.94905690e-07,
          3.29294744e-06, 2.57956253e-06, -1.34798097e-06,
          1.99187934e-06, 3.26705458e-06, -6.60488922e-07,
          2.67937139e-06, 1.32772345e-06, -5.02067053e-07,
          1.69814507e-06, 1.41989619e-06, -4.09894312e-07,
          1.79031770e-06, 8.50210256e-07, -3.63761465e-09,
          2.94757865e-06, 1.32713683e-06, 4.73289020e-07, 3.42450539e-06,
          4.36546003e-07, -5.52911843e-07, 2.07358153e-06,
          4.26423924e-07, -5.63033950e-07, 2.06345931e-06,
          4.91809089e-07, -2.99762746e-07, 1.68173119e-06,
          5.08981998e-07, -2.82589838e-07, 1.69890416e-06,
          7.95740050e-07, -2.53317438e-07, 1.56752969e-06,
          7.64338836e-07, -2.84718652e-07, 1.53612848e-06,
          6.94620724e-07, -2.65526467e-07, 1.47179514e-06,
          6.80226890e-07, -2.79920272e-07, 1.45740137e-06,
          7.51993809e-07, -2.05541582e-07, 1.45910553e-06,
          7.35231311e-07, -2.41989795e-07, 1.42265731e-06,
          8.11172015e-07, -1.08166240e-07, 1.38512587e-06,
          9.74240606e-07, 5.49023156e-08, 1.54819440e-06, 1.05928996e-06,
          1.39744401e-07, 1.63664095e-06, 1.14401860e-06, 2.24472984e-07,
          1.72136959e-06, 1.43162788e-06, 5.22374592e-07, 2.01321086e-06,
          1.50316907e-06, 6.03758679e-07, 2.09459495e-06, 1.63240850e-06,
          8.74423790e-07, 2.02508272e-06, 1.54128873e-06, 7.83304074e-07,
          1.93396295e-06, 1.59818910e-06, 9.20796481e-07, 2.10256121e-06,
          1.62252843e-06, 9.45135810e-07, 2.12690043e-06, 1.95708276e-06,
          9.97564598e-07, 2.18901664e-06, 1.87334388e-06, 9.13825659e-07,
          2.10527787e-06, 2.10001713e-06, 7.32589683e-07, 2.68252461e-06,
          2.30295836e-06, 9.35531034e-07, 2.88546607e-06, 2.46549689e-06,
          1.00238765e-06, 3.38508949e-06, 2.56762814e-06, 1.10451890e-06,
          3.46902266e-06, 2.59371700e-06, 1.16297360e-06, 3.32671448e-06,
          2.37667814e-06, 9.45934801e-07, 3.12787370e-06, 2.18452806e-06,
          9.55010137e-07, 2.82637984e-06, 2.19795675e-06, 9.68438712e-07,
          2.83980853e-06, 2.21069740e-06, 1.05081756e-06, 2.35728589e-06,
          1.89041998e-06, 7.30540023e-07, 2.01881016e-06, 1.30100568e-06,
          4.11431017e-07, 1.77134768e-06, 1.23926145e-06, 3.49686758e-07,
          1.70960334e-06, 3.43371596e-07, 2.36920442e-07, 1.53924293e-06,
          2.65674117e-07, 1.59222935e-07, 1.40695090e-06, 2.61628156e-06,
          1.52607913e-06, -1.15269835e-07, -1.60448542e-06,
          -2.69468796e-06, -4.33603691e-06, -1.71775878e-06,
          -4.77788899e-06, -1.18808730e-05, -1.25299255e-06,
          -4.31312264e-06, -1.14343047e-05, 2.70089436e-06,
          -1.36065034e-06, -1.10725287e-05, 2.11715655e-06,
          -1.94438803e-06, -1.16621104e-05, -1.24979852e-06,
          -3.87876344e-06, -1.38763762e-05, -2.14527017e-06,
          -4.77423509e-06, -1.69190225e-05, 1.41782300e-06,
          -6.97845280e-07, -7.63554726e-06, 4.61999070e-06,
          2.50432231e-06, -4.43337967e-06, 1.34644881e-06,
          1.43438899e-06, -1.76673427e-06, 9.80944264e-07,
          1.06888433e-06, -2.13223893e-06, 2.38366124e-06,
          1.31312277e-06, 2.14283409e-06, 8.88612476e-07,
          -1.81925927e-07, 6.47785384e-07, -5.72581826e-07,
          -3.14891099e-06, -3.03267961e-06, -2.14926467e-06,
          -4.72559350e-06, -4.60936235e-06, -4.36663504e-06,
          -5.42048065e-06, -4.87002353e-06, -4.81554662e-06,
          -5.86939223e-06, -5.31893465e-06, -4.66970414e-06,
          -6.45653017e-06, -5.16391856e-06, -4.59547437e-06,
          -6.38230040e-06, -5.08968924e-06, -2.61269997e-06,
          -6.73679506e-06, -3.66756694e-06, -2.37201266e-06,
          -6.49610774e-06, -3.42687940e-06, -4.05541215e-07,
          -5.46543424e-06, -1.55151395e-06, 9.83526775e-07,
          -4.07636662e-06, -1.98842358e-07, 5.23334347e-06,
          1.98173643e-06, 3.61918273e-06, 5.95190522e-06, 2.70029796e-06,
          4.33292689e-06, 5.85432190e-06, 1.94705603e-06, 2.77230674e-06,
          6.49597087e-06, 2.58870523e-06, 3.40913834e-06, 6.60007345e-06,
          4.43513272e-06, 6.42107307e-06, 4.45435444e-06, 1.87518629e-06,
          3.54975873e-06, 4.83426504e-07, -2.96080742e-08,
          3.88119088e-06, -7.37210087e-07, -1.25024462e-06,
          2.66296297e-06, 2.16874651e-06, -9.46693433e-07,
          4.44784291e-06, -9.36339063e-07, -4.05177889e-06,
          1.34516597e-06, -3.44448699e-06, -6.66679261e-06,
          -5.08174662e-06, -3.28620763e-06, -6.50851325e-06,
          -4.92346726e-06, -2.54430665e-06, -5.78616209e-06,
          -4.87496800e-06, -2.06103550e-06, -5.30289071e-06,
          -4.39169662e-06, 3.05573565e-07, -2.80099607e-06,
          1.47261107e-06, 3.35760024e-06, 2.51030514e-07, 4.52463792e-06,
          2.82595283e-06, 2.65242107e-07, 7.10845052e-06, 2.54486849e-06,
          -1.58423727e-08, 6.82375276e-06, 1.71808244e-06,
          -5.11879364e-07, 5.82469556e-06, 1.59871752e-06,
          -6.31244291e-07, 5.70292195e-06, 1.75275932e-06,
          1.69461899e-07, 5.23212384e-06, 1.91923664e-06, 3.35939291e-07,
          5.36100060e-06, 3.33407161e-06, 1.00894783e-06, 5.89055799e-06,
          1.82259214e-06, -5.02531577e-07, 4.37907875e-06,
          2.24106157e-06, -9.37114237e-07, 4.82497308e-06,
          2.00766613e-06, -1.17050979e-06, 4.59157764e-06,
          2.07626113e-06, -9.84823828e-07, 2.64432811e-06,
          1.72869761e-06, -1.33238734e-06, 2.29676471e-06,
          9.35888295e-07, -2.84608586e-06, 8.70414169e-07,
          2.75923156e-07, -3.50605092e-06, 2.10449059e-07,
          -1.10891342e-07, -4.53741177e-06, -2.31360289e-07,
          -5.04799743e-07, -4.93132029e-06, -6.25268683e-07,
          -8.46929424e-07, -4.77447293e-06, -1.43461273e-06,
          1.28757915e-06, -2.63996435e-06, 6.99895793e-07,
          6.73129364e-07, -1.15666114e-06, 1.04355092e-06,
          1.18098853e-06, -6.48801972e-07, 1.55141004e-06,
          8.86142175e-07, 3.22943023e-08, 2.98351074e-06, 7.25660868e-07,
          -1.28186983e-07, 2.82302926e-06, 7.21919434e-07,
          -2.67538383e-07, 2.35895482e-06, 6.32881267e-07,
          -3.56576606e-07, 2.28811496e-06, 5.81159725e-07,
          -2.10412125e-07, 1.78927996e-06, 4.86008332e-07,
          -3.05563532e-07, 1.69412863e-06, 8.51328821e-07,
          -1.97728639e-07, 1.64131666e-06, 8.01512499e-07,
          -2.47544989e-07, 1.59150034e-06, 7.70138399e-07,
          -1.90008777e-07, 1.56551107e-06, 7.69912617e-07,
          -1.90234545e-07, 1.56528529e-06, 7.11992186e-07,
          -2.45543220e-07, 1.43730210e-06, 7.42372777e-07,
          -2.34848329e-07, 1.44799696e-06, 7.90728450e-07,
          -1.28609813e-07, 1.36468236e-06, 8.43950545e-07,
          -7.53877174e-08, 1.41790440e-06, 9.32310513e-07,
          1.27649393e-08, 1.50966150e-06, 1.06582490e-06, 1.46279291e-07,
          1.64317589e-06, 1.26165560e-06, 3.52402282e-07, 1.84323846e-06,
          1.41397209e-06, 5.14561634e-07, 2.04179423e-06, 1.48671904e-06,
          7.28734392e-07, 1.91578965e-06, 1.53519613e-06, 7.77211483e-07,
          1.96426663e-06, 1.48345578e-06, 8.06063156e-07, 1.98782777e-06,
          1.56943224e-06, 8.92039679e-07, 2.07380435e-06, 1.85401132e-06,
          8.94493041e-07, 2.08594520e-06, 1.67445592e-06, 7.14937698e-07,
          1.90638980e-06, 1.74185959e-06, 3.74432204e-07, 2.34256527e-06,
          1.80623931e-06, 4.38811838e-07, 2.38874691e-06, 1.87849548e-06,
          4.15386296e-07, 2.79808819e-06, 1.95058669e-06, 4.87477507e-07,
          2.87017951e-06, 2.01500779e-06, 5.84264399e-07, 2.76620335e-06,
          1.85974329e-06, 4.28999840e-07, 2.61093874e-06, 1.72696002e-06,
          4.97442045e-07, 2.40520808e-06, 1.83045961e-06, 6.00941689e-07,
          2.50870789e-06, 2.04800403e-06, 8.88124134e-07, 2.23098891e-06,
          1.89562445e-06, 7.35744493e-07, 2.04221283e-06, 1.37013546e-06,
          4.80560743e-07, 1.85867555e-06, 1.25495831e-06, 3.65383528e-07,
          1.74349839e-06, 2.86408920e-07, 1.79957752e-07, 1.48228025e-06,
          -8.38690113e-08, -1.90320179e-07, 1.09380414e-06,
          1.17443153e-06, 8.42290717e-08, -1.53892165e-06,
          -1.91065988e-06, -3.00086231e-06, -4.62401294e-06,
          -2.15468754e-06, -5.21481797e-06, -1.22268111e-05,
          -1.21127664e-06, -4.27140685e-06, -1.13561928e-05,
          5.52268011e-06, 1.46113518e-06, -8.25658663e-06,
          3.13213013e-06, -9.29414512e-07, -1.06471362e-05,
          -3.77808391e-07, -3.00677334e-06, -1.31135748e-05,
          -5.26744145e-07, -3.15570901e-06, -1.32989071e-05,
          4.05787159e-06, 1.94220320e-06, -4.99549878e-06,
          6.95227209e-06, 5.15488728e-06, -1.36425660e-06,
          2.50466064e-06, 2.59260082e-06, -6.08522498e-07,
          1.97180384e-06, 2.05974379e-06, -1.14137936e-06,
          3.33664457e-06, 1.91836421e-06, 9.76177034e-07, 1.30643025e-06,
          -1.11850078e-07, -1.05403728e-06, -3.13466330e-07,
          -2.93327207e-06, -8.39071072e-06, -1.92393441e-06,
          -4.54374003e-06, -1.00011785e-05, 2.50962717e-06,
          -2.42617125e-06, -1.59802112e-05, 2.19350795e-06,
          -2.74229023e-06, -1.59691790e-05, 1.42645627e-06,
          -3.58432749e-06, -1.58133462e-05, 1.07732978e-06,
          -3.93345408e-06, -1.56681817e-05, 1.04148296e-06,
          -5.27868087e-06, -1.57042141e-05, 1.09206565e-06,
          -5.22809796e-06, -1.53425663e-05, 9.75213993e-07,
          -5.56684836e-06, -1.33164267e-05, 1.08635265e-06,
          -5.45570992e-06, -1.32342784e-05, -1.40086669e-07,
          -3.58649140e-06, -8.13737006e-06, 3.89945808e-06,
          4.53053531e-07, -4.09782524e-06, 3.10709584e-06,
          7.54411928e-07, 2.11552504e-07, 3.18985599e-06, 8.37172138e-07,
          2.94312741e-07, 2.25703093e-06, -3.34056637e-07,
          4.66080155e-06, 8.18266301e-07, -1.77282129e-06,
          3.22203664e-06, 1.99608189e-06, -1.55954649e-06,
          4.54606834e-06, 1.34696381e-06, -2.20866468e-06,
          3.89815477e-06, 5.77258425e-06, 9.79180868e-07, 6.67349696e-07,
          2.78112543e-06, -2.01227817e-06, -2.32410935e-06,
          -8.58627459e-07, -5.84602685e-06, -1.00463503e-05,
          -1.49314803e-06, -6.48054720e-06, -1.06808702e-05,
          -5.09292910e-08, -5.03936371e-06, -9.86977648e-06,
          6.34060257e-07, -4.35437414e-06, -9.18478690e-06,
          3.38496602e-06, -1.53453107e-06, -2.94501660e-06,
          6.68568555e-06, 1.83713280e-06, 4.04836072e-07, 4.32859406e-06,
          -3.46044189e-08, 3.48255708e-06, 3.98991051e-06,
          -3.73287889e-07, 3.12326665e-06, 3.14139811e-06,
          -1.08052791e-06, 3.00812849e-06, 4.51662754e-06,
          2.94701493e-07, 4.37974450e-06, 2.99861927e-06,
          -4.47972042e-08, 4.63351444e-06, 3.49543188e-06,
          4.52015485e-07, 5.09393067e-06, 3.76648518e-06, 8.58284011e-07,
          5.88160992e-06, 1.55151361e-06, -1.35668768e-06,
          3.66663812e-06, 1.66133566e-06, -2.10972075e-06,
          -4.71345766e-06, 8.10618587e-07, -2.96043800e-06,
          -5.56417444e-06, -6.30029229e-09, -3.37002439e-06,
          -9.25560380e-06, -6.12849249e-07, -3.97657323e-06,
          -9.86215309e-06, -9.79915285e-07, -4.32620254e-06,
          -1.25462284e-05, -1.13394515e-06, -4.48023229e-06,
          -1.27002586e-05, -4.93982554e-07, -4.48973287e-06,
          -1.24662956e-05, -4.46822412e-07, -4.44257284e-06,
          -1.26892410e-05, -2.05611036e-06, -5.66368271e-06,
          -9.60101443e-06, 2.24889459e-06, -1.35867776e-06,
          -5.25961332e-06, 3.32918398e-06, 5.41138377e-07,
          6.41895667e-07, 3.33019830e-06, 5.42152691e-07, 6.42909981e-07,
          1.53328119e-06, -2.84168038e-07, 2.78979201e-06,
          8.02899763e-07, -1.01454941e-06, 2.05941046e-06,
          5.75342710e-07, -9.43740019e-07, 1.41750490e-06,
          1.45065144e-06, -6.84313335e-08, 2.29281363e-06,
          1.30885826e-06, -1.73209802e-09, 1.87024239e-06,
          9.65294362e-07, -3.45296002e-07, 1.52667849e-06,
          1.02642093e-06, -1.99428769e-07, 1.43148168e-06,
          1.01795399e-06, -2.07895681e-07, 1.42301474e-06,
          9.79749302e-07, -1.37067261e-07, 1.35809148e-06,
          1.00524778e-06, -1.11568738e-07, 1.38359007e-06,
          1.08528479e-06, -7.77319258e-08, 1.28764827e-06,
          1.08577387e-06, -9.69285523e-08, 1.26845157e-06,
          1.11890472e-06, -1.01362989e-08, 1.31739682e-06,
          1.08973859e-06, -3.93024990e-08, 1.28823058e-06,
          1.14208740e-06, 4.14014423e-08, 1.33170613e-06, 1.27371527e-06,
          1.73029235e-07, 1.46333389e-06, 1.50833887e-06, 4.15665596e-07,
          1.69829218e-06, 1.64332585e-06, 5.60495494e-07, 1.87951844e-06,
          1.70721398e-06, 6.96800328e-07, 2.15495152e-06, 1.71041643e-06,
          7.00002772e-07, 2.15815408e-06, 1.55507018e-06, 6.41492363e-07,
          2.13001522e-06, 1.77455172e-06, 8.60973898e-07, 2.34949675e-06,
          2.13714088e-06, 5.53379550e-07, 2.64419737e-06, 1.97266263e-06,
          3.88901242e-07, 2.47971911e-06, 1.98313001e-06, 2.89534626e-07,
          1.60085312e-06, 1.94178483e-06, 2.48189394e-07, 1.54130976e-06,
          2.33168043e-06, 4.10308246e-07, 2.20059042e-06, 2.44347052e-06,
          5.22098276e-07, 2.31238050e-06, 2.69774318e-06, 4.19122017e-07,
          3.18955813e-06, 2.80323320e-06, 5.24611892e-07, 3.31324622e-06,
          2.80758422e-06, 6.91055448e-07, 3.27124008e-06, 2.76407991e-06,
          6.47551246e-07, 3.22773576e-06, 2.60694924e-06, 1.22160611e-06,
          1.76428591e-06, 2.52562882e-06, 1.14028558e-06, 1.68296538e-06,
          2.68534086e-06, 1.62428432e-06, 1.47226763e-06, 3.08841641e-06,
          2.02735987e-06, 1.85714498e-06, 2.25291842e-06, 1.82594374e-06,
          2.75322600e-06, 9.05175511e-07, 4.78200889e-07, 1.40548298e-06,
          1.85907538e-06, 4.19898299e-07, -1.35191215e-06,
          -9.95801543e-07, -2.43497857e-06, -4.20678907e-06,
          -1.67356075e-06, -5.10673408e-06, -1.23833852e-05,
          -8.66766754e-07, -4.29994043e-06, -1.15947896e-05,
          6.67543827e-06, 2.19516528e-06, -7.80436312e-06,
          1.65535448e-06, -2.82491828e-06, -1.28244465e-05,
          -2.13810108e-06, -5.56573650e-06, -1.47148312e-05,
          1.00038285e-07, -3.32759737e-06, -1.24766921e-05,
          6.07248558e-06, 2.63165998e-06, -1.90223784e-06,
          6.65934567e-06, 5.06485594e-06, 5.30958005e-07, 2.90352273e-06,
          6.50669392e-07, 2.48274910e-06, 2.04189018e-06,
          -2.10963222e-07, 1.49372931e-06, 4.14137867e-06,
          2.72309831e-06, 1.79910910e-06, 1.76134165e-06, 3.43061373e-07,
          -5.80927690e-07, -4.12817229e-07, -3.03262277e-06,
          -8.47186311e-06, -1.98260841e-06, -4.60241426e-06,
          -1.00416546e-05, 1.62877859e-06, -3.30701982e-06,
          -1.59571173e-05, 1.77572713e-06, -3.16007117e-06,
          -1.59468673e-05, 1.57265561e-06, -3.43812803e-06,
          -1.52919038e-05, 1.24340181e-06, -3.76738171e-06,
          -1.56506103e-05, 1.36884762e-06, -4.94673213e-06,
          -1.37908073e-05, 1.40935731e-06, -4.90438879e-06,
          -1.38017967e-05, 9.18322030e-07, -5.61640582e-06,
          -1.33127041e-05, 4.56160222e-07, -6.08590244e-06,
          -1.36598283e-05, -2.79967958e-06, -6.24608447e-06,
          -1.07605665e-05, 1.48605977e-07, -3.29779868e-06,
          -7.81228118e-06, 4.56287523e-07, -1.89639627e-06,
          -2.40285931e-06, 2.06022878e-06, -2.92454985e-07,
          -7.98918052e-07, 1.23586392e-06, -1.35522373e-06,
          3.67603070e-06, -6.37773667e-07, -3.22886126e-06,
          1.80239306e-06, -8.13008228e-07, -4.36863684e-06,
          1.75638081e-06, -8.66306266e-07, -4.42193459e-06,
          1.70428711e-06, 2.44549187e-06, -2.34791173e-06,
          -2.65974290e-06, 6.56759482e-07, -4.13664384e-06,
          -4.44847501e-06, -1.09980670e-06, -6.08720620e-06,
          -1.02887334e-05, -1.19328399e-06, -6.18068316e-06,
          -1.03834154e-05, 1.11850532e-07, -4.87658372e-06,
          -9.71181453e-06, 1.37402463e-08, -4.97469409e-06,
          -9.80992445e-06, 1.14464740e-06, -3.77484980e-06,
          -5.19015293e-06, 3.46274055e-06, -1.45675654e-06,
          -2.87567264e-06, -1.99936547e-08, -4.38319239e-06,
          -8.69643827e-07, 7.42307620e-08, -4.28896783e-06,
          -7.75419437e-07, 3.98731601e-07, -3.82319422e-06,
          2.78842663e-07, 3.41549367e-06, -8.06432240e-07,
          3.27499788e-06, 2.61162609e-06, -4.31790312e-07,
          4.24652126e-06, 3.23788890e-06, 1.94472420e-07, 4.83638769e-06,
          3.08376275e-06, 1.75561439e-07, 5.19888727e-06, 9.79128117e-07,
          -1.92907305e-06, 3.09425263e-06, -2.79534629e-06,
          -6.56640304e-06, -9.13374333e-06, -3.35417144e-06,
          -7.12522797e-06, -9.69256780e-06, -3.20830122e-06,
          -6.57202554e-06, -1.24212083e-05, -3.25102906e-06,
          -6.61475315e-06, -1.25003326e-05, -2.47533308e-06,
          -5.82162056e-06, -1.60551335e-05, -1.83666396e-06,
          -5.18295155e-06, -1.33665808e-05, -8.90916453e-07,
          -4.88666683e-06, -1.35122755e-05, -6.54877056e-07,
          -4.65062749e-06, -1.32585001e-05, -3.13217447e-06,
          -6.73974682e-06, -1.06406824e-05, 2.83981535e-06,
          -7.67757058e-07, -4.66869233e-06, 5.07396862e-06,
          2.28592307e-06, 2.38668031e-06, 4.18875652e-06, 1.40071074e-06,
          1.50146798e-06, 1.49282585e-06, -3.24623358e-07,
          2.74933655e-06, 8.98543306e-07, -9.18905926e-07,
          2.15505406e-06, 4.95018639e-07, -1.02406409e-06,
          1.33718083e-06, 1.24219957e-06, -2.76883213e-07,
          2.08436177e-06, 1.07634310e-06, -2.34247238e-07,
          1.63772722e-06, 8.85279633e-07, -4.25310702e-07,
          1.44666376e-06, 9.70192218e-07, -2.55657426e-07,
          1.37525296e-06, 8.80095229e-07, -3.45754444e-07,
          1.28515592e-06, 8.03761850e-07, -3.13054670e-07,
          1.18210414e-06, 8.53373649e-07, -2.63442899e-07,
          1.23171583e-06, 1.07489223e-06, -8.81245086e-08,
          1.27725571e-06, 1.11735380e-06, -6.53486794e-08,
          1.30003150e-06, 9.97084271e-07, -1.31956710e-07,
          1.19557637e-06, 1.06043672e-06, -6.86043791e-08,
          1.25892871e-06, 1.10284020e-06, 2.15413798e-09, 1.32885509e-06,
          1.25704560e-06, 1.56359548e-07, 1.48306060e-06, 1.35151356e-06,
          2.48997537e-07, 1.56802048e-06, 1.55050657e-06, 4.57833323e-07,
          1.79505435e-06, 1.49818686e-06, 4.87773264e-07, 1.96412270e-06,
          1.53824658e-06, 5.27832924e-07, 2.00418231e-06, 1.55927955e-06,
          6.45701675e-07, 2.17062097e-06, 1.77377331e-06, 8.60195428e-07,
          2.38511461e-06, 2.22122685e-06, 6.37465519e-07, 2.76467972e-06,
          2.22042559e-06, 6.36664197e-07, 2.76387846e-06, 2.04575031e-06,
          3.52155013e-07, 1.69986981e-06, 1.81124778e-06, 1.17652455e-07,
          1.42897090e-06, 2.36719848e-06, 4.45826288e-07, 2.25430676e-06,
          2.55247664e-06, 6.31104399e-07, 2.43958470e-06, 2.69424504e-06,
          4.15623788e-07, 3.20425806e-06, 3.07772075e-06, 7.99099553e-07,
          3.58773377e-06, 3.01667001e-06, 9.00141345e-07, 3.48032586e-06,
          2.41345651e-06, 2.96927851e-07, 2.87711237e-06, 1.79017093e-06,
          4.04827688e-07, 9.65705681e-07, 1.37052393e-06,
          -1.48192720e-08, 5.46058686e-07, 1.77243601e-06,
          7.11379585e-07, 5.77561025e-07, 2.87752005e-06, 1.81646340e-06,
          1.66444670e-06, 3.00490365e-06, 2.57792885e-06, 3.50521100e-06,
          1.73451338e-06, 1.30753870e-06, 2.23482084e-06, 2.95538848e-06,
          1.51621123e-06, -2.37400982e-07, 1.96530641e-06,
          5.26129327e-07, -1.22748293e-06, 2.94225310e-06,
          -4.90920399e-07, -7.76757133e-06, 4.46696322e-06,
          1.03378989e-06, -6.24286122e-06, 7.61737283e-06,
          5.97853204e-06, -3.33647677e-06, 6.21441859e-06,
          1.73414571e-06, -8.24718427e-06, 1.52930920e-06,
          -1.89832645e-06, -1.10474211e-05, 4.12039071e-06,
          6.92754895e-07, -8.45633986e-06, 6.96981624e-06,
          4.97190877e-06, 4.38011057e-07, 6.71214275e-06, 5.29575618e-06,
          1.00319949e-06, 2.39063343e-06, 1.37780063e-07, 1.93346341e-06,
          1.74927038e-06, -5.03582896e-07, 9.28137126e-07,
          3.49545940e-06, 2.69840939e-06, 7.98927317e-07, 7.44749798e-07,
          -5.23003720e-08, -1.95178245e-06, -4.60636358e-07,
          -3.35965206e-06, -1.11496247e-05, -1.75395439e-06,
          -4.65230050e-06, -1.24453518e-05, 1.97360032e-06,
          -3.23212794e-06, -1.56271908e-05, 2.20401830e-06,
          -3.00170996e-06, -1.55870493e-05, 1.58863588e-06,
          -3.11324834e-06, -1.53790606e-05, 9.22054710e-07,
          -3.77982951e-06, -1.58215607e-05, 7.32355687e-08,
          -4.17636011e-06, -1.56220285e-05, 3.20497151e-07,
          -3.92818174e-06, -1.57285031e-05, -7.74971340e-07,
          -4.73478394e-06, -1.53755609e-05, -1.62239314e-06,
          -5.57788371e-06, -1.53759174e-05, 8.25419704e-07,
          -6.31622243e-06, -1.48787767e-05, 1.13953706e-06,
          -6.01948022e-06, -1.46388847e-05, 6.18063325e-07,
          -3.96088490e-06, -7.08057905e-06, 4.46397871e-06,
          -1.16672467e-07, -3.23667200e-06, 4.29132979e-06,
          8.54588279e-07, -2.18674614e-07, 2.10311464e-06,
          -1.33234630e-06, -2.40688973e-06, -4.53629724e-07,
          -5.65306937e-06, -8.60349337e-06, -1.01841113e-06,
          -6.21785057e-06, -9.16947920e-06, 1.18122819e-06,
          -3.60654417e-06, -1.47936571e-05, 1.36604172e-06,
          -3.42173053e-06, -1.41952933e-05, 1.43201885e-06,
          -4.85036298e-06, -1.48226536e-05, 1.75463845e-06,
          -4.52774339e-06, -1.46938601e-05, 2.58957448e-06,
          -3.69148484e-06, -1.39904987e-05, 2.11480005e-06,
          -4.16625926e-06, -1.40570828e-05, 1.31398804e-06,
          -3.41357986e-06, -1.40890097e-05, 2.01209150e-06,
          -2.71547628e-06, -1.41096725e-05, -2.78986818e-07,
          -4.75047864e-06, -1.14933137e-05, -1.93175126e-07,
          -4.66466690e-06, -1.14075019e-05, 8.90668446e-07,
          -3.68893006e-06, -7.82669031e-06, 6.31985586e-06,
          1.74025740e-06, -2.39750239e-06, 6.03165790e-06,
          1.53649705e-06, 2.32602792e-06, 5.69935582e-06, 1.20419475e-06,
          1.97552731e-06, 5.26313488e-06, 5.41520762e-07, 3.73956846e-06,
          2.84294811e-06, -1.87866601e-06, 1.31938168e-06,
          -7.08306629e-07, -6.24151926e-06, -1.07787610e-05,
          -7.86452972e-07, -6.31966532e-06, -1.08569075e-05,
          -3.00850019e-07, -5.40781275e-06, -1.34563807e-05,
          -3.69172255e-07, -5.47613490e-06, -1.35247028e-05,
          3.58058884e-07, -5.02775583e-06, -1.60361778e-05,
          6.34046728e-07, -4.75176785e-06, -1.58909552e-05,
          1.85747137e-06, -4.18278933e-06, -1.57116774e-05,
          2.40640702e-06, -3.63385357e-06, -1.51719332e-05,
          2.77967942e-08, -4.55945883e-06, -1.12578282e-05,
          4.62515436e-06, 3.78988325e-08, -6.66047072e-06,
          6.93476568e-06, 4.04762068e-06, 3.52028064e-06, 6.03466970e-06,
          1.71374722e-06, 1.18640719e-06, 2.55737382e-06,
          -5.06551203e-07, 2.84913472e-06, 2.28025579e-06,
          -7.83669179e-07, 2.57201668e-06, 1.93807659e-06,
          -2.33075653e-07, 8.45127204e-07, 1.85068916e-06,
          -3.20463045e-07, 7.57739826e-07, 1.43652790e-06,
          -7.66399580e-07, 1.54910231e-06, 1.47930666e-06,
          -7.23620701e-07, 1.59188107e-06, 1.48757613e-06,
          -6.65167647e-07, 1.76541823e-06, 1.49230345e-06,
          -6.60440321e-07, 1.77014545e-06, 1.34019581e-06,
          -7.75223100e-07, 1.56488011e-06, 1.42678346e-06,
          -6.88635396e-07, 1.65146776e-06, 1.65039694e-06,
          -4.51444606e-07, 1.70806652e-06, 1.69112570e-06,
          -4.30401514e-07, 1.72910961e-06, 1.74598370e-06,
          -5.70561724e-07, 1.71984516e-06, 1.72148896e-06,
          -5.95056463e-07, 1.65895403e-06, 1.63057211e-06,
          -4.38046698e-07, 1.76263711e-06, 1.65358983e-06,
          -4.15028978e-07, 1.78565483e-06, 1.77944776e-06,
          -2.87915270e-07, 1.90723313e-06, 1.95887424e-06,
          -9.86459554e-08, 2.09650239e-06, 2.04855473e-06,
          -1.35510675e-07, 2.25067470e-06, 1.91970867e-06,
          -2.54513992e-07, 2.13167141e-06, 2.11221231e-06,
          -8.24129671e-08, 2.62427238e-06, 2.70500368e-06,
          5.10378356e-07, 3.23526183e-06, 3.34870037e-06, 1.14080478e-06,
          2.13332805e-06, 2.11863062e-06, -8.92648160e-08,
          8.85060160e-07, 2.62612048e-07, -1.18618402e-06,
          -4.34219328e-06, -9.24719529e-07, -2.37351560e-06,
          -5.52952497e-06, -4.04058511e-07, -1.40020984e-06,
          -6.65316838e-06, 4.41114821e-07, -5.55036479e-07,
          -5.80799497e-06, 2.02856472e-06, -6.86841645e-07,
          6.50261256e-07, 2.96033613e-06, 2.44929623e-07, 1.61842888e-06,
          3.58484158e-06, 1.01960291e-06, 1.17393881e-06, 2.35283824e-06,
          -2.12400366e-07, -9.44608161e-08, 3.01365475e-07,
          -1.44228625e-06, -4.33990999e-06, -6.96281916e-07,
          -2.43993372e-06, -5.35575555e-06, -2.24442459e-07,
          -1.33849710e-06, -4.96087432e-06, 1.46705440e-06,
          3.52999734e-07, -3.28757574e-06, 4.00220370e-06,
          1.09367284e-06, 3.35852178e-06, 3.56827036e-06, 6.59739612e-07,
          2.92458867e-06, 4.17063166e-06, 5.96520351e-07, 3.10933501e-06,
          4.19910975e-06, 6.24998052e-07, 3.13781266e-06, 4.34639423e-06,
          1.55691089e-06, 4.13754833e-06, 6.94419896e-06, 4.15471550e-06,
          6.73535260e-06, 8.00308317e-06, 5.13322766e-06, 7.93885192e-06,
          6.92272897e-06, 3.77838205e-06, 6.60220439e-06, 3.87625551e-06,
          1.21122741e-06, 2.91132869e-06, 6.16371062e-06, 3.49868242e-06,
          5.19878358e-06, 7.21871947e-06, 5.35673325e-06, 8.41613110e-06,
          6.43761678e-06, 3.62848664e-06, 6.72766737e-06, 1.42010742e-06,
          3.69791451e-08, 2.56077738e-06, 9.30069234e-07,
          -4.53059045e-07, 2.01614466e-06, 4.43642375e-06,
          3.65050619e-06, 1.75717310e-06, 2.82776637e-06, 2.04154321e-06,
          1.48515610e-07, 3.49204424e-06, 6.05077958e-07,
          -7.17874627e-06, 3.95407915e-06, 1.06845152e-06,
          -6.71912039e-06, 7.46673186e-06, 2.33223591e-06,
          -8.40617304e-06, 7.49097308e-06, 2.71720864e-06,
          -8.02423801e-06, 6.85912482e-06, 2.26365728e-06,
          -8.34639559e-06, 5.87452723e-06, 1.17264301e-06,
          -9.43740997e-06, 4.63605966e-06, 3.77980285e-07,
          -1.01053020e-05, 4.71511794e-06, 4.49674985e-07,
          -1.00463258e-05, 3.36477228e-06, -5.72455065e-07,
          -1.08136328e-05, 2.12717600e-06, -1.80853772e-06,
          -1.20694276e-05, 2.17461161e-06, -4.95458835e-06,
          -1.20916575e-05, 3.89567219e-07, -6.75063393e-06,
          -1.48734398e-05, -1.58255523e-06, -6.15104045e-06,
          -9.23957032e-06, 2.60536535e-06, -1.96713631e-06,
          -5.05285379e-06, 3.80921460e-06, 3.84274870e-07,
          -6.83796145e-07, 2.67701967e-06, -7.48589571e-07,
          -1.81599114e-06, -9.97767529e-07, -6.17910382e-06,
          -9.15124474e-06, -1.90943706e-06, -7.09046799e-06,
          -1.00665275e-05, 4.67886366e-07, -4.30850605e-06,
          -1.49505267e-05, 1.06016921e-06, -3.71622332e-06,
          -1.41471428e-05, 1.66463599e-06, -4.62443995e-06,
          -1.47084629e-05, 2.01274634e-06, -4.27632949e-06,
          -1.44579662e-05, 2.79434653e-06, -3.49474590e-06,
          -1.39748472e-05, 2.15444925e-06, -4.13531234e-06,
          -1.40225820e-05, 1.01419641e-06, -3.72207387e-06,
          -1.40304774e-05, 1.27522901e-06, -3.46037177e-06,
          -1.40510310e-05, 7.18251556e-07, -3.76261187e-06,
          -1.04987530e-05, 4.58526124e-08, -4.43568024e-06,
          -1.11893505e-05, 4.78314234e-07, -4.11400288e-06,
          -8.24439940e-06, 6.90659090e-06, 2.38155781e-06,
          -1.74749982e-06, 6.38207393e-06, 1.88691297e-06,
          2.67644373e-06, 5.69641225e-06, 1.20125139e-06, 1.97258396e-06,
          5.04312629e-06, 3.21512175e-07, 3.51955987e-06, 2.62348090e-06,
          -2.09813334e-06, 1.09991436e-06, 9.09250787e-07,
          -4.62396156e-06, -9.14300563e-06, 1.05227411e-06,
          -4.48093851e-06, -8.99998213e-06, 1.28578938e-06,
          -3.82117332e-06, -1.18515427e-05, 7.02953230e-07,
          -4.40400936e-06, -1.24343796e-05, 6.83925748e-07,
          -4.70188888e-06, -1.58696039e-05, 9.58747250e-07,
          -4.42706732e-06, -1.57608683e-05, 3.30107514e-06,
          -2.73918567e-06, -1.23714644e-05, 4.59213015e-06,
          -1.44813043e-06, -1.10804094e-05, 4.01410853e-06,
          -5.73147020e-07, -7.27151655e-06, 4.98796271e-06,
          4.00707307e-07, -6.29766237e-06, 6.96485085e-06,
          5.10411473e-06, 5.61844672e-06, 6.93649190e-06, 2.95725022e-06,
          2.44810849e-06, 2.51431720e-06, -5.49607762e-07,
          2.82427641e-06, 2.95108384e-06, -1.12841228e-07,
          3.26104305e-06, 1.46318973e-06, -7.07962499e-07,
          3.88438565e-07, 1.62064975e-06, -5.50502477e-07,
          5.45898558e-07, 1.36381311e-06, -8.39114307e-07,
          1.49458572e-06, 1.48411823e-06, -7.18809190e-07,
          1.59669264e-06, 1.38966948e-06, -7.63074297e-07,
          1.66751147e-06, 1.39137887e-06, -7.61364959e-07,
          1.68741906e-06, 1.18769299e-06, -9.27725864e-07,
          1.43057548e-06, 1.41493763e-06, -7.00481337e-07,
          1.65782001e-06, 1.68299937e-06, -4.18842262e-07,
          1.75886703e-06, 1.71965928e-06, -3.92025100e-07,
          1.76748608e-06, 1.82828342e-06, -4.88262060e-07,
          1.82034296e-06, 1.62017625e-06, -6.96369227e-07,
          1.59403771e-06, 1.81201949e-06, -2.56599350e-07,
          1.94408449e-06, 2.03272862e-06, -3.58900891e-08,
          2.16479384e-06, 2.08155598e-06, 1.41929117e-08, 2.22753943e-06,
          2.08350548e-06, 2.59852246e-08, 2.23933171e-06, 2.03016543e-06,
          -1.53900061e-07, 2.25048348e-06, 2.00723480e-06,
          -1.76830497e-07, 2.22755307e-06, 2.13105022e-06,
          -6.35752215e-08, 2.64311007e-06, 2.69423413e-06,
          4.99608802e-07, 3.22449227e-06, 3.33651519e-06, 1.12861972e-06,
          2.12114287e-06, 9.25590825e-07, -1.28230465e-06,
          -3.07979718e-07, -2.58459272e-06, -4.03338890e-06,
          -7.18939782e-06, -4.69870247e-06, -6.14749842e-06,
          -9.30350780e-06, -4.74472472e-06, -5.74087608e-06,
          -1.09938346e-05, -3.98150632e-06, -4.97765768e-06,
          -1.02306158e-05, 2.30247366e-07, -2.48515903e-06,
          -1.14805619e-06, 2.20226252e-06, -5.13143846e-07,
          8.60355385e-07, 2.41637554e-06, -1.48863023e-07,
          5.47285861e-09, -5.91264708e-08, -2.62436515e-06,
          -2.50642552e-06, -2.94759684e-06, -4.69124825e-06,
          -7.58887199e-06, -3.98739030e-06, -5.73104217e-06,
          -8.64686353e-06, -3.51666313e-06, -4.63071774e-06,
          -8.25309507e-06, -9.60218358e-07, -2.07427297e-06,
          -5.69665008e-06, 3.09435632e-06, 1.85825684e-07,
          2.46887294e-06, 3.68990527e-06, 7.81374467e-07, 3.06442166e-06,
          5.20766844e-06, 1.63355674e-06, 4.16456942e-06, 4.69499355e-06,
          1.12088196e-06, 3.65189476e-06, 3.92064203e-06, 1.13115834e-06,
          3.72999375e-06, 4.74811031e-06, 1.95862685e-06, 4.55746249e-06,
          -5.60712124e-07, -3.70505927e-06, -8.81236758e-07,
          -2.68455036e-08, -3.17119270e-06, -3.47370133e-07,
          7.43836779e-07, -1.92119137e-06, -2.21090218e-07,
          3.66977952e-06, 1.00475120e-06, 2.70485248e-06, 5.74688920e-06,
          2.93775884e-06, 6.07333595e-06, 4.20441029e-06, 1.39528004e-06,
          4.53085704e-06, 1.34877109e-06, -3.43571571e-08,
          2.50763924e-06, 1.14199906e-06, -2.41129186e-07,
          2.30086721e-06, 3.78531900e-06, 2.15136720e-06, 3.79891162e-06,
          4.06807430e-06, 2.43412228e-06, 4.11057181e-06, 3.09291590e-06,
          2.04796743e-06, 3.77514289e-06, 3.42809949e-06, 2.38315124e-06,
          4.10912207e-06, 7.33173874e-06, 6.58291128e-06, 8.11274003e-06,
          5.51801668e-06, 4.96413395e-06, 6.26525480e-06, 6.28030057e-06,
          5.92277092e-06, 8.18000353e-06, 6.22205334e-06, 5.86226770e-06,
          8.01862188e-06, 6.69035671e-06, 3.22532810e-06, 7.66496942e-06,
          6.60484420e-06, 4.14355782e-06, 8.57773466e-06, 6.69315250e-06,
          3.19796959e-06, 1.33290700e-06, -1.34195304e-07,
          -3.97709800e-06, -5.84874897e-06, -4.38648641e-07,
          -5.45722196e-06, -1.33223148e-05, -4.58486333e-08,
          -5.06271908e-06, -1.25625802e-05, -2.39654264e-06,
          -5.62188370e-06, -1.00568095e-05, 3.66630047e-06,
          4.43272995e-07, -3.99396640e-06, 6.15819090e-06,
          4.26966562e-06, 1.18304251e-06, 1.96710494e-06, 7.91908548e-08,
          -3.00804345e-06, -2.38118400e-06, -5.23534027e-06,
          -8.79859545e-06, -2.73880460e-06, -5.59265527e-06,
          -9.15621604e-06, 9.14716736e-07, -5.07243567e-06,
          -1.45496151e-05, 2.87402554e-06, -3.12015595e-06,
          -1.10806013e-05, 1.51791687e-06, -3.78111054e-06,
          -1.48803110e-05, 2.91429001e-06, -2.38473740e-06,
          -1.45404338e-05, 2.22405924e-06, -3.28519013e-06,
          -1.42247873e-05, 6.90763443e-07, -4.80308972e-06,
          -1.42418976e-05, 2.11720976e-06, -4.32639581e-06,
          -1.16982746e-05, 2.85076112e-06, -3.59284445e-06,
          -1.04282217e-05, 1.08629104e-06, -1.95725693e-06,
          -9.74790237e-06, 2.56368298e-06, -4.79864980e-07,
          -8.25231200e-06, 1.26269072e-06, -7.90323099e-07,
          -3.54632357e-06, 5.91793696e-06, 3.86559259e-06,
          1.10892256e-06, 5.68195583e-06, 2.95034170e-06, 6.49757703e-06,
          3.38475797e-06, 6.53143729e-07, 4.20037895e-06, 3.35484901e-06,
          -1.39588360e-06, 3.65300207e-06, 5.14547082e-06,
          3.95407739e-07, 5.44362410e-06, 3.50631558e-06,
          -6.84581721e-07, 4.54802966e-06, 5.14183830e-06,
          9.50941001e-07, 6.18355216e-06, 5.57326575e-06, 1.95162147e-06,
          1.83174541e-06, -1.96486280e-06, -5.58650709e-06,
          -5.70638304e-06, -1.77438415e-06, -5.73969646e-06,
          -1.19239730e-05, -2.01111288e-06, -5.97642475e-06,
          -1.21607018e-05, 2.27487089e-06, -2.65087829e-06,
          -9.97323605e-06, 6.80368294e-06, 5.07325103e-06,
          -9.93836693e-07, 6.85425812e-06, 4.64224877e-06,
          7.93038453e-06, 6.80810763e-06, 4.49848494e-06, 7.78662070e-06,
          6.05021842e-06, 3.25390943e-06, 7.74951604e-06, 4.13160433e-06,
          1.33529545e-06, 5.83090196e-06, 1.44877652e-06,
          -3.96502628e-07, 3.03070487e-06, 1.40624763e-06,
          -4.39031510e-07, 2.98817599e-06, 2.74723516e-06,
          6.73981262e-08, 1.17955301e-06, 2.71426779e-06, 3.44308830e-08,
          1.14658576e-06, 2.07498692e-06, -6.67002155e-07,
          2.56580847e-06, 2.03012542e-06, -7.11863720e-07,
          2.52094696e-06, 1.66881114e-06, 1.57580487e-07, 9.66569360e-07,
          1.79259973e-06, 2.81369097e-07, 1.09035796e-06, 1.45889317e-06,
          -3.46139529e-07, 8.89506168e-07, 1.41704481e-06,
          -3.87987853e-07, 8.47657873e-07, 2.22854214e-06,
          -1.02628167e-06, 2.75340722e-06, 2.42737701e-06,
          -8.27446854e-07, 2.93404378e-06, 2.71488307e-06,
          2.39256394e-07, 4.97249687e-07, 2.37624158e-06,
          -1.09227997e-07, 1.30567102e-07, -2.11589122e-06,
          -3.25222118e-06, -8.88502018e-06, -3.11015015e-06,
          -4.23663732e-06, -9.86943633e-06, -1.37562699e-06,
          -2.14824422e-06, -8.76704144e-06, -6.15972112e-07,
          -1.38858945e-06, -8.00738690e-06, 5.58851866e-07,
          -1.46848174e-06, -3.62754076e-06, 1.37099289e-06,
          -6.56340774e-07, -2.81539974e-06, 2.46389641e-06,
          8.71476491e-09, -6.87820091e-07, 2.99067779e-06,
          5.19430159e-07, -1.78443486e-07, 4.72694455e-06,
          1.37189966e-06, 1.12744442e-06, 3.08948438e-06,
          -2.65560260e-07, -5.10015582e-07, -7.69257269e-07,
          -3.44072396e-06, -1.15175380e-05, -2.51891902e-06,
          -5.19038576e-06, -1.32685391e-05, -9.64643618e-07,
          -3.91012736e-06, -1.40501988e-05, -1.93529081e-06,
          -4.88077421e-06, -1.50642618e-05, 2.81551888e-06,
          -6.22270704e-07, -3.68147766e-06, 5.57177282e-06,
          2.13398357e-06, -9.25223446e-07, 5.35907793e-06,
          5.26586803e-07, -1.52131577e-06, 6.89951946e-07,
          -4.14253918e-06, -6.19044204e-06, -1.05028271e-07,
          -5.21031916e-06, -1.16018318e-05, -9.98815835e-07,
          -6.10410689e-06, -1.25340239e-05, 1.12174075e-06,
          -3.33698245e-06, -1.56968908e-05, 2.75255343e-06,
          -1.70616977e-06, -1.55084399e-05, 3.84530239e-07,
          -2.41219959e-06, -1.13339784e-05, 3.76521348e-06,
          9.68483732e-07, -7.95329470e-06, 3.70783960e-06,
          5.70905684e-07, -8.67024710e-07, 5.67270490e-06,
          2.53577105e-06, 1.09784060e-06, 6.98786653e-06, 2.23074585e-06,
          1.17016259e-06, 2.47965431e-06, -2.27746636e-06,
          -3.33804951e-06, 1.23358052e-06, -3.26629447e-06,
          -1.17281625e-05, 1.32855075e-06, -3.17132412e-06,
          -1.16338615e-05, 4.11974241e-07, -3.06727588e-06,
          -1.09635839e-05, 1.74558386e-06, -1.74839340e-06,
          -9.64670926e-06, 5.24156621e-06, 2.31309355e-06,
          1.09758744e-07, 5.89128695e-06, 2.96214489e-06, 7.59479406e-07,
          1.29426701e-06, -4.56739485e-07, 2.68387930e-06,
          1.37558789e-06, -3.75418551e-07, 2.76520018e-06,
          3.77526794e-06, 2.14131592e-06, 3.78886057e-06, 3.95205234e-06,
          2.31810031e-06, 3.99454984e-06, 3.19404899e-06, 2.14910051e-06,
          3.87507134e-06, 3.70223938e-06, 2.65729091e-06, 4.38326197e-06,
          4.96776511e-06, 4.41254360e-06, 5.73320131e-06, 3.60722311e-06,
          3.05200160e-06, 4.37265953e-06, 3.70883390e-06, 3.35166806e-06,
          5.62402101e-06, 3.51413337e-06, 3.15690932e-06, 5.42993166e-06,
          4.58425393e-06, 8.19955403e-07, 5.26879421e-06, 4.93773541e-06,
          1.17276738e-06, 5.61986644e-06, 3.95455709e-06, 1.08947816e-07,
          -1.74661614e-06, -2.11895372e-06, -5.95906204e-06,
          -7.82133156e-06, -2.70033496e-07, -5.28531791e-06,
          -1.27563908e-05, -3.88553332e-08, -5.05444541e-06,
          -1.25458191e-05, -1.10588780e-06, -4.33184005e-06,
          -8.72386863e-06, 6.50585480e-06, 3.47467244e-06,
          -9.21580579e-07, 6.46375520e-06, 4.54146675e-06,
          3.39615167e-06, 3.17513081e-06, 1.28691102e-06,
          -1.78181949e-06, 7.11164091e-07, -2.15333876e-06,
          -5.71628880e-06, 1.10897395e-06, -1.74518209e-06,
          -5.30843772e-06, 5.84735380e-06, -1.17415496e-07,
          -8.05062609e-06, 7.28705709e-06, 1.29287560e-06,
          -6.64937215e-06, 2.04826642e-06, -3.26147165e-06,
          -1.48314903e-05, 1.21075459e-06, -4.10166103e-06,
          -1.45212462e-05, 2.09214227e-06, -3.41509872e-06,
          -1.42939498e-05, 2.43823206e-06, -3.06900893e-06,
          -1.42869430e-05, 7.43443752e-06, 9.94179231e-07,
          -5.84454483e-06, 7.65505774e-06, 5.02686726e-06,
          -1.73480043e-06, 7.57624866e-06, 5.50074174e-06,
          -7.61465344e-07, 7.44862973e-06, 5.37312280e-06,
          5.29949546e-07, 7.21315519e-06, 5.08177254e-06, 3.33620324e-06,
          6.90694014e-06, 4.77555750e-06, 4.90360571e-06, 6.43818885e-06,
          3.78363052e-06, 7.34772493e-06, 3.50028540e-06, 7.70009933e-07,
          4.31590615e-06, 1.68992028e-06, -3.06014294e-06,
          1.98807334e-06, 1.72291925e-06, -3.02714375e-06,
          2.02107253e-06, 8.93026993e-07, -3.29787031e-06,
          1.95293910e-06, 2.26130828e-06, -1.92958919e-06,
          3.32122022e-06, 3.42195926e-06, -1.99685090e-07,
          -3.01362974e-07, -2.14753163e-06, -5.77051469e-06,
          -5.87085378e-06, -9.65251274e-07, -4.93123298e-06,
          -1.10966421e-05, -9.28683050e-07, -4.89466447e-06,
          -1.10782721e-05, 3.00370493e-06, -1.92271364e-06,
          -9.22620347e-06, 6.78414199e-06, 4.90502453e-06,
          -2.26121938e-06, 6.86428029e-06, 2.51290862e-06,
          5.80171354e-06, 6.60777960e-06, 1.92876450e-06, 5.21690026e-06,
          3.74577803e-06, 9.49469211e-07, 5.46327374e-06, 3.80658639e-06,
          1.01027751e-06, 5.52408210e-06, 1.40814780e-06,
          -4.37131348e-07, 3.00827446e-06, -5.66987183e-07,
          -2.41226621e-06, 1.03313948e-06, 8.13904180e-08,
          -2.59911599e-06, -1.46809350e-06, 4.49716964e-07,
          -2.23078928e-06, -1.11796510e-06, 1.62949831e-07,
          -2.58037812e-06, 6.53771508e-07, 5.32211516e-07,
          -2.21111645e-06, 1.02303318e-06, 3.70404052e-07,
          -1.14216539e-06, -3.31837640e-07, 5.76438254e-07,
          -9.35461742e-07, -1.25803425e-07, 9.53636174e-07,
          -8.52065909e-07, 4.02447398e-07, 1.23306006e-06,
          -5.72641966e-07, 6.81871313e-07, 2.26936527e-06,
          -9.85458655e-07, 2.79423011e-06, 2.91797505e-06,
          -3.36848814e-07, 3.44284012e-06, 2.55606801e-06,
          8.04412537e-08, 3.38434518e-07, 1.61577634e-06,
          -8.69693224e-07, -6.11699932e-07, -3.18127627e-06,
          -4.31760600e-06, -9.93220692e-06, -3.64548077e-06,
          -4.77196772e-06, -1.03865686e-05, -4.73461751e-06,
          -5.50857339e-06, -1.21078338e-05, -4.32531124e-06,
          -5.09859819e-06, -1.16985284e-05, -3.29875638e-06,
          -5.32675949e-06, -7.46695105e-06, -2.66006577e-06,
          -4.68806866e-06, -6.82826021e-06, -8.71306554e-07,
          -3.32648824e-06, -4.00482486e-06, 1.65751476e-06,
          -7.97667042e-07, -1.47600372e-06, 4.80557810e-06,
          1.45053320e-06, 1.22628433e-06, 2.06361938e-06,
          -1.29142541e-06, -1.53387248e-06, -8.39402787e-07,
          -3.51086942e-06, -1.15694857e-05, -2.32315642e-06,
          -4.99462294e-06, -1.30545777e-05, -1.31118520e-06,
          -4.25666894e-06, -1.45952317e-05, -1.48647553e-06,
          -4.43195950e-06, -1.47125411e-05, 6.71649923e-06,
          5.35048866e-06, 2.79897972e-06, 6.65033713e-06, 4.76372134e-06,
          1.72338196e-06, 6.61365766e-06, 1.84978899e-06,
          -1.97444152e-07, 3.07980031e-06, -1.75269099e-06,
          -3.80059350e-06, 1.23526331e-06, -3.87002774e-06,
          -1.02602016e-05, -2.46752819e-07, -5.35204390e-06,
          -1.17786140e-05, 2.10562894e-06, -2.35309449e-06,
          -1.53623059e-05, 2.31518379e-06, -2.14353940e-06,
          -1.52267594e-05, 4.77478864e-07, -2.30318506e-06,
          -1.11858899e-05, 9.22886898e-07, -1.85777708e-06,
          -1.07775477e-05, 9.34719992e-07, -2.18681748e-06,
          -3.60521085e-06, 5.03850242e-06, 1.91696495e-06,
          4.98571467e-07, 6.15283670e-06, 1.39571614e-06, 3.54669908e-07,
          1.82334327e-06, -2.93377730e-06, -3.97549275e-06,
          1.61348896e-06, -2.88638603e-06, -1.13300557e-05,
          1.76173683e-06, -2.73813816e-06, -1.11818081e-05,
          6.41473207e-07, -2.83777695e-06, -1.07152173e-05,
          3.55520979e-06, 7.59595196e-08, -7.80148093e-06,
          6.46150102e-06, 3.54708595e-06, 1.32969353e-06, 5.99455643e-06,
          3.08014114e-06, 8.44550755e-07, 1.43649982e-06,
          -2.99779714e-07, 2.82678161e-06, 1.46432819e-06,
          -2.71951365e-07, 2.87280818e-06, 3.39441340e-06,
          2.17531897e-06, 3.91124831e-06, 3.33063667e-06, 2.11087286e-06,
          3.84626765e-06, 3.10182736e-06, 2.06695699e-06, 3.92950187e-06,
          3.06776428e-06, 2.03222453e-06, 3.92434367e-06, 2.96914891e-06,
          1.99771284e-06, 3.76605681e-06, 2.78730818e-06, 1.81654161e-06,
          3.58421607e-06, 2.04295384e-06, 1.44946841e-06, 3.82334656e-06,
          1.49790469e-06, 9.04419153e-07, 3.27707471e-06, 3.51914991e-06,
          -3.91617931e-07, 3.22590654e-06, 2.77142249e-06,
          -1.13934527e-06, 2.47336175e-06, 7.12709436e-07,
          -2.56444605e-06, -6.14497321e-06, -3.26966415e-06,
          -6.54626683e-06, -1.01273472e-05, -2.98111644e-07,
          -3.84407213e-06, -1.57228169e-05, -1.14887564e-06,
          -4.69416682e-06, -1.57455543e-05, 3.39205997e-07,
          -2.48241895e-06, -6.38320489e-06, 6.46747594e-06,
          4.72504780e-06, 1.29329283e-06, 6.36993764e-06, 3.81725340e-06,
          7.08564994e-06, 3.14904742e-06, -4.94035532e-07,
          2.77344407e-06, 3.81898326e-06, -1.26669750e-06,
          2.81208804e-06, 4.58897512e-06, -4.96094628e-07,
          3.58207967e-06, 6.72099623e-06, 3.27748876e-06, 5.98908628e-07,
          7.97873690e-06, 3.52337520e-06, 8.57877637e-07, 1.17664990e-06,
          -2.78155903e-06, -8.27644362e-06, -9.64838705e-07,
          -4.92304753e-06, -1.04179326e-05, -7.64668016e-07,
          -4.32694560e-06, -1.09340881e-05, -8.18517378e-07,
          -4.38079496e-06, -1.10061355e-05, 2.68150211e-06,
          -1.41587873e-06, -6.60685873e-06, 6.46937769e-06,
          2.37199697e-06, -2.81898292e-06, 6.62342427e-06,
          -2.86344857e-07, -1.15152864e-06, 7.24376287e-06,
          4.13871049e-07, -4.33114536e-07, 4.37746849e-06,
          -5.19782247e-07, 3.19089253e-07, 6.38522988e-06,
          1.48797903e-06, 2.32685056e-06, 5.31494607e-06, 1.86240663e-06,
          2.59811577e-06, 3.51886456e-06, 6.63252351e-08, 8.02034378e-07,
          8.97521829e-07, -3.36242010e-06, -4.51152255e-06,
          -1.26893883e-06, -5.52888059e-06, -6.67798304e-06,
          1.78984249e-06, -4.20016931e-06, -1.20947207e-05,
          2.06891855e-06, -3.92109314e-06, -1.18156449e-05,
          2.24424411e-06, -2.86997692e-06, -1.49553489e-05,
          5.84734181e-08, -5.05574781e-06, -1.55817543e-05,
          8.67038523e-07, -4.31256922e-06, -1.57792529e-05,
          7.01766112e-07, -4.47784169e-06, -1.57782888e-05,
          1.79788174e-06, -4.00900399e-06, -1.26512014e-05,
          4.01547686e-06, -1.79140886e-06, -1.01903206e-05,
          2.75931825e-06, -2.53058442e-06, -9.75687453e-06,
          1.86842772e-06, -3.42080557e-06, -1.06477655e-05,
          2.49076578e-07, -3.43605439e-06, -8.97033624e-06,
          4.80283325e-06, 1.11770237e-06, -4.41657949e-06,
          3.83258339e-06, 9.75134640e-07, -4.88059959e-06,
          -8.17393754e-07, -3.67484267e-06, -9.53057679e-06,
          -7.04798424e-07, -4.66732672e-06, -1.24300677e-05,
          -7.00787893e-07, -4.66331630e-06, -1.24260569e-05,
          5.89115871e-07, -4.43801446e-06, -1.33107969e-05,
          4.95900281e-07, -4.53122993e-06, -1.34040129e-05,
          3.04770310e-07, -3.55140855e-06, -1.62777142e-05,
          3.67784565e-07, -3.48839421e-06, -1.63170862e-05,
          7.12873174e-08, -3.55008160e-06, -1.34150878e-05,
          1.13800532e-07, -3.50756841e-06, -1.33725753e-05,
          1.90218043e-06, -2.26634188e-06, -9.31081740e-06,
          4.55145118e-06, 3.82928874e-07, -6.66154710e-06,
          2.45098659e-06, -9.06362061e-07, -2.31857734e-06,
          1.99141846e-06, -1.37577285e-06, -2.80618633e-06,
          -1.89512275e-06, -4.77267804e-06, -1.16196288e-05,
          -2.79268579e-06, -5.66039807e-06, -1.25073493e-05,
          -4.39856507e-07, -4.71154772e-06, -1.66463324e-05,
          -3.19267201e-07, -4.59028934e-06, -1.67134149e-05,
          1.08850134e-06, -4.71101703e-06, -1.35575528e-05,
          1.54556130e-06, -4.25395729e-06, -1.31004927e-05,
          -1.96530755e-06, -4.53848770e-06, -1.11200789e-05,
          4.05846185e-06, 1.48528170e-06, -5.09630945e-06,
          6.67015411e-06, 2.25309623e-06, -8.97911860e-08,
          1.83672364e-06, -2.73941941e-06, -5.08297626e-06,
          3.40797357e-07, -4.63438391e-06, -1.19156757e-05,
          -1.87137459e-07, -5.16231876e-06, -1.24436110e-05,
          2.64892094e-07, -4.92577374e-06, -1.58369094e-05,
          1.62640276e-06, -3.56359396e-06, -1.29152686e-05,
          6.63176979e-06, 5.22643313e-06, 6.29662418e-06, 6.56299017e-06,
          4.29460397e-06, 5.21917264e-06, 5.15228840e-06, 1.60096090e-06,
          1.79594656e-06, 3.56489818e-06, 1.42398235e-08, 2.08556102e-07,
          5.45894136e-06, 1.63330640e-06, -2.65490917e-06,
          3.28648980e-06, -5.39145219e-07, -4.82736095e-06,
          1.67600547e-06, -2.06680170e-06, -1.01116493e-05,
          8.03944658e-07, -2.93685434e-06, -1.09837110e-05,
          -2.71795841e-07, -1.93869164e-06, -1.53998008e-05,
          -1.21095150e-06, -2.87784724e-06, -1.55870384e-05,
          2.61395257e-06, 2.77287484e-07, -5.66712060e-06,
          7.95062169e-06, 5.61395700e-06, -3.30451030e-07,
          5.65515393e-06, 1.73035050e-06, -1.58980617e-06,
          2.36750182e-07, -3.68738392e-06, -7.00821010e-06,
          8.25503776e-07, -3.91330468e-06, -1.18988755e-05,
          7.88046009e-07, -3.95076222e-06, -1.21951844e-05,
          5.91546552e-07, -2.49063692e-06, -9.18694695e-06,
          6.59683701e-06, 3.51465337e-06, -3.18165689e-06,
          8.17777345e-06, 5.86888154e-06, 4.46025524e-06, 5.71626560e-06,
          3.17539207e-06, 1.76743504e-06, 1.54145403e-06, 2.09630855e-08,
          3.13297141e-06, 1.64633423e-06, 1.25843343e-07, 3.20145523e-06,
          3.28243073e-06, 2.06132790e-06, 3.36250969e-06, 3.15900934e-06,
          1.93857591e-06, 3.23788390e-06, 2.94056008e-06, 1.90568960e-06,
          3.36038352e-06, 2.88764704e-06, 1.85277656e-06, 3.30747048e-06,
          2.83294980e-06, 1.86285263e-06, 3.64805578e-06, 2.96668190e-06,
          1.99658484e-06, 3.78178811e-06, 2.21725190e-06, 1.62443587e-06,
          4.01462012e-06, 1.87823889e-06, 1.28542285e-06, 3.70210341e-06,
          4.11452265e-06, 2.04424225e-07, 3.83465976e-06, 2.42508145e-06,
          -1.48568643e-06, 2.14160559e-06, -1.88032899e-07,
          -3.46182674e-06, -7.02751731e-06, -3.01105888e-06,
          -6.28729777e-06, -9.85054339e-06, 1.74488321e-07,
          -3.37080292e-06, -1.56770566e-05, -4.37280448e-07,
          -3.98226621e-06, -1.57163322e-05, 4.13571524e-06,
          1.31409047e-06, -2.56849739e-06, 6.47842353e-06,
          4.73763976e-06, 3.20054210e-06, 6.16401212e-06, 2.52433460e-06,
          5.80660708e-06, 2.02819001e-06, -1.61148762e-06,
          1.67078485e-06, 9.66137108e-08, -4.98669488e-06,
          -8.92083392e-07, -2.62329507e-07, -5.34502715e-06,
          -1.25102656e-06, 2.10053918e-06, -2.68382178e-06,
          -5.36343532e-06, 2.70054989e-06, -2.08417464e-06,
          -4.76342439e-06, -1.10935127e-06, -5.06053129e-06,
          -1.05624449e-05, -1.52422695e-06, -5.48243588e-06,
          -1.09773200e-05, -7.96583834e-07, -4.37291874e-06,
          -1.09800612e-05, -9.39344943e-07, -4.50162224e-06,
          -1.11087647e-05, -2.47829917e-07, -4.34521053e-06,
          -9.51799302e-06, 1.11122506e-06, -2.98615578e-06,
          -8.15893782e-06, 1.25310828e-06, -5.65666096e-06,
          -6.50364655e-06, 7.14407292e-07, -6.19536195e-06,
          -7.02414945e-06, -1.65777544e-06, -6.55703479e-06,
          -5.69795657e-06, 2.45929664e-06, -2.43996237e-06,
          -1.58088449e-06, 4.41272914e-06, 9.58851047e-07,
          1.71409715e-06, 3.09441589e-06, -3.59462348e-07,
          3.95783786e-07, -1.34408467e-07, -4.39301175e-06,
          -5.52525444e-06, -3.37656684e-06, -7.63450043e-06,
          -8.76741251e-06, 4.71852417e-07, -5.51748963e-06,
          -1.52612611e-05, 7.11811836e-08, -5.91816115e-06,
          -1.51283639e-05, 3.58200765e-07, -4.75535080e-06,
          -1.56542828e-05, -1.41309826e-07, -5.25486166e-06,
          -1.53912333e-05, 1.35818345e-06, -3.82075496e-06,
          -1.57077029e-05, 1.00402201e-06, -4.17491674e-06,
          -1.57475897e-05, 1.36506060e-06, -4.44115585e-06,
          -1.30658245e-05, 1.24060841e-06, -4.56627731e-06,
          -1.32015311e-05, 1.60628531e-07, -5.13061286e-06,
          -1.23722994e-05, -9.52801486e-07, -6.24270433e-06,
          -1.38769255e-05, -1.90142066e-06, -5.58722104e-06,
          -1.11026347e-05, 4.89705781e-06, 1.21192670e-06,
          -4.30415685e-06, 4.87469606e-06, 2.01724720e-06,
          -3.82028884e-06, -1.40520399e-06, -4.26265296e-06,
          -1.01001888e-05, -1.57363377e-06, -5.53616201e-06,
          -1.32807054e-05, -1.52510268e-06, -5.48696153e-06,
          -1.32321738e-05, -7.89547343e-08, -5.10608515e-06,
          -1.57710292e-05, -1.13002486e-07, -5.14013300e-06,
          -1.58050771e-05, -4.21476244e-07, -4.27765508e-06,
          -1.67793569e-05, -4.70429057e-07, -4.22664561e-06,
          -1.67751004e-05, -1.54526035e-07, -3.68545307e-06,
          -1.36409017e-05, -1.33469825e-06, -4.87514535e-06,
          -1.62588658e-05, 4.74670514e-07, -3.60340982e-06,
          -1.07383275e-05, 5.21048287e-06, 1.13240253e-06,
          -6.00251497e-06, 4.19444177e-06, 9.27535041e-07,
          -5.75122158e-07, 3.37591064e-06, 9.91612055e-08,
          -1.40349596e-06, -7.96218615e-07, -3.58400121e-06,
          -1.05207246e-05, -1.89262175e-06, -4.66513211e-06,
          -1.16072852e-05, 2.16341803e-07, -3.95062762e-06,
          -1.65866077e-05, 2.25207984e-07, -3.93224082e-06,
          -1.66463651e-05, 1.49077721e-06, -4.30874115e-06,
          -1.31552770e-05, 1.74624608e-06, -4.05327273e-06,
          -1.28998081e-05, -5.76712011e-07, -3.14989211e-06,
          -9.73148326e-06, 6.48495006e-06, 3.90192690e-06,
          -2.67966402e-06, 6.67457789e-06, 3.32142531e-06,
          9.96736048e-07, 1.05777667e-06, -3.52887855e-06,
          -5.85356793e-06, -2.22329263e-07, -5.21719585e-06,
          -1.24802900e-05, -2.09138392e-07, -5.18431943e-06,
          -1.24474136e-05, 3.79083019e-07, -4.81158304e-06,
          -1.41261926e-05, 3.12047109e-06, -2.07019480e-06,
          -1.14030026e-05, 6.56163866e-06, 5.15630245e-06,
          6.33043783e-06, 6.24842369e-06, 3.76034950e-06, 4.70445502e-06,
          4.30317050e-06, 7.51173502e-07, 9.65026743e-07, 9.32716446e-08,
          -3.45872559e-06, -3.24487223e-06, 7.32581555e-07,
          -3.09372285e-06, -7.36307084e-06, 3.50899404e-06,
          -3.17310395e-07, -4.58665863e-06, 7.09545384e-06,
          3.35197706e-06, -4.67400332e-06, 4.16664852e-06,
          4.23841385e-07, -7.60280864e-06, 1.47268975e-06,
          -1.95544757e-07, -1.48958798e-05, 1.87092587e-06,
          2.02691353e-07, -1.45191862e-05, 7.81145445e-06,
          5.47278114e-06, -4.69618442e-07, 8.41154178e-06,
          7.19102127e-06, 3.04823038e-06, 5.04418585e-06, 1.11871282e-06,
          -2.20077459e-06, -7.06667834e-07, -4.63080187e-06,
          -7.95162759e-06, 4.69195243e-07, -4.26961287e-06,
          -1.22551837e-05, 6.02970545e-07, -4.13583757e-06,
          -1.21214089e-05, 1.46209925e-06, -1.62075366e-06,
          -8.31639409e-06, 7.95051164e-06, 5.60189528e-06,
          -1.09441487e-06, 7.88824491e-06, 6.44117790e-06,
          5.32759805e-06, 5.50395089e-06, 2.96240819e-06, 1.59151671e-06,
          1.54856139e-06, 2.74010628e-08, 3.10368250e-06, 1.95120424e-06,
          4.30043968e-07, 3.50632536e-06, 3.20734944e-06, 2.04033950e-06,
          3.28158285e-06, 3.09860047e-06, 1.93159076e-06, 3.17162971e-06,
          2.97214001e-06, 1.69651707e-06, 3.06711490e-06, 2.75254047e-06,
          1.47691753e-06, 2.84631096e-06, 2.89792183e-06, 1.50906908e-06,
          2.97871929e-06, 3.45106150e-06, 2.06220898e-06, 3.53185897e-06,
          3.36184689e-06, 1.89293837e-06, 3.50380060e-06, 3.05460549e-06,
          1.59028093e-06, 3.19415039e-06, 4.65200264e-06, 9.54262759e-07,
          2.07346693e-06, 1.53955159e-06, -2.15390992e-06,
          -1.01369255e-06, -9.74564500e-07, -4.28384874e-06,
          -1.09566081e-05, -2.06627101e-06, -5.37830510e-06,
          -1.20483146e-05, -4.07438080e-07, -4.64793220e-06,
          -1.22135480e-05, 1.46212972e-06, -2.77805862e-06,
          -1.03439806e-05, 6.49415597e-06, 4.76099785e-06,
          4.25225744e-06, 6.45638875e-06, 4.77503545e-06, 5.26724079e-06,
          3.27721000e-06, 8.08909761e-07, 1.20397419e-06, 1.40565908e-06,
          -1.06227742e-06, -6.67576728e-07, -3.29639715e-06,
          -4.72030661e-06, -9.97150619e-06, -4.89932381e-06,
          -6.32390265e-06, -1.15744333e-05, 2.54183760e-06,
          -5.01770546e-06, -1.07346823e-05, 2.82522888e-06,
          -4.73333921e-06, -1.08769582e-05, 1.63753475e-06,
          -5.09839037e-06, -1.46706216e-05, 2.05250808e-06,
          -4.68609460e-06, -1.44177247e-05, 2.70341070e-06,
          -3.56094279e-06, -1.42404624e-05, 2.97995939e-06,
          -3.29306727e-06, -1.43051902e-05, 2.24731707e-06,
          -4.53635266e-06, -1.34072015e-05, 1.94106815e-06,
          -4.83925487e-06, -1.39636168e-05, 8.40906409e-07,
          -3.83704446e-06, -1.42493418e-05, -1.33187527e-07,
          -4.81113875e-06, -1.42704221e-05, -1.61368746e-06,
          -5.11844928e-06, -9.51673974e-06, 3.47542732e-06,
          -2.93345170e-08, -4.42762484e-06, 6.35282640e-06,
          2.68380541e-06, 3.21397397e-06, 3.73304874e-06,
          -2.46531062e-08, 5.05515516e-07, 7.96507152e-07,
          -4.68404505e-06, -3.48204912e-06, -1.72195814e-06,
          -7.20251001e-06, -6.00051453e-06, 1.45195793e-06,
          -4.43886802e-06, -1.24975249e-05, 6.09697281e-07,
          -5.28112832e-06, -1.51533259e-05, 5.97387498e-07,
          -4.39898258e-06, -1.58656821e-05, -1.04603437e-08,
          -5.00683018e-06, -1.55157450e-05, 1.06677533e-06,
          -4.06131358e-06, -1.58481089e-05, 7.79253810e-07,
          -4.34950425e-06, -1.59007723e-05, 8.73933743e-07,
          -4.95487666e-06, -1.35049822e-05, 6.99714121e-07,
          -5.13043506e-06, -1.36904555e-05, 5.32164051e-07,
          -4.56709631e-06, -1.59945375e-05, -8.27151894e-07,
          -5.92507376e-06, -1.63248969e-05, -1.08288623e-06,
          -4.89045669e-06, -1.21393514e-05, 6.38867368e-06,
          2.58110322e-06, -4.66779193e-06, 6.70943473e-06,
          3.07172240e-06, -2.47786284e-06, 2.73040342e-07,
          -3.44454907e-06, -8.99413408e-06, -1.42781573e-07,
          -4.97188148e-06, -1.16678120e-05, 4.81624625e-07,
          -4.34680578e-06, -1.10434057e-05, 2.94763026e-06,
          -4.19129719e-06, -1.62124470e-05, 2.46290824e-06,
          -4.67601922e-06, -1.62006309e-05, 1.44755256e-06,
          -4.25878898e-06, -1.66467707e-05, 1.87232990e-06,
          -3.83401175e-06, -1.66306145e-05, -1.64183132e-06,
          -5.96266500e-06, -1.66155041e-05, -8.87853446e-07,
          -5.20868707e-06, -1.46458751e-05, 1.94278027e-06,
          -2.63136212e-06, -8.09201629e-06, 6.79799814e-06,
          4.71017711e-06, -7.73435431e-07, 4.44461830e-06,
          1.71775196e-06, 2.16827357e-06, 3.17425611e-06, 4.37546845e-07,
          8.88068314e-07, 2.87599687e-06, -6.50172609e-08,
          -2.12194072e-06, 2.86761542e-06, -6.35558095e-08,
          -2.12523946e-06, 4.40507074e-06, 1.03071812e-07,
          -5.76385173e-06, 3.57964427e-06, -7.22354457e-07,
          -6.59879834e-06, 2.90528692e-06, -2.01296530e-06,
          -9.23138214e-06, 2.00447812e-06, -2.79477172e-06,
          -1.00227089e-05, 4.04181765e-06, 7.97397547e-07,
          -3.98374459e-06, 6.69364044e-06, 5.42862745e-06,
          1.80589745e-06, 6.63834498e-06, 4.02031992e-06, 6.90827051e-07,
          -2.22129117e-07, -4.47395360e-06, -7.80344635e-06,
          -8.56507370e-07, -5.50149298e-06, -1.40720294e-05,
          -2.28622426e-07, -4.85325290e-06, -1.30874714e-05,
          1.13809710e-06, -4.59438979e-06, -1.21827979e-05,
          6.52173412e-06, 9.84474241e-07, -6.62213188e-06,
          6.50766015e-06, 4.90598813e-06, 6.64524623e-06, 6.19077173e-06,
          3.63852178e-06, 4.18392528e-06, 1.06065454e-06,
          -1.40895156e-06, -4.49538993e-06, -2.02306137e-06,
          -4.49266736e-06, -7.57910584e-06, -4.73779977e-07,
          -3.23731001e-06, -1.07417554e-05, -2.57106876e-06,
          -5.33459888e-06, -1.32115028e-05, 1.50999608e-06,
          -1.99296301e-06, -1.05532808e-05, 7.25069776e-06,
          3.74423257e-06, -4.81608549e-06, 5.70826387e-06,
          9.83502346e-08, -2.73107639e-06, 7.70133829e-06,
          2.09142445e-06, -7.38002313e-07, 8.13647785e-06,
          6.77054959e-06, 6.31602097e-06, 8.23991468e-06, 6.72101260e-06,
          5.24809593e-06, 2.59263675e-06, -1.14924262e-06,
          -6.27751569e-06, -1.29502928e-06, -5.03690853e-06,
          -1.01651813e-05, 1.44880255e-06, -2.99903809e-06,
          -1.44428022e-05, 1.88657009e-06, -2.56127032e-06,
          -1.42795261e-05, 2.92082245e-06, 3.51384415e-07,
          -3.50030018e-06, 7.59227942e-06, 6.20142600e-06,
          3.26850750e-06, 7.37489063e-06, 5.52469237e-06, 6.38212941e-06,
          3.82319240e-06, 1.47837306e-06, 2.29874422e-06, 1.02623937e-06,
          -3.08054325e-07, 3.19419087e-06, 1.32116224e-06,
          -1.31314222e-08, 3.52551001e-06, 3.06190236e-06,
          1.89489242e-06, 3.13613600e-06, 2.94364736e-06, 1.77663742e-06,
          3.01667660e-06, 2.95634368e-06, 1.68139024e-06, 3.05131880e-06,
          2.87385433e-06, 1.59890078e-06, 2.96762482e-06, 3.19942410e-06,
          1.81057135e-06, 3.28022134e-06, 3.58263787e-06, 2.19378535e-06,
          3.66223117e-06, 3.69302575e-06, 2.22411700e-06, 3.83377483e-06,
          3.45234207e-06, 1.98343332e-06, 3.58827356e-06, 4.42645614e-06,
          7.33605987e-07, 1.87321223e-06, 9.22793845e-07,
          -2.77708546e-06, -1.63406344e-06, -1.11344207e-06,
          -4.42303190e-06, -1.10954861e-05, -1.75644561e-06,
          -5.06634069e-06, -1.17384889e-05, -1.15342743e-06,
          -5.39239318e-06, -1.31733714e-05, 3.00279771e-06,
          -1.23616815e-06, -8.80331208e-06, 6.45182672e-06,
          4.77047388e-06, 4.74888247e-06, 6.44936063e-06, 3.52936604e-06,
          3.00352258e-06, 1.95955795e-06, -5.09659117e-07,
          -1.13677856e-07, 2.07455264e-06, -3.93747570e-07,
          1.31691680e-09, -2.42112060e-06, -3.84508849e-06,
          -9.09623031e-06, -3.86860711e-06, -5.29196404e-06,
          -1.05437166e-05, 2.23863731e-06, -5.31962542e-06,
          -1.10378824e-05, 2.72058242e-06, -4.83804388e-06,
          -1.09638686e-05, 2.71134695e-06, -4.02566957e-06,
          -1.28525980e-05, 2.97624683e-06, -3.76810408e-06,
          -1.25989527e-05, 2.62537924e-06, -3.64229231e-06,
          -1.42321351e-05, 2.84432303e-06, -3.42401790e-06,
          -1.42852323e-05, 1.87447995e-06, -4.90718185e-06,
          -1.42515946e-05, 1.75138837e-06, -5.03027331e-06,
          -1.39983140e-05, 4.07638112e-07, -4.27031273e-06,
          -1.42685503e-05, 5.87409204e-07, -4.09054201e-06,
          -1.42857152e-05, 6.91260141e-07, -2.82956739e-06,
          -7.22785762e-06, 5.61391425e-06, 2.12922828e-06,
          -2.26906218e-06, 6.66085043e-06, 4.30597993e-06,
          4.83614849e-06, 4.57304259e-06, 8.05299862e-07, 1.33546848e-06,
          3.66382301e-06, -1.82409246e-06, -6.03898684e-07,
          3.55380985e-06, -1.94079985e-06, -7.20605954e-07,
          6.43176509e-06, 8.02712350e-07, -7.23774656e-06,
          5.85612361e-06, -3.47022890e-08, -8.07516153e-06,
          4.70180612e-06, -3.08621310e-07, -1.10186538e-05,
          1.94796144e-06, -3.06246602e-06, -1.51210925e-05,
          1.27311728e-06, -3.85430212e-06, -1.57608156e-05,
          6.65113589e-07, -4.46230570e-06, -1.57906943e-05,
          7.60766113e-07, -5.06737524e-06, -1.35956407e-05,
          2.24131327e-06, -3.58883608e-06, -1.18787511e-05,
          1.91911113e-06, -3.17881063e-06, -1.29312957e-05,
          1.06305754e-06, -4.03419472e-06, -1.54342997e-05,
          1.18241053e-06, -2.62515982e-06, -9.87405474e-06,
          6.73555360e-06, 3.83549468e-06, -3.41340024e-06,
          6.77545540e-06, 4.79135997e-06, -7.58894828e-07,
          3.50572600e-06, -2.11194120e-07, -5.76144885e-06,
          4.11775000e-06, -7.11350026e-07, -7.40728092e-06,
          5.25404857e-06, 5.34431138e-07, -6.27098188e-06,
          3.38731070e-06, -3.76113712e-06, -1.43376847e-05,
          3.06057677e-06, -4.08787082e-06, -1.61053049e-05,
          2.30325440e-06, -3.40241786e-06, -1.65499132e-05,
          3.52797974e-06, -2.17836191e-06, -1.39753138e-05,
          3.78335767e-06, -5.37475898e-07, -9.39826441e-06,
          3.91622325e-06, -4.04610290e-07, -9.27015935e-06,
          5.05720118e-06, 4.83728002e-07, -4.93884545e-06,
          6.86093745e-06, 5.58919828e-06, 4.64884863e-07, 5.73416673e-06,
          3.00730062e-06, 3.50066284e-06, 4.67599466e-06, 1.94062454e-06,
          2.43264799e-06, 4.53770508e-06, 1.59669105e-06,
          -3.94433414e-07, 4.58923932e-06, 1.65806796e-06,
          -3.37816573e-07, 6.80945504e-06, 5.24063307e-06,
          -5.73929356e-07, 6.88418504e-06, 5.41297686e-06,
          -4.11106072e-07, 7.01574345e-06, 5.71379314e-06,
          -1.19317269e-06, 6.97685664e-06, 5.67490633e-06,
          -1.22338156e-06, 6.84497991e-06, 3.96953328e-06,
          -7.45809871e-07, 6.77706021e-06, 5.47364380e-06,
          2.55090026e-06, 6.65773314e-06, 3.55366683e-06, 1.14691581e-07,
          -7.06503670e-07, -4.95765880e-06, -8.28782140e-06,
          -8.41426925e-07, -5.48574326e-06, -1.40569482e-05,
          -3.40181259e-07, -4.97465498e-06, -1.32088735e-05,
          1.68117879e-06, -4.05197716e-06, -1.16397159e-05,
          6.34580238e-06, 2.76081209e-06, -4.82759606e-06,
          6.35189735e-06, 4.72771671e-06, 5.27445900e-06, 3.82487860e-06,
          1.27262842e-06, 1.81803182e-06, 2.79725754e-07,
          -2.19188860e-06, -5.27631846e-06, -2.94580741e-06,
          -5.41608279e-06, -8.50185188e-06, -3.08062408e-06,
          -5.84482359e-06, -1.33304011e-05, -3.06113088e-06,
          -5.82533039e-06, -1.37365751e-05, 2.59855312e-07,
          -3.24377311e-06, -1.17852233e-05, 2.69864302e-07,
          -3.23309473e-06, -1.17752143e-05, 3.71946658e-06,
          -1.89044727e-06, -4.71987414e-06, 7.26462349e-06,
          1.65470988e-06, -1.17471689e-06, 8.09399808e-06,
          6.21058552e-06, 4.68273583e-06, 7.48757520e-06, 3.23085214e-06,
          1.70166390e-06, 6.72390229e-07, -3.07015853e-06,
          -8.19776233e-06, -1.00009254e-06, -4.74130275e-06,
          -9.87024487e-06, 1.06923585e-06, -3.37860479e-06,
          -1.48223689e-05, 9.41951157e-07, -3.50521987e-06,
          -1.48124072e-05, 4.81919869e-06, 2.25043027e-06,
          -1.60192360e-06, 7.19763966e-06, 5.80812502e-06,
          3.11998133e-06, 6.11005589e-06, 3.86108422e-06, 4.71852127e-06,
          2.97437464e-06, 6.29555359e-07, 1.48632296e-06, 5.58360796e-07,
          -7.75932961e-07, 2.76270862e-06, 9.76416118e-07,
          -3.57208251e-07, 3.18076377e-06, 3.10107635e-06,
          1.91346385e-06, 3.07460959e-06, 2.86802060e-06, 1.68040788e-06,
          2.84034923e-06, 3.07143750e-06, 1.62284607e-06, 2.97729730e-06,
          3.09453389e-06, 1.64594258e-06, 2.99918929e-06, 3.36963194e-06,
          1.70312990e-06, 3.36060339e-06, 3.35564687e-06, 1.68914494e-06,
          3.34420952e-06, 3.30765897e-06, 1.55137650e-06, 3.20075424e-06,
          3.23633958e-06, 1.48005699e-06, 3.15472653e-06, 3.10013934e-06,
          -7.41342546e-07, -4.53323025e-07, -5.39365658e-07,
          -4.38084771e-06, -4.09282802e-06, -1.91350159e-06,
          -4.66505708e-06, -1.28770043e-05, -2.03447075e-06,
          -4.78602624e-06, -1.34059055e-05, -8.24403003e-07,
          -5.57373050e-06, -1.06377447e-05, 6.29449642e-06,
          2.57048146e-06, -2.51173105e-06, 6.21168510e-06,
          4.34528101e-06, 8.39878339e-06, 5.95435176e-06, 1.70510839e-06,
          5.32775448e-06, 2.38519374e-06, -9.90190756e-07,
          3.49459765e-06, 2.25295435e-06, -1.12243015e-06,
          3.36235826e-06, -1.86056025e-06, -3.16903242e-06,
          -6.39297650e-06, -3.74526826e-06, -5.05374055e-06,
          -8.27768417e-06, -2.29619360e-07, -4.30942737e-06,
          -1.22694537e-05, 2.23819370e-06, -1.84228395e-06,
          -9.80163986e-06, 2.06310710e-06, -1.44584681e-06,
          -1.13307215e-05, -3.34069128e-08, -3.54236067e-06,
          -1.43212992e-05, -5.22246523e-07, -4.25883627e-06,
          -1.41197770e-05, 2.07665906e-07, -3.52892403e-06,
          -1.41760283e-05, 2.07145945e-06, -2.49016853e-06,
          -9.26817665e-06, 6.01369720e-06, 1.45073057e-06,
          -5.30774059e-06, 4.81508414e-06, 8.06831736e-07,
          -3.03238676e-06, 5.81511949e-06, 1.80686698e-06,
          -2.03235140e-06, 4.66193023e-06, 2.06213963e-06,
          1.93306732e-06, 6.52762674e-06, 3.92783568e-06, 3.79876337e-06,
          6.37763287e-06, 4.04639968e-06, 7.50629533e-06, 2.46370723e-06,
          1.33143317e-07, 3.59236969e-06, 3.47692685e-06,
          -4.21852661e-07, 3.29004047e-06, 4.44096304e-06,
          5.42852888e-07, 4.25407688e-06, 6.53698726e-06, 3.12863244e-06,
          7.36834772e-06, 6.47450770e-06, 2.95856671e-06, 7.19761238e-06,
          5.67259985e-06, 2.69931661e-06, 1.30122135e-06,
          -4.77050264e-07, -3.45033368e-06, -4.84842894e-06,
          -5.57845340e-07, -4.10285838e-06, -1.11436311e-05,
