%YAML:1.0
---
opencv_ml_svm:
   format: 3
   svmType: C_SVC
   kernel:
      type: LINEAR
   C: 1.
   term_criteria: { iterations:100 }
   var_count: 4536
   class_count: 2
   class_labels: !!opencv-matrix
      rows: 2
      cols: 1
      dt: i
      data: [ -1, 1 ]
   sv_total: 1
   support_vectors:
      - [ 1.67392113e-06, 3.80766750e-07, 2.60399293e-06, 3.50069826e-07,
          -9.43084501e-07, 1.28014176e-06, -6.64659865e-08,
          -1.84324142e-06, 6.46513854e-07, -1.36330186e-06,
          -3.27051112e-06, -1.17837124e-06, -9.80155619e-07,
          -3.01603632e-06, -2.30116484e-06, -9.21067056e-07,
          -3.04997502e-06, -2.33331707e-06, -8.01115192e-08,
          -2.80878453e-06, -2.07881203e-06, -1.11424879e-06,
          -3.85295971e-06, -2.93754306e-06, -2.69363181e-06,
          -3.28257238e-06, -3.01488535e-06, -4.35616266e-06,
          -4.94373171e-06, -4.67604468e-06, -6.35593778e-06,
          -6.75337878e-06, -5.91838943e-06, -4.74156423e-06,
          -5.29110048e-06, -4.45611113e-06, -4.33134301e-06,
          -5.42679891e-06, -3.09451639e-06, -3.14467525e-06,
          -4.19985054e-06, -1.86756802e-06, -3.78909562e-07,
          -2.36701976e-06, 1.28254430e-06, 1.75402897e-06,
          -2.37446585e-07, 3.41317332e-06, 3.24820326e-06,
          1.58675117e-08, 4.94560527e-06, 2.51043025e-06,
          -5.95842891e-07, 4.64500818e-06, 8.36745699e-07,
          -2.62000276e-06, 4.81726829e-06, 3.75237931e-07,
          -3.07313599e-06, 4.27559780e-06, 1.85342429e-07,
          -2.19768572e-06, 4.66490519e-06, 7.24291112e-07,
          -1.67471683e-06, 4.96031271e-06, 9.04675630e-07,
          -7.17616217e-07, 5.83134579e-06, 1.89313312e-06,
          2.43445101e-07, 6.79238474e-06, 3.29059299e-06, 4.04143663e-07,
          6.82397467e-06, 3.03450838e-06, 4.24175653e-07, 6.49290268e-06,
          3.33186745e-06, 6.81730569e-07, 5.57954036e-06, 3.31002980e-06,
          6.59892919e-07, 5.55770248e-06, 1.66715586e-06,
          -4.63456018e-07, 3.04543369e-06, 1.35333858e-06,
          -7.77273215e-07, 2.73161663e-06, 8.81952417e-07,
          -1.31093839e-06, 2.41350222e-06, -2.87765033e-07,
          -2.92625282e-06, 1.18393609e-06, -5.56546070e-07,
          -3.13486089e-06, 1.22935660e-06, -1.06100322e-06,
          -3.59338605e-06, 9.43490704e-07, -1.15485579e-06,
          -3.81999416e-06, 1.52454518e-07, -2.16136391e-06,
          -5.01442628e-06, -1.06752259e-06, -1.72819671e-06,
          -3.19750779e-06, -1.14053694e-06, -1.45127979e-06,
          -2.92668392e-06, -1.21052619e-06, -1.77742561e-06,
          -2.25861004e-06, -2.51759843e-06, -9.10267715e-07,
          -1.08853135e-06, -1.37592076e-06, 1.41743976e-06,
          1.27425312e-06, -8.33520176e-07, 1.69897623e-06,
          1.25279996e-06, -6.94010168e-07, 2.45732690e-06,
          2.08229812e-06, 3.23971221e-06, 5.72789872e-07, 1.97761025e-07,
          1.35517507e-06, -4.99235910e-07, -1.99077772e-06,
          -1.01659384e-06, -1.82034591e-06, -3.31652950e-06,
          -2.34234562e-06, -4.49536202e-07, -2.16851481e-06,
          -1.62693721e-06, -1.44314458e-06, -3.19564492e-06,
          -2.44443822e-06, -2.08912365e-06, -3.59495561e-06,
          -3.08577319e-06, -2.67432483e-06, -4.17881711e-06,
          -3.66963445e-06, -4.03470722e-06, -4.46030981e-06,
          -4.55273403e-06, -4.53351004e-06, -4.95911263e-06,
          -5.05153730e-06, -4.64165396e-06, -5.27487828e-06,
          -5.25154883e-06, -4.23160554e-06, -4.93881726e-06,
          -3.83321458e-06, -3.13145688e-06, -5.01804561e-06,
          -1.79585115e-07, -1.56905162e-06, -3.31790352e-06,
          1.34835034e-06, -5.01580757e-07, -3.45189937e-06,
          3.11362442e-06, -2.75244759e-07, -3.19010519e-06,
          3.06304082e-06, -2.85566853e-06, -6.53183633e-06,
          9.76874162e-07, -5.95014399e-06, -9.34884429e-06,
          -2.11760153e-06, -9.90307672e-06, -1.41871524e-05,
          -5.44761861e-06, -1.27625417e-05, -1.72575092e-05,
          -8.30708450e-06, -1.24372191e-05, -1.42785793e-05,
          -7.81055951e-06, -9.03918954e-06, -1.10040983e-05,
          -4.41253087e-06, -5.28823875e-06, -6.62593175e-06,
          -4.53755092e-07, -2.73982187e-06, -3.82311146e-06,
          2.06114987e-06, 1.59310355e-06, -1.51451985e-07,
          5.22490200e-06, 2.95471682e-06, 1.27763599e-06, 6.65751531e-06,
          4.74070430e-06, 3.64293805e-06, 7.90315335e-06, 3.70743828e-06,
          2.70118653e-06, 6.76974514e-06, 2.19727076e-06, 1.98004699e-07,
          3.62043647e-06, 8.50937340e-07, -1.15442174e-06,
          2.26801012e-06, -1.04924152e-06, -2.32372918e-06,
          6.37769972e-07, -2.44177704e-06, -2.84030352e-06,
          -2.28186209e-07, -2.86602153e-06, -3.60967601e-06,
          -8.11155019e-07, -2.86031286e-06, -3.60092054e-06,
          -6.27641512e-08, -2.52720815e-06, -4.57706028e-06,
          -8.59242618e-07, -3.13475311e-06, -5.32131116e-06,
          -1.46374089e-06, -3.07105074e-06, -3.06823290e-06,
          -3.49916218e-06, -3.43719034e-06, -3.32422883e-06,
          -3.75515810e-06, -2.87639841e-06, -2.74133868e-06,
          -5.36500283e-06, -2.22130643e-06, -1.47750086e-06,
          -4.10116536e-06, 8.71712473e-07, 5.27554903e-07,
          -3.41329701e-06, 1.08351082e-06, 7.39353311e-07,
          -3.30565126e-06, 2.82407450e-06, 2.44904572e-06,
          3.60645981e-06, 4.38078995e-09, -3.70648053e-07,
          7.86765952e-07, -1.25139377e-06, -2.74226568e-06,
          -1.76808192e-06, -2.08261508e-06, -3.60168883e-06,
          -2.19459594e-06, -2.81924758e-06, -4.57053557e-06,
          -3.81932887e-06, -3.30121179e-06, -5.06034257e-06,
          -4.26255156e-06, -4.12902500e-06, -5.63284721e-06,
          -5.12366478e-06, -4.22011863e-06, -5.79288007e-06,
          -5.28369765e-06, -5.31175101e-06, -5.87859768e-06,
          -5.97102189e-06, -3.72746581e-06, -4.37073322e-06,
          -4.46315789e-06, -3.30887860e-06, -4.06201889e-06,
          -3.82223470e-06, -2.67693940e-06, -3.46314005e-06,
          -2.84456019e-06, 9.58460078e-07, -9.47979061e-07,
          3.62519199e-06, 1.81734003e-06, 9.41051823e-08, 5.03678666e-06,
          -6.66191946e-09, -2.95922086e-06, 3.35811478e-06,
          -4.28399790e-06, -7.76878369e-06, -1.00115722e-06,
          -1.16416668e-05, -1.51638560e-05, -7.80912433e-06,
          -1.69318118e-05, -2.03819509e-05, -1.30992694e-05,
          -2.18412642e-05, -2.59790540e-05, -1.73858061e-05,
          -2.53467442e-05, -2.90717962e-05, -2.03607087e-05,
          -2.09895061e-05, -2.26950378e-05, -1.63628483e-05,
          -1.62394008e-05, -1.80744210e-05, -1.16127412e-05,
          -1.04597111e-05, -1.11573472e-05, -5.63436743e-06,
          -4.89376680e-06, -5.61935076e-06, -1.04981396e-07,
          2.88396154e-06, 1.60177660e-06, 6.36276172e-06, 7.02465968e-06,
          5.51813537e-06, 1.05582976e-05, 9.16286444e-06, 8.20931837e-06,
          1.21333160e-05, 7.36550555e-06, 6.44760757e-06, 1.04489636e-05,
          2.49093455e-06, 4.91668459e-07, 3.91410049e-06, 4.36397869e-07,
          -1.56286808e-06, 1.85956367e-06, -1.66223640e-06,
          -3.21622952e-06, 2.47751775e-08, -2.57593479e-06,
          -2.97141446e-06, -5.45634293e-07, -2.91872630e-06,
          -4.61431137e-06, -4.98960617e-07, -1.84219118e-06,
          -4.18690934e-06, 6.09022095e-07, -1.88621800e-06,
          -4.01407715e-06, -2.49675395e-07, -2.27337114e-06,
          -4.44379521e-06, -6.70776103e-07, -4.09035283e-06,
          -4.08753522e-06, -4.51846427e-06, -4.42102237e-06,
          -4.30478258e-06, -4.73571208e-06, -3.84376199e-06,
          -3.47341188e-06, -6.09707604e-06, -2.10044254e-06,
          -1.53043948e-06, -4.15410386e-06, 1.01028218e-06,
          6.66124663e-07, -3.39781695e-06, 6.49500919e-07,
          6.14754811e-07, -3.59121304e-06, 2.70872670e-06,
          1.49185246e-06, 2.68487065e-06, -4.34815348e-08,
          -1.26035582e-06, -6.73375737e-08, -1.08802499e-06,
          -2.47203980e-06, -1.84498822e-06, -2.80340231e-07,
          -1.67528583e-06, -1.04823425e-06, -2.26784755e-06,
          -4.04148477e-06, -2.92287427e-06, -3.32257719e-06,
          -4.73340879e-06, -3.97646045e-06, -5.58622105e-06,
          -5.57885642e-06, -5.26679332e-06, -4.99924863e-06,
          -4.99797716e-06, -4.68591406e-06, -5.15440342e-06,
          -6.16698435e-06, -4.44283796e-06, -5.83143810e-06,
          -6.83911321e-06, -5.08636094e-06, -5.32831791e-06,
          -7.47956392e-06, -4.57978467e-06, -5.49436800e-06,
          -7.90608010e-06, -3.92562970e-06, -5.26761960e-06,
          -4.92017853e-06, -4.68910088e-07, -3.31106753e-06,
          -2.12980922e-06, 2.32145931e-06, 2.76721289e-06,
          1.70796142e-07, 1.02295107e-05, -1.82576764e-06,
          -4.24930340e-06, 5.62861396e-06, -2.88960200e-06,
          -2.20922284e-05, -1.01852293e-05, -7.53893073e-06,
          -2.78346652e-05, -1.48750896e-05, 1.60741808e-06,
          -2.73707647e-05, -1.53850106e-05, -5.08126561e-07,
          -2.71793033e-05, -1.86293091e-05, -8.01933368e-07,
          -2.64794326e-05, -1.91703384e-05, -3.26598297e-07,
          -2.67443920e-05, -1.86819198e-05, -5.00310034e-06,
          -2.52799855e-05, -1.85815716e-05, 1.71931561e-07,
          -2.28524550e-05, -1.32326795e-05, 3.89218440e-06,
          -4.38570260e-06, 8.69730172e-07, 1.43635079e-05,
          7.27635734e-06, 1.30931548e-05, 1.70735930e-05, 1.05243125e-05,
          1.61866810e-05, 1.65962265e-05, 1.00802945e-05, 1.56629467e-05,
          6.89824583e-06, 2.64909090e-06, 8.11133486e-06, 2.17495267e-06,
          -2.09552832e-06, 3.36671587e-06, -2.67677342e-06,
          -4.95485301e-06, -1.24086796e-06, -2.40501208e-06,
          -3.96765427e-06, -9.00728821e-07, -2.21721302e-06,
          -2.22548078e-06, -6.72312467e-07, -2.76998617e-06,
          -3.73323132e-06, -7.69588269e-07, -1.94821928e-06,
          -4.22586982e-06, -1.42833858e-06, -2.33096466e-06,
          -4.69847055e-06, -1.90093942e-06, 2.64634281e-07,
          -1.79736446e-06, -7.92539686e-06, 4.09396904e-07,
          -1.99051328e-06, -8.21076083e-06, 2.76251444e-06,
          9.31757768e-07, -6.81950178e-06, 2.89798777e-06,
          -5.55115378e-07, -6.74435023e-06, 4.12261079e-06,
          6.33030140e-07, -5.78730305e-06, 4.46172544e-06,
          1.06904270e-06, -5.23041444e-06, -1.15569151e-06,
          -2.37256586e-06, -1.17954755e-06, -1.95118810e-06,
          -3.24142115e-06, -2.04840285e-06, -8.40105713e-07,
          -2.25825397e-06, -1.63120251e-06, 1.30426486e-06,
          -8.52153406e-08, 5.41836243e-07, 3.19728520e-06,
          2.03862191e-06, 2.53844337e-06, -1.39718694e-07,
          -1.26791781e-06, -7.52077710e-07, -4.45351134e-06,
          -4.48270521e-06, -4.17064257e-06, -3.80641723e-06,
          -3.80149345e-06, -3.48943036e-06, -4.51212190e-06,
          -5.46433739e-06, -3.74019078e-06, -3.95688176e-06,
          -4.92087656e-06, -3.07672349e-06, -2.94071992e-06,
          -5.28734336e-06, -2.00503064e-06, -3.80889446e-06,
          -6.22921698e-06, -2.24601126e-06, -6.27241343e-06,
          -4.70893747e-06, -3.48901125e-07, -6.42712507e-07,
          7.13094209e-07, 5.11858161e-06, 6.99855445e-06, 4.06615527e-06,
          1.45503782e-05, -9.24957874e-07, -3.54838949e-06,
          6.54044516e-06, -5.75361673e-06, -2.57077591e-05,
          -1.28780966e-05, -1.05855297e-05, -2.73037131e-05,
          -1.91700274e-05, -5.32088961e-07, -2.69534103e-05,
          -1.86636953e-05, -2.36257301e-06, -2.63384372e-05,
          -2.07642624e-05, -1.86207831e-06, -2.59179378e-05,
          -2.06478780e-05, -7.56521786e-07, -2.65636318e-05,
          -1.94052736e-05, -6.73022532e-06, -2.45082374e-05,
          -2.16554818e-05, -3.28582928e-06, -2.38791799e-05,
          -1.78267692e-05, 1.51106610e-06, -6.61624563e-06,
          -1.36438052e-06, 1.41646169e-05, 7.55459268e-06,
          1.28909996e-05, 1.69681098e-05, 1.07560636e-05, 1.55639100e-05,
          1.46331331e-05, 7.20405978e-06, 1.31365787e-05, 7.62968375e-06,
          4.14606575e-06, 8.86801263e-06, 2.02305978e-06,
          -2.56683347e-06, 3.24310963e-06, -2.93977996e-06,
          -5.08490893e-06, -1.44080025e-06, -1.69589327e-06,
          -3.15364787e-06, 1.41078814e-07, -1.70230555e-06,
          -1.71057331e-06, -1.80697114e-07, -2.58188379e-06,
          -3.40537599e-06, -1.17673585e-06, -2.35976700e-06,
          -4.10718303e-06, -1.83988641e-06, -2.49908612e-06,
          -4.74309536e-06, -2.09061704e-06, -2.22444598e-07,
          -1.78908044e-06, -8.54342306e-06, -3.21860881e-07,
          -3.52556071e-06, -8.69080213e-06, 2.70467467e-06,
          -6.91271680e-07, -6.87734155e-06, 3.03592492e-06,
          -1.52647559e-07, -6.54913811e-06, 3.89736397e-06,
          -1.06421894e-07, -5.79477592e-06, 4.32504476e-06,
          -9.62272452e-07, -5.36709513e-06, -2.61349624e-06,
          -4.18014179e-06, -2.93282233e-06, -2.01389571e-06,
          -3.62659671e-06, -2.37838367e-06, -2.41910107e-06,
          -2.85067108e-06, -1.87219609e-06, 1.50634449e-07,
          -2.74108857e-07, 7.04366130e-07, 4.77762751e-06,
          3.60211970e-06, 7.81887684e-06, 1.38923110e-06, 1.16900060e-06,
          5.38575796e-06, -1.10030817e-06, -7.66692608e-07,
          2.36917276e-06, -2.40072063e-06, -2.49196478e-06,
          5.63531103e-07, -3.43925012e-06, -3.91471804e-06,
          -1.40193163e-06, -2.01948046e-06, -2.49237269e-06,
          1.82846076e-08, -1.81092503e-06, -2.85816986e-06,
          -9.52713094e-07, -2.68806866e-06, -3.73531338e-06,
          -1.30593389e-06, -2.86578211e-06, -2.55262580e-06,
          1.22528729e-06, 4.42371811e-06, 4.77915455e-06, 8.41560086e-06,
          9.70043129e-06, 1.07708065e-05, 1.95394641e-05, 1.18122637e-06,
          1.03139882e-06, 9.94543734e-06, -1.58440944e-05,
          -2.10353628e-05, -9.95375103e-06, -2.25642325e-05,
          -2.65038598e-05, -1.80359439e-05, -1.64861376e-05,
          -2.40977461e-05, -1.78778100e-05, -1.60068339e-05,
          -2.32761467e-05, -1.67650560e-05, -1.48288264e-05,
          -2.12316718e-05, -1.77006132e-05, -1.59371339e-05,
          -2.40357986e-05, -1.77943111e-05, -1.79120780e-05,
          -2.31324739e-05, -2.08504862e-05, -1.20486957e-05,
          -1.99901588e-05, -1.43635707e-05, -1.56757960e-06,
          -2.25563076e-06, 1.18410071e-06, 1.02158383e-05,
          9.63874299e-06, 1.30264716e-05, 1.08346867e-05, 1.10753790e-05,
          1.71197953e-05, 8.56825227e-06, 7.76302295e-06, 1.41862347e-05,
          6.28820908e-06, 2.93508106e-06, 1.12205980e-05,
          -9.26375378e-07, -1.99019973e-06, 4.64717732e-06,
          -6.64408799e-06, -5.25238602e-06, -1.64632365e-06,
          -4.29351940e-06, -3.48412095e-06, 1.45233670e-07,
          -2.79511710e-06, -5.58269846e-07, -8.48710613e-07,
          -3.71877763e-06, -1.83631960e-06, -1.98200019e-06,
          -3.26287704e-06, -1.71594070e-06, -3.78406503e-06,
          -2.30888782e-06, -2.09386940e-06, -3.15555508e-06,
          2.04994208e-07, -1.01723560e-06, -6.45779528e-06,
          -1.07892220e-06, -1.97083295e-06, -7.35093045e-06,
          1.03908246e-06, -7.40246719e-07, -7.71225768e-06,
          2.10674943e-06, 1.62710228e-06, -6.75166166e-06,
          3.04118953e-06, 7.08972664e-07, -5.86230999e-06,
          2.73640171e-06, 5.84084944e-07, -6.16709804e-06,
          -1.97936993e-06, -3.56057240e-06, -2.31235936e-06,
          -2.09558493e-07, -1.82306201e-06, -5.74849025e-07,
          -5.22737764e-08, -4.78383413e-07, 5.00091573e-07,
          6.85888381e-07, 3.61646755e-07, 1.21292237e-06, 6.40093231e-06,
          5.25127689e-06, 9.37459208e-06, 5.56995428e-06, 5.41606460e-06,
          8.96426445e-06, 1.74821855e-06, 2.14722445e-06, 5.28309010e-06,
          -3.35937216e-07, 2.60494382e-08, 3.16191472e-06,
          -1.17134823e-06, -1.55617272e-06, 9.61215278e-07,
          -1.51465383e-06, -1.93560231e-06, 5.83468420e-07,
          -1.05756851e-06, -2.10481335e-06, -1.86652699e-07,
          -1.44513592e-06, -2.49238087e-06, -3.85620410e-07,
          2.15272308e-07, 3.72461955e-07, 3.99394594e-06, 6.54024643e-06,
          6.79324694e-06, 1.07815276e-05, 1.32624109e-05, 1.28554020e-05,
          2.20945676e-05, 6.58719637e-06, 8.37806601e-06, 1.57503728e-05,
          -9.26767916e-06, -1.26306168e-05, -3.06523361e-06,
          -2.16603676e-05, -2.40600875e-05, -1.67928483e-05,
          -1.66485952e-05, -2.27201090e-05, -1.88296926e-05,
          -1.46670727e-05, -2.02702868e-05, -1.69311097e-05,
          -1.21917146e-05, -1.80845764e-05, -1.44898158e-05,
          -1.34064057e-05, -2.01869025e-05, -1.64077901e-05,
          -1.45283893e-05, -2.14202319e-05, -1.57650156e-05,
          -6.20623814e-06, -1.49019952e-05, -7.86676628e-06,
          4.93749212e-06, 2.71750741e-06, 8.74260695e-06, 1.34527163e-05,
          1.12882944e-05, 1.73433855e-05, 1.29524378e-05, 1.11861782e-05,
          1.84086202e-05, 1.01487221e-05, 7.61412366e-06, 1.47949268e-05,
          5.39801931e-06, 2.72243165e-06, 1.02324830e-05,
          -1.19586230e-06, -2.16178887e-06, 4.39309861e-06,
          -5.33011507e-06, -4.80022209e-06, -8.91362106e-07,
          -4.25254939e-06, -3.53631935e-06, 1.86203764e-07,
          -3.63718345e-06, -6.71021496e-07, -1.90040601e-06,
          -5.27155453e-06, -3.16780279e-06, -3.56588021e-06,
          -3.50597725e-06, -4.83735721e-06, -3.92244419e-06,
          -1.77115965e-06, -3.52609231e-06, -2.85569649e-06,
          1.75458490e-06, 2.86398347e-07, -4.85237888e-06,
          1.31403021e-06, 2.49179834e-06, -5.08358653e-06,
          2.07890002e-06, 6.73868385e-07, -6.65642119e-06,
          2.49917753e-06, 8.29029943e-07, -6.45391765e-06,
          3.33428852e-06, 1.15356659e-06, -5.56921077e-06,
          3.15875627e-06, 1.00643945e-06, -5.74474325e-06,
          1.21696587e-06, -1.90695539e-06, -6.68048813e-07,
          4.00831595e-06, 8.92805758e-07, 2.11488418e-06, 4.23492020e-06,
          1.86841146e-06, 3.65050460e-06, 3.30818102e-06, 9.10938581e-07,
          2.85456758e-06, 4.01040916e-06, 3.01245586e-06, 9.49171772e-06,
          2.84546923e-06, 1.87923399e-06, 8.37948392e-06, 1.65458414e-06,
          1.67560279e-06, 8.10461279e-06, 2.87229977e-06, 2.83304598e-06,
          9.26205666e-06, 2.31260356e-06, 1.82681583e-06, 7.44903718e-06,
          -5.46205854e-07, -1.69157886e-06, 3.93064238e-06,
          -5.05520745e-07, -2.66236361e-06, 1.74930085e-06,
          1.09447221e-07, -1.84310670e-06, 2.56855765e-06,
          1.04664105e-06, -3.94441628e-07, 2.78328548e-06,
          5.17380295e-06, 3.81973769e-06, 7.23303265e-06, 1.41783012e-05,
          1.66434402e-05, 2.22084855e-05, 1.33636122e-05, 1.79940253e-05,
          2.18364275e-05, -7.41005351e-06, -8.00411499e-07,
          3.66336621e-06, -2.24803352e-05, -1.59167394e-05,
          -1.17092222e-05, -2.63852853e-05, -2.22582385e-05,
          -1.94354834e-05, -2.70750297e-05, -2.19445465e-05,
          -1.90443407e-05, -1.86486996e-05, -1.82266322e-05,
          -1.92504958e-05, -1.88364429e-05, -1.72076889e-05,
          -1.97548306e-05, -2.04628432e-05, -1.66441605e-05,
          -1.70631520e-05, -9.60258421e-06, -6.39019709e-06,
          -7.20496246e-06, 5.30955094e-06, 7.79182392e-06,
          1.06981497e-05, 1.11055033e-05, 1.35195196e-05, 1.66559603e-05,
          1.15028706e-05, 8.83750090e-06, 1.61475637e-05, 9.05066736e-06,
          5.62136483e-06, 1.24218013e-05, -7.89671958e-07,
          7.40605174e-07, 5.16007003e-06, -3.94125709e-06,
          -1.19915364e-06, 2.04254115e-06, -3.57457066e-06,
          -1.58498358e-06, -8.73194438e-07, -2.86789668e-06,
          -8.26650535e-07, -7.05344917e-07, -3.29506952e-06,
          -1.75457978e-06, -4.86714498e-06, -3.98842667e-06,
          -4.35768834e-06, -7.03709520e-06, -2.00610407e-06,
          -1.70135240e-06, -5.96690370e-06, 8.36869276e-08,
          -8.17805358e-07, -3.97106714e-06, 3.34837796e-06,
          2.88502952e-06, -3.87018736e-06, 2.67530527e-06,
          2.51246729e-06, -4.04082675e-06, 2.40720465e-06,
          1.27786734e-06, -5.71398368e-06, 2.44195735e-06,
          1.15277544e-06, -5.81067070e-06, 3.91807043e-06,
          2.13956173e-06, -4.29058355e-06, 3.80952179e-06,
          1.96473434e-06, -4.39913219e-06, 1.80296172e-06,
          -1.31959314e-06, -8.06865827e-08, 3.32737500e-06,
          2.21648193e-07, 1.44372666e-06, 4.71106250e-06, 2.27178793e-06,
          4.04675529e-06, 5.52607662e-06, 3.21205061e-06, 5.08626545e-06,
          2.48983793e-06, 1.49674895e-06, 7.99699865e-06, 2.66596544e-06,
          1.67287646e-06, 8.17312593e-06, 4.33945797e-06, 4.32603520e-06,
          1.08091590e-05, 5.64637139e-06, 5.59850741e-06, 1.24604267e-05,
          5.48823027e-06, 5.09721986e-06, 1.08471158e-05, 2.34066601e-06,
          1.91515073e-06, 7.53737186e-06, 3.98915660e-07,
          -1.95422990e-06, 2.85466081e-06, -5.99030500e-07,
          -3.01849082e-06, 1.84998373e-06, 3.39198920e-07,
          -1.00585771e-06, 2.33199125e-06, 5.55509678e-06,
          4.16238299e-06, 7.50023219e-06, 1.39456779e-05, 1.82401891e-05,
          2.36984706e-05, 1.42299450e-05, 1.87196765e-05, 2.22100061e-05,
          -6.16344414e-06, -3.02459796e-07, 5.95071469e-06,
          -1.99740643e-05, -1.24059197e-05, -8.71472639e-06,
          -2.47100088e-05, -2.08208839e-05, -1.77902730e-05,
          -3.14149147e-05, -2.61062341e-05, -2.48562428e-05,
          -2.28919798e-05, -2.24319792e-05, -2.40045902e-05,
          -2.34343261e-05, -2.31556878e-05, -2.45275005e-05,
          -2.34092677e-05, -2.19462381e-05, -2.15515593e-05,
          -1.43508014e-05, -1.13912674e-05, -1.17775089e-05,
          3.20976511e-07, 3.51173958e-06, 5.92419201e-06, 6.46802800e-06,
          9.68202949e-06, 1.22084257e-05, 5.92650076e-06, 5.20380672e-06,
          1.14442109e-05, 3.08524318e-06, 1.12707710e-06, 7.94619518e-06,
          -3.86389411e-06, -1.08900292e-06, 2.00744967e-06,
          -4.64950108e-06, -1.27325848e-06, 1.41539397e-06,
          -2.87329044e-06, -1.38510870e-06, -7.00920111e-07,
          -3.64546145e-06, -2.41978250e-06, -1.49307073e-06,
          -3.08708218e-06, -2.14784586e-06, -5.39633083e-06,
          -3.55079669e-06, -4.82712221e-06, -6.93223274e-06,
          -2.10442136e-06, -2.96750886e-06, -6.17194246e-06,
          5.34823016e-07, -2.87606582e-07, -3.60247873e-06,
          4.40277336e-06, 3.95592633e-06, -2.65121798e-06,
          4.17481851e-06, 4.35642232e-06, -2.63900870e-06,
          3.48769299e-06, 2.67081373e-06, -4.50092921e-06,
          2.96879102e-06, 2.10800204e-06, -5.05427261e-06,
          4.56277621e-06, 2.83675831e-06, -3.69753980e-06,
          4.48753553e-06, 2.59108583e-06, -3.77278070e-06,
          2.66678626e-06, -1.47332491e-06, 6.48408161e-07,
          3.78617187e-06, -3.03660300e-07, 1.76846356e-06,
          7.07560775e-06, 2.54925112e-06, 5.25231053e-06, 7.26229337e-06,
          2.70196824e-06, 5.27496832e-06, 1.77616471e-07,
          -7.56210284e-07, 4.27881560e-06, 1.67426572e-06,
          1.69222301e-06, 6.72724900e-06, 5.35060371e-06, 5.95277743e-06,
          1.20534869e-05, 5.80494361e-06, 6.10835559e-06, 1.25932866e-05,
          6.09382460e-06, 5.13256145e-06, 1.27183812e-05, 3.76176763e-06,
          2.46872719e-06, 1.03528191e-05, 3.09773463e-06,
          -3.84824176e-07, 7.62575564e-06, 2.41967109e-06,
          -1.27510555e-06, 6.89436456e-06, 2.36276605e-06,
          2.78466382e-06, 5.17772651e-06, 8.40447683e-06, 8.88685554e-06,
          1.12799180e-05, 1.55131384e-05, 1.69404011e-05, 1.93337146e-05,
          9.07765661e-06, 1.05177869e-05, 1.41615528e-05,
          -6.74105331e-06, -8.60697401e-06, -3.45033072e-06,
          -1.32152945e-05, -1.53843030e-05, -1.06225698e-05,
          -1.29686887e-05, -1.90728788e-05, -1.10902456e-05,
          -2.08324382e-05, -2.64011451e-05, -1.92445023e-05,
          -1.95638677e-05, -2.17692614e-05, -2.35615389e-05,
          -1.86401594e-05, -2.16613807e-05, -2.30454571e-05,
          -2.14297634e-05, -2.37406002e-05, -2.38098819e-05,
          -1.63009245e-05, -1.72120181e-05, -1.92492644e-05,
          -6.84165116e-06, -3.02791841e-06, -2.62874141e-06,
          1.87645412e-06, 5.67030884e-06, 6.07379252e-06, 2.42768294e-07,
          2.44556873e-06, 6.30291061e-06, -2.73833234e-06,
          -1.08002280e-06, 2.72110697e-06, -5.75683453e-06,
          -1.57771160e-06, -3.72768909e-06, -4.00961017e-06,
          3.24694355e-07, -1.85378644e-06, -2.22712606e-06,
          6.08440132e-07, -2.85583087e-06, -3.83500446e-06,
          -4.36579995e-07, -4.58482236e-06, -1.75872049e-06,
          -1.58686180e-06, -5.92002107e-06, -1.81536132e-06,
          -2.21607911e-06, -6.11235009e-06, -4.53870626e-07,
          -2.05833999e-06, -4.96739267e-06, 1.47458638e-06,
          -6.01005112e-08, -2.97741917e-06, 4.70947225e-06,
          5.22760320e-06, -2.62634285e-06, 5.09249958e-06,
          5.46910724e-06, -2.12557029e-06, 4.77956701e-06,
          4.18816308e-06, -2.47677394e-06, 3.85157637e-06,
          3.27910948e-06, -3.40476458e-06, 4.89239073e-06,
          3.32390505e-06, -2.34718732e-06, 3.94980134e-06,
          2.38131543e-06, -3.28977694e-06, 2.88790125e-06,
          -1.25221004e-06, 8.69522978e-07, 3.78586242e-06,
          -3.94699612e-07, 1.70834494e-06, 6.77428034e-06,
          2.30399337e-06, 4.97056908e-06, 6.60960313e-06, 3.68573683e-06,
          6.25339771e-06, 1.78737537e-07, -1.61292121e-06,
          3.22118126e-06, 2.76180344e-06, 1.60165871e-06, 6.89289982e-06,
          3.52805705e-06, 3.82285862e-06, 1.06324715e-05, 4.71191197e-06,
          5.01532395e-06, 1.19331644e-05, 6.27463851e-06, 4.97034716e-06,
          1.28743004e-05, 4.57866008e-06, 3.27436874e-06, 1.11783220e-05,
          6.06706999e-06, 2.44548232e-06, 1.05950912e-05, 5.56894747e-06,
          2.13695057e-06, 1.00482239e-05, 1.21441406e-06, 1.71482043e-06,
          3.97361509e-06, 7.49126002e-06, 8.09677840e-06, 9.98242012e-06,
          9.37421009e-06, 1.26954001e-05, 1.40013926e-05,
          -2.21903178e-06, -1.44283410e-06, 2.20096240e-06,
          -1.28071906e-05, -1.45759122e-05, -9.51911443e-06,
          -5.76598768e-06, -8.08244113e-06, -2.92812956e-06,
          4.93143261e-06, 1.79359301e-06, 7.13087502e-06,
          -1.90643289e-06, -5.22145046e-06, 1.91994957e-07,
          -6.88556520e-06, -1.00073057e-05, -1.09995781e-05,
          -6.94776463e-06, -9.53750623e-06, -1.10651426e-05,
          -1.54831923e-05, -1.72712334e-05, -1.84849705e-05,
          -1.82148415e-05, -1.96213332e-05, -2.14119464e-05,
          -1.28457859e-05, -9.11697134e-06, -8.70792883e-06,
          -6.44575593e-08, 3.51979406e-06, 4.08275400e-06,
          -2.80464150e-07, 3.10574273e-06, 5.90540139e-06,
          -3.87144473e-06, -1.75354023e-06, 1.64108030e-06,
          -4.57463284e-06, -1.04487390e-06, -2.59207195e-06,
          -3.46909883e-06, 6.42875477e-07, -1.38798441e-06,
          -5.23907033e-07, 2.48018750e-06, -1.96983206e-06,
          -2.44903708e-06, -5.59196792e-07, -4.42705323e-06,
          -1.86852162e-06, -1.84974510e-06, -6.04678826e-06,
          -7.06733260e-07, -1.11922782e-06, -5.12537918e-06,
          8.46874400e-07, -6.87812587e-07, -3.69033432e-06,
          1.73645958e-06, 3.95629201e-07, -2.76750575e-06,
          4.59005969e-06, 4.50122616e-06, -2.44776243e-06,
          5.42599400e-06, 6.03383933e-06, -1.69878149e-06,
          5.79964899e-06, 5.43548776e-06, -1.48509298e-06,
          4.88606520e-06, 4.40828262e-06, -2.39867677e-06,
          5.00547458e-06, 3.43698912e-06, -2.29090529e-06,
          3.79604762e-06, 2.22756171e-06, -3.47193168e-06,
          -8.37796108e-07, -2.21597656e-06, 1.06787674e-07,
          1.04951357e-06, -1.55741944e-07, 2.18630930e-06,
          2.23743132e-06, 1.85146246e-06, 4.59956755e-06, 4.44173020e-06,
          4.11249994e-06, 6.71190810e-06, 1.46513742e-06, 1.92764787e-06,
          7.18435331e-06, 3.08304379e-06, 3.09872826e-06, 8.26014639e-06,
          4.54166275e-06, 4.46196327e-06, 9.25048425e-06, 3.35826462e-06,
          3.62126229e-06, 8.86038652e-06, 2.75468369e-06, 5.52048459e-06,
          1.04579567e-05, 4.22299809e-06, 6.91322884e-06, 1.19779334e-05,
          6.07263382e-06, 1.00662428e-05, 1.46913271e-05, 7.39744155e-06,
          1.14017976e-05, 1.60268810e-05, 1.04409510e-05, 1.62391789e-05,
          1.27303038e-05, 5.79886591e-06, 1.15380735e-05, 9.23271182e-06,
          -9.13468455e-07, 2.50165749e-06, 1.52956727e-06,
          -1.39871127e-05, -1.31422657e-05, -9.98902578e-06,
          -1.35181890e-05, -1.04637229e-05, -8.48461696e-06,
          4.39361247e-06, 7.31894397e-06, 7.75270928e-06, 1.79894814e-05,
          2.04396365e-05, 2.23444495e-05, 1.14347913e-05, 1.36697299e-05,
          1.56677779e-05, 8.78069841e-06, 1.25735269e-05, 1.04147448e-05,
          1.02510548e-05, 1.48168028e-05, 1.13223214e-05, 2.76287619e-06,
          3.90951027e-06, 1.72547425e-06, -1.06203770e-05,
          -1.03998173e-05, -1.16648289e-05, -1.44123806e-05,
          -1.30397984e-05, -1.41679529e-05, -5.84711916e-06,
          -3.08307358e-06, -4.66563915e-06, 3.12201109e-06,
          4.85480405e-06, 4.05706805e-06, 3.56850160e-06, 5.27925977e-06,
          4.59489638e-06, 7.87278793e-07, 5.16943464e-06, 1.23203870e-06,
          -4.36938109e-07, 3.09550478e-06, -1.38412361e-07,
          -1.10236806e-06, 7.38946312e-07, -2.66087022e-06,
          -2.63356606e-06, -2.91026680e-07, -4.44618354e-06,
          -1.65064910e-06, -2.22819985e-08, -4.26729002e-06,
          -1.26437021e-06, -1.17317393e-06, -4.86251656e-06,
          5.40780889e-07, 9.73036094e-07, -3.40509996e-06,
          1.67829353e-06, 1.61308606e-06, -2.16314834e-06,
          3.53599603e-06, 3.96871246e-06, -2.04441358e-06,
          3.79381390e-06, 3.94679591e-06, -2.05574497e-06,
          3.92981929e-06, 4.36361643e-06, -1.40005068e-06,
          3.92168431e-06, 4.50435164e-06, -1.41418604e-06,
          3.59532555e-06, 3.15054649e-06, -1.86438683e-06,
          2.65156541e-06, 2.20678635e-06, -2.77974596e-06,
          -6.73659827e-07, -2.16630133e-06, 1.56462903e-07,
          -4.83339306e-08, -1.06848074e-06, 1.06076129e-06,
          2.86213520e-07, -3.36211414e-08, 2.77338222e-06,
          1.49398306e-06, 1.03599041e-06, 3.84299392e-06, 4.02142496e-06,
          4.67937389e-06, 9.55657015e-06, 4.08386359e-06, 4.77407775e-06,
          9.66492735e-06, 5.25021142e-06, 4.86744420e-06, 1.01377809e-05,
          3.85203202e-06, 3.97773056e-06, 9.12437463e-06, 3.19478295e-06,
          5.93031018e-06, 1.09087432e-05, 6.76989021e-06, 9.85106635e-06,
          1.45334352e-05, 1.06832658e-05, 1.46493412e-05, 1.93153865e-05,
          1.20524801e-05, 1.62728775e-05, 2.06980258e-05, 1.18877451e-05,
          1.75925616e-05, 1.52503917e-05, 9.39126267e-07, 6.87376269e-06,
          4.48380661e-06, -8.16802276e-06, -5.57191197e-06,
          -5.85998623e-06, -1.30919343e-05, -1.08524991e-05,
          -1.05289400e-05, -3.21607354e-06, -9.23585688e-08,
          5.16615216e-07, 1.21486801e-05, 1.50905107e-05, 1.55618909e-05,
          1.64218909e-05, 1.93567867e-05, 2.01382500e-05, 3.43503530e-06,
          5.85005500e-06, 8.23701066e-06, 2.45560500e-06, 6.49746153e-06,
          3.67660414e-06, 4.76676905e-06, 8.83850589e-06, 5.98776842e-06,
          1.37356187e-06, 2.28145632e-06, 3.32634784e-07,
          -8.87401347e-06, -8.76565628e-06, -9.91846628e-06,
          -1.52963712e-05, -1.22606898e-05, -1.67777525e-05,
          -1.19463884e-05, -8.94041113e-06, -1.19323558e-05,
          -8.11711516e-07, 1.00050624e-06, -1.12420423e-06,
          5.79770540e-06, 8.16020020e-06, 4.53479288e-06, 2.99730800e-06,
          7.08091648e-06, 3.42184489e-06, 1.96217366e-06, 6.68065604e-06,
          2.51619736e-06, 1.50208257e-06, 3.55316115e-06, 2.40889165e-07,
          2.09483275e-08, 1.38579287e-06, -2.03534523e-06,
          6.46372541e-07, 2.04309708e-06, -2.38819871e-06,
          4.94528685e-08, -3.32306982e-08, -3.96177165e-06,
          6.89838487e-07, 8.28817477e-08, -4.03692593e-06,
          9.70269639e-07, 4.36507236e-07, -3.36169933e-06,
          2.62402295e-06, 3.08380550e-06, -2.87251828e-06,
          3.04417131e-06, 3.20420600e-06, -2.75100115e-06,
          3.23480072e-06, 3.66630184e-06, -2.04426760e-06,
          3.24561029e-06, 3.85701151e-06, -2.06185905e-06,
          3.05505637e-06, 2.61027708e-06, -2.37074460e-06,
          2.38889311e-06, 1.94001473e-06, -2.99917951e-06,
          -7.74685759e-07, -2.05265565e-06, 1.93116080e-06,
          -1.52557868e-06, -3.02346439e-06, 1.07395647e-06,
          -1.62320316e-06, -2.90306093e-06, 1.86926513e-06,
          -1.44714150e-07, -1.60036234e-06, 3.06151856e-06,
          1.74766410e-06, 1.41629641e-06, 5.88272860e-06, 3.50332220e-06,
          3.19630954e-06, 7.66669564e-06, 2.61373430e-06, 3.68104361e-06,
          7.63646949e-06, 2.83799886e-06, 4.06766958e-06, 7.94321477e-06,
          4.62735943e-06, 1.03221437e-05, 1.20151599e-05, 9.06992318e-06,
          1.52031716e-05, 1.65088750e-05, 1.04659075e-05, 2.00936429e-05,
          1.97294103e-05, 1.06308735e-05, 1.98605449e-05, 1.98540947e-05,
          1.01428968e-05, 1.71277934e-05, 1.70608400e-05,
          -7.02146644e-06, 3.15139687e-07, 1.43879850e-08,
          -1.48717345e-05, -9.80995355e-06, -9.35468597e-06,
          -1.05940007e-05, -5.81804306e-06, -5.33653474e-06,
          1.39913789e-06, 3.30381727e-06, 8.57219584e-06, 6.98657504e-06,
          9.07891263e-06, 1.38912146e-05, 4.25040434e-06, 3.04056175e-06,
          1.08738150e-05, -5.09520714e-06, -6.49987214e-06,
          1.86083264e-06, -5.74322030e-06, -4.91847732e-06,
          -3.73428662e-07, -4.17389447e-06, -2.47921389e-06,
          1.05914444e-06, 2.96851425e-07, -6.28072712e-07,
          1.07049914e-06, -2.36342407e-06, -2.73005230e-06,
          -1.48794618e-06, -1.08684544e-05, -9.13209169e-06,
          -1.20729555e-05, -1.66044902e-05, -1.41364908e-05,
          -1.81117921e-05, -1.01530341e-05, -6.78341439e-06,
          -1.27242547e-05, 1.24214068e-06, 4.20498145e-06,
          -1.15404248e-06, 3.84687928e-06, 1.02311815e-05,
          5.16275668e-06, 3.69712780e-06, 9.69712528e-06, 5.31380510e-06,
          2.92050959e-06, 8.16191186e-06, 3.46517686e-06,
          -1.05786592e-06, 3.35669824e-06, -6.47758554e-07,
          -5.18288289e-07, 4.39060869e-07, -3.50045252e-06,
          -2.49100572e-06, -2.16076523e-06, -5.30402258e-06,
          -1.59460819e-06, -2.00360887e-06, -5.27456405e-06,
          -9.77820605e-07, -8.36277820e-07, -4.28274916e-06,
          2.53632288e-06, 2.53999724e-06, -3.13617852e-06,
          2.93752419e-06, 2.98391046e-06, -2.72542457e-06,
          3.27912562e-06, 3.81332575e-06, -1.61423873e-06,
          3.34572042e-06, 4.04796310e-06, -1.52730456e-06,
          3.01820319e-06, 2.60040042e-06, -1.61551668e-06,
          2.61927698e-06, 2.20147422e-06, -2.02129718e-06,
          1.36839475e-07, -1.34489028e-06, 2.34650133e-06,
          -1.00012710e-06, -2.52483073e-06, 1.30686294e-06,
          -1.01744229e-06, -2.21558139e-06, 2.17563752e-06,
          -1.37010574e-07, -1.78210496e-06, 2.42678561e-06,
          -2.22352810e-07, -1.60893023e-06, 2.71419731e-06,
          1.23493578e-06, 2.58788031e-08, 4.38888628e-06, 1.10318342e-06,
          1.92193284e-06, 5.41352301e-06, 3.44829596e-06, 4.46537706e-06,
          8.22797210e-06, 6.66096912e-06, 1.26187324e-05, 1.36007584e-05,
          1.09835664e-05, 1.76185204e-05, 1.81831892e-05, 1.01251990e-05,
          1.89193106e-05, 1.92093721e-05, 8.24560902e-06, 1.80374736e-05,
          1.74150537e-05, 4.44115358e-06, 1.21596404e-05, 1.14093245e-05,
          -1.44108481e-05, -6.73576005e-06, -7.25007067e-06,
          -1.58649746e-05, -1.16468709e-05, -8.15453041e-06,
          -3.41238433e-06, 1.03535194e-06, 2.95519430e-06,
          7.11680104e-06, 9.42994029e-06, 1.36892349e-05, 4.88622345e-06,
          6.73486784e-06, 1.23001873e-05, 4.72653625e-07,
          -8.92977425e-07, 7.62777699e-06, -4.97177825e-06,
          -6.23030610e-06, 2.20328525e-06, -4.58491058e-06,
          -3.96138103e-06, 1.57127386e-06, -5.65897290e-06,
          -6.47756224e-06, 5.99876103e-07, -6.75225692e-07,
          -2.18079981e-06, 8.41330518e-07, 2.57762224e-07,
          -9.62943659e-07, 1.91890308e-06, -7.04870126e-06,
          -7.16160230e-06, -7.64620563e-06, -1.61631888e-05,
          -1.60901600e-05, -1.69098566e-05, -1.60656618e-05,
          -1.14970235e-05, -1.73291737e-05, -6.17272553e-06,
          -2.66433449e-06, -8.01746137e-06, 2.32590355e-06,
          8.98565031e-06, 3.51275344e-06, 5.65223945e-06, 1.16464198e-05,
          7.13840245e-06, 5.92568995e-06, 1.09555049e-05, 6.71960424e-06,
          6.99188831e-07, 6.02229829e-06, 9.90670173e-07,
          -1.64981577e-06, -9.59466433e-07, -4.63198012e-06,
          -3.68708493e-06, -3.87489217e-06, -6.91855303e-06,
          -1.88369233e-06, -1.93572191e-06, -5.67407642e-06,
          -4.55364358e-07, -1.41133015e-07, -3.55799625e-06,
          3.28639953e-06, 3.30348735e-06, -2.40351596e-06,
          3.59811929e-06, 3.67090115e-06, -2.09425252e-06,
          3.57130352e-06, 4.14118222e-06, -1.32499531e-06,
          3.18518346e-06, 3.97506892e-06, -1.70550629e-06,
          2.89249920e-06, 2.47469643e-06, -1.75358559e-06,
          2.56455132e-06, 2.05529477e-06, -2.08368874e-06,
          2.93971402e-06, 8.31796797e-07, 6.63735727e-06, 1.96197789e-06,
          -2.79048237e-07, 5.46600904e-06, 1.80049039e-06,
          -2.02643776e-07, 5.60265789e-06, 2.67973246e-06,
          2.36160773e-07, 6.27401869e-06, 1.95088501e-06, 3.47962185e-07,
          5.70891234e-06, 2.08308938e-06, 2.10859909e-07, 5.48775188e-06,
          2.12960026e-06, 2.23107941e-06, 6.13630073e-06, 6.37453240e-06,
          7.03512433e-06, 1.04124210e-05, 7.76345678e-06, 1.60188974e-05,
          1.56556489e-05, 9.96138624e-06, 1.70105795e-05, 1.80223778e-05,
          7.71907708e-06, 1.74651595e-05, 1.73733733e-05, 4.97428937e-06,
          1.51468666e-05, 1.46582888e-05, -3.25378187e-06,
          2.93909716e-06, 3.59944602e-06, -1.68416173e-05,
          -1.17492582e-05, -1.03300290e-05, -8.83300436e-06,
          -3.26598251e-06, -1.73984427e-06, 6.28684393e-06,
          1.30959079e-05, 1.33800040e-05, 7.36256789e-06, 1.17932523e-05,
          1.95486864e-05, -2.12206078e-06, 1.92405810e-06,
          9.88453303e-06, -7.10443965e-06, -7.32448325e-06,
          7.95595861e-06, -6.06859203e-06, -6.99018892e-06,
          8.57802752e-06, -3.57292265e-06, -3.09136794e-06,
          6.28876660e-06, -4.84295015e-06, -6.13296652e-06,
          4.75959132e-06, -1.26696455e-06, -1.85780925e-06,
          6.42226951e-06, 2.94351025e-06, 4.25901089e-06, 9.11684856e-06,
          -1.34394156e-06, 1.03037496e-06, 1.99400370e-06,
          -1.19784818e-05, -9.09325991e-06, -8.48432319e-06,
          -1.80908228e-05, -1.76778467e-05, -1.69657160e-05,
          -1.50075721e-05, -1.28565125e-05, -1.48990930e-05,
          -5.86666965e-06, 5.48328762e-06, 2.05263177e-06,
          2.64937694e-06, 1.35776700e-05, 1.13486367e-05, 2.95807467e-06,
          1.14070626e-05, 9.41152484e-06, -2.19702429e-06,
          6.98937765e-06, 3.99659211e-06, -2.94643951e-06,
          -1.01603334e-07, -2.37211293e-06, -4.86339923e-06,
          -2.83207851e-06, -4.46751073e-06, -1.68231406e-06,
          -6.34469757e-07, -2.21592995e-06, 4.86273734e-07,
          1.84127418e-06, 3.22256881e-07, 4.13690259e-06, 3.61345042e-06,
          1.50425720e-07, 4.18438958e-06, 3.78292884e-06, 1.94866445e-07,
          3.96670339e-06, 3.76830621e-06, -3.46195570e-08,
          3.28556825e-06, 3.10655287e-06, -5.83771566e-07,
          2.84477915e-06, 1.86846921e-06, -8.91179639e-07,
          2.14272836e-06, 1.21822620e-06, -1.40987322e-06,
          6.74428156e-06, 4.64976529e-06, 1.10792716e-05, 6.17645128e-06,
          4.11637620e-06, 1.03644552e-05, 6.36666437e-06, 4.53133180e-06,
          1.07251271e-05, 6.35079550e-06, 4.13281668e-06, 1.05164909e-05,
          5.18296019e-06, 3.53814357e-06, 9.54014740e-06, 4.12346935e-06,
          2.30425235e-06, 8.30378576e-06, 3.78961499e-06, 4.63536344e-06,
          8.34298498e-06, 8.09549056e-06, 8.94439654e-06, 1.25366596e-05,
          8.55602138e-06, 1.60955406e-05, 1.59506308e-05, 8.59402098e-06,
          1.54907302e-05, 1.62768920e-05, 4.33246987e-06, 1.38678179e-05,
          1.37551906e-05, -7.86449050e-07, 8.88452905e-06,
          8.64764570e-06, -1.11985555e-05, -6.87016791e-06,
          -4.80076324e-06, -1.60041909e-05, -1.31111410e-05,
          -9.54126426e-06, -3.72905060e-06, 4.35777707e-07,
          2.91872857e-06, 6.26466044e-06, 1.13543438e-05, 1.33590211e-05,
          4.41220755e-06, 7.10344602e-06, 1.54979934e-05,
          -4.54702604e-06, -1.73580929e-06, 6.54559244e-06,
          -5.88195735e-06, -9.48969046e-06, 7.18979618e-06,
          -3.71723377e-06, -7.45180250e-06, 9.24801952e-06,
          -2.09982204e-06, -5.58249485e-06, 6.42934219e-06,
          -1.94670429e-06, -5.15915372e-06, 6.68861912e-06,
          1.56334102e-06, 1.34793041e-07, 8.95597532e-06, 5.64412812e-06,
          4.72918282e-06, 1.27935882e-05, 2.54904921e-06, 4.11516066e-06,
          6.47774914e-06, -4.17815863e-06, -2.40398572e-06,
          -5.33777722e-07, -1.39016329e-05, -1.36186472e-05,
          -1.26285668e-05, -1.63351906e-05, -1.73421431e-05,
          -1.58518033e-05, -9.90303306e-06, 2.29096912e-07,
          -2.16975582e-06, 7.70444331e-07, 1.11603158e-05,
          9.36974720e-06, 2.35540301e-06, 1.05099389e-05, 8.48261971e-06,
          -1.49245147e-06, 7.15233637e-06, 4.32307343e-06,
          -1.18241815e-06, 1.61465789e-06, -6.66731296e-07,
          -3.05181538e-06, -8.69987275e-07, -2.55388568e-06,
          9.00629402e-08, 1.18068579e-06, -3.59814152e-07,
          2.42429155e-06, 3.87016053e-06, 2.29482430e-06, 4.90224011e-06,
          4.32173783e-06, 9.11823406e-07, 4.65775656e-06, 4.20960714e-06,
          6.68233270e-07, 4.08034703e-06, 3.88304852e-06, 7.90242396e-08,
          3.57655313e-06, 3.36340418e-06, -3.33935503e-07,
          3.09789812e-06, 2.15267278e-06, -6.00144176e-07,
          2.48148376e-06, 1.58115847e-06, -1.06955838e-06,
          5.51959738e-06, 2.66023790e-06, 9.93183767e-06, 6.56521206e-06,
          3.36703124e-06, 1.10629526e-05, 7.77109835e-06, 4.68526287e-06,
          1.27428621e-05, 7.92848186e-06, 5.05209118e-06, 1.28140719e-05,
          8.68626830e-06, 5.79466223e-06, 1.27182511e-05, 7.89912156e-06,
          4.98703548e-06, 1.19223459e-05, 6.15997760e-06, 5.32765307e-06,
          1.23089094e-05, 9.15704277e-06, 8.41814108e-06, 1.52522680e-05,
          7.22291952e-06, 1.28128722e-05, 1.66995396e-05, 6.89616400e-06,
          1.35356404e-05, 1.66945574e-05, 5.69475162e-07, 9.38703852e-06,
          1.18919315e-05, -6.08607206e-06, 2.17386059e-06,
          4.91404990e-06, -1.76459998e-05, -1.28983656e-05,
          -1.21928733e-05, -9.59436693e-06, -6.19904176e-06,
          -3.71780561e-06, 5.78113213e-06, 8.37971129e-06,
          1.01397900e-05, 6.42786154e-06, 9.60818306e-06, 1.07921524e-05,
          1.01318335e-06, -1.13610884e-06, 6.97688847e-06,
          -4.12829377e-06, -5.58088550e-06, 2.08285201e-06,
          -2.78985067e-06, -8.68746156e-06, 4.66553229e-06,
          -1.90598155e-06, -8.14860778e-06, 5.44584145e-06,
          -3.32303921e-06, -7.64145170e-06, 4.32872184e-06,
          2.23869321e-07, -5.52210622e-06, 7.59882096e-06,
          2.75623211e-06, 2.80670974e-06, 1.39430704e-05, 3.11618624e-06,
          4.11297469e-06, 1.47180863e-05, -1.38654514e-06,
          6.65757443e-06, 1.23182654e-05, -7.17537262e-07,
          8.09786798e-06, 1.27087224e-05, -1.10524134e-05,
          -3.07374428e-08, 3.26319014e-06, -1.94187978e-05,
          -1.11509598e-05, -7.64574997e-06, -1.52710763e-05,
          -5.68385485e-06, -6.34791786e-06, -6.07987022e-06,
          5.11279268e-06, 4.02374781e-06, -4.15398716e-07,
          9.67643791e-06, 6.71595217e-06, -3.32360082e-06,
          5.13265877e-06, 3.44113164e-06, -9.82730739e-07,
          8.81532230e-07, 1.13439819e-06, -2.42511055e-06,
          -1.34098900e-06, -3.25447360e-07, 9.48052104e-07,
          1.42905560e-06, 1.50275753e-06, 3.47282526e-06, 4.46537297e-06,
          4.51431379e-06, 4.27909072e-06, 3.37392862e-06, 1.57744034e-06,
          4.35678157e-06, 3.65012602e-06, 1.71451438e-06, 3.34418951e-06,
          3.36169569e-06, 1.00501495e-06, 2.93671133e-06, 2.91678884e-06,
          7.85992029e-07, 2.49460481e-06, 2.08571896e-06, 3.35728885e-07,
          1.86972227e-06, 1.52910809e-06, -2.44339446e-07,
          1.27305225e-06, -1.71229988e-06, 5.46942329e-06,
          2.75094408e-06, -5.62723358e-07, 7.01622594e-06,
          4.61184663e-06, 1.49416837e-06, 9.57568591e-06, 5.87922159e-06,
          2.96836083e-06, 1.08242275e-05, 9.99193617e-06, 7.02680427e-06,
          1.41163746e-05, 1.02050963e-05, 7.32297849e-06, 1.44667974e-05,
          8.28235443e-06, 7.49146966e-06, 1.54745849e-05, 8.75971637e-06,
          8.07726883e-06, 1.49168145e-05, 4.62343905e-06, 1.00635116e-05,
          1.39959402e-05, 2.81445955e-06, 8.45219984e-06, 1.30973549e-05,
          -4.95514359e-06, 3.92973288e-06, 6.99407383e-06,
          -1.21309795e-05, -5.14533713e-06, -1.94273002e-06,
          -2.01949551e-05, -1.41560522e-05, -1.27327830e-05,
          -6.63837272e-06, -1.81997871e-06, -6.83252722e-07,
          6.95998506e-06, 1.14973327e-05, 1.14704762e-05, 3.30505736e-06,
          5.24901134e-06, 7.37266737e-06, -1.29108810e-06,
          -4.93030768e-07, 4.17638921e-06, -4.32830075e-06,
          -5.10416885e-06, 9.95790629e-07, -2.44206649e-06,
          -8.53114034e-06, 5.48742810e-06, -2.09058484e-07,
          -6.10760026e-06, 7.35632602e-06, -1.67778978e-06,
          -5.22659366e-06, 5.87627255e-06, 1.78258210e-06,
          -3.64386597e-06, 8.89236981e-06, 5.28981082e-06,
          5.03321507e-06, 1.57262566e-05, 4.65002995e-06, 4.53368648e-06,
          1.62753295e-05, -4.22177351e-07, 6.80701032e-06,
          1.30136459e-05, 2.67151017e-06, 1.15921375e-05, 1.57358591e-05,
          -3.91627191e-06, 6.17125716e-06, 9.62742251e-06,
          -1.69059185e-05, -6.79206778e-06, -2.24678661e-06,
          -1.86334291e-05, -9.28083136e-06, -1.02282465e-05,
          -1.12206699e-05, 2.12938232e-07, -1.28080626e-06,
          -2.06938580e-06, 6.71614498e-06, 5.10845803e-06,
          -3.80061647e-06, 4.27143414e-06, 2.67518317e-06,
          -2.74239892e-06, -9.36830247e-07, -6.25269934e-07,
          -2.30838032e-06, -9.61669571e-07, -7.76668116e-07,
          9.40777852e-07, 1.55080647e-06, 1.64080359e-06, 3.46259776e-06,
          4.18461559e-06, 4.14065426e-06, 4.30666842e-06, 3.39958569e-06,
          1.63711672e-06, 4.07682865e-06, 3.45510057e-06, 1.44065496e-06,
          3.72680142e-06, 3.75377613e-06, 1.38762687e-06, 3.40073802e-06,
          3.36716198e-06, 1.23471773e-06, 3.14464842e-06, 2.76459946e-06,
          8.67123219e-07, 2.39446308e-06, 2.03178070e-06, 3.40777859e-07,
          -1.30925116e-06, -4.91893479e-06, 1.15951411e-06,
          -1.30094907e-06, -4.82585801e-06, 1.55257237e-06,
          -4.61907547e-07, -3.38300606e-06, 1.90985224e-06,
          1.27359590e-06, -1.95632651e-06, 3.59356159e-06,
          4.36971686e-06, 1.73671617e-06, 6.92339154e-06, 7.11262692e-06,
          4.54121118e-06, 9.72642920e-06, 8.61016088e-06, 7.83531505e-06,
          1.29097125e-05, 9.55316136e-06, 8.64458161e-06, 1.40758311e-05,
          9.44731710e-06, 8.70303302e-06, 1.20433451e-05, 3.19449350e-06,
          3.37975757e-06, 5.40482461e-06, -1.16406145e-05,
          -1.02396452e-05, -1.05860481e-05, -1.96659948e-05,
          -1.61630978e-05, -1.97022000e-05, -4.96102848e-06,
          -2.09033669e-06, -1.20724496e-06, 7.77145033e-06,
          8.01287206e-06, 1.23794853e-05, 1.19672268e-05, 9.18847491e-06,
          2.02574829e-05, 7.87415411e-06, 6.23459073e-06, 1.60936561e-05,
          -1.01147101e-07, -6.19822117e-07, 1.28338279e-05,
          -1.73457079e-06, -2.10484404e-06, 1.20964669e-05,
          -2.10864869e-06, -1.19990727e-06, 1.34874299e-05,
          -8.77964453e-07, 2.00757569e-07, 1.32993564e-05,
          2.45548313e-06, 9.83070663e-07, 1.54393983e-05, 6.48539708e-06,
          4.91779520e-06, 1.97049812e-05, 5.22483106e-06, 5.51093217e-06,
          1.81886790e-05, 5.22133587e-06, 6.94362006e-06, 1.81056384e-05,
          6.49034610e-06, 9.98527958e-06, 1.62704473e-05, 6.74446528e-06,
          1.01028327e-05, 1.75347504e-05, 2.14749980e-06, 8.49995558e-06,
          1.22713118e-05, -4.63594006e-06, 1.76308060e-06,
          5.62668311e-06, -2.59441167e-05, -2.49035511e-05,
          -2.44794246e-05, -2.47341650e-05, -2.37123459e-05,
          -2.29092911e-05, -6.16999978e-06, -6.52066092e-06,
          -4.01439684e-06, 3.78351569e-06, 3.31335673e-06,
          5.80246751e-06, -7.29223302e-07, -1.20655022e-06,
          -5.85818384e-07, -2.19814297e-06, -2.41853240e-06,
          -2.15100931e-06, 2.41862472e-06, 1.37165273e-06,
          1.29036653e-06, 3.08540211e-06, 2.40129089e-06, 2.06551636e-06,
          5.50591585e-06, 5.57314343e-06, 2.05050333e-06, 2.02258548e-06,
          2.34726485e-06, -1.07958454e-06, 2.39869269e-06,
          1.99299529e-06, 7.95967807e-08, 3.15430975e-06, 2.69882821e-06,
          6.95739686e-07, 2.50806170e-06, 1.44858643e-06, 1.76260744e-06,
          1.85969054e-06, 8.34802279e-07, 1.32318121e-06,
          -3.06023003e-06, -6.08623623e-06, -4.19714354e-07,
          -2.47292542e-06, -5.71275859e-06, 2.74256536e-07,
          -7.29404348e-07, -3.15896318e-06, 1.59997205e-06,
          1.04871458e-06, -1.57190823e-06, 3.55245857e-06,
          1.63166271e-06, -1.02578588e-06, 4.22305538e-06,
          3.27915382e-06, 3.94331124e-07, 5.90184982e-06, 3.29918339e-06,
          2.04540402e-06, 7.32605986e-06, 5.82188704e-06, 4.38285178e-06,
          9.84876351e-06, 4.26702036e-06, 4.15633758e-06, 7.94113294e-06,
          -5.02400508e-06, -5.95653228e-06, -3.47439027e-06,
          -1.61910175e-05, -1.78380360e-05, -1.59359861e-05,
          -1.89263064e-05, -1.62369688e-05, -1.44213009e-05,
          -1.06764514e-06, 1.57064380e-06, 2.97949487e-06,
          7.68015980e-06, 9.27398651e-06, 1.01905598e-05, 9.88062038e-06,
          9.04783337e-06, 1.46530574e-05, 6.33502077e-06, 5.93385266e-06,
          1.21013236e-05, 3.49337438e-06, 3.72025397e-06, 1.41233013e-05,
          1.35031030e-06, 2.58213799e-06, 1.28676174e-05, 1.17991794e-06,
          3.32761147e-06, 1.41201126e-05, 2.99087105e-06, 5.77421133e-06,
          1.52605498e-05, 2.81365874e-06, 1.74380853e-06, 1.58552666e-05,
          4.34457161e-06, 4.68617782e-06, 1.66473928e-05, 3.88077933e-06,
          5.49367542e-06, 1.55239923e-05, 4.70989971e-06, 6.55451140e-06,
          1.60061863e-05, 1.87938599e-06, 5.30337638e-06, 1.19581855e-05,
          1.21793073e-06, 4.22380936e-06, 1.18777443e-05,
          -1.25431700e-06, 4.10793200e-06, 8.07323249e-06,
          -4.98281224e-06, 2.98737007e-07, 3.31929596e-06,
          -2.24304458e-05, -2.09708887e-05, -2.08137026e-05,
          -3.22863889e-05, -2.89257932e-05, -2.81704797e-05,
          -1.84360997e-05, -1.80543848e-05, -1.56824790e-05,
          -2.39697988e-06, -2.09877703e-06, 2.50739802e-08,
          -9.44697490e-07, -1.21803396e-07, -9.52135579e-08,
          -1.97921031e-06, -1.81364646e-06, -1.40596251e-06,
          1.41212433e-06, 3.52974808e-07, 2.58121986e-07, 3.35090022e-06,
          2.29826946e-06, 2.16401486e-06, 6.82418613e-06, 6.95810877e-06,
          3.47524383e-06, 2.91434503e-06, 3.19031528e-06,
          -1.76762896e-07, 2.70900841e-06, 2.32050434e-06,
          3.34244021e-07, 3.63134222e-06, 3.19322680e-06, 1.19457627e-06,
          2.85252690e-06, 1.82593601e-06, 2.10644498e-06, 2.42060605e-06,
          1.33880235e-06, 1.82950396e-06, -1.70177441e-06,
          -5.94665426e-06, -6.54664021e-08, -1.77734478e-06,
          -5.93052573e-06, -1.49189091e-07, 1.87107688e-07,
          -2.66705501e-06, 9.44462329e-07, 4.15767772e-06,
          9.38794471e-07, 4.87437273e-06, 3.10463406e-06, 2.10301573e-06,
          5.14756539e-06, 3.89713796e-06, 2.70589612e-06, 6.10548341e-06,
          2.68896656e-06, 1.87832666e-06, 4.39556607e-06, 2.17621530e-08,
          -1.13042245e-06, 1.75204366e-06, -5.41046029e-06,
          -7.82244570e-06, -5.47630816e-06, -1.29954524e-05,
          -1.87409296e-05, -1.32290916e-05, -9.60227953e-06,
          -1.64767116e-05, -1.35350474e-05, -2.67021460e-06,
          -6.29217357e-06, -3.30116404e-06, 5.89035562e-06,
          1.60004629e-06, 6.68588746e-06, 6.35651259e-06, 7.98873884e-07,
          6.43208250e-06, 4.16667308e-06, -1.64237258e-06,
          6.86753447e-06, 3.46534898e-06, -1.29853561e-06,
          7.10467066e-06, 2.35191828e-06, -3.01124805e-06,
          9.64212177e-06, 1.21510232e-06, -3.93318760e-06,
          8.11851442e-06, 6.07199581e-07, -5.81064342e-06,
          7.80487699e-06, 2.49530581e-06, -3.96217411e-06,
          9.67663254e-06, 2.44473176e-06, -5.61436491e-06,
          9.35270782e-06, 2.89995705e-06, -3.26624536e-06,
          9.39789516e-06, 3.59382398e-06, -2.71107297e-06,
          9.40871632e-06, 4.30055297e-06, -3.28387819e-06,
          1.01756359e-05, 4.51218466e-06, -3.08843642e-06,
          7.14904081e-06, 2.02547267e-06, -4.83605754e-06,
          5.33546790e-06, 3.90054811e-06, -2.37448762e-06,
          6.09608696e-06, 3.60316108e-06, -2.42796000e-06,
          4.18448099e-06, -5.24199459e-06, -5.53474865e-06,
          -4.00641011e-06, -2.68994499e-05, -2.57827578e-05,
          -2.69605771e-05, -2.86102277e-05, -2.59031331e-05,
          -2.73651967e-05, -1.35055016e-05, -1.39436324e-05,
          -1.33505673e-05, -3.71044302e-06, -3.77855258e-06,
          -5.02158309e-06, 9.74289151e-07, 4.92570962e-07,
          -8.65355787e-07, 3.61159414e-06, 3.06953734e-06,
          3.81401406e-07, 6.94086839e-06, 6.14132750e-06, 3.78778691e-06,
          7.10028553e-06, 6.62564025e-06, 3.72387376e-06, 3.44765999e-06,
          3.22558071e-06, 6.79681932e-07, 2.55207806e-06, 2.39306223e-06,
          8.37226480e-07, 2.91074980e-06, 2.71839917e-06, 1.22657036e-06,
          2.67716632e-06, 1.38412906e-06, 2.07474818e-06, 2.87526677e-06,
          1.52696794e-06, 2.31854733e-06, -4.33618823e-07,
          -5.72106001e-06, 1.15216892e-06, -4.97128781e-07,
          -4.85119381e-06, 1.09696509e-06, 1.07440542e-06,
          -2.10507051e-06, 1.75020307e-06, 5.06803644e-06,
          2.09714221e-06, 5.81158474e-06, 4.31066974e-06, 3.36018593e-06,
          6.57012879e-06, 5.18612751e-06, 5.03234287e-06, 7.93915115e-06,
          1.49583821e-06, 1.60931677e-06, 3.45845069e-06,
          -8.97886184e-06, -8.99203951e-06, -6.75161482e-06,
          -1.68296428e-05, -1.81338291e-05, -1.65770107e-05,
          -1.87681107e-05, -2.31613958e-05, -1.90396313e-05,
          -9.68332279e-06, -1.38173382e-05, -1.02135391e-05,
          3.00030160e-06, -9.01474323e-07, 1.95377720e-06,
          7.66462563e-06, 4.27380201e-06, 1.00274056e-05, 2.89231889e-06,
          -2.43568320e-06, 4.55592772e-06, -2.55154578e-06,
          -6.98442136e-06, 2.51890560e-06, -8.96552478e-07,
          -6.35385823e-06, 3.50425626e-06, -2.32178172e-06,
          -8.39872337e-06, 5.82727171e-06, -2.22606627e-06,
          -8.30717363e-06, 5.32126796e-06, -2.47188837e-06,
          -7.98173551e-06, 5.28048622e-06, 4.16790527e-07,
          -4.10666189e-06, 7.54100574e-06, -1.07160008e-06,
          -6.38087931e-06, 6.68344001e-06, -4.23579195e-07,
          -6.58221961e-06, 6.69087649e-06, 2.65381800e-07,
          -6.08092068e-06, 6.03231138e-06, 1.27701878e-06,
          -5.30476200e-06, 6.50234460e-06, 1.90849210e-06,
          -5.21430593e-06, 3.50753544e-06, 2.09982982e-08,
          -6.18220156e-06, 1.88721549e-06, 8.06841797e-07,
          -5.37439610e-06, 2.67543305e-06, 2.74091576e-06,
          -2.76583751e-06, 4.91374112e-06, 6.65204470e-06,
          6.36790674e-06, 8.34335515e-06, -1.56572496e-05,
          -1.59083684e-05, -1.36061035e-05, -3.01121145e-05,
          -2.93882185e-05, -2.87215844e-05, -2.34465679e-05,
          -2.51219608e-05, -2.31378472e-05, -9.60932630e-06,
          -9.50971298e-06, -1.04707660e-05, 3.51462859e-06,
          3.19134506e-06, 1.82385884e-06, 8.49520711e-06, 7.95377582e-06,
          5.20416279e-06, 9.65756044e-06, 8.67447125e-06, 6.38883739e-06,
          7.87361023e-06, 7.32992521e-06, 4.54698784e-06, 4.30458158e-06,
          4.05316587e-06, 1.57148531e-06, 3.23809218e-06, 3.12486941e-06,
          1.55392786e-06, 2.60724960e-06, 2.46484706e-06, 1.01315618e-06,
          2.16746912e-06, 8.95154869e-07, 1.57907493e-06, 2.82371434e-06,
          1.48577703e-06, 2.25439999e-06, 1.31345098e-06,
          -3.65140386e-06, 2.96274652e-06, 1.66120481e-06,
          -3.30669650e-06, 3.33476078e-06, 4.00372573e-06,
          -6.59862792e-07, 3.07175674e-06, 7.58756232e-06,
          2.64325104e-06, 6.70033342e-06, 4.64367349e-06, 4.11899327e-06,
          1.96453448e-06, 6.50359061e-06, 7.07066056e-06, 4.51290407e-06,
          1.97744725e-06, 2.20220682e-06, -1.23002792e-06,
          -1.23638065e-05, -1.21314260e-05, -1.55923863e-05,
          -1.83083393e-05, -2.16527806e-05, -2.37277491e-05,
          -1.42339140e-05, -1.90057981e-05, -1.88289778e-05,
          -5.83526742e-07, -3.21379639e-06, -5.01032400e-06,
          7.18959382e-06, 3.74216074e-06, 2.30936735e-06, 9.73477017e-06,
          -4.51772848e-07, 2.74727518e-06, 4.45504384e-06,
          -5.33491948e-06, -2.64149844e-06, -9.02803549e-07,
          -9.65282470e-06, -2.46787522e-06, 2.03493960e-06,
          -8.15697422e-06, 6.27678389e-07, 6.37977166e-07,
          -6.83546341e-06, 2.89837863e-06, 1.35333732e-06,
          -6.70396230e-06, 3.00837382e-06, 4.89045874e-07,
          -7.41673193e-06, 2.18063610e-06, 3.26530835e-06,
          -3.48090452e-06, 4.97624160e-06, -5.47127854e-07,
          -4.27009581e-06, 5.80975529e-06, -7.08619012e-08,
          -5.76098319e-06, 4.78902439e-06, -2.20678612e-06,
          -7.52379265e-06, 3.18871844e-06, -2.01416682e-07,
          -4.91255560e-06, 3.88798435e-06, 1.62329025e-06,
          -6.12480744e-06, 2.39790302e-06, -2.25474651e-06,
          -8.09329322e-06, 5.07252253e-07, -3.73271291e-06,
          -8.61737681e-06, 1.69018153e-06, -2.31030663e-06,
          -6.69579140e-06, 2.99386306e-06, 4.98303098e-06,
          6.28251837e-06, 9.08712263e-06, -4.08687356e-06,
          -2.73022215e-06, 1.32526736e-06, -2.20356833e-05,
          -2.20480779e-05, -1.98942471e-05, -2.88276387e-05,
          -2.67257728e-05, -2.84506914e-05, -1.34021930e-05,
          -1.24020180e-05, -1.54104491e-05, 6.08500341e-06,
          6.81412439e-06, 3.70235580e-06, 1.29097934e-05, 1.47932597e-05,
          9.35320531e-06, 1.23357067e-05, 1.41858009e-05, 8.54788050e-06,
          9.33032516e-06, 9.81089852e-06, 6.67882978e-06, 5.71737519e-06,
          6.40250619e-06, 3.78728237e-06, 4.01860416e-06, 5.19766218e-06,
          3.55391421e-06, 2.10407734e-06, 3.23782933e-06, 1.64573828e-06,
          8.28615669e-07, 7.78574417e-07, 7.81235372e-07, 1.42565750e-06,
          1.38508085e-06, 1.46924197e-06, 2.70275450e-06,
          -2.41228781e-06, 4.18138234e-06, 2.12907003e-06,
          -2.86625027e-06, 3.75777336e-06, 3.36817743e-06,
          -1.17543118e-06, 2.44626904e-06, 6.10952793e-06,
          1.56896590e-06, 5.19444620e-06, 2.06308391e-06, 1.09054167e-06,
          -8.17020577e-07, 3.43974193e-06, 2.90880735e-06,
          6.99162456e-07, -3.98203019e-06, -3.79093012e-06,
          -6.66117558e-06, -1.67871858e-05, -1.68523402e-05,
          -1.93892483e-05, -1.64152298e-05, -2.09768805e-05,
          -2.12602881e-05, -7.20919979e-06, -8.39696622e-06,
          -1.12838561e-05, 4.14683973e-06, 1.83962356e-06,
          -1.07680535e-06, 3.31342926e-06, 8.71789950e-07,
          -8.02273689e-07, 6.59045418e-06, -4.33310061e-06,
          -1.58960609e-06, 9.87374733e-07, -6.85443138e-06,
          -5.57093335e-06, -5.87413240e-07, -9.57220800e-06,
          -2.62715071e-06, 2.90504386e-06, -5.74118894e-06,
          1.11395730e-06, 3.48147502e-08, -7.37498476e-06,
          1.40228917e-06, 1.02127638e-06, -6.41058841e-06,
          3.34993706e-06, 9.17790544e-07, -6.10160350e-06,
          2.36275355e-06, 1.64318999e-06, -5.06686729e-06,
          3.12627117e-06, -2.81138568e-07, -4.07791231e-06,
          5.81232280e-06, -6.48970968e-07, -5.95872871e-06,
          4.50284051e-06, -2.79738219e-06, -7.83844098e-06,
          2.59560034e-06, -5.41824420e-07, -5.18565184e-06,
          4.29143938e-06, 1.59353431e-06, -4.65772609e-06,
          3.94386325e-06, -1.25607687e-06, -6.30446220e-06,
          2.47671551e-06, -3.34645733e-06, -8.58200201e-06,
          1.81457892e-06, -3.18781372e-06, -7.38904100e-06,
          2.81555776e-06, 6.96195457e-07, 1.68817780e-06, 6.04157640e-06,
          6.54210589e-06, 8.34588263e-06, 1.10199289e-05,
          -7.33266552e-06, -7.33510342e-06, -5.76938055e-06,
          -2.33988303e-05, -2.23005991e-05, -2.46234904e-05,
          -1.89336643e-05, -1.91312520e-05, -1.99515962e-05,
          8.82845711e-07, 1.64240100e-06, -1.26319446e-06,
          1.42037788e-05, 1.59556967e-05, 1.04373403e-05, 1.67486833e-05,
          1.89156799e-05, 1.33482208e-05, 1.38621426e-05, 1.44562209e-05,
          1.13263850e-05, 9.97893494e-06, 1.06281050e-05, 8.13657607e-06,
          6.94710161e-06, 8.12705184e-06, 6.48936793e-06, 3.98716793e-06,
          5.22150094e-06, 3.53567611e-06, 1.14919715e-06, 1.19009917e-06,
          1.17761579e-06, 1.87240994e-06, 1.83993507e-06, 1.91946310e-06,
          3.35021650e-06, -2.11282031e-06, 4.23208303e-06,
          3.19373930e-06, -2.28453018e-06, 4.06059644e-06,
          5.07294135e-06, -3.93712043e-07, 2.98685495e-06,
          7.46333217e-06, 1.99667852e-06, 5.39724624e-06,
          -1.50833124e-08, -1.58975570e-06, -3.88066428e-06,
          -6.00071326e-06, -7.00350984e-06, -9.75306739e-06,
          -1.61090211e-05, -1.60302188e-05, -2.07185876e-05,
          -2.14840111e-05, -2.29599082e-05, -2.60164925e-05,
          -1.12795115e-05, -1.14847790e-05, -1.60030140e-05,
          3.60783633e-06, 2.11214638e-06, -1.57340901e-06,
          8.55088001e-06, 8.30439330e-06, 1.94968220e-06,
          -3.17121078e-07, -2.11708107e-06, -5.86058104e-06,
          6.95878725e-07, -6.49051799e-06, -5.34154788e-06,
          1.78534287e-06, -7.05217781e-06, -5.11793314e-06,
          1.43782358e-06, -5.28997225e-06, -7.69857479e-07,
          4.03622789e-06, -2.70561668e-06, 1.78599782e-06,
          7.22785558e-07, -5.30675834e-06, 7.39104962e-07,
          2.69793713e-06, -3.04560353e-06, 3.69968575e-06,
          2.80181052e-06, -2.41665703e-06, 2.58622094e-06,
          1.91242657e-06, -3.36242442e-06, 2.46459626e-06,
          3.36789913e-06, -6.10089160e-07, 5.12075712e-06,
          3.86001648e-06, -1.58808825e-06, 4.92701747e-06,
          3.55289831e-06, -2.22819108e-06, 5.38923950e-06,
          4.62731714e-06, -3.69735204e-07, 6.23062533e-06,
          6.04126262e-06, 6.02092825e-07, 7.61963111e-06, 4.93944844e-06,
          -9.63913976e-07, 6.84591942e-06, 2.15123828e-06,
          -2.29726425e-06, 4.81635607e-06, 6.10530151e-07,
          -2.68002850e-06, 3.98101020e-06, -1.54444456e-06,
          -1.97340341e-06, 5.33072171e-06, 1.20791583e-05,
          1.11461468e-05, 1.67521430e-05, 8.36020445e-06, 8.48094805e-06,
          9.23461448e-06, -1.34358297e-05, -1.44250471e-05,
          -1.15120483e-05, -2.21059745e-05, -2.15857708e-05,
          -2.56780258e-05, -1.31505649e-05, -1.19411507e-05,
          -1.37930047e-05, 1.86811974e-06, 3.33594198e-06,
          -2.22923927e-06, 9.73913211e-06, 1.14781315e-05,
          5.73919442e-06, 1.78534865e-05, 1.94047407e-05, 1.73428998e-05,
          1.27506682e-05, 1.41073560e-05, 1.20191198e-05, 8.54277005e-06,
          1.06693551e-05, 9.97382085e-06, 3.93232813e-06, 6.10860616e-06,
          5.41520012e-06, 8.05577827e-07, 1.05143852e-06, 2.17117849e-06,
          1.52992709e-06, 1.69356531e-06, 2.88905267e-06, 3.82730786e-06,
          -1.63572861e-06, 4.59048806e-06, 3.62805395e-06,
          -1.83802933e-06, 4.37716653e-06, 4.12924101e-06,
          -1.20278833e-06, 2.21147684e-06, 5.72859653e-06,
          1.44146910e-07, 3.50837831e-06, -3.75514128e-06,
          -3.63786694e-06, -8.23767186e-06, -1.50867199e-05,
          -1.59615192e-05, -1.92660300e-05, -2.34998060e-05,
          -2.48047654e-05, -2.84208763e-05, -2.27786149e-05,
          -2.48820579e-05, -2.67751766e-05, -4.47889261e-06,
          -6.73882141e-06, -1.03314469e-05, 1.04136334e-05,
          8.69002906e-06, 4.57595479e-06, 1.03565408e-05, 7.07187201e-06,
          3.90530067e-06, 9.93650133e-07, -3.42435010e-06,
          -6.40641019e-06, -2.21073560e-06, -9.40967675e-06,
          -7.89268779e-06, 7.27746396e-07, -8.66956179e-06,
          -5.40369001e-06, 2.15320779e-06, -4.16685907e-06,
          3.33945636e-08, 4.22804669e-06, -2.39768451e-06,
          1.95767234e-06, 3.36772791e-06, -2.14523743e-06,
          3.50528080e-06, 5.34343872e-06, -1.01164652e-07,
          6.48095875e-06, 5.19213199e-06, 5.61115989e-08, 4.83862323e-06,
          2.14420038e-06, -1.49430741e-06, 2.06108598e-06,
          7.99437112e-06, 3.96108589e-06, 1.04087185e-05, 8.25173720e-06,
          2.96692178e-06, 1.01150217e-05, 6.89043145e-06, 9.27558801e-07,
          9.10522522e-06, 7.75670014e-06, 2.14899569e-06, 9.56693930e-06,
          8.12928465e-06, 3.27556336e-06, 1.03387538e-05, 7.33138177e-06,
          1.18454386e-06, 9.21323408e-06, 5.39071880e-06, 3.79883431e-07,
          7.68856353e-06, 4.02468368e-06, -8.97726181e-07,
          6.60664273e-06, 4.08756904e-07, 4.69765723e-07, 6.18968852e-06,
          1.06213429e-05, 1.01426367e-05, 1.55174948e-05, 1.61462322e-05,
          1.55247599e-05, 1.79343715e-05, -3.46528714e-06,
          -4.40297208e-06, -6.82612495e-07, -2.16102653e-05,
          -2.10040253e-05, -2.37702498e-05, -2.79375381e-05,
          -2.32362927e-05, -2.92334043e-05, -1.57317427e-05,
          -1.42518211e-05, -1.91135350e-05, -1.95520329e-06,
          -1.52105315e-07, -5.96296695e-06, 1.87650694e-05,
          2.07299781e-05, 1.80523530e-05, 1.22348110e-05, 1.35529044e-05,
          1.19510769e-05, 7.65221284e-06, 9.76843512e-06, 9.12730411e-06,
          3.36359290e-06, 5.54054031e-06, 4.82746646e-06, 1.21409846e-06,
          1.43763748e-06, 2.56747353e-06, 1.72457567e-06, 1.88453680e-06,
          3.10842961e-06, 5.30277021e-06, 2.48004790e-06, 3.92959646e-06,
          3.17267904e-06, 1.22778417e-07, 1.56406122e-06,
          -3.55754673e-06, -9.02432930e-06, -8.19010438e-06,
          -1.54380996e-05, -2.09048831e-05, -2.00706563e-05,
          -2.76510800e-05, -2.76822793e-05, -3.01589935e-05,
          -2.65112503e-05, -2.57115807e-05, -2.86289323e-05,
          -2.08356523e-05, -2.12040959e-05, -2.58147211e-05,
          -1.58410621e-05, -1.60693962e-05, -2.10869657e-05,
          -4.01822064e-07, -4.01795342e-06, -8.64445519e-06,
          1.05866893e-05, 8.94779259e-06, 2.14161992e-06, 8.96065285e-06,
          7.05612047e-06, 5.57297653e-07, 4.19127809e-06, 2.03456557e-06,
          -4.29276224e-06, 1.07102164e-06, 2.04789586e-07,
          -5.64304491e-06, 3.76270668e-06, 2.30115916e-06,
          -3.39264034e-06, 3.49723086e-06, 3.44997920e-06,
          -3.00089937e-06, 3.40593465e-06, 3.28185979e-06,
          -3.24486814e-06, 4.90382308e-06, 4.36854225e-06,
          2.92496338e-07, 4.01139687e-06, 3.57965996e-06,
          -4.51890401e-07, 4.24201471e-06, 4.26122142e-06,
          1.66197151e-06, 3.46040224e-06, 3.52370012e-06, 9.49443063e-07,
          8.72570581e-06, 8.50225388e-06, 4.89981812e-06, 8.31281523e-06,
          8.29924647e-06, 4.70420491e-06, 6.87126067e-06, 9.14783232e-06,
          7.19404170e-06, 9.36605102e-06, 1.18896014e-05, 8.79569143e-06,
          7.17319881e-06, 8.74795569e-06, 9.46966611e-06, 4.41720749e-06,
          6.01671445e-06, 6.87369356e-06, 6.53765255e-06, 7.44501267e-06,
          8.15746716e-06, 5.46799447e-06, 6.12690565e-06, 7.99202553e-06,
          1.09381026e-05, 6.70771806e-06, 1.21592757e-05, 1.05649460e-05,
          8.07369815e-06, 1.30008802e-05, 1.15127650e-05, 1.23522150e-05,
          1.31346651e-05, 5.29027193e-06, 6.08308301e-06, 8.18214903e-06,
          -2.00295053e-05, -1.53697692e-05, -1.72682012e-05,
          -2.16961344e-05, -1.98607158e-05, -2.35210227e-05,
          -2.29323250e-05, -1.88517442e-05, -2.51386718e-05,
          -2.32220063e-05, -1.89450875e-05, -2.52065838e-05,
          -2.17081251e-05, -1.74671459e-05, -1.54556365e-05,
          -1.06129401e-05, -7.76959860e-06, -6.71343423e-06,
          1.11228496e-06, 3.50287246e-06, 6.27699501e-06, 5.53569726e-06,
          7.53351651e-06, 1.00819516e-05, 4.74745957e-06, 3.89659090e-06,
          7.66944595e-06, 2.62718504e-06, 1.59133367e-06, 5.50322193e-06,
          2.41211001e-06, -6.59116267e-07, 7.87968418e-07,
          -4.15947306e-06, -7.27630868e-06, -5.78906520e-06,
          -1.35758282e-05, -1.91097770e-05, -1.82666918e-05,
          -2.40054815e-05, -2.91412998e-05, -2.82044384e-05,
          -2.47079552e-05, -2.50871908e-05, -2.76146293e-05,
          -1.99693204e-05, -2.02423107e-05, -2.17819415e-05,
          -1.51013910e-05, -1.61749194e-05, -2.20481652e-05,
          -1.50475262e-05, -1.53492692e-05, -2.21986738e-05,
          -5.00948545e-06, -6.87133024e-06, -1.29007922e-05,
          6.03380613e-06, 3.78304298e-06, -2.06856771e-06,
          6.28677753e-06, 3.04931746e-06, -2.58090745e-06,
          3.01040632e-06, -9.36566607e-07, -5.67827374e-06,
          4.54784583e-07, -6.81843744e-07, -6.02860473e-06,
          2.48923925e-06, 1.44034914e-06, -4.38942197e-06,
          3.65485221e-06, 3.82388498e-06, -2.09891664e-06,
          4.19688058e-06, 4.35996890e-06, -1.26779003e-06,
          2.27374153e-06, 1.83617135e-06, -1.79320455e-06,
          1.37827897e-06, 8.33601121e-07, -2.89083937e-06,
          2.14438156e-09, -1.96240251e-07, -3.06431662e-06,
          7.26599358e-09, 2.07217241e-07, -3.21915786e-06,
          4.22398853e-06, 5.52542315e-06, 8.68503889e-07, 6.16216039e-06,
          7.41047234e-06, 2.81164148e-06, 8.62108845e-06, 1.10941892e-05,
          8.49324442e-06, 1.28599941e-05, 1.57063696e-05, 1.07107235e-05,
          1.16487145e-05, 1.57105205e-05, 1.36701010e-05, 1.12739281e-05,
          1.43732668e-05, 1.27474686e-05, 1.12081443e-05, 1.27449603e-05,
          1.28335059e-05, 8.64263620e-06, 1.19845681e-05, 1.22398087e-05,
          1.19237084e-05, 8.32025853e-06, 1.27075409e-05, 8.52891480e-06,
          4.58103341e-06, 1.08273016e-05, 6.58359568e-06, 6.96945426e-06,
          9.46957061e-06, 1.78881339e-06, 2.37845302e-06, 5.05141816e-06,
          -1.59584069e-05, -1.30668996e-05, -1.51093809e-05,
          -2.21293667e-05, -1.99518945e-05, -2.10254639e-05,
          -1.90894662e-05, -1.69841933e-05, -2.48880133e-05,
          -2.25633103e-05, -1.86504822e-05, -2.56630519e-05,
          -3.04196619e-05, -2.89439449e-05, -2.86834056e-05,
          -2.76228348e-05, -2.26602642e-05, -2.12269133e-05,
          -1.30391154e-05, -1.07539026e-05, -8.02470731e-06,
          3.70172671e-07, 2.57891361e-06, 5.35949493e-06, 8.43117505e-06,
          8.01312490e-06, 1.12872640e-05, 6.25299572e-06, 5.30140233e-06,
          9.30744864e-06, -5.32904096e-06, -7.87528916e-06,
          -6.82118207e-06, -1.66237442e-05, -1.91733579e-05,
          -1.81081414e-05, -2.19794983e-05, -2.77751169e-05,
          -2.82022138e-05, -2.32145176e-05, -3.02520766e-05,
          -2.94310557e-05, -1.59610081e-05, -2.20144757e-05,
          -2.44177190e-05, -1.39841750e-05, -2.00652066e-05,
          -2.15866621e-05, -1.51629383e-05, -1.87306541e-05,
          -2.26155989e-05, -1.59344236e-05, -1.90904302e-05,
          -2.69684715e-05, -1.12525258e-05, -1.43951756e-05,
          -2.04936405e-05, -2.09070595e-06, -6.01134707e-06,
          -1.27394951e-05, -4.39893347e-06, -8.39358563e-06,
          -1.11426725e-05, -8.80594780e-06, -1.25117158e-05,
          -1.65576130e-05, -1.61202697e-05, -1.94915337e-05,
          -2.15958407e-05, -1.52078001e-05, -1.73817552e-05,
          -1.96599431e-05, -1.34475731e-05, -1.55328398e-05,
          -1.65956862e-05, -1.36210801e-05, -1.62782289e-05,
          -1.62340893e-05, -1.62326469e-05, -1.80475399e-05,
          -1.65682686e-05, -1.61741082e-05, -1.87767619e-05,
          -1.62234337e-05, -1.65206948e-05, -1.86901325e-05,
          -1.63718087e-05, -1.66221052e-05, -1.84472283e-05,
          -1.67524413e-05, -1.63254408e-05, -1.64865396e-05,
          -1.84080891e-05, -1.52416296e-05, -1.54744521e-05,
          -1.68183797e-05, -1.49423186e-05, -1.22650981e-05,
          -1.69805153e-05, -1.20538916e-05, -9.14713837e-06,
          -1.62031156e-05, -1.17451600e-05, -6.86206567e-06,
          -1.30114504e-05, -1.24134131e-05, -7.23441053e-06,
          -1.32550704e-05, -1.30534872e-05, -9.60895977e-06,
          -1.36972203e-05, -1.77215388e-05, -1.42175268e-05,
          -1.70820385e-05, -1.77731927e-05, -1.93280066e-05,
          -1.64798694e-05, -2.02396041e-05, -2.26906486e-05,
          -1.92290354e-05, -1.85134450e-05, -1.89789735e-05,
          -1.71606007e-05, -1.70547773e-05, -1.75082350e-05,
          -1.53201927e-05, -2.01157691e-05, -2.06953555e-05,
          -2.12186878e-05, -2.22427916e-05, -2.09047066e-05,
          -2.43042032e-05, -1.84844394e-05, -2.00021495e-05,
          -2.24139221e-05, -2.02136234e-05, -2.44482599e-05,
          -2.33021947e-05, -2.81998091e-05, -3.05768008e-05,
          -3.01896871e-05, -2.56554904e-05, -3.16947953e-05,
          -2.89278596e-05, -2.44201001e-05, -3.02423705e-05,
          -2.36143569e-05, -7.89837850e-06, -1.33491949e-05,
          -8.06623757e-06, 9.57660723e-06, 8.61006265e-06,
          1.34163120e-05, 1.07555234e-05, 9.97761163e-06, 1.43091274e-05,
          -8.48718901e-06, -1.09829534e-05, -9.70233759e-06,
          -2.00205541e-05, -2.30792302e-05, -2.17462857e-05,
          -2.05674405e-05, -2.69184929e-05, -2.60956822e-05,
          -1.87879778e-05, -2.36959022e-05, -2.61244877e-05,
          -1.52528373e-05, -1.99367751e-05, -2.57461325e-05,
          -1.58973726e-05, -2.01481344e-05, -2.58716373e-05,
          -1.53921937e-05, -1.87085407e-05, -2.66099632e-05,
          -1.45570066e-05, -1.75272453e-05, -2.60688776e-05,
          -8.21977210e-06, -1.20644763e-05, -1.71487063e-05,
          -1.53211909e-06, -6.65082007e-06, -1.16817173e-05,
          -3.14490171e-06, -8.07448941e-06, -1.12633397e-05,
          -4.41164548e-06, -9.17218222e-06, -1.19929873e-05,
          -9.95387745e-06, -1.49694033e-05, -1.68049701e-05,
          -8.33571448e-06, -1.12409780e-05, -1.44727401e-05,
          -9.71091777e-06, -1.12146618e-05, -1.30406543e-05,
          -9.88361444e-06, -1.17976615e-05, -1.27224339e-05,
          -1.07627611e-05, -1.35604769e-05, -1.20819104e-05,
          -1.16573246e-05, -1.38762416e-05, -1.23417522e-05,
          -1.25776596e-05, -1.47100636e-05, -1.36440458e-05,
          -1.24902872e-05, -1.49234102e-05, -1.36608287e-05,
          -1.17129857e-05, -1.26063696e-05, -1.57121813e-05,
          -1.12146372e-05, -1.22097890e-05, -1.67943290e-05,
          -1.19044225e-05, -8.69887026e-06, -1.58257644e-05,
          -1.07774131e-05, -6.85797841e-06, -1.44327960e-05,
          -1.17224727e-05, -6.82138307e-06, -1.31491952e-05,
          -1.17557875e-05, -6.02452292e-06, -1.25194319e-05,
          -1.13829174e-05, -7.25168184e-06, -1.23960926e-05,
          -1.47341689e-05, -1.05737054e-05, -1.59650444e-05,
          -2.03768050e-05, -1.89825550e-05, -1.80786719e-05,
          -1.99125770e-05, -2.05780161e-05, -2.06370878e-05,
          -1.68782444e-05, -1.50666137e-05, -1.41259070e-05,
          -1.62312535e-05, -1.40901648e-05, -1.33603189e-05,
          -1.94708755e-05, -1.90301726e-05, -2.16183416e-05,
          -2.29622910e-05, -2.15289365e-05, -2.43598261e-05,
          -2.25734366e-05, -2.37014501e-05, -2.60866145e-05,
          -2.43444647e-05, -2.87895200e-05, -2.77715117e-05,
          -2.60830020e-05, -3.17196027e-05, -2.94605834e-05,
          -2.32744605e-05, -2.97686965e-05, -2.51733509e-05,
          -3.11198892e-05, -3.63867184e-05, -3.10605974e-05,
          -1.76741123e-05, -2.28289246e-05, -1.79524068e-05,
          5.11797816e-06, 4.14461647e-06, 8.96007805e-06, 1.16688188e-05,
          1.09797384e-05, 1.51775939e-05, 2.78292850e-06,
          -8.40801113e-06, -5.50674395e-06, -5.65305754e-06,
          -1.70250987e-05, -1.40016282e-05, -2.95360019e-06,
          -2.12757877e-05, -1.75208752e-05, -4.32299112e-06,
          -2.02636838e-05, -2.01002476e-05, -1.97422582e-06,
          -1.70539024e-05, -1.89056900e-05, 3.53597585e-07,
          -1.60459567e-05, -1.79238959e-05, 1.18228809e-06,
          -1.23097607e-05, -1.63973400e-05, 5.19578953e-06,
          -5.31027263e-06, -9.27228120e-06, 8.72138844e-06,
          1.71442537e-06, -2.25706981e-06, 1.14295544e-05,
          2.92292316e-06, 4.81575398e-07, 1.11457539e-05, 6.89614444e-06,
          8.87899546e-07, 1.20080103e-05, 8.18822082e-06, 2.38393613e-06,
          1.40892444e-05, 1.07688056e-05, 7.08802872e-06, 1.53631754e-05,
          1.31991646e-05, 8.34597267e-06, 1.38061259e-05, 1.34455549e-05,
          8.17082309e-06, 1.39837184e-05, 1.32026362e-05, 8.50523975e-06,
          1.33600452e-05, 1.40438306e-05, 1.04396559e-05, 1.18743119e-05,
          1.19642546e-05, 9.20634648e-06, 9.14926659e-06, 1.05463778e-05,
          8.24929430e-06, 8.73014778e-06, 9.84870348e-06, 8.32848764e-06,
          7.54170242e-06, 1.14673085e-05, 8.95529774e-06, 9.65193067e-06,
          1.18650314e-05, 9.47242643e-06, 8.10180336e-06, 1.38055611e-05,
          1.02697977e-05, 8.48513355e-06, 1.54899299e-05, 1.18829012e-05,
          1.10179235e-05, 1.64600970e-05, 1.33211533e-05, 9.96664767e-06,
          1.78256778e-05, 1.38144324e-05, 1.11054251e-05, 1.71875872e-05,
          1.40617303e-05, 1.21589219e-05, 1.74973684e-05, 1.44824235e-05,
          6.04008528e-06, 8.82032418e-06, 1.00452035e-05, 7.59432214e-06,
          8.71953671e-06, 1.05294885e-05, 1.13059277e-05, 1.12153648e-05,
          1.29755745e-05, 8.53409347e-06, 8.46150760e-06, 1.01601527e-05,
          -2.67330734e-07, -7.22319601e-06, -4.33778814e-06,
          -1.38923751e-05, -2.04225871e-05, -1.57563882e-05,
          -1.74775359e-05, -2.90278731e-05, -2.56215935e-05,
          -1.76959511e-05, -3.19983446e-05, -2.58788768e-05,
          -3.45288527e-06, -3.49519541e-05, -2.48989199e-05,
          -5.03894125e-06, -3.63321233e-05, -2.63927595e-05,
          -9.17189300e-06, -3.72593895e-05, -2.34604231e-05,
          2.60496836e-06, -2.31438135e-05, -1.13304532e-05,
          1.27795474e-05, 2.45048705e-06, 1.24048775e-05, 1.66655809e-05,
          1.06003190e-05, 1.92077805e-05, 5.54379540e-06,
          -4.74407079e-06, -2.06998175e-06, -1.52992959e-06,
          -1.27713538e-05, -1.00972647e-05, -2.63736479e-06,
          -2.06888380e-05, -1.77117890e-05, -4.11472683e-06,
          -2.28734898e-05, -1.91528761e-05, -5.54608687e-06,
          -2.18137429e-05, -2.36253672e-05, -3.63649679e-06,
          -1.89596722e-05, -2.03553336e-05, -2.04664002e-06,
          -1.52071761e-05, -1.68450097e-05, 5.39454595e-06,
          -6.99445263e-06, -9.50021149e-06, 1.13224187e-05,
          3.24430880e-06, -3.24659965e-07, 1.31330307e-05,
          5.33378625e-06, 1.76481740e-06, 1.17535992e-05, 7.38367635e-06,
          2.52251971e-06, 1.44572368e-05, 1.02094164e-05, 5.08564426e-06,
          1.90204009e-05, 1.63337045e-05, 1.20227905e-05, 1.89145230e-05,
          1.66156206e-05, 1.20753675e-05, 1.65196234e-05, 1.60537966e-05,
          1.18043554e-05, 1.63590103e-05, 1.69687210e-05, 1.23154196e-05,
          1.50806045e-05, 1.55943417e-05, 1.27304065e-05, 1.26018131e-05,
          1.36872832e-05, 1.04465271e-05, 1.18544776e-05, 1.29081045e-05,
          1.10664269e-05, 1.15241774e-05, 1.21266521e-05, 9.78278786e-06,
          1.08157365e-05, 1.39582071e-05, 1.16005003e-05, 1.20285740e-05,
          1.53399087e-05, 1.24967073e-05, 1.04250839e-05, 1.64226749e-05,
          1.27295816e-05, 1.10579631e-05, 1.64982866e-05, 1.25722217e-05,
          1.03790126e-05, 1.69194045e-05, 1.33971298e-05, 1.00561037e-05,
          1.60236177e-05, 1.26047253e-05, 1.15807479e-05, 1.65303463e-05,
          1.46404136e-05, 1.28977090e-05, 1.77967850e-05, 1.62560427e-05,
          1.07088881e-05, 1.19077067e-05, 1.47831088e-05, 9.90087301e-06,
          1.07234491e-05, 1.48426861e-05, 1.24156040e-05, 1.17661875e-05,
          1.60194359e-05, 9.00363284e-06, 8.53389975e-06, 1.28742813e-05,
          1.66306938e-06, -6.41398537e-06, -1.01328419e-06,
          -1.44725564e-05, -2.18524747e-05, -1.68844690e-05,
          -2.19595895e-05, -3.47043897e-05, -3.19349856e-05,
          -2.09396258e-05, -3.47211535e-05, -2.98617579e-05,
          -6.58335148e-06, -3.74779993e-05, -2.78144671e-05,
          -9.90570970e-06, -3.83971710e-05, -3.11622825e-05,
          -4.45319074e-06, -3.09032621e-05, -1.88310860e-05,
          8.96059282e-06, -1.36519830e-05, -1.94713971e-06,
          1.28117590e-05, 4.97414158e-06, 1.39892163e-05, 1.48902045e-05,
          8.16763077e-06, 1.65794208e-05, 1.07608239e-05, 2.70884561e-06,
          3.16322735e-06, 4.56674297e-06, -4.43104182e-06,
          -3.97666008e-06, 1.94594600e-06, -1.46832635e-05,
          -1.35406317e-05, -2.81961047e-06, -1.92384705e-05,
          -1.80958377e-05, -5.56720533e-06, -2.58431428e-05,
          -2.59072713e-05, -3.53845462e-06, -2.41824455e-05,
          -2.38869343e-05, -8.87140231e-07, -1.53777091e-05,
          -1.95718385e-05, 5.69768918e-06, -9.89289856e-06,
          -1.29617674e-05, 7.11077882e-06, 5.02021635e-07,
          -3.91237654e-06, 7.22681989e-06, 6.18062359e-07,
          -3.98144402e-06, 7.58441865e-06, 2.64982123e-06,
          -1.67714973e-06, 9.59356112e-06, 4.75590650e-06,
          7.66064190e-08, 1.10005112e-05, 7.52383676e-06, 6.48804780e-06,
          9.62495778e-06, 6.11023643e-06, 5.57440217e-06, 6.90193383e-06,
          5.64012043e-06, 5.67405368e-06, 6.83954158e-06, 5.59310138e-06,
          6.04369234e-06, 4.78717448e-06, 4.08333335e-06, 5.58324518e-06,
          1.75734988e-06, 2.57661850e-06, 3.64805146e-06, 6.72964973e-07,
          7.95166159e-07, 4.28052635e-06, 1.11005946e-07, 1.79680137e-06,
          3.74029082e-06, 3.36094013e-06, 2.49532309e-06, 5.63426147e-06,
          3.39280200e-06, 3.05747767e-06, 6.20432093e-06,
          -6.26109582e-08, 3.32021887e-06, 6.40831558e-06,
          4.79347335e-08, 3.52734014e-06, 6.71372300e-06, 1.31691388e-06,
          3.81038762e-06, 7.52324240e-06, 8.77438879e-07, 3.33128150e-06,
          7.35528738e-06, 1.31885020e-06, 2.98836676e-06, 8.31375655e-06,
          9.52041489e-07, 2.08049210e-06, 8.64970571e-06, 2.59647936e-06,
          3.04856258e-06, 8.10195070e-06, 2.07916378e-06, 2.58021601e-06,
          8.25601728e-06, 2.38138591e-06, 2.14054717e-06, 7.26915869e-06,
          1.61568255e-06, 1.58370574e-06, 6.58292356e-06,
          -5.21056279e-07, -5.86354372e-06, 3.83156333e-07,
          -1.41210649e-05, -1.93816777e-05, -1.30545104e-05,
          -1.82168242e-05, -3.73829062e-05, -2.62699505e-05,
          -1.66293594e-05, -3.46886191e-05, -2.47061034e-05,
          -2.56295471e-06, -3.35665791e-05, -2.15029631e-05,
          4.97546580e-07, -2.92358382e-05, -1.72715227e-05,
          6.18951026e-06, -1.47139926e-05, -3.64007224e-06,
          7.87102999e-06, -1.54386623e-06, 1.04155333e-05,
          8.37167772e-06, 5.35433583e-06, 1.30130184e-05, 7.91754610e-06,
          4.92753361e-06, 1.34985494e-05, 1.43836814e-05, 7.09017104e-06,
          7.37000482e-06, 9.82846541e-06, 2.28169347e-06, 2.69576890e-06,
          8.25512507e-06, -4.98180316e-06, -3.61042999e-06,
          7.31567479e-06, -8.62611978e-06, -7.48281809e-06,
          5.77764195e-06, -1.27152753e-05, -1.40321627e-05,
          6.14214787e-06, -1.27661151e-05, -1.36034250e-05,
          8.42908594e-06, -5.41902818e-06, -9.86126452e-06,
          9.18085789e-06, -8.81969925e-07, -5.52673691e-06,
          8.39822314e-06, 1.92971197e-06, -3.03950083e-06,
          7.54504890e-06, 9.49718412e-07, -3.64978791e-06,
          7.61177307e-06, 2.65363519e-06, -1.76192270e-06,
          9.09028495e-06, 4.23534357e-06, -4.53817705e-07,
          9.32069452e-06, 5.75684317e-06, 3.67161192e-06, 8.94553705e-06,
          4.93216612e-06, 4.43372119e-06, 5.54737198e-06, 3.42454609e-06,
          4.34996855e-06, 5.61182378e-06, 3.68161432e-06, 5.33538059e-06,
          4.38205825e-06, 2.73196838e-06, 5.44424256e-06, 2.54941415e-06,
          7.55242866e-07, 3.62334981e-06, -5.32913873e-07,
          -2.04009325e-06, 2.41233602e-06, -2.80525182e-06,
          -3.44083833e-06, 7.68046391e-07, -1.22892595e-06,
          -3.33070579e-06, 2.12979694e-06, -2.25037297e-06,
          -3.83087490e-06, 2.40064765e-06, -4.75250181e-06,
          -3.30277840e-06, 2.53601524e-06, -5.12997940e-06,
          -3.61630828e-06, 2.31860668e-06, -2.56619614e-06,
          -1.66973234e-06, 4.62485741e-06, -1.60922650e-06,
          -7.57812757e-07, 5.40961719e-06, -9.32056025e-07,
          -4.93998755e-07, 6.24071254e-06, -1.37519680e-06,
          -8.83005043e-07, 6.06107460e-06, 2.45608874e-07,
          6.64132983e-07, 6.41839642e-06, -1.24423298e-06,
          -7.68533255e-07, 5.61488241e-06, -3.25984274e-07,
          -6.74613830e-07, 4.77207823e-06, 2.34499385e-06,
          2.10695407e-06, 7.15847409e-06, 5.88733656e-06, 1.20622281e-06,
          7.60529292e-06, -8.92164678e-07, -6.45349019e-06,
          1.08544853e-07, -1.14072589e-06, -1.92116750e-05,
          -9.22682466e-06, 5.06344691e-07, -1.75238038e-05,
          -7.55141446e-06, 6.22062680e-06, -1.88465747e-05,
          -6.52363633e-06, 3.97681788e-06, -1.22013034e-05,
          -4.54166269e-07, 4.61178706e-06, -3.53328369e-06,
          6.40828284e-06, 4.94102414e-06, -1.27929263e-06,
          8.19272555e-06, 4.21546838e-06, -2.77798023e-07,
          9.35472690e-06, 6.63490528e-06, 3.52852635e-06, 1.11362770e-05,
          7.30995953e-06, 4.31256922e-06, 2.63524430e-06, 5.00698343e-06,
          2.01800754e-06, 3.40682533e-07, 6.29079841e-06, 1.27858061e-06,
          -6.83093276e-07, 5.14693056e-06, 3.11406723e-07,
          -1.86903151e-06, 3.31040997e-06, -1.49353113e-07,
          -6.72031911e-06, 4.02876776e-06, 1.56788496e-06,
          -5.98513316e-06, 5.45208513e-06, 1.69164855e-06,
          -5.06510059e-06, 5.68232190e-06, 2.40890813e-06,
          -4.83486383e-06, 4.95168069e-06, 9.24958158e-07,
          -4.23005122e-06, 4.99969110e-06, 9.72968337e-07,
          -4.18204127e-06, 4.85275541e-06, 2.01810690e-06,
          -3.71570468e-06, 5.51839139e-06, 2.68374311e-06,
          -3.05006847e-06, 8.42924419e-06, 6.01036663e-06,
          2.28148565e-06, 8.70367148e-06, 5.97736607e-06, 2.64897562e-06,
          8.33353897e-06, 5.84093868e-06, 3.82345524e-06, 8.35573610e-06,
          5.67299185e-06, 3.86907732e-06, 7.55165638e-06, 2.99194267e-06,
          4.59677267e-06, 6.40821372e-06, 2.60413481e-06, 3.79359972e-06,
          6.50905258e-06, 1.28442025e-06, 4.60758201e-06, 6.07569336e-06,
          4.63224438e-07, 4.15388240e-06, 4.08953701e-06,
          -2.31672189e-07, 4.50111747e-06, 3.64292555e-06,
          -6.78283811e-07, 3.98462907e-06, 3.54628969e-06,
          -1.32336743e-06, 3.71342821e-06, 5.21758193e-06,
          9.45295966e-08, 5.31971864e-06, 5.98487941e-06, 2.47920184e-06,
          7.49477704e-06, 6.33995433e-06, 2.97377346e-06, 7.84657732e-06,
          6.85802934e-06, 3.84006125e-06, 8.88251634e-06, 6.80186849e-06,
          4.06927165e-06, 8.87894566e-06, 3.30474450e-06, 2.53100893e-06,
          6.49005278e-06, 2.93508378e-06, 2.25046688e-06, 6.14058899e-06,
          2.84465955e-06, 2.18149057e-06, 6.73393924e-06, 3.07608025e-06,
          2.47388834e-06, 6.95520384e-06, 5.40930387e-06, 2.48410697e-06,
          7.20569642e-06, 5.66056906e-06, 2.88698402e-06, 7.36932134e-06,
          3.60276886e-06, 2.50407470e-06, 7.74579621e-06, 2.29657871e-06,
          1.05309414e-06, 6.92641106e-06, 5.19906251e-08,
          -6.41188308e-07, 5.61877914e-06, 8.70139615e-07,
          1.39147588e-07, 6.61023796e-06, 3.52986774e-07,
          -5.09510016e-07, 6.73192972e-06, -1.29194450e-06,
          -2.88369824e-06, 4.98307099e-06, 5.26641145e-07,
          -2.72615830e-06, 6.00163958e-06, 1.51999086e-06,
          -1.49470986e-06, 7.08371863e-06 ]
   uncompressed_sv_total: 29
   uncompressed_support_vectors:
      - [ 198., 165., 119., 177., 144., 98., 153., 119., 70., 132., 98.,
          49., 90., 59., 8., 85., 54., 3., 97., 76., 14., 116., 95., 33.,
          141., 144., 66., 137., 140., 62., 111., 120., 45., 99., 108.,
          33., 79., 86., 22., 67., 74., 10., 50., 62., 4., 45., 57., 0.,
          41., 45., 4., 35., 39., 0., 29., 32., 0., 32., 35., 3., 37.,
          42., 0., 38., 43., 0., 42., 44., 3., 46., 48., 7., 53., 55.,
          14., 58., 60., 19., 72., 72., 22., 78., 78., 28., 83., 91.,
          24., 88., 96., 29., 98., 109., 33., 103., 114., 38., 106.,
          117., 41., 108., 119., 43., 122., 128., 42., 125., 131., 45.,
          135., 139., 37., 138., 142., 40., 152., 154., 31., 155., 157.,
          34., 159., 168., 26., 163., 172., 30., 194., 171., 116., 166.,
          143., 88., 123., 99., 40., 92., 68., 9., 89., 68., 1., 99.,
          78., 11., 119., 110., 27., 135., 126., 43., 147., 162., 60.,
          128., 143., 41., 83., 110., 0., 63., 90., 0., 42., 51., 9.,
          41., 50., 8., 27., 42., 6., 27., 42., 6., 27., 42., 19., 36.,
          51., 28., 34., 49., 45., 37., 52., 48., 41., 68., 30., 45.,
          72., 34., 57., 78., 38., 57., 78., 38., 57., 78., 36., 52.,
          73., 31., 58., 76., 21., 65., 83., 28., 81., 107., 21., 90.,
          116., 30., 101., 129., 23., 107., 135., 29., 113., 131., 35.,
          114., 132., 36., 129., 138., 35., 136., 145., 42., 148., 153.,
          23., 158., 163., 33., 169., 173., 25., 175., 179., 31., 186.,
          198., 27., 192., 204., 33., 195., 172., 117., 162., 139., 84.,
          110., 86., 27., 75., 51., 0., 99., 78., 11., 118., 97., 30.,
          135., 126., 43., 149., 140., 57., 119., 134., 32., 110., 125.,
          23., 79., 106., 0., 72., 99., 0., 55., 64., 22., 48., 57., 15.,
          35., 50., 14., 38., 53., 17., 54., 69., 46., 80., 95., 72.,
          99., 114., 110., 119., 134., 130., 150., 177., 139., 157.,
          184., 146., 172., 193., 153., 175., 196., 156., 174., 195.,
          153., 172., 193., 151., 165., 183., 128., 154., 172., 117.,
          91., 117., 31., 102., 128., 42., 109., 137., 31., 113., 141.,
          35., 117., 135., 39., 116., 134., 38., 131., 140., 37., 139.,
          148., 45., 149., 154., 24., 164., 169., 39., 179., 183., 35.,
          187., 191., 43., 201., 213., 42., 205., 217., 46., 155., 135.,
          77., 110., 90., 32., 88., 69., 2., 96., 77., 10., 115., 104.,
          20., 135., 124., 40., 138., 135., 47., 132., 129., 41., 95.,
          107., 28., 74., 86., 7., 50., 63., 0., 33., 46., 0., 47., 57.,
          17., 45., 55., 15., 79., 97., 72., 145., 163., 138., 188.,
          213., 187., 213., 255., 212., 229., 255., 255., 215., 255.,
          219., 198., 255., 205., 202., 255., 209., 188., 255., 203.,
          185., 255., 200., 186., 255., 200., 191., 255., 205., 255.,
          255., 203., 255., 255., 206., 184., 217., 127., 135., 168.,
          78., 111., 145., 22., 122., 156., 33., 128., 162., 5., 112.,
          146., 0., 144., 159., 23., 177., 192., 56., 192., 227., 7.,
          194., 229., 9., 208., 255., 24., 212., 255., 28., 218., 255.,
          47., 218., 255., 47., 110., 90., 32., 86., 66., 8., 96., 77.,
          10., 117., 98., 31., 135., 124., 40., 144., 133., 49., 132.,
          129., 41., 119., 116., 28., 81., 93., 14., 65., 77., 0., 46.,
          59., 0., 33., 46., 0., 32., 42., 2., 102., 112., 72., 155.,
          173., 148., 206., 224., 199., 227., 255., 226., 228., 255.,
          227., 226., 255., 230., 212., 255., 216., 216., 255., 223.,
          222., 255., 229., 201., 255., 216., 194., 255., 209., 187.,
          255., 201., 186., 255., 200., 255., 255., 197., 255., 255.,
          206., 213., 255., 156., 151., 184., 94., 114., 148., 25., 125.,
          159., 36., 142., 176., 19., 139., 173., 16., 168., 183., 47.,
          192., 207., 71., 208., 255., 23., 212., 255., 27., 218., 255.,
          34., 215., 255., 31., 219., 255., 48., 212., 230., 41., 80.,
          70., 4., 88., 78., 12., 111., 102., 26., 131., 122., 46., 140.,
          134., 49., 134., 128., 43., 115., 116., 30., 102., 103., 17.,
          68., 82., 12., 59., 73., 3., 40., 58., 3., 31., 49., 0., 37.,
          47., 16., 163., 173., 142., 229., 255., 255., 255., 255., 255.,
          220., 255., 255., 206., 255., 225., 202., 255., 229., 206.,
          255., 255., 206., 255., 255., 204., 255., 255., 203., 255.,
          225., 201., 255., 223., 193., 255., 208., 192., 255., 207.,
          216., 255., 203., 223., 255., 210., 255., 255., 189., 170.,
          201., 117., 118., 157., 19., 135., 174., 36., 179., 216., 30.,
          190., 227., 41., 211., 255., 48., 214., 255., 51., 216., 255.,
          44., 214., 255., 42., 215., 255., 41., 208., 255., 34., 201.,
          220., 40., 189., 208., 28., 88., 78., 12., 109., 99., 33.,
          131., 122., 46., 144., 135., 59., 134., 128., 43., 121., 115.,
          30., 102., 103., 17., 85., 86., 0., 62., 76., 6., 58., 72., 2.,
          39., 57., 2., 34., 52., 0., 47., 57., 26., 185., 195., 164.,
          255., 255., 255., 220., 255., 229., 214., 255., 255., 210.,
          255., 229., 211., 255., 255., 217., 255., 255., 212., 255.,
          255., 213., 255., 255., 214., 255., 255., 220., 255., 255.,
          221., 255., 255., 221., 255., 255., 255., 255., 226., 255.,
          255., 224., 255., 255., 185., 178., 209., 125., 141., 180.,
          42., 157., 196., 58., 198., 255., 49., 209., 255., 60., 218.,
          255., 55., 218., 255., 55., 215., 255., 43., 206., 255., 34.,
          201., 226., 27., 189., 214., 15., 179., 198., 18., 169., 188.,
          8., 108., 96., 30., 159., 147., 81., 175., 162., 91., 149.,
          136., 65., 112., 99., 28., 99., 86., 15., 83., 75., 9., 78.,
          70., 4., 60., 65., 14., 56., 61., 10., 42., 52., 12., 39., 49.,
          9., 60., 69., 40., 188., 197., 168., 255., 255., 255., 220.,
          255., 225., 211., 255., 226., 195., 255., 210., 174., 204.,
          182., 172., 202., 180., 194., 225., 180., 202., 255., 188.,
          208., 255., 179., 220., 255., 191., 221., 255., 188., 229.,
          255., 196., 255., 255., 191., 255., 255., 181., 218., 255.,
          119., 196., 255., 97., 192., 230., 54., 200., 255., 62., 222.,
          255., 50., 219., 255., 47., 216., 255., 50., 211., 230., 45.,
          203., 222., 42., 189., 208., 28., 175., 196., 24., 165., 186.,
          14., 156., 170., 18., 153., 167., 15., 135., 123., 57., 159.,
          147., 81., 158., 145., 74., 140., 127., 56., 99., 86., 15.,
          89., 76., 5., 73., 65., 0., 66., 58., 0., 53., 58., 7., 55.,
          60., 9., 45., 55., 15., 42., 52., 12., 59., 68., 39., 172.,
          181., 152., 227., 255., 255., 222., 255., 227., 221., 255.,
          255., 200., 255., 215., 140., 170., 148., 82., 112., 90., 134.,
          165., 120., 141., 172., 127., 140., 165., 111., 150., 175.,
          121., 150., 191., 117., 164., 205., 131., 183., 212., 133.,
          196., 225., 146., 195., 255., 96., 195., 255., 96., 207., 255.,
          69., 208., 255., 70., 212., 255., 40., 199., 227., 27., 196.,
          215., 30., 191., 210., 25., 183., 202., 22., 169., 188., 8.,
          157., 178., 6., 153., 174., 2., 149., 163., 11., 148., 162.,
          10., 161., 151., 90., 137., 127., 66., 113., 103., 42., 111.,
          101., 40., 85., 78., 16., 71., 64., 2., 65., 52., 0., 60., 47.,
          0., 52., 54., 4., 53., 55., 5., 52., 56., 22., 52., 56., 22.,
          57., 63., 35., 149., 155., 127., 255., 255., 229., 255., 255.,
          255., 255., 255., 255., 226., 255., 227., 170., 177., 170.,
          85., 92., 85., 96., 118., 30., 115., 137., 49., 135., 156.,
          59., 138., 159., 62., 141., 186., 66., 148., 193., 73., 173.,
          213., 86., 189., 229., 102., 184., 255., 36., 195., 255., 47.,
          207., 255., 36., 194., 255., 23., 185., 209., 14., 172., 196.,
          1., 161., 178., 25., 156., 173., 20., 155., 179., 6., 151.,
          175., 2., 143., 164., 11., 141., 162., 9., 140., 155., 19.,
          140., 155., 19., 173., 163., 102., 123., 113., 52., 93., 83.,
          22., 100., 90., 29., 71., 64., 2., 61., 54., 0., 54., 41., 0.,
          52., 39., 0., 51., 53., 3., 52., 54., 4., 51., 55., 21., 51.,
          55., 21., 66., 72., 44., 130., 136., 108., 219., 255., 209.,
          255., 255., 255., 255., 255., 255., 255., 255., 255., 202.,
          209., 202., 124., 131., 124., 107., 129., 41., 115., 137., 49.,
          133., 154., 57., 141., 162., 65., 154., 199., 79., 166., 211.,
          91., 194., 255., 107., 189., 229., 102., 196., 255., 48., 193.,
          255., 45., 193., 255., 22., 174., 226., 3., 167., 191., 0.,
          169., 193., 0., 148., 165., 12., 145., 162., 9., 144., 168.,
          0., 147., 171., 0., 141., 162., 9., 140., 161., 8., 137., 152.,
          16., 137., 152., 16., 117., 117., 61., 97., 97., 41., 72., 73.,
          21., 72., 73., 21., 41., 46., 0., 41., 46., 0., 53., 52., 7.,
          59., 58., 13., 50., 85., 28., 63., 98., 41., 63., 124., 71.,
          80., 141., 88., 126., 189., 102., 122., 185., 98., 204., 255.,
          184., 255., 255., 255., 255., 255., 230., 255., 255., 209.,
          222., 220., 150., 155., 153., 83., 141., 165., 0., 149., 173.,
          0., 176., 190., 18., 190., 204., 32., 189., 230., 51., 196.,
          255., 58., 202., 255., 67., 204., 255., 69., 212., 255., 82.,
          191., 225., 61., 168., 201., 41., 155., 188., 28., 152., 181.,
          26., 152., 181., 26., 146., 173., 30., 136., 163., 20., 133.,
          158., 22., 133., 158., 22., 127., 151., 23., 127., 151., 23.,
          126., 145., 26., 122., 141., 22., 106., 106., 50., 83., 83.,
          27., 64., 65., 13., 59., 60., 8., 53., 58., 7., 55., 60., 9.,
          73., 72., 27., 73., 72., 27., 76., 111., 54., 101., 136., 79.,
          111., 172., 119., 132., 193., 140., 128., 191., 104., 114.,
          177., 90., 175., 216., 155., 217., 255., 197., 255., 255.,
          208., 255., 255., 210., 255., 255., 166., 183., 181., 111.,
          181., 205., 32., 193., 217., 44., 214., 228., 56., 216., 230.,
          58., 194., 255., 56., 191., 255., 53., 198., 255., 63., 204.,
          255., 69., 218., 255., 88., 205., 255., 75., 188., 221., 61.,
          175., 208., 48., 165., 194., 39., 152., 181., 26., 148., 175.,
          32., 137., 164., 21., 134., 159., 23., 132., 157., 21., 127.,
          151., 23., 125., 149., 21., 123., 142., 23., 119., 138., 19.,
          83., 88., 37., 62., 67., 16., 46., 52., 11., 44., 50., 9., 53.,
          66., 25., 65., 78., 37., 72., 100., 59., 80., 108., 67., 93.,
          169., 100., 133., 209., 140., 132., 255., 162., 138., 255.,
          168., 121., 216., 101., 84., 179., 64., 84., 156., 65., 88.,
          160., 69., 116., 151., 61., 134., 169., 79., 164., 188., 73.,
          140., 164., 49., 214., 219., 34., 228., 255., 48., 225., 255.,
          55., 216., 230., 46., 184., 218., 35., 178., 212., 29., 183.,
